437 100
plane 0.284479 1.358498 -0.708031 0.099615 -0.80951 -1.001611 -0.537849 -0.261144 -0.817617 -0.85518 -3.076485 -0.826134 -0.791572 -1.430728 0.610394 0.97752 -3.506042 0.829134 -1.673825 -0.895382 0.376092 0.393809 2.388243 -3.292141 -3.130275 -3.873933 1.922081 1.069574 -0.380903 3.131719 0.85246 1.419031 2.489457 -1.140962 1.017657 -2.956897 -1.189268 3.134583 1.664431 0.800035 2.780799 1.342033 1.73446 0.720227 0.479403 -0.103795 0.111142 0.321004 0.737193 -1.212289 -0.960075 -0.581291 -1.175997 0.183494 0.811697 -0.932851 -1.0341 0.480434 2.39575 -1.39023 -0.096755 -3.485698 -3.392986 0.81341 0.278979 -0.394651 -2.487487 -3.2146 -0.865479 0.668652 -0.204913 3.657412 3.756599 3.064353 1.104246 0.240817 1.735194 0.217283 0.859653 -1.533445 -0.990587 -0.238049 0.424292 -0.642822 -1.853928 0.21883 -0.281684 -0.571389 1.111373 -1.279425 -3.222372 0.130629 0.124032 0.059947 0.298969 -1.756409 0.169047 1.673844 0.31155 -1.781496
stupid 1.726933 -2.385994 -0.370327 -0.653758 -1.502211 -0.845096 -0.783197 -0.240286 -1.322024 2.011348 -0.607043 -1.840065 0.499682 1.848853 -1.237356 -0.548621 3.404312 -0.492428 -1.713061 -2.10904 0.88011 -0.944795 0.419604 0.224418 -0.151257 0.064692 -0.787129 1.803323 -0.918952 1.282502 -1.705063 -0.527338 0.343997 -2.302119 0.24153 -1.675204 0.554922 1.442455 -0.504588 2.756542 -1.925363 -0.503097 -1.065438 0.450551 -0.953647 0.745647 1.43398 2.311092 -3.328348 0.251688 -0.010281 0.232699 -2.536275 -0.690537 1.781379 -0.212875 -0.474707 -0.746958 -2.591954 -2.268015 0.658172 -0.540484 0.604449 1.015908 -0.363318 -2.198995 -1.386528 1.5927 -0.795905 0.377894 0.689388 0.050034 1.420271 -2.97918 -3.057544 -0.636517 -0.590721 1.191911 -0.755132 -1.93621 -1.556805 0.739769 -0.359121 0.476021 0.342945 1.598306 0.376481 0.695787 -0.002763 -0.373675 -0.588045 1.036539 -0.871024 0.41187 -0.168082 0.21533 -1.27475 -0.010249 0.984653 0.607785
egg -2.253537 0.040144 0.356345 -0.044261 -1.090961 -1.567902 -0.884447 -0.319868 -0.92056 0.998852 0.936577 0.576986 1.279339 0.531368 -0.768253 1.071838 -2.364652 0.924807 -2.969773 0.097548 -0.230248 -2.120954 0.127542 2.361586 -0.558528 -0.660533 2.008233 -3.56629 -1.127612 0.960534 1.042759 -0.820882 1.257516 -0.437032 1.403199 1.603282 -1.687321 -0.592888 -2.798983 1.487106 1.413527 -0.318935 -0.389346 -0.479166 -0.600956 0.199374 -1.518015 1.347855 -0.339 -1.225429 -0.115839 1.373149 -0.525179 0.57432 1.298878 -1.048394 -1.529827 -2.873627 1.668371 1.236493 2.465975 -0.570234 -1.464993 -0.906298 1.460972 -0.955533 -1.141063 -1.871715 0.573277 -1.561039 -1.11451 1.021004 -0.118909 0.187962 -1.129821 1.837525 1.56855 0.082769 2.525078 -1.564175 -0.754593 -0.020845 1.023065 3.006356 1.442409 -0.303298 0.440245 -1.034972 -0.832945 -1.184263 0.500587 0.357339 -3.722447 -0.027299 0.672936 -1.558592 0.757595 0.614919 1.872494 1.365608
year 0.291424 -0.839043 -2.40548 -2.758067 1.485998 1.719821 -1.890241 1.205226 -0.596335 -5.424806 0.1328 -1.400699 2.586359 -1.963259 4.148839 -3.512709 -2.480768 1.287907 0.564048 0.803102 -1.07898 -2.080549 3.032847 -0.400211 -1.066766 -0.231892 0.845764 -4.211609 -1.66209 2.68367 3.556798 2.118433 1.562065 -2.6509 -2.174648 0.694512 1.903102 -6.697683 -4.414195 -0.673254 1.211221 -2.241843 -2.797037 4.357962 6.775283 0.39539 -1.512282 0.085805 -3.424194 -5.233087 -1.222541 -3.120712 -2.404755 0.83451 -4.080695 -3.27904 -2.558224 0.402721 0.044362 -4.370609 -2.381573 3.145951 -2.733152 1.431927 2.814671 -1.359571 -0.133854 -0.948098 2.185375 -4.226357 -0.898645 4.041536 3.017601 -4.676987 1.678291 2.592341 -1.226108 -2.81176 1.595064 0.789098 -1.097244 1.094733 -0.690008 -2.995355 -5.216689 -2.110438 -1.369858 0.663476 4.142361 0.448223 1.363334 0.684088 -3.519963 5.247088 -2.340972 -2.467125 4.177775 -5.691043 -2.20619 -1.173048
psychiatry -0.181377 -1.40744 1.207239 0.685929 0.302676 -0.492417 0.206643 -0.599723 0.447624 -0.873831 0.93943 -0.024314 1.331975 0.465707 -0.610821 -0.434229 0.59043 -0.064909 0.882756 1.294797 0.535878 -1.720541 0.737025 -1.827469 0.586648 -1.782074 0.225703 -1.487485 0.256946 1.349089 -0.358647 0.237509 -0.311767 2.973276 -0.748023 1.310742 -2.208713 -0.062413 -0.53156 -0.958543 -0.815049 2.393954 -1.993769 -0.162542 -1.904627 -1.436023 0.372999 -0.042702 1.139149 -0.756775 3.364007 -1.284752 0.087151 0.625632 0.402322 1.366827 -1.899543 -2.030278 -2.442257 1.778484 -0.107639 0.297595 1.031921 0.269794 0.90137 0.629048 -2.059181 -0.578497 3.26794 1.953338 -3.094895 0.367535 1.7739 -0.0077 -1.195256 -1.842357 -0.904961 -0.687205 -1.203384 -1.486191 -1.397303 -2.67982 1.742281 0.494186 1.313158 -0.466654 -0.991794 2.180406 -1.399605 -2.298277 -0.283018 -0.929918 -0.534166 0.060102 -0.60453 1.025384 -1.756245 -2.146297 -0.615527 -0.604561
asylum -0.834527 1.783712 4.304539 0.448827 0.354391 -1.025417 1.25453 -0.350759 -0.640758 2.394714 1.38077 1.677659 -0.275825 0.823606 1.134811 0.712451 -2.098351 3.45651 -3.275761 -1.115003 0.655965 -0.414432 -0.042332 0.346046 -0.720829 -4.26992 -0.264651 1.042675 -0.780393 1.719236 -1.256698 1.185737 0.719252 -1.748111 -0.346401 1.831438 0.862275 -0.744653 -2.087529 -0.231134 2.57414 -0.583549 -1.05734 -0.471625 1.009572 0.637552 1.551904 3.892912 2.507513 -1.345731 0.745526 -0.517784 1.475105 1.845742 0.191179 -0.739766 0.187914 4.003003 3.418553 -1.000584 -3.875799 2.409177 0.341594 0.01127 0.993119 1.081215 -0.752376 2.231488 -3.053588 -0.721805 -6.21519 2.075161 -0.393343 3.359078 -1.700721 -1.419809 0.638603 1.801187 0.376889 -0.717147 -2.331262 -0.405995 -0.338896 3.199981 -0.609707 0.355881 1.724271 -0.146172 -0.246283 0.334385 1.396536 -1.038274 -2.359664 -1.925422 0.143 0.74338 -0.297665 -1.991478 1.689545 -0.8444
manslaughter -0.775946 0.98735 -0.297007 2.712324 2.067185 2.760416 2.85007 -3.174139 2.588002 4.488099 -0.577051 -0.836946 1.326746 -0.731968 0.839607 -0.421831 -0.23218 1.722146 0.020282 -0.158916 0.955911 -4.138909 -0.253187 0.163657 0.271742 -0.126299 -1.70006 0.47123 1.123773 0.74065 2.206104 0.153325 -0.363496 1.120234 -0.920934 1.686124 -2.940305 -0.139091 2.174652 -0.635133 2.561218 0.364494 -0.848802 -2.684 1.715167 0.97063 2.683629 3.102994 1.249678 -4.055996 1.400445 -1.805591 -1.439754 0.485396 -0.714907 -1.130985 -0.07594 -1.884732 -0.270271 -1.791986 1.039238 -0.624659 -1.155364 -0.304657 -2.335591 -0.892858 -1.89205 0.993896 -2.982601 1.943581 -1.206258 0.105779 -1.595586 1.608631 0.576367 -0.215537 0.394143 2.709673 -2.852794 -1.904825 -2.053808 -3.932854 1.610691 2.869645 -1.44301 1.775227 1.857915 -3.018332 0.289275 -1.21694 -3.04598 0.71741 -1.385918 1.195203 -0.626435 -2.771904 0.914326 -4.366248 -3.13372 0.742668
music -3.202261 -0.940885 -2.151709 0.247064 -2.694342 -0.630149 1.13883 0.720095 1.574034 -0.779761 1.305545 1.734407 -2.010994 -0.570879 2.61747 -0.203311 -1.26736 0.367002 1.532053 0.582512 -0.029803 -0.919801 -0.619116 -1.43723 1.633118 -0.434448 -2.505001 -0.305293 -3.307141 -1.40472 -1.076266 -0.671998 1.663414 -1.842248 -0.026031 -0.095591 -0.928424 -0.090882 -0.058702 -0.380868 0.016657 1.908052 -1.482365 -0.651021 0.586764 0.95083 1.976514 0.322196 -0.893057 -0.14615 0.403132 0.684754 0.710952 0.786536 1.899803 0.115049 -1.115772 0.239957 -2.445105 -0.688043 -0.487873 -1.035024 0.505309 0.397277 2.381405 1.36488 0.479948 -0.994128 0.1281 0.366949 0.980721 -0.922068 -1.117585 -0.240926 -0.857057 -0.639959 1.291389 0.017916 1.355346 -1.165547 -1.02948 1.492869 -0.138643 1.493096 0.623447 -2.227947 1.9476 0.724768 0.12752 -0.097623 -0.690119 1.403202 -2.37342 0.123665 -1.146252 -1.279426 1.131973 1.11658 -1.336733 1.035661
record 1.028008 0.474187 0.231036 -0.422878 1.395263 0.392921 -1.730587 0.457659 0.53604 0.458271 2.815609 2.671988 -1.42976 -0.478221 0.687674 -0.58519 -0.779397 0.335596 -1.807795 -0.233263 0.779284 0.175715 2.039094 -0.711155 1.092439 0.007047 0.32045 -3.532736 -1.198025 -1.786098 0.294495 -0.69362 -1.214123 -2.749803 0.115026 -0.222046 -0.956661 -1.241024 3.123038 -0.04448 0.746913 -2.050459 -1.226883 0.21434 1.583014 1.126519 0.91492 0.673661 -0.106587 -1.090409 -0.081273 -2.014677 0.055973 -0.559523 -1.985601 -0.565527 -0.531656 0.751853 -0.219045 -0.171613 -0.60562 0.386358 1.21055 -3.022318 2.790061 1.416042 -0.443656 -1.829102 -1.041746 -1.378629 -0.565604 1.379269 -0.889185 1.783799 1.687688 -2.106307 0.639874 -1.462097 3.118718 -0.503646 -0.184895 2.84956 -0.790056 -0.226346 1.116521 0.843122 0.827855 -0.478759 1.808532 -0.626355 -0.541301 0.500214 -0.068922 0.013176 -1.079499 -0.490599 -0.402954 -0.691505 -1.582166 -0.683688
energy 0.162237 1.327 0.024485 -0.425099 0.112296 -1.648264 -1.468868 -1.627449 -1.85774 -1.016271 0.08873 2.024746 -2.483614 -0.046584 3.113652 -0.562495 -0.893113 1.575119 0.275755 -2.46277 -1.752545 1.115591 1.001581 2.948964 -1.690332 -1.202119 0.49842 2.327722 -1.223056 -0.167812 0.672739 0.821942 0.707568 -1.287739 1.327394 -0.003017 2.242082 -0.012758 -1.488231 0.147813 2.331806 0.291379 -1.522133 1.471933 0.542548 -1.152106 1.32623 1.528169 1.122847 -1.856156 -0.063971 0.463647 2.523287 -1.203119 1.568618 -0.826905 -1.126528 -2.151513 -1.252334 1.995557 1.508922 -0.857837 1.673806 -0.062444 4.519307 -0.152651 1.777657 -1.198911 2.291626 -1.522128 -1.163706 -0.303884 -2.248193 0.679256 -2.284827 -1.005647 1.420387 1.377768 2.342716 3.83103 -2.16717 0.2319 0.356486 2.777823 -0.672856 0.78634 -0.065337 -0.373604 1.679731 0.223236 1.783302 1.670841 1.90798 2.493789 -0.713656 -1.086223 -0.972345 -0.246455 1.180958 0.024144
announcement -0.041003 -0.863897 -3.123704 -2.853862 -0.703614 -0.244025 -1.171957 -2.538112 0.645773 1.649725 0.189931 0.200328 -1.655903 -2.279169 -2.319938 0.577257 -0.146879 0.397754 -2.812008 0.707968 -2.506211 0.068857 -1.531002 -0.878319 0.390765 -1.506353 2.221877 -1.299831 -0.575888 3.300397 -0.28557 -1.332347 0.658136 -1.401791 -1.311505 -1.369884 1.49071 -2.534512 1.359069 2.216485 1.190435 0.602403 0.108161 0.230712 1.62832 -0.273062 -2.086097 -2.893635 0.489897 0.380133 1.506233 -0.329097 -0.141645 -2.822505 -0.128764 -2.741826 -1.721771 -1.141264 5.103878 -0.187544 -3.30351 -0.060875 -2.222596 -3.139707 1.411341 1.740098 -2.311836 -0.243844 -1.160541 0.836006 -1.28343 0.681864 -4.257487 2.961014 1.655732 -1.349361 0.396764 2.42785 2.199477 -1.916746 0.638255 -3.362951 -3.545451 0.053221 -3.360387 -1.508257 -0.763654 -0.317325 0.152839 1.589077 -1.559857 0.645228 0.808735 3.860231 -1.142138 -0.421165 -1.565535 -0.516837 0.671785 -0.79141
mile -1.907476 2.468177 -2.680737 1.144242 -1.27543 1.265221 0.08971 0.17872 -1.887023 -2.236954 1.075178 -2.802998 2.278183 0.10441 0.090415 0.004764 -0.75775 2.429687 1.299038 -3.573501 0.795306 -0.910529 1.36234 -1.757414 -2.990327 -2.181257 1.111136 -0.421377 -1.081374 0.364224 1.692689 -0.393474 2.612274 0.978732 -2.546182 -0.745176 -2.680588 0.038949 3.345764 -0.293339 0.18562 0.514681 2.272858 1.513118 2.586661 -1.237649 0.393542 0.500887 -0.188631 -1.233042 -4.625902 2.643118 -1.320001 -3.708224 -1.261543 -1.838351 1.162206 -2.544778 0.934096 0.179526 0.868342 0.081052 -1.333613 -0.307251 0.874232 0.231114 -0.934061 -1.943434 1.696604 -1.36795 1.048644 4.965269 1.053487 -2.243498 -1.4686 -0.689588 0.481332 -4.868835 0.233682 3.371738 -1.438647 -1.050565 -0.735139 0.332557 0.411452 1.482245 1.016497 0.367337 3.451416 0.738758 -1.377188 0.190141 -3.443547 -1.021043 1.706799 -0.445824 -0.094106 -0.729281 -0.02594 -3.536133
airport -0.161685 2.215381 -0.123196 0.573447 -0.073447 -1.580243 -0.851477 -1.323596 -1.868814 -1.883186 -0.851968 2.309897 0.531596 -3.162387 1.756116 0.071272 -0.194708 0.827265 -0.865392 -0.681393 -0.656638 1.059751 1.742757 -1.70126 -2.905726 -3.780711 0.328212 2.95412 -0.044617 3.180335 0.401509 2.542748 2.064777 -0.191761 -2.246149 -0.95286 -3.454343 2.656864 2.896118 0.523346 0.325506 3.342862 1.073517 -1.268766 0.034222 0.970125 1.173738 -1.066311 1.993353 0.242019 -0.618113 -0.02007 -0.498829 1.810755 -0.189242 -1.347872 0.555747 0.062142 3.967351 -0.438525 -2.226152 -2.128123 -0.852587 3.218855 -0.654064 -1.644138 -1.186068 -1.445922 1.463505 -1.45018 -1.094067 2.205096 -0.858602 2.260942 0.827012 -0.969645 -0.281488 1.175627 0.898655 -1.065956 -0.34701 -0.546144 -0.367664 0.607685 -1.840327 -0.055703 -2.689024 -2.44509 1.67853 -0.881626 -0.076609 0.94155 -1.371116 -0.686823 -1.161681 -2.023035 -0.889126 0.069513 0.444284 -0.674713
population 1.270198 0.549659 -0.384706 2.968342 0.370161 -2.852539 0.390353 -1.312961 1.527711 -2.37989 -1.172999 1.665882 2.552806 0.176834 1.867907 -2.441841 -2.262462 0.408635 -2.573136 -1.425152 -0.976896 1.09461 0.167269 3.55579 -0.855776 3.016683 -0.07934 0.862453 -0.949737 -1.229827 -0.300574 0.193456 0.099546 1.436046 -1.277681 -0.173429 -3.460738 -1.518414 1.993738 2.328994 3.060086 0.061011 0.063959 2.143729 2.06709 -0.559388 -0.639502 3.172692 -0.865885 -2.904091 0.826559 1.516683 2.166113 1.543297 -0.116212 -2.675702 -1.777535 3.045087 -1.553693 0.204419 -2.390447 -1.589305 0.082584 -2.359508 0.722037 1.52578 1.651993 -0.587861 4.959261 -3.273402 -1.488377 2.299569 1.924874 1.159239 -3.57433 -0.36176 1.58293 -0.2385 -0.420966 -0.686454 -2.062597 1.069051 1.388664 1.215844 0.931941 -1.332611 1.648532 -2.331298 -0.237794 0.212743 -1.857978 0.061443 -2.004168 2.082273 2.138335 -1.944906 0.239146 -0.173872 0.778287 -4.448514
planning 0.171445 -0.169125 -1.142798 0.651525 0.902453 0.433978 -0.08368 -0.420548 -1.010081 -1.125543 -1.100363 -0.357463 -0.754486 -1.755774 0.489404 0.629914 0.444548 2.24316 0.065498 -0.152274 0.321408 -2.652704 -0.452391 0.943445 0.961716 -0.465211 0.187881 2.906129 2.515888 0.449138 0.614007 -0.32812 1.434823 1.070232 -1.109379 -2.243629 1.144987 0.905271 -1.940711 0.612945 1.458961 -2.094594 2.366234 -2.351716 0.515387 2.243848 0.776129 1.233285 -0.72908 1.121426 0.044141 6.61E-4 1.197934 3.757598 1.256532 -0.097619 -1.083521 -1.705362 1.525845 -1.078358 0.587495 -0.99815 2.13214 1.646908 1.831068 -1.666166 -0.261586 2.10081 0.227245 0.669238 0.782753 -2.339599 0.469642 -0.064145 1.747826 -0.645 -0.770285 1.110747 -0.588512 1.966861 0.111319 0.118687 -1.643988 1.767077 -3.037125 0.275036 0.056151 0.841368 1.027367 1.060337 1.149377 0.212362 -0.961051 0.509249 -0.527062 -0.773012 -2.916712 0.121293 0.365926 -0.736992
canyon -0.319921 1.858028 -1.211883 -0.499995 1.305192 -0.817523 -0.530941 -0.532149 -0.389659 -0.947462 0.520961 1.38934 0.555917 0.250635 -0.570295 0.919634 -2.272291 -0.686237 -0.251482 0.033268 -0.857155 -0.993751 1.223221 0.07137 1.034011 -0.792146 -0.23793 -1.467438 1.088336 1.224299 0.670599 0.325309 1.904213 0.296476 -0.208925 -2.597531 -2.723144 1.417433 1.947577 1.065162 0.170317 1.67288 0.635813 2.180963 -0.911289 -0.942144 0.488569 0.305817 -0.111849 -0.047897 -1.973925 1.566639 -0.515324 -2.441835 0.802743 -2.020468 -0.063584 -0.645662 0.176805 -1.723218 0.479657 -1.438933 -0.733712 0.323094 0.037534 0.144631 0.87129 -2.202701 0.569625 -0.858491 -0.147941 2.200614 0.51866 0.259257 -0.630327 1.089629 -0.671764 -1.977884 -0.910463 0.178447 -0.646739 0.290283 1.869445 0.166728 -0.736656 -1.453482 -0.628743 -0.619335 -0.290614 1.455388 -0.375552 -0.122547 -1.67644 -1.718615 -1.118849 -0.42018 -0.759872 2.14056 -0.014824 -2.666521
delay -0.629288 0.674613 -1.329893 -3.017763 1.402624 -1.522792 0.28804 -1.853754 1.189533 1.030493 0.036185 -2.407387 0.987724 1.55682 -1.831519 -0.887899 -1.29776 1.8373 -0.900247 -0.967787 -1.071609 1.485667 -0.280688 -1.129784 2.329402 -3.181693 -0.047332 0.698353 1.096741 0.201476 1.052722 0.301982 0.496384 -0.796497 0.473495 -1.192723 1.495097 0.069892 1.850241 1.484673 0.156223 -0.874089 -2.634348 -3.017442 1.381739 0.388373 0.003309 -0.118994 1.4254 -4.284298 1.470737 -1.078144 -0.011596 -0.926779 -0.205628 -2.091651 0.934704 0.013223 3.668529 -0.545387 -0.854457 1.302921 -0.716372 0.560919 0.743437 1.146153 -2.163309 0.457605 -1.488143 0.893359 -0.600723 -1.626745 -1.047109 1.016926 -1.271933 0.168876 0.563018 0.007486 1.540705 0.303317 -2.336741 -1.796883 -1.915807 0.559175 -0.903527 0.756705 -1.616239 -1.378723 0.368809 -0.259964 -0.418374 -1.418671 2.055986 1.247285 -1.406472 -0.841294 -0.590096 0.202722 0.294867 -0.966999
size -1.242281 -0.652355 -0.839944 2.173717 0.922995 -2.260603 -0.454743 1.115356 1.688659 0.710608 0.987052 -1.36833 1.825737 1.103308 -2.250542 -2.092026 -1.655319 0.367086 0.135573 -0.455967 -0.071568 -0.521349 1.268265 1.590225 1.54061 -0.745491 0.93942 1.617797 -0.655785 -1.757982 2.490051 1.390372 -0.200168 0.542912 -1.715121 -0.849751 -2.163772 -0.808858 1.296717 0.913836 0.244588 -1.203372 -0.73643 1.382003 0.696857 0.490937 0.837744 -2.028554 -0.003668 -1.850489 -1.446976 0.412631 0.253346 -0.740031 -0.519694 -1.020317 -1.953633 -0.247713 -1.889636 1.003583 2.026982 -3.011742 0.495114 -3.083641 1.370273 -0.666617 1.394794 -1.952386 2.086335 0.035186 0.763467 1.88568 0.7501 -0.274738 -0.993428 -1.759514 1.238621 0.387812 0.043651 0.435762 -1.61843 -0.913451 0.116289 -0.118739 -1.279914 -0.638592 0.303042 -0.58221 -0.314632 -0.15216 0.662122 0.971418 -0.72618 1.23813 0.674345 -1.903055 -0.771181 -0.238591 -0.93162 -1.644684
peace 0.150186 4.043674 2.006957 -3.670701 0.681228 0.937884 -0.733815 -0.220722 -1.787955 -1.031165 -1.663934 0.822284 0.381588 -2.890209 -0.009263 2.496625 -0.301686 1.330599 0.453831 1.536027 -0.935412 0.271964 -3.414639 1.454905 2.780546 -1.991089 -1.24906 0.483302 -1.734209 -1.356863 0.500374 -2.409819 -1.354098 -2.560051 -2.932158 -0.350277 3.496319 2.776082 0.572608 2.17373 4.192488 -1.340039 -2.408048 1.284431 0.622503 0.813632 2.777069 2.247171 1.752143 -0.306642 2.187277 4.164912 0.863327 1.723058 1.66753 -0.664724 -0.044982 1.118338 1.738313 -0.691285 -1.841885 0.353489 -0.606934 -0.122314 3.462054 0.459613 -0.278193 3.062005 -1.143579 -0.577172 -1.878164 0.261974 -2.087361 -0.066811 -2.630002 0.672474 -1.60181 0.06823 0.048842 1.263197 -3.885097 -0.617853 2.204041 2.722811 0.296735 -1.729785 0.872609 0.552503 0.805002 0.686806 0.677529 1.474047 -0.09552 2.020379 -0.738555 0.948915 0.638475 -2.998315 -0.111642 -2.593819
science -0.494851 -0.69901 -1.401728 -0.938132 -1.04362 -2.129094 -0.80998 -0.555711 -0.925685 -2.523015 0.810533 1.397974 -1.785717 -0.379809 1.293426 -0.222126 0.91502 0.373913 0.382389 -0.236247 -2.246337 -1.052753 0.504082 -0.845033 0.27855 -1.60317 -0.337389 -0.347881 1.154815 -1.547817 0.219139 0.409815 -1.115497 1.322435 1.216192 0.213009 0.398159 1.056255 -0.217717 -0.458533 1.651645 1.274538 -2.781378 0.874536 -0.609376 -1.11376 1.026193 1.730197 -0.664341 -1.799705 1.979501 0.928657 -0.697701 0.884534 2.11055 0.594815 -1.318898 -0.995215 -2.373355 0.310188 0.738449 -0.994902 1.351519 -1.657545 1.715408 0.425206 0.426647 -0.533004 2.607458 2.071206 -2.141712 -0.844079 0.858141 -1.866125 -0.552235 -2.185588 -0.460566 1.178379 0.37768 0.783068 0.045887 -0.54137 -0.208902 2.369851 1.210902 -2.109524 1.740746 2.054702 -1.066707 -1.036264 -0.407848 -0.26837 -0.871002 -1.517852 -0.193133 1.434102 -1.893591 -0.69031 -0.244985 -0.237567
dawn -2.073987 2.548449 -0.393701 -1.954341 -1.446361 -0.06346 -0.865894 -2.186305 -0.973675 0.087408 0.591684 0.660244 -1.14947 -2.658387 0.553027 2.524733 -0.602174 -2.120875 0.397363 -0.494271 -1.405331 -2.976926 1.003708 -3.568887 1.035633 -1.908416 -2.179297 -0.570643 -2.552062 1.74615 0.456159 2.458939 -0.852188 1.00589 -0.839629 -2.022517 -0.802324 0.052609 2.495697 0.188468 -0.643937 -0.125533 0.109655 0.502908 -0.488874 0.364544 -0.348274 1.157939 1.72679 1.714893 -1.195894 1.468596 0.261356 -0.2003 0.684108 0.480386 0.044378 -2.351768 1.648424 -0.332845 -3.059957 0.464645 -0.347757 2.104912 -1.354442 -2.050832 -2.602466 -0.462203 2.173177 -2.178257 -0.750515 2.105459 -0.459303 -0.552963 0.301795 1.559489 1.984267 -0.173932 -0.079819 -1.76799 0.711742 -3.18671 2.014965 -1.540471 -0.472131 0.768107 -0.268167 -0.154913 0.841091 0.957063 0.0019 1.243885 -1.99978 1.932637 -0.713715 -2.464827 -1.748339 -0.523522 -0.989934 -2.103624
brother -0.049863 -0.253988 -1.172531 1.102446 0.441007 3.076194 2.557623 -0.120677 1.206213 1.118766 -1.638564 -0.601938 1.565132 1.077111 0.299257 1.462055 1.041424 2.727015 -0.487951 0.020579 2.613197 -0.709537 0.639068 -3.765306 -2.781271 3.539217 -0.69369 -1.232216 -2.37835 -0.893502 -2.398667 1.895646 1.169873 -3.795896 0.277597 -2.53745 -0.172365 0.970483 0.471642 -0.632146 3.863534 2.990757 3.301666 2.662087 0.678787 1.330273 1.440481 -0.732977 1.380832 -2.46491 1.276498 -2.046447 0.4059 -0.413873 2.011921 0.424479 -3.165148 1.135754 0.068576 2.28491 0.444282 -1.465816 -1.22212 -3.238308 -1.041838 1.321018 -2.233336 -0.027441 -0.046764 -2.869607 -3.9274 0.391434 1.484946 -0.239944 2.515222 0.311347 -0.037888 -0.322629 -1.716108 -2.809485 -3.141217 0.781098 -0.653982 -0.762604 -0.826339 0.758152 -0.045972 -2.301097 -1.421045 -1.06606 -3.905459 0.087808 -0.798518 0.59517 0.819457 -2.676938 0.338505 -0.305741 -0.731191 2.045831
wine -1.532434 0.091396 -0.5893 3.204825 -2.090956 -0.782826 0.509563 -0.162634 0.343682 -0.922747 -0.403715 0.620894 0.964623 0.194131 0.535817 1.444544 -0.313672 -0.308965 -0.238235 -0.551313 -1.888843 -0.716146 -0.026937 0.340965 -0.576924 0.519197 0.328236 -0.669215 -2.808444 -0.355239 0.405698 -2.708376 1.18647 -2.29198 -0.601009 2.106498 -2.246932 -1.902053 -2.95722 0.916418 -0.715331 -0.460023 -2.158234 1.100218 0.292179 1.991594 1.520053 1.328232 0.797055 0.692453 -0.226643 0.668168 2.126903 -0.514088 0.942129 -1.508283 -0.89448 -0.784661 -0.292532 -0.348357 1.418505 -0.870461 -1.462171 -0.369787 0.984602 -0.455768 1.278651 -0.754631 -0.987914 -0.937653 -0.970555 -0.572629 -0.458395 0.375034 -1.297602 -1.392472 2.432815 -0.534284 3.527538 -1.200281 -1.105312 -0.374861 0.988627 0.008332 1.104524 -1.180845 -1.13692 -0.107354 2.212146 -0.495061 0.163741 1.613481 -2.461987 -1.346979 1.119647 -1.272323 -0.74419 0.77945 -1.190171 0.398756
object -1.594559 -0.102154 -0.827943 0.876125 -1.333952 -2.237401 -0.052777 0.301091 -1.740209 1.610513 0.9557 -0.169835 0.17402 0.30961 -0.836963 -0.226524 0.13831 1.067378 -1.669774 0.440564 0.416457 -0.443584 2.548958 -0.447314 0.792996 -0.904248 0.06671 0.287716 -0.408208 1.600434 0.543525 0.098178 1.859375 0.329813 0.581094 -1.00601 -0.292763 1.849676 1.733701 4.179466 -0.824765 1.576828 -0.480982 -0.542568 1.811127 0.742763 0.636038 0.171532 0.72004 -2.47942 0.477289 1.225424 -2.399989 -0.033318 1.229031 -1.163298 -1.544583 -0.873854 0.666012 -0.051456 1.682582 -0.824976 -2.046899 -1.611574 0.07641 0.612815 -0.279145 0.106272 0.055963 -1.223873 -1.163114 0.461756 -0.225271 0.950675 -1.078185 -0.294518 -1.127366 1.214323 1.491661 -0.92736 -0.330301 -0.996659 1.84222 0.258077 -0.346401 -1.85763 -0.265781 -1.011646 -2.561337 -0.509319 -1.011534 0.799234 -1.702682 0.681357 -1.149917 0.186595 -0.470209 0.86322 1.209988 -0.611535
attitude -0.871116 -0.62499 -1.970296 1.710145 1.819322 0.463436 -2.090035 -0.562189 -1.478841 1.887537 -1.145712 2.382185 -0.244544 -0.081631 2.010887 -2.380834 2.336269 2.046237 -3.009 1.831279 -0.566929 -0.304687 0.195109 -0.257477 0.41546 -0.615988 -1.795062 0.565193 -3.502429 2.805547 -1.363659 -0.866945 -0.029337 -0.194455 -1.421413 -3.837649 -0.019499 1.356417 0.868332 1.485417 -0.048796 -0.894014 -0.690316 0.44528 1.260771 -0.857307 1.595051 -0.940316 -0.760522 -2.807797 -0.641929 -0.177725 0.552443 -0.296069 2.373339 -1.223539 -1.875309 0.155145 -0.642769 -0.078089 -0.577003 -0.743873 -1.870262 -1.767246 0.292617 1.293779 0.845368 -0.053778 1.373777 0.436844 -4.249774 0.780313 -0.85119 -1.053916 -1.574534 -1.227669 -0.45909 2.127803 1.244106 -1.629852 -2.296343 1.000454 -0.740178 0.410643 0.162594 -2.332661 1.147506 0.343836 -0.963365 -1.303746 -0.361498 1.489053 -2.056166 1.470393 -1.093384 -0.020176 -1.799824 -0.811344 1.319949 -0.112299
treatment -2.245534 1.935222 0.440131 0.066009 1.664268 -0.232334 2.467606 -1.529015 1.784531 -1.701502 0.293015 -1.568613 0.584706 0.161792 1.004189 -1.652728 -0.699901 2.871917 -2.358268 -1.175477 0.055045 -1.067614 -1.218012 -0.766316 -1.36812 -2.802375 1.761097 -1.583831 0.687634 -0.960108 0.882766 -0.368753 -1.02074 0.430578 -0.763418 0.448092 -1.856453 1.908196 -2.1036 -0.514727 -0.205346 -0.14882 -0.876823 0.150972 0.506079 -0.522852 0.878745 -0.303434 -1.14487 -2.519691 1.071764 -1.102436 1.871478 0.522909 -0.1069 -0.726598 -2.599305 1.478095 2.255129 1.857997 -2.952416 2.201773 0.048169 1.74571 0.61528 0.979487 -1.069387 0.420429 0.994714 1.182217 -3.923827 -1.676951 2.287133 0.163883 -1.624957 -2.273725 1.472345 0.374463 0.206974 -2.059763 -1.594402 -1.847515 1.007864 0.725008 -1.064606 -1.348647 0.432182 -0.102892 -0.925361 -1.670049 1.634352 1.026788 -0.661967 1.917705 -1.5409 0.251249 -1.806126 -3.077238 -0.364455 -1.772947
flight -0.138598 1.132727 -0.570525 -0.647891 -0.74941 -1.004014 -0.647828 -0.578917 0.134092 -1.998929 -1.546943 0.127432 -0.558957 -1.456616 -0.396983 -0.723002 -1.829488 0.472131 -1.472337 -1.017953 -1.140214 0.455473 0.604506 -3.266991 -0.756007 -3.269943 0.494493 1.71335 -0.234906 3.168979 1.026175 1.455127 2.821999 -0.177337 -0.021208 -1.116485 -1.804666 2.408331 0.985765 -1.54028 1.042239 -0.408855 1.013731 0.50703 1.976757 0.510491 0.561367 -2.988728 -0.86677 -2.869587 -0.385491 -1.104088 0.346959 1.259902 -0.991334 0.096643 -0.705257 0.711599 2.594479 -1.681781 0.280784 -1.807407 -2.544188 2.037342 1.120758 -0.392125 -2.821112 -2.154477 0.092477 0.161904 -1.110073 1.763162 3.317496 1.389093 2.194862 -0.398632 1.55804 -0.875455 3.22322 0.126456 -1.523483 -1.076051 -0.826909 -0.920446 -2.18486 -1.375459 -0.376473 -1.126261 1.528062 -3.244449 -2.866329 -1.423567 -0.487067 -1.537239 0.500514 -1.88746 -0.206461 0.221132 0.251114 -1.53577
forest -0.376356 1.888785 -1.20048 1.348946 0.420006 -1.691953 -1.372452 -0.740674 -0.107749 -1.685926 -0.299933 2.055952 -0.236441 0.877065 -0.572914 0.260581 -2.134068 -1.280203 -1.052436 -0.759046 0.252118 -0.166414 0.556263 2.431306 0.431619 0.148465 -1.35894 -1.835819 0.626365 0.010851 -0.697464 0.933523 1.521712 -0.251788 0.736872 -1.450671 -1.099937 0.527864 0.74569 -0.11224 2.496533 0.763214 0.074608 1.923977 -0.569019 0.58708 -0.264079 1.998025 0.088316 0.248981 -0.75377 1.453246 1.00298 -2.091125 1.203194 -1.953437 -1.430699 -1.160993 0.322801 -1.951754 0.04592 -1.23 -0.386182 0.560036 2.159562 -0.731543 1.359409 -1.401486 0.646109 -1.569334 -0.100999 1.635995 -0.275693 0.431233 -1.365729 1.599334 1.69467 -1.706919 -1.050173 0.373058 -0.495352 -0.370562 1.789101 2.605544 -0.231017 -0.023181 -0.960265 -1.455442 -0.30714 0.99646 0.351365 1.314139 -0.911672 -0.524198 -1.757571 -0.410199 -1.250409 2.215328 1.075347 -4.002469
abuse 0.042043 0.40629 1.280423 0.51422 1.234937 0.806953 2.207808 -1.74868 1.425495 1.732888 -1.581417 -1.183549 1.924839 0.735688 0.047071 -0.095245 0.25125 -0.711857 -1.762935 -0.172989 2.752273 -0.291275 -0.042091 0.096679 0.056573 -0.356945 -2.086894 2.721415 1.013161 1.384314 1.310673 0.640872 -0.192903 1.422753 -1.212129 1.793352 0.21476 0.269933 1.0817 -0.090192 -1.937724 2.342938 -2.748036 -2.027047 0.03877 -0.609184 0.761137 1.918205 -1.651283 -1.507663 0.318948 -1.96969 -1.812191 2.073885 -0.731234 -2.535675 -0.875185 0.125036 -3.783485 0.972093 -1.618051 1.987719 -0.56569 0.14839 -0.751393 2.554759 0.356504 1.343035 -0.908883 -0.129887 -3.333935 -1.055683 2.230558 0.705957 -1.201468 -1.785955 -0.67177 2.798887 -1.97071 -1.191067 0.243032 -3.991933 1.247862 4.836487 0.64912 -1.803888 -0.500579 0.260415 -0.384408 -0.830637 -2.285561 -0.735115 -4.463478 0.961661 -2.534889 -1.863482 -1.15747 -3.470338 -1.704264 -0.65494
criterion 0.777049 0.386857 -0.733718 0.988758 0.154951 -0.409519 -0.374519 -0.465977 -2.149447 0.282626 2.29477 0.15521 1.438036 -0.601248 1.257668 -0.511107 0.349466 1.768035 1.863467 -2.485855 -0.682419 -1.269207 -0.34591 1.507113 0.238369 -0.636652 0.9512 0.270498 1.4604 -0.854105 -0.009636 -1.232074 -0.60568 -0.076227 0.862983 -0.78656 -0.043955 0.752982 -0.509086 1.846742 1.232148 -0.498595 -0.887273 0.611328 2.232152 1.334162 -0.434974 -0.511447 -2.008264 -3.49245 1.522963 -0.267587 -0.710179 0.402382 -0.551718 -1.213522 -1.685866 0.051686 0.060819 0.472366 -0.804688 -1.503009 -0.191081 -0.945415 0.150995 0.346558 -0.077138 2.304235 0.227354 1.657416 -0.942433 -1.058581 0.195756 -1.192768 0.137543 -0.204603 -0.542237 -0.140442 1.524599 -0.877391 0.721144 -0.288707 -0.497962 -1.857789 -1.260494 -1.416102 2.024742 -0.198069 -1.057391 0.099968 1.208573 1.622074 -1.126379 -2.2304 0.577932 1.179165 0.937132 -0.672252 0.543579 -0.229663
sea -0.453512 0.427927 0.559793 -0.743319 0.413858 -1.932876 -0.613187 -2.760782 -0.856999 -1.267419 -1.202576 2.018295 -1.075064 1.091777 -0.29103 -0.054341 -2.524372 -1.214801 -0.221186 -2.648544 -0.946976 0.950934 2.522284 2.222142 -0.264233 -1.439627 -1.526447 -0.36545 0.564805 0.071553 0.281306 1.931535 0.390117 -0.142677 0.311327 -1.404825 -1.216597 1.703732 2.068682 -0.094019 -0.188024 0.972453 -0.404617 -0.777026 0.406178 0.951451 0.483592 1.120822 0.905119 -0.730947 -2.956889 1.573915 1.528073 -0.807642 0.648103 -2.554289 -1.42285 -0.387116 1.49471 -2.431583 0.176128 -0.47315 -2.03563 1.530371 0.745206 -1.322523 0.065295 -2.286503 1.011438 -1.737275 -1.658997 3.103691 1.044635 -0.343935 -0.117901 1.741318 0.308784 -2.641816 1.196909 -0.241182 -1.461631 -0.3677 3.282887 1.083292 0.487133 -0.623612 0.144166 0.130662 -0.245889 -0.211605 0.368816 2.076231 -1.015918 -1.300209 -0.109546 -2.437199 -1.061409 1.678299 0.037879 -2.487534
dollar 0.75142 2.354468 2.157104 -0.96253 0.310557 -2.939215 -0.765896 -1.646735 -1.431616 0.733133 -2.871138 1.690184 -1.396063 -1.62903 2.215746 1.161865 -2.778334 2.111016 -5.532216 -2.963618 0.376478 0.271628 1.241739 3.56704 1.799528 0.413174 1.767825 -2.840423 -0.00168 -0.10564 1.088414 -1.448294 0.475665 -1.00623 0.562973 2.285602 -0.579638 -0.089941 1.359246 1.393457 -1.233124 -1.222082 -1.424382 1.789406 1.782024 -1.428276 1.926466 2.099778 0.69749 -1.399928 0.478595 -1.953423 -0.739304 -1.843535 0.663606 0.042722 -2.036757 -0.497302 1.467835 -0.415629 -3.264503 -0.757681 0.523328 -2.311424 0.236491 3.302521 0.553203 -1.565234 3.694381 -0.496665 2.670284 2.156978 2.685909 0.972619 0.199667 2.474576 0.038349 -1.376898 5.281892 1.103032 -2.026265 1.768675 1.350368 -2.543076 -0.665375 0.864889 1.955975 -0.141611 2.611878 1.225873 -0.59215 4.398591 0.718029 0.88892 0.349981 -5.509102 -1.799334 -1.143068 0.573357 1.856268
example 0.345058 2.194016 -1.096682 -0.651992 -1.310648 -0.877675 0.150618 -0.308845 -0.895403 -0.627038 3.45932 3.163685 0.774841 0.30687 -0.797461 -1.665149 -1.432761 -0.548369 -0.754781 0.042806 -1.353904 -2.189735 1.495969 0.338035 -0.800498 0.668525 3.308439 -2.864437 -0.442078 0.929841 -0.143516 -0.288568 0.104841 -0.984449 -1.044473 -1.31752 -1.178926 0.31236 -3.672643 2.721853 2.173368 -0.292323 1.69991 0.34103 3.670766 1.824224 1.881789 0.486273 -0.684315 -0.850987 1.857357 -2.222497 0.070236 0.651276 1.338556 -1.009918 -0.188875 0.656363 -1.004324 -0.745516 -1.759148 -0.944527 -0.792592 0.072732 -0.060508 0.501167 -1.021787 1.030209 1.124038 -1.239702 -0.224665 0.183596 -0.763684 -0.593128 -3.825384 -1.934801 0.263247 1.250346 0.300934 -0.916975 0.563166 -2.092593 -0.062441 -1.620875 -0.113705 -1.653204 2.04007 0.188236 -1.529575 -2.574795 -1.068028 1.958155 -2.708153 1.940131 -1.884821 0.227319 -3.31249 -2.539687 -0.403675 1.813586
journal 0.52475 -1.498229 1.381161 -1.866342 2.434629 -1.843766 2.120698 1.889483 4.266077 -2.778959 1.565999 -2.295895 -2.228679 -0.983438 -0.274555 -1.019788 -0.366084 -0.43859 0.130364 3.72316 -0.576843 1.787771 -1.142336 -1.240883 -3.172112 0.10461 1.004365 -4.553244 3.869452 0.471249 -0.926256 -2.42371 0.897017 3.917308 2.095004 0.821711 -1.356921 -0.298579 -0.910201 -1.299078 0.269233 1.689351 1.005875 0.418611 1.332299 -4.045112 -0.662986 1.834321 1.871267 -1.320332 -0.687177 -0.118901 -1.890199 -1.234595 -1.306176 -0.769291 -2.130727 -2.137796 -0.76396 -2.23435 1.464834 1.418643 -1.577122 -3.442272 -0.096271 2.219765 2.739625 1.469892 1.952301 4.303315 -1.659485 2.291439 3.09103 -0.32419 2.966083 -2.3911 -0.059643 0.252069 1.883099 -3.066427 1.053359 -0.422444 -0.24768 2.634945 2.356896 0.433186 -0.522383 1.674199 0.619632 0.710158 -2.317901 1.920551 -3.363268 2.526942 2.835312 3.029611 -4.294197 1.718634 -1.254685 -0.951361
laundering -5.848474 -0.073329 0.100304 2.863291 -0.218195 1.096167 1.667636 0.221744 1.937801 2.466051 -2.747258 -0.150602 1.870853 2.096095 2.59703 1.309723 -1.221226 -3.924447 2.303153 -2.111271 0.157337 -3.598455 -1.9391 0.066936 2.105466 1.873884 0.425153 4.772789 6.315378 0.502764 2.816438 -1.307168 0.244627 4.191638 0.969463 7.394838 -2.090141 1.993104 0.098176 1.689402 -1.71669 0.327908 -0.230654 -4.134288 -0.157749 1.032708 2.608638 -0.376798 0.431346 -2.288293 2.456081 -7.792953 -3.810115 3.252428 -1.838988 1.873643 2.171302 1.199874 -2.828429 -2.010699 3.578908 -0.954507 0.964152 -1.981915 -0.70067 1.368057 0.215231 -0.387015 -3.826125 -4.115782 0.458434 0.179605 1.619828 0.938942 -0.297531 -0.769034 -4.034869 -0.4573 1.296789 -0.4751 0.643803 -4.589165 1.442059 3.462787 0.994947 2.085037 -2.887801 2.346169 3.087923 2.024965 -0.086199 -0.403829 -3.766962 3.832361 2.238648 -0.046109 0.350471 -1.897649 1.187447 1.596217
hotel -0.679877 1.884333 -0.812551 0.698807 0.262251 0.379885 -1.210169 2.328919 0.828831 -2.1052 0.798612 0.442005 1.633191 -1.602713 2.562813 -0.337443 -0.532219 0.516292 -0.391282 -1.127454 -0.409556 -0.662793 1.689718 -2.981382 -1.210617 -1.548827 0.206845 0.48372 -1.697225 2.000888 -0.784834 1.165947 1.860958 -1.315634 -2.873792 -0.725866 -3.331506 0.270551 -0.484639 1.371263 -1.36555 1.844929 1.323691 -0.5252 -1.23938 1.334691 1.061157 -1.408416 1.442743 0.31056 0.763011 0.578086 0.045572 0.410576 0.924925 0.319607 0.187381 0.229206 3.843478 1.002769 -0.163962 -0.245232 0.392924 1.565251 -0.862897 -0.755154 1.197453 -1.733709 -0.630143 -1.329894 -1.684054 2.053438 -0.547326 0.457187 1.557121 0.813843 0.361533 -1.003192 2.024027 -0.947104 -1.331129 0.007369 0.445371 -0.133066 -1.642921 -0.199108 -3.237896 -0.827189 2.002189 0.300775 1.074082 2.149897 -1.917267 -2.333249 0.957281 -2.220979 0.361779 -0.345442 -1.573523 0.419977
term -0.669733 2.561341 1.63567 -1.014728 2.429675 -0.694873 -2.111054 -2.233117 -1.259103 1.162985 1.90196 0.71191 0.54112 1.747702 -0.276227 -0.781157 -1.745732 3.632185 -0.05909 -1.162571 1.19883 -1.091296 0.343113 0.443877 1.706598 -1.965029 -0.212293 -0.681556 -2.516629 1.1891 -1.514487 -1.085292 0.051797 -0.678293 0.982386 -3.840766 -4.165805 -1.494761 -1.737736 1.062785 3.270467 -0.594032 -0.619454 4.929492 1.06352 0.004006 2.866033 -2.065569 -1.66385 -3.211241 2.355879 -1.619339 0.535208 1.261529 0.351207 -3.413321 0.779266 1.250084 2.476341 1.704467 -1.327176 3.223603 -3.028184 -1.545156 1.891261 -0.408235 0.175099 1.689686 -0.892034 0.78277 -1.852676 1.101632 0.617317 -1.729581 -0.069553 1.663249 -1.535383 -1.365003 3.365422 2.138913 -2.138964 0.849747 -1.983708 -3.313601 -1.40066 0.467259 1.068711 -2.509344 3.907817 -1.45424 0.715685 -2.045239 -0.572456 0.747101 -0.402475 -1.375356 -0.394801 -2.085498 -1.084482 -4.037526
listing 1.235266 0.699754 -0.89138 -2.011119 0.395317 -0.159461 0.382235 0.808675 1.783932 0.849677 2.047412 0.02538 -0.534516 -0.977686 -2.067688 -0.445609 -1.740115 0.514764 -0.191753 -1.207891 -1.009589 -0.110247 -0.809985 -0.949603 1.243178 -1.069139 1.192981 -0.586411 1.337203 1.121264 -0.817689 0.700691 0.636542 0.66271 -0.254649 8.61E-4 -1.664181 -0.258705 -0.316585 -0.262343 -0.683557 -1.210117 0.45022 1.61684 1.272122 -0.012536 1.261777 0.14276 0.038212 -1.258188 2.298775 0.364934 1.436951 -0.709359 0.260932 0.245091 -1.299402 0.280443 1.267441 -0.449467 -1.449486 -0.419161 0.381375 -0.639315 0.223421 0.776731 -0.457394 -0.750058 -1.65192 0.164084 0.620623 -0.302427 0.740545 1.109132 1.250893 -1.066013 -0.957126 -0.075525 2.003363 0.294446 0.738655 -0.404367 -0.416837 -0.033076 -2.869725 -0.412483 -0.74504 -1.223418 1.706902 -0.550976 0.492562 1.642569 -1.400662 -0.803244 -0.349637 0.386471 0.185305 -1.5331 -1.596857 0.42513
chemistry -1.539247 -1.095341 -1.862328 0.463407 0.044627 -0.735144 0.316813 0.643089 -0.5655 -2.099782 0.01056 0.250731 -0.643666 0.168143 1.554995 -0.875665 0.532108 1.607413 -0.069492 0.317265 -1.017187 -0.518648 0.97966 -0.391704 -0.013731 -0.47654 -1.332084 -2.552235 1.011335 -1.490517 1.491939 -1.293327 -1.444294 -0.556281 -0.028396 -0.58761 -0.70551 1.592962 -0.942714 -0.425614 1.689961 -0.177921 -2.882757 1.012677 -1.712163 -0.921587 0.70269 -0.135571 -0.131463 -1.307346 0.781221 0.995428 -0.328915 -0.790401 0.918238 0.582575 -1.948702 -1.328808 -1.61199 1.441942 1.734267 -0.453819 -0.150924 -0.03688 2.046377 0.256595 0.597062 -0.101119 0.861993 0.836624 -3.379841 0.497843 0.908351 -0.363077 0.757623 -1.318 1.220854 0.801145 1.349455 0.188621 -1.125175 -1.00217 -0.41517 1.157367 0.435526 -3.24984 0.768558 0.798557 -1.912741 -1.759577 -0.319986 -0.802245 -0.467945 -0.670256 -0.261348 0.449884 0.080378 0.23232 -1.120882 -0.038554
seafood -0.933795 0.878169 -1.648495 2.208689 -0.870254 -0.410098 0.285832 -0.678925 0.826877 -1.022094 -0.040212 1.689702 0.488807 0.372762 0.193161 0.433669 -0.153165 -0.209096 -1.24578 -0.542539 -2.488482 -1.178061 -1.34787 0.506165 -1.233147 -0.337549 0.294088 -0.625213 -1.550339 0.345188 1.01687 -2.021389 0.889434 -0.899737 0.68949 0.680557 -1.69239 -1.638167 -2.280553 0.299878 -0.527428 -0.622659 -1.13362 0.558979 -0.130348 1.896691 -0.133778 1.293219 0.46859 -0.007988 0.04847 -0.274041 2.001675 -0.850017 1.12503 -0.708764 0.144976 -0.03348 0.647427 -0.480524 1.228282 -0.941396 0.336588 0.372827 1.601876 -0.961672 0.510373 -2.514537 1.133729 -1.372213 -0.473659 -1.14703 -0.324212 -0.412071 -1.695377 -0.686021 2.509233 -0.191382 2.352933 -1.11726 -0.840484 -0.392909 1.668235 1.66797 -0.819069 -0.553294 -1.389975 0.373901 0.215924 -2.010153 1.142645 1.642023 -1.065808 -1.354004 0.493145 -0.955653 -0.590883 0.664828 -0.32558 0.877275
CD -3.018735 -1.507152 -1.009471 -0.886357 -2.040605 0.214956 0.361172 1.775035 1.836064 1.400867 1.723191 -1.110905 -1.937423 -1.039992 2.646809 0.955234 -2.353873 -0.337875 0.467121 -0.383084 0.637687 -1.491295 0.159651 -1.65152 0.349596 0.570781 -0.22683 -2.051029 -1.958795 -0.392233 -1.137945 -1.193675 0.31179 -2.091089 0.837546 -0.20287 -2.177794 0.151456 -0.611179 -0.440171 0.535543 -0.052588 -1.481571 -0.558889 2.511865 1.557326 1.833295 -1.040397 -0.778334 -1.497959 -0.542433 -1.453873 0.179274 0.896531 0.252306 -1.296603 -2.945418 -1.205342 0.549404 -0.561079 -0.987147 -0.203492 0.542722 -0.460103 2.07833 1.709036 1.2733 -1.81263 -1.529239 0.388258 0.56349 0.738858 -0.308126 0.073851 0.466393 0.199938 -0.571955 -1.097081 2.378913 -0.58856 0.222833 2.362258 1.299717 -0.280027 -1.977305 0.109738 1.779886 -2.412342 1.357371 -0.279296 -0.40747 0.07865 -1.52197 -0.128842 -0.754861 -0.981303 0.647857 0.533455 -1.653473 3.075408
mind -1.685084 0.546396 -2.507972 1.208089 0.176426 0.809673 -0.033305 1.123936 -1.519251 1.436709 0.147513 -0.68214 -0.4401 2.026141 0.333293 -0.788925 0.933473 1.222439 -0.856878 -0.268669 -0.660822 -0.022306 -0.176302 0.209743 0.911774 -0.025018 -0.177938 -0.480358 -0.775145 -0.084019 -1.526542 0.493979 0.334463 -3.669168 -0.384389 -3.524766 0.501136 3.159568 1.545295 1.537423 1.985613 -0.771299 0.408289 1.496704 -0.601588 0.508636 -0.382481 -0.291666 0.151135 -1.231582 1.016147 0.249272 -0.135054 -0.728152 4.497517 -2.946016 -1.887642 0.102479 -2.702697 1.462986 1.246177 -0.151364 -1.431603 -2.132397 0.814675 -0.273126 -0.585578 0.175965 0.115179 1.402227 -2.867987 2.810275 0.584961 -0.52341 0.445385 1.472269 3.28E-4 1.342182 2.804406 -3.30713 -3.705684 1.961007 -0.342532 -1.921657 -0.372217 -2.349855 0.02198 -0.102345 -1.155025 -1.111874 -2.329892 2.859075 -2.827702 0.889793 -0.066895 -0.261057 -0.604477 -0.559358 0.165901 -0.556287
sex -0.55956 0.053441 1.135991 1.486084 1.222198 -0.401859 1.33215 -1.172225 -1.053992 0.792367 -2.441273 -0.631902 -0.146784 2.396085 2.05086 -1.54924 -0.209995 0.901501 0.450231 -1.071827 1.41944 -0.619631 -0.770481 -1.718682 -0.307316 -0.412621 -1.791307 -0.95969 -0.310867 -1.307816 -0.537176 -2.004463 -0.655112 1.780301 -1.362041 0.282294 -2.677686 0.768525 0.93117 1.058567 -1.233804 -1.399907 -0.529106 -1.528609 -0.624899 1.823006 3.095126 3.086234 -0.676476 -2.805388 1.109621 0.888577 2.013459 1.588431 1.352035 0.046666 1.031045 0.356542 -1.709354 2.004072 -0.203423 1.395466 -2.548035 2.781079 -0.036974 0.369546 -0.685199 -0.960657 -1.995688 0.953773 -3.021772 0.04604 2.744925 0.543487 -2.607519 -0.32062 0.10082 1.486615 1.08974 -2.046429 -1.467988 0.347129 -0.982523 1.591306 -0.100166 -0.431616 2.544406 1.867564 1.595237 -0.581701 -2.945925 0.527788 -5.35213 -0.214991 -1.652187 -0.791332 2.261071 -2.706174 -3.213597 0.862087
food -0.828739 2.196114 -0.494123 1.539747 -1.155953 -0.739211 1.302335 -1.834177 1.128899 -1.088321 -0.900944 1.477531 0.380688 0.422383 0.806137 0.150988 -0.762254 0.470873 -0.191136 -1.801992 -0.639624 0.446382 -0.193293 1.790469 -1.987128 -1.641814 0.764314 0.444511 -1.376711 0.344981 0.208259 -0.73301 0.551557 -1.192099 0.48954 -0.199564 -0.962849 -0.484434 -3.430517 -0.155503 0.099456 -1.508155 -2.509437 0.655539 0.132982 2.402969 -0.606505 2.76697 -0.266053 0.58712 -0.597891 -1.519907 3.181456 0.755264 1.270973 -1.797274 -0.913243 -0.324411 -0.32662 1.794519 -0.401646 -0.073292 1.282918 0.937351 1.993348 -0.128984 0.854778 -2.763619 1.363727 -1.466821 -2.318535 -1.548571 0.578457 0.238785 -1.853255 -0.988572 2.1898 1.09662 3.451447 0.835341 -1.352861 0.246528 1.952045 1.748881 -0.113631 0.207422 -0.624011 0.898682 1.833868 -0.968608 0.872293 2.74795 -0.24615 0.640852 -0.270255 -1.727072 -0.352857 0.5405 0.156226 0.081725
precedent 0.052883 0.574764 2.376886 -0.874928 -3.020528 -1.087813 -2.76529 -0.788111 -0.665343 -0.384406 2.076658 0.735697 -1.078711 0.117591 0.197112 -2.599438 0.597806 0.256681 -1.784491 -2.706203 0.349238 -0.037405 -0.320944 0.326101 1.987711 -1.738474 -1.189354 -0.76409 3.105299 -0.095503 1.444054 -1.761797 -2.007955 -1.737218 -1.318058 -1.916377 -0.356486 0.367603 3.424797 3.050624 3.084509 -1.039044 -1.628805 2.246826 0.490434 2.987472 -0.052983 2.314825 0.793976 -4.745101 4.11978 -1.989638 -1.345819 -1.378631 0.851891 -0.312482 0.239096 -1.242785 0.36169 -1.919603 -2.510646 0.824576 -2.245024 -1.533952 0.304437 0.950683 -2.424208 1.01647 -0.355384 0.601278 -0.411071 -2.123751 -4.314611 2.096285 -0.486439 -0.936803 1.430035 -1.132279 1.443925 -3.225459 -0.202311 0.431107 -0.618194 -0.749572 0.350627 -2.024193 1.015312 -0.525849 -0.947962 -1.852838 1.856604 0.97232 -1.861529 1.320502 -3.977091 -0.189523 0.310968 -3.178095 0.323439 0.154606
series -1.135988 0.28835 -1.168027 -0.6699 1.937186 -1.347156 -2.291481 0.058575 1.759029 -0.239382 1.206238 -0.639243 -0.650741 -0.902713 -0.244859 0.80796 -2.107265 -2.037801 -0.071676 1.687593 -0.62635 0.847202 0.438619 -3.500068 2.042047 -0.179394 -0.328631 -2.485687 -0.538685 -0.069637 -1.459737 -1.390502 -1.99342 -1.929741 0.62924 -2.357288 -2.997393 -0.438118 -1.069224 0.463911 -0.147727 -0.788682 -1.687423 -0.088308 3.223675 0.337804 1.106935 -1.904064 -1.070154 -1.775623 -0.092251 -3.015545 -0.884404 0.795369 0.426035 0.687854 -0.520635 0.176685 0.203268 -2.066299 -0.8933 1.600257 -1.708281 0.347923 2.54711 2.278707 0.07644 -1.911755 -0.09448 -0.059052 0.424198 0.951639 0.277547 0.551925 2.395096 0.37437 0.538318 0.048296 -2.480053 0.16724 1.35537 0.249859 -1.376591 1.422761 -0.637686 -1.544432 -0.341385 1.396904 1.586129 2.130079 -0.704467 1.129798 0.113084 1.019061 -0.556219 -1.793302 0.529808 -3.887511 -0.479443 -2.249977
kilometer -2.490485 2.495379 -1.043855 0.09707 -1.242925 -0.086126 -0.012404 -0.731341 -0.213638 -1.398754 -0.948126 -0.682653 0.806701 -0.317772 -0.960596 1.088159 -0.368329 0.998644 -0.078813 -3.720991 0.755335 0.795844 0.482162 0.861641 -0.83568 -2.341981 1.124302 0.683507 0.45693 -1.025201 1.418006 0.352732 1.225339 0.833468 0.013589 -0.218333 -3.051899 -2.206599 4.260433 -0.494256 1.828464 0.281333 0.689308 -0.614012 3.582753 -0.558651 0.770118 -0.53795 -1.015802 -0.765637 -3.690397 2.236223 -3.118389 -1.241903 -1.700772 -0.648032 2.155256 -1.589348 1.829119 -0.429598 1.208875 -1.458533 -1.562055 -0.653944 0.351952 0.599405 0.545893 -0.793516 2.081762 0.172167 1.082664 4.019969 1.213772 -0.986474 -1.734976 -0.237513 -1.148591 -4.87902 -0.642476 3.117203 -0.049188 -0.926491 -2.768281 -0.085046 1.016203 1.589731 1.584753 0.571719 2.690157 0.170795 0.388653 -0.764696 -3.639481 -0.95201 0.698962 1.124911 -0.274573 1.558821 -0.798443 -3.353184
grocery 2.328696 0.334805 0.505058 2.293023 -1.456385 0.815169 0.810605 0.412858 1.07188 -0.687835 1.458154 -0.530982 1.544745 0.026468 1.121334 1.542946 0.659487 -0.490693 0.249973 0.394902 -0.677044 -0.260914 -0.263482 -1.304914 -3.387196 -0.206728 1.18661 0.546449 -1.780766 1.724822 -0.011841 -2.785406 1.177019 -1.58751 -1.47958 0.122112 -1.318348 0.158991 -1.341694 0.77421 -1.048223 -0.243887 0.331921 -1.048848 -1.562072 0.172533 -0.895178 1.997881 1.354053 1.396987 -0.27948 0.843313 2.407644 1.056202 -0.001107 -2.701851 -0.761294 -2.57672 -0.042755 2.3451 1.996947 -1.038084 3.37622 -0.176559 -0.675004 1.572431 -0.021722 -4.259852 0.886653 -0.045806 1.264026 -2.083671 -0.294064 0.371299 -0.284899 -0.355218 -0.160905 1.15799 1.238313 -0.190704 -1.696802 0.314247 0.683959 0.735914 0.417739 0.807539 -2.564352 -0.407847 4.191865 0.345826 0.268645 1.782689 -2.267805 -0.569688 -0.96848 -3.068205 -0.480372 0.250824 -2.372924 0.654181
wizard -1.494759 -2.00198 0.20178 0.339585 0.696401 0.968632 -0.822495 1.450215 1.228475 0.622862 0.228168 -0.562047 -0.412692 -0.157042 0.087553 0.509897 1.032995 -0.712574 -0.210972 0.481401 -0.351725 -1.143546 1.620138 -1.590019 1.031735 2.038686 -1.162003 -0.213102 -1.784727 -0.008069 -1.453183 -1.268489 1.411447 -0.51293 2.32388 -0.313522 -1.369263 -1.121561 0.789067 -1.032758 -0.709422 0.41314 -0.386914 0.309897 -0.781028 1.431469 0.393993 -0.571032 -0.770383 -1.995199 -0.232688 0.913842 0.992602 -0.28573 1.875497 0.83387 -0.804362 1.12133 0.058517 1.046697 -0.159395 -1.28918 -1.995105 0.06925 0.931187 0.213147 1.755696 -0.283621 -1.039307 -0.533359 0.40859 0.507785 0.120715 -0.348898 0.315144 -0.48001 -0.621646 0.083504 -0.770496 -2.395253 0.905895 -1.117623 -0.210606 1.167423 0.485985 0.241052 3.650773 1.358045 -1.047628 -0.161629 -2.383125 -1.072193 -1.711089 -0.819189 -0.787745 -0.322527 -0.336575 -0.216976 0.111777 0.765101
information -3.512647 2.321929 -2.227051 -0.907764 -2.069947 -0.332365 0.981622 0.157592 -1.045637 1.296258 1.537136 -2.447096 -3.164144 1.846785 2.514714 -1.477748 0.335852 2.28293 0.701929 -1.733037 0.193785 0.546736 1.431355 1.411071 -1.908924 -2.805222 -1.174159 0.704243 2.736784 0.794452 -1.459509 1.411473 0.196277 1.877581 -2.475442 2.021683 0.140732 0.051185 -1.115934 1.532689 1.791195 -1.194682 -0.735362 1.12698 2.429743 -2.323895 0.116017 3.111589 -3.155576 -0.092088 0.286287 2.050345 2.493681 -1.153271 1.649842 -3.265678 -2.107712 0.688563 2.186832 0.313866 -2.128763 -1.668277 3.719131 1.030976 4.241541 1.008474 0.178202 -1.291035 0.260352 2.226004 -0.637728 0.053649 0.996925 3.078262 -1.161823 -2.636038 2.450104 2.423979 0.520755 -0.686445 -1.130164 -0.213594 1.257803 0.335048 -4.834213 -1.646605 0.174746 2.456361 0.110617 -4.757941 -0.283821 1.858017 -1.869461 -2.39459 -3.804589 0.84091 0.751276 -2.163619 2.326518 2.410195
Israel -0.232116 2.73007 0.344145 -3.88324 -0.718626 -0.954178 1.963337 -3.15984 -1.136969 -0.559834 -1.662909 1.824226 0.634992 0.439347 1.289324 2.436671 -1.392121 2.009646 -0.261197 -0.117702 -0.346592 1.793228 -3.377372 0.26302 0.196873 -1.694859 -0.30224 2.672738 -0.882212 -1.083263 0.296871 -0.981686 0.064887 -0.30373 0.450986 -0.683223 1.739215 0.610085 2.828346 2.421865 2.320185 -0.523979 -1.128522 1.289506 1.923725 2.288908 -0.099711 1.113249 0.551338 0.090766 1.312823 1.548666 -1.189822 2.348897 1.964971 -2.795411 0.239741 0.79426 0.797034 -1.210851 -2.396754 -0.703123 -2.91542 -1.266869 1.803565 0.969729 1.261248 0.674481 0.648339 2.583263 -2.37547 1.163842 0.346468 1.335267 -0.828463 2.144313 -0.678064 0.941576 -0.582489 0.662711 -2.344943 1.313154 2.241589 1.47497 -0.192914 -1.193991 -2.321259 0.663037 0.225993 1.332228 -1.475888 0.478238 -0.181775 1.03798 0.181913 -0.874505 -0.940926 -2.584797 -0.603578 0.152426
brandy -1.700364 0.34891 -0.139795 1.52727 -0.44133 0.537041 0.834469 -1.152795 -0.570772 -0.192098 -0.870348 -0.030392 0.7483 -0.668955 -1.281264 2.236916 -0.323426 -0.463783 0.167551 -0.586774 0.81474 -1.147976 -0.118906 -0.546245 -0.533815 1.352439 0.447552 -1.419072 -2.325099 0.15907 0.678829 -1.807465 1.347293 -1.837257 0.561914 1.082975 -2.15678 -0.750882 -2.447614 1.02713 -0.112215 -1.322743 -1.905632 0.885489 -0.786246 1.464681 0.971968 1.616947 0.328186 -0.905777 -1.274626 -0.459762 1.093197 -1.759373 1.321882 -1.799536 -1.194846 -1.383946 0.081661 1.020012 1.334902 -0.795891 -2.473704 0.662402 0.950671 -0.925319 1.576701 -0.957782 -0.730325 -0.123309 -0.725644 0.727586 0.653673 0.458605 0.157082 -0.364695 2.020496 0.517678 1.333851 -1.042219 -0.980828 -0.342095 0.917655 0.959931 -0.217986 -0.886632 -0.805693 -0.426351 0.323069 -1.16349 -0.006143 0.508791 -0.818373 -0.912257 -0.342483 -1.892031 -0.607566 1.165002 0.068933 -0.239559
interview 0.968142 -1.673028 -2.256085 -3.870105 -1.32127 -0.566695 3.027285 0.065778 0.364802 3.242386 1.409642 1.801452 -3.620622 -2.613667 -0.742729 1.323794 -1.833244 -0.278919 -3.21932 3.753491 -1.767161 1.573751 0.938308 -1.733999 0.810445 1.490012 0.256 -2.327594 -0.043987 6.424544 -1.593864 0.276799 1.966407 1.577934 -0.489596 -1.395832 -4.109328 1.111367 -4.80329 1.665665 0.567303 1.460749 1.986753 2.553029 0.528171 -3.308081 1.012602 -4.930837 1.682236 1.598987 0.402394 0.095251 -5.505303 -1.700122 0.501231 0.025708 1.238146 2.669706 4.475661 2.041642 0.185799 4.925 -4.618451 -0.512823 1.854018 0.318841 -0.924124 -0.894086 1.186592 1.65162 -4.478702 2.266452 -4.145531 2.204996 3.4318 -1.634209 0.276164 3.425335 3.574632 -1.5186 -0.295445 -3.130371 -2.321198 0.993652 -0.728418 0.330534 -1.805913 -1.933992 -1.423442 0.798274 -2.430629 -1.317345 -4.555107 3.342117 -1.571925 1.86371 -0.004419 -4.936206 1.604714 1.400451
prominence -0.268261 -0.342844 1.699609 -0.233622 1.045308 1.830438 -2.551499 -0.201055 -0.093946 0.157008 1.620305 2.560185 -2.237119 0.317962 0.173754 1.458065 -0.007042 1.660442 -1.233377 1.363444 0.698234 -2.31262 1.913814 1.153345 0.635963 -0.188516 -3.278452 -0.122148 -2.087043 -1.325166 0.179722 1.23945 -0.909528 -1.011441 0.704865 1.077987 0.001864 0.048987 2.555415 1.177968 -0.254912 0.88106 1.500551 1.403683 1.09036 -1.298628 1.148656 1.552514 -0.557058 0.018358 -0.125984 0.612502 1.477209 0.507244 -0.430129 -0.295005 -3.413481 2.174419 -0.956974 2.294067 -3.776022 1.242909 -0.422459 -1.598867 4.128316 2.977921 -1.925432 -0.800411 1.445769 -1.162852 1.702578 0.720242 -1.008281 2.50133 0.615073 -0.244473 1.315936 2.753453 2.508132 -1.627252 -2.147091 0.449624 -3.098318 0.36312 0.536977 -2.109537 1.243325 1.202381 -0.012821 -1.574788 0.320349 -0.498276 0.191078 0.425222 -1.131586 -1.23818 -0.730617 0.487399 -2.041427 -1.870036
bed -1.371682 1.400372 -0.965249 -0.672699 -0.752692 0.354787 0.58539 0.369473 0.395529 -0.311883 -0.709477 -1.539651 -0.820286 0.389725 0.28302 1.434467 -0.216674 1.677391 -0.3546 -0.85167 1.690721 -1.391763 2.459316 -0.807215 -1.050146 -1.110407 0.793886 -2.694507 -1.485187 1.860253 0.474856 1.020636 0.233457 -2.266354 -1.431844 -1.947644 -1.890138 3.974436 -1.797613 0.608882 -1.041624 0.33245 0.839235 0.484775 -2.005853 1.238068 -0.221309 0.480274 1.0006 -1.853771 -0.019045 -0.525491 0.174057 -1.111952 2.796903 -0.810264 -0.852075 -2.232613 0.816929 2.222986 1.400417 0.131889 -0.625795 0.873587 -0.366657 -1.230809 -0.244336 -1.381425 -0.328355 -0.321133 -2.965028 2.873625 2.031105 0.379739 2.146044 0.949708 0.713837 -0.404225 1.433576 -3.00742 -2.803319 -0.518645 1.869904 -0.65081 1.360549 0.909494 0.690347 -2.392816 0.535723 0.75086 -1.220833 -0.088427 -2.761847 -1.193668 1.694658 -1.244572 -0.145315 0.355205 -1.601574 -1.140144
furnace -0.857438 1.663578 -0.112249 -0.839915 -0.785299 0.866113 -0.732591 -0.457882 0.290096 -1.700005 -0.701285 -0.492568 0.961347 -0.398201 1.060346 0.675511 -0.13113 0.431049 1.569949 -1.059116 -0.059604 -0.785733 1.516479 -0.127105 -0.696772 -1.056601 -0.378951 -0.590577 -0.736047 0.465387 1.233029 1.082711 0.290089 -2.644071 0.733924 -2.413142 -1.51697 0.145826 0.389564 0.783632 1.529281 0.396558 -0.492026 0.657595 -0.618306 -0.298384 -1.237413 0.556426 1.236135 -2.061781 -0.284404 1.260109 0.743576 -0.711307 -0.318619 -1.476579 -1.960956 -2.136464 -0.588118 0.536451 1.734897 -0.792784 -0.401292 0.913 1.459985 -0.927131 1.495931 -1.469824 0.655058 -1.70512 0.754539 0.612702 -0.97968 -1.788418 -0.041477 0.136148 0.923445 0.648261 -0.0101 -0.049502 0.307847 -1.086042 1.823225 0.82014 0.031145 0.455213 -1.202953 -1.760486 -0.978123 0.807207 -0.708129 0.88708 -0.335762 1.399694 0.92789 -1.675033 -0.048794 1.602052 -0.511136 0.548323
evidence -2.225528 1.292063 -0.613168 0.874787 -0.847975 -1.898491 -0.306722 -0.464415 -0.238943 2.98852 0.276172 -1.026372 -3.487457 1.273607 1.050665 -2.027762 0.516343 3.117577 -1.776526 -0.854726 0.220661 -1.89833 1.315475 1.766381 -1.382451 -2.587218 -2.404467 -2.04738 3.502475 0.55665 -0.545585 -0.275734 -1.198454 -0.704395 -1.741013 1.921075 -1.579667 1.499795 -1.294222 1.992679 2.455533 0.070783 -2.155696 0.622038 1.504686 0.655465 -1.141911 2.441767 -0.768482 -3.382334 0.275236 1.211213 -0.291477 0.681724 1.435724 -4.615199 -1.652653 1.366952 1.502818 0.707043 -1.147107 -0.393534 0.239618 -3.082578 1.232332 1.10909 0.94979 -0.438481 -1.182323 2.163566 -1.74139 0.757668 -0.195357 3.392414 0.799406 1.499352 2.533809 4.11036 -0.22803 -1.586728 0.451305 -1.935994 0.102775 0.904461 -1.940142 -3.069209 1.253459 1.606366 0.687254 -3.672189 0.098629 2.432122 0.259909 0.266271 -2.562949 -1.097765 -0.772836 -2.064048 0.740974 -0.637842
sprint -1.614723 1.021576 0.191416 1.054842 3.831261 1.123549 -0.253252 1.982087 -0.093013 -2.282634 1.396645 1.651561 -3.399147 0.975554 -0.071126 1.964569 -0.29256 2.597527 0.145843 -1.02415 -2.664308 -0.397934 0.648813 -0.48106 -0.90719 -1.206522 -0.892478 -2.215139 -0.800508 0.657855 1.83879 -1.097257 -0.575299 -0.734958 0.329304 0.419722 -1.351446 1.818327 1.552899 -1.049388 0.179095 -1.403354 -0.880566 -0.300766 1.39351 -1.491527 1.67372 -2.239722 -1.472112 -0.324068 -2.091976 -0.153734 -1.659283 -0.37267 -1.154401 1.136599 0.502079 -0.691518 0.342106 -0.687193 -0.709135 -1.102057 -0.81463 1.437384 0.294424 -1.080651 -2.753899 1.692676 0.991308 -0.064051 0.030867 1.360868 -0.719004 0.453729 0.293239 -0.593212 -1.644987 -1.795636 1.802969 -1.422226 -1.044415 -0.188482 -2.477968 -2.077049 2.020702 -0.720582 -0.294276 0.859058 -0.544632 -0.103403 -0.006786 -0.41727 -0.972525 0.449058 -0.313032 -2.361567 -1.084858 0.390864 -0.237616 -2.923539
emergency 0.125217 1.122701 0.477929 0.042751 0.951079 -0.953751 1.236752 -2.562677 -0.872611 -1.719569 -1.279285 1.524916 2.125701 -1.458087 -1.388506 0.260875 -1.845796 0.157098 -1.629632 -2.203066 -0.353097 -0.24573 -0.92506 0.44356 3.285929 -3.717137 4.074751 1.183851 -2.054456 3.438642 1.198435 2.715612 0.907352 0.655874 -0.996556 0.486916 -0.017148 2.306027 -1.741766 2.039017 -0.489303 -0.222266 1.086832 -1.397694 -1.37999 1.318869 -3.253157 -0.469824 -0.2518 0.600282 0.574905 -1.317641 -1.284966 0.678109 -1.295491 -1.285946 0.28668 0.458775 4.646223 1.516366 -0.712033 -1.011891 2.405092 2.371698 2.127429 -0.357498 -1.792866 -0.138693 -0.834497 -0.867576 -1.738631 -1.128629 -0.472705 4.084879 -0.89731 0.691474 -0.255234 1.194453 0.565591 -0.566807 1.546556 -2.704922 1.301581 3.247622 -0.445945 -0.028428 -1.694764 -1.069763 0.688808 1.532106 0.50741 -1.486647 0.224146 2.00321 -2.136209 0.589929 1.15767 -2.675475 0.873587 0.357314
Jackson -1.636197 1.254228 0.552848 -2.953128 0.9262 2.377926 4.400918 -1.052825 1.872555 -1.423273 -2.020844 0.346347 0.388192 -1.087733 -0.441275 1.514591 -0.833773 2.463999 1.074095 0.31217 0.360722 -2.385298 2.629638 -0.883296 -2.205833 1.680763 -0.472254 -2.655562 -0.774437 -1.66334 0.044122 -0.933088 2.272439 -0.715808 0.974503 -0.729993 -0.266836 -1.336948 0.999108 0.320297 0.007153 1.718897 -0.802052 -2.114721 -0.208975 0.581625 -1.531211 -0.098165 -0.574501 1.119883 0.049842 -1.876672 -1.541412 0.229704 1.385557 -0.961879 -1.509008 0.728346 0.868107 -0.604896 -1.219293 -1.25795 1.411162 -0.505807 -0.524108 2.525353 0.23575 -0.24489 -0.259614 0.11608 -1.496786 -0.196067 -0.013547 1.898001 -0.128846 -0.035368 -0.854145 -0.775902 -2.063127 0.018012 -0.153924 0.114135 -1.732223 -0.281815 -0.868517 0.688678 2.900912 -0.08206 -1.226835 -1.612317 -1.049805 0.602965 -1.474338 -0.420222 -1.51485 -0.058231 1.924223 -1.793761 -1.974727 0.780725
institution 0.233112 -0.297753 -0.836816 1.503695 -0.245168 -2.507096 -2.387291 -0.146863 0.009192 0.398141 1.024902 2.51422 4.02877 -1.194343 1.251125 0.075393 -0.150431 1.798441 -1.089816 -1.458474 -0.547843 -1.139263 2.220731 1.572175 0.910159 0.202275 1.53849 -0.463143 -0.980389 1.326885 -1.110734 0.31461 2.211975 2.230743 -0.209405 -0.054246 -0.945756 0.203569 1.621413 1.353298 1.471591 2.942884 -0.372901 1.29112 0.533616 -0.524053 -6.18E-4 0.133334 -1.161392 -3.191447 4.240242 -1.857929 -1.377367 0.90674 1.412721 -1.003316 -1.801412 0.011533 2.526261 0.290182 -0.94885 -1.911557 -2.04962 -0.358989 1.516207 1.286565 1.632445 1.073074 1.425161 0.59832 -2.324654 0.455335 -0.553938 -0.664717 0.896135 0.08331 -1.91453 1.309719 1.758251 -0.826098 -0.221155 1.031453 1.119271 1.254832 0.553501 -1.638074 0.228801 0.027314 -1.44987 -0.479641 0.721246 0.836679 -3.093877 0.858763 -1.309623 1.127348 0.523424 -0.529366 1.376027 0.05547
bird -0.993262 0.525833 -0.658228 1.332313 -1.421859 -2.29005 -0.851107 -0.33898 0.26733 -1.863349 -1.76453 0.419118 0.027867 0.517623 -0.891619 -1.160795 -2.000375 -1.677183 -3.096152 -0.465382 -0.890594 -0.772321 0.855758 -1.001709 -0.704698 0.367252 -0.266019 -1.63498 0.054071 -0.285779 0.30096 -0.218704 0.714744 1.197142 2.556033 -0.75714 -1.771637 -0.340035 -0.025588 0.637549 0.966724 -0.396748 -0.626931 -0.733389 -0.273894 1.473496 0.242132 2.581584 -1.325435 -0.461423 -1.312848 1.527525 -0.110831 0.917466 0.629776 -1.488536 -2.011206 0.220282 1.169826 -1.535298 -0.135052 -1.153607 -1.985894 -0.721715 -0.109994 -0.093446 -0.344268 -2.040738 1.160453 -0.288594 -0.379088 1.231137 1.480162 -0.409717 -0.940767 1.398003 0.845795 -2.78626 1.758606 -2.444128 1.676857 0.065832 3.282931 1.621449 -0.299775 -1.397696 -0.027823 -0.422732 -0.766683 0.039169 -0.880346 -0.4324 -2.076546 -0.939806 0.168068 -0.548407 0.923852 0.511835 0.107063 -1.909097
Brazil -1.538339 0.956531 0.008226 0.527523 0.007238 -1.281124 -0.024853 -0.970829 -0.035468 -1.490008 -1.229684 1.646153 -2.425332 1.801025 1.307625 1.718984 -1.657884 -0.132181 -1.469864 -1.060303 -1.221957 -0.148544 -0.322145 1.226892 -1.576211 -0.309691 -0.863714 1.09794 -0.99842 1.868417 2.397667 -1.813285 0.4248 -2.244906 0.837124 1.18989 1.03517 -1.588095 1.331036 -0.723524 1.502547 -0.19644 -0.289386 0.776028 1.238819 2.152387 1.631952 -0.221629 0.984401 -0.55225 0.493536 -0.957143 2.052186 1.213683 -1.128121 -0.568621 0.381007 0.415427 0.223858 0.115008 -0.907277 -2.511558 -0.249423 0.085658 1.500017 0.130293 0.240719 0.215741 2.122594 0.505557 -1.230567 1.366827 -0.286987 -0.526203 -0.820196 0.929848 0.742309 -1.182677 -0.864771 0.069681 -1.089476 1.496373 -1.250479 0.682407 0.332579 -0.942388 -1.6525 0.401274 -0.141423 0.47698 -0.101512 -0.570773 -0.974068 1.198176 0.107069 0.192172 -1.352072 -1.328513 -0.452657 -0.359371
warning -0.674203 -0.066491 -0.874753 -0.2267 -0.212385 -1.515161 0.489001 -1.331101 0.900109 1.525971 -1.452653 0.68958 -0.945678 -0.538127 -3.198648 -2.816239 1.085252 0.406128 -2.834258 -2.710192 0.397509 0.113943 0.758824 -0.429966 0.45642 -2.703861 -0.710613 -0.29499 0.151028 3.750064 0.24266 -0.257745 0.120935 -1.055202 -0.319135 -0.775702 2.433821 -0.069049 -0.546538 1.84646 0.114378 -2.291206 1.855092 0.806383 2.38347 1.250658 0.520253 3.008252 -0.280168 0.440811 -1.78565 -0.207761 0.823669 0.266039 0.322036 -2.864821 0.656093 0.138984 1.715862 1.01309 -2.743804 1.807284 -1.493584 -1.102301 1.068644 0.735699 -1.129901 -2.244292 -1.275117 1.74777 0.380938 0.657176 -1.345826 1.908401 0.281849 -0.547139 1.729181 0.175013 0.44384 -1.131542 2.127131 -1.743842 0.263607 0.065358 -3.227876 -0.735385 -0.087896 1.649217 0.476528 0.282828 0.178222 0.739213 1.993014 1.405983 -2.226093 -1.302264 -1.255248 -0.014464 0.87748 -0.463928
implement 0.832841 1.009838 -0.925941 -0.637748 1.448596 -1.204194 -0.297198 0.707204 -0.143203 0.109307 2.281307 -1.250942 1.561408 -1.668759 -1.375753 -1.670116 1.038185 0.279836 -0.201401 0.270528 -0.272278 1.452759 -1.842331 0.467111 2.992753 -2.740417 -0.789753 2.127645 1.064392 1.71999 1.799041 2.153379 -0.476565 1.252668 3.147191 -0.213944 1.68928 1.983461 0.861232 0.666946 -1.082378 -2.422893 -2.761837 0.173498 2.090962 -0.230338 1.406592 -0.16583 2.372723 -4.097199 3.396838 -0.050649 1.215145 0.886133 3.714359 -1.57447 0.46374 -0.481224 1.454939 1.010105 1.331877 1.140496 2.060948 0.81595 2.676546 0.128241 -1.352807 1.403662 -0.121146 -1.613758 -0.243178 -2.390633 0.09736 2.048246 -2.494614 -2.480723 -1.831588 -1.590277 0.210148 2.346897 -1.52075 0.473297 -1.726486 -0.351064 0.185795 0.076364 -1.28263 0.742516 -1.302052 0.605629 3.062712 -0.765608 1.549591 3.445583 -1.317762 0.39468 0.085406 1.128563 0.397449 1.170408
train 1.086959 1.605166 -0.804704 0.668705 0.46818 -0.112113 -0.306903 0.924134 -0.074603 -2.093634 0.171851 -0.144913 -0.093218 -2.440638 2.073804 0.525371 -1.415705 -0.704643 0.146005 -0.686245 1.86847 0.852685 1.986737 -2.457591 -1.714822 -4.966629 0.279405 2.027972 -0.344488 2.949746 0.958243 1.112753 2.089768 -0.845854 -0.586493 -1.896216 -1.151554 3.188068 1.089074 1.336104 0.37432 -0.023388 -0.177615 0.48591 0.502837 1.11011 2.497137 0.049308 -0.305246 -1.961656 -1.205025 0.872284 0.326377 1.016417 0.553052 0.282615 0.500293 -0.695588 0.339628 -0.687291 -0.75178 -2.05636 -1.252974 3.758446 0.713984 0.13859 -1.498343 -2.842622 0.340712 -1.156704 0.084334 1.450991 1.452517 1.193495 0.111668 -0.15052 0.056958 -0.039235 0.920239 0.109355 -1.056869 -0.875771 -0.932056 0.013888 0.038085 0.16659 -1.009179 -1.148696 -0.364684 0.796694 -2.717791 -0.77901 0.670204 -0.360268 -1.139515 -1.47687 0.701037 0.926353 0.153804 -0.555305
area 0.170696 2.130417 -2.058687 1.738295 1.696052 -1.553739 -0.061868 -0.605959 -0.429923 -1.700937 1.479951 1.439582 1.751227 0.01911 2.072049 0.245207 -0.317514 0.086015 -0.857644 -0.350284 -0.422887 -0.983162 1.360032 1.301048 -0.885632 -1.754584 0.820988 -0.276768 1.101277 2.855402 -0.726547 1.035961 2.364839 1.369587 -0.828241 -2.227242 -3.786354 0.707918 1.144305 1.55287 0.710171 2.204234 1.642655 0.203466 0.097456 0.467737 -0.974349 -0.789283 0.944436 -0.081047 -0.801603 -0.712073 -1.298771 -1.552685 0.418696 -1.45522 -0.933957 0.962244 1.055649 -0.356602 0.230352 -0.082784 -0.791212 0.141144 -0.346024 0.17515 2.373626 -0.62662 2.320898 -1.577308 -0.714256 1.984615 0.557321 -0.317091 0.61402 1.61241 1.166203 -0.518485 -0.246873 0.423595 -0.156163 0.202359 2.339443 2.631344 -1.69621 -2.846172 -1.956064 -1.954916 0.263508 1.463801 -0.824037 -0.384107 -2.895038 1.660236 -1.62162 0.758193 -0.526672 -0.461116 1.614783 -2.291576
image -2.063544 -1.358623 -1.354341 1.5025 0.152847 -0.151222 -3.355977 0.269901 0.321821 1.994315 1.305947 3.239216 -1.633308 0.779499 0.024814 -1.014775 -0.754718 1.46191 -1.920017 1.491956 1.177776 -0.565206 2.128291 -1.02174 -0.100306 -0.508723 0.454921 -0.681172 -2.066617 0.628604 -1.595482 0.349311 1.281489 -1.529326 0.575953 -2.53876 -1.633491 1.080168 0.295052 0.342953 1.244263 0.517604 0.151799 1.814818 2.102792 -0.919708 -0.043046 -0.572396 -0.014104 -1.98292 0.349992 0.503491 -1.114537 0.017543 2.050711 -1.388666 -2.32606 1.227285 -0.070216 0.633161 -0.069811 -2.201457 -1.546815 -1.548618 1.204006 1.509857 1.659533 -0.362763 1.102079 -0.639987 -1.557136 1.291882 -1.130004 1.434647 -1.188046 -1.114261 -0.885975 4.17919 0.336204 -1.705255 -0.483544 0.595353 1.861428 0.792579 -1.190846 -2.217808 0.078914 -0.154465 -0.258587 0.378813 -0.556299 0.63474 -3.156832 1.343977 -0.557229 -0.409737 0.236535 -1.114819 1.552758 -0.534039
murder -0.036244 1.538261 -0.09452 3.381951 1.72463 2.168936 2.928402 -0.380172 3.308111 3.023775 -0.919754 -0.49076 0.006341 -0.031539 0.654342 1.114695 0.615979 -0.806567 1.023833 -0.376642 2.271781 -3.741863 0.16965 -1.309751 -0.906598 0.36062 -1.228396 -0.28508 1.9137 0.213872 0.677229 -0.952594 -0.686903 -0.34872 0.235729 3.275215 -1.667913 -0.140237 2.662823 -0.182391 3.29212 2.06788 -1.729799 -1.738026 1.4476 1.462808 1.31099 1.640167 1.049201 -2.287989 0.707947 0.758303 -1.778477 1.20697 0.247833 0.554724 0.487994 -0.257358 -1.311759 -0.708607 -0.612928 0.222978 -0.701038 -1.595158 -1.659295 0.160983 -1.883805 0.819522 -2.858709 -0.253323 -2.871351 2.274813 -0.354196 2.010421 0.986973 -1.049642 -0.235736 2.789874 -2.163568 -1.348191 -2.790252 -6.250283 0.981116 2.729333 -0.689087 0.527971 -0.385577 -1.728148 1.166796 -0.295245 -3.119163 0.236069 -3.700396 1.341847 -0.047382 -3.940366 0.284984 -4.467338 -2.97216 0.373064
journey -1.631756 2.162638 -2.566128 0.629986 -0.461134 1.037344 -0.312692 -1.838973 1.547661 -1.77261 1.123993 -0.795763 -1.613469 -0.929722 0.850729 -0.567661 -0.577253 1.531109 -1.484866 0.56246 0.336477 0.286758 -0.500067 -3.451324 0.121237 -0.470399 0.374306 -0.46581 -0.819645 3.522869 -0.631813 -1.273793 1.795233 -0.571496 -0.423076 -4.492498 -0.499899 1.787208 2.102308 -0.91421 2.202533 -0.75531 0.573397 3.119014 2.103203 -0.089119 0.201274 -2.311198 -2.131454 -2.771617 -1.006047 -0.012608 1.735971 0.188077 1.239811 0.743258 -2.053426 -0.905842 2.373573 -2.212814 -0.463105 0.056632 -1.43108 1.058008 0.848968 0.967363 -0.142079 -0.947023 -0.256698 -1.042011 -2.247801 2.83277 -0.420966 0.401429 0.76803 -0.640157 -0.099232 -0.777968 3.173704 0.054256 -4.35682 -0.815652 -2.337349 -0.148144 -0.098651 -2.273275 0.996701 0.324526 1.1131 -1.54297 -2.643553 -1.935911 -2.929691 -0.487059 -0.599136 -2.11817 -2.132298 0.487179 0.889551 -4.271966
minister 0.881392 -0.174103 1.326349 -3.222095 -1.072245 1.33713 2.210816 -1.71609 -1.688856 -3.18263 -2.159347 5.082807 1.848203 -0.14034 1.454743 3.292478 1.67941 0.030766 0.353161 -0.196435 -1.294848 4.139329 1.000849 -0.955919 0.372955 0.303861 4.732718 3.258628 -4.894241 0.225588 2.324966 -0.793629 -1.306298 0.753239 3.566164 -0.906991 -3.791322 -3.520423 -2.338904 4.548526 4.75909 2.907839 0.154063 2.101819 3.058808 4.414585 -1.149155 1.88071 2.097689 -2.217432 0.85732 -2.552533 -0.452072 -1.883045 1.458776 -0.67391 -3.862727 8.992975 3.012927 -1.958784 -2.175692 -0.353098 -1.586783 -0.526604 -1.526498 1.169283 -0.608887 2.523918 -5.274205 -0.836049 -1.730036 -2.148519 1.194503 -1.869036 3.239342 0.444164 -2.033837 3.426788 -0.490208 -3.175464 2.71142 -2.864365 -2.449554 -1.668437 4.306792 5.428336 -2.102182 0.248075 1.718396 1.413651 1.573622 -1.290018 -2.072915 2.722028 2.712478 0.011093 -5.179185 -1.523715 0.858398 2.804888
planet -3.371554 0.941317 -1.950246 -0.203818 -0.628193 -3.741293 -2.289427 -0.274167 -1.41783 -1.023595 -0.298366 0.501644 -1.400229 1.596328 1.511185 -1.391299 -0.348601 -1.370916 -0.804205 -0.829771 -0.823064 -0.398334 1.575411 2.446634 -0.234641 1.21065 -0.01621 -0.881857 2.006765 1.322683 1.568736 -0.548486 1.699209 -0.424157 2.349916 -2.177416 0.563769 0.73032 1.640809 1.90883 2.461014 0.685504 -0.974543 2.288373 2.192482 0.061539 0.327046 0.680387 -2.444719 -3.353611 -0.342261 2.306053 -0.619735 0.39967 2.707817 -0.832664 -2.555507 -0.170063 -1.734242 -1.477633 0.867661 -2.911728 -0.051295 1.0451 0.914795 -0.692276 1.501296 -1.59734 2.122579 -1.042692 -2.225616 4.167882 -0.788523 -1.712533 -1.795032 0.914627 0.631149 -1.828036 1.963516 -1.059892 -1.463209 1.586243 2.404682 -0.077427 -1.159881 -0.188595 0.992247 -2.395138 0.027158 -0.905638 -0.315683 -1.198945 -2.017178 -0.504117 1.497602 -1.099704 2.118327 -0.280306 1.44195 -3.534927
article 2.411011 -1.441149 -0.727946 -3.17587 -0.207922 -4.535398 1.145803 1.137445 0.51941 4.218986 1.01788 -2.70095 -2.39929 -3.912725 2.524514 -3.662095 0.276744 1.230583 -0.401861 1.148663 -2.112802 2.857609 2.040972 -4.208551 -4.552233 -0.300912 1.744117 -4.808425 -0.382437 4.883224 -1.959491 -0.758085 4.529233 2.353048 1.251869 -1.136613 -4.38037 -1.505153 -2.797804 1.553777 -0.70738 0.965947 -1.76086 2.160994 4.544999 -2.773002 0.010035 -0.75985 -3.238601 -1.540418 -2.570208 -0.910165 -4.387365 -1.487915 2.075433 -0.72399 -1.931267 -0.094547 1.110444 -4.795548 -0.689061 1.084789 -5.148495 -4.734889 1.602368 1.916696 1.793407 -0.559585 0.103326 0.405096 -4.330215 2.403779 -1.286104 -2.877403 1.442201 0.144406 -1.838054 1.978712 2.200724 -3.552893 -2.495417 0.412075 0.253114 2.851465 -4.407818 -1.130932 -1.321743 -0.561451 1.941719 1.159221 0.479029 0.964495 -4.69733 1.92879 0.592086 3.297454 -0.596877 -3.551663 1.203512 0.84677
anxiety -0.212922 0.466789 0.449721 -1.104291 3.550679 -0.451075 0.668065 -1.146716 1.449893 -0.383079 -1.980899 -0.125445 0.44819 0.906858 -0.571463 -1.474019 -0.601246 0.71736 -1.784793 -0.28489 -0.182844 1.018781 1.94911 1.702885 0.849 -1.070612 0.066243 0.882832 -0.951634 1.461377 0.814974 -0.165476 -1.4618 -0.726394 -1.875211 -0.162978 -0.876554 0.24485 0.99135 1.832644 -1.363747 3.458465 -0.052772 0.626649 0.320516 -0.416316 -0.350651 3.117316 -2.77308 -0.688822 -1.758515 0.578981 1.913395 0.334702 -0.669387 -1.852691 -1.879572 1.283984 -1.21591 3.001951 0.322131 1.446445 -1.12251 0.152382 0.516568 3.396417 0.549075 -1.582742 1.153813 0.874206 -1.620323 -1.097464 -0.560365 -2.679043 -0.747318 0.210103 0.389305 2.834768 0.985441 -1.143049 -3.766572 -1.666821 0.704559 -0.365485 -0.757554 -1.950362 0.376864 1.747998 -0.770543 -2.30585 -1.692131 2.338712 -1.041992 0.035353 -1.167906 -0.300892 -0.808632 -0.347515 1.98366 -0.103932
month 0.995256 -0.780014 -2.674425 -3.245186 0.96281 3.194067 -1.780599 1.405364 -0.524759 -5.613065 -0.304916 -1.828307 2.413019 -2.24012 3.687752 -2.170018 -2.069912 0.918275 0.577159 1.332672 -1.292857 -1.359388 1.967264 -1.19646 -0.870442 -1.47655 0.843511 -4.179991 -1.78779 2.917587 3.306242 2.955407 3.041658 -1.948236 -2.079418 1.036124 2.079333 -6.342216 -4.736697 0.213752 1.458116 -2.143511 -1.977436 3.772472 7.034808 1.156667 -2.405463 0.527242 -2.548638 -5.530571 -1.677435 -1.544368 -2.583247 0.415748 -5.269439 -3.470476 -1.700542 0.046436 0.868872 -5.295982 -2.203965 3.691447 -3.537428 1.14736 2.340601 -1.379487 -0.589167 -1.656829 1.982292 -3.846841 -1.367092 3.372781 2.935089 -3.177399 2.91386 2.876631 -1.471145 -1.680281 1.192356 0.201634 -0.769379 0.12244 -0.618975 -3.686131 -5.304988 -1.141584 -2.237653 1.145182 4.437986 -0.025307 2.185381 1.214592 -2.880785 4.524407 -2.097851 -1.893391 4.578994 -6.716064 -2.574632 -0.236276
carnivore 0.396339 0.253887 0.233165 0.850337 -0.45056 -1.068459 -0.727966 0.246049 0.451923 -0.395408 -0.24017 -0.541681 0.381084 0.340073 -0.467434 0.488075 -0.211301 0.527796 -0.711174 -0.277262 -0.813682 -0.341504 1.25537 0.082261 -0.251563 0.984344 0.24767 -1.166643 0.697309 -0.717504 0.269432 0.026742 0.470643 0.131756 1.016594 -0.614336 -0.441891 -0.255112 -0.052004 0.053358 -0.385878 -0.392467 -0.879297 1.846529 0.69211 0.817792 -0.296436 0.920996 -0.58079 -1.114287 -0.017291 0.993935 0.622694 -0.156138 0.799437 0.345098 -1.317293 -0.154546 0.030387 -0.88851 0.444506 -1.269213 -1.262146 -1.177882 -0.125038 -0.550313 0.572385 -0.738546 1.267258 0.01966 0.212953 -0.48362 -0.410386 -0.916701 -1.319681 0.332176 0.611194 -0.581828 -0.031197 -1.223691 0.505718 -0.618925 1.654979 0.403208 0.147128 -0.774737 1.027885 -0.630721 -0.640169 -1.118457 0.406143 -0.49527 -1.111598 -1.272732 0.716536 -0.033678 0.979946 0.148165 0.238866 -1.395623
party -1.083421 0.973792 -0.136604 -1.402267 0.552751 -0.073572 -1.047189 -1.105868 -2.843995 0.498057 -0.062971 1.318402 0.367263 1.228352 2.015644 1.605057 -0.94199 1.677096 0.255977 1.250547 0.03416 -2.281168 0.720641 -0.901807 -1.749582 0.05876 1.444913 1.674597 -1.486357 -0.59174 -2.506359 -0.383956 1.264479 -0.875443 -2.005169 -0.333567 0.881816 -1.899264 0.730939 1.78214 1.870247 0.015619 -1.03044 1.443497 1.243653 0.524348 1.072122 1.63879 -0.44488 -2.969702 1.124237 0.370741 -1.063457 -0.288289 2.101673 -2.083909 -0.961385 0.308443 0.956481 2.299747 -0.206945 0.19178 -1.876142 -0.09339 -0.486002 1.410437 -2.98757 1.917127 -0.175168 1.914228 -1.990326 -0.451454 -1.588489 1.649194 0.869415 2.845224 -1.633014 0.572914 -0.78797 -1.153236 -0.172576 2.508088 -2.019934 1.02551 1.046988 -1.381088 -1.975329 -2.754017 0.025907 1.698351 0.717807 0.950445 -2.271252 1.344544 1.330541 -2.752477 0.750556 1.808557 1.053267 -2.965381
production -0.334534 0.224497 -0.318704 -1.075227 0.341234 -9.55E-4 -0.718579 -1.232139 0.797698 -3.460404 0.551519 1.032287 -1.077891 -0.964285 -0.171869 0.662338 -2.990125 2.281093 -0.089356 -0.166511 -1.144992 0.500925 -0.983196 1.869001 -0.25907 0.075972 -0.605001 2.226369 0.28737 -1.149484 1.59193 1.138055 -0.702485 -0.870769 0.155886 -0.556504 -1.660061 -0.328626 0.466613 -2.462078 0.161046 -0.364927 -1.778635 -0.149428 0.550304 0.454402 1.562606 -2.739779 1.176523 -1.185698 1.082907 -1.191937 1.516958 -0.375093 -0.186073 -0.903602 -2.100562 -1.551926 -1.141308 -0.845393 -1.151907 -0.144506 0.230214 -1.129459 3.269307 0.717253 2.042507 -2.633016 2.388652 -1.069098 1.696459 -1.017238 -0.76832 -0.372989 -0.949433 -1.156555 1.495502 1.01405 1.297085 1.216379 -0.135116 -1.39 -1.424376 1.836879 -1.726325 -0.499649 0.444272 -1.458091 1.174812 0.070568 -0.762635 1.474128 0.27373 2.535273 1.556234 -2.485822 -0.144206 -0.227406 -1.159238 -0.199368
importance -0.185004 0.953098 -1.309506 0.886895 1.512695 -1.265223 -0.040146 -0.722716 0.198939 0.229413 1.306208 0.128883 -2.088854 0.392202 -0.071679 -1.987445 1.688371 -1.501525 0.565958 2.440309 -1.738642 0.851923 -0.391745 2.36937 1.474888 -1.065675 0.67243 0.938247 -1.59942 -0.497515 1.177301 -0.681136 -2.644044 0.289743 -0.792075 -1.295451 0.034916 2.046308 0.485756 1.185087 1.106674 0.231279 0.029816 -0.101252 2.212351 0.633987 -0.532651 1.540921 0.655185 -2.884736 -0.116965 -0.726442 0.797918 -1.637454 1.898284 -0.522536 -3.119085 2.826269 -1.917536 0.890256 0.985313 -3.924138 0.89572 -2.28925 1.576089 1.023878 1.768562 -0.191234 2.466155 1.705611 -1.303334 -1.303661 -0.208254 0.810802 0.769698 -1.251477 0.628284 3.641481 -0.577837 -0.875885 -2.565472 0.241597 -0.499387 1.371801 -0.762396 -2.303169 0.056471 0.526027 -0.112992 -2.18914 0.476636 1.749021 -0.805811 0.57057 -1.337722 3.07837 0.431319 -1.128867 1.037738 -3.225459
inmate 1.327039 0.351291 1.982468 0.383619 -0.107316 -0.441512 1.755858 -1.537324 -1.741244 0.50455 -0.494263 1.791642 2.883647 -1.04929 -0.16838 2.683981 0.134931 2.789412 0.229897 0.031553 1.199874 -1.914897 1.279098 -1.530163 0.530892 1.177509 2.151557 -2.215944 -0.494809 0.621037 -1.012046 0.136499 2.636878 2.4496 0.743024 -1.197011 -2.449848 -0.680675 0.06653 2.420347 2.590939 2.592939 0.726019 -2.605778 0.671543 1.13751 -0.7647 0.406356 -1.685692 -4.09427 1.310042 0.195797 -2.597177 1.527582 -1.349284 -2.141987 0.02874 1.921051 0.686464 -0.72831 0.86887 -0.311431 -0.890958 -1.075188 0.012952 0.32532 -1.313917 0.620597 0.963872 -4.193013 -1.586025 -1.266562 0.676335 2.163298 1.353542 1.063039 0.057873 0.618362 -0.132477 -1.030787 -0.311518 -1.937879 4.344868 1.525334 0.024554 1.032865 1.08875 -3.836429 -0.125242 0.064146 -1.80517 -1.824476 -1.81191 0.106295 -0.221942 -0.60604 0.135664 -4.505355 0.074154 2.886554
Harvard 0.990523 -2.469095 0.68285 -0.965515 -0.654137 -1.686057 -0.615448 -1.305084 -1.314909 -1.655196 2.116993 -0.614122 1.110911 0.521163 -0.779083 -0.696343 1.496433 1.693546 -0.097186 0.958853 -0.130455 -2.24864 1.907589 -3.550634 -1.106541 -1.524547 -0.254111 -2.261072 -0.785012 -0.297525 -0.350109 -0.995117 -0.944101 2.533617 -0.790249 1.991765 -0.189227 -0.717084 -0.635452 -0.762109 0.913025 3.444985 -0.771906 -0.159302 -2.313061 -1.444782 1.067811 1.445401 1.644336 1.270192 2.664029 -1.263402 -2.598222 2.620814 1.251302 -1.241919 -2.520915 -2.771655 -1.958853 1.150018 -1.78029 0.415496 0.822317 -1.3536 0.750928 0.434034 -0.636146 0.176462 1.655254 3.921041 -3.881002 1.825968 1.822034 -0.632303 0.259891 -0.93584 -1.778094 -0.711107 -0.509794 -0.006577 -0.563056 -0.654238 -0.033106 0.170166 1.394876 0.275677 -1.827711 2.390875 -1.155284 -1.279603 -1.952994 -2.464365 1.408286 -2.153397 0.444523 0.599972 -0.472376 -0.705352 -0.432367 1.853637
psychology 0.023034 -1.897538 -0.171745 0.355489 0.226634 -1.362157 -0.752922 0.193327 -0.306191 -0.551357 0.599011 0.622763 -0.846365 0.346982 0.882531 -1.36078 2.045683 -0.481886 0.063237 0.671651 -0.868511 -1.593644 1.079206 -1.596772 -0.317007 -0.749724 -0.40573 -1.865329 0.204905 0.843067 -0.466558 -0.613036 -0.724155 1.882508 -0.027587 0.246835 -1.119627 0.865351 0.329868 -0.798244 0.733825 1.684911 -1.896037 0.163543 -1.83352 -1.513291 1.611562 0.708565 0.435035 -1.303661 2.152822 -0.048198 -0.803753 0.12489 0.595592 1.995608 -1.815423 -1.776903 -3.157942 0.937831 0.293726 0.229108 0.92654 -1.748305 1.103092 0.930889 0.326983 -0.759543 2.632052 1.953618 -3.084718 0.526091 1.888222 -0.906649 -0.759598 -2.163485 0.484532 0.710617 0.332755 0.044823 -1.06646 -1.660274 0.458545 1.040817 0.935686 -2.043161 0.674374 2.488886 -1.060903 -1.513019 -0.659165 -0.566252 -1.406713 -0.850241 -0.515356 1.06632 -1.159518 -0.516042 -0.435707 -0.360718
medal 0.229582 -1.896368 2.079683 0.32106 2.379628 1.063346 -0.837018 2.017223 -0.907318 -0.031616 2.108378 -0.434164 -2.917991 0.084977 -1.123754 1.245663 -1.183506 4.312134 -0.806684 -3.231174 -3.456478 -0.162825 1.643428 -0.484969 -2.571012 -0.505729 -1.180396 -4.050607 -0.870092 -2.743895 2.474074 -1.826559 -1.430206 -0.332612 0.259209 2.044676 -1.053263 1.772694 2.203216 -0.997722 1.967289 -0.572494 -0.323332 -0.938783 4.041805 -1.94373 3.754425 -1.920801 0.305126 0.330255 -2.731729 -1.680183 -4.288591 -1.140607 -1.591481 1.004122 -1.887336 2.200377 1.419801 0.48716 -1.080144 -4.630885 0.516991 -0.435903 1.125898 -2.645046 -2.770448 1.86685 0.686961 -0.166718 -2.213682 1.518829 -1.764526 -0.052581 0.834066 1.370058 -2.931543 -0.447296 4.227015 -3.358401 -1.88379 1.644087 -1.618779 -0.901186 3.527034 -1.758715 -1.35033 -0.396273 0.889192 0.827195 0.15343 -0.159087 -3.246405 3.364024 -2.81423 -3.177813 -0.320994 -0.425146 -0.823099 -3.95231
company 0.238764 0.642392 -1.891048 -0.573215 -0.135792 -1.716648 -1.58875 -0.41546 -0.668327 -0.965974 -1.456092 0.838823 1.218765 -0.419005 2.240788 0.508309 -1.647561 2.860761 -0.724398 0.571038 -1.786933 1.933216 0.627032 -0.434754 -0.990666 0.542431 2.058414 0.403941 0.683835 0.675416 -2.238228 0.247556 1.6519 -0.381169 1.48313 0.112742 -1.619064 -0.80134 2.244206 -0.210845 1.151213 1.076624 -1.226149 0.243189 1.221209 -0.73969 0.42047 0.88975 0.044902 -0.42846 4.863653 -1.769995 0.778446 -1.573474 0.385136 -1.736634 -3.277822 -0.919888 2.614464 -0.199017 -0.761901 -2.939344 -0.62493 -0.849279 -0.602299 0.346946 1.269458 -1.448703 0.800247 2.372355 0.181835 -0.857785 -1.348493 2.509063 0.940897 1.568966 0.853405 -1.521953 1.613505 0.057942 0.398324 0.850191 -0.741009 1.071604 -1.072619 0.265136 -0.916886 -1.195082 1.183689 -0.103663 -1.417242 1.708928 -2.133279 4.222643 0.274476 -1.583838 1.052345 -0.252175 -0.315249 1.638683
live -1.614509 -0.817178 -2.340268 -0.109731 -0.92994 -1.032941 2.981219 0.870265 2.069297 -0.558122 3.611564 -1.253195 0.511509 0.512476 0.661958 0.520578 -0.530977 -1.62484 -0.251864 -1.036864 -2.004518 1.469628 0.661764 -1.441485 1.792507 1.189729 -3.213458 -0.608465 -0.62176 1.017627 0.532064 -0.742242 0.586865 0.681972 0.101895 -1.061245 -0.124729 1.767822 1.382676 0.761038 -1.542848 -0.569516 -1.147143 1.351828 0.325402 -0.417944 2.289336 -0.217848 0.34122 -1.455058 0.810712 2.956402 0.489039 1.909512 1.70734 -0.111954 0.716206 1.660834 0.239095 -0.515372 -0.110573 2.801386 1.350688 2.459901 -1.627457 -0.114331 0.064391 -1.848705 -0.148276 -1.338813 -1.853164 1.545799 0.777106 0.149397 -2.259011 -1.675874 0.8891 0.856984 0.613418 -0.107662 -3.88732 0.376303 0.006734 -0.246168 2.36096 0.616212 -0.280216 -2.813898 -1.911139 0.81604 -0.727766 0.418113 -1.878586 -0.74852 -0.06315 -0.656097 1.293682 0.28067 0.165891 -2.121703
holy 0.73408 1.399197 0.616484 0.165988 -0.280123 -0.021208 3.798653 -1.732004 -0.599004 1.117942 1.856677 2.124989 2.660332 2.193012 -2.032381 1.754273 0.811385 -3.177002 -0.297665 -0.379216 0.302787 -0.676151 -2.294431 -2.446535 -1.37669 -3.18451 -0.371111 0.037152 -1.528811 -2.356358 -2.021512 -1.236775 0.154445 1.079179 0.795734 -0.855516 0.947788 -0.370086 2.580088 1.361945 -0.026572 -1.202504 1.188266 -1.144084 -2.439635 0.299248 -0.858814 1.617518 -0.026697 -0.280499 -0.342659 2.147791 -0.640628 1.046818 1.724756 1.668526 -0.60907 0.633695 -0.344418 -1.023898 -1.693846 -0.518307 -0.927431 -0.184729 1.417307 -1.036462 2.849852 1.115606 0.111487 0.370177 0.787333 -0.13074 -0.818021 0.899472 -1.060538 -1.81015 0.178695 -0.151443 -0.99526 0.537452 -1.262888 -2.043664 0.951084 1.176466 -0.976684 -2.912869 -1.295935 0.837993 3.154379 -0.043998 -3.351873 1.082149 -1.736438 -1.259404 2.035721 -0.488067 -2.561781 2.310803 1.000471 -3.113848
ticket 0.446779 -0.918525 -0.332925 -1.036995 -1.34108 0.595962 0.31755 1.034851 -1.05467 0.671457 1.61599 -0.106935 -0.933131 0.963646 2.263039 -0.327958 -1.532678 -0.269705 -1.595204 -0.635369 0.700869 0.036063 1.522338 -1.870441 -1.628463 -1.460388 0.515338 -0.235845 -1.338972 -0.364937 0.570369 -0.707425 2.463765 -2.18977 -2.770847 -0.934155 -1.140056 -0.972041 -0.997717 0.116523 1.134555 -2.19626 0.169086 -0.706337 1.78987 1.877976 2.73852 -0.843347 -0.652378 0.605119 0.333261 -2.036742 -0.043331 -1.085494 -0.06096 -0.675674 -0.374817 0.408085 0.779606 1.401424 -0.152447 -1.002672 0.048691 1.009241 0.472078 1.052336 -1.487882 -0.375636 -1.418425 0.865819 0.937014 0.143991 0.759822 0.978327 1.126144 0.584085 -0.57064 -0.699216 5.282899 1.051616 -0.910089 2.832607 0.696174 -1.055265 -0.975098 -0.010057 -0.482695 -2.22642 3.117954 -0.036263 -1.644077 0.124574 -0.584233 -1.987928 -0.124351 -1.34863 0.63358 1.168641 0.008907 -0.493525
victory 1.249264 1.08524 -0.531503 -2.532145 2.570771 0.6562 -2.576209 -1.499329 -0.729349 0.586298 4.600606 2.77479 -0.25627 -0.503877 0.037865 2.942598 -0.703664 0.682656 -3.782217 -0.212963 -1.793937 -0.402476 0.409338 -3.559954 0.525748 1.516815 -0.673274 -3.260648 -1.281862 2.526337 2.942982 -3.158771 -0.204666 -2.117959 -2.8145 0.912082 -0.675513 0.369183 0.941404 0.06684 3.365902 -1.078415 -1.021704 1.41054 4.373193 -2.669259 -0.587122 -1.147459 -1.316264 -2.124875 -1.124829 -0.629122 -0.169964 -4.218264 -1.622632 -1.542268 0.232755 3.645391 -0.055037 1.958206 -0.074278 -0.083329 -3.396862 -1.595926 0.702311 -0.242571 -3.273981 0.601407 -1.149908 0.549441 -1.20496 -0.330462 -1.495344 0.777007 1.466558 -1.77765 -0.357847 0.150255 -0.065856 -0.659316 -4.082081 1.191184 -1.19376 -0.243519 0.724557 0.060754 -1.549348 1.183061 0.236953 -0.931381 0.042652 -2.028498 -0.043419 3.160686 -0.48454 -5.0959 -1.303087 -1.659363 2.497789 -3.574589
football -2.0127 -1.914624 0.333124 1.856021 2.341433 -0.763185 0.586974 -0.207439 0.649947 -0.97444 0.21091 1.466927 0.119236 -1.757346 2.573003 0.902115 1.213512 -0.048944 0.357617 -2.043177 -2.106589 -1.642567 1.479795 -1.756778 0.862891 -0.286597 -1.692501 -0.155411 -0.56437 -0.599568 0.123709 -0.677562 1.556849 -2.282891 -0.674982 1.992294 1.338388 -1.051808 2.561301 0.558981 0.01679 -0.487228 -1.831145 -0.399342 -1.528428 1.094324 2.036381 -2.013529 1.085337 -0.294808 -1.052437 -0.365266 1.561763 0.166985 1.961553 -0.353318 -0.712063 1.719858 -2.264462 -1.424921 1.746945 -1.070272 -0.689213 1.206286 1.582095 0.060692 -1.976899 1.113175 0.930926 2.017544 -1.022221 -0.708765 1.143939 -1.608357 0.521795 -1.058382 0.577109 -0.363279 1.051166 -1.038965 1.60457 1.880612 -0.295386 1.058165 1.37733 -2.196331 1.15083 0.734465 1.019059 -0.415791 -2.149242 0.360865 -0.818371 -1.446937 -1.311643 0.072297 0.773776 -0.040837 1.460064 -1.495426
seepage -0.104606 0.520822 0.143461 -0.42181 -0.025823 -0.388006 0.052025 -0.640959 0.136062 -0.822424 -1.089424 0.75858 0.089525 1.240409 0.308232 0.368324 -0.120954 -0.478611 -0.27502 -0.951054 0.254635 -0.606855 0.136077 0.499466 -0.227953 -0.733013 -1.086964 -0.274552 1.34526 -0.507386 0.492026 -0.142589 -0.426172 0.161392 -0.265042 -1.232676 -0.084401 0.737098 -0.255102 -0.380021 1.20522 0.530867 -1.051381 1.402189 -0.218718 0.521235 -0.14693 0.589071 0.071481 -1.279694 -1.437466 0.285905 0.309175 -0.094624 -0.222009 -1.79697 -1.241213 -0.813609 -0.808069 0.007799 0.112487 0.115302 -0.057721 0.531142 0.064031 -0.075812 1.351621 -0.72256 0.097765 0.217715 -0.620741 -0.49802 -0.269939 -0.35739 -0.560543 0.363784 0.998288 0.50033 0.773829 0.417493 -0.165954 -0.039571 0.272624 1.278075 -0.289721 -0.55167 -0.379939 -0.600644 0.020729 -0.250128 0.093151 0.266911 0.221468 0.343806 -0.686262 -0.087283 -0.250912 -0.0193 -0.011187 -0.081606
rook -0.219011 -0.476305 0.043753 -0.042135 0.243314 0.106525 -0.402525 0.508441 -0.147149 0.545729 -0.513505 0.410757 0.484115 0.069958 -0.269912 0.302015 -0.749978 0.462092 0.141545 -1.139618 -0.162677 -0.28157 0.274977 -0.874096 -0.302576 0.01863 0.333587 -0.490698 -0.854451 0.319384 0.082514 -0.182947 0.490334 0.033016 0.127775 -0.465208 -0.437388 0.180202 -0.191924 0.381757 0.406295 -0.688853 -0.371941 0.276916 -0.352754 0.461244 0.179633 0.38562 -0.309728 -0.104048 -0.147294 0.284133 -0.046614 -0.157121 0.151704 -0.552344 -0.056071 -0.436448 -0.220704 0.245697 0.076479 -0.703404 -1.103878 -0.197096 -0.152332 -0.486962 0.262033 0.261327 0.620624 0.420392 0.148333 0.372396 0.105473 -0.384024 0.028089 0.401928 -0.737141 -0.516261 0.142464 -0.202579 0.045697 -0.048387 0.583258 0.197835 0.337999 0.260156 0.12993 -0.605327 0.103602 0.212839 -0.235521 -0.113965 -0.860733 -0.957701 0.452683 -0.791246 0.247774 0.163757 0.580685 -0.056142
stroke -0.900591 0.55766 0.040601 -1.825402 3.119399 -1.609937 -1.344863 -0.974602 2.168807 -0.752236 -2.604045 -0.73705 0.575784 -0.264507 -0.867909 0.057457 -0.392165 1.668006 -0.535942 -0.694417 -1.146889 -0.974137 1.656405 -1.884829 -1.193758 0.583902 1.422498 -1.777034 0.151939 -0.227846 1.439746 0.029318 0.923744 0.538475 -0.119253 1.609016 -2.381306 1.607179 0.932477 0.27032 1.437633 -0.411858 -0.109529 0.793808 0.016389 0.052265 -0.443908 0.735023 -1.725001 -1.239771 -2.289049 0.631728 -0.827322 0.924121 -1.525219 0.133866 -2.85212 -1.127792 1.522938 2.576789 -1.730422 1.579636 -1.354053 -0.524576 0.444381 1.185505 -2.775353 -1.019985 -0.929327 1.897521 -2.36959 0.128443 0.762676 -3.736372 -0.292405 1.41519 -0.822304 -1.745712 -0.590803 -3.227169 -2.133506 -0.327082 1.872833 -1.790756 1.016443 -0.881419 0.76174 -1.859384 -0.992419 1.014793 -2.923401 -0.91098 -0.802493 1.495847 -0.549473 -0.856271 -1.274816 -0.695929 -0.672908 -2.340457
environment -1.526152 2.033146 -0.612745 1.066006 1.421607 -0.988172 -2.358153 -0.66683 0.158302 -1.232563 0.561654 2.394589 -0.625288 0.715462 3.138302 -1.859945 2.082484 -0.512366 -0.335211 -0.417624 -0.97377 -0.052797 1.209063 3.878522 0.160768 -0.480421 0.127736 0.894814 -0.440779 2.664366 -0.435616 0.540983 -0.162309 1.560475 0.810279 -4.086045 -0.613994 0.428103 -0.757036 -0.647567 1.45984 -0.069641 -1.675684 1.427951 2.073912 -1.125713 1.153896 1.226297 -1.287284 -1.050791 2.971903 -0.662506 -0.239179 -1.109973 1.503965 -0.326833 -1.273919 -0.612301 0.392397 0.613214 1.199878 -0.477295 0.762951 0.056457 0.937789 -0.181799 1.950212 -0.195682 2.828789 0.185679 -3.654866 -0.779192 -0.930127 -1.606083 -1.379955 -0.567113 -0.332774 1.079887 2.271441 1.247311 -1.208962 0.886563 1.466515 1.653219 -0.905427 -1.782076 0.276077 -1.255047 0.223433 0.338932 1.250466 -0.334069 -1.981526 1.818334 -1.722443 0.654085 -0.327825 -0.333051 2.696859 -0.783474
coffee -0.996943 1.247359 -0.881282 1.775956 -1.113365 0.294105 0.52889 -1.092651 -4.98E-4 -1.136473 -0.202774 0.31595 0.246334 -0.147639 -0.060424 3.128313 0.06579 -0.534543 -0.394325 -0.56307 -0.558452 -0.415847 -0.917413 -1.620458 -1.478164 -0.500216 0.736288 -0.05239 -3.77358 0.813294 -0.370993 -2.262407 1.650477 -1.459178 -2.401883 1.248646 -2.406122 -1.141929 -2.99089 1.210147 -1.176366 -0.196774 -1.189647 0.181144 -0.733033 1.315324 0.226206 1.455114 0.396565 0.296834 0.087145 -0.0214 2.70358 -1.231128 1.895262 -1.426352 -0.452644 -0.647736 -0.021496 1.426868 1.85865 0.131383 -0.852912 -0.576129 0.7538 -0.645501 0.149618 -2.05792 -0.158608 -0.430886 0.75485 -0.830488 0.005348 -0.712769 -0.722709 -1.092026 1.344744 0.199678 2.637231 -1.451638 -1.794584 0.172289 1.01309 0.281484 0.435931 0.195171 -1.053846 -0.778624 2.114406 -0.818729 1.37586 1.082174 -2.050959 -0.620303 1.290746 -2.865566 -1.084639 1.407684 -2.831866 0.628456
baby 1.022152 0.962405 0.104655 0.5411 -0.58367 -0.159826 0.121421 -0.67459 0.348645 -0.387506 -2.180797 -1.756043 -0.232176 1.483407 -1.344149 0.069526 -2.08338 1.299274 -0.509714 -0.821743 0.958895 -0.757671 2.296048 -1.665751 -1.877234 1.754786 -0.429134 -2.403599 -1.274279 0.160282 0.170302 -1.076746 0.085113 -1.867302 0.955849 -2.064331 -0.997906 0.950606 -0.411991 0.23224 -0.208144 0.05336 0.815823 -1.22567 0.170055 2.481015 -0.550324 0.845247 -0.802697 -2.534442 1.174646 1.090501 2.414695 -0.653932 2.050952 -1.224615 -2.905218 -0.222673 1.069474 3.033712 0.606554 -1.723704 -1.251621 1.564145 -0.926247 -0.40052 -1.255793 -2.182958 0.504892 -1.505689 -4.019147 0.960627 2.394351 -0.320941 -0.734262 1.995087 0.216455 0.373671 1.704015 -4.361179 -1.755032 -0.853522 1.067106 1.090933 0.002641 0.629036 2.35494 -1.911843 1.231203 1.193348 -1.24118 -1.031807 -1.687401 1.332259 0.937742 -1.986204 1.34447 -0.769362 -0.915348 1.26198
personnel -0.210598 2.11498 0.168646 0.677087 -1.281021 0.294716 2.904402 -1.380618 1.550603 -2.281084 -1.118845 0.735452 1.872103 -2.397544 2.808276 -1.032158 0.323469 2.895096 -0.130014 -1.505483 -1.459691 0.08483 -0.195081 1.404834 -0.239898 -3.501623 -1.415463 2.575218 0.442909 -2.560179 -1.508028 4.147276 -1.452242 1.693355 -0.892487 -1.840594 -0.33974 1.107588 -0.466126 -0.677295 -0.077521 -0.600846 -0.85218 -0.195001 1.290034 1.296265 -1.465918 0.747459 0.145688 2.112086 0.274274 -1.916072 0.272747 2.147753 -0.78439 -1.503858 1.260628 2.239318 2.449289 1.079772 0.519461 -3.097057 0.33108 -0.511301 2.334801 -0.662171 0.046911 -0.492768 0.630558 -0.123834 0.379553 -0.186369 4.853421 0.935302 0.879247 -2.378383 0.012295 0.043922 -1.899827 -0.138223 0.116155 0.548001 1.345413 0.538092 0.568298 0.564884 -1.758737 -0.845912 -0.796185 -2.153145 -2.168946 -0.512226 2.193885 0.388261 -2.305567 -1.184819 1.270527 -1.804342 1.072201 0.592452
family -0.040182 0.374639 -1.472619 0.888634 -0.222748 0.943108 1.188686 0.840056 0.226804 0.219936 -1.393084 -0.76684 0.594458 0.54348 1.950407 -0.767667 -1.090575 1.361016 -0.71823 0.281365 1.459138 -0.334021 0.215636 -2.220775 -1.135864 1.735314 -0.130105 0.164302 -2.067893 0.318561 -2.199358 -0.530042 2.250682 -0.120024 -0.001009 -1.244612 -0.091338 0.089152 0.122308 -0.760975 0.898058 2.334436 1.526158 1.033396 -0.840023 1.684459 0.369842 1.306187 -0.12881 -1.666555 2.349577 -0.502233 1.936007 -0.018347 2.024589 -0.458288 -1.639616 1.964921 2.413034 3.084576 1.594053 -0.538564 -0.059534 0.28909 -0.536172 -0.179366 -1.550858 -0.937325 -0.961241 1.004654 -4.230062 2.522306 1.170894 0.475341 1.39993 2.994713 -0.131281 -0.960263 -0.943053 -1.081495 -2.361042 1.056949 -0.406438 2.830334 -0.871166 -0.505843 0.108063 -1.473378 0.135758 -1.252228 -2.03484 1.581746 -3.960329 0.841912 -0.074583 -2.244459 0.960019 -0.552216 0.26329 -0.658081
hypertension -0.554817 -0.207128 0.677107 -0.430383 3.222092 -2.575732 0.895402 -1.693186 2.472816 -1.623447 -1.507674 0.096648 0.669167 0.448714 -0.219587 -0.076185 -0.529552 0.77567 -0.665679 -1.058599 1.010359 -0.842136 0.624804 1.387841 -0.979358 0.117647 1.183875 0.316352 1.320798 -1.999617 1.453396 -0.469548 -1.247466 0.555985 0.793462 0.37387 -2.100528 0.733322 -0.806214 0.73064 -2.124341 0.950688 0.667814 0.837885 0.105825 1.121115 2.882004 1.302488 -1.814242 -0.042841 -1.004782 1.226971 1.132982 0.86593 -1.105277 -1.03921 -2.192018 -0.922212 0.803192 3.314974 -0.943144 2.179771 -0.720671 1.029692 -0.013409 2.436952 0.10706 -0.056892 2.393701 2.140206 -3.174855 -2.313207 2.374088 -1.407205 -2.349955 -1.840816 0.423434 -1.234292 -0.049006 -3.318508 -1.921529 -0.332147 2.083843 -0.969714 0.516976 -1.816801 0.886433 -0.996201 -0.923386 -2.005478 0.089436 -0.113344 -0.854173 1.712348 0.665579 0.095456 -1.315871 -1.211665 -0.546733 0.247306
president 0.993044 0.043498 1.037686 -2.28844 0.675042 2.019912 0.792396 -1.039439 -1.745882 -0.626436 -1.714434 1.523858 1.9154 -0.078913 0.57559 -0.569473 -0.002844 -1.15123 1.700732 1.295108 -0.634021 -0.0877 0.266035 -0.164521 -0.176938 0.4132 1.658271 -0.561508 -2.106982 -0.826265 -1.62958 -0.788275 0.375936 -2.674305 -0.804479 0.001227 0.129914 -0.792881 -0.128908 1.008558 1.682982 0.264653 0.907148 1.829021 3.332582 0.755845 2.218824 -1.161851 0.802516 0.11101 4.936164 0.650553 -1.141167 -1.983838 1.431611 -2.199906 -3.132057 2.282992 0.185945 -1.477457 -1.785485 -2.526585 -1.880549 -1.485234 0.873468 0.68054 -1.572744 1.947659 0.236199 -1.360103 -0.137247 -2.220555 -0.324478 0.238532 0.525089 -2.019763 -0.618954 2.058476 -1.148381 -2.642639 0.627757 -0.254254 -0.504221 -1.790441 -0.032512 0.133667 -2.591966 1.742261 0.406244 -0.664535 -0.045951 -2.163114 1.500657 1.595159 3.40813 0.207518 0.364072 -1.828236 1.116615 -0.661988
atmosphere -2.68472 2.00054 -0.764821 -0.262842 0.595755 -1.65799 -2.470219 -2.073829 0.217774 -0.838641 0.126358 2.48693 -0.724834 1.081574 1.887347 -0.208406 0.17241 0.272635 -0.226316 0.107884 -0.248543 -0.785976 1.702323 1.173606 1.042299 -0.005993 -1.375886 0.081633 -1.219455 0.916553 -0.426752 0.163581 0.862788 -0.068034 -1.514992 -3.570742 -1.747046 0.928715 0.503596 2.266716 1.860971 0.424507 -1.68909 -0.487921 0.569643 -1.907066 0.081363 -1.259475 -0.147623 -2.364539 -1.216536 1.392692 -0.907725 -2.03163 1.528542 -1.133479 -1.367248 -1.269324 -0.193786 -1.715258 0.773474 -1.586948 -2.499728 0.743813 0.207089 -0.62847 2.546056 0.177856 2.865041 -0.327972 -2.668008 1.991218 -2.25861 -0.430082 0.122517 1.158098 1.857989 1.961323 2.127464 -0.110702 -0.86391 -0.700626 0.854617 2.365381 -0.23097 -3.243678 -1.295487 -1.481283 -0.391049 -0.017985 -0.316286 1.197269 -1.569078 1.294338 -0.627122 -0.02585 -0.298446 0.78468 1.19109 -2.16716
practice -0.039899 2.114926 -0.527758 1.028623 1.991456 -1.732 0.910268 0.318485 0.01643 -0.275181 1.194143 1.201466 0.119762 -0.202974 1.028519 -0.130905 0.785556 1.67644 0.035371 -0.076205 -1.69855 -1.820226 -0.900141 -1.466362 0.698409 -2.423477 0.405401 -0.518463 -0.002141 0.751478 -0.822445 0.168842 -0.680095 -0.264216 0.029144 -0.572207 -0.798578 0.14982 0.567815 0.095252 -0.085775 -0.288667 -1.620018 -0.626563 -1.919073 -1.528485 0.58098 -0.595105 -0.199455 -1.937979 1.227422 -1.28683 0.54764 -0.390714 1.22181 -1.454515 -4.9E-5 -0.247252 0.873425 -0.462241 -1.064359 0.923737 -0.812886 0.032254 0.913346 0.024664 -1.44827 -0.515891 1.156508 2.469542 -2.464534 -1.455489 1.393287 0.553347 0.732494 -0.682196 0.655255 -0.001781 1.656935 -1.867293 -0.256717 -0.408395 0.027416 -0.688024 -0.063983 -1.45964 0.135517 0.151983 -0.159664 -0.386597 -0.662256 1.753827 -1.920653 1.057589 -1.830908 -0.539716 -0.730074 -0.342517 -0.061413 -1.60429
movie -1.987091 -1.565195 -0.607418 -0.827388 -2.229948 -1.649371 -0.995175 0.305358 1.960485 -1.465703 0.477183 -1.036265 -1.107198 0.028914 1.588473 0.092402 -0.477063 0.713726 0.509737 0.929724 0.299911 -1.368126 -0.656532 -2.604818 1.400497 1.332994 -0.910163 -1.638715 -0.874533 0.814576 -1.713671 -2.487294 1.158096 -2.611352 0.605206 -1.358218 -3.001236 0.494875 0.466313 -0.145247 -0.799473 0.849813 -2.310841 0.281288 1.52977 0.740305 0.883688 -2.899508 -1.071957 0.883749 0.576214 0.0913 -2.046 -0.086733 1.86133 0.244374 -1.935565 0.698135 0.422815 -1.439066 -1.039177 -0.101403 -1.901525 0.357664 2.659792 1.511386 0.533593 -0.936451 1.188331 -0.980518 1.7024 -0.104867 -2.430326 -0.176363 -0.250968 1.131062 -0.618933 0.067423 2.006435 -0.976898 -0.48471 0.781597 -0.146072 0.340325 -1.107401 -1.062074 2.681342 -0.244851 0.843019 -0.143159 -1.692631 1.029112 -2.657335 0.085863 -0.084218 -1.88676 1.387719 -1.582971 -0.613894 -0.395818
popcorn -1.772425 -0.23261 -0.25754 -1.146693 -1.628182 0.306705 -0.045648 -0.86578 0.556633 -0.007299 0.140573 -0.358397 0.911731 1.219968 -0.796667 1.444799 -0.990059 -0.21065 0.068903 -0.591264 -0.922944 -0.509772 -0.713231 -0.693116 -0.343343 -0.505243 0.77042 -0.49688 -2.417678 -0.398092 0.754377 -1.413083 0.158155 -2.692625 0.047111 -0.019425 -2.523014 -0.135868 -2.504377 0.153625 -0.754791 -0.658126 -1.082063 -1.041205 -0.688311 0.472012 0.180971 0.290102 -0.157173 0.748036 -0.887732 -0.656413 0.827126 -0.824681 2.334051 -0.622724 -1.068302 -0.518534 -0.219286 1.697374 1.248872 -0.597421 -0.751839 0.693969 0.467889 -0.437346 0.301267 -2.783156 1.140473 -0.703535 0.618283 -0.349392 -0.245175 -0.54286 -0.948354 0.464025 1.250552 0.622048 2.430034 -1.647754 -0.195252 0.268585 1.220789 0.523062 0.697226 0.23759 -0.840378 -0.496091 -0.120329 -1.3546 1.067544 1.33367 -1.423269 -0.539077 -0.135335 -2.714141 0.763301 1.41931 -1.343436 -0.019261
recommendation -0.452197 -1.501601 -1.194985 -0.34149 -0.938036 0.236228 0.282935 -0.093178 -1.602452 1.849037 0.269711 -0.607989 -0.989239 -0.465453 -0.171743 -0.819691 1.316386 2.224651 -1.072127 -0.613333 0.446434 -2.308926 -2.037581 1.754976 0.483769 -1.416035 1.552532 -1.264893 1.182983 1.424957 -1.140475 -0.281922 0.848927 -0.206135 -0.367236 -2.121594 -0.102575 -0.410446 -0.926457 1.035134 1.508724 -2.563372 1.263288 1.660716 2.411823 0.229551 -0.982166 -0.175221 -0.204321 -1.803865 1.175748 -1.194412 1.228384 -0.690851 0.129656 -3.43009 -2.740324 -1.75506 2.955816 -0.93441 -1.239047 -0.079863 -1.64544 -2.027114 2.288851 1.118862 -2.051702 -0.196443 -0.562498 3.027103 -1.952964 0.31966 -1.491439 0.633936 1.628348 -2.273284 0.857525 -1.030007 1.565926 -1.641474 -0.73711 -0.775724 -2.535661 -0.07108 -2.849689 -0.587075 -0.536792 -0.706987 0.963352 -0.935286 0.428383 0.828947 0.19784 -0.074224 0.263678 -1.013829 -0.556614 -0.833416 -0.646762 0.152485
focus -0.905105 -0.703161 -4.873849 -2.289487 2.614619 -1.274813 -1.726949 -1.008508 -0.143678 -0.707253 2.239158 -2.457768 -2.579415 -1.43738 2.475992 -0.868897 -0.24896 1.769381 -1.689649 0.835941 -1.272341 0.385651 -0.231034 1.375093 -0.03668 -0.110109 1.606558 2.422709 1.01389 2.696094 1.156357 0.631893 -0.114752 0.184966 2.14658 -0.693095 2.690812 2.421507 -0.245847 5.036319 0.126121 -0.843288 -1.742439 -1.935223 1.699636 -0.952896 1.349514 0.33558 1.02702 -3.826533 2.971503 0.640434 2.947282 0.701492 3.94947 0.091063 -1.043178 1.518499 -2.990891 -1.220796 0.04988 -0.419433 2.345123 -2.035807 1.553211 4.096177 -0.592458 -1.016146 -0.208498 -0.772335 -1.868214 0.342662 0.132762 1.572844 0.101639 -2.933779 0.844184 1.837609 0.777969 1.489269 -3.45126 2.426257 -1.35595 -1.781796 -0.894162 -0.688781 -0.955079 0.032938 0.363298 0.390609 0.607332 -2.487734 -0.109999 -1.374952 -1.019419 -1.150695 0.44028 0.347877 2.441254 -3.024898
