437 300
plane -0.187158 0.004389 -0.297305 0.068972 0.058101 0.16214 0.150078 -0.123388 -0.098098 0.197212 -0.037697 0.15357 0.096656 0.114669 0.408491 0.053173 -0.422864 -0.311771 0.170619 -0.298905 -0.137437 0.58607 -0.310234 -0.253611 0.227899 0.370195 0.257346 0.038259 -0.173178 -0.216661 -0.016853 -0.382443 -0.152755 -0.047901 -0.00473 0.423407 0.2924 -0.144797 0.317454 0.478421 0.107057 0.122666 0.241264 -0.183572 0.096013 -0.058533 0.01493 0.103846 0.014148 -0.080974 -0.144168 -0.169425 -0.419921 0.42731 0.023128 -0.021366 0.08375 -0.219839 -0.133116 -0.147411 -0.234983 0.254288 0.497352 0.216842 -0.425009 0.201863 0.180796 0.071842 -0.293058 -0.215725 0.39702 0.290453 -0.125589 -0.173651 0.281067 0.004444 -0.13879 -0.314939 0.205578 0.107037 0.300594 0.018252 0.208203 -0.271078 -0.130615 0.027025 -0.008001 -0.356825 -0.237574 -0.163226 -0.41453 -0.109247 -0.144947 -0.434107 -0.280704 -0.205479 -0.009398 0.107988 0.186027 -0.313731 -0.078155 0.03124 0.133072 0.019667 0.021154 0.255707 0.039547 0.346197 0.469959 0.066154 0.066318 -0.055471 0.186084 -0.219206 0.160874 0.148262 -0.024091 -0.458561 -0.121432 0.471234 0.345027 0.321255 -0.704323 0.093161 0.544693 -0.207665 0.05005 -0.22424 0.007067 0.394072 0.161881 0.102117 0.184609 -0.217427 0.224974 -0.571502 0.287412 -0.057975 0.005132 -0.146871 -0.130078 0.012477 0.149783 0.414233 0.187041 -0.243912 0.182442 0.21615 0.287513 -0.039098 0.044753 -0.103646 0.320979 -0.259919 -0.365271 0.11896 0.039458 -0.101907 0.449908 0.197885 0.315537 0.343579 -0.514946 -0.315002 0.219086 -0.496695 -0.543211 -0.083875 -0.088239 0.456934 0.282344 0.056901 -0.369378 0.042656 -0.385182 0.134737 0.235452 -0.215406 0.302519 -0.288723 0.093321 -0.183573 -0.668705 0.260682 -0.076751 0.156168 0.009492 -0.059509 -0.039712 0.248135 -0.335845 -0.089124 -0.45107 -0.299162 0.306452 -0.194507 0.365495 -0.044201 0.103404 0.126172 -0.116157 -0.074196 -0.285421 -0.29764 -0.051318 -0.162456 0.362458 -0.002717 0.270536 0.218938 0.292333 0.577882 0.385846 -0.077993 -0.036754 -0.261036 -0.250258 -0.048323 -0.073582 -0.058037 0.206826 -0.137568 0.058898 0.267672 0.609526 0.071244 -0.122175 0.10389 0.322171 -0.214248 -0.26399 -0.500496 -0.349464 0.202559 -0.026711 -0.002129 -0.043193 -0.319156 0.114367 0.052153 0.168083 0.030028 -0.343682 -0.164796 0.167358 0.033609 0.073648 -0.198309 -0.077627 -0.154118 -0.321535 -0.098535 -0.290154 -0.034821 -0.246765 0.265511 0.206776 -0.208594 0.12557 0.112683 0.109485 0.26753 0.036914 0.009107 -0.356527 0.054816 -0.607505 0.002776 -0.381445 -0.450639 0.083948 0.060978 -0.1434 0.119862 0.238739 0.29371 -0.115155 0.12365 -0.270286 -0.066761 -0.087786 -0.335657 0.084748 0.395799 -0.137171 0.025736 -0.124477 -0.071805 -0.367234 -0.126909 0.218635 -0.391901 0.130649 0.244885 0.648426 0.128085 0.235024 0.008752 -0.287892 0.079303
stupid 0.265643 -0.112692 0.150827 -0.103251 0.262139 0.314861 0.429098 -0.090634 0.070979 -0.136721 0.120161 -0.025119 -0.121639 0.082834 0.131335 -0.204451 0.06975 0.167723 0.115242 -0.387896 -0.055169 -0.082324 -0.002736 0.237467 0.195922 0.206561 -0.175517 0.214473 -0.328055 -0.010553 0.115344 0.266773 -0.209793 0.025772 0.321246 0.214601 0.051689 -0.339342 0.080836 -0.293115 0.016435 0.045806 -0.17409 0.01052 0.555419 0.078416 -0.407282 -0.0186 -0.19216 -0.105408 0.061027 -0.126852 -0.223954 0.206662 -0.45755 -0.111143 -0.232341 0.050403 -0.049553 0.087718 -0.225792 0.022784 0.368006 0.202918 -0.49629 -0.090031 -0.14333 0.100744 -0.248643 -0.185581 -0.206809 0.730679 0.001068 -0.379179 0.046499 0.038775 -0.010985 -0.088989 0.131927 0.085001 -0.227227 0.077951 0.449274 0.019094 -0.167107 -0.125076 -0.030111 -0.164525 -0.120309 0.279569 0.046207 -0.309401 0.123709 -0.178561 0.177774 0.228783 -0.058218 0.451752 -0.072261 0.263689 -0.200037 -0.126107 -0.069976 -0.194 0.296713 -0.173408 -0.366534 0.300577 0.180747 -0.415755 -0.373703 0.173744 0.256656 -0.341015 -0.069454 0.12753 -0.225715 -0.042052 -0.002364 0.223867 0.080047 0.004452 -0.144563 -0.081626 0.246999 0.328857 -0.109141 -0.088277 0.167612 0.016758 -0.144132 -0.027186 0.061777 0.053167 0.246905 -0.249943 -0.351326 0.245005 0.12979 0.204383 -0.028516 0.429438 0.147128 0.417115 0.150093 -0.307311 0.435892 -0.176642 -0.238066 -0.121741 -0.304997 0.321298 0.195528 -0.047969 -0.09954 -0.071598 0.528584 0.427215 0.125889 -0.364123 0.383106 0.148463 -0.034487 -0.38339 -0.168633 0.070495 -0.197616 -0.150572 -0.135519 -0.191421 -0.14923 -0.03911 -0.432338 -0.124687 -0.064888 -0.295735 -0.383462 0.347802 -0.246175 -0.252949 0.333408 -0.266519 -0.05334 5.51E-4 -0.120845 0.112925 0.141018 0.452361 -0.251618 0.017299 -0.067086 -0.181569 -0.313424 0.343711 -0.21628 0.119802 0.16809 0.151779 0.355509 -0.221939 -0.171571 -0.013928 0.274369 -0.101238 0.02202 -0.204716 0.201825 0.170441 0.108586 0.07013 -0.001323 -0.026438 -0.023928 -0.427016 -0.291675 0.067862 0.059382 -0.031186 0.383982 -0.235121 0.238174 -0.170572 -0.052371 0.351081 0.281248 -0.513009 0.254758 0.327905 0.493785 0.187993 -0.041744 -0.013899 0.396705 -0.229037 0.20984 -0.006728 0.073996 0.144115 -0.106637 0.098138 -0.377646 0.14578 0.023743 0.468297 -0.09127 0.195124 0.188417 0.478738 0.203307 -0.125837 -0.296331 -0.058105 0.029035 -0.077344 0.16465 -0.102587 -0.213744 0.262727 0.228555 0.152563 0.063871 0.023681 0.057767 -0.04746 0.191124 0.146524 -0.248091 -0.273918 0.025346 0.185383 -0.003432 0.304513 0.116452 -0.209492 0.359973 0.096355 0.558275 0.318766 0.145658 0.149877 -0.141443 -0.227696 0.034918 0.234714 0.072909 0.10185 -0.491596 -0.027055 -0.22169 -0.075541 -0.355979 0.080508 0.398188 -0.062592 0.150537 0.087326 0.101277 0.085555 -0.086113 0.228862
egg 0.294156 0.726192 0.219995 0.030417 -0.245424 0.087993 -0.064168 -0.0977 0.103135 0.104693 0.350759 -0.6375 -0.173631 0.183516 -0.032853 -0.244597 -0.365189 -0.022221 0.247733 -0.427339 0.012941 -0.003808 -0.42362 0.352694 0.327902 0.450185 -0.763167 -0.402135 0.001323 0.099582 -0.022268 -0.258361 -0.424503 -0.348126 0.081902 -0.082727 0.166756 -0.14107 0.300384 0.002149 -0.298633 0.183112 -0.362554 -0.166581 0.057441 0.149269 -0.057259 0.530746 0.171325 -0.106947 -0.099321 -5.34E-4 -0.058434 -0.169654 -0.151557 0.045336 0.090756 0.21726 -0.004506 0.087364 -0.195281 0.093969 -0.203107 -0.275498 -0.168081 0.307973 -0.054335 -0.171842 0.064299 0.003762 -0.083287 0.317999 -0.214112 0.176282 -0.274781 0.069388 0.044794 -0.253371 0.53873 0.304531 -0.052954 0.175215 -0.099593 -0.330447 0.562412 0.252001 0.160929 -0.21992 0.206633 -0.087863 -0.177888 -0.126163 0.228503 0.313608 0.485889 -0.021847 -0.232965 0.14566 0.09492 0.089357 -0.266068 -0.019033 0.389802 0.117549 -0.071406 -0.100897 0.117567 -0.099763 -0.356692 0.046364 0.210778 -0.122743 0.089703 -0.181068 0.087469 -0.215912 0.278866 0.373394 0.285945 0.025933 -0.008743 0.030371 -0.116869 0.069682 0.10175 -0.370554 -0.147026 0.244041 -0.151415 -0.223811 -0.135741 -0.202952 0.11112 -0.358333 0.128698 -0.265004 -0.396732 0.372022 -0.164704 -0.813838 0.439089 0.001562 0.372623 -0.179837 0.430502 0.189499 0.066731 -0.019189 -0.003673 -0.078219 -0.178226 -0.192193 0.288874 -0.342926 -0.613742 0.27556 0.309709 -0.321487 0.132127 -0.154035 -0.110593 0.205754 0.22937 0.072268 -0.088198 0.055786 -0.164425 0.060698 0.263436 -0.526999 0.306997 0.263288 -0.590066 0.472341 -0.151357 -0.274853 0.020244 0.056003 -0.230557 -0.260441 0.277237 -0.23908 -0.497753 0.28793 0.274326 0.069029 0.183206 0.402326 -0.284121 0.021609 -0.160948 0.333994 0.066455 -0.2767 -0.444645 -0.301019 0.388453 -0.416038 -0.099432 -0.389125 0.013942 0.296355 0.572881 -0.055157 -0.26996 -0.053342 -1.34E-4 0.216576 0.230471 -0.109752 -0.263059 -0.157221 0.008617 -0.492099 -0.055607 -0.512862 0.112702 -0.231371 -0.125832 -0.330723 0.541681 -0.3121 0.500364 -0.167276 -0.069714 0.060163 -0.021908 0.257167 0.40244 0.134919 0.299178 0.317435 -0.097369 -0.116307 0.32463 0.31062 -0.06188 0.084026 -0.082757 -0.399063 -0.257897 0.482412 0.242588 -0.490657 0.103037 0.371783 -0.067645 -0.190024 0.055747 0.196815 0.001725 0.073853 -0.149702 -0.285712 0.294922 -0.225752 0.283514 -0.186146 0.082303 -0.244516 0.242186 0.224599 0.191355 0.2655 -0.120173 -0.423913 -0.414688 -0.088248 0.149092 0.050231 0.100121 0.017091 -0.060972 -0.107736 0.302567 0.205535 0.039035 -0.024279 -0.153124 0.56743 0.118591 -0.350835 0.098549 -0.339022 0.488302 -0.073182 0.578601 0.0482 -0.577694 -0.053857 0.045085 -0.156674 0.100105 0.022346 0.298237 0.293889 -0.024958 0.4096 -0.275856 0.145985
year -0.311312 0.27675 -0.19119 -0.105153 0.028533 -0.22856 0.122627 -0.114606 -0.08785 0.262706 0.029588 -1.23E-4 0.035039 -0.21528 -0.240877 -0.204263 -0.052846 -0.124243 -0.07968 -0.153938 -0.134381 -0.097417 0.04574 0.218971 0.07818 -0.039176 -0.475661 0.300184 -0.140578 0.076557 -0.174886 0.05765 -0.024148 0.247325 0.028704 0.28575 -0.010425 -0.260105 -0.056111 0.449244 -0.182718 -0.127646 -0.101029 0.004981 0.224335 0.271118 -0.239793 -0.109235 0.137023 0.205718 0.20865 0.22876 -0.246338 0.269686 -0.110737 0.078141 -0.090611 0.273832 0.314336 -0.062511 0.427717 -0.028402 -0.045699 -0.188475 -0.171548 0.037125 0.319675 0.235257 -0.311451 0.077749 -0.248462 0.095542 -0.194932 0.292517 -0.374043 0.1019 0.069068 -0.342692 -0.093161 -0.150587 0.314593 0.1479 0.296871 -0.011845 -0.117594 -0.022355 -0.037387 -0.003952 0.116059 0.331826 -0.172709 -0.533424 -0.004165 0.296798 -0.005676 0.016177 0.111571 0.009502 0.19041 0.278111 -0.008549 0.190917 -0.017203 -0.057268 -0.171152 -0.424085 -0.055857 0.201788 0.177163 0.017136 -0.033159 0.250818 -0.051352 0.281511 0.124779 -0.077866 -0.06083 -0.206308 -0.05948 -0.006755 0.068998 0.123679 0.138937 0.287937 0.048151 0.086145 0.058716 -0.067467 -0.358747 -0.001984 0.04482 0.207122 0.02089 -0.249504 -0.005038 -0.346173 0.262408 0.064631 0.208293 -0.467009 0.069807 0.314305 0.248104 0.269638 0.215476 -0.059533 0.020995 -0.050504 -0.308855 0.221915 -0.057289 0.214287 0.062089 0.242273 0.084737 -0.224833 0.098713 0.013311 0.196047 -0.124275 0.117416 -0.207444 -0.109241 -0.047402 0.009003 0.160201 -0.300174 0.194849 0.06661 -0.035232 0.210646 0.323726 0.002076 0.224461 0.286631 0.201023 0.234532 0.393123 -0.157203 -0.496471 0.022648 -0.148197 -0.379967 -0.108768 0.0436 -0.016464 0.38121 -0.08903 -0.217344 0.071889 -0.203727 0.107488 0.115646 0.060327 -0.080998 -0.151864 0.223429 -0.070439 -0.135512 -0.15002 0.098948 0.336454 -0.042532 0.019507 -0.073983 0.074666 -0.126042 0.215263 -0.071627 -0.026533 -0.025602 0.470092 0.082347 -0.20385 0.003682 -0.010431 -0.238175 0.3117 0.112042 -0.071958 -0.104292 -0.072221 -0.109989 -0.022687 -0.25804 -0.072378 -0.043292 -0.132512 0.023821 -0.022627 -0.126723 -0.139352 -0.079353 0.19677 0.143922 -0.385242 -0.117855 0.157802 0.151737 -0.134053 0.063227 -0.040827 -0.080611 -0.117878 0.131622 0.26289 -0.033144 0.003867 0.293629 -0.16627 -0.037226 0.006821 -0.173071 0.206275 -0.222529 -0.147184 0.035024 0.011402 0.254686 -0.220854 0.251836 0.137286 -0.140918 -0.288944 0.224377 -0.201251 -0.280614 0.017344 0.062825 -0.023141 -0.021992 -0.26946 0.37126 -0.064271 0.04096 -0.090865 0.189264 -0.0349 0.100824 0.032893 0.024587 -0.066914 -0.079434 0.098245 0.189393 -0.122276 -0.095315 -0.039069 -0.068577 0.181922 0.215133 0.31956 0.202436 0.304738 0.117922 -0.031601 -0.202194 -0.105548 0.102138 -0.217395
psychiatry 0.634901 -0.28902 0.063329 0.547074 -0.580157 -0.614561 -0.080448 0.419942 0.405158 -0.277415 0.337339 -0.10988 0.347478 0.102155 0.018232 -0.67547 0.079599 -0.226705 -0.158244 0.041458 0.330119 0.511703 0.40307 0.215177 0.107619 0.142901 0.13903 0.625068 0.039877 0.210596 -0.010217 0.007168 -0.187456 -0.394991 0.054946 0.13358 0.105157 0.569771 0.133734 0.617325 -0.153654 0.229088 -0.586193 0.165079 -0.008259 -0.181721 -0.414791 -0.088531 -0.291066 0.370978 0.273823 -0.040719 -0.460823 -0.0113 0.124324 -0.156339 -0.033671 -0.67619 -0.041157 0.507499 0.425863 0.028749 0.164937 -0.216834 0.068661 0.078498 0.699908 0.272697 0.330425 0.540583 0.288139 0.674341 -0.488638 -0.033078 0.094453 -0.240342 0.012642 -0.269666 0.173327 -0.045387 0.106927 -6.24E-4 -0.256162 0.084211 0.720737 0.012175 -0.313378 -0.02419 0.232442 0.164106 -0.051835 -0.222637 0.024688 0.661373 -0.009519 0.446672 0.009752 -0.059417 0.158131 0.142086 -0.065454 -0.640794 0.11103 0.502093 0.079288 -0.074892 -0.13905 -0.009027 0.24855 -0.204178 -0.112851 0.432722 -0.027013 0.015936 0.262837 -0.145308 0.187303 -0.033425 -0.168058 -0.274185 -0.032595 0.244148 0.011088 0.462371 -0.248034 -0.3757 -0.288193 -0.084264 0.117445 -0.016835 0.182127 0.052414 -0.168717 -0.105719 0.084137 -0.104898 -0.185783 0.401375 -0.458691 0.089478 -0.033019 -0.392285 -0.166079 0.030515 -0.235214 -0.139072 -0.331249 -0.128285 -0.407297 0.229217 -0.21952 0.022693 0.452953 0.130022 0.134383 -0.213231 -0.064557 0.802004 0.333242 -0.222355 -0.081621 0.009326 -0.185119 -0.262427 -0.209298 -0.328664 -0.447956 0.143452 -0.134612 -0.303918 -0.071546 -0.123818 -0.31868 0.334609 0.203589 -0.084917 0.204742 0.050494 -0.202058 0.549983 0.204946 -0.307005 -0.025492 0.185827 0.025162 -0.401652 0.223539 0.443726 -0.06621 -0.141707 0.314087 -0.501551 -0.720311 0.116641 0.0107 0.227638 0.353176 0.079584 -0.128148 -0.512627 0.231759 -0.474698 0.118021 -0.03572 -0.267299 -0.766576 0.329065 0.326647 -0.052876 0.67153 -0.030766 0.395056 -0.257213 -0.371586 -0.049975 0.128124 0.010235 0.211508 -0.124052 -0.330304 0.208181 -0.064352 0.283442 0.291488 0.1366 -0.141216 0.177471 -0.062854 0.045894 0.315072 -0.788284 -0.100394 -0.115098 0.056753 -0.433357 0.288399 0.131638 -0.637703 -0.002038 0.138974 0.170723 -0.009876 0.024606 2.17E-4 0.290749 0.011661 -0.067933 -0.691881 -0.286529 -0.009183 0.363504 0.613559 0.136818 0.143281 -0.020838 -0.25664 0.31892 -0.066878 0.225028 -0.050897 -0.080232 0.250188 -0.08829 0.115961 0.448224 -0.012464 0.00496 0.170251 0.258839 -0.3365 -0.007925 -0.189668 -0.083236 0.013412 0.218672 0.192506 0.882255 -0.060424 0.158586 0.416175 0.041352 -0.225533 0.32441 0.200473 -0.164461 0.223358 0.451177 -0.196532 -0.191562 -0.339629 -0.690039 -0.003645 -0.084609 -0.569815 -0.22611 -0.319597 0.206691 -0.881808 0.039911 -0.27878
asylum 0.164506 0.028032 0.038519 -0.234913 0.015624 0.089949 -0.0861 -0.223441 0.210283 0.248462 0.143822 -0.2941 -0.170128 -0.210003 -0.52943 -0.205791 -0.109418 -0.086574 0.113145 -0.096697 -0.38478 0.104836 -0.104023 0.24001 -0.292452 0.101373 -0.433632 -0.460665 -0.143224 -0.362911 -0.66499 -0.078316 -0.139132 -0.093041 -0.139592 0.851419 -0.120101 0.445674 0.246707 0.587467 0.068113 0.185505 -0.283762 0.007256 0.13418 -0.04855 -0.399114 -0.127947 -0.145241 0.207405 0.514386 0.101374 0.114219 -0.314476 -0.021411 -0.127778 0.150363 0.174102 -0.551814 -0.340334 -0.577031 -0.341852 0.318456 -0.228232 -0.492764 -0.311191 -0.122898 0.489155 -0.146434 0.29355 0.330824 0.148066 -0.089255 -0.402343 -0.145675 -0.414592 0.339398 -0.314446 0.087144 -0.053726 -0.611247 -0.335808 0.172272 0.134323 0.075593 -0.058853 0.155162 -0.01753 0.045423 0.062171 0.291412 -0.42622 -0.167576 -0.051577 0.051041 -0.528676 -0.006123 -0.400103 -0.034263 -0.119146 -0.573108 -0.438533 -0.336767 0.422432 0.077514 0.151433 -0.11233 0.232107 0.430993 -0.019811 0.184255 0.28303 0.178701 -0.004742 -0.076834 0.229919 -0.024082 -0.508407 0.425138 0.173086 -0.141336 0.024625 0.30748 0.260735 -0.095919 -0.466258 -0.084687 0.191822 -0.282213 -0.353826 0.140584 -0.226536 0.204851 -0.193308 -0.003616 -0.57608 -0.347962 0.409128 -0.038763 0.232434 0.054888 0.603294 -0.107463 0.087473 -0.177817 -0.495676 -0.119179 0.24206 -0.616004 -0.21502 0.290495 -0.370278 -0.399188 -0.01088 -0.137013 -0.226238 -0.035617 0.076493 0.316853 0.118808 -0.011285 -0.364891 0.078739 -0.379761 -0.384802 -0.139091 -0.164866 -0.008189 0.263098 -0.251829 0.449607 0.046486 -0.522522 0.026231 -0.419884 0.374142 -0.026216 0.649411 0.155361 -0.095655 0.182314 -0.160947 0.087492 -0.092036 0.136279 0.287556 0.272463 0.307157 -0.244929 0.270245 -0.501166 -0.399848 -0.037269 -0.55248 0.12719 -0.129174 0.412291 0.411308 0.391298 -0.599818 0.217014 0.229162 0.560492 -0.168899 -0.37169 -0.763664 0.289433 0.016881 0.232119 0.040115 -0.234504 -0.250547 0.489131 -0.378123 0.00571 0.168969 -0.149811 -0.401966 -0.052688 -0.007933 0.399719 -0.048221 0.292226 0.652299 0.533405 -0.419349 0.070503 -0.07021 0.046504 -0.293222 -0.108555 -0.443194 0.140444 0.091242 -0.1599 0.017818 -0.407295 0.050411 0.094824 -0.091334 0.128717 -0.41296 0.010242 -0.004506 -0.014152 -0.242821 -0.08682 -0.252291 -0.29365 -0.312608 0.183449 -0.402582 0.243998 -0.160783 0.091457 -0.279064 -0.1174 -0.450178 0.053444 0.042019 0.451048 0.319855 0.051121 -0.323696 -0.228088 -0.004534 -0.535808 -0.24869 -0.072889 -0.108277 0.250365 0.168539 0.011676 -0.045764 0.210849 -0.080878 -0.099963 -0.063058 -0.119995 0.255437 -0.366234 -0.271243 0.206895 0.140021 -0.488476 0.214015 0.287225 -0.191895 -0.644936 -0.026615 0.200166 -0.131793 0.147918 -0.332059 -0.129858 -0.088542 -0.323125 -0.16798 0.527826 0.372031
manslaughter 0.157638 0.017152 -0.235925 0.073715 -0.171973 -0.084866 0.484648 0.159942 -0.165246 0.142041 0.279225 0.141706 0.231016 0.031674 0.303674 0.35804 0.154398 0.027551 0.253042 -0.070044 -0.32636 -0.139681 0.294638 0.34745 -0.040253 0.277077 -0.449542 0.200656 0.104921 0.292822 -0.409854 0.070936 0.013911 0.045741 -0.219602 -0.245163 -0.197606 0.385075 -0.159093 0.587663 0.090109 0.218971 0.116699 -0.195005 -0.154687 -0.356566 -0.344944 -0.169749 -0.063875 0.580663 0.14517 -0.130438 0.089893 0.756153 0.381267 -0.290529 -0.241613 0.060233 0.204449 -0.062681 0.422362 0.357765 -0.176535 -0.423318 -0.209918 -0.336215 -0.069308 0.425293 -0.683868 0.083981 0.020403 0.252127 -0.390563 -0.797916 0.077106 -0.1326 0.237245 0.049035 -0.290526 0.157552 0.421511 0.182975 -0.036901 -0.677982 -0.143503 -0.02271 0.14198 0.37564 -0.131199 -0.029864 -0.282258 -0.240571 0.064546 -0.111779 0.064851 -0.057716 -0.085021 -0.27951 -0.09484 -0.173697 -0.763866 -0.732432 -0.117212 0.081046 0.272692 -0.07596 -0.485158 -0.28984 -0.046155 -0.786964 -0.354888 0.435151 0.142319 0.279692 -0.15114 -0.133473 -0.441553 -0.302791 0.083947 -0.4199 -0.255912 0.256095 0.080863 -0.068319 -0.038418 -0.498957 0.055234 -0.390617 0.372966 -0.488295 -0.149233 0.455629 0.059778 -0.43569 0.229968 -0.074434 -0.359414 0.205801 0.356226 -0.030082 0.58306 0.242609 0.088238 0.264592 -0.28391 -0.173604 0.222653 0.191926 0.433573 0.360371 -0.298014 -0.185692 0.210744 0.105421 -0.557923 -0.356685 0.060767 0.283916 0.17809 -0.10072 0.294138 -0.387968 0.317589 0.223391 -0.250307 0.081431 -0.127124 0.042392 -0.148339 -0.475886 -0.18539 0.275192 -0.52278 0.567185 -0.758155 0.688222 -0.045506 -0.197506 0.823176 -0.34742 0.27862 0.122921 -0.108394 -0.070706 0.063302 -0.073286 0.094128 -0.011091 -0.006198 0.407586 -0.70099 -0.309883 -0.652894 0.097116 -0.192759 -0.017509 -0.082076 0.177689 -0.100174 -0.048603 0.084207 0.293379 -0.716037 -0.59849 -0.533389 -0.572498 0.390866 0.092243 0.24061 0.201893 0.137183 0.536914 0.157449 -0.4606 -0.681707 0.004315 0.024622 -0.030078 0.397403 0.412106 0.910055 -0.795879 -0.673884 0.192879 0.133792 -0.217978 -0.273261 -0.279627 -0.13362 0.029003 -0.507075 0.313715 0.118047 -0.034411 0.071781 0.099323 0.683339 -0.757149 -0.421211 0.412414 0.415439 0.337131 -0.296437 0.208784 0.397513 -0.016271 0.161391 -0.258341 -0.057682 0.163289 0.089591 -0.249361 -0.142871 0.351241 -0.152851 0.078129 0.187756 -0.288792 0.171526 -0.019186 0.340086 0.398364 -0.149803 -0.087156 0.052011 0.376838 0.115676 0.1109 0.037631 -0.66029 -0.034197 -0.454426 0.249933 0.15728 0.71421 0.225993 0.063608 0.323159 0.078016 0.836006 -0.237102 0.531919 0.392867 -0.99023 -0.244411 0.304071 0.373774 -0.217094 0.065638 -0.046878 0.538911 -0.233895 -0.115877 -0.638476 -0.835908 -0.207892 -0.527437 -0.450106 0.170251 0.484075
music -0.289181 0.404651 0.02471 -0.042446 -0.346197 -0.388137 -0.099666 -0.01451 0.289066 -0.425651 -0.003827 -3.25E-4 0.170153 0.367571 0.348317 -0.146255 -0.542064 -0.154512 -0.242528 0.117951 0.266613 0.108559 -0.075654 0.321154 0.011032 0.05946 -0.488306 0.136746 0.030521 0.253876 -0.244084 0.451868 -0.582354 0.287572 0.063906 -0.302163 0.032842 0.10434 -0.175252 0.001951 0.124387 -0.158643 0.157161 -0.431393 0.178134 0.098077 -0.315295 -0.242195 -0.004867 0.061072 0.208933 0.012658 -0.097838 0.223061 -0.229784 0.149457 0.04358 -0.352166 0.051438 0.038812 -0.292959 0.119775 0.211871 -0.114168 -0.081597 0.068894 -0.046713 -0.267716 -0.172903 0.136551 0.141927 0.423179 0.039562 0.009725 -0.148305 -0.256269 -0.152492 0.1851 -0.160792 0.051518 0.111814 -0.03781 0.288412 -0.079416 0.215044 -0.25913 -0.15594 0.272868 -0.083242 -0.001804 0.018466 -0.072726 -0.03317 0.00781 0.104363 0.102514 0.080613 0.527332 0.16688 -0.106902 0.168101 -0.397063 0.117515 -0.334198 0.456913 0.020492 -0.047414 0.039239 0.062483 -0.069853 -0.129027 0.160783 -0.16217 0.065597 0.099075 0.301646 0.022763 -0.678943 0.086644 -0.110463 -0.074841 0.257745 0.021392 -0.072762 -0.089749 -0.353878 0.059238 0.033625 0.133763 -0.104398 -0.018686 0.151294 0.033588 -0.036048 -0.095915 0.096683 0.344786 -0.212964 -0.392873 -0.38386 -0.097745 -0.192359 0.084436 -0.074163 0.2575 0.013584 0.063796 0.14121 0.074225 0.011943 -0.291358 -0.077555 0.048624 -0.145564 0.168019 -0.067801 -0.353933 0.101857 -0.084711 0.057676 0.279865 -0.472857 0.12418 -0.134504 0.125652 0.254939 -0.101572 0.158549 -0.137429 0.171194 -0.097789 -0.348049 -0.021997 -0.200075 0.193133 -0.439792 0.124598 0.361517 0.028841 0.332705 -0.350433 0.034469 -0.429859 0.032393 0.21801 -0.194416 -0.037647 0.307095 0.200842 0.14263 -0.140853 0.271309 -0.345125 0.006295 -0.185971 0.043027 0.609868 0.128881 -0.151142 -0.300992 0.351365 -0.284742 0.106798 0.040916 0.010651 -0.261216 0.193695 -0.041236 0.100328 0.01382 0.071338 0.071247 0.184842 -0.194563 0.001349 -0.3712 -0.24145 0.06793 -0.016369 0.083843 0.585124 -0.301022 0.022868 -0.304133 -0.020328 -0.46411 -0.044813 -0.11259 -0.010742 0.07736 0.043281 0.051177 -0.063311 -0.045992 -0.349173 0.24123 -0.45339 -0.137992 -0.005951 -0.06699 -0.097922 0.399168 0.109327 0.026608 0.619141 -0.037988 0.141802 0.41468 0.32273 -0.163819 0.02894 0.34231 0.080922 -0.143945 0.012831 -0.481488 0.278101 -0.028093 0.059048 -0.049349 0.054071 -0.07397 -0.058607 -0.410311 0.170817 -0.140961 0.207911 0.100422 0.053716 -0.13575 0.132957 0.260905 0.284293 0.02716 0.438452 -0.478941 0.045999 0.20202 -0.057348 0.041803 0.115478 -0.069714 -0.012036 0.302185 -0.185596 -0.453908 0.011751 -0.110499 -0.213488 -0.106931 -0.038279 0.170725 -0.002411 -0.005518 0.110018 -0.058042 -0.373692 0.075675 -0.250853 0.599243
record 0.069457 0.14897 0.191704 -0.391246 -0.240619 -0.103433 0.220509 -0.032377 0.024236 0.242496 -0.143572 -0.051603 -0.377012 0.193832 -0.021355 -0.115971 -0.513127 -0.07565 0.026757 0.121029 0.116608 -0.065007 -0.194875 0.166082 0.336076 0.099031 0.232284 0.532185 -0.316348 0.057641 -0.094294 -0.561544 -0.188291 0.160102 -0.403058 -0.238625 0.179103 -0.044569 0.156659 -0.309932 -0.521968 -0.075947 -0.166608 -0.218048 0.107404 0.2657 -0.471907 0.03093 0.026591 0.264488 0.24422 0.217368 -0.404104 -0.242845 -0.041242 0.060925 -0.083334 0.213825 -0.306482 -0.071624 0.063172 0.031724 0.022243 -0.238034 -0.0765 -0.065365 0.355877 -0.134063 0.028484 0.453294 0.056631 0.61484 -0.012943 0.138495 -0.462716 0.338379 0.377103 -0.190993 0.52376 0.127111 -0.190942 0.486138 0.040326 0.227312 -0.052867 -0.078635 0.080974 -0.248606 -0.083446 0.217747 0.030625 -0.441347 0.045081 -0.14298 0.277155 -0.012242 -0.140563 0.077425 0.209291 0.274303 -0.565478 0.351568 0.092054 -0.04469 0.341387 0.131392 -0.189067 -0.011702 0.129797 -0.001179 -0.063462 0.289038 0.328008 -0.022224 0.244312 -0.008476 -0.176912 -0.132968 0.316778 -0.470603 0.423171 -0.335151 0.257494 -0.12919 0.19377 0.130805 0.027561 0.271563 0.11649 0.119217 0.250141 0.292019 -0.242796 -0.107517 0.025672 -0.115238 0.371998 0.047218 -0.162849 -0.438018 0.106052 -0.154777 0.253435 0.232397 -0.254226 0.009854 -0.228623 0.065393 0.013066 -0.092707 0.047641 0.076637 -0.016976 -0.225847 0.044154 -0.133265 -0.330701 0.201682 -0.107849 -0.10469 0.002269 0.371576 0.43587 -0.222341 0.279276 -0.211663 -0.160193 0.184043 0.211973 0.386668 0.058811 0.00309 0.320517 0.181729 0.329104 -0.320328 0.428042 -0.173964 -0.159556 -0.507531 0.022972 -0.266917 -0.560853 -0.347466 0.247686 -0.381633 0.139031 -0.195369 0.113503 0.256305 -0.299264 -0.351392 -0.160966 -0.166298 -0.463263 -3.7E-5 0.296962 -0.235959 -0.146807 -0.13282 0.210174 0.310416 -0.314671 0.121717 0.122969 -0.198975 0.24746 0.342091 0.096658 0.071534 -0.352889 0.128286 0.652809 -0.093302 -0.196597 0.308673 0.064818 -0.198576 -0.015325 0.205996 0.088758 -0.130794 -0.023315 0.023341 -0.190428 -0.134353 -0.22651 -0.109616 0.147082 -0.232425 0.036534 -0.130316 0.271897 0.094499 0.304387 -0.113514 0.34455 0.170405 0.065503 0.053752 0.356974 0.150264 -0.2266 0.038717 -0.129403 -0.199751 0.373073 0.264407 0.323478 0.056466 -0.16711 0.106423 0.131124 -0.271116 -0.168768 0.194594 0.350832 -0.026535 0.260017 -0.240089 0.302434 -0.030535 0.025515 -0.324962 0.243596 -0.168753 0.034775 -0.063808 -0.153563 0.02304 0.092874 -0.252063 0.04286 0.07551 0.303239 -0.181388 0.137692 0.046536 -0.15894 -0.021378 -0.419152 -0.152037 -0.030005 0.225649 -0.10683 -0.393492 -0.047209 -0.115434 0.152211 0.341045 -0.055065 -0.227249 -0.191818 0.207862 0.159121 -0.109143 -0.316658 0.141644 0.266615 0.147516
energy -0.137237 -8.19E-4 0.203169 -0.471388 -0.056964 -0.510783 -0.19534 0.251585 0.426668 0.270415 -0.116025 0.027438 0.034263 -0.04131 0.185751 -0.132102 -0.590111 0.037402 0.207817 -0.232102 0.14493 0.117834 0.015169 0.459978 0.149535 0.372493 -0.235671 0.221266 -0.019773 -0.32086 0.491884 0.005596 -0.177892 -0.08129 0.255109 -0.085643 0.225379 0.041944 0.026691 0.167955 -0.255598 -0.122091 0.17961 0.095622 0.490972 -0.26305 -0.32594 -0.089457 0.038668 0.725378 0.021854 -0.072323 -0.025761 0.058175 -0.207461 0.071103 0.025944 0.102268 0.214787 -0.037359 -0.121524 -0.251696 0.112514 0.186974 -0.356986 0.155563 -0.180305 -0.150201 -0.223986 0.445081 0.2049 -0.072788 -0.533746 0.364468 -0.111078 -0.243748 0.13301 0.101758 -0.147868 0.024284 -0.374136 0.132214 0.017461 -0.151374 -0.232369 0.057676 -0.242965 -0.193122 0.192064 -0.244977 0.046653 0.079148 0.146116 0.118514 0.059613 -0.270098 -8.27E-4 -0.002415 0.218784 0.021643 -0.127121 -0.008245 -0.01072 0.034446 0.391781 -0.002758 -0.345188 0.28099 0.012852 -0.2449 -0.405815 -0.228856 0.107725 0.175721 0.215681 0.278848 0.088641 -0.291827 -0.010373 -0.029097 0.208767 -0.036743 0.203578 -0.098514 -0.142719 -0.181497 0.381219 0.165028 0.095962 0.10853 0.329096 -0.199207 -0.35562 -0.181231 0.451218 -0.419669 -0.313566 -0.170645 -0.117951 0.280527 0.008253 0.084668 0.289366 -0.424161 0.302431 0.005198 0.386471 -0.004532 -0.135596 0.019522 -0.366712 0.1299 -0.298147 -0.26565 -0.204549 -0.072986 0.032642 -0.092868 0.04059 -0.384881 -0.071817 0.145733 0.347733 0.295286 0.324792 -0.035441 -0.402526 -0.1837 0.193279 0.225952 0.313627 0.0819 -0.100343 0.230183 0.265231 -0.017162 -0.009013 0.360327 -0.427101 -0.050434 0.391914 0.496141 -0.259495 0.206633 0.408811 0.2374 -0.025945 0.311769 0.01413 0.189051 0.364253 0.124324 0.140744 -0.21537 -0.439714 -0.083587 0.759673 -0.142592 -0.249384 -0.154028 0.030274 -0.341244 -0.0312 0.027293 -0.026956 -0.090806 0.012217 0.232262 0.28307 0.35553 -0.112878 -0.029359 -0.434804 0.020936 0.248201 -0.362235 -0.11452 0.274439 -0.037698 0.013427 0.167845 -0.02178 -0.130265 0.081408 -0.068094 -0.104617 -0.083987 -0.120489 0.08848 -0.382271 0.225511 -0.194004 0.043989 0.144018 -0.185549 -0.300808 -0.255167 -0.705623 0.02919 -0.017167 -0.045602 -0.242646 0.21976 -0.22658 0.292587 0.015579 0.255263 0.450323 0.154547 -0.22265 -0.240527 -0.446321 -0.137569 0.363971 -0.272626 -0.294886 -0.018664 -0.04443 0.105678 0.06265 0.143513 -0.19354 -0.182141 -0.076887 -0.314956 0.105477 -0.078291 -0.350573 -0.042291 -0.320444 -0.310277 0.091818 -0.038315 -0.177122 0.269451 -0.018177 -0.050773 -0.278141 0.342767 -0.245803 -0.037289 -0.00455 0.159886 0.002767 -0.013911 -0.128015 0.151218 0.157446 0.007924 -0.1182 0.167293 0.123433 -0.005666 -0.083557 0.251249 -0.206173 0.085097 -0.317007 0.083132 -0.110111
announcement -0.08988 -0.07283 -0.231878 -0.016519 -0.542881 -0.659978 0.130093 0.282832 -0.069611 0.047235 0.166009 -0.007293 -0.076896 0.182398 0.139866 -0.078139 -0.059021 -0.168391 -0.06638 -0.095473 -0.142732 0.079112 0.064651 0.029717 -0.011092 0.52094 0.094891 -0.029038 -0.137946 -0.440915 0.087418 -0.206872 -0.428223 0.067337 -0.173146 -0.006768 -0.321731 -0.751138 -0.081695 0.077241 0.216671 0.36765 -0.123394 -0.140158 0.400326 -0.269155 0.092358 0.24052 0.005176 -0.443715 0.16835 0.009737 0.175028 0.017404 -0.070552 -0.144611 -0.120158 0.239644 0.08985 -0.304808 0.257542 0.172694 0.346335 -0.06091 -0.129977 0.116385 0.091779 0.057887 -0.398059 -0.059736 -0.00852 0.243776 0.395738 0.373562 0.163744 0.111205 0.07808 0.015367 -0.274995 -0.061072 0.118011 0.093618 0.537648 -0.455936 -0.287191 0.177936 -0.057939 0.057495 -0.137147 0.101552 0.003002 -0.292423 0.100607 0.388725 -0.346195 0.194784 -0.019279 0.290646 -0.003526 0.145507 -0.06376 -0.308477 0.033439 0.223848 0.121531 -0.563108 -0.173361 -0.130012 0.253716 0.249903 -0.24031 -0.006505 0.36152 -0.130149 0.149434 0.131138 -0.109497 -0.002031 0.02619 0.301925 -0.137888 -0.183435 0.024263 0.334027 0.092782 0.285865 -0.202819 -0.358538 0.075335 0.146162 -0.165758 0.137547 0.110638 -0.550749 -0.272936 0.001326 0.190389 -8.16E-4 0.011139 -0.407619 -0.298997 -0.089064 0.069818 0.055284 -0.143287 -0.123445 0.142636 0.04155 0.177191 -0.029091 0.353746 0.385727 -0.133042 -0.047737 0.044468 -0.082418 0.10815 -0.200227 0.178365 0.24704 0.066359 -0.092896 0.222751 -0.110882 0.084448 -0.371617 -0.2988 -0.133597 0.132786 0.245432 0.131157 -0.186298 -0.031044 0.140158 0.372543 -0.004464 0.029787 -0.136346 -0.423358 -0.241652 0.014046 0.045526 -0.45546 0.040746 -0.025335 0.030668 -0.140234 0.324515 -0.032026 0.318318 -0.172584 0.424163 -0.281161 -0.058255 -0.250733 -0.275659 0.162312 0.594136 -0.309597 -0.238554 -0.054111 0.003099 -0.028023 0.10653 0.029047 0.070536 0.11056 0.132904 -0.180942 0.264378 -0.035928 0.20243 0.009765 -0.819864 -0.188136 -0.328923 0.118766 -0.061769 0.037968 -0.304696 0.392065 -0.016913 0.080322 0.354374 0.089038 0.298159 -0.189946 0.184462 -0.142858 -0.025213 -0.241915 -0.061135 -0.15472 0.102017 0.260338 -0.088016 -0.099629 -0.434363 -0.113206 -0.259064 -0.267955 -0.079475 0.12183 -0.344586 0.028044 0.03179 -0.082827 -0.118369 0.207874 0.083862 0.031455 -0.262095 -0.45685 -0.056263 -0.306134 0.072723 -0.343543 -0.015297 0.183564 0.130184 0.111742 -0.388963 0.225939 -0.007612 -0.248089 -0.15688 0.241154 -0.240636 -0.061525 0.025224 0.144157 -0.618053 0.248339 -0.132536 0.219024 0.126324 0.024905 -0.08527 -0.012414 -0.060178 -0.099884 0.172201 -0.235677 0.255798 0.017824 -0.380526 0.167999 -0.177081 0.009402 0.135205 0.628604 -0.044139 0.038798 -0.121198 0.317283 -0.18351 -0.40723 -0.091772 0.092731 0.201282
mile -0.080239 0.09022 -0.648898 -0.367138 -0.266129 0.175091 0.14792 -0.018381 -0.136109 0.057262 0.106059 -0.165428 -0.661646 -0.337703 0.709952 -0.563091 0.402421 0.157283 -0.149242 -0.245964 -0.377472 -0.398953 0.25987 -0.041303 -0.047325 0.168993 -0.390904 0.194326 -0.170719 -0.0285 -0.175559 -0.257659 -0.163108 0.214387 0.018985 0.200194 0.251366 0.093692 -0.214679 0.164347 -0.143917 -0.414495 0.052143 -0.242194 0.149162 0.269406 0.213459 0.126457 0.060878 0.348603 -0.35001 -0.017776 -0.4875 -0.340873 -0.24694 0.117432 0.154332 0.220045 0.005842 0.163167 -0.208941 0.133715 -0.211922 0.217156 -0.179521 0.413173 0.548061 0.259683 0.451238 -0.056431 0.073914 0.035629 -0.341542 -0.226093 -0.08956 -0.236817 0.260551 -0.212157 0.039907 -0.009715 0.307476 -0.104535 0.173449 -0.186753 0.29993 -0.040952 -0.035942 -0.378914 -0.065389 0.083096 -0.454695 -0.126633 -0.212915 0.175018 -0.168187 0.044492 -0.029141 0.308524 -0.388737 0.173826 -0.291895 0.083562 -0.389193 -0.308215 0.102022 -0.226805 -0.257141 0.01308 0.295141 -0.638717 -0.226847 0.003505 0.099922 0.230956 -0.182683 0.044083 -0.016331 -0.488241 0.291228 -0.07968 -0.403576 0.344266 -0.173019 -0.212073 0.290496 0.054983 0.101883 0.413624 -0.493552 -0.120698 -0.175051 0.356579 -0.068141 -0.824315 0.295013 -0.594266 0.14997 0.009557 0.060651 0.405775 0.168298 0.030876 0.139689 0.0474 -0.469879 -0.005472 -0.189417 -0.074076 0.205569 0.276624 0.3287 0.110444 -0.069205 -0.38338 -0.12613 0.316756 0.002005 0.384947 -0.167257 0.205388 -0.23612 0.208005 -0.080222 -0.39753 -0.192332 0.123011 -0.173827 0.162363 0.118463 0.275495 -0.431904 -0.207938 -0.172041 0.255967 0.26258 0.247903 -0.025075 0.104344 -0.136008 0.041447 0.41782 -0.378557 -0.04979 0.198484 0.334989 0.201324 0.361397 -0.161696 0.015169 0.073566 -0.103456 -0.006852 -0.124562 0.215845 0.078713 -0.736996 0.265397 0.066228 -0.135591 -0.41714 0.289203 0.201935 -0.030196 -0.097661 -0.008843 0.05646 -0.034635 0.390609 0.340015 -0.286928 0.244921 0.544116 0.034453 -0.389724 0.05124 -0.541552 0.27566 0.145741 -0.085916 0.363303 -0.102387 -0.180763 -0.309387 0.041949 -0.013202 -0.144603 0.027624 0.154202 0.232209 -0.118416 -0.254025 -0.257457 -0.325712 -0.16087 0.245556 0.083406 0.185626 -0.155009 -0.019113 -0.499488 0.123367 -0.362461 -0.134721 0.199807 0.531964 0.33323 0.255502 0.024918 0.350829 -0.133264 -0.020889 0.418612 -0.007169 -0.091792 -0.140012 -0.595761 0.184813 -0.115176 0.237613 -0.242259 0.063401 0.089814 0.05774 0.086341 -0.397857 0.122341 -0.191645 0.246019 0.161227 -0.008908 -0.546774 -0.432879 0.144565 -0.039631 0.256631 0.145129 -0.513841 0.235744 -0.017038 0.180041 -0.040478 -0.094107 0.097908 0.440706 -0.08189 -0.080034 0.353053 -0.269589 0.192241 0.47205 0.143272 -0.166608 -0.037069 0.502411 0.294802 -0.036284 0.218458 0.267063 -0.096557 0.017867
airport -0.571582 -0.159101 -0.497454 0.052886 0.073261 -0.152147 -0.013291 -0.293567 -0.120842 0.089116 0.220182 0.017802 0.148977 -7.76E-4 0.38138 0.319085 -0.339849 -0.212683 0.084468 -0.261275 0.004655 0.443958 0.068024 -0.104183 0.264639 0.425737 0.055702 -0.075135 -0.161244 -0.202586 -0.316735 -0.093446 -0.158456 -0.229496 0.175955 0.221775 0.317032 -0.375629 0.103528 0.491984 -0.193404 0.334089 0.078352 -0.078592 0.318387 -0.137917 -0.112023 0.378211 0.19623 -0.007774 -0.128131 -0.251954 -0.285208 -0.29022 -0.574917 0.085453 0.283857 -0.312137 -0.049375 -0.133417 0.025992 0.062679 0.36196 -0.032141 -0.467133 0.264835 0.277786 0.132735 -0.099013 -0.41926 0.308286 0.345164 -0.197867 0.028469 0.449946 0.477601 0.039578 -0.182326 -0.134321 -0.276081 0.280764 -0.072029 0.270055 -0.133501 0.031862 -0.257823 -0.250982 -0.294508 -0.150423 0.275384 -0.05159 -0.249392 -0.201516 -0.073932 -0.202355 0.13563 -0.057214 0.161895 -0.065698 -0.296567 0.072428 -0.352277 0.034076 0.349241 0.272395 -0.051808 0.327044 0.100715 0.33589 0.016611 -0.242781 0.06592 0.039319 0.215631 0.087241 -0.034762 -0.014325 -0.403964 0.104233 0.290576 0.035459 0.44015 -0.285079 0.099492 0.408072 -0.136286 0.10514 -0.047838 0.040094 -0.273015 0.197431 0.237068 -0.147671 -0.531951 0.239536 -0.601778 0.088202 -0.063897 0.012465 -0.132437 -0.30669 0.163113 0.175081 0.139536 0.158584 -0.305012 -0.089879 -0.180211 0.127763 -0.138068 0.095332 -0.038757 0.052576 -0.402243 -0.248832 -0.083614 0.015475 0.356639 0.128673 -0.045691 0.155795 0.197619 -0.30932 -0.175747 -0.127169 -0.342701 -0.352011 0.306715 0.073001 -0.088462 0.238573 -0.161008 -0.073766 0.362284 -0.293831 0.233154 -0.083472 -0.226532 -5.94E-4 -0.121734 0.070983 -0.312388 -0.032201 0.041692 0.311523 -0.094794 -0.076447 -0.395417 -0.046193 0.423087 -0.377683 0.15093 -0.38281 -0.531941 0.417772 0.198937 0.287422 -0.289579 0.036769 -0.170901 0.173234 -0.234034 0.094923 -0.212876 0.142208 -0.752338 0.210993 0.075845 0.403203 0.139734 0.21332 -0.105873 0.160407 -0.126433 0.083157 0.098332 -0.103273 -0.311954 0.041871 -0.113681 0.130551 0.121518 -0.246126 0.267578 0.566243 -0.006538 -0.167633 -0.261654 0.307387 -0.369378 -0.001117 -0.457168 -0.280266 0.423352 -0.418666 0.114425 0.073552 -0.180799 -0.256252 0.051407 -0.16381 -0.062683 0.16172 -0.222915 0.027259 -0.215435 0.102979 -0.263241 -0.142368 -0.239034 7.99E-4 0.130651 0.062601 0.156642 -0.217968 -0.13572 -0.008655 -0.188923 0.161875 -0.135561 0.072207 -0.018674 -0.021004 0.083016 -0.452781 -0.100564 -0.316802 -0.195924 -0.389409 -0.310195 -0.311454 -0.017816 -0.10803 -0.071563 0.34742 0.278305 -0.114761 -0.122135 -0.085074 0.178249 0.237292 -0.112101 -0.257221 0.063178 -0.264088 -0.027129 0.039735 -0.327461 -0.638758 0.239112 0.343063 0.131865 -0.375641 0.270986 0.433204 -0.145176 0.145727 -0.261712 -0.180146 0.233542
population 0.385554 0.615389 -0.132805 -0.050702 0.03189 -0.122842 0.174667 0.183156 0.265252 0.143778 -0.037086 -0.31692 -0.32433 -0.032534 -0.120072 0.172927 -0.556051 -0.422265 -0.24377 -0.03345 0.01946 0.156523 -0.032139 0.754615 0.273372 0.034089 -0.279236 0.25704 0.085237 -0.212751 -0.468837 -0.004811 0.21483 -0.048699 0.0532 -0.045805 0.132166 -0.212202 0.403211 -0.239191 -0.074894 -0.153879 -0.157274 0.267422 0.443356 0.406576 -0.200736 0.367487 -0.060237 0.407778 -0.201461 -0.336458 -0.553573 -0.38279 -0.24657 0.05378 -0.231143 -0.106278 0.345155 -0.020038 -0.284675 -0.273709 0.330091 0.0157 0.130154 -0.252245 0.372376 0.32292 0.0657 -0.154355 -0.010029 0.251138 -0.395149 -0.019172 0.037376 0.035383 0.119243 -0.256659 0.245439 0.060742 -0.119305 -0.08513 0.183539 -0.268763 -0.308368 0.264282 0.211533 -0.322316 -0.045837 0.016376 -0.27974 -0.210347 -0.10976 0.016675 0.301112 0.155284 0.299537 -0.053153 -0.255517 0.535179 -0.077362 -0.076193 0.170128 -0.40131 -0.424368 -0.00724 -0.180608 0.054971 0.259655 0.198093 0.043457 0.333314 0.262522 0.439652 0.102645 0.392727 -0.030464 -0.098006 -0.233743 -0.013252 -0.15811 -0.091336 -0.144735 0.21399 -0.011019 -0.354892 -0.074489 -0.367302 -0.144705 0.561375 -0.408153 0.202471 -0.101329 -0.126665 -0.204641 -0.575379 -0.071696 0.026997 0.01648 -0.161023 0.012284 0.013717 -0.320827 -0.102665 0.010924 -0.368938 0.270527 -0.3956 -0.281754 0.034498 -0.537949 0.152322 0.01826 -0.264778 0.030188 0.223807 0.115454 0.048326 -0.148049 -0.054715 0.024339 -0.188481 -0.038591 -0.1212 -0.355701 0.204151 -0.282918 -0.12117 0.236891 0.070812 -0.062237 0.212841 0.087372 0.571886 0.036018 0.377856 0.295839 -0.063846 -0.118984 0.012753 0.41576 0.184979 -0.269102 0.192377 -0.15648 0.539869 0.038947 0.027523 -0.2847 -0.179098 0.266723 -0.132388 -0.226494 -0.202155 -0.133613 -0.530632 0.174167 0.133396 -0.13907 -0.451144 -0.169471 -0.106327 0.302136 -1.0E-6 -0.181616 -0.465015 -0.022977 -0.259965 0.594374 -0.357267 0.17796 -0.072954 0.193556 -0.398384 0.138305 -0.044512 -0.054828 -0.180328 -0.136428 -0.137225 0.143267 0.101532 -0.03751 -0.317513 0.105804 0.208086 -0.183204 -0.345137 0.533953 -0.313264 -0.125198 -0.040129 0.167484 0.154477 -0.077204 -0.044415 -0.593051 -0.468345 -0.275234 0.067408 -0.278175 -0.35038 0.222941 0.233806 0.379468 0.182472 0.105831 -0.250295 0.121828 0.043237 0.111218 0.233857 -0.305722 0.022951 0.172212 -0.19201 0.117748 -0.196081 -0.098098 -0.017964 0.587483 -0.132755 -0.145204 -0.295227 0.037164 0.067376 -0.426362 0.186178 5.85E-4 -0.566454 0.069022 -0.30624 -0.052308 0.14005 0.208872 -0.467824 -0.116454 -0.131594 0.036251 0.138883 0.034866 -0.295874 -0.230026 -0.014038 -0.18776 -0.203388 0.06905 -0.504459 -0.187489 -0.135747 0.105441 0.314378 -0.05425 0.05535 -0.451001 -0.182206 0.155653 0.004185 -0.027321 0.041701
planning -0.076789 -0.10199 -0.097243 -0.215698 -0.002132 -0.107736 -0.239593 -0.137178 0.251471 -0.034377 0.141452 0.003992 0.197572 -0.077818 -0.026177 -0.558645 -0.069161 0.328527 0.028361 -0.370961 0.222525 0.360948 -0.232114 0.478355 0.121686 0.136051 -0.079148 -0.33802 0.016845 -0.066022 0.25246 0.02879 -0.003628 0.021305 0.315713 0.205008 0.208631 0.098225 0.006776 -0.101899 -0.065086 -0.090815 -0.201372 0.089527 0.248322 -0.116895 -0.25903 0.045651 -0.084967 0.161524 0.481981 0.034295 0.075832 0.140018 -0.236195 -0.162859 0.079717 0.220741 -0.033244 -0.189682 0.141967 -0.176341 0.328712 0.185461 -0.345409 -0.11557 -0.069705 0.119667 -0.420483 -0.081939 0.073429 0.536044 0.026281 0.18977 -0.096321 -0.025966 0.051825 -0.28758 -0.107037 -0.031144 0.312004 0.283116 1.57E-4 -0.06955 -0.161004 -0.503531 0.082556 -0.216053 0.11972 -0.332843 -0.239488 0.045202 0.064977 0.005573 -0.11078 0.292446 -0.04643 0.217834 0.220294 0.156064 0.25269 -0.023686 0.058811 0.112711 0.324494 0.109778 0.042609 -0.211879 -0.060625 0.093086 -0.058684 -0.099478 -0.014636 -0.089686 -0.212493 -0.022997 0.043932 0.023098 -0.166517 -0.079089 -0.044793 0.145138 0.216292 -0.13327 0.271625 -0.031205 0.300445 -0.20149 -0.139425 0.106224 -0.382523 -0.044953 0.182687 -0.198288 0.062915 -0.242922 0.098768 0.126856 -0.038366 0.018889 -0.038557 0.547289 -0.086868 0.039034 -0.042734 0.051579 0.070726 -0.217349 0.139014 -0.086066 0.130102 -0.044604 -0.127864 -0.121213 0.015817 3.6E-4 0.054036 0.24317 0.219613 -0.207724 -0.010117 0.025332 0.066249 0.099408 -0.115995 -0.065008 0.11316 0.173119 -4.39E-4 -0.029515 0.410632 0.200838 -0.111693 0.532919 -0.072942 0.249749 0.35635 0.317565 -0.028134 -0.109799 -0.375354 0.064266 -0.245224 -0.078019 -0.131506 -0.097402 0.161697 -0.030113 0.291143 0.471987 -0.327388 0.229089 -0.305639 -0.074291 0.03402 -0.280123 0.050312 0.098453 0.129684 -0.207132 0.094415 0.187114 0.102057 0.049459 0.097455 -0.193083 0.028909 0.323414 0.001571 0.304583 -0.169744 -0.053242 0.070808 -0.229191 -0.190898 -0.22259 0.13227 0.017744 0.260247 -0.381065 0.21902 -0.207221 -0.157693 0.403798 0.075092 -0.181462 0.814704 0.206048 -0.090164 -0.51082 -0.365662 -0.123109 -0.005617 0.075885 -0.223988 0.032792 -0.107035 -0.136504 -0.34485 0.006296 0.045304 0.356125 0.081151 -0.020822 0.379168 -0.247755 -0.443451 -0.139057 -0.04983 0.045031 0.104827 -0.137556 0.042028 0.07998 -0.403648 -0.133747 0.181795 -0.333077 -0.276101 0.460994 -0.378832 0.220785 -0.345852 0.164974 -0.223336 -0.16506 -0.212475 -0.216457 0.05122 0.080038 0.116321 -0.107705 0.069774 -0.175212 0.32366 0.090158 0.039395 -0.122477 -0.00249 -0.039967 -0.033404 -0.310917 -0.380644 0.178769 0.029705 -0.010902 0.181035 -0.13226 0.154229 -0.059442 -0.071925 -0.045416 -0.010064 -0.148888 -0.070261 -0.216105 -0.267031 -0.267141 0.046721 -0.079599
canyon 0.104489 0.24249 -0.639207 -0.281212 0.089389 0.08394 0.391604 0.1421 0.288002 -0.441552 -0.275737 -0.228911 -0.201007 0.102392 0.180788 0.05093 0.084379 0.14942 -0.175522 -0.588037 -0.057253 -0.25106 0.153443 0.07352 0.395773 0.324761 -0.031091 -0.455363 0.121491 0.53023 -0.23761 -0.050693 -0.49976 0.292016 -0.377963 0.04722 0.182849 -0.034575 0.075417 0.338523 -0.007842 0.143724 0.332236 -0.225524 -0.319418 0.176919 -0.108124 0.698205 0.295685 -0.128115 -0.142403 -0.53107 -0.291073 -0.374931 -0.246229 0.070409 -0.145421 0.028226 -0.043589 0.752418 -0.222584 0.198391 0.517098 0.077102 0.134209 0.187575 0.12381 0.170521 0.092377 0.173013 0.353034 -0.341622 0.067112 -0.177874 0.239134 -0.267422 0.169791 -0.335852 0.156565 0.234209 0.06675 -0.155803 0.11142 0.029526 0.046045 -0.547051 0.111977 -0.408876 0.536212 -0.006295 -0.538603 -0.183346 0.089101 -0.034233 0.188599 -0.067833 -0.186157 -0.295501 -0.221176 0.433051 -0.098658 0.461099 -0.151951 -0.21182 -0.093375 -0.146143 0.142416 0.147146 -0.033219 0.070671 -0.311855 0.1767 0.126652 0.316238 -0.190834 0.156263 -0.125211 0.058479 0.033159 0.334082 -0.151113 -0.060305 0.036162 0.139425 0.194343 -0.045881 -0.095523 -0.360983 -0.124646 0.103302 0.08385 0.246746 -0.084402 -0.380534 0.331537 -0.051597 -0.10358 0.207777 -0.483536 0.071333 0.345609 -0.3897 -0.200205 0.12832 -0.186709 -0.327401 -0.226778 -0.331098 0.232993 0.082738 -0.276618 0.044585 0.308869 -0.186735 -0.373828 0.198708 0.110196 -0.104373 0.177368 -0.124323 0.016367 0.172689 -0.10257 -0.435113 0.033254 -0.038342 -0.29135 0.354097 0.143321 0.324247 0.226732 -0.180611 -0.397442 0.219305 0.06903 0.097481 -0.308481 -0.037102 0.271904 0.101153 0.008667 -0.010899 -0.11547 0.027672 -0.088799 -0.044505 -0.071249 0.058849 -0.067687 0.086313 0.053288 -0.30196 -0.358007 -0.236114 0.437509 -0.395428 0.281758 0.036925 0.133042 -0.474395 0.237328 -0.167735 0.107601 0.222283 0.013831 0.196098 0.233023 0.246926 0.460381 0.103122 0.245504 0.19009 0.650393 -0.113147 0.038705 -0.584158 0.122176 0.118431 -0.275759 -0.131369 -0.093361 -0.399953 -0.22972 -0.254625 -0.056223 -0.24677 -0.327421 -0.484785 0.66515 0.016557 -0.144793 -0.067836 -0.001575 -0.210486 -0.097821 -0.486476 0.364792 -0.362836 0.085985 -0.293271 0.032246 0.049172 -0.357467 -0.300395 0.888707 0.681563 -0.055143 -0.025372 0.340704 -0.096515 -0.175856 0.323609 0.291133 0.035985 -0.083455 -0.27043 0.237248 -0.005252 -0.07303 -0.148383 -0.293107 0.174474 -0.238653 0.051034 -0.105965 0.122666 -0.048986 0.050117 0.299615 0.072478 -0.173876 -0.103859 0.470744 -0.248153 0.193147 0.005624 -0.09054 0.178926 0.262617 0.164289 -0.246596 -0.206621 0.23836 0.259556 -0.161289 0.23682 0.286881 -0.248205 -0.058408 0.525916 -0.188471 -0.413728 0.188056 -6.58E-4 0.587442 0.10622 -0.161168 -0.164624 0.104045 0.347652
delay -0.199545 -0.082723 -0.103324 -0.164181 -0.255397 -0.007754 -0.075918 -0.253441 0.055963 -0.01163 0.167326 0.160657 -0.042253 -0.05267 -0.076049 0.24577 -0.020378 0.284221 -0.400531 -0.175127 -0.033671 0.260358 -0.150296 -0.135177 0.327036 0.092286 0.189286 -0.220792 -0.122978 -0.159292 0.138063 0.281072 -0.40286 0.48745 0.066147 0.057564 0.250017 -0.321594 0.397995 -0.009703 0.011015 0.040527 0.130404 -0.031574 0.085787 0.026155 0.074268 -0.020955 0.137321 0.199174 0.007086 0.011147 -0.051016 0.094605 0.148168 -0.290878 0.066042 0.456655 0.046933 -0.019998 0.033192 -0.073112 0.098022 -0.130036 -0.553188 -0.235512 -0.144391 0.042047 0.006274 -0.272929 -0.304835 0.370662 -0.066925 0.091902 -0.033717 -0.115213 0.180393 -0.088174 0.027661 -0.060048 0.158038 0.114659 0.061052 8.6E-5 0.190219 0.149968 0.148636 -0.300392 0.06483 -0.327391 -0.225698 -0.112619 -0.027619 0.353107 -0.329258 0.273899 -0.161183 -0.161019 -0.056375 -0.026775 -0.297105 -0.112673 0.013265 0.466767 0.266521 -0.12979 -0.101108 0.151118 -0.266457 -0.21182 0.085462 0.156785 0.365816 -0.290063 0.201983 0.294845 -0.104713 -0.171862 -0.18442 -0.171498 0.086076 0.094679 0.08336 0.231884 0.258118 -0.358213 0.056553 -0.04214 -0.060257 0.090086 0.233108 -0.038738 0.069786 -0.352366 -0.023781 -0.209773 0.217841 0.158548 -0.071873 0.051985 -0.078165 0.1791 0.274293 -0.030918 -0.393773 -0.275244 0.169423 -0.162374 0.269382 0.312224 -0.029791 -0.024341 0.262952 -0.02965 -0.139608 -0.11562 -0.09929 -0.246618 0.239628 -0.164877 -0.077947 -0.017716 0.191649 -0.063003 -0.45156 -0.174624 -0.168962 0.139472 -0.01419 0.05002 0.107236 -0.131616 -0.457856 0.254431 0.458737 0.184823 -0.077377 0.274665 -0.228411 -0.176809 -0.411276 0.064718 -0.28609 0.004453 0.370722 -0.270246 0.002226 0.564425 0.069839 0.217015 -0.090102 -0.088666 0.085142 -0.117503 0.348089 0.12532 0.024551 0.263376 -0.11924 0.021531 0.022384 0.15697 0.183403 0.078042 0.202006 -0.573424 0.567917 0.022734 0.094493 0.377424 -0.154018 -0.061051 0.179864 -0.418556 -0.20675 0.239728 0.390975 -0.123106 -0.052669 -0.160272 0.043713 -0.161722 -0.296796 0.673627 -8.68E-4 0.077903 0.16353 0.074434 0.055995 -0.173492 0.077456 0.040313 -0.102113 0.030105 0.200876 0.256153 0.134179 -0.377969 -0.070895 -0.015327 -0.144983 0.059484 -0.130967 -0.114063 -0.084846 0.022684 -0.046799 -0.00874 -0.062643 0.31927 -0.057582 -0.378322 -0.575706 0.374352 -0.178495 0.171703 -0.16985 -0.093381 -0.063618 0.470111 0.234167 -0.128959 -0.243292 -0.02614 0.058165 -0.045314 0.140123 -0.390843 -0.21032 0.092526 0.347072 -0.202221 0.168585 0.293077 0.198906 -0.430787 0.16601 0.06788 0.321492 0.126538 -0.200656 -0.329585 -0.470182 -0.189899 -0.31885 -0.512198 0.022578 -0.087427 -0.288886 -0.026374 0.209485 -0.152904 0.110875 -0.053012 0.118277 0.333265 0.056397 0.446036 -0.067928 0.088309
size 0.19434 0.58977 0.113968 0.050014 0.015682 -0.314634 -0.36947 0.301605 -9.52E-4 0.36665 -0.129721 -0.45251 -0.528491 -0.091269 0.102084 -0.388958 -0.414704 -0.308821 -0.040628 -0.61313 0.255205 0.207029 0.087819 0.184039 0.111189 -0.018511 -0.03751 -0.18791 0.004618 -0.219408 -0.300177 0.205542 -0.131502 0.44353 -0.155428 -0.115435 0.119751 -0.317986 -0.027369 -0.303973 -0.150242 -0.317695 -0.009085 0.247908 0.238412 0.06077 -0.217306 0.014257 0.441874 0.05189 -0.110817 0.049667 -0.287597 -0.175072 0.171173 0.00987 -0.196815 -0.321203 -0.108945 -0.053876 -0.230646 0.091244 0.58027 -0.077192 -0.100956 0.242251 -0.220326 -0.023043 -0.581419 -0.236215 0.058664 0.059164 -0.310967 0.056179 0.606874 0.041018 0.011804 -0.062382 0.046663 0.0381 0.385682 0.183319 -0.183781 0.089341 0.069203 0.244718 -0.092154 -0.056354 0.408558 -0.078813 -0.211553 0.052327 0.228937 0.115903 0.28946 0.094391 -0.063966 0.393134 0.133172 0.036462 0.080322 -0.101789 0.195325 -0.58845 -0.162697 -0.080578 -0.140353 -0.100481 -0.065139 -0.456143 -0.086403 0.376908 0.394556 0.244681 -0.014735 -0.092683 0.103363 0.049452 -0.112138 0.020466 -0.233547 -0.112415 0.086698 -0.031373 0.284513 -0.232642 -0.143113 -0.138524 0.002249 -0.086046 -0.042485 0.33979 0.453797 -0.090296 0.115418 -0.366755 0.136054 -0.233612 0.24918 0.037998 0.267029 -0.206708 0.305045 -0.02237 -0.240072 0.166186 -0.104679 -0.305681 -0.20268 0.378011 -0.119039 0.37974 -0.102042 -0.020389 0.034271 0.352286 0.11808 -0.1036 -0.06983 0.049078 0.096455 0.299086 -0.093628 -0.469249 -0.207233 -0.03976 -0.480397 -0.036925 0.136208 -0.174638 0.240949 -0.168528 0.073965 0.173164 0.314519 -0.061799 0.041326 0.109473 -0.09822 -0.082492 0.283834 -0.247111 -0.095351 0.088586 -0.154093 0.086666 -0.184056 0.058782 0.085011 0.077811 0.170112 -0.091054 -0.134295 -0.152569 -0.063707 -0.179783 0.266523 -0.16802 -0.224188 -0.248415 -0.083484 0.169032 0.105471 0.043683 -0.15515 -0.300558 -0.277427 -0.007898 0.170959 -0.246435 0.20767 0.561664 -0.323448 -0.050456 -0.145161 -0.252944 -0.299547 0.014293 0.209294 -0.005757 -0.099726 0.091923 -0.109872 0.029916 -0.007878 0.142337 0.14864 -0.161052 0.250841 -0.259967 -0.329025 -0.148062 -0.106402 0.089872 0.069026 0.302489 -0.022636 -0.102377 -0.332648 -0.158848 -0.073766 -0.238019 0.40814 -0.272428 0.218897 0.131245 0.049366 -0.044405 -0.224265 0.03618 0.111047 -0.09349 -0.077134 0.326446 0.393599 -0.35959 0.002518 -0.120763 0.134897 -0.070895 0.429674 0.407424 0.087241 -0.008215 -0.070605 0.291056 -0.181861 -0.375876 0.231903 -0.212859 -0.024508 -0.35238 -0.120784 0.076541 0.65523 -0.308253 -0.282976 -0.077771 -0.249538 0.185328 -0.287378 -0.131577 0.085072 -0.452866 0.066396 -0.193371 -0.258087 -0.067031 0.0806 -0.043672 0.17533 -0.066246 0.183481 0.150199 -0.041244 0.302244 -0.008436 0.310843 0.007462 0.005949
peace 0.119919 0.349077 0.203002 -0.45106 -0.163703 -0.091241 -0.218393 0.073941 -0.353229 -0.056778 0.428873 -0.029386 0.175371 0.065682 0.424649 0.091653 -0.087714 0.096942 -0.265712 -0.001164 0.161651 -0.426466 -0.238874 0.540354 0.415058 0.180498 -0.106207 -0.301643 -0.041722 -0.529318 0.193367 0.398677 -0.241655 -0.453941 0.484682 0.472217 -0.094739 0.041885 0.227402 0.282535 0.229564 0.174282 0.10453 -0.136446 -0.210147 -0.218945 -0.52768 0.162801 0.597228 0.604543 0.157388 -0.287384 -0.154011 -0.042326 0.17751 0.14882 0.209298 0.513688 0.391865 -0.088342 0.241863 0.263976 0.3175 0.176976 -0.29592 0.084059 -0.098424 0.031663 0.014842 -0.002505 -0.115795 0.325799 0.253083 -0.129343 -0.124204 0.227102 -0.109475 0.010769 0.19858 0.176011 -0.212866 -0.037233 -0.202522 -0.307524 0.217618 0.079187 -0.022778 -0.301027 0.511076 -0.037916 -0.224903 0.077288 0.337314 -0.039829 -0.060975 -0.033274 -0.124701 0.084045 0.195781 0.355813 -0.034818 -0.050152 -0.266039 0.446599 -0.329492 -0.216394 -0.723238 -0.07253 0.042242 0.34519 -0.209172 0.340484 -0.081186 0.228442 -0.013428 0.656475 -0.655202 -0.415647 0.578186 0.010446 0.311305 -0.395968 0.257985 -0.085063 0.219943 -0.033594 -0.173253 0.150224 -0.033113 0.182165 -0.366804 0.348285 0.193784 -0.157603 -0.003654 -0.346791 0.266636 -0.273286 -0.057135 -0.219182 -0.139214 0.080532 0.037281 0.38912 0.018204 -0.004057 0.321622 -0.058319 -0.313419 0.250335 -0.281312 -0.593972 0.676526 0.081115 0.125519 -0.317852 -0.361637 0.19702 0.142809 -0.110932 0.075178 -0.501954 0.119035 -0.34911 0.270015 -0.438166 -0.289245 -0.284676 0.139156 0.074949 -0.073401 0.019859 -0.32125 0.083886 0.289107 0.243625 -0.313009 -0.17424 -0.073815 0.097242 -0.200808 -0.325857 -0.151244 0.60518 -0.047384 0.044184 -0.047622 -0.015065 -0.101945 -0.109516 0.184898 -0.151209 -0.153755 -0.138976 0.074774 -0.262287 0.729973 0.106843 -0.038255 -0.505804 0.435587 -0.350023 -0.095366 -0.042893 0.010056 -0.471975 0.06582 -0.058892 0.132963 -0.235124 -0.033232 -0.201018 -0.073648 0.095474 -0.415415 -0.059025 0.107055 0.120035 -0.200773 -0.121755 0.276032 -0.464332 -0.083308 0.040243 0.535706 -0.189646 -0.415548 -0.420144 -0.482053 5.91E-4 -0.646636 0.064217 -0.280697 -0.24752 -0.721789 0.254587 0.115852 -0.001551 0.378668 -0.636026 -0.406759 0.139085 0.146879 -0.691063 -0.018824 -0.063731 0.108188 -0.080995 -0.094327 -0.147363 0.212157 0.389507 -0.135752 0.379891 -0.42576 0.040338 -0.256453 -0.524782 0.053734 0.126607 -0.053278 -0.37797 -0.114319 -0.144601 0.076447 -0.152762 -0.132561 -0.458649 -0.104059 -0.083477 -0.042817 0.112227 0.333688 -0.177333 0.605133 -0.01454 0.065049 0.08691 0.138658 -0.507366 0.284596 -0.201751 -0.114101 0.036554 -0.034147 -0.348242 0.046922 -0.878698 -0.274503 0.511931 -0.042531 -0.091695 -0.533555 -0.007346 0.087071 -0.097629 -0.040579 -0.099469 0.513587 0.148172
science 0.560221 -0.108909 0.091318 -0.32616 -0.286051 -0.128216 0.256618 0.031335 0.27489 -0.388723 0.136007 -0.056265 0.216564 0.241468 -0.118767 -0.611272 -0.124988 -0.317661 -0.311062 -0.002651 0.046872 -0.016303 0.300044 0.077107 0.156151 0.032582 -0.240638 0.217506 -0.078031 0.244392 0.069945 -0.296112 -0.109285 -0.337798 0.046645 0.202461 0.017098 0.277407 0.253707 0.176256 0.130448 -0.169738 -0.155863 0.019463 -0.164386 -0.076514 -0.462706 0.331829 0.071616 0.216909 0.241439 0.08614 -0.333733 0.318269 -0.15347 -0.245769 0.09062 -0.268322 0.174755 0.202556 0.001088 -0.136433 0.482459 -0.305086 -0.059392 -0.06929 -0.028772 -0.047495 -0.19373 0.282239 0.001926 -0.034958 -0.146236 -0.195143 -0.156129 -0.138867 0.16258 0.052286 0.074671 0.14531 0.026713 0.188612 -0.139814 0.13047 0.263999 -0.054799 -0.109084 0.35284 0.02159 0.035351 -0.264073 -0.080054 0.117742 0.070664 -0.301654 0.125489 -0.337604 0.250871 0.301106 0.463011 -0.178548 0.024248 -0.05658 0.052846 0.164255 0.068248 -0.017138 0.244869 0.124117 -0.169997 -0.360711 -0.085549 0.060911 -0.14675 -1.22E-4 0.002322 0.41082 -0.072158 0.140749 0.01997 0.046777 -0.157794 -0.034045 0.202516 0.012692 -0.580905 0.075498 -0.095433 -0.128893 0.061858 -0.034873 -0.215258 -0.073928 -0.166947 0.150148 -0.250141 0.040018 0.023501 -0.175911 0.043817 -0.2528 -0.079559 -0.240586 -0.236919 0.554995 -0.124634 -0.058965 -0.046675 -0.449481 0.573691 -0.361097 0.1465 -0.070469 -0.281179 0.302516 -0.196075 0.22287 0.213754 0.085464 -0.570108 0.079959 -0.173421 6.59E-4 -0.616331 -0.171299 -0.119869 -0.156043 0.004183 -0.3665 -0.300182 -0.21527 -0.313712 -0.114449 0.403984 0.321492 -0.218841 -0.056445 0.256443 -0.403248 0.065157 0.041403 -0.071294 -0.174972 0.172787 0.166854 0.268687 0.130178 -0.055749 0.295477 -0.029589 0.018773 0.120553 -0.184833 0.199867 -0.257076 0.197964 0.576225 -0.161652 0.113376 -0.169002 0.349898 -0.553959 0.328517 -0.103913 -0.0254 -0.435807 0.287141 0.039384 0.373893 0.41334 -0.016016 0.267433 -0.168374 -0.05339 -0.203922 -0.150217 -0.250785 0.335765 -0.045933 -0.401379 0.265707 0.038054 0.179823 0.184955 0.500636 0.135787 0.007276 -0.014467 -0.093502 -0.066024 -0.075451 0.115686 -0.071002 0.044707 -0.402193 0.094589 0.103073 -0.544452 0.024739 0.265951 0.128546 0.062462 0.013254 -0.339189 0.510558 -0.196449 0.302026 0.181105 -0.324775 -0.310229 0.176017 -0.045978 -0.284851 -0.014422 0.027942 -0.32052 -0.158917 0.151914 0.020025 0.300401 0.292271 0.021748 -0.096675 0.137977 0.316538 -0.220222 0.39829 -0.074902 0.167173 0.037357 0.271375 -0.208935 0.056699 -0.069298 0.18572 0.189471 0.210561 -0.075 0.233922 -0.097752 0.200445 -0.231471 0.261643 -0.018495 -0.304239 -0.170928 0.260907 -0.068148 -0.3382 -0.181408 -0.085892 -0.151806 0.121945 -0.017638 -0.132785 0.20708 -0.040523 -0.424739 0.075273 -0.058436
dawn -0.115739 0.352855 -0.322355 -0.016694 0.191668 0.185846 0.030949 0.019768 0.070566 0.14145 0.479615 0.097111 -0.061647 -0.100988 0.166606 -0.335658 0.156727 0.142842 0.13439 -0.007854 0.057266 -0.236178 -0.143741 -0.112466 0.244198 0.351852 0.152588 -0.357257 -0.26293 -0.094531 -0.016071 0.294017 -0.036365 -0.198014 0.077384 -0.002207 0.269411 -0.017467 0.290922 0.338752 0.210603 0.227894 0.496634 0.092691 0.015793 0.226998 -0.056148 0.203637 0.119186 0.071112 -2.0E-6 -0.119669 -0.407981 -0.125816 -0.210952 -0.12923 0.489186 0.071615 0.005944 0.034987 0.010939 -0.123445 -0.04217 0.135198 -0.372943 0.171481 -0.066624 -0.091705 -0.016244 0.087148 0.154216 0.095142 0.012785 -0.013356 0.299222 -0.076754 -0.310825 -0.018384 -0.15265 0.057677 0.452113 -0.411882 0.01117 0.014284 0.378014 0.281011 -0.624972 -0.158482 0.305867 0.036342 -0.351416 -0.596633 0.248329 0.131504 -0.108552 -0.083138 0.064127 -0.002133 -0.323499 0.608031 0.063027 -0.039653 -0.253476 -0.016205 0.171402 0.047394 -0.050025 -0.066963 0.273288 0.227355 -0.133191 0.38966 -0.199592 0.360146 0.018615 0.093788 0.219732 -0.523666 0.016186 0.306573 0.146631 0.508266 -0.090513 0.361785 0.34527 0.121951 0.059401 0.005711 0.083809 -0.004048 0.038223 0.089942 -0.060209 -0.278245 0.219377 -0.37332 0.044789 0.324433 -0.152779 -0.072775 0.037116 -0.146692 -0.15866 0.189726 0.141056 0.187389 0.188674 -0.422041 -0.124188 0.169938 -0.340892 0.318976 0.201427 0.228479 -0.188673 -0.132821 -0.330405 -0.195836 -0.129106 -0.393314 -0.089811 0.071827 -0.024302 0.052963 0.331102 -0.249193 -0.324694 0.185007 -0.096792 -0.074696 -0.022747 -0.299356 0.191393 0.127317 -0.248206 0.084515 -0.261898 -0.19325 -0.317011 -0.323335 0.212293 0.053477 -0.003394 -0.064502 0.256778 0.054928 0.027537 0.153134 -0.118974 0.270937 -0.376572 0.324376 -0.316495 0.049822 -0.045899 -0.433927 -0.079187 -0.106427 0.065694 -0.224261 0.261399 -0.071893 0.194107 0.18765 -0.281869 0.104258 0.303358 0.052065 -0.042073 0.331313 -0.110883 0.55619 0.080418 -0.660456 -0.312368 -0.104615 -0.012104 -0.004269 -0.214352 0.043511 0.617892 -0.193266 8.2E-5 0.313158 0.13733 -0.091863 -0.303271 -0.061899 0.134352 0.177326 -0.253967 -0.038412 0.564476 -0.039646 0.110924 -6.98E-4 -0.222114 0.057756 -0.018386 -0.237517 0.209497 -0.008112 -0.011041 0.156301 0.30137 0.116457 0.215907 0.076803 -0.183857 -0.141497 -0.012944 0.178059 -0.307386 -0.23748 -0.041499 -0.096681 0.262311 0.074247 -0.057767 0.353878 0.183752 -0.015682 0.225974 -0.211191 -0.368495 0.03846 0.317606 -0.362302 0.05628 -0.483871 0.028915 -0.269377 -0.349494 -0.136151 0.081393 -0.029523 -0.465005 0.278986 -0.490489 0.235933 0.118121 -0.129746 0.089637 0.291252 -0.142529 -0.023861 0.480279 -0.280548 -0.253344 0.562321 0.321984 -0.362443 -0.43117 0.042105 0.360064 -0.2779 0.031907 -0.088977 0.170134 0.019652
brother -0.011019 0.071519 -0.240015 0.109641 -0.230388 -0.110832 0.060376 -0.50961 0.255683 -0.259006 0.121621 -0.122933 0.389924 0.232473 0.406005 -0.269114 -0.021618 0.128826 0.042884 -0.15972 -0.05219 0.450605 -0.303433 0.300546 0.347647 0.121102 0.002476 0.084834 0.060979 -0.264976 -0.248274 0.154364 -0.376039 -0.051146 0.386439 0.006383 -0.108401 0.006396 -0.246615 -0.401082 0.029296 -0.083232 0.34587 -0.092035 0.061296 -0.122082 -0.345374 -0.593139 -0.284012 -0.097761 -0.229024 -0.422687 -0.009442 0.159173 0.102635 0.100681 0.139996 0.225147 0.312111 0.230739 0.531797 -0.019965 -0.301063 0.363663 -0.27535 0.086603 0.355144 0.09738 -0.123226 0.063456 0.112928 0.351212 -0.17186 -0.22217 0.361385 -0.19123 0.04946 -0.065206 0.063562 -0.25729 -0.060478 -0.125065 0.157233 -0.055411 -0.097037 0.016794 0.004396 -0.025654 -0.126278 0.085382 -0.228459 0.128994 0.215375 -0.118553 -0.121094 -0.321015 0.311052 0.036855 0.508802 0.378955 -0.119345 -0.005721 0.218729 -0.208319 -0.141989 0.126314 -0.186854 0.020561 0.107839 0.090126 -0.217035 0.076935 -0.085573 -0.139199 0.36361 -0.095413 -0.153248 -0.436729 -0.255601 0.012659 0.171497 0.08773 -0.025288 0.125617 0.057865 -0.235369 -0.185334 -0.299563 -0.278275 0.036117 -0.1455 0.301251 -0.050306 -0.447858 -0.358221 -0.062291 0.227281 0.026888 -0.217911 -0.283605 0.416863 0.158018 -0.106422 0.233399 -0.436476 -0.193262 -0.118922 0.12866 0.199472 0.181854 -0.113138 0.036219 -0.345337 0.172157 -0.114364 -0.134078 0.077116 -0.008367 0.217394 -0.073388 0.168449 -0.313154 0.29163 0.001551 -0.134304 -0.317993 -0.286611 0.455284 -0.034013 -0.09078 0.0016 0.388616 -0.350818 0.063724 0.034475 0.268318 0.350846 0.410156 -0.214992 0.084234 0.566016 -0.239971 0.222583 0.281026 0.07061 0.065055 0.125132 0.112787 -0.161172 0.282034 -0.095479 0.137397 -0.150303 0.562939 0.092214 -0.024426 0.357862 0.371303 0.031035 0.056933 -0.04534 -0.076777 -0.29134 -0.193903 0.025596 -0.276102 0.157388 -0.114347 -0.092663 -0.233401 0.109292 -0.12473 0.099083 -0.151046 0.056513 0.053265 -0.199285 -0.386909 0.342922 -0.226922 -0.059548 -0.029498 0.152591 0.640895 0.166642 -0.292337 -0.210329 -0.167433 -0.03634 0.140323 -0.173862 0.211818 -0.006495 -0.218816 0.096966 0.04333 0.305981 -0.240872 -0.218266 -0.205936 0.297863 -0.158116 0.157379 -0.069635 0.03527 0.174357 0.020765 -0.144998 0.202558 0.04441 0.361202 -0.00766 -0.167115 0.193622 -0.156612 0.115459 0.297226 -0.121879 0.154106 -0.094996 0.120903 0.245589 0.069705 -0.284063 -0.266159 0.084131 -0.093564 0.069025 0.050026 -0.204992 0.215188 -0.188767 0.039065 -0.48639 0.362406 0.423733 -0.18723 0.517644 -0.360191 0.182589 0.148151 0.207584 -0.003206 0.111641 0.070493 -0.137181 -0.0308 0.202812 -0.207701 -0.495355 -0.113851 0.213834 -0.234814 -0.345686 0.020598 0.084884 -0.295624 0.092373 -0.179151 0.215087
wine -0.293735 -0.139467 -4.97E-4 0.139639 -0.091615 -0.351794 -0.215098 -0.005006 0.22723 0.157916 0.436779 -0.37646 0.002649 0.272515 0.148782 -0.077234 -0.207789 0.014257 -0.060255 -0.457951 0.456609 0.111084 -0.143877 0.152524 0.590471 0.386652 -0.350653 -0.116573 0.115352 0.210229 -0.065523 0.214834 -0.317847 0.257569 -0.001103 -0.278663 0.04728 0.215051 -0.250298 -0.089386 -0.543875 -0.097056 0.001462 -0.096064 0.036995 0.44971 -0.321804 -0.10981 0.105773 0.181898 0.563949 0.134631 -0.434259 -0.110671 0.162676 0.40256 -0.147616 0.058086 0.174792 0.266617 -0.293362 -0.230355 0.235993 0.001443 -0.368721 -0.169191 -0.028844 -0.104326 0.157223 0.086514 -0.180372 -0.03357 -0.101881 -0.118501 -0.161685 0.193679 0.147899 0.167696 -0.060333 0.410602 -0.104727 -0.171497 -0.129237 0.281433 0.281607 0.187198 -0.231237 0.111564 0.190155 -0.279983 -0.346178 0.289134 0.55913 0.245416 0.011921 -0.18193 0.02849 0.64422 0.247502 -0.255423 0.02563 -0.227427 0.335738 -0.245243 0.056417 -0.311021 0.182747 0.302655 0.119593 0.0445 0.017552 -0.084072 -0.073691 0.027273 -0.12554 0.134105 0.138744 0.183229 0.11689 -0.210567 0.128313 0.277267 0.12864 0.116776 -0.026545 -0.150866 -0.143506 -0.184264 0.125667 0.032037 0.307988 0.100362 -0.01292 0.076446 0.073189 -0.079352 0.174911 0.220885 -0.38697 -0.446653 0.146283 -0.006816 0.070157 -0.0021 0.233167 -0.174355 0.127595 -0.060254 0.14296 0.094218 -0.067145 -0.060474 0.510081 0.133779 -0.451444 0.158023 -0.010675 0.127496 -0.411203 0.371512 0.061282 0.029623 0.10194 0.015826 0.085426 0.136973 -0.234191 -0.062213 0.134806 -0.079856 0.105625 -0.16201 -0.448391 0.009338 0.031694 -0.175092 0.00646 0.129889 -0.26375 0.20421 0.459637 -0.139391 -0.689877 0.469449 0.192031 -0.080502 -0.243308 -0.051388 -0.294264 -0.088857 -0.260763 0.078393 -0.049065 -0.280625 -0.403616 -0.302075 0.233935 -0.063755 -0.010381 -0.079539 0.185628 -0.06572 0.313964 -0.283964 0.133486 0.016883 -0.011638 -0.085832 0.375535 -0.00979 -0.175127 0.098176 0.13892 -0.137746 0.104693 -0.325726 -0.036384 0.507747 -0.467854 -0.283525 0.331051 -0.597587 -0.252542 -0.225275 0.188119 -0.302534 -0.428997 0.069465 0.371689 0.159016 0.117895 -0.174775 -0.00386 -0.017531 -0.069996 -0.181732 -0.158435 0.179106 -0.192239 0.184043 -0.073664 0.304009 0.457145 -0.236189 0.308432 0.080946 0.076882 0.32896 0.446578 -0.085562 -0.088636 0.177368 0.312718 -0.067221 -0.174314 -0.105187 0.058653 -0.007557 0.324507 -0.075467 0.229034 0.177286 -0.279079 -0.181721 -0.170308 0.15235 -0.158531 -0.129209 -0.215246 -0.114719 -0.040424 0.173677 0.141575 -0.131198 0.721833 0.035498 -0.066754 0.091042 -0.473716 0.309359 0.162229 -0.357093 -1.08E-4 -0.116994 -0.076132 -0.097819 0.441955 0.121496 -0.237655 0.032917 0.241504 0.318793 0.147327 -0.228962 -0.020331 -0.035183 -0.016882 0.009412 -0.357078 0.286121
object -0.120381 0.602424 -0.11771 -0.246993 0.017381 -0.082113 0.147939 -0.089402 0.23267 -0.212683 0.041036 -0.340461 0.210302 0.08498 0.169823 0.064051 0.342714 0.076323 -0.043332 -0.242421 -0.211617 0.203059 -0.240771 0.15222 -0.069729 0.321899 -0.147663 -0.20622 -0.096233 0.395579 -0.172425 0.063759 -0.273196 -0.106909 0.057652 -0.288926 0.237607 0.215142 0.181712 -0.076337 -0.177634 -0.123068 0.172411 0.029357 0.120536 -0.058024 0.064645 0.222926 0.059602 0.129388 0.254066 -0.068536 -0.24199 0.027069 -0.172279 -0.111026 -0.336593 -0.049754 -0.505381 0.029302 -0.012201 -0.040023 0.511861 -0.020056 -0.173921 0.041923 -0.329071 -0.049764 -0.635582 -0.08813 0.054451 -0.070575 -0.162573 -0.054448 -0.002907 -0.050153 -0.269302 -0.152204 0.162899 -0.052867 0.258765 0.387514 -0.276364 -0.278099 0.163362 0.296949 0.078379 -0.153717 0.219844 -0.123947 0.037004 -0.092753 -0.284816 0.027748 0.147561 0.246584 -0.398894 0.142779 0.018489 0.279546 -0.282154 -0.281875 0.198756 0.111938 -0.08334 0.152333 -0.351673 0.174637 -0.408985 -0.543118 0.022886 0.204113 0.228088 -0.030432 -0.037041 0.394958 0.159028 -0.095265 0.213311 0.093888 0.281608 -0.180913 -0.203538 -0.057269 0.253996 -0.21432 -0.155127 -0.034565 -0.124573 0.138697 0.14555 0.325313 -0.036327 -0.195793 0.163038 -0.261339 0.137286 -0.043756 -0.062125 -0.153035 0.038244 0.249491 0.306415 0.033833 0.089292 0.05457 -0.197352 -0.113802 -0.252052 0.071692 -0.103274 0.406998 0.11072 -0.20096 0.154924 0.080005 -0.242187 0.133559 0.112475 -0.07618 -0.310129 0.04009 -0.179215 0.155581 0.146709 -0.056483 -0.130105 0.149444 -0.032328 -0.163096 -0.066811 -0.115832 -0.231481 -0.110072 0.063881 -0.139055 0.116809 -0.215593 -0.400812 -0.101329 -0.034419 -0.13042 -0.109251 0.016468 -0.173675 -0.020695 -0.130911 -0.005965 0.072228 0.169316 0.23819 -0.227727 -0.339029 -0.403122 0.123728 0.008181 0.393018 0.175624 -0.087783 -0.53989 0.159088 0.180222 0.406505 -0.243154 0.081165 -0.19012 0.430506 0.202866 0.167549 -0.062465 0.129331 0.319883 -0.027921 -0.290688 0.086553 -0.323703 0.102854 -0.007886 0.151774 0.009901 0.042163 -0.021677 -0.437765 0.319391 0.24243 0.300286 0.098897 0.356091 0.13743 0.205393 -0.121706 0.043661 -0.00513 0.094017 -0.015584 -0.200668 0.097736 -0.395991 0.168843 -0.074224 -0.194066 0.029538 -0.329184 -0.009045 0.034615 0.275753 0.165987 0.018336 0.20676 0.04014 -0.207818 -0.10743 0.069982 -0.183909 0.016819 -0.096205 -0.006227 0.206779 -0.043193 0.323832 -0.138447 0.066718 0.022318 -0.27877 -0.157667 0.035109 -0.100691 -0.002921 -0.086299 -0.277699 0.337675 0.050321 -0.182091 -0.259607 0.367197 0.26934 -0.077335 0.235154 0.109642 0.143679 0.003004 0.152275 0.224906 -0.092002 0.159208 -0.351804 0.069465 0.163536 -0.144313 0.030027 -0.072511 -0.595413 0.317154 -0.241827 0.364977 0.126097 0.144727 -0.069899 -0.24222 0.60264
attitude -0.09709 -0.039495 0.107642 -0.323476 -0.027556 -0.100985 -0.182505 0.31509 0.099847 -0.050833 0.148769 -0.018651 -0.028389 0.02601 0.541827 -0.038026 -0.295165 -0.134633 0.109149 -0.104918 0.230317 0.400281 -0.012843 0.065918 0.129885 0.421922 -0.079583 -0.058492 -0.363828 -0.273187 -0.00203 -0.033755 -0.089061 -0.232202 0.318926 -0.36958 -0.116725 -0.407209 -0.044299 0.227927 0.399728 -0.315599 -0.152545 0.408489 0.380988 -0.204008 -0.432369 0.132818 -0.117853 0.250518 0.028541 0.188865 0.154706 0.032715 -0.26346 0.098009 -0.178226 -0.212781 -0.119393 0.263735 -0.059527 -0.239195 0.17863 0.423506 -0.303479 -0.3848 -0.221325 0.066511 -0.44533 -0.102111 0.041731 0.472707 -0.21016 0.224405 -0.275649 -0.202463 0.317027 0.185771 -0.051297 -0.380111 0.507991 -0.247842 -0.036096 0.143013 -0.286976 -0.085586 -0.395397 -0.243753 0.359739 -0.27143 0.260496 -0.427321 0.436606 -0.297647 -0.087401 0.1798 0.124066 0.289585 0.063301 0.024731 -0.068486 -0.280434 0.090828 -0.027795 -0.373969 0.046595 -0.126624 0.030165 -0.009493 0.052938 -0.291363 0.485783 0.238206 0.164303 0.287318 0.295544 -0.034546 -0.039626 0.186052 0.187455 0.214837 -0.002547 -0.038134 -1.4E-5 -0.190868 0.013277 -0.051951 -0.146855 0.134503 0.096474 -0.29116 0.090678 0.2743 -0.023418 0.043804 -0.330804 0.120258 0.332767 -0.073173 -0.251165 0.145086 -0.041929 0.311647 0.181064 -0.136884 -0.144612 0.135625 -0.213131 -0.444822 0.236275 0.018952 0.233632 0.205202 -0.060136 0.039787 0.052885 -0.293987 0.391221 -0.024929 0.133645 0.157761 -0.084025 0.171325 -0.027585 0.003248 -0.302946 -0.051842 -0.377175 0.299977 -0.201358 -0.217608 -0.085136 -0.195671 0.132234 0.257175 0.144782 -0.298115 0.288402 -0.138034 0.161087 0.349121 -0.168787 -0.081368 0.237703 -0.068251 -0.498118 0.34165 0.371944 0.208575 0.150031 0.040116 -0.174864 -0.532897 -0.043775 -0.228777 -0.143837 0.271058 0.159108 0.510951 -0.045841 -0.073196 -0.059008 0.164344 -0.008339 0.175051 -0.131669 0.387752 -0.088237 0.316175 -0.05537 0.07006 -0.03996 0.191154 -0.175575 -0.206317 -0.205389 -0.182025 -0.009827 0.01339 -0.104405 0.159468 0.037749 0.332201 0.371307 0.019252 -0.020043 -0.136211 0.078962 0.031561 0.083513 0.077689 -0.083414 0.097923 0.235109 0.291466 0.139256 -0.11903 -0.184594 0.057528 0.162102 0.147218 0.081835 -0.393295 0.09004 0.168153 -0.385863 -0.010208 -0.002438 -0.066727 -0.198844 -0.101188 0.315589 0.043887 -0.071624 0.103212 -0.095475 -0.130144 0.197635 -0.120613 -0.572522 0.205291 -0.049573 -0.028988 -0.071141 -0.085514 0.105457 -0.050997 -0.138114 -0.197309 0.301376 0.066541 -0.174166 0.243875 -0.263127 0.624542 -0.050152 0.200748 0.045481 0.112168 0.097903 -0.083452 0.161285 0.088152 0.088755 0.31786 -0.188229 -0.027587 0.148302 -0.173188 -0.199541 -0.30941 0.174123 0.283711 0.088137 0.198999 -0.006791 -0.117857 -0.0307 0.354688 0.220629
treatment 0.038489 0.192775 -0.122993 0.023452 0.184986 -0.215297 -0.115637 -0.220441 0.089177 -0.151624 0.200529 0.04207 0.183262 -0.076179 -0.082905 0.059612 -0.240026 0.090962 0.219325 -0.136138 0.027976 0.111808 -0.004931 -0.029803 0.121719 0.222744 -0.24991 -0.190821 -0.447872 0.051893 0.279267 -8.1E-4 0.051099 0.282755 0.274961 0.611403 -0.210661 0.099024 0.108417 0.481949 0.449063 -0.567319 -0.272977 7.13E-4 0.257517 -0.166013 -0.038897 -0.239647 -0.27855 0.383754 0.111737 0.017476 -0.01099 0.090501 -0.007839 -0.104721 0.072021 -0.227671 0.240487 0.104378 0.296358 -0.103765 -0.087368 -0.102169 -0.563253 -0.147152 -0.074634 0.293916 -0.111299 -0.198583 0.065211 0.458395 -0.031418 -0.042818 -0.31301 0.050505 0.267012 -0.222816 -0.151196 -0.258443 -0.174397 -0.378084 -0.201384 -0.117481 0.074642 0.183269 0.028069 -0.14742 0.067781 -0.130507 0.182519 -0.293388 -0.027315 0.175128 0.183165 0.159661 -0.115338 -0.151165 0.082671 -0.230536 -0.113205 -0.307628 -0.058196 -0.029081 0.125791 0.033552 -0.099856 -0.220384 0.314113 -0.393739 0.226222 0.057251 0.358948 0.11947 -0.014706 0.004961 0.47652 0.40319 0.134432 0.146796 -0.329397 -0.113489 0.507341 0.331567 -0.183563 -0.127401 -0.110805 0.016332 -0.13975 -0.146516 0.169135 0.214627 0.084629 0.10977 -0.124058 -0.147264 0.147331 0.097676 -0.091692 -0.3114 0.440935 0.105636 -0.00381 -0.006469 -0.43819 -0.591746 -0.035938 -0.293976 -0.11581 0.214301 -0.087634 -0.196677 0.06426 -0.156033 -0.221418 0.167101 -0.086762 0.39924 -0.054551 0.047583 -0.151176 -0.313725 0.114327 0.114359 0.118534 -0.092426 -0.430738 0.050969 -0.35585 0.429403 0.286748 0.079667 -0.09459 0.209173 -0.144446 0.227177 0.055477 -0.230509 0.126458 0.185408 0.105558 -0.11188 -0.063797 0.081611 0.369989 -0.192562 -0.092291 0.61322 0.193998 -0.107822 -0.101052 0.008927 -0.139032 -0.720556 -0.351216 -0.290468 0.365017 0.086992 -0.024705 -0.192673 -0.112708 -0.136089 0.253218 -0.331729 -0.192522 -0.437483 0.106525 0.165009 0.123248 0.255199 0.19482 0.092311 0.178762 -0.081506 -0.139875 0.241953 -0.072692 0.079556 -0.029432 -0.157406 0.13103 0.123475 0.193977 0.59091 -0.078097 -0.108229 0.349482 0.302332 0.223443 -0.420861 0.174663 -0.312438 -0.052404 -0.244337 0.078648 -0.044615 -0.449693 -0.247183 -0.368571 -0.059471 0.346896 0.059542 0.187795 -0.088367 0.139081 -0.13251 -0.149155 -0.193841 0.134046 0.086541 0.150572 0.295528 0.056338 0.08781 0.116258 -0.152467 0.022393 -0.333819 0.139645 5.56E-4 0.342765 0.102464 -0.06342 0.033427 -0.13473 -0.132212 -0.045873 0.136277 0.078937 -0.408925 -0.148234 -0.382748 0.147939 0.128047 0.250335 -0.125648 0.431225 -0.031722 -0.13839 0.098361 -0.223551 -0.207082 0.076099 -0.209807 -0.35267 -0.073551 0.455748 0.048261 -0.351032 0.088898 -0.14558 -0.185333 0.128273 -0.374453 0.013129 -0.149436 0.088676 0.019639 0.384386 -0.194899
flight -0.23843 0.108666 -0.159816 0.213209 0.115505 0.217643 0.067099 0.013551 0.053278 0.066213 0.294593 0.051239 -0.014726 -0.175937 0.320447 0.074024 -0.339259 -0.216738 0.132652 -0.265498 -0.098254 0.747917 -0.198185 -0.174726 0.163715 0.174976 0.072925 0.141733 -0.272415 -0.095911 -0.203516 -0.22452 -0.312274 -0.37726 0.176786 0.13857 0.402531 -0.165553 -0.0481 0.530256 0.227869 0.216445 0.212988 -0.26751 -0.043643 0.102036 -0.005379 0.186087 0.117896 0.103458 0.089669 -0.101107 -0.196253 0.25475 0.072426 -0.055298 0.495529 -0.230966 0.194954 -0.266792 -0.194602 0.439688 0.413302 -0.180293 -0.242298 0.075977 0.331826 -0.085287 -0.266781 -0.274363 0.2896 0.385916 0.010537 0.05806 0.129013 0.129508 -0.131993 -0.391433 0.028726 0.280621 0.254961 -0.222666 0.086144 -0.416523 0.086717 0.080686 0.081715 -0.230319 -0.087773 -0.11629 -0.414252 -0.094903 -0.246704 0.017757 0.153516 0.075834 0.009377 -0.160143 -0.104237 -0.251134 -0.011049 -0.429353 -0.242654 0.056812 0.154102 -0.109505 0.18086 0.201996 0.360233 0.158966 -0.042868 0.194368 0.012966 -0.135722 0.495174 0.24269 0.255502 -0.728705 -0.011532 0.142861 0.154501 0.30147 -0.189031 0.42102 0.452641 -0.353481 0.23875 -0.186983 0.163823 0.152176 0.03082 0.038939 0.348298 -0.370841 0.595171 -0.592461 0.26443 0.070033 0.132738 -0.071045 -0.210754 0.229733 0.002356 0.217241 0.2525 -0.104191 -0.218486 -0.089389 0.333778 0.084342 0.265426 -0.17639 0.262915 -0.529296 -0.037632 0.128935 0.076847 0.129878 0.202494 0.174753 -0.123747 -0.01151 -0.272382 -0.404085 -0.037383 -0.353648 -0.443238 -0.146788 0.086411 0.358893 -0.102021 0.184942 -0.167723 0.025749 -0.300292 -0.007653 0.37544 -0.21285 -0.035269 -0.037346 -0.169541 0.023335 -0.34017 0.169922 -0.018396 0.104386 -0.336715 -0.03392 -0.039941 0.628155 -0.354997 0.260874 -0.210177 -0.451673 0.223887 -0.187463 0.66622 -0.167745 0.420214 0.121421 0.157918 0.227783 0.008952 -0.309941 0.291712 -0.429958 0.432901 0.327797 0.470508 0.146516 0.295318 0.679926 0.233614 0.180765 -0.30471 -0.134841 -0.075296 -0.129569 -0.158016 -0.18396 0.047939 0.142823 0.065414 0.295065 0.499005 -0.005496 -0.231871 -0.188267 0.393205 -0.188724 0.149046 -0.401472 -0.317956 -0.013922 0.124566 0.16482 -0.09767 -0.040485 0.117475 0.031993 0.203668 -0.170728 -0.364542 -0.457602 -0.176292 -0.140987 -0.14145 -0.117582 0.133711 -0.160767 -0.143239 -0.291307 -0.343367 0.011928 0.17373 -0.018554 -0.148201 0.015393 0.111801 -0.148797 0.121473 0.411486 -0.109549 0.022153 -0.523491 -0.125703 -0.298317 0.268544 -0.487115 -0.166346 0.122662 -0.091167 -0.24666 0.350122 0.02558 0.138152 0.059169 -0.122122 -0.1766 0.186276 -0.124336 -0.368253 -0.065541 0.074448 -0.218933 -0.31797 0.153108 -0.11183 -0.472676 -0.087729 -0.041007 -0.265334 0.008503 0.646221 0.362055 0.03908 0.021247 -0.115429 -0.378881 0.230344
forest -0.064955 0.463489 -0.332426 0.006693 -0.032205 -0.100245 0.286775 -0.024183 -0.175353 -0.270402 0.18907 0.042853 -0.124295 0.154782 0.2496 0.221212 -0.345176 -0.026754 -0.041115 -0.550195 0.39817 -0.045627 -0.079782 0.224141 0.304368 0.465688 -0.259186 -0.351069 0.235122 -0.109537 -0.126375 0.072985 -0.122162 -0.053071 0.31526 -0.060784 0.245155 0.07658 0.141837 0.456857 -0.114226 -0.26746 0.137793 -0.002142 0.001383 0.21076 -0.185601 0.158029 0.222045 -0.079904 0.016823 0.161739 -0.368028 -0.250667 -0.321917 -0.289134 0.101819 0.108696 0.209161 -0.021878 -0.313888 -0.046706 0.617617 -0.061126 0.094976 -0.376637 -0.125679 0.084844 0.020762 0.223105 0.355653 0.10324 -0.031056 -0.252254 -0.355715 -0.621662 -0.308208 0.212959 0.259085 0.43516 -0.022912 0.256752 0.067841 -0.361828 0.010407 -0.089005 0.145018 -0.203965 0.278967 -0.237047 -0.161494 0.037247 0.115442 -0.080415 -0.008065 -0.258844 -0.190742 -0.213152 0.005835 0.082208 -0.106837 0.36399 -0.10433 -0.231611 0.170743 -0.139324 -0.032422 0.048312 0.371228 0.05281 -0.112639 0.078284 -0.002086 0.326035 0.086453 0.290233 -0.11216 0.019352 -0.011033 -0.131027 -0.032395 0.004017 -0.39801 -0.235126 -0.067142 -0.206556 -0.041657 -0.270603 -0.003315 0.362842 0.107548 -0.056806 -0.174425 -0.505917 0.171028 -0.346427 -0.233197 -0.295205 -0.282008 0.132928 0.120066 -0.307548 0.105422 -0.052257 -0.05031 -0.2271 0.149142 0.263841 0.174245 -0.230613 -0.110094 -0.091688 0.018633 -0.223811 -0.234212 -0.059499 0.059313 0.484132 0.073914 -0.108256 -0.171661 0.063164 -0.362818 -0.310351 -0.24883 0.060553 -0.220419 0.278582 0.177116 0.300186 0.233699 -0.017795 -0.205487 -0.022283 0.257368 0.225818 -0.00388 0.016361 0.333295 -0.124003 -0.106053 0.065007 -0.102893 0.317399 -0.110667 -0.050754 -0.081437 -0.423508 0.015607 0.033822 0.209896 0.362979 -0.018121 -0.095605 -0.009518 -0.401299 0.197637 -0.476413 0.051717 -0.473653 0.122709 -0.146516 0.211315 0.091201 -0.398867 0.066406 0.350157 0.339456 0.580462 0.146745 0.1924 0.089742 0.151072 0.057989 -0.019866 -0.076374 0.069025 0.190298 -0.28693 -0.266704 0.213753 0.107112 -0.343549 -0.121764 0.068232 -0.125424 -0.381017 -0.336347 0.428629 -0.509106 0.427634 0.037137 -0.070143 0.13614 -0.090751 -0.011967 0.106426 -0.53145 -0.018173 -0.207296 -0.055512 -0.014977 -0.283296 0.019991 0.426286 0.519346 0.39324 -0.196474 -0.002068 -0.252083 0.148402 0.126482 0.063374 0.274147 -0.487902 -0.532794 0.23935 -0.200518 -0.16247 0.058657 0.100728 0.330828 -0.223236 0.012611 0.256527 -0.074301 -0.164593 -0.008949 0.230057 -0.364062 -0.253863 0.114467 0.223568 -0.107215 0.138138 0.131287 -0.238574 0.12485 -0.0998 -0.264613 -0.178339 -0.215392 0.228954 0.093962 0.031085 -0.376351 0.25312 -0.40992 0.079471 0.455021 0.191952 -0.571102 0.104908 0.201425 0.089505 0.233585 -0.259598 -0.301876 0.327884 0.186909
abuse 0.009608 0.428457 -0.239372 -0.00148 -0.262803 -0.203043 0.428748 0.368318 0.11907 -0.064324 0.345857 0.302892 -0.062232 0.110474 0.448222 0.187294 -0.426417 -0.005198 0.257581 -0.28984 0.122266 0.336317 0.115566 -0.075236 0.447158 -0.518449 -0.442307 -0.029079 -0.043712 0.003835 -0.057152 0.434532 -0.113284 -0.190126 -0.184069 0.150347 -0.322153 0.330633 0.255011 0.402593 0.190843 -0.151444 -0.079448 -0.273109 0.191531 -0.083074 -0.171834 -0.369651 0.104392 0.386535 0.247562 0.032125 0.030108 0.030522 -0.379008 -0.078557 -0.305971 0.139439 -0.077842 0.203788 0.070256 0.28171 0.078322 -0.547588 -0.223803 -0.140358 0.046719 0.217987 -0.208861 0.037314 0.187153 0.379709 -0.366908 -0.316508 0.067643 -0.458928 -0.745336 -0.170988 -0.532319 -0.396602 0.027846 0.243811 0.03146 -0.239641 0.40712 0.049798 0.272569 0.506546 0.264264 0.392617 0.06392 -0.530776 -0.134846 0.031033 0.423297 -0.117204 -0.297449 0.279882 -0.211845 0.110443 -0.427177 -0.025109 -0.051994 0.265891 -0.180915 -0.116864 -0.283144 0.089477 0.111853 -0.274928 0.066665 0.139793 0.150272 0.29788 0.083658 0.192026 -0.262877 -0.084512 0.249054 -0.232658 0.311252 -0.107788 0.108734 0.004134 0.26276 0.152579 -0.228751 -0.129868 -0.093215 0.008305 0.055234 0.195552 -0.161332 -0.325257 -0.296367 0.031956 -0.168084 0.175208 -0.106972 0.083762 0.282699 -0.183672 -0.124603 0.137637 -0.004935 -0.479122 0.075172 -0.113166 -0.113874 -0.212159 -0.260957 0.308321 0.073291 -0.267742 0.243858 -0.390032 -0.379156 0.038078 0.099559 -0.297588 0.033976 -0.202127 0.002527 0.399773 -0.317809 0.003763 -0.582849 0.038059 -0.100429 -0.162906 0.335782 0.039458 -0.26341 0.002125 -0.103426 0.307808 0.155062 -0.208092 -0.16619 0.091547 0.774886 0.136747 0.097832 0.378522 0.261722 -0.206409 0.342421 0.269502 0.281037 0.312879 0.018879 -0.139502 -0.078203 -0.449643 0.053041 0.16305 0.356345 0.304906 0.130809 -0.318282 0.078924 -0.065789 -0.239819 0.014662 0.158679 -0.29267 0.278009 0.302547 -0.048861 -0.199686 -0.118787 0.123477 0.200281 0.001039 0.086564 -0.033234 0.045006 0.265635 -0.183861 0.155151 0.44303 -0.285533 -0.025831 0.846486 0.013309 -0.16832 -0.110293 -0.048691 -0.094228 -0.059348 -0.243368 -0.124891 0.087246 -0.42046 0.094581 0.049634 -0.328813 -0.238518 -0.556544 0.076136 0.02362 -0.200816 -0.300144 0.145067 -0.228849 -0.267218 -0.377709 -0.215818 0.256258 0.39994 0.071129 0.020599 0.303574 0.228084 0.159181 -0.357165 0.057559 -0.280903 0.095982 -0.133465 0.40325 0.138442 -0.106995 0.014768 0.019011 0.010615 0.037378 -0.101154 -0.123373 -0.514375 0.160835 -0.063587 -0.131778 0.034505 0.323039 0.316866 0.339169 0.114101 0.272892 0.316759 -0.532037 -0.162689 0.089535 -0.119666 0.213877 0.250629 0.100314 0.087429 -0.432571 0.261612 -0.250505 0.011638 0.208589 -0.404629 -0.090436 -0.206615 -0.17174 0.261104 0.479864 0.074071
criterion 0.086608 -0.046571 0.05808 -0.102561 -0.010142 0.046539 -0.039281 -0.345141 0.178875 0.216493 0.161854 -0.232774 0.080735 0.031126 -0.355254 -0.174687 -0.169639 -0.12324 -0.039929 -0.442141 -0.067735 -0.129317 -0.072313 0.501408 -0.069535 0.374264 -0.511616 -0.349938 -0.208185 0.350872 0.096047 -0.163718 -0.17573 -0.144904 0.374802 -0.219088 -0.013649 0.007435 0.116793 0.078798 0.030267 -0.352025 -0.093814 0.314182 0.064894 0.345913 0.152854 0.077462 -0.188867 0.107454 0.349993 -0.173446 -0.268136 -0.296645 0.264318 -0.046557 -0.200097 -0.11241 -0.181304 -0.067945 -0.179768 -0.355561 0.405308 -0.146233 -0.223666 -0.28141 -0.092256 -0.07828 -0.37067 0.003072 -0.590161 0.472002 -0.297084 0.275347 -0.453302 0.18754 0.14891 0.382154 0.183093 0.172408 -0.037831 0.174947 -0.191019 -0.01153 0.095899 -0.081753 -0.102528 0.074751 0.185157 0.159759 0.221072 -0.071244 0.286179 0.27675 0.076192 0.338101 -0.058821 -0.068822 -0.034392 -0.056077 0.04481 -0.213843 -0.216227 0.484532 -0.23484 0.056841 -0.23396 0.0099 -0.081422 -0.282152 -0.143938 -0.009231 0.809088 -4.17E-4 0.008156 -0.0717 -0.108506 0.312448 0.236524 -0.160214 -0.063761 -0.10342 0.377346 0.154782 -0.028037 -0.214713 0.005093 -0.062915 -0.244884 0.185234 -0.060609 0.045519 0.470263 -0.451567 8.47E-4 -0.571122 -0.013417 -0.138544 0.052594 0.208468 0.035625 -0.070662 0.287161 -0.032173 0.312644 -0.18397 0.045412 -0.100662 -0.249594 0.375397 0.483079 0.239372 0.233216 -0.177967 0.236022 -0.507137 0.125945 0.142742 -0.010379 0.047679 -0.151327 -0.527945 0.088775 -0.270545 -0.105456 -0.200343 -0.261689 0.019238 0.327505 -0.027709 0.171057 -0.205134 -0.066697 0.916651 -0.034102 0.291272 0.177488 0.625356 -0.269783 -0.110912 0.260971 -0.180062 -0.16963 0.140648 -0.141004 -0.176832 -0.149174 0.342787 -0.23847 -0.029169 0.137598 -0.213363 -0.236739 -0.207819 0.358286 -0.147222 0.424174 0.361228 0.310486 -0.062025 -0.457331 -0.135201 0.084288 -0.321372 -0.573619 -0.277362 0.13702 0.387053 0.249633 -0.0178 0.264672 0.365596 0.171966 -0.170238 -0.002079 0.160767 -0.1345 3.92E-4 0.080992 -0.174433 -0.025988 0.213012 0.09543 -0.011899 -0.150188 0.085251 0.207493 0.032188 -0.2185 0.01715 0.196635 0.355814 0.12775 -0.014021 -0.20264 -0.122664 -0.029616 0.03642 0.424955 -0.223141 0.043915 0.09542 -0.511317 0.124202 0.426607 0.469832 0.107533 -0.201416 -0.346924 -0.015204 0.053679 -0.040801 -0.09362 0.295613 0.231435 -0.452733 -0.073726 -0.085801 0.405985 0.24152 0.35752 0.321136 -0.291837 -0.32319 -0.515868 0.016403 0.382118 0.2609 0.293775 0.103539 0.165361 0.188734 0.132821 0.214471 0.48577 0.091228 0.470974 0.19166 0.005165 0.136728 -0.316886 -0.223642 0.115083 -0.090047 0.207768 -0.216179 0.224508 -0.038024 -0.155687 0.240016 0.15615 0.169299 0.012451 -0.161365 -0.119919 -0.155544 0.025041 0.038513 -0.436975 0.443284
sea 0.022317 0.151712 -0.183731 -0.105298 -0.029139 0.035369 -0.242471 0.256751 0.162212 0.005284 -0.117725 0.112314 -0.467947 0.295989 0.234241 -0.180078 0.134591 -0.116992 0.414522 -0.457218 0.423951 -0.098762 0.087617 0.255557 0.240314 0.217542 -0.551257 -0.751676 -0.148527 0.102148 -0.269796 -0.030148 -0.072581 -0.073183 0.360953 0.388056 0.04966 0.218771 0.304392 0.481498 -0.002757 0.02562 -0.125427 -0.083992 -0.012406 -0.053922 -0.329458 0.138129 0.068486 -0.250928 0.291712 -0.215651 -0.44977 -0.278632 -0.473219 -0.299331 0.13264 -0.068527 0.019964 0.178592 -0.250299 -0.292046 0.342051 -0.004678 0.31561 0.118148 -0.094014 0.347897 0.073244 0.20587 0.369701 0.06931 -0.252538 -0.351984 0.135973 -0.087661 -0.029704 -0.100307 0.031207 0.266606 0.095412 0.255361 0.136697 0.048477 -0.025304 0.248185 -0.077739 -0.453256 0.301642 -0.102399 -0.512576 0.273877 0.073946 0.14177 0.208113 -0.525677 -0.154631 -0.087706 -0.143957 0.121486 -0.022522 0.07039 0.036857 -0.309316 0.336576 0.182181 0.248683 0.09735 0.410638 -0.058165 -0.446498 0.342368 0.022135 0.452504 0.164027 0.049546 0.096617 -6.58E-4 -0.04293 0.231593 -0.233131 -0.259823 -0.377937 0.160631 0.201497 -0.147231 0.170423 0.07023 0.043556 -0.133049 0.154098 0.048772 -0.092745 -0.28228 0.262826 -0.379001 0.143082 -0.148027 -0.027696 0.033737 -0.064711 -0.066712 0.017962 -0.025869 0.363549 -0.190983 0.138801 -0.085537 0.023373 0.086846 -0.320689 0.210343 0.261018 -0.159447 -0.316145 0.183839 -0.338332 -0.045332 -0.539363 -0.063367 -0.037325 -0.129103 -0.289877 -0.111236 0.326425 -0.037048 -0.175283 0.378822 0.297001 -0.142979 -0.288891 0.003575 -0.113008 0.419704 -0.255248 -0.164888 -0.118117 0.071738 0.023972 -0.280756 0.127042 0.344742 -0.281094 0.33847 -0.18352 -0.061596 -0.02826 0.124161 0.183214 0.363568 -0.049427 -0.025447 -0.136957 0.088805 0.145528 -0.490348 -0.023142 -0.335289 -0.275884 -0.390719 0.063872 -0.191804 0.434265 0.086578 -0.020217 -0.208136 0.42187 0.144284 0.28849 -0.176006 0.078414 -0.096229 0.301358 -0.165714 -0.091291 -0.124897 -0.127798 0.165952 0.108281 0.07703 0.131343 -0.234682 -0.424379 0.108133 0.165356 0.146557 -0.145498 -0.052808 0.291015 0.035253 -0.070605 -0.276099 0.020268 0.07172 -0.217869 -0.201069 -0.131937 -0.281383 0.475427 -0.046213 -0.233443 -0.10913 -0.363787 -0.403174 0.129396 0.205551 0.232719 -0.126434 0.058982 -0.345027 -0.410825 -0.165141 -0.163832 -0.031141 -0.390005 -0.061397 0.20777 -0.03544 0.394694 0.006726 -0.047032 -0.24034 -0.685373 -0.19631 -0.038565 0.257729 -0.282209 -0.149834 0.159095 -0.353821 0.208688 -0.217821 0.154419 -0.40664 -0.038088 0.127889 0.042549 0.009131 0.008613 0.020013 0.033981 -0.30501 -0.198648 -0.13677 -0.225608 -0.076152 0.196849 -0.163214 -0.505548 0.047646 -0.220209 -0.255241 -0.036643 0.61426 0.039891 0.091479 0.066169 0.262413 0.335716 0.150686
dollar -0.540365 -0.312403 0.03269 -0.242695 -0.100628 -0.148162 -0.099162 0.011685 0.029393 0.58855 -0.10352 0.002364 -0.29916 -0.011309 -0.099823 0.077373 0.200876 0.282817 -0.261472 -0.242955 -0.074883 0.331287 -0.07636 0.213651 0.148888 -0.230661 0.396527 0.362826 -0.072925 -0.453959 0.027542 -0.139622 -0.421061 -0.250702 -0.024696 0.305689 -0.153991 0.306207 0.248057 0.061736 0.065277 0.154668 -0.074446 -0.061434 0.486389 -0.068373 -0.169124 0.074145 0.250628 0.415987 0.2718 -0.044823 -0.352306 0.003848 -0.28592 0.125603 -0.241643 0.027923 0.096474 0.090894 -0.449153 -0.05165 0.228324 0.409186 0.089924 -0.391435 -0.156036 0.288964 -0.543672 0.032507 0.160147 -0.17936 -0.04903 -0.008358 -0.048797 -0.500126 0.328637 0.258606 -0.064869 0.221569 -0.044568 0.170773 -0.106292 -0.097293 0.255315 0.135053 1.033014 -0.440105 0.451812 0.28234 -0.087747 -0.243606 0.532814 0.02879 0.054326 0.153984 0.204837 0.489746 -0.143339 0.0302 -0.350561 0.115546 -0.209873 -0.026801 0.530043 -0.497756 -0.027439 -0.102874 -0.306988 -0.488195 -0.34978 0.246184 0.406577 0.139785 0.1471 0.207235 0.317722 0.28658 -0.100406 0.315983 0.257217 0.091456 -0.025774 0.022506 0.388004 -0.049479 -0.123699 -0.093029 -0.217317 0.194317 -0.009106 0.19241 0.099062 -0.519917 0.25902 -0.93135 0.331637 0.139514 -0.019646 -0.010634 0.021925 0.205833 0.071054 -0.222864 0.179432 0.12872 -0.040605 -0.119749 0.115472 0.221912 0.005883 0.367563 -0.217686 0.021381 -0.20436 -0.015773 0.112728 -0.3878 -0.462061 -0.224484 -0.11446 0.168522 0.130465 -0.164401 0.35604 0.536439 -0.489383 0.144882 0.373407 0.029482 -0.130694 -0.067003 -0.212301 0.015907 0.735111 0.210488 0.282834 -0.679951 -0.413811 -0.193064 0.064724 0.22097 -0.159954 -0.270061 0.722827 -0.152361 0.098664 0.01853 0.121983 -0.19064 -0.176694 -0.07287 0.269466 -0.156386 -0.162649 0.286497 0.25255 0.355716 -0.645069 -0.105087 -0.061917 0.337641 -0.666034 0.191814 -0.309438 -0.18112 -0.032598 0.269471 0.257625 -0.267309 -0.143372 0.304777 -0.018085 -0.610154 0.168819 0.128667 -0.147922 0.138782 0.496599 -0.369494 0.311046 0.082617 0.143335 -0.18175 0.087405 0.552644 -0.386 -0.218753 0.124704 0.218038 0.233818 0.053845 0.316151 4.03E-4 0.160596 0.015448 -0.492487 -0.403981 0.292158 -0.13657 -0.173403 -0.204764 0.079692 -0.337696 0.259341 0.296681 0.41677 -0.024097 0.524564 -0.130667 -0.208042 -0.383617 -0.006938 0.202409 -0.016211 0.210717 0.468545 -0.312435 0.29403 -0.136815 0.004584 -0.442677 0.128033 -0.299051 -0.028291 -0.334701 -0.15469 -0.113097 -0.171071 -0.317471 0.142375 0.091681 0.270545 0.076708 0.360881 -0.240306 0.199298 0.024969 -0.53695 -0.333918 -0.122314 -0.210246 0.030294 -0.256329 0.268745 -0.083779 0.156143 -0.22201 -0.383886 0.190454 -0.170597 0.144278 0.046804 -0.048869 0.382904 -0.454528 -0.160672 0.416117 -0.233965 0.267293
example 0.133547 0.020668 0.041725 0.341164 -0.006962 -0.110684 0.097623 -0.118881 -0.224247 -0.256308 -0.113027 -0.027687 0.250599 -0.199177 -0.41423 -0.382094 -0.038127 0.089455 0.108426 -0.353631 -0.285968 0.156286 0.202233 0.349436 0.148815 0.319483 -0.002695 -0.016837 -0.046831 0.127579 0.072148 0.029246 0.05621 0.077583 0.193988 -0.205679 0.120419 0.117882 0.080976 0.22869 0.059587 -0.329229 0.171454 0.005434 0.129271 -0.127473 -0.118825 -0.298057 0.264498 0.088972 0.063855 0.203175 -0.164197 -0.184261 0.113451 0.011876 0.120225 0.234505 -0.093055 -0.186114 -0.040797 -0.040281 0.028115 -0.026257 -0.475823 -0.144576 -0.03973 0.094479 -0.482429 0.008372 -0.019628 0.465081 -0.311251 -0.133503 -0.304882 0.005884 0.161247 -0.115566 0.150892 0.103364 0.059663 -0.017868 0.036924 0.077693 0.310708 0.027615 -0.084615 -0.221177 0.270664 0.063885 -0.027996 0.079998 -0.022328 0.261665 0.165195 0.140267 0.064085 0.324919 -0.167784 0.110587 0.139726 -0.078671 -0.083164 0.14311 -0.058933 -0.093115 0.072281 -0.104214 -0.057082 -0.13048 -0.229171 0.133439 0.238936 0.169937 0.301623 -0.453259 -0.288118 -0.012097 -0.0368 -0.066559 -0.167864 -0.015324 0.032483 0.271821 0.092216 -0.045772 0.094672 -0.136561 0.029823 0.045202 0.105541 0.11542 0.203814 -0.042889 -0.012518 0.00191 -0.01768 -0.070772 0.051464 -0.07139 0.187828 0.138541 0.366876 0.164235 0.156589 0.233938 -0.134485 -0.066318 0.112764 -0.016297 0.06194 -0.056884 -0.054052 0.115716 0.257409 -0.194227 0.043168 0.275455 0.026103 -0.169171 0.097747 9.72E-4 0.137857 -0.125977 0.092438 0.134318 -0.368195 -0.125447 0.182489 0.127635 0.176494 -0.217416 0.13666 0.349724 0.285328 -0.155074 -0.02669 0.051125 -0.07979 -0.31635 0.150157 -0.155698 -0.40143 0.11165 -0.157737 -0.240241 -0.066443 0.477343 -0.291971 -0.143267 -0.177426 -0.146975 0.250815 -0.354734 -0.043085 0.02322 0.352085 -0.029971 0.082744 -0.240192 -0.007757 0.056736 0.298794 -0.152454 -0.063321 0.002329 0.291092 0.331118 0.135189 0.164363 0.128422 -0.133207 0.080355 -0.255227 -0.002046 -0.311591 0.152484 -0.119208 -0.118494 0.053713 -0.155686 -0.180027 0.069118 0.24628 0.002398 0.226553 -0.346601 0.148762 -0.032476 -0.170006 0.180632 0.094624 0.323339 -0.048631 -0.015466 -0.174402 -0.318489 -0.109984 -0.157406 0.31395 -0.012281 -0.047466 -0.349334 -0.146656 0.192153 -0.110428 0.316417 0.299567 -0.210247 0.042948 0.342769 0.107321 0.290636 0.043795 -0.183157 -0.167497 -0.010175 -0.028478 0.104718 -0.106273 -0.043039 0.371834 -0.006809 -0.050787 -0.178145 -0.060405 0.083202 -0.009045 -0.160945 0.021207 0.002273 -0.231012 -0.144351 -0.268997 0.285691 0.215292 0.147825 0.098028 0.039808 0.103758 -0.478606 -0.06813 0.026305 0.055729 3.93E-4 -0.196291 -0.046412 -0.151825 0.174989 0.102529 0.072559 0.157154 0.294458 -0.197648 0.081527 0.310753 -0.034249 -0.223549 -0.200689 0.334769
journal 0.78904 -0.084894 -0.042238 0.077821 -0.11393 -0.673664 -0.086053 0.529224 0.021805 -0.212352 -0.266353 0.050504 0.241125 0.356343 -0.676486 -0.463173 0.129455 -0.457695 -0.60791 -0.50269 0.950974 0.182423 0.483927 -0.097943 0.167593 0.278549 -0.337208 0.483069 -0.239247 -0.015988 0.160751 -0.281205 0.063812 0.022902 0.078446 0.780322 0.125082 0.371768 0.319279 0.955542 0.274415 -0.250199 -0.003404 -0.002672 -0.201975 0.014294 -0.165327 -0.199913 0.213059 0.44067 0.505424 0.061038 0.101149 0.139479 0.360707 -0.382281 -0.222871 -0.373721 -0.385066 0.432684 -0.193811 0.386936 -0.379928 -0.466757 0.209935 -0.145743 0.055776 0.03273 -0.156029 -0.134776 0.288347 0.117664 -0.814922 0.348788 -0.164403 -0.419817 0.048132 -0.017984 -0.295861 0.522978 0.150458 -0.268147 -0.34712 0.623165 -0.188262 -0.004237 -0.433567 0.111231 -0.166409 0.173911 0.215076 -0.013376 -0.091206 -0.017113 -0.165427 -0.211344 0.553534 0.0271 0.184143 0.261241 0.53688 -0.677203 0.25422 -0.197999 0.097132 -0.034608 0.35161 -0.107261 0.321429 0.017235 -0.52393 0.489653 -0.339903 -0.693851 -0.121633 -0.046867 0.293161 0.103267 0.279984 0.339593 -0.112568 -0.168887 0.026743 -0.127109 -0.042215 -0.133449 0.121942 -0.265746 -0.133696 0.07165 0.125334 0.180283 -0.040571 -0.220252 0.362729 0.018214 -0.066235 0.219037 0.476142 -0.026269 0.059058 -0.46274 -0.466465 0.073075 -0.183918 -0.545455 -0.156813 0.108961 -0.254434 -0.047561 -0.514047 -0.616055 0.659202 -0.348844 -0.273736 0.10241 -0.376228 0.22332 0.408036 -0.691607 0.084888 -0.061257 -0.073714 -0.833747 0.227035 -0.310113 -0.018338 -0.046194 -0.246238 -0.135091 -0.163552 0.285292 0.26921 0.070045 0.379101 0.210433 -0.129091 -0.298852 -0.568252 -0.130601 0.009622 -0.760248 -0.24478 0.3142 -0.113568 0.310365 -0.578506 0.704379 0.135705 0.345204 0.21671 -0.238398 -0.685374 0.169256 -0.448451 0.439264 0.525045 0.207924 -0.363774 -0.587797 -0.1106 -0.134806 0.477859 -0.057848 -0.054806 -0.773475 2.43E-4 0.173918 -0.091993 0.151382 -0.080464 0.353609 0.106487 -0.292961 -0.358614 -0.240791 0.217667 -0.008207 0.349498 -0.752613 0.176776 -0.308469 0.022769 0.358277 -0.333081 -0.365232 -0.110895 -0.365254 0.206416 -0.151746 -0.016802 0.248532 0.465698 -0.075154 0.215051 0.041077 -0.295662 -0.462433 0.261939 0.031563 -0.085786 -0.460449 -0.283091 0.242832 -0.148157 0.089655 0.262368 -0.226103 0.267827 0.40657 -0.231355 -0.217599 -0.090243 0.488923 0.0028 0.212441 0.259743 -0.239859 0.361307 -0.352598 0.143741 0.027129 0.247618 0.239302 0.296187 -0.15545 -0.192072 0.143193 -0.552253 0.153899 0.187087 -0.181816 0.09261 -0.213417 0.229503 0.00497 0.112017 -0.122679 -0.012411 -0.511697 -0.265861 -0.224695 -0.159468 0.369887 -0.316455 -0.563325 0.573284 0.583901 -0.106957 -0.462564 0.113011 -0.100717 -0.197121 -0.101695 0.132069 -0.342467 -0.373905 0.498189 0.370793 -0.385267
laundering -0.092251 -0.290978 -0.034407 -0.22583 0.231354 -0.07106 -0.052698 0.079848 -0.204568 -0.141353 -0.180072 -0.096164 0.138766 -0.115762 0.509974 -0.431318 -0.226711 -0.282367 0.459746 -0.064472 -0.266794 0.89723 -0.371545 -0.059601 0.351046 -0.228175 -0.361119 -0.036922 -0.080904 -0.384374 0.06746 0.237641 -0.371188 -0.341055 -0.148485 0.091007 -0.074847 0.679265 -0.547879 0.072638 0.16303 0.455343 0.073475 -0.098084 0.430503 0.07383 -0.327248 -0.244246 0.197993 0.810415 0.490655 -0.185268 -0.092185 0.271007 -0.332409 -0.190251 -0.114386 0.006507 -0.030168 -0.467607 -0.199909 -0.081347 -0.204299 -0.091541 -0.41167 -0.180881 0.563296 -0.0413 0.170052 -0.321729 0.252006 0.447436 -0.294319 -0.662945 0.088803 0.182545 -0.43083 0.237581 -0.207796 -0.049012 0.426368 0.225145 -0.156121 -0.178282 -0.260918 0.118555 0.543409 0.051236 0.012178 0.033965 0.225471 -0.607782 0.349251 0.192233 -0.238216 -0.532342 0.014599 0.144145 -0.300364 -0.130187 -0.258052 0.158971 -0.122057 0.202722 0.125323 0.152538 0.007884 0.136375 -0.195226 -0.262688 -0.616209 0.386455 0.337555 -0.209922 0.004771 0.023772 -0.021029 0.017707 -0.121127 -0.292922 -0.03585 0.070776 0.699051 -0.426956 -0.356115 0.429924 -0.100936 -0.492991 0.112945 0.168326 -0.03142 -0.101576 -0.179006 -0.492248 -0.048972 -0.279927 -0.106608 0.019664 0.248031 0.179425 0.602491 0.345885 0.426961 0.287 0.11685 0.001071 -0.034326 -0.249532 -0.025842 0.253244 -0.126039 0.019034 0.276138 -0.157687 -0.11275 0.093552 -0.051517 -0.227981 -0.3554 -0.550349 0.695487 0.021012 0.428542 0.436058 -0.097436 0.204043 -0.10296 -0.221136 -0.242566 -0.59088 -0.052206 0.298604 -0.179153 0.475082 -0.27989 0.778091 0.001719 -0.092735 -0.029017 0.113805 0.072019 0.16559 0.334821 0.169638 0.156595 0.570598 0.308123 0.382472 -0.30288 0.567778 -0.545756 0.248295 0.163766 0.081975 -0.042129 0.210738 0.314439 0.189105 -0.107607 -0.190151 0.543263 0.175525 0.063929 -0.080969 0.10397 -0.40703 0.838822 0.343347 -0.050106 0.149639 -0.379997 0.183375 -0.128414 0.135347 0.045298 -0.154601 0.061772 0.339785 0.169932 -0.354428 0.720686 -0.763301 0.094391 0.535138 -0.403923 -0.261617 -0.150441 -0.505997 0.084842 -0.03984 -0.538613 0.071776 -0.102944 -0.191451 -0.185389 -0.061511 0.47554 -0.33835 -0.290546 -0.175013 0.364169 -0.150195 0.069811 -0.210516 -0.082543 -0.188356 0.26223 -0.28816 0.095024 -0.305248 0.12617 -0.257289 0.141802 0.417073 -0.254376 -0.167988 0.477665 -0.265345 0.514256 0.111061 0.759165 0.59206 0.045115 0.301449 -0.406759 0.08514 -0.173953 -0.10212 0.24563 -0.35504 0.061304 0.276632 0.319377 -0.104505 0.536875 0.426306 0.218996 -0.136332 -0.107749 0.102078 0.001096 -0.45818 0.080482 -1.020969 0.031144 0.286177 -0.028972 -0.507152 -0.546545 0.811961 -0.025376 0.100089 0.263141 -0.168997 0.081604 -0.19687 -0.451398 0.115816 0.161868 -0.143956
