437 300
plane -0.197531 -0.008613 0.12414 -0.06824 0.158311 -0.253435 -0.09656 0.510541 -0.137576 -0.405088 -0.026645 0.220027 0.101332 0.294511 0.118298 0.158574 0.2922 0.048127 0.018485 0.230621 0.254523 -0.35268 -0.091872 -0.101676 -0.09704 0.010597 -0.083168 0.327119 -0.169496 9.63E-4 -0.356477 0.177748 -0.223455 0.017616 -0.1671 0.005915 0.143359 0.302782 -0.313887 -0.046364 -0.386051 0.358309 0.337722 0.027492 0.021201 -0.047943 0.009448 -0.243184 -0.099834 0.209392 0.170042 -0.108412 0.655264 -0.275206 -0.067179 -0.143161 0.071541 -0.311281 -0.027038 -0.186885 0.241477 -0.108116 -0.44784 -0.343274 0.25503 0.104473 -0.377079 0.15376 -0.123823 -0.146095 0.049917 -0.112944 0.18938 -0.106732 -0.268172 0.036137 -0.041465 -0.183689 -0.056023 -0.302429 0.119202 0.102446 0.183645 -0.212104 0.104911 0.023609 -0.130832 -0.46447 0.031202 -0.030958 0.147493 0.396697 0.090255 -0.228504 -0.443722 -0.03589 -0.255665 -0.162512 -0.034137 0.338774 0.021353 0.096977 0.257439 0.274672 -0.220116 0.281145 0.25995 0.262778 0.08109 0.47996 -0.175751 0.137553 0.020793 0.203822 -0.121616 -0.07334 0.047447 0.010441 -0.198105 -0.351782 0.282037 0.187167 -0.017914 0.328175 0.130383 0.021807 0.003901 -0.046473 -0.112986 0.351963 0.122916 0.088598 0.021441 -0.001539 0.395952 0.439986 -0.036345 0.198716 -0.085061 -0.236764 0.137631 0.605783 -0.219926 0.190183 0.308138 -0.002215 0.220519 -0.010518 -0.151722 0.105951 0.150276 0.321735 0.065556 -0.050683 -0.048701 0.295325 0.118692 -0.045159 0.397861 -0.14704 -0.331737 -0.108692 0.027107 0.114493 -0.050944 -0.093236 0.460232 -0.060543 0.053835 0.107367 -0.172739 -0.080747 -0.360792 -0.236917 -0.18918 0.22498 -0.00776 0.114046 0.06317 -0.289557 -0.292065 -0.338512 -0.203824 -0.038836 -0.196427 -0.195118 -0.312824 -0.162802 -0.194428 -0.332113 0.16644 -0.157784 -0.425905 -0.321417 0.034038 0.117216 -0.027625 0.351919 0.144169 0.440716 -0.449309 -0.237786 0.347303 -0.005299 0.081874 -0.287138 -0.157523 0.069436 -0.037566 0.074928 -0.028793 0.032013 -0.700299 -0.181881 0.075904 -0.225334 -0.065762 0.158449 0.301869 0.313381 -0.292975 0.149727 0.255667 0.425662 -0.283397 -0.018707 -0.001269 -0.12082 -0.174253 -0.385743 -0.204035 -0.162886 0.187161 0.260512 0.2304 0.098855 0.270581 0.486813 0.535003 -0.008896 -0.422154 0.027742 -0.096806 -0.049887 0.355008 -0.255132 -0.147053 -0.16122 0.039668 -0.360194 -0.035471 -0.419459 0.086973 0.162777 -0.175743 0.079156 -0.047712 -0.346566 0.20681 0.182736 0.22198 0.02441 0.093815 0.488682 0.137485 -0.131458 -0.048881 -0.283357 -0.083033 0.202449 0.104251 -0.066155 -0.034373 0.12613 0.085317 -0.462456 0.33786 0.086943 -0.480892 0.246846 -0.230262 0.008377 0.151314 0.238081 -0.215982 -0.189683 0.01903 -0.201105 -0.045038 0.154339 -0.155075 -0.052122 0.130059 -0.233983 -0.520712 0.157017 -0.502384 -0.052705 -0.167616 0.342534
stupid 0.128039 -0.209794 -0.209591 0.376778 -0.18154 0.357882 -0.188661 -0.064275 -0.214699 -0.181971 0.054966 -0.017289 0.12561 0.035567 0.02707 0.228136 0.292266 -0.346428 -0.052247 -0.029488 -0.034718 -0.027432 0.15752 0.150095 0.053861 -0.140809 -0.142062 0.247104 -0.196529 0.119665 0.04442 0.075932 0.007319 0.057594 -0.030277 -0.121858 0.104091 -0.120447 -0.176759 -0.023612 -0.021831 -0.211243 0.355963 0.050449 -0.179264 -0.057202 0.199348 -0.4147 0.22592 0.478511 -0.223436 -0.347512 -0.184384 0.084246 0.107599 -0.095825 -0.212206 0.116973 0.184125 0.253407 -0.083301 -0.22513 -0.257111 -0.063105 0.0775 0.222934 0.310117 0.566138 0.024376 -0.313587 -0.094483 0.312733 0.029136 0.320536 -0.140252 0.025089 0.31374 -0.072059 -0.299426 0.030433 0.307072 -0.0982 -0.019103 0.068378 -0.102721 -0.107244 -0.139785 -0.009102 -0.111608 0.365051 0.274037 0.380867 -0.060275 -0.140161 -0.128386 -0.142876 -0.095511 -0.101949 -0.23808 0.076069 -0.07795 0.001318 0.241614 0.319498 0.173585 -0.105703 0.09538 0.317652 0.082189 0.283938 0.088379 -0.034488 -0.184415 -0.052985 -0.06008 0.010844 0.030956 -0.092558 -0.023787 -0.327735 0.156587 0.190984 0.190486 0.102254 0.086104 -0.490531 -0.185784 0.175856 0.153116 -0.16083 -0.11867 -0.285762 -5.61E-4 -0.072401 0.390778 0.009371 -0.358316 0.190273 -0.46732 -0.174671 -0.486831 -0.173505 -0.126066 0.145388 -0.044648 0.287807 0.205058 0.171366 -0.041003 -0.076904 0.57593 0.130516 0.134863 -0.337377 0.174999 0.201623 -0.041643 0.232477 -0.169493 0.230324 0.247763 0.006388 0.130799 -0.188815 -0.2706 -0.260861 0.11547 0.0959 0.202509 -0.169815 -6.56E-4 0.071472 0.157808 -0.238374 -0.196027 -0.096314 -0.232503 1.0E-4 0.133569 0.293999 0.228592 -0.284425 -0.144611 0.248684 -0.102513 0.10879 0.500021 -0.26552 -0.289762 0.0914 -0.472187 -0.274406 0.016914 -0.112503 0.04426 -0.566293 0.10494 0.058077 0.408371 -0.207085 -0.296266 -0.367858 0.043642 -0.141508 0.073548 -0.299561 0.055487 -0.105182 0.062015 -0.292438 0.063013 -0.240996 -0.026497 0.10285 0.201192 -0.283868 -0.132615 0.165339 0.125657 -0.217579 0.018093 -0.087922 0.170435 0.022726 -0.109935 0.35378 -0.152411 0.002788 -0.234595 -0.510112 -0.045235 0.199217 0.015909 0.079447 0.130057 -0.082943 0.110263 -0.087009 0.196236 -0.295212 0.031171 -0.107455 0.00907 -0.317373 -0.092279 0.263112 0.140557 -0.035561 -0.055763 -0.288152 -0.427149 0.022261 -0.012558 -0.226905 0.130539 0.151479 -0.121118 -0.236101 -0.212473 -0.086111 0.176983 0.116789 0.238331 0.015663 0.098102 0.241515 -0.061822 0.041014 0.099826 0.126649 -0.013157 0.172794 -0.067756 0.339561 -0.097416 -0.095969 0.254588 0.027304 0.11961 0.2003 -0.234988 0.241533 0.103492 -0.074534 -0.240343 -0.256248 0.2608 0.129899 0.074208 -0.014697 0.060638 -0.411459 -0.018802 -0.08945 -0.110948 -0.121895 0.043645 -0.031103 -0.004488 -0.238899
egg 0.014869 0.122723 0.13393 -0.074417 0.25468 -0.045763 0.359006 -0.010156 0.294966 0.097426 0.274706 0.027759 -0.035847 0.116066 0.010812 0.348679 0.112986 -0.207875 0.171092 0.407485 -0.210998 -0.042534 0.289207 -0.24879 0.376681 -0.007729 0.216032 0.649165 0.140944 0.060734 0.015619 -0.261316 -0.130073 -0.318484 0.135466 0.213217 -0.113014 -0.030283 0.315458 0.145952 0.119641 0.102518 0.327627 0.049909 -0.123283 -0.131263 -0.161886 -0.022297 0.079539 0.46446 0.12333 0.361537 0.360333 -0.162873 0.241878 -0.007575 -0.034211 0.21143 -0.097549 0.175215 0.225561 0.438092 -0.241105 0.5599 -0.043492 0.040693 0.158663 0.33588 0.382508 -0.267767 0.137464 -0.126537 0.011734 0.211932 -0.182681 -0.43491 0.317982 -0.081624 -0.194058 -0.414251 0.006149 -0.074734 0.072891 -0.043325 -0.037064 0.490083 -0.35334 0.225485 0.177459 0.067878 -0.130383 -0.108659 0.204377 -0.039015 -0.362956 0.090275 0.240747 0.241563 0.216517 0.33865 0.11878 0.018059 -0.315105 -0.411605 -0.030813 -0.191901 0.087292 0.176567 0.21662 0.261358 0.243298 -0.368048 -0.059282 -0.342846 0.140501 -0.171682 0.356506 0.030924 0.082585 0.023547 -0.033496 0.418859 -0.417325 0.209429 -0.068185 -0.276688 0.224474 0.07004 -0.049089 -0.325044 -0.227826 0.029552 0.394742 0.048543 0.246236 0.245107 -0.629519 -0.132696 0.254113 -0.232129 0.286688 0.336622 0.036357 0.441303 0.41257 0.238488 0.291196 0.571485 0.219114 0.03265 0.011295 0.221382 0.165214 -0.143031 -0.201292 -0.20281 0.584273 -0.015572 -0.421844 -0.120777 0.031981 -0.116734 -0.14901 -0.332449 -0.282891 -0.564707 -0.240115 -0.180718 -0.121195 -0.001543 -0.197118 0.058926 0.649469 0.224982 -0.569996 0.191532 -0.585409 0.121031 -0.359768 0.219821 -0.223528 -0.39735 -0.151886 0.133446 0.003864 0.00731 -0.138581 -0.128399 -0.284367 0.069042 -0.226093 -0.092763 -0.072687 -0.002761 -0.350543 -0.293348 -0.027253 0.304243 0.398315 0.201104 0.112979 -0.175773 0.257166 -0.347922 0.023391 -0.093969 0.043699 0.155312 -0.001965 0.082786 -0.201678 0.306758 -0.414271 -0.298453 0.221996 0.191849 0.307284 0.139061 0.126237 -0.298646 -0.233602 0.259598 -0.090155 -0.371859 0.031613 -0.164544 -0.035906 -0.289822 0.035153 -0.004338 -0.200267 0.326921 0.169664 -0.286911 0.320013 -0.067701 -0.287855 0.045197 0.459296 0.564991 3.36E-4 0.026622 0.397261 -0.117248 -0.130185 0.157623 -0.394704 -0.318287 -0.297506 -0.033526 -0.357473 0.074593 0.26682 -0.021895 -0.438553 0.256395 -0.543154 0.16559 -0.230722 0.294905 0.134174 0.071113 -0.21503 0.128543 0.022713 -0.339198 0.034871 -0.54019 0.198988 -0.038753 0.069712 -0.248861 0.037207 0.055968 0.367626 0.290443 -0.106072 0.166029 0.152089 0.012897 0.098103 0.079195 0.254199 0.338921 -0.282682 -0.184856 -0.289249 0.031241 0.362662 -0.192607 -0.267602 0.211439 -0.043488 -0.113432 0.276592 -0.166633 -0.264928 0.43142 0.166449 -0.147878
year 0.126476 0.101307 -0.049088 0.034241 -0.075075 -0.057311 0.058032 0.056684 -0.034416 -0.072104 0.116267 -0.29149 0.02347 -0.180273 0.026589 0.241604 0.356306 -0.239015 0.01523 -0.193059 0.161375 -0.15669 -0.253495 0.216129 -0.159078 0.197764 0.108178 -0.184311 0.219318 -0.056118 0.114986 -0.090976 0.139799 -0.352655 0.112378 0.167751 0.153444 0.226829 0.033675 -0.121903 -0.126674 -0.0542 0.130993 0.02764 -0.046751 0.070507 0.178973 -0.003736 0.039132 0.252627 -0.121488 -0.112569 -0.02933 0.031319 0.060622 -0.029901 -0.352613 -0.254892 0.371622 -0.166365 -0.076668 -0.017569 -0.009742 -0.26642 -0.013153 0.006592 -0.098629 0.100366 -0.101748 0.288176 -0.148991 0.098584 -0.012049 -0.21672 0.026167 -0.25897 -0.042501 0.17836 0.073726 -0.162412 0.044865 0.208955 0.327621 0.105094 0.009227 -0.130281 -0.092902 0.105447 -0.050792 -0.026617 0.136585 0.085565 0.122954 0.179753 -0.078022 0.284543 -0.04718 -0.154611 0.060093 -0.145994 0.166811 0.045389 -0.070687 -0.42489 0.094492 0.257809 -0.248154 0.109135 -0.361432 0.003285 -0.088904 -0.105834 0.112853 -0.276609 0.112139 -0.103757 0.096521 -0.009235 -0.355071 0.118506 0.246119 -9.5E-5 -0.178808 0.338555 0.180652 -0.189684 0.010707 -0.025999 0.095084 -0.293489 -0.095482 0.253709 -0.058767 0.03857 -0.140124 0.086617 -0.270622 0.073774 -0.191562 -0.009647 0.029455 0.18514 -0.247198 0.166467 0.348195 0.171288 -0.166475 0.050794 -0.054316 0.132022 0.11219 0.051082 -0.153216 -0.064571 0.082935 0.374731 -0.297691 0.113883 0.126502 0.023536 -0.032947 0.052985 -0.314361 0.038648 0.272006 -0.018308 -0.107061 -0.236662 -0.153649 0.23527 -0.021425 -0.068172 0.02617 -0.0015 0.087581 0.161502 -0.137967 0.222962 -0.209256 0.032787 0.046054 -0.126932 0.152643 -0.075896 0.09188 0.279325 0.170479 -0.108366 0.314387 0.159205 -0.046706 0.224961 0.147525 -0.149933 0.223601 -0.27195 -0.027427 -0.080439 0.1335 -0.098424 -0.165059 -0.103453 0.249824 -0.05682 0.126068 0.226397 0.166159 0.11692 0.137226 0.080485 -0.154594 0.025759 0.22507 -0.012117 0.124788 -0.061637 0.132029 0.017591 0.254614 -0.061265 -0.168773 -0.016098 -0.018006 -0.058835 -0.163427 -0.02336 -0.026604 0.154254 -0.12539 -0.01249 0.214299 -0.32474 0.354593 -0.008477 0.245517 0.0892 -0.128864 0.02626 0.275368 0.024727 -0.065432 0.147495 0.007264 -0.242216 0.057727 -0.069604 -0.004567 0.043674 -0.14483 -0.188911 -0.164479 -0.031594 0.139656 0.061865 0.056213 0.269932 0.067102 -0.031578 -0.110971 0.117621 0.011351 -0.040146 -0.096571 0.019698 -0.019325 0.031558 -0.175554 0.343683 0.133827 -0.061006 0.083163 -0.18415 -0.059418 0.344386 -0.068826 -0.12331 -0.098053 -0.068672 0.325136 -0.121282 0.019545 0.077922 0.008948 -0.211932 0.12127 -0.114566 -0.036411 -0.16006 -0.16655 0.094922 -0.054504 0.112769 -0.29914 -0.22969 0.032748 -0.044911 -0.106379 0.352381 -0.076762 -0.229106
psychiatry -0.003226 0.151164 0.533587 0.272708 -0.007636 0.164044 0.662278 0.432688 0.318619 0.44028 -0.041201 -0.096701 -0.063053 0.065315 -0.055828 -0.703789 0.362596 0.096506 -0.343949 -0.14233 0.084405 0.243803 -0.519273 0.373411 -0.01194 0.466382 -0.354261 -0.287695 -0.646553 0.100249 -0.232913 -0.613241 -0.476225 0.282703 0.580892 0.650749 -0.15713 0.459054 0.788155 -0.384652 -0.105499 -0.204192 0.294223 -0.314666 -0.101266 0.208637 -0.090816 0.022552 0.052286 0.33443 -0.560228 -0.42965 -0.242114 0.111067 0.342754 0.262913 0.339753 -0.342061 -0.129204 -0.410283 -0.008119 -0.421578 -0.245009 -0.656863 0.086863 0.450024 0.056933 0.008729 0.123574 0.138194 0.061671 0.191079 -0.014214 -0.255142 -0.434855 0.038927 0.28125 -0.031133 0.078821 0.212122 0.467274 -0.374943 -0.400029 -0.497616 0.16768 0.026781 -0.42186 -0.283031 0.308208 0.23401 -0.400299 0.055428 -0.125005 -0.12459 -0.274198 -0.150617 0.061468 0.053054 -0.503685 -0.149027 -0.064195 -0.010153 0.161575 0.3703 -0.189585 -0.484695 0.337295 0.378559 -0.243534 0.440357 -0.159719 -0.656346 0.18954 -0.137735 0.284872 0.180773 0.294215 0.161819 0.034383 -0.401914 -0.090033 -0.393769 0.118175 0.544183 0.120082 0.50138 -0.247318 0.194065 0.02113 -0.142759 -0.187279 -0.516611 0.286946 -0.07751 0.053112 -0.239539 -0.308881 0.042819 0.014404 0.245706 0.306322 0.327661 -0.256426 0.362523 3.59E-4 0.229116 -0.07252 0.202553 -0.088737 -0.273737 0.728169 0.43682 -0.443202 -0.106099 0.070962 0.297871 -0.325226 -0.203514 -0.255135 -0.236938 0.047618 0.12278 0.229339 0.16022 0.142957 -0.136292 -0.383478 -0.093424 -0.04459 0.292894 -0.065437 0.214174 0.490359 -0.294393 -0.024126 -0.500398 -0.005998 -0.482614 -0.192407 0.094322 0.651258 -0.138807 -0.277344 -0.047025 -0.384811 -0.020174 0.152911 0.208907 -0.032609 0.612289 -0.277327 -0.06607 0.50819 -0.599438 -0.171853 -0.25435 0.348958 0.601852 0.204322 0.36324 -0.413363 -0.833811 -0.371628 0.480652 -0.298524 -0.088499 0.216977 0.273141 -0.033846 -0.33747 0.243952 -0.455023 -0.360934 0.321301 0.214558 0.112915 0.106349 -0.430546 0.247021 -0.200099 0.524045 0.517322 0.360154 -0.305924 0.071484 -0.209009 -0.220892 0.312366 0.609188 -0.222421 0.021243 -0.002219 -0.323897 -0.438868 -0.140153 -0.35498 0.484088 -0.024034 -0.13175 0.115534 0.171696 -0.049617 -0.382653 0.239499 -0.245836 -0.0465 0.166234 0.092365 -0.255334 -0.587471 0.025209 0.462332 0.203874 0.085882 -0.23431 -0.569743 0.160989 -0.398625 -0.001361 -0.124647 0.118624 0.184449 0.102493 0.144217 0.104111 0.012938 0.042794 -0.050662 -0.059136 0.336677 0.327471 0.183072 0.132873 0.041542 0.404279 0.061887 0.013611 0.077749 -0.056417 0.120181 0.044088 0.25 -0.155487 -0.151308 0.053944 0.318457 -0.359544 -0.317857 -0.164519 -0.033473 -0.13241 0.347775 -0.188092 -0.089511 0.106778 -0.110643 0.283738 -0.040959 -0.050257 0.01532
asylum -0.458737 -0.113476 -0.074658 0.298772 -0.224901 0.197647 0.222263 -0.068133 0.093296 -0.144717 -0.350717 -0.013991 0.320432 0.080609 -0.269169 0.120321 0.222944 -0.065481 0.15192 0.232842 0.067989 -0.456685 -0.224066 0.071518 0.249245 0.574106 0.160457 0.033528 0.122285 0.125313 0.335666 0.02286 -0.374314 0.186732 0.164288 0.177065 -0.02092 0.281616 -0.339264 -0.497139 -0.126286 -0.459007 -0.271609 -0.338858 -0.184244 0.024329 0.144142 0.204953 0.345858 -0.233859 -0.291489 -0.531017 -0.246015 -0.364826 0.286371 -0.269088 -0.541909 -0.201251 -0.043443 -0.388509 -0.43136 0.039195 0.105031 -0.188587 0.228582 0.271696 -0.227349 0.101652 -0.273549 -0.087078 -0.264281 0.012979 -0.155392 -0.179375 -0.207795 -0.233753 -0.319174 0.089282 -0.106784 0.200224 0.248467 -0.245976 -0.529701 0.040399 0.163394 -0.103032 -0.609001 -0.763818 0.31465 -0.253641 -0.157347 0.229768 0.598402 0.223167 0.155088 0.178477 0.026726 0.365873 -0.12559 0.276119 0.123384 -0.086659 0.081007 -0.156888 -0.12681 0.068948 -0.316984 0.218074 -0.650303 -0.144854 0.297191 -0.348424 0.199852 -0.067612 -0.113684 -0.11037 0.113313 -0.480281 -0.22718 -0.481106 0.109832 -0.234885 -0.172399 0.413464 -0.227723 -0.277332 -0.42202 -0.065179 -0.122011 0.164714 -0.247602 0.12486 0.008132 -0.199959 0.431521 -0.097788 -0.420058 0.371801 -0.149674 0.146314 0.221677 0.021841 0.113123 0.082797 0.263064 -0.057104 0.146088 0.384768 0.198989 -0.253987 0.424474 0.76565 -0.515166 -0.586006 -0.184709 -0.032835 0.057906 -0.378758 -0.427356 -0.101082 -0.258526 -0.420463 -0.082097 0.246439 -0.008175 0.033839 -0.150745 0.023079 -0.293645 -0.235419 -0.059065 -0.277637 0.199772 -0.077213 0.168299 0.220677 -0.124279 0.194424 0.091179 0.011165 -0.081056 -0.309068 -0.196511 0.014465 -0.248367 -0.313917 0.16899 0.110869 -0.132802 -0.223739 0.142439 -0.148163 -0.356622 0.149033 0.186763 0.106029 -0.470176 0.846023 -0.237183 -0.374131 -0.313176 0.047844 -0.174515 -0.380995 0.445228 -0.269687 -0.178961 0.196687 -0.453395 -0.45974 -0.237119 -0.155528 -0.169765 0.044955 0.408767 -0.025132 0.089744 0.008097 0.282344 0.050755 0.158265 -0.03029 0.180908 -0.244519 -0.049154 -0.032542 -0.817325 0.148721 0.021938 -0.212357 0.335548 -0.153446 -0.109205 -0.017618 0.09068 0.201905 -0.215424 0.256646 0.177645 -0.063429 -0.309409 -0.265666 0.344248 0.142465 -0.070241 0.303985 -0.109629 -0.056589 -0.01309 -0.044211 -0.271332 -0.29988 0.150055 0.091024 -0.033117 -0.086936 -0.154617 0.283114 -0.165757 -0.113219 0.128667 -0.408067 -0.344079 -0.121885 0.392227 -0.32388 0.317859 -0.056449 -0.236518 -0.574489 -0.083504 -0.015745 0.032349 0.360315 -0.273014 -0.70858 -0.113478 0.302769 -0.205013 0.289461 -0.211118 0.23356 -0.204727 -0.008426 -0.404487 0.083099 0.373402 0.178183 0.148066 0.306223 0.157987 -0.353649 -0.426933 0.175718 -0.056497 0.023785 -0.006267 0.004272 0.118222 0.447732
manslaughter -0.157657 0.520263 -0.416645 -0.111227 -0.518371 -0.042031 -0.559789 0.068824 0.103453 -0.071065 0.208754 0.1411 -0.031917 0.159686 -0.142151 -0.05614 -0.147017 -0.376864 0.03399 -0.284163 -0.449155 -0.224774 0.107894 0.625434 -0.039886 -0.091309 0.109876 -0.324722 -0.215859 -0.037127 0.023766 -0.640069 -0.287622 0.023702 0.10274 0.327219 -0.171371 -0.18537 0.149514 -0.224651 -0.684367 0.102974 -0.02271 -0.982561 0.224259 -0.189558 -0.199658 0.360426 -0.128723 0.557871 0.022632 0.074157 0.345693 -0.486932 -0.689554 -0.507973 -0.262083 -0.622806 0.100267 -0.869345 -0.338772 -0.516256 0.071587 -0.695011 0.308793 0.158795 0.225231 -0.63758 0.556544 0.05594 -0.428535 -0.333715 0.285441 -0.043022 -0.40813 -0.114481 -0.317992 0.412701 -0.072151 0.150158 0.170614 0.015555 0.167321 -0.685285 0.36373 -0.163649 -0.319146 -0.728092 0.04353 -0.007251 0.443974 -0.152583 0.02207 -0.18268 0.218322 -0.39959 -0.053076 0.807007 -0.104383 0.499086 -0.064136 -0.506866 -0.387562 0.59297 0.255786 -0.109862 0.165208 0.678791 -0.342543 0.052719 0.101705 0.038262 0.731194 -0.78794 0.360102 0.039795 0.012001 0.47742 -0.298547 -0.121104 0.224042 -0.001861 0.196843 0.84457 0.016221 0.476516 0.274958 -0.349106 -0.354878 0.194618 0.374903 -0.200446 -0.133408 0.080754 0.174163 -0.023624 -0.576215 0.228416 -0.043142 -0.055512 0.071616 -0.323313 -0.124694 0.081278 0.52945 0.291506 0.160374 -0.053779 -0.378061 -0.143581 0.705948 0.476095 -0.028998 -0.472479 -0.13374 0.345278 0.145098 0.14815 -0.447425 -0.339414 0.405858 0.21642 0.520949 -0.245165 0.346248 -0.174167 -0.085775 -0.013068 -0.068549 0.459252 0.173657 0.035687 0.212458 -0.027787 -0.223343 -0.203375 -0.278564 -0.150791 0.378583 0.329821 -0.114424 -0.892505 -0.165222 -0.384589 0.105054 -0.637948 -0.005187 -0.376742 -0.028995 0.053538 0.103656 -0.231463 -0.144182 0.683718 0.296243 -0.564167 -0.518301 -0.009142 -0.433981 0.020433 -0.064719 -0.487061 -0.179459 -0.265384 -0.648424 -0.006838 -0.056521 -0.638974 0.191556 0.113172 -0.208357 0.043947 -0.433799 0.004556 0.593386 0.120737 0.244987 -0.226804 0.172319 -0.485917 -0.035663 0.057904 0.339774 0.089369 0.12682 0.38155 -0.276443 0.012409 0.371102 0.224074 0.208411 -0.375896 0.498051 0.244152 -0.131956 -0.046563 -0.181726 0.18347 0.143396 -0.155249 -0.276573 -0.491969 0.095008 -0.031977 0.370075 -0.650417 0.368819 0.521425 0.040393 0.059523 -0.166939 0.104184 0.633694 0.11059 0.145812 0.04906 0.117116 -0.144602 -0.392525 0.085546 0.184901 -0.096197 -0.066091 0.063619 0.020409 -0.201374 -0.104753 -0.163112 0.206765 0.331756 -0.089349 -0.114074 0.568491 0.026929 0.148619 -0.070018 -0.170074 0.189991 -0.21951 0.069193 -0.114058 0.086041 0.35224 -0.098874 0.101769 0.425769 0.149886 0.039056 0.110669 0.354143 0.044154 0.011399 0.286527 -0.183686 0.023354 -0.10925 0.073133 -0.279044 -0.172361 -0.301956
music -0.149681 -0.037141 -0.036019 -0.103476 0.029181 -0.069758 0.398911 0.394908 -0.446252 -0.047503 0.259231 0.029412 -0.015939 -0.023772 -0.110579 -0.121838 0.107001 0.209337 0.329785 0.353817 -0.180235 0.159 -0.225315 0.298841 -0.252442 0.537566 -0.388698 0.202287 0.236786 0.14075 -0.361419 -0.386652 -0.146657 0.102638 0.130403 0.088479 0.076198 0.390736 0.022289 -0.079784 -0.119928 0.047699 0.005278 -0.126798 -0.202192 0.06429 -0.253039 -0.339933 0.231777 0.22284 -0.04719 -0.097448 0.424484 -0.216939 0.600033 -0.015257 0.272753 0.190115 0.212216 -0.323384 0.056871 0.010436 0.013779 -0.326226 0.239032 0.168031 0.08471 0.390042 -0.206804 -0.120829 -0.044313 -0.224319 0.169221 0.007871 0.007894 -0.319944 -0.018739 -0.10316 -0.190533 0.067849 -0.160673 0.035745 -0.113258 -0.033832 0.137895 0.054331 -0.116608 -0.511 -0.022051 -0.006665 0.070248 0.325822 0.102946 -0.084162 -0.073558 0.01785 0.066531 0.222625 -0.280924 -0.089158 0.159439 0.020711 0.002531 0.006497 0.192829 -0.090267 -0.232147 -0.059718 -0.030302 0.113587 0.046953 -0.095605 0.049327 -0.027672 0.111148 0.377643 0.006379 -0.001445 -0.112863 -0.167593 0.105783 -0.078528 0.159065 0.252145 0.138903 0.069156 0.012325 -0.18752 0.174433 -0.143138 -0.115261 0.163071 -0.205751 0.243949 -0.014197 -0.030335 -0.111856 0.179696 0.079707 0.169453 -0.054764 -0.036489 0.135794 -0.23463 0.030459 -0.076425 0.289963 0.213772 0.180396 0.188014 0.43984 0.121236 -0.035314 -0.165303 0.561817 0.384271 -0.335818 -0.198938 0.008063 0.046477 0.001551 -0.231695 -0.118721 -0.052105 -0.015341 -0.080575 0.202998 -0.223549 0.079442 0.210376 0.125315 -0.044158 0.249601 0.128188 0.069798 -0.316546 0.016586 -0.115232 -0.077107 0.025922 -0.068323 -0.063509 -0.020101 -0.135257 -0.035199 0.136012 0.205767 -0.219697 0.14876 -0.071843 0.060197 -0.258151 -0.107559 -0.186355 -0.324928 -0.105402 0.451545 0.278931 -0.159551 0.17471 0.406227 -0.161869 0.031761 -0.092669 0.065191 0.068861 0.236309 -0.023801 0.096243 -0.168928 -0.064132 -0.043793 0.08578 -0.014221 -0.01358 -0.081985 -0.012112 0.154628 -0.269104 -0.215465 -0.297629 -0.129447 0.146947 0.208748 -0.194304 0.066062 0.173608 -0.138164 -0.036979 -0.128051 -0.191889 -0.195187 0.09277 -0.229879 -0.05625 0.13877 0.109738 -0.02805 0.068479 0.142481 -0.397728 0.410948 -0.041757 0.054796 -0.101511 0.269971 0.108828 -0.326524 -0.21452 0.377198 0.272618 0.461731 -0.179207 -0.188925 0.309405 0.006041 -0.276453 0.117036 -0.351108 0.277594 0.061923 0.22661 0.052356 -0.188246 -0.032943 0.37571 0.267002 -0.252517 -0.022971 0.137141 0.062707 0.290958 0.201146 -0.118556 0.453871 0.010884 0.134879 -0.321902 0.187856 0.293211 0.164865 -0.35498 -0.187691 -0.009209 -0.086454 -0.14944 0.190276 -0.156686 0.270686 -0.346115 0.036539 0.00889 -0.125573 -0.149745 0.194243 -0.361724 0.194658 0.220006 -0.090916 -0.387172
record 0.08828 0.107996 0.104407 0.144929 0.010263 -0.043602 0.19072 0.051044 -0.464041 -0.115111 0.0118 -0.701543 -0.047905 0.108686 -0.303402 -0.154427 0.114776 0.18589 0.014347 0.009 0.341743 -0.060334 -0.010731 -0.317019 -0.081124 0.158718 -0.267312 -0.042533 0.219566 -0.202798 -0.065798 0.161033 -0.094115 -0.224031 0.363701 -0.056803 0.19959 0.279834 0.304227 0.309373 -0.163835 -0.275741 -0.244208 -0.141247 0.040006 -0.163012 0.127663 -0.25706 -0.02146 0.095076 0.020558 -0.286737 0.429306 -0.004941 0.105681 -0.288161 -0.289246 0.140474 0.291723 -0.232073 -0.008657 0.26427 -0.011548 -0.175964 -0.14847 0.054762 0.224104 0.163154 -0.023246 -0.132184 -0.053378 -0.0798 0.129709 0.442364 0.111349 -0.133688 0.108651 0.05043 -0.021897 -0.037729 -0.272058 0.423878 -0.093598 0.035304 0.345364 -0.031437 0.083427 0.278109 -0.077826 -3.82E-4 0.084663 0.019057 0.342238 0.018672 -0.243301 0.190351 0.068244 0.07344 -0.370189 -0.041107 0.092916 0.109491 0.017632 0.101405 0.119346 -0.091331 -0.135026 0.174653 -0.202433 -0.421609 0.193968 -0.073521 0.306312 -0.13719 0.05252 0.223367 0.023338 -0.079158 -0.100194 0.347868 0.595548 0.215778 -0.188918 -0.153535 0.143699 -0.44001 0.143695 -0.212865 0.161951 -0.289273 0.325207 -0.147538 0.031194 -0.293315 0.069728 0.400072 0.023501 0.560248 0.354222 0.018318 -0.140026 0.151147 -0.35257 0.021651 0.340901 0.103043 -0.195555 -0.043271 -0.32185 -0.213262 0.179074 0.234711 0.038883 -0.166107 0.002711 0.141744 -0.226477 0.192354 0.0648 -0.15668 0.164833 0.190115 -0.265693 0.075053 0.03165 -0.277527 0.017923 -0.316704 -0.004919 -0.172536 0.459087 -0.150968 -0.069385 0.345824 -0.208014 0.305031 -0.186273 0.019748 -0.399898 -0.011249 -0.133944 -0.106472 0.020935 -0.009157 -0.047788 0.120401 -0.030571 0.25646 -0.07953 0.378161 -0.030199 0.112011 0.354497 -0.181029 0.29598 -0.102477 -0.039937 0.197388 -0.297093 -0.170649 0.051266 -0.162971 -0.217886 0.173714 -0.006902 0.482823 0.018701 0.03237 0.133113 0.080511 0.034263 -0.053365 0.041355 -0.063505 0.152777 -0.218488 -0.101404 -0.216908 -0.064126 -0.060335 -0.178855 0.238154 0.41031 -0.127892 -0.158813 0.153911 -0.158768 0.077978 -0.018533 -0.05176 0.122999 -0.194826 -0.006964 -0.237735 -0.223175 -0.180847 0.078072 0.127952 0.114194 -0.162609 -0.109755 0.002739 0.187132 -0.097679 0.319288 -0.093312 -0.256781 -0.714601 -0.056601 -0.11448 -0.182179 -0.170284 0.087296 0.207808 -0.062295 -0.090463 -0.398896 0.092683 -0.006645 0.287283 -0.119006 0.130176 0.062945 0.240972 0.256198 0.043138 -0.098398 -0.040332 0.086593 -0.126488 -0.175995 0.136801 0.00126 0.226431 0.469725 0.129002 0.098165 0.016934 -0.221023 0.003906 -0.134319 0.101499 0.314158 0.02151 0.292043 0.004162 -0.042364 -0.214148 0.135339 -0.463245 -0.113267 -0.276265 -0.136131 -0.312902 -0.001541 -0.060887 -0.323594 0.21054 -0.10337 -0.084376
energy 0.144625 -0.220496 -0.066791 0.239536 -0.161543 -0.054743 0.018843 0.25621 -0.060712 0.149386 -0.290207 -0.102701 0.233378 0.238049 0.181533 0.177653 0.140636 -0.196795 0.216185 0.139753 -0.172373 0.02981 -0.221397 0.295493 0.201587 -0.230164 -0.384652 -0.129306 0.484435 0.187081 0.441012 -0.085507 0.116898 -0.204445 0.095213 -0.169779 -0.337819 -0.067947 -0.125779 -0.477623 -0.391557 -0.139718 0.239051 -0.116898 0.160338 -0.334353 0.192622 -0.096654 -0.154366 0.066686 -0.156989 -0.305315 0.365376 -0.198259 0.418696 0.282129 -0.014746 -0.242902 0.169236 -0.11885 0.095194 0.446679 0.254621 -0.082331 -0.300381 0.190977 0.048915 0.182671 -0.026118 0.08673 -0.082544 -0.17024 0.342063 -0.207753 -0.183882 -0.289716 -0.293478 -0.16997 -0.130342 -0.236681 0.103155 0.483425 -0.027748 -0.286751 -0.029077 -0.005398 -0.379168 -0.274384 -0.071373 -0.02202 -0.020709 0.181522 -0.284897 -0.20435 -0.445222 -0.134775 0.186783 -0.168804 0.114101 -0.09259 0.497633 0.093489 -0.167981 -0.102131 -0.264897 0.041871 0.04442 -0.214014 0.268144 -0.195992 0.111665 -0.091736 -0.186547 0.033489 -0.420025 0.233884 0.336392 -0.33352 -0.280601 -0.216626 0.046605 -0.015121 -0.13488 -0.00221 -0.104633 -0.172462 -0.303017 0.17167 0.17576 0.078192 -0.406332 -0.184531 0.124551 -0.057946 0.201964 0.386278 0.305261 0.323048 0.14059 -0.00785 -0.377808 -0.156264 0.00474 -0.04526 0.286158 0.30004 0.02139 0.385286 0.410953 -0.021746 0.195385 0.167615 0.16238 -0.344882 0.086965 -0.257046 -0.044093 0.299924 -0.029402 -0.035297 0.046418 -0.164515 -0.370628 -0.147063 -0.220255 -0.140799 -0.086053 -0.017536 -0.020382 0.087324 0.130799 -0.125883 0.378052 0.162102 -0.004823 -0.233271 0.141037 -0.430754 -0.038488 0.096735 -0.034321 -0.254512 0.039944 0.038113 0.130636 -0.085995 0.170481 -0.015687 0.190148 0.066194 0.1191 -0.030225 -0.023868 -0.06392 -0.072599 -0.047031 0.095743 0.124936 0.204637 0.057681 -0.381258 0.068242 0.441651 -0.078394 0.231472 0.119837 0.429806 0.198478 -0.03382 -0.106631 0.002427 -0.218774 0.161714 0.236418 -0.151527 -0.338995 0.130379 0.042109 -0.174753 -0.249866 0.014414 0.236508 0.26898 0.182227 0.135654 -0.202178 -0.093989 0.239428 0.496325 0.049067 -0.212275 0.200688 -0.038469 -0.150284 0.159851 -0.082142 -0.23068 -0.044946 0.019142 -0.182251 0.127375 0.018997 -0.282153 0.008035 -0.120622 -0.189223 -0.135303 0.08462 -0.563301 0.229656 0.245626 -0.082287 0.18038 -0.198581 -0.14706 0.041815 -0.035196 0.275186 0.134428 0.006163 0.372467 0.212805 -0.004352 0.068549 -0.151332 -0.017119 0.036995 -0.295158 0.098745 -0.007124 -0.254854 0.151644 0.297994 -0.03063 0.087754 -0.412844 0.102341 -0.132429 -0.39492 -0.170426 0.093782 -0.15232 0.291448 -0.258598 0.183468 -0.006626 -0.242903 0.053723 -0.25759 0.058152 0.15135 -0.201755 0.112855 -0.298586 0.090485 0.071912 -0.426811 0.21863 0.051127 -0.101222
announcement 0.252597 0.185582 0.005304 0.010851 0.340702 0.278756 0.164263 0.173797 -0.206314 0.12401 -0.123547 0.219322 0.135862 -0.051401 -0.037809 0.106 0.161852 0.138588 -0.261189 -0.148876 0.185274 -0.408934 -0.25528 -0.028989 -0.149512 0.116895 -0.233209 -0.346319 -0.119441 0.341269 0.264294 0.095819 -0.117468 -0.209224 -0.307473 -0.008138 0.181315 0.001726 -0.309439 0.183343 -0.026365 -0.097087 0.280062 -0.027244 0.017247 -0.017286 0.081433 0.128034 -0.140469 0.220928 -0.119205 0.040686 0.451883 0.154806 -0.086411 0.08054 0.067454 0.090983 0.438581 -0.217541 0.124449 0.069563 0.276442 -0.372929 0.108336 -0.188089 -0.120714 0.104125 -0.414241 -0.015993 -0.068424 0.200407 -0.006732 0.039034 0.402361 -0.146976 -0.043796 0.160386 0.372968 -0.297546 -0.0029 -0.286415 0.03975 -0.112927 0.278969 -0.204045 -0.507124 -0.368558 0.262318 -0.002771 -0.120152 0.207536 -0.182185 -0.082721 -0.31536 0.140295 -0.145391 0.116338 -0.097708 0.029282 0.159329 -0.04151 -0.309109 -0.185143 0.042816 -0.210141 -0.045124 4.3E-5 0.230245 0.192191 0.003299 0.422697 0.139532 0.133597 0.071995 0.149062 0.245959 -0.228497 -0.032193 0.46035 0.602338 0.13879 0.169406 0.094612 0.066054 -0.005809 -0.105247 -0.16071 0.145406 -0.439609 -0.383833 -0.576191 0.078381 0.224011 0.152861 -0.054942 -0.225089 0.112849 -0.064136 -0.120232 0.05757 0.347469 -0.093412 -0.09842 0.258404 0.100785 0.251932 0.189573 -0.216685 0.33803 0.124128 -0.211761 0.262523 -0.2301 -0.235831 0.028559 0.104706 -0.357176 0.257835 0.111301 -0.153717 -0.067722 -0.260693 0.066742 -0.373073 -0.38146 0.116906 0.219041 -0.072768 0.069131 0.238969 -0.112408 -0.187909 -0.140022 -0.111816 0.263224 0.114665 0.220789 -0.188485 -0.103187 -0.101342 -0.00672 -0.054304 0.165644 -0.075728 -0.125426 0.023403 -0.017295 -0.129245 -0.21295 0.182459 0.05792 -0.07234 -0.129842 0.326737 -0.213348 -0.01686 0.124701 0.199176 0.225162 0.133186 -0.351065 0.258309 -0.311894 -0.139574 -0.269595 0.023274 0.237199 -0.433565 -0.032944 0.035196 0.056695 0.018031 -0.335131 -0.130211 -0.120579 0.19677 -0.14504 -0.018504 -0.238468 0.125963 0.019466 -0.162858 -0.102312 -0.371775 -0.061156 0.275261 0.258363 0.186661 0.025627 -0.258618 -0.148942 -0.046698 -0.020327 -0.217142 -0.01636 -0.02269 -0.055433 0.561525 -0.010269 -0.039643 0.214582 -0.132993 -0.11653 0.282899 -0.068166 0.098564 0.143967 0.091086 -0.019117 -0.045011 0.075444 -0.160748 0.006845 0.038677 0.254782 -0.024825 -0.15807 0.013815 0.135157 -0.083238 -0.067887 -0.079503 -0.281213 -0.218042 0.035879 0.018724 0.296774 0.139829 0.12335 0.279813 0.120114 0.124997 0.027092 0.042459 -0.148051 -0.287388 0.031052 -0.11828 0.213909 0.150609 0.239712 0.256542 -0.155112 0.12654 -0.197793 -0.029304 -0.173634 0.115907 -0.035234 0.107656 0.114653 -0.192541 -0.37618 0.128443 0.015369 -0.279148 0.120513 -0.004006 -0.350199
mile 0.100285 0.124126 -0.206905 0.142656 0.020747 -0.659689 -0.150619 -0.286505 -0.308047 0.417986 -0.151176 0.013409 0.191099 0.148615 0.099823 0.231202 -0.157372 -0.131414 0.056913 -0.234184 0.487205 -0.070718 0.200419 -0.08041 -0.477482 -0.198539 -0.212607 0.12009 -0.086858 -0.136684 -0.094199 0.093194 -0.117385 -0.500938 0.360939 -0.067079 -0.049709 0.656071 -0.127737 -0.197495 -0.476402 0.500842 0.298693 0.084151 -0.431734 -0.231288 0.152537 -0.141248 -0.290666 0.573817 0.023844 0.323353 0.352269 -0.257358 0.198254 0.104145 0.135574 -0.213545 -0.116769 0.008715 0.168698 -0.030525 -0.117123 -0.217104 -0.174549 0.016443 0.299018 -0.053318 -0.271499 0.153756 -0.297241 0.337713 0.077975 0.077377 -0.421533 -0.231151 -0.353546 0.020039 -0.176416 -0.185334 0.193265 0.35187 0.064054 0.270827 0.076417 0.067012 -0.098717 0.292891 0.069947 0.055287 0.224313 -0.051286 0.17001 -0.162172 0.13292 0.043787 -0.093901 0.12987 0.121626 -0.403536 0.028882 -0.024466 0.124187 0.059227 0.235438 -0.031411 0.276439 0.40844 -0.126909 0.048314 0.194829 -0.049591 0.497963 0.250674 0.023189 0.17312 0.164316 -0.165198 -0.205443 -0.152574 0.177788 -0.041808 0.409645 0.30136 -0.144342 0.315492 0.143299 0.32077 0.380823 0.19378 0.229462 0.489541 0.064597 -0.265744 0.007738 0.445254 -0.181839 0.283684 -0.155735 -0.0241 0.077991 0.417317 -0.145724 0.028723 0.196383 0.123026 0.077956 -0.24235 0.490479 0.180226 0.054922 0.105553 0.160398 0.103687 0.149458 -0.36774 0.352301 -0.304548 0.243305 -0.036112 -0.30155 -0.107179 0.21567 0.121298 0.404998 -0.159674 -0.434216 -0.1814 -0.0488 0.199658 0.176968 -0.046671 0.209663 -0.026603 -0.333878 -0.211385 0.123343 0.274437 0.223949 0.025105 0.08401 -0.078014 -0.062284 -0.161111 0.156984 0.086278 -0.118389 0.074598 0.059241 -0.169585 0.329927 -0.044881 0.031277 -0.421942 0.24525 -0.41228 -0.114211 -0.201656 0.225743 -0.116331 0.204669 -0.066874 0.088337 -0.256852 0.254418 -0.240937 0.172168 -0.467522 0.064244 -0.224133 0.04944 -0.186573 0.205574 -0.001859 0.260635 -0.200743 0.178135 0.008412 0.139913 0.199003 0.056533 -0.129835 0.144847 0.091455 0.078476 0.073093 0.110801 0.518704 0.094718 -0.157636 -0.151901 -0.214498 0.414028 -0.311669 0.047324 0.19288 0.097621 0.412293 0.727909 0.254666 -0.012538 0.001805 0.528004 0.170202 0.456154 0.142069 -0.32114 -0.065256 -0.21342 -0.036225 -0.11506 0.138691 0.406701 -0.071022 0.079899 -0.069602 -0.052567 -0.095415 0.099343 -0.041413 0.160536 -0.17208 -0.521007 0.120967 -0.390553 0.049724 -0.126248 -0.104343 0.4312 -0.166741 -0.072423 -0.047438 -0.251589 0.348286 0.172299 -0.227695 0.310407 0.132714 0.392308 -0.016521 0.091038 0.151478 -0.066792 -0.196279 0.013285 0.008445 -0.393021 -0.395202 0.178827 0.219637 -0.282751 -0.03991 -0.230435 -0.201395 -0.061728 -0.205427 -0.107073 0.100081 0.042414 0.347317
airport -0.102732 0.072535 -0.061689 -0.01511 0.003996 -0.153016 -0.090407 0.174448 -0.460775 -0.065922 -0.102124 0.279358 -0.197875 0.042932 0.148433 -0.058361 0.243156 0.221578 -0.288366 0.12944 0.240364 -0.198475 -0.149091 -0.209456 -0.102715 0.305198 0.173148 -0.001385 -0.033445 0.301153 0.139941 0.100756 -0.292729 0.001439 -0.270147 0.355628 0.287766 0.138556 -0.359178 -0.407849 -0.278144 0.133272 0.398357 0.127931 -0.072794 0.122454 -0.076245 -0.262673 -0.18829 0.403964 -0.032187 -0.273784 0.380412 -0.334421 -0.217369 -0.15246 0.266445 -0.329102 0.018948 -0.072842 -0.093506 -0.065105 -0.305712 -0.169203 -0.010194 -0.1043 -0.194072 0.050112 -0.003065 -0.163107 0.020224 0.453318 -0.122071 0.145382 -0.072611 -0.035192 0.05112 -0.068299 -0.199201 -0.209025 -0.007445 0.165144 0.009651 0.038628 0.236528 -0.118907 -0.459997 -0.320807 0.124542 -0.308417 0.037379 0.33291 0.494407 -0.289674 -0.442374 0.127088 -0.440406 -0.008045 0.010223 0.033724 0.085576 -0.098248 0.120717 0.079834 -0.044427 0.031774 0.310336 0.306904 0.233351 0.258747 -0.280954 -0.010695 -0.092862 0.128001 -0.078607 0.101425 0.02809 -0.282416 -0.057587 -0.543425 0.054506 -0.124626 -0.139363 0.417127 0.170405 -0.144554 -0.10775 0.176907 0.307688 0.260065 -0.499137 0.23213 -0.035929 0.070849 0.113898 0.532708 0.074017 0.003004 -0.321746 -0.344416 0.455762 0.333968 0.126751 0.153058 0.598879 -0.038165 0.096718 0.337051 -0.015806 0.071645 0.161522 0.286911 -0.235977 0.005437 0.337929 0.148212 -0.161405 0.038388 0.099576 0.18777 -0.243318 -0.303826 0.419926 0.206291 0.151185 -0.179917 0.052109 0.009837 0.202866 -0.041731 -0.165151 -0.077209 -0.240677 -0.462121 0.006469 -0.147846 0.104278 -0.187285 0.057892 -0.282984 -0.033166 -0.076991 -0.072355 -0.022073 -0.227419 -0.119321 -0.386451 -0.179587 -0.157961 -0.158413 0.240663 -0.291635 -0.158929 -0.161108 -0.161584 -0.151592 -0.245505 -0.058319 0.115613 0.272059 -0.093737 -0.28994 0.294018 0.126736 0.009356 -0.045491 0.037916 0.073795 -0.317798 0.068075 -0.075993 0.017409 -0.343168 -0.238583 0.244043 -0.304097 -0.199459 -0.001304 0.273909 0.156888 0.010324 0.467139 0.541368 0.126715 -0.186018 0.126696 -0.079183 -0.065077 0.287879 -0.127661 -0.099963 -0.262676 0.339202 0.257295 0.165567 0.185837 0.07461 0.201434 0.371658 -0.165084 -0.187905 0.029137 -0.069236 -0.130868 0.464 -0.121587 -0.13031 0.06361 -0.0699 0.125576 -0.255478 -0.239665 0.046095 0.050924 -0.115938 -0.00231 -0.004821 0.016827 0.166822 0.029364 0.194393 -0.160348 -0.178244 0.252513 -0.076944 -0.234673 0.064814 -0.105235 -0.278971 0.11639 0.312617 -0.242562 -0.289151 0.029061 0.439294 -0.532985 0.380616 -0.156617 -0.586069 0.185231 -0.197368 0.238741 -0.115107 0.327215 0.172195 -0.289559 -0.093984 -0.26685 0.436163 0.208182 -0.313354 0.026701 0.119083 -0.141423 -0.190861 0.207676 -0.25227 0.120272 0.224451 0.501451
population 0.07695 0.108994 0.322836 -0.175062 -0.254452 0.221633 0.108286 -0.153491 0.341769 0.328539 -0.066747 -0.261777 0.136752 -0.2185 -0.032099 -0.087269 0.208861 -0.205592 -0.028617 0.062033 0.265657 0.048286 -0.075409 -0.086935 -0.008559 0.02547 -0.496293 0.118254 0.010165 0.318353 0.362318 -0.042394 -0.074859 -0.175005 0.024313 0.03728 0.175698 0.085204 0.225906 -0.10047 -0.44346 -0.310748 0.337776 0.033395 -0.136338 0.012954 0.239075 -0.493157 0.021934 0.142523 -0.370975 0.020665 0.092517 -0.182692 0.335734 -0.281625 0.106895 0.15757 0.134716 -0.158483 0.058083 0.467266 -0.107265 -0.354787 0.143535 0.042807 0.25967 0.170712 0.288245 0.246926 -0.016552 -0.099272 -0.516756 -0.23052 -0.113437 0.024668 0.008168 -0.237354 -0.443719 -0.25522 0.182132 0.038341 -0.155108 0.202318 -0.015558 0.216042 -0.374035 -0.266414 0.115465 -0.109287 0.115072 -0.002972 0.227521 0.105133 -0.16049 -0.302364 -0.274763 -0.491698 0.059994 0.011571 0.246612 0.094149 0.104823 -0.11962 0.16741 -0.017353 -0.032247 0.307429 -0.201959 0.109318 0.061353 -0.518468 0.147458 0.355279 -0.117965 -0.070315 0.383863 0.094617 -0.522847 0.029314 -0.193246 -0.23879 -0.239097 0.227377 -0.375745 0.070766 -0.033066 -0.005656 0.249698 -0.054867 -0.174018 -0.06301 0.083447 0.262776 -0.014444 0.05278 -0.378338 0.074535 -0.268188 0.281186 -0.03781 0.244837 -0.224003 0.486072 0.327469 0.205432 -0.109565 0.193792 0.11058 0.257439 0.149223 0.060945 0.101974 0.246708 -0.168326 -0.150078 0.214501 -0.359456 -0.219005 -0.003314 0.03672 -0.217593 0.039035 0.098366 0.101874 -0.049447 -0.312603 -0.518125 -0.485784 0.081478 -0.018932 0.122451 0.218337 0.156051 -0.334325 0.213405 -0.186515 0.18503 0.238 -0.150296 0.127828 -0.293734 -0.24979 -0.120238 0.353449 -0.016729 0.079096 0.297182 0.077178 -0.009421 -0.130536 -0.152482 -0.216506 -0.092338 0.110246 -0.324955 -0.00897 0.017661 -0.211816 0.134743 -0.174491 0.079588 0.255147 0.086184 0.052692 -0.074016 0.326641 -0.094498 -0.107648 -0.055161 0.077116 -0.046787 0.077912 0.120229 0.110849 -0.564434 0.350626 0.442815 -0.237579 -0.598088 0.063553 -0.266196 0.180184 -0.061371 -0.433547 0.085882 -0.560944 -0.113527 0.092152 0.0446 -0.015517 0.00494 -0.24694 0.149356 0.183735 0.042817 -0.134973 -0.14372 -0.070884 0.221953 -0.16718 -0.021178 -0.185195 0.020941 0.13972 -0.04396 -0.129574 0.216761 -0.277361 -0.208635 -0.083436 -0.269336 -0.136838 -0.050921 0.290331 -0.120511 -0.023425 -0.039229 -0.00894 0.165496 -0.060507 0.052693 -0.393001 0.038161 0.143657 0.1344 0.108155 0.224053 0.456684 -0.275063 0.004973 -0.363591 0.221078 -0.066167 0.472287 -0.264652 0.215817 -0.189651 -0.17998 -0.273217 -0.179031 0.411022 -0.144043 0.46161 -0.015347 -0.020708 0.221655 0.032673 0.176856 -0.117254 -0.241932 0.385264 0.163316 0.121577 -0.041567 -0.502959 0.058129 0.165537 -0.186715 0.232858
planning -0.110054 0.102907 0.066835 0.142905 -0.13876 -0.213953 -0.025145 0.006487 -0.102022 -0.263622 -0.068271 -0.108879 0.049967 0.084919 0.01674 -0.085652 0.395521 -0.055112 0.055776 -0.129902 0.094038 -0.272962 -0.027109 0.015121 -0.232506 -0.055448 0.136432 -0.03653 -0.253791 -0.057843 0.357498 0.001305 0.212037 0.030978 -0.49996 0.324263 -0.241864 0.26168 -0.02456 -0.300552 -0.227152 -0.067329 -0.104701 -0.057098 0.070689 0.315592 0.054254 -0.039333 0.069726 0.212645 -0.046915 0.173678 0.448392 -0.082032 -0.097332 0.140242 0.115854 0.019286 0.010735 -0.180726 -0.122114 0.051351 0.317765 -0.146236 0.018978 0.035985 -0.036975 0.151711 -0.124801 0.075676 0.340089 0.148529 0.010087 -0.164664 0.101216 -0.15105 -0.1544 0.252579 -0.095269 -0.073772 0.19305 -0.323813 -0.052722 0.230356 0.381537 -0.147775 -0.289301 -0.316901 -0.05539 0.168877 -0.161876 -0.1898 -0.079991 -0.056963 0.037029 -0.102204 -0.420711 0.313893 -0.059254 0.07311 0.326811 -0.030048 0.221356 -0.104629 0.01938 0.208141 -0.021883 0.276721 -0.001403 -0.144321 -0.189554 -0.178868 0.116699 0.090651 0.019678 -0.269163 0.409715 0.066546 -0.094068 0.030775 0.202552 -0.038431 -0.126885 0.042868 0.035209 -0.09756 -0.265449 0.001392 0.006836 -0.331619 -0.201005 0.032537 -0.163941 0.174338 0.083808 -0.013677 -0.082756 0.167646 -0.168142 -0.059068 -0.140403 -0.033747 0.003155 0.032352 0.181314 0.006531 0.193624 0.281279 -0.251765 0.19905 0.149909 0.224888 0.284738 -0.310448 -0.124823 0.192362 -0.39559 0.194044 -0.211561 -0.179336 0.29378 -0.077759 0.064778 -0.096481 -0.045008 -0.081686 0.022831 0.149997 -0.09215 -0.095121 -0.049825 -0.214534 0.059927 0.004518 0.043993 -0.071623 0.180368 -0.015742 -0.339083 -0.081803 -0.20327 -0.018294 -0.204256 -0.063465 -0.13545 -0.020029 0.242585 -0.405667 -0.120833 0.083645 -0.111866 -0.427831 -0.092339 -0.115848 -0.124408 -0.036044 -0.358618 0.023296 0.201063 0.076834 -0.142087 -0.133302 0.187529 0.044401 0.081585 -0.199021 0.22584 0.081226 -0.078001 0.075991 0.262415 -0.083212 -0.135623 -0.113456 0.214756 -0.058652 0.129524 -0.143052 0.128572 0.072024 0.196666 0.190398 -0.085334 -0.060172 0.240778 -0.009402 0.076046 0.225501 -0.006452 -0.004272 -0.13606 0.148934 0.013796 0.056708 0.244333 0.350135 0.166812 0.045308 -0.07508 0.180015 -0.164421 0.149139 -0.004598 -4.4E-5 0.235993 -0.03133 -0.021866 -0.212916 -0.275636 0.249545 -0.139646 0.011863 0.025726 0.020361 -0.167541 0.389264 -0.253315 -0.263384 -0.197381 -0.053339 -0.111855 -0.054326 -0.146359 0.055038 0.017507 -0.134813 0.274693 -0.248399 -0.013772 0.2036 -0.063217 0.155757 -0.214838 0.068652 0.253863 -0.104052 0.085947 -0.125651 0.040985 -0.118629 0.099967 0.195556 0.1031 -0.226086 0.077792 0.192492 0.11184 0.198691 -0.150288 0.335194 0.22138 0.008384 0.221503 0.165751 0.251158 0.015477 -0.376321 0.23563 0.174894 -0.103611
canyon 0.109967 0.361974 -0.473055 -0.157278 0.204742 -0.586452 0.09768 0.175233 -0.238941 -0.041468 0.093086 -0.651286 0.011811 -0.084534 -0.001412 -0.118248 -0.040559 -0.180651 0.181753 -0.089381 0.48806 -0.202362 0.173996 0.153957 0.112013 -0.208465 -0.291837 0.289201 -0.474491 0.074033 0.056646 -0.084904 -0.2341 -0.030677 -0.308799 0.176203 -0.057673 0.272327 0.149154 0.065464 -0.244366 0.137061 0.46016 -0.087732 -0.301065 0.04898 0.187001 0.36108 0.163318 0.234982 -0.267694 -0.037408 0.204462 -0.399416 0.014012 0.488983 0.183857 0.112646 0.100776 -0.221727 0.260773 0.129318 -0.402737 0.035367 -0.327151 0.268482 -0.024755 0.149451 -0.083572 0.008943 -0.414945 0.187446 0.16417 -0.059716 -0.335119 0.566279 -0.392748 -0.507924 0.181808 -0.140379 0.44296 0.542151 0.120681 0.442706 0.190839 0.054034 -0.123951 0.048257 -0.015149 0.080397 0.236069 0.02782 0.112202 0.105031 0.022138 0.00104 0.153562 0.039506 -0.348934 0.022152 0.033488 -0.053111 0.144933 0.476323 0.167497 0.038495 0.245769 0.258336 -0.453217 0.24306 0.159593 -0.392345 0.064321 -0.0584 0.357741 0.107961 0.016865 0.353687 -0.355081 -0.123555 -0.464394 -0.046672 0.253143 -0.195461 -0.521734 -0.344754 0.263029 -0.167437 -0.303698 0.053347 0.038269 0.250003 -0.210366 0.028651 0.019914 0.361782 0.25705 0.349028 0.143335 0.179851 0.096048 0.416547 -0.178119 0.194929 0.329146 -0.205826 0.416051 0.053997 0.250364 -0.230445 -0.051553 0.599776 0.038291 -0.202842 -0.080238 -0.374667 0.508751 -0.298194 -0.212941 -0.237991 -0.390699 -0.15606 0.500564 0.251318 -0.086844 0.319532 -0.336756 -0.29185 -0.060532 0.299931 0.218496 -0.002047 0.129524 -0.080782 -0.263492 0.048362 0.063901 -0.320175 -0.065176 -0.4592 0.154381 -0.253083 -0.290803 -0.340755 0.062079 0.331995 -0.042486 0.035353 -0.411261 0.006203 0.176082 -0.336818 0.204632 -0.181968 0.213132 -0.156636 0.073528 -0.352709 0.252469 -0.345602 0.17674 0.158465 -0.294559 -0.571674 0.488355 -0.219286 0.121634 -0.067072 0.035487 0.108166 -0.079845 0.225291 -0.078387 -0.242083 0.130419 -0.045092 0.305975 0.229612 -0.190208 0.179867 -0.153584 -0.164046 0.188302 0.393738 0.191394 0.095732 0.080186 -0.087212 -0.011657 -0.232473 -0.023588 -0.036018 -0.084936 -0.259461 0.219342 -0.00928 0.092238 0.193573 0.298392 0.225523 -0.316276 0.248445 0.260051 0.097191 -0.017248 -0.374511 -0.312692 0.032831 -0.254884 -0.281359 0.030732 0.261745 0.360336 0.130008 0.446479 0.229992 -0.019876 -0.257937 -0.079712 0.422049 0.466696 0.069682 0.158275 0.178247 0.382741 -0.074666 -0.077529 -0.028217 0.629426 0.104589 0.402 -0.010768 -0.505384 -0.006687 0.386605 -0.373905 -0.248093 0.344621 -0.21766 0.090801 0.015283 -0.2454 0.031718 -0.049391 -0.124527 -0.142056 0.096179 -0.601802 0.317445 -0.221888 0.220503 -0.239827 -0.203728 -0.072739 -0.084122 -0.357222 -0.165982 0.239141 -0.463354 -0.063913
delay -0.079262 0.067105 0.178197 0.068467 -0.053039 0.042692 -0.146267 0.465248 -0.157267 -0.063736 0.057321 0.03978 -0.015645 0.04774 0.090438 -0.093712 0.027441 -0.206248 -0.092436 0.210104 0.210888 -0.393909 -0.052779 0.100634 -0.028738 0.051212 0.331922 -0.05988 -0.169091 -0.394894 0.062573 0.185959 -0.266087 -0.028814 -0.166518 0.143595 -0.081506 0.034443 0.046403 -0.097831 -0.286633 0.089712 -0.07736 -0.280744 0.337831 0.135691 -0.042328 -0.034622 0.117725 0.109661 0.139344 -0.21173 -0.111158 0.004327 0.033828 -0.072785 -0.062732 0.206593 -0.134273 -0.17643 0.04203 -0.203569 0.22932 0.076005 0.082308 0.486014 -0.034517 -0.29332 -0.305194 -0.128171 0.005077 0.101043 0.287141 0.118365 -0.010178 -0.295876 0.015157 0.140883 -0.064997 0.154058 0.146928 0.113884 -0.011304 0.232554 -0.11753 -0.116284 -0.203414 -0.094835 -0.068409 0.08225 0.003268 -0.013424 -0.275306 0.207505 -0.278519 -0.029161 -0.425109 0.065998 -0.069431 0.163333 0.177175 -0.161258 -0.060427 -0.172736 0.135933 -0.257646 -0.035416 -0.072006 0.233159 -0.088485 0.23237 0.217839 0.34591 0.163051 0.344187 -0.255369 0.157769 0.056769 0.141497 0.427494 0.609941 0.211434 -0.098903 0.270628 -0.074391 -0.224066 0.004182 0.025023 0.349701 0.030053 -0.312086 -0.122394 0.236105 -0.238591 0.109372 0.124305 0.037344 0.257949 -0.01506 -0.386351 -0.022332 -0.023803 0.160331 0.218048 -0.181434 -0.065768 0.152313 0.266233 -0.124266 0.331074 0.277428 0.232034 0.111601 -0.398133 -0.03667 0.114163 0.144852 -0.045208 0.183034 0.21105 -0.072001 -0.323676 0.132572 -0.02041 -0.07394 0.053512 0.180245 0.217958 -0.141697 0.218616 -0.211504 0.111342 -0.244375 0.377049 -0.016586 0.163697 0.01775 0.039107 -0.176625 0.003325 -0.075039 0.016762 0.011352 -0.083947 -0.136447 -0.217319 -0.003647 -0.150882 -0.016991 -0.037241 -0.033807 -0.431208 -0.20597 -0.052254 0.208853 -0.096128 -0.075254 0.030672 -0.221307 0.059982 -0.009037 -0.162413 0.305759 -0.318351 -0.035443 -0.230095 0.042807 0.604087 -0.419749 0.044362 -0.028951 0.067682 -0.143155 -0.335402 0.140617 -0.542663 0.189894 -0.196064 0.30943 -0.518492 0.15271 0.020738 0.109873 -0.107213 -0.129567 -0.104597 -0.157811 -0.009364 -0.106381 -0.013299 0.139939 0.095325 -0.186035 0.369304 0.194038 -0.096237 0.276212 0.153777 0.012661 0.057905 0.307008 0.014238 0.097917 -0.271999 -0.151988 0.022735 -0.052589 -0.054629 0.027558 -0.101557 -0.059681 0.023787 -0.160027 0.207312 0.107161 0.346018 -0.023401 0.206593 -0.016335 0.117813 0.074674 0.015581 -0.218547 0.045398 -0.414985 -0.025629 -0.017856 -0.046536 -0.063882 0.106157 0.516932 0.035034 -0.214062 -0.184638 0.389081 -0.161031 0.312689 0.039114 -0.394158 0.123867 -0.043853 0.239151 0.083103 -0.207588 0.251886 -0.156504 -0.276147 0.07893 0.095889 0.109621 -0.013894 -0.066601 0.035839 -0.102374 -0.120323 0.031128 -0.032405 0.419603 -0.167131 -0.495429
size -0.395585 0.256866 0.177663 -0.121072 -0.12329 0.055867 -0.033251 0.204622 0.010541 0.096221 -0.006918 0.013643 0.072209 -0.219334 0.172628 0.028775 -0.074201 -0.218327 0.042513 0.039396 0.27685 -0.189041 0.053313 0.210224 0.204423 -0.127158 -0.10746 0.320778 -0.082639 0.250997 0.126423 -0.001699 -0.193529 -0.143271 -0.004478 0.189627 -0.044922 0.551622 0.030611 -0.034924 -0.115412 -0.099713 0.470325 0.088302 0.084216 -0.027264 0.152488 -0.117967 -0.013026 0.240098 -0.36065 0.138628 0.295256 0.077351 0.236214 0.021873 -0.230677 -0.206354 -0.074597 0.033651 0.333555 0.052913 -0.173592 0.099844 0.226855 -0.104136 0.322348 0.301793 -0.302603 -0.026352 0.254448 -0.032118 -0.12466 -0.012204 0.00883 -0.522292 0.187204 0.107168 0.045398 -0.091819 -0.062865 0.032469 -0.20661 0.081688 -0.006787 0.012158 0.339436 -0.210692 0.242888 -0.030769 0.165356 -0.316861 -0.035498 -0.394364 -0.49117 -0.13881 0.044431 -0.263974 0.302713 -0.214852 0.055582 0.043559 -0.038534 0.419953 0.093358 0.048636 0.19743 -0.032106 -0.220389 0.322023 0.344784 0.006861 -0.16522 0.147524 -0.135956 -0.006642 -0.13369 0.069484 0.082584 0.032541 -0.106021 -0.165439 0.046437 0.496704 -0.142933 -0.323258 -0.020787 0.212009 0.142758 0.065309 -0.170119 0.027674 -0.220865 0.20576 -0.108236 0.14718 -0.404835 -0.080425 -0.061378 0.150927 -0.199799 0.094404 0.008194 0.265231 0.264453 0.313805 -0.117844 -0.110534 -0.258683 0.103188 0.083366 -0.137639 0.043903 -0.042744 -0.043123 0.19935 0.358327 -0.020417 -0.02583 -0.18298 -0.167971 -0.383114 0.058689 -0.241415 0.332839 -0.24549 -0.046519 -0.547638 0.066939 -0.016559 -0.24752 -0.074508 0.018915 -0.01492 0.074057 0.446843 0.119948 0.229948 0.104682 0.292266 -0.193153 -0.018963 0.158824 0.016963 0.063148 0.211649 0.246545 0.538116 -0.091195 0.444151 -0.187595 -0.052211 0.167569 -0.105537 -0.152043 -0.120916 -0.018267 -0.052783 0.012635 -0.130549 0.248618 -0.081275 0.093938 -0.182112 -0.047184 -0.051142 0.235919 0.198856 0.219365 -0.13319 0.316655 -0.136029 -0.125354 0.07827 0.056004 -0.36036 0.478954 0.165817 0.185704 -0.162559 0.34938 -0.241328 0.221845 0.169735 -0.199199 0.180766 -0.170672 0.178331 0.08555 0.268748 0.003364 0.048974 -0.083959 -0.193141 0.139941 -0.319682 0.00555 -0.067127 0.022106 0.171095 -0.140756 0.08603 0.249233 0.105111 0.313219 -0.176382 -0.172254 0.184582 -0.04186 0.189834 0.200389 -0.062141 0.2093 -0.268569 -0.026977 0.228872 -0.046192 -0.033891 -0.054987 0.296145 -0.075129 0.092783 -0.332354 0.083655 -0.03579 0.040431 0.145187 -0.15243 0.401839 0.12815 -0.024257 -0.356984 -0.094435 -0.021962 0.31106 -0.228907 0.120393 0.173451 -0.068839 -0.137272 -0.081087 0.076638 0.121377 0.129163 0.232477 -0.085145 -0.081446 0.290565 -0.053244 0.222866 -0.094223 0.150894 -0.212487 0.149495 0.169808 -0.080282 -0.359148 0.045165 -0.143851 -0.02627
peace 0.251734 -0.041218 -0.21168 0.41386 0.280666 -0.036983 -0.240617 0.37053 -0.650173 -0.176278 0.077241 -0.040875 -0.281134 0.268532 0.206545 -0.145822 0.047756 0.030069 -0.009788 -0.119231 0.044599 -0.078315 -0.237211 0.388345 -0.07013 0.003496 0.288278 -0.287564 0.38238 0.18839 0.00295 0.20997 0.349386 0.190945 0.072544 0.197714 -0.319165 0.281174 0.13257 0.069254 -0.252045 -0.164218 0.182859 0.031867 0.105983 0.392622 -0.20982 0.253189 -0.132261 0.313163 -0.20452 0.058952 0.246794 0.064145 0.122112 0.062131 0.007622 0.268262 0.041978 -0.252925 0.198605 -0.227728 5.41E-4 0.230314 -0.037203 0.482784 0.049389 0.303568 -0.364111 0.136527 -0.199907 -0.250134 0.111047 -0.181833 0.158756 -0.14418 0.831165 -0.073774 -0.469301 -0.337181 0.168724 0.021072 -0.232902 -0.101131 0.41354 0.0308 -1.040801 -0.431251 0.14677 -0.237741 -0.038589 0.238283 0.331183 0.101802 0.018429 -0.058104 0.417877 0.026077 0.465323 0.135775 -0.04959 0.234601 0.368131 -0.130068 0.16562 0.135839 0.080008 0.205906 -0.454249 -0.030257 -0.412199 -0.357649 -0.16571 0.233711 0.036283 0.05484 -0.100577 -0.049337 0.049869 0.173394 -0.189021 0.417208 0.184203 0.502397 -0.232789 -0.016038 0.042497 -0.292353 0.205509 -0.017972 -0.120069 -0.522593 -0.029341 -0.220051 -0.060437 0.166486 -0.252926 0.727351 0.056157 -0.315181 0.044239 0.546589 0.070558 0.198772 0.073014 0.393968 -0.174194 0.190938 0.247051 0.147237 0.287593 0.247617 -0.193939 -0.373653 -0.273178 -0.059031 -0.148399 -0.10505 0.266565 0.389608 0.292957 -0.169938 0.206324 -0.110969 0.099881 0.039712 0.184373 -0.242 -0.45606 0.296069 -0.045155 -0.353323 0.162603 -0.098352 0.077176 -0.322222 -0.010933 0.01419 -0.046415 0.031069 0.11738 -0.409054 -0.413308 -0.455737 -0.205232 -0.433009 0.121127 -0.083634 -0.391102 -0.499574 0.267034 -0.383613 -0.113985 -0.240536 0.156137 -0.225364 0.191478 0.116145 0.031434 0.151259 -0.181037 0.362621 -0.068851 -0.079764 -0.133163 0.014317 0.045431 0.277947 -0.294444 -0.264561 0.132684 0.303163 0.164473 0.058078 0.397503 0.293793 0.132533 0.109359 -0.310472 0.011552 0.17787 -0.134154 0.606177 0.17013 0.206487 0.083749 0.178013 0.260944 0.528029 0.298072 -0.007445 -0.087949 0.206418 0.258542 0.082979 -0.365554 -0.393348 -0.005647 0.09599 -0.294229 0.288169 0.164354 -0.313493 0.289534 0.174723 0.214633 -0.242948 0.358111 0.127476 -0.48838 -0.076979 -0.306259 0.126367 0.187605 0.28096 0.152248 -0.249552 0.019611 -0.050246 -0.110679 0.107581 0.037901 0.023935 -0.395595 -0.03586 0.167142 0.35693 0.24558 -0.20167 -4.6E-4 0.04962 -0.026495 -0.275937 -0.004359 0.410949 -0.041596 -0.347644 0.08352 -0.162815 -0.055866 0.248409 0.208429 0.130691 -0.14023 -0.074181 0.037213 0.185535 0.029915 0.443607 -0.559014 -0.130348 -0.174725 0.073004 -0.168688 -0.3181 0.012257 0.081989 0.384776 -0.016906 -0.283327
science 0.136604 0.144272 0.195904 0.065518 -0.205682 0.19838 -0.059031 0.381905 0.425336 0.376143 -0.080074 -0.082131 -0.358091 -0.017218 0.305382 -0.261971 0.218989 0.035148 0.328296 0.148008 0.157693 0.153679 -0.284299 0.339049 0.054391 0.350309 -0.266087 0.022848 -0.195045 0.166638 0.153496 -0.033124 0.034498 0.049135 -0.014628 0.41593 -0.152125 0.107684 0.432888 -0.015397 0.110395 -0.447004 0.040472 -0.167382 -0.113453 0.104257 0.41087 -0.194469 -0.204337 -0.143468 -0.093185 -0.217581 0.125974 -0.071579 0.336852 0.239832 -0.293963 -0.187457 -0.294011 -0.266885 -0.088798 -0.109069 -0.039515 -0.263088 -0.031499 0.297113 -0.092392 0.198375 0.07377 0.11902 0.178763 -0.003919 0.099244 0.078046 0.0481 -0.220911 -0.045823 -0.272271 0.033559 0.009545 0.241042 0.035039 -0.209124 0.035272 -0.163207 0.005514 -0.300951 -0.280763 0.063359 -0.168494 0.056444 -0.085015 -0.372227 -0.064877 -0.12347 0.297716 -0.141327 -0.223089 0.018741 0.235901 0.374225 -0.329123 -0.126177 0.466252 0.058914 -0.043661 0.252479 0.004191 -0.563432 0.337669 0.085907 -0.097996 0.115174 -0.06047 0.085125 0.078687 -0.026062 0.007983 -0.062416 -0.293821 -0.083995 -0.006498 0.427255 -0.121212 -0.233942 0.054931 -0.037847 -0.115494 0.366722 0.139712 -0.378144 -0.38075 0.155499 0.059091 0.320756 0.269333 -0.147269 0.298525 -0.152007 0.258791 0.028992 0.255588 0.111993 0.15326 -0.078255 0.206077 0.008641 -0.069844 -0.013978 0.155907 0.443218 0.361398 -0.491913 -0.185911 -0.00929 0.223662 -0.207021 0.196594 -0.044023 -0.072962 0.174135 0.086312 -0.193657 -0.077632 -0.125842 -0.127363 0.235075 0.014129 0.051446 0.088094 0.15624 -0.169288 0.484141 -0.099746 -0.100651 -0.411165 0.182262 -0.258756 -0.079055 0.260932 -0.123371 -0.283004 -0.257343 -0.035626 -0.205017 0.112348 0.059311 0.020879 0.114599 0.132025 0.057452 -0.204408 0.191145 -0.327213 -0.058337 -0.140731 0.308629 0.253364 0.550873 -0.214068 -0.167603 -0.202052 0.044401 0.196005 -0.151595 0.051814 0.200285 0.194734 -0.00125 -0.034604 -0.337407 -0.253032 -0.287673 0.088478 0.196623 -0.099479 0.320972 -0.148712 -0.124404 -0.098716 0.145124 0.396412 -0.054158 -0.295148 0.329757 -0.145486 -0.176704 -0.028303 0.303927 -0.138769 -0.101399 0.108349 -0.268861 -0.268329 0.09197 -0.028091 0.078127 0.068106 0.023601 0.00791 -0.080655 0.036606 -0.028882 0.164776 0.14913 0.213304 0.275186 0.062256 -0.197128 -0.201868 0.316857 0.22047 -0.318066 -0.111334 -0.128058 0.016702 -0.388282 0.122555 0.036086 -0.217599 0.458481 0.024868 0.159972 0.054929 0.132376 0.278062 -0.17839 -0.209231 0.001641 -0.203108 0.107707 0.142807 -0.319299 -0.009114 0.001748 0.144415 0.210829 -0.010787 0.154432 0.22018 -0.149078 -0.070853 -0.16114 -0.125433 0.00345 0.037762 -0.281565 0.209457 0.180582 -0.033999 -0.22862 0.095215 -0.077954 -0.304952 -0.061405 -0.037992 0.004788 0.61736 -0.145471 -0.281497
dawn 0.232636 0.309753 -0.518375 -0.022772 -0.044438 0.271397 0.138011 0.377897 0.088536 0.03808 -0.275059 0.054197 0.147839 0.024237 0.10015 -0.465053 -0.192088 0.183338 -0.016602 -0.131269 0.437498 -0.064137 0.255174 0.016381 -0.294865 -0.087914 0.119171 0.349474 -0.165739 0.174779 0.017362 -0.266392 0.046639 -0.170045 -0.119586 0.242553 -0.081626 0.124661 0.086189 -0.136429 -0.290405 0.206923 0.299782 0.157 0.196497 -0.023248 -0.320693 -0.111846 0.100523 0.249708 0.286239 -0.061251 0.171502 -0.173632 0.012133 -0.001442 -0.020294 -0.288267 -0.107862 0.021245 -0.257848 0.012515 -0.043564 -0.198575 0.138778 0.257623 0.007292 0.069633 0.073919 -0.277288 -0.270399 0.107169 0.120172 0.021487 -0.029598 -0.255069 -0.05501 -0.36921 -0.384339 -0.108279 0.436345 0.113804 0.033954 -0.075648 0.246668 -0.083399 -0.564339 -0.45822 0.03238 -0.058 -0.140959 -0.020215 -0.018219 -0.110844 0.199242 0.021557 -0.112378 0.151912 0.068059 0.399292 -0.022522 -0.219328 0.238634 -0.108514 -0.136755 -0.083066 0.48451 0.222494 0.039462 0.178712 -0.205224 -0.102831 0.242651 0.052539 -0.066551 -0.061248 -0.105425 0.081456 -0.058586 -0.041964 0.005311 0.324172 0.117906 0.193163 -0.310299 0.178491 -0.165934 0.188294 -0.236295 -0.062862 -0.17743 -0.191665 -0.078979 0.413804 0.23173 0.097424 -0.071281 0.07141 -0.07828 0.261701 0.10044 0.286073 -0.401587 0.329795 0.266282 0.325286 0.216404 0.131254 0.407235 0.0756 0.056774 0.075854 -0.046323 0.190467 -0.174044 -0.099639 0.071426 -0.219963 0.104174 0.190872 0.011391 0.02226 -0.132837 0.060772 0.168165 -0.24443 -0.162681 0.366298 -0.391619 -0.162926 -0.150812 0.07028 -9.42E-4 -0.253071 -0.033266 -0.175241 0.323804 0.145115 -0.131286 -0.157202 -0.248907 0.134201 0.110465 -0.208638 0.094496 -0.028361 -0.238247 0.296535 -0.262932 -0.189217 0.251489 0.0104 0.225296 -0.209644 0.04889 -0.298122 0.159036 0.193581 0.108674 0.055445 0.001994 -0.019936 0.029803 -0.169589 0.008008 -0.107653 0.102555 -0.144544 -0.285012 0.047039 0.16832 0.213294 0.105041 -0.246347 -0.009605 0.074986 0.126374 -0.109652 -0.070146 0.199867 -0.234144 -0.120458 0.212538 0.241854 -0.363894 0.299791 0.296996 0.484575 -0.234349 -0.085335 0.169596 -0.127113 0.236372 0.057017 0.184918 -0.144647 0.01532 -0.273673 0.317275 0.043248 -0.131286 0.253089 -0.27271 0.188281 -0.208332 -0.003885 -0.237111 -0.1726 0.00159 0.149392 -0.034175 0.120973 -0.007794 -0.423677 0.203875 0.126421 -0.205026 0.392697 -0.080058 0.190826 0.03702 0.143191 -0.013512 0.449458 0.305319 -0.249404 0.11521 -0.139143 0.205597 -0.042953 0.245661 0.151319 -0.166331 0.397194 0.23513 -0.232267 -0.161984 -0.121354 -0.184118 0.178149 -0.087296 0.317816 0.073823 -0.085614 -0.083688 -0.441947 -0.232442 -0.439454 0.213123 0.102661 -0.429659 0.152226 -0.522538 -0.404409 -0.217929 -0.290897 -0.119372 0.072205 0.23559 -0.107012
brother 0.091013 -0.009008 0.086742 0.040203 0.363999 0.093524 0.317599 0.120826 0.210018 -0.295776 0.09072 -0.218802 -0.129302 0.22949 -0.310692 -0.012222 -0.114011 -0.272501 0.260496 0.362942 -0.230572 -0.295488 -0.031741 0.065237 -0.317227 -0.395444 0.109402 -0.089131 -0.004582 -0.113953 0.280934 0.05269 -0.036358 0.149167 -0.080085 0.358583 -0.184808 0.282009 0.052496 -0.14053 -0.22897 0.247982 0.222895 0.24358 0.129896 0.340904 0.072299 -0.403159 0.10158 0.810131 -0.349504 -0.012202 0.163391 -0.112801 0.180598 -0.142374 0.361409 -0.161917 -0.095011 -0.221606 -0.040151 -0.4105 0.055213 0.080075 -0.098904 0.073772 0.348944 -0.241858 0.155138 -0.130333 0.20551 -0.14754 -0.005152 -0.3808 -0.153038 -0.215669 0.149901 0.042824 -0.263398 -0.476154 0.302396 0.054897 -0.067847 -0.318798 0.014002 -0.024578 -0.023001 -0.214091 0.038698 -0.080314 -0.052034 0.228411 -0.109164 -0.023898 0.104726 0.264012 -0.202199 0.313367 -0.062373 0.028742 -0.073534 -0.152596 0.415424 0.026154 -0.139559 -0.286433 -0.325047 0.355968 0.027411 0.11716 0.097648 0.305709 -0.057698 0.029575 0.106063 5.61E-4 0.149502 -0.12223 -0.18109 -0.316397 0.414401 0.162113 -0.029084 0.27401 0.077482 0.279172 0.086999 -0.092846 -0.287145 -0.226946 -0.062596 0.124413 0.022108 0.100276 0.220625 0.258625 0.002236 0.322213 -0.019829 0.313432 -0.179021 -0.392234 -0.179846 0.196591 0.183888 -0.131576 0.284948 0.31045 -0.20143 -0.202367 0.683821 0.091699 -0.189862 -0.165576 -0.041075 0.31049 0.159692 -0.350396 -0.233024 0.219459 0.142219 0.189043 0.10421 0.082026 -0.044372 -0.32649 0.302123 -0.03978 0.134439 0.364711 -0.091623 -0.165536 -0.017381 -0.086661 0.184144 -0.066782 0.358778 -0.054809 0.176605 0.165077 -0.092019 -0.172619 0.222751 -0.156326 -0.17746 0.066775 0.001042 -0.174567 0.183038 -0.004189 0.219133 -0.055055 -0.086187 0.381614 0.101558 -0.319438 0.003862 0.111252 -0.206964 0.021934 -0.091287 0.256333 0.286263 -0.05071 -0.204669 0.113758 -0.002136 -0.153698 -0.409931 -0.019793 -0.279458 -0.136099 -0.126732 0.065768 0.292232 -0.184706 0.302863 0.053577 0.057736 -0.038767 -0.243144 -0.165481 0.154143 -0.170945 -0.045935 0.060913 0.062316 -0.028878 0.482117 0.005555 -0.057952 -0.058266 -0.246825 0.007793 0.145515 0.172138 0.272102 0.172814 0.221832 0.134441 -0.054166 0.253339 0.049091 -0.215344 0.37518 0.081573 -0.318414 -0.030256 0.442156 0.361373 -0.112725 -0.144459 0.048001 -0.12747 0.124368 0.253948 -0.036727 -0.194092 0.163026 -0.073875 0.158532 -0.20326 0.17108 -0.203529 0.310554 -0.324233 -0.1601 -0.076504 0.190854 0.152973 0.112606 -0.177702 0.230994 0.302465 -0.413585 0.100231 0.131487 0.36731 0.140169 0.177143 -0.018549 0.107773 -0.028834 0.044599 0.069551 0.113415 0.093875 -0.236088 -0.109182 0.007704 -0.185369 -0.069641 0.290004 -0.097299 -0.166659 -0.004919 0.012866 -4.16E-4 -0.354958 -0.227521
wine 0.062432 -0.008583 0.10359 0.011069 0.069387 0.259951 0.315858 0.315013 0.060309 -0.308464 -0.009428 0.364155 -0.194218 -0.113249 0.004365 0.363368 -0.012853 0.332665 0.328637 0.357035 0.062019 0.172401 0.124466 0.328442 0.306546 -0.14023 -0.106417 0.23314 0.21747 0.549027 0.133742 -0.477429 -0.152295 0.049953 0.197751 -0.129962 -7.71E-4 0.067109 0.249792 0.172613 -0.038834 0.124712 0.201037 0.039838 -0.013454 -0.064348 -0.223886 0.032584 0.145685 0.404796 0.47181 0.1413 0.299385 -0.145285 0.14433 0.210287 0.040526 -0.086535 0.193799 0.250015 -0.077349 0.421421 -0.297839 -0.20044 0.030532 0.292977 0.476726 0.14283 0.060291 -0.151269 0.065499 -0.204773 0.044596 -0.124075 -0.303191 -0.426657 0.206396 0.058306 -0.418444 -0.176078 -0.190341 -0.063801 0.537112 0.0782 -0.202859 0.309281 0.152401 0.012749 0.152764 -0.066169 0.450883 0.149163 0.127607 -0.252272 -0.396417 -0.104269 -0.07402 -0.060066 -0.150369 -0.020782 0.448532 0.108775 0.015365 0.22581 -0.147874 -0.287202 0.138386 -0.010806 -0.266014 -0.006979 0.153706 0.14143 -0.071566 -0.159947 0.126673 0.075468 0.258392 0.196797 0.157517 -0.302136 0.086476 0.178603 -0.159244 0.285118 0.098898 -0.098555 -0.152657 0.015583 0.245613 -0.147903 -0.474264 0.10836 0.076645 0.130377 0.141562 -0.031711 -0.261087 0.113461 -0.384469 0.336175 0.212367 -0.044236 0.102155 0.174525 0.368388 -0.117041 0.243642 -0.116366 0.282663 0.012227 0.139846 0.637796 -0.05529 -0.124687 0.184795 0.061563 -0.082162 -0.006703 -0.122133 0.064952 -0.069085 -0.18396 -0.027528 0.034003 0.040721 -0.02217 -0.200846 -0.319141 0.083068 0.296235 -0.155606 -0.378726 0.046585 -0.167799 -0.251252 0.395668 -0.383371 0.017109 -0.289328 -0.156572 -0.251977 -0.115615 -0.219028 -0.220779 0.050831 -0.256958 0.093882 -0.335451 -0.045156 0.052973 -0.231991 -0.118561 0.024209 -0.094343 -0.101532 -0.254055 0.412894 0.167995 0.110108 0.11935 0.1801 -0.077752 0.048187 0.170992 0.074131 0.210688 0.321291 0.229755 0.160118 -0.169598 0.278771 0.388718 -0.142885 0.026084 0.358178 -0.14927 -0.138394 -0.131797 -0.224633 -0.105916 0.064842 0.212133 0.091362 0.119501 0.337136 0.181592 0.007713 -0.180262 0.178642 0.101692 -0.24977 0.0322 0.293716 -0.450999 -0.089061 -0.094724 0.240259 0.339329 -0.076737 0.099647 -0.150429 0.339586 -0.221577 0.001614 -0.320743 0.150376 -0.345956 -0.173727 -0.048893 0.013171 -0.236042 0.552813 -0.042189 0.276721 0.090989 -0.01704 -0.028113 -0.039011 -0.184197 0.153844 0.110154 0.155034 -0.179726 0.267139 0.005637 -0.150525 0.136655 -0.045264 -0.17917 0.015572 -0.048403 0.002467 0.172498 0.394583 0.596995 -0.046777 -0.050961 0.155349 -0.262096 -0.173563 0.309122 -0.161757 0.059963 -0.137635 -0.361805 -0.056543 -0.048006 0.010442 -0.047554 0.021652 -0.268761 0.053983 -0.10555 -0.213263 0.433098 -0.597665 -0.229515 0.29521 -0.354795 0.273718
object -0.239982 0.223807 0.007295 -0.162335 0.205196 0.213828 -0.184376 0.17742 -0.096226 -0.069856 0.062517 -0.046497 0.132808 0.429312 0.103618 0.145019 0.009397 -0.09122 0.127537 0.145566 -0.027917 -0.341617 -0.126716 -0.108396 0.186778 -0.051754 0.026802 0.236878 -0.110843 -0.025554 -0.25415 0.016573 -0.074205 0.075264 0.155676 0.092562 0.0423 0.352959 0.034401 -0.314381 -0.354244 -0.166844 0.078951 0.053897 0.12668 0.161827 0.058433 0.14975 0.021035 0.194202 -0.033199 -0.176428 0.324294 -0.35028 0.176251 0.176575 0.118071 -0.179484 -0.223495 0.092525 0.315086 -0.061174 0.003943 -0.149589 0.219761 -0.224143 -0.016264 0.223932 -0.012598 -0.384164 -0.093631 -0.01507 0.199384 -0.124896 -0.078027 0.066112 -0.026692 -0.25217 -0.069055 -0.184514 0.357093 0.137146 -0.073983 0.2063 -0.278446 0.024058 -0.096687 -0.091236 -0.069172 -0.025084 -0.007446 -0.148394 -0.094404 -0.209933 -0.464458 -0.020874 0.039495 -0.101913 -0.345468 0.023929 0.114084 -0.228131 -0.195527 0.363652 -0.103509 -0.017427 0.101753 0.045037 -0.213587 0.277431 0.392434 -0.143837 0.047511 -0.063043 -0.140005 0.262482 0.129446 -0.09083 -0.117434 0.004483 0.108909 0.060105 0.327078 0.266189 0.034139 -0.142465 -0.005114 0.211602 0.226065 -0.019821 0.126201 0.018147 0.066306 0.227144 0.64122 0.207633 -0.012308 0.075588 -0.187345 0.00132 -0.159066 0.043771 0.015629 0.400478 -0.233935 -0.096214 0.114149 -0.02127 -0.108928 0.652892 0.218974 0.284219 0.160021 -0.151208 -0.0077 -0.091932 0.308249 -0.072208 -0.028175 -0.182506 -0.444386 0.120634 0.19164 -0.119117 -0.479963 -0.305931 -0.164962 -0.075677 -0.005631 0.165242 0.078281 0.113329 0.08127 0.193438 0.115365 0.153195 -0.006187 0.153534 -0.108411 0.115091 -0.175922 -0.137663 -0.220579 0.117223 -0.192205 0.232289 -0.044814 -0.075884 -0.635884 -0.042401 0.002383 -0.206097 -0.046181 -0.039253 -0.24659 -0.315554 -0.010956 0.169931 0.236209 -0.190623 -0.079737 -0.042767 -0.013621 -0.214389 -0.10331 0.026093 0.176655 0.309837 0.129604 0.238706 -0.228755 0.019434 0.082743 0.046157 0.070842 -0.071094 -0.043172 0.14809 0.00459 0.177854 -0.267199 -0.010443 0.116121 0.162856 -0.015547 0.317137 0.110723 0.330391 0.002464 -0.076041 0.43936 0.11669 0.142658 0.242619 0.055327 -0.266229 0.200789 -0.061336 0.102335 -0.154978 -0.102039 -0.395251 0.29892 -0.319858 0.199972 0.034757 0.03327 0.17119 -0.194422 -0.012447 -0.047367 0.257933 0.077948 0.0675 0.080019 0.227402 -0.211208 -0.005159 -0.501413 0.192883 -0.113357 -0.03721 -0.076352 -0.03776 -0.145759 0.0795 0.092031 -0.278271 0.21595 -0.284287 0.13294 -0.331436 -0.020788 -0.204362 0.245663 -0.053557 -0.056911 -0.141793 -0.19467 0.107696 -0.093726 0.109897 -0.129929 0.151336 0.086327 -0.003489 -0.212167 0.056936 0.088814 -0.186499 -0.012468 -0.008764 -0.193041 -0.171046 -0.009651 0.17415 0.022701 0.229277 0.205922 -0.049952
attitude -0.304086 0.221186 0.039646 0.300403 0.093983 0.080591 -0.189367 0.323556 -0.50006 -0.027707 0.066264 -0.149143 0.066733 0.018109 0.112134 -0.035399 0.223219 -0.390369 0.213507 0.235934 0.206512 -0.113422 0.052584 0.101021 0.246978 0.275972 -0.370702 0.216645 -0.085156 0.044771 -0.002599 0.00698 0.192184 0.158655 0.250347 0.018359 0.30393 -0.041513 0.106862 -0.136267 -0.221251 -0.483494 0.15254 -0.096702 -0.144862 2.91E-4 0.180652 -0.106104 0.231765 0.213792 0.246332 0.080701 0.020617 -0.158609 0.088499 0.138926 -0.007719 0.286263 0.066371 -0.015705 -0.028935 -0.070236 0.0604 -0.465994 0.072478 -0.053772 0.220622 0.588348 -0.011551 -0.032319 0.071346 0.320478 0.179416 0.215827 0.195167 -0.12985 0.043267 0.119777 -0.231024 -0.139659 0.479702 0.040381 -0.085453 -0.054938 -0.075045 0.039109 -0.076944 -0.575707 -0.079121 -0.101881 0.010072 0.233172 0.12227 -0.127934 -0.336674 -0.022895 0.015666 0.043479 0.01872 0.206586 -0.223435 -0.280112 0.272812 0.331128 0.039351 0.050784 -0.184535 -0.019668 0.140341 0.046768 -0.012812 0.369878 0.006361 0.310977 0.143485 -0.120232 0.191584 -0.454585 -0.064587 -0.06809 0.323707 -0.158992 0.177472 0.42596 0.40201 -0.162074 -0.009077 -0.005227 -0.217507 -0.001163 0.113035 -0.267642 0.24645 0.084734 0.192623 0.192694 0.068006 0.323916 -0.146261 0.218841 -0.048794 -0.100648 0.067256 -0.099619 0.245695 0.23911 0.21642 0.241163 0.011539 0.046195 0.353108 0.132611 -0.044561 0.013749 0.306339 0.010098 -0.15882 -0.415244 -0.114229 0.060335 0.076166 0.23061 -0.107107 0.014562 -0.334128 -0.338154 -0.137043 -0.175454 0.230921 -0.024483 -0.017567 -0.031452 0.096113 -0.054157 0.019408 0.172608 0.032977 -0.062768 -0.05653 0.140893 0.017962 -0.218408 0.005081 0.366547 0.027642 0.006705 0.079084 -0.121579 -0.153019 -0.045373 -0.110754 -0.300565 0.202381 -0.098802 -0.198683 -0.539176 0.371995 -0.028749 0.165358 -0.389138 -0.167778 0.019561 0.071081 0.057591 0.056554 -0.118498 0.164785 0.058366 -0.040322 -0.154914 0.476224 -0.273834 0.163184 -0.047456 0.161703 0.120636 0.079601 -0.155889 0.290338 -0.243273 0.040149 0.186119 0.10914 0.107701 -0.03701 0.027291 -0.21126 0.06405 0.341506 0.046584 -0.103618 -0.039359 0.194787 0.070919 0.092592 -0.283306 0.019138 -0.242634 0.148367 -0.240661 0.21445 0.08314 0.080812 -0.089047 0.120139 0.43418 0.050049 -0.055878 0.047365 -0.085532 -0.16663 -0.191893 0.195349 -0.041602 -0.187955 -0.250185 0.265702 0.164689 0.151138 0.215364 0.047652 -0.046433 0.105976 -0.064622 0.215384 -0.067922 0.366384 -0.057156 0.205673 -0.09836 0.085457 -0.297313 0.063283 -0.152224 -0.147386 0.035346 -0.082546 -0.016961 0.017289 -0.383606 0.215297 0.225629 -0.140605 -0.132907 -0.155455 -0.184834 0.036812 0.215111 0.019533 0.079337 -0.392439 0.023256 -0.055113 0.122338 -0.177721 -0.186371 0.37413 -0.271708 -0.098274 -0.270278
treatment -0.198504 0.433975 0.293033 -0.031861 0.093627 0.080821 0.065768 0.180594 -0.099382 0.342 -0.052273 -0.114512 0.005892 0.160665 -0.02993 0.156148 0.040516 -0.255289 -0.068441 -0.195045 0.15928 -0.351844 -0.293431 0.076476 0.009524 0.293209 0.190316 -0.016928 0.206604 0.265191 -0.074864 -0.254638 0.098791 0.179509 0.365034 0.219384 0.137639 -0.038094 0.286664 -0.233801 -0.063158 -0.015087 0.058448 -0.283397 -0.079117 -0.100837 0.074413 0.092556 -0.062704 0.173918 -0.175508 -0.11491 -0.005335 -0.034109 0.151096 -0.211319 -0.156611 -0.071216 -0.095786 -0.304258 -0.129863 0.136232 0.07671 -0.229615 -0.365917 0.339467 0.075474 0.188663 0.182049 -0.051277 0.162412 0.010493 0.263164 -0.225384 0.010319 -0.052351 0.214513 -0.158911 -0.028738 0.230919 0.45233 -0.301405 0.153571 -0.1326 -0.20397 -0.032448 -0.10339 0.232588 0.24108 -0.0496 0.003367 0.049348 -0.0024 -0.191013 -0.17907 -0.078159 0.056643 0.328408 -0.100471 -0.113172 -0.114872 0.197636 -0.006119 0.036689 -0.098507 -0.418057 0.018131 0.13427 0.119784 0.085348 -0.264613 -0.211946 0.383218 0.104456 0.04045 -0.2715 0.135535 -0.606655 -0.454915 -0.032913 0.356983 -0.111718 0.041222 0.150238 0.174869 -0.215361 -0.051267 -0.21245 0.283661 -0.248585 -0.174217 0.019632 0.181783 0.028421 0.161455 0.038912 -0.251591 0.161307 0.182086 0.202221 0.435012 4.23E-4 0.055457 -0.042824 -0.041981 0.09423 0.20331 0.388246 0.211276 -0.178347 0.024864 0.567513 -0.182845 -0.200598 0.122269 -0.139531 -0.011353 -0.391416 -0.060493 0.052375 -0.038094 0.076377 0.059862 0.228481 0.094516 0.124758 0.109289 -0.083669 -0.116756 -0.139493 -0.087571 0.286054 0.220726 0.159336 -0.152828 0.063067 -0.128345 -0.199846 -7.98E-4 -0.128719 -0.040921 0.109936 0.134866 0.139795 -0.04563 -0.301774 0.29388 0.205015 0.027031 0.214819 -0.013705 -0.348427 -0.056317 0.175481 -0.10211 -0.137511 -0.329884 0.144667 -0.232388 0.00622 -0.066575 -0.20458 0.278885 0.023119 -0.142552 -0.404853 0.052251 0.369334 -0.101991 -0.328443 0.128081 -0.224462 -0.207539 0.169806 0.466836 0.031568 0.365328 -0.167791 0.411824 -0.10309 0.098738 0.266766 0.104951 -0.179582 -0.149265 -0.319512 -0.36632 0.180839 0.057747 -0.317296 0.265204 -0.030697 0.082755 0.214054 0.289381 -0.056313 0.040975 0.334046 -0.19856 0.044611 -0.155469 0.013558 0.068947 0.162457 0.025424 -0.135323 -0.486952 0.127996 -0.032246 0.343211 -0.078003 0.253812 0.140719 0.35774 -0.035639 -0.308556 -0.013226 0.004509 -0.089754 0.091358 0.074922 -0.10518 -0.15381 -0.191761 -0.053785 0.020689 0.207421 -0.052969 0.054676 0.139803 0.071457 -0.027692 -0.053031 0.082305 0.158613 -0.316777 -0.221997 -0.132693 -0.006017 0.085261 -0.150274 0.143547 0.078857 0.18335 -0.288316 -0.004443 -0.05792 0.091437 -0.051904 0.328144 0.437446 0.226572 -0.22661 0.250281 0.055191 -0.435864 0.023786 -0.096102 -0.14592 -0.039073
flight -0.379509 0.28925 0.340598 0.155067 -0.138197 0.163298 -0.088832 0.542829 -0.131221 -0.340111 -0.060745 0.169672 0.057776 0.067032 0.044723 0.138286 0.305501 0.010542 -0.018986 0.274603 0.079678 -0.335358 -0.256783 -0.262625 -0.170874 0.156838 -0.264943 -0.028417 0.045274 -0.025148 -0.008443 0.119759 0.113345 0.109829 -0.095203 0.117987 0.161802 0.358934 0.045647 -0.050093 -0.20461 0.242038 0.186447 0.120315 0.191467 0.129653 0.014149 -0.237113 -0.2776 0.151916 0.062712 -0.224787 0.608558 -0.146329 0.077113 -0.086002 -0.342413 -0.034684 0.016535 -0.053538 0.337959 0.012594 -0.564062 -0.288682 0.150567 0.326447 -0.23995 -0.024719 0.003999 -0.119627 -0.048146 0.144 -0.027479 0.139671 0.008116 -0.061605 -0.177114 -0.108406 -0.226633 -0.131144 0.306659 0.179852 0.230818 -0.059817 0.070139 0.266959 -0.173488 -0.433538 0.132932 -0.068373 0.11284 0.094323 0.065312 -0.210219 -0.409014 0.019263 -0.27862 0.109877 0.151231 0.336528 -0.119715 -0.066398 0.10153 0.125224 -0.086708 0.148743 0.207554 0.103762 0.200133 0.304872 0.014991 -0.017241 0.31437 0.074127 0.086394 -0.110819 -0.079124 -0.321936 -0.091929 -0.134273 0.174432 -0.026443 -0.240386 0.541008 0.14199 0.194157 -0.123954 0.154757 0.204577 0.152378 -0.053936 0.218494 0.183438 0.184153 0.085144 0.236047 0.026425 0.037832 -0.053972 -0.426454 0.368891 0.462614 -0.004187 0.264759 0.446822 -0.028519 0.141447 0.030674 -0.131336 0.441501 -0.115599 0.185387 -0.10764 0.005643 0.088479 0.044829 0.162585 0.03612 0.243718 -0.077864 -0.444661 -0.130692 0.351269 0.054645 -0.094444 -0.081193 -0.027908 -0.087181 0.147953 0.307122 -0.102008 -0.009921 -0.343362 -0.27047 0.229111 0.048135 0.026067 0.102917 -0.167346 -0.177048 -0.216718 -0.303726 0.11277 0.120194 -0.369299 -0.191969 -0.642273 0.028602 -0.052034 -0.325477 0.243744 -0.359351 -0.281172 -0.314812 -0.070386 0.004378 -0.069826 0.167004 0.224853 0.061532 -0.050692 -0.217812 0.170151 -0.034876 0.02545 -0.027787 0.128637 -0.137602 -0.134963 -0.061666 0.060698 -0.10938 -0.644614 -0.163261 0.110554 -0.1568 -0.053851 0.125513 0.397668 -0.010826 -0.495293 0.309628 0.264579 0.288564 -0.105238 -0.248944 -0.03883 -0.271373 -0.189975 -0.320859 -0.078711 -0.137995 0.28996 0.101411 -0.04662 0.3956 -0.079716 0.512314 0.387395 0.117449 -0.578721 -0.011845 -0.169183 0.212433 0.300295 -0.136332 -0.046973 -0.243275 -0.112558 -0.414047 -0.245892 -0.398698 -0.259839 -0.008989 -0.238571 -0.060417 -0.068029 -0.359392 0.179299 0.117484 0.47916 -0.179468 -0.211207 0.502526 -0.042085 -0.225754 -0.016948 -0.424686 -0.161924 0.178096 0.388366 0.015151 -0.173513 -0.165906 0.07682 -0.509124 0.345763 0.004383 -0.31638 0.278118 -0.246715 -0.027267 -0.098437 0.116101 -0.106739 -0.347024 -0.118411 0.0982 0.260375 0.137554 -0.09801 -0.045076 0.256183 -0.375667 -0.595628 0.045102 -0.34522 0.11206 -0.003491 0.025451
forest 0.146203 -0.042887 -0.306647 -0.38858 -0.001284 -0.035006 -0.135189 0.37565 -0.236693 -0.059112 -0.214646 -0.385366 0.414072 0.151524 0.219433 -0.04 0.188514 -0.111854 0.18943 0.05671 0.226633 0.059673 0.010952 -0.036919 -0.227825 -0.189149 -0.495719 0.124567 -0.059127 0.023595 -0.019041 0.074928 0.031136 0.098332 0.075442 0.213623 -0.179243 0.241366 0.12187 -0.059778 -0.296549 -0.085953 0.37907 -0.377345 0.053587 0.027675 -0.146633 0.143539 -0.20685 -0.38665 -0.288933 0.228546 0.25876 -0.197831 0.117711 0.28492 0.175643 0.156129 0.276492 -0.17816 0.179164 0.288599 -0.074886 0.259724 0.158054 0.545532 0.316543 0.32492 -0.031469 0.068348 0.037695 0.13448 0.214762 -0.217656 0.001355 0.163333 -0.204833 -0.639356 0.197071 -0.146759 -0.010211 0.411559 -0.148037 0.211882 0.103499 0.186574 -0.277252 -0.523927 0.083052 0.09983 -0.209899 0.034816 0.166812 -0.017894 0.077193 -0.040317 -0.290122 0.106094 -0.009898 0.142359 0.095093 0.037904 -0.223908 0.382697 -0.26043 0.198456 0.368314 -0.129501 -0.262195 0.263049 -0.138069 -0.243803 0.313168 -0.121835 0.160748 0.013655 0.15838 -0.026863 -0.16733 -0.385559 -0.283781 -0.237472 0.178535 -0.149708 -0.315826 -0.140826 0.440277 -0.023104 0.107094 0.218503 -0.225221 -0.09347 -0.028506 0.098186 -0.247401 0.362043 -0.229283 0.118293 0.022466 0.146317 -0.262963 0.293723 -0.191822 0.309878 0.192704 0.066693 0.147486 -0.029612 0.469088 -0.044644 0.022226 0.311232 -0.095358 -0.114854 0.17371 -0.228445 0.262386 -0.189892 -0.128531 -0.255809 -0.059257 -0.238493 0.127552 0.186116 0.24245 0.14342 -0.437897 -0.471839 -0.148903 0.602447 0.080055 -0.373155 -0.118705 -0.080486 -0.464913 -0.2108 -0.145387 -0.057975 -0.047383 -0.158775 -0.100493 -0.081592 -0.39119 -0.184161 -0.022493 -0.100062 0.288226 -0.466496 0.015576 -0.368926 -0.043065 -0.156771 -0.510053 -0.216256 0.05314 0.15802 -0.13359 0.064516 0.052083 0.153487 -0.125653 0.210252 0.444673 -0.267476 0.036685 0.063305 0.277631 0.107311 0.006544 -0.016563 -0.276951 0.032969 0.04923 -0.219833 0.166737 -0.343649 -0.048725 -0.020153 -0.274154 0.451845 -0.454541 0.114624 0.272696 0.27036 -0.137492 0.102491 -0.300488 -0.001319 0.407176 -0.164545 0.087783 -0.356796 0.125523 -0.38643 0.22706 0.193011 0.127466 -0.073028 0.298401 0.090864 0.092969 0.488047 0.223666 0.074494 0.133306 -0.305692 -0.184462 0.082536 -0.467 0.115561 0.057898 0.177488 0.396353 -0.075894 0.115024 0.334532 0.106574 -0.06671 -0.072548 -0.02517 0.474181 0.040182 -0.265455 0.334152 0.099225 0.074003 -0.108585 0.058277 0.142555 0.109915 -0.050114 0.158165 -0.224984 -0.010554 0.384544 -0.581781 0.065416 -0.086588 -0.091517 -0.194148 -0.332423 0.027371 -0.062304 0.040701 0.085483 0.076517 0.098633 0.018312 0.077022 -0.055695 0.118363 0.017651 -0.15896 0.277318 0.041731 -0.137238 -0.288161 -0.033829 -0.391881 0.330576
abuse -0.053241 0.027265 0.096508 -0.130703 0.170029 0.436666 -0.069862 0.333205 -0.17245 -0.068614 -0.042981 -0.120184 0.148341 0.087863 -0.255799 -0.089034 0.155887 0.010241 0.18742 -0.234577 0.229866 -0.314812 -0.238333 0.17508 -0.083383 0.13606 -0.033168 -0.001684 -0.02575 -0.421255 0.406596 0.095149 0.032485 -0.095581 0.048505 0.371819 -0.076853 0.48483 0.060324 -0.249156 0.09685 -0.007002 -0.028169 -0.201517 0.256597 -0.224249 -0.060384 0.049198 0.416704 0.347148 -0.307133 -0.671865 0.216067 -0.421239 0.277676 0.090484 0.1309 0.014607 0.096128 -0.149833 -0.021193 -0.254383 -0.132334 -0.398947 -0.080889 -0.025583 0.231044 7.87E-4 0.345053 -0.165574 -0.254809 0.05213 0.159665 0.186262 0.215293 0.299439 0.281453 -0.198887 0.034167 0.329584 0.348342 -0.465334 -0.04635 -0.634464 0.282029 -0.343946 -0.13847 -0.046284 0.054695 -0.225711 -0.038104 -0.130498 0.30474 -0.109313 -0.111271 -0.637699 0.029987 0.238572 0.193412 0.00882 -0.231919 0.109399 -0.019905 -0.059778 -0.620821 -0.194692 -0.00382 0.10617 -0.049993 -0.01647 0.17223 -0.545225 0.308314 -0.291277 0.001572 -0.012093 0.014673 -0.361572 -0.522738 -0.314297 0.35315 0.082493 -0.199729 0.028606 -0.212196 0.290598 -0.001423 -0.162984 -0.071758 0.158242 -0.084692 -0.106875 0.444389 0.138708 0.082113 0.171252 -0.330938 0.526539 -0.059184 -0.097532 0.208391 -0.198463 -0.139584 -0.066857 -0.116526 0.085714 0.444925 0.318323 0.065354 -0.068048 0.310377 0.573688 -0.251444 -0.205902 -0.033382 -0.289869 0.107685 -0.207731 -0.227724 -0.255282 0.016925 0.187666 -0.183208 0.119858 0.129765 -0.290765 -0.052992 -0.352271 -0.168159 0.112673 -0.083355 0.165254 0.304823 -0.216901 0.442884 -0.22199 -0.224824 0.057287 0.369411 0.428429 0.063419 0.018922 0.353235 0.051019 0.308324 -0.251112 -0.152221 0.05866 -0.099799 0.199775 -0.215932 -0.055897 -0.009099 0.047948 0.016163 -0.189759 0.106388 -0.012225 -0.484179 -0.151495 -0.167558 -0.188228 0.032549 -0.675546 -0.211107 -0.155072 -0.198879 0.1252 0.349459 -0.21859 -0.264018 -0.025829 0.070958 0.210353 0.358612 -0.363557 0.043845 0.129567 0.052825 0.061977 0.054722 0.393163 0.12586 -0.010016 -0.248562 0.077308 -0.475849 0.00209 0.182566 -0.025185 0.207346 0.045778 0.529447 0.480524 0.09319 -0.175921 0.078774 -0.060881 0.210962 -0.171677 -0.174123 0.07846 0.262335 -0.062304 -0.088426 -0.123242 0.129199 0.421233 -0.124183 -0.065674 -0.293089 0.524081 0.202871 -0.073017 -0.143895 -0.123539 0.266054 -0.021472 -0.13469 -0.087346 -0.118129 0.102999 -0.227081 -0.234786 0.031867 -0.019583 0.092268 -0.336375 0.001799 -0.049616 0.037979 -0.019529 0.333668 0.037289 0.202923 -0.137506 -0.110775 0.149134 -0.141186 -0.173686 0.301101 0.243997 0.181833 -0.020596 -0.013306 0.011762 -0.033017 -0.03515 0.197965 -0.328254 -0.025122 -0.09691 0.034009 -0.15377 0.181374 -0.180907 0.314918 -0.048893 -0.03773 -0.123585
criterion 0.356044 0.35805 0.098343 0.062473 -0.047502 0.126338 -0.17209 0.119061 -0.063469 0.011934 -0.139137 0.014958 0.227848 0.126129 0.219168 0.205326 0.38503 -0.179735 0.205048 0.110359 0.064979 0.066922 -0.132249 -0.237947 -0.411324 0.07891 0.321165 -0.118991 0.012971 -0.136195 -0.244957 0.214427 -0.258522 0.001701 -0.07547 0.068402 0.3555 0.324833 -0.11108 0.254532 -0.399132 -0.049173 -0.30956 -0.273138 0.223574 -0.108872 -0.037119 -0.178405 -0.189339 0.277372 -0.074732 -0.244783 -0.120307 -0.369598 0.261364 0.043014 -0.289578 -0.205504 0.001613 -0.107318 0.118232 0.549094 0.086946 -0.381701 0.169141 0.199021 -0.48363 0.247026 0.089729 0.163795 -0.161227 -0.277778 0.614508 -0.281741 -0.278149 0.27053 -0.171041 0.053504 -0.336511 0.22189 0.08866 0.059068 -0.099612 -0.160129 -0.236069 0.342228 0.025446 -0.167477 0.336024 -0.178406 0.10723 -0.157163 0.139228 0.094301 -0.17451 0.159614 -0.338692 0.090359 -0.185721 0.333054 0.31327 -0.110818 -0.382452 0.055847 0.155664 -0.032386 -0.204047 -0.271201 -0.409841 0.141566 0.359453 -0.02114 0.058034 0.11388 -0.314285 -0.20336 -0.332206 -0.076227 -0.191927 0.191621 -0.260516 -0.169242 0.28122 0.648199 -0.175451 -0.338543 0.050589 0.361583 0.301371 -0.208125 -0.31073 0.200861 0.046333 0.133775 0.493164 0.036488 -0.308327 -0.018335 -0.439811 0.005098 -0.29218 -0.085673 -0.011776 0.342931 0.459323 -0.247301 -0.015759 0.148735 0.182353 0.296836 0.271712 0.142695 0.209881 -0.182659 0.237217 -0.057249 0.299474 0.026454 -0.532523 0.146448 0.170744 -0.341569 -2.62E-4 0.337136 -0.261052 -0.304061 -0.373511 -0.103686 -0.271451 -0.316721 -0.434575 0.123222 0.654381 0.087399 -0.135768 -0.344288 -0.283416 -0.189419 -0.109616 -0.067951 0.084671 0.087269 -0.39793 0.115864 -0.039514 -0.109969 0.330071 -0.043519 -0.009705 0.221106 -0.310649 0.145865 0.055419 0.28948 -0.052944 -0.256597 0.063617 0.019917 0.079505 -0.301612 0.325933 -0.013524 -0.420942 -0.075179 -0.024488 0.24798 0.439508 0.605077 -0.031142 -0.444882 0.290838 -0.242084 -0.216641 0.259736 0.16644 -0.116281 0.16318 -0.550801 0.128059 0.128287 0.019126 -0.074583 0.192586 0.002512 0.012777 -0.353963 -0.467054 -0.083674 0.429632 -0.041803 -0.005669 0.041587 0.060385 -0.335456 -0.044439 -0.268168 0.315832 0.025427 -0.134591 -0.177846 0.007957 0.174894 -0.304418 -0.023098 0.477092 0.325632 -0.012531 0.112378 -0.018633 -0.359567 -0.182869 -0.11308 0.167286 0.273405 -0.036091 0.26239 -0.335476 -0.334703 0.288536 -0.03683 -0.374256 0.08163 -0.495486 -0.055341 -0.006693 0.348876 0.090449 -0.01927 0.289737 -0.314403 -0.145902 -0.382121 -0.01763 -0.362133 -0.625203 -0.17448 0.218583 -0.169408 0.294847 0.088101 0.097555 0.112939 0.159868 0.024474 -0.497415 0.330135 0.07092 0.692431 -0.083314 0.551831 0.042941 0.006219 -0.223965 -0.067348 0.163996 -0.429851 -0.060987 0.169898 0.031958 -0.148569
sea -0.009806 0.436709 -0.322633 0.036005 0.33373 -0.101618 -0.451962 0.158124 -0.005362 -0.232932 -0.025094 -0.438718 -0.186051 0.023025 0.328316 0.129771 -0.04656 -0.013177 0.14698 -0.07408 0.362436 0.120936 0.15506 0.14018 0.009859 -0.06065 3.08E-4 0.158653 0.249785 0.138294 0.433237 0.025639 0.143435 -0.164998 0.111903 -0.04753 0.38611 0.25382 -0.246782 -0.107395 0.010542 -0.363627 -0.014964 -0.064139 -0.145074 -0.041061 -0.158942 0.064053 -0.161282 -3.16E-4 0.001651 0.19164 0.464773 -0.26366 0.031226 -0.132912 -0.090439 -0.228968 0.193372 -0.270228 0.087998 0.142623 -0.3013 -0.396667 0.369471 0.141132 -0.020064 0.442311 0.064202 0.020483 0.068207 -0.086389 0.063816 -0.076651 -0.241353 0.097604 -0.174956 -0.466315 -0.045016 0.09765 0.222396 0.053555 0.007961 0.23431 -0.075162 0.166147 -0.259091 -0.299953 0.083514 -0.063329 0.063334 0.28872 -0.108506 0.204186 0.267675 -0.031709 -0.037864 0.085265 0.133874 0.056851 0.360377 -0.154543 0.183829 0.094346 -0.324434 -0.075371 0.394845 0.291895 0.118976 -0.135319 0.029293 -0.358885 -0.068848 -0.202471 0.241297 -0.045674 0.276974 -0.030487 -0.051651 -0.165664 -0.583241 0.184202 0.352017 0.048677 -0.01795 -0.201191 0.50272 0.479694 0.050799 0.222644 -0.047196 -0.012547 -0.335492 -0.018053 0.016492 0.425049 -0.195958 0.068434 -0.138469 0.026697 0.284092 0.429562 -0.03657 0.24371 0.018092 -0.192543 -0.005849 0.120619 0.336919 0.003486 -0.034799 0.288754 0.006974 -0.218727 -0.257192 0.025533 0.423665 0.004343 -0.361607 -0.052537 -0.293815 -0.04316 -0.092124 -0.194248 0.063515 0.124589 -0.118749 0.150694 0.040301 0.265296 -0.149646 -0.254679 0.185949 -0.057691 -0.286513 0.128557 0.317817 0.058479 -0.100677 -0.111521 -0.305327 -0.101557 -0.143957 -0.328435 0.513573 -0.002622 -0.032699 0.138649 -0.224155 -0.314333 0.32174 -0.070209 0.075025 -0.250552 -0.212111 -0.228961 0.227463 0.475878 -0.056875 -0.120068 -0.31075 0.127625 0.403969 -0.14249 0.403009 -0.015548 -0.123758 -0.156985 -0.221646 0.064217 0.128311 -0.163788 -0.071736 -0.297474 0.368929 -0.267129 0.115513 0.003007 -0.190789 -0.002564 -0.130218 0.170265 0.197612 -0.002818 0.256265 0.438379 0.054666 0.219467 -0.219594 -0.199313 -0.142612 -0.014935 -0.132276 -0.143805 0.297569 -0.172647 0.074657 0.130963 0.134479 0.171846 -0.405036 0.225818 0.206241 0.324111 9.64E-4 -0.027155 -0.187523 0.298714 -0.346521 0.383127 -0.119541 0.116732 0.305379 -0.032821 -0.057037 0.066271 0.028511 0.150876 -0.051966 0.328843 0.525702 0.103672 -0.158138 0.006747 0.429657 0.021246 -0.115363 -0.22474 0.04834 -0.046729 0.112287 0.105872 0.066135 0.208733 0.214968 -0.192021 0.186189 -0.030301 -0.158365 0.096612 -0.402198 0.242197 -0.113771 0.001828 -0.057316 -0.309479 0.323001 -0.187808 0.125264 -0.084713 -0.462477 -0.048037 -0.207491 -0.059767 -0.057821 -0.332777 -0.581508 0.039687 -0.392149 0.128505
dollar 0.397784 0.295013 0.408304 -0.320783 0.033453 -0.077064 -0.282667 0.415372 -0.100344 -0.168107 -0.091726 -0.412811 -0.156012 -0.197859 0.050814 0.108952 -0.042284 -0.059766 0.418289 0.164121 0.028127 -0.2983 0.197635 0.109515 0.039307 0.343793 -0.338524 0.165265 0.219141 0.061278 0.434567 0.239954 -0.020241 0.023738 -0.066034 -0.003679 0.048631 -0.013568 0.054744 -0.214194 0.052917 0.037167 0.047733 0.080543 -0.181493 -0.46125 0.137132 -0.053485 0.211619 0.133445 -0.126525 0.366409 -0.137541 0.043686 0.301072 -0.539192 -0.243135 -0.284414 0.596921 0.049699 0.11198 -0.192108 -0.017806 -0.56033 0.285206 0.173623 0.369686 -0.373143 -0.619387 0.332797 -0.136006 -0.043743 -0.234178 -0.022053 0.288218 -0.189903 -0.141833 -0.438507 -0.199357 -0.296992 0.104138 0.40911 -0.13651 -0.124693 -0.440854 0.372955 -0.141215 0.148131 0.156717 0.111803 0.339809 0.032927 -0.109362 -0.287874 -0.389903 -0.137301 0.250479 -0.216438 0.24343 -0.150448 0.101145 0.157907 -0.480917 0.233012 -0.235064 -0.221041 0.140285 0.248254 0.051333 -0.232414 -0.046157 -0.148821 0.294397 -0.008006 0.220075 0.339003 -0.049517 0.161341 -0.171696 0.117406 0.196655 0.157257 -0.176604 -0.269822 0.454306 -0.126275 -0.014628 0.08856 -0.324603 -0.562364 -0.488318 0.028009 -0.09984 0.179195 -0.055461 0.137608 0.060959 0.20014 0.104355 -0.135845 -0.251936 0.241156 -0.521916 0.371521 0.510827 0.146438 0.348885 0.199834 0.248588 0.151793 -0.055327 0.248671 0.232232 -0.441842 0.210738 -0.223404 0.075521 0.274949 0.201916 0.017384 -0.2809 -0.101195 0.12388 -0.123226 -0.544842 -0.141852 0.137748 0.014728 -0.435166 0.047946 0.174881 0.112513 0.228124 -0.081022 0.031392 0.119574 -0.15811 0.170235 -0.239402 0.10543 0.017096 0.132387 -0.270174 -0.136374 0.191322 0.329305 0.078859 -0.150819 -0.179013 0.280521 0.152017 -0.130916 0.215133 -0.116798 0.240541 0.049019 0.157946 0.147977 0.140952 -0.013215 -0.044452 0.094469 0.14334 -0.180514 0.138076 0.097358 -0.366613 0.097637 0.209665 -0.276767 0.152685 0.164798 0.121772 -0.300491 -0.117231 -0.816028 0.052975 0.004598 -0.109009 -0.536555 0.367577 0.002152 0.141868 0.486105 0.354603 -0.077795 0.110178 0.566615 0.325465 -0.071236 0.080865 -0.144123 0.4916 -0.1928 0.191249 -0.04092 -0.143087 0.053513 -0.107297 0.032274 0.584862 0.247141 -0.086947 -0.331629 0.419974 -0.431502 -0.060075 -0.359171 0.256396 -0.037804 -0.326281 -0.202865 -0.155092 0.290928 0.240568 0.329487 -0.122205 0.119942 0.070395 0.132855 -0.086137 0.060297 -0.062533 -0.307904 -0.165732 -0.028191 0.062069 -0.166001 0.015416 -0.335818 0.193913 -0.028866 -0.087241 0.004791 -0.033532 -0.476481 0.292123 0.199274 -0.515007 -0.206947 -0.007235 -0.022844 -0.196367 -0.023181 -0.346646 -0.065828 -0.040179 -0.342111 0.262038 -0.099166 0.08581 0.065742 -0.726126 -0.055245 -0.129497 0.254284 -0.459124 0.067217 0.28557 -0.257169
example 0.003364 -0.087306 0.013896 0.17522 -0.189374 0.189814 -0.207803 0.276202 -0.031598 -0.049906 -0.125562 -0.118639 0.229007 0.176515 0.139103 0.144637 0.160469 -0.157414 0.063061 -3.25E-4 0.121601 -0.094646 -0.336985 -0.015441 -0.223188 -0.046481 -0.3408 0.266815 -0.045583 0.408384 0.050669 -0.112516 0.031126 -0.00739 0.239911 0.048148 -0.042592 0.146478 0.047902 0.0459 -0.218935 -0.090266 -0.059487 -0.06259 0.256521 0.078153 0.092467 -0.175227 0.107143 -0.05548 -0.043507 -0.188443 0.084794 -0.017993 -0.038108 0.132389 -0.14353 -0.051691 0.23903 -0.189244 0.183131 0.204929 0.179725 -0.014602 0.144041 0.226063 -0.082578 -0.13383 -0.021147 -0.043665 -0.022497 -0.103049 0.265179 -0.160601 -0.131278 0.175841 0.183497 0.006433 -0.174054 -0.137382 -0.006209 0.089075 -0.100168 0.172912 -0.064263 0.112093 0.08624 -0.101883 0.187457 0.109311 0.10794 -0.078402 -0.068697 -0.122546 0.07167 0.055936 -0.081125 0.185435 -0.221824 0.317224 -0.132386 0.119544 -0.014631 0.042086 -0.082723 -0.020419 0.050526 0.145015 0.092323 0.204013 0.298867 -0.07099 -0.00911 0.046454 -0.112693 -0.103045 0.167736 -0.152855 0.076286 -0.131726 0.279451 -0.193068 0.030827 0.445493 0.248057 -0.414969 0.042657 -0.00446 0.134459 -0.003197 0.094199 -0.127959 0.128159 -0.103271 -0.063274 0.137062 -0.00396 0.189213 -0.259802 0.116359 -0.097841 -0.191223 -0.085026 0.122614 0.376959 0.278562 -0.088272 0.278657 -0.211395 0.118082 0.128073 0.142278 -0.057542 -0.190414 0.169862 0.15133 -0.064956 0.087243 -0.358302 -0.086346 0.204263 -0.057276 0.194236 0.050647 -0.094753 -0.107864 -0.404079 -0.261733 0.147363 -0.159061 -0.080623 0.166478 0.155197 -0.195623 -0.274774 -0.269128 0.104675 -0.022409 -0.091322 0.313116 0.139597 0.048539 -0.056306 0.356546 0.177781 -0.086081 0.07344 0.109154 0.11617 0.263815 -0.175518 0.129951 0.005129 0.018298 -0.049605 -0.139693 0.166979 0.171089 0.162745 0.090076 0.209599 0.066227 0.035344 -0.357181 -0.030938 -0.125499 0.033272 0.195963 -0.079859 -0.073221 0.100528 0.101836 0.038161 -0.024676 0.131149 0.13644 -0.036718 0.016301 0.187881 -0.029841 0.013836 0.245767 -0.047864 -0.085075 -0.202189 0.328532 0.173162 0.101083 0.046885 -0.128005 0.027652 -0.099438 0.001162 -0.074464 -0.110364 0.270785 0.039952 0.108364 -0.168631 -0.056974 -0.097451 -0.146854 0.136206 0.112663 0.062423 -0.257598 -0.099139 -0.071975 -0.071653 -0.071229 0.016197 0.124728 0.193665 0.331607 -0.163717 0.197206 -0.134672 -0.19827 -0.023339 -0.086107 0.059132 -0.094672 -0.267767 -0.043842 -0.043955 -0.058524 -0.015752 0.184763 0.240573 -0.202813 0.036307 -0.188712 -0.258607 -0.185315 0.046836 -0.036464 -0.100545 -0.082649 -0.05662 0.110563 0.115753 -0.023818 -0.090648 -0.117315 -0.182522 -0.264879 -0.067564 0.100048 -0.184424 -0.098356 0.100603 0.12599 -0.250281 0.141511 0.277409 -0.09112 -0.29159 0.419852 -0.121861 -0.206442
journal 0.134811 0.19814 0.413735 0.129723 0.140659 0.574996 0.170473 0.49687 -0.3994 0.383152 -0.651187 -0.129367 -0.017006 -0.273241 0.406969 -0.072587 0.188386 -0.368948 0.200613 0.311043 -0.32094 0.126513 -0.287402 0.32606 0.030488 0.282973 0.184838 -0.496276 -0.166756 -0.128752 0.652339 -0.503898 0.233584 0.104762 0.308636 0.376586 0.273553 0.453545 -0.007393 -0.11719 -0.034031 -0.311026 -0.121872 -0.09951 0.094108 0.230437 3.29E-4 0.106857 0.007065 0.111251 -0.344967 0.014498 -0.348245 0.190009 0.494679 0.29587 -0.237184 0.099486 0.072827 -0.262123 -0.243636 0.028324 -0.092648 -0.141062 -0.057025 0.251726 0.263164 -0.221056 -0.439719 0.47632 -0.298272 -0.151791 0.264838 -0.104976 0.015133 -0.298723 -0.261052 -0.305503 0.186383 -0.178864 0.515537 -0.134126 -0.092713 -0.059258 -0.187964 -0.154139 -0.120494 0.035352 0.386089 -0.069128 -0.165866 -0.589066 -0.163733 0.285696 -0.428391 0.199024 0.107288 0.167372 -0.358888 0.158259 0.2688 -0.379166 -0.053108 0.238662 -0.344446 0.047209 0.345233 0.687484 -0.003189 0.033991 0.325173 -0.338534 0.074313 0.233891 -0.232552 -0.511623 0.153527 5.46E-4 -0.044268 -0.392157 -0.03434 0.113244 -0.342217 0.44451 0.083485 0.087257 -0.009635 -0.489064 0.450241 -0.050719 0.522037 -0.211011 0.109223 -0.403881 0.133994 0.071158 -0.543118 0.14832 0.292007 0.146569 0.574917 0.210444 -0.666955 0.146953 -0.262737 0.090964 0.382753 0.132602 0.085955 -0.513767 -3.59E-4 -0.141539 0.048183 -0.339901 -0.042391 0.336486 -0.038087 0.022517 -0.468676 -0.228342 -0.752846 -0.309873 -0.050882 -0.101705 -0.655934 0.019796 0.337524 -0.257746 0.464054 0.231131 0.331268 0.049567 0.403377 -0.062567 -0.365865 -0.10542 -0.01612 -0.19493 0.229048 -0.467474 0.147289 -0.740958 -0.368854 0.011926 0.128416 -0.285632 -0.236012 0.56414 0.135435 -0.075515 0.038248 -0.147866 0.220505 -0.46588 0.159782 -0.247264 0.337732 0.344258 0.51725 -0.09234 -0.341115 0.058933 0.043744 0.079009 -0.647036 0.00958 0.00906 0.325647 -0.082168 0.235678 0.111527 -0.407281 -0.085535 0.116075 0.21251 -0.386862 0.243201 -0.63614 0.308288 -0.221419 0.17127 0.209434 -0.078051 -0.226912 -0.387494 0.050014 -0.209999 0.163423 -0.407532 -0.32789 -0.236014 -0.072759 -0.497266 -0.366609 -0.013529 0.022591 0.277453 -0.084143 0.259817 0.074799 0.248384 0.373358 0.428163 0.234942 -0.418659 0.184709 -0.051148 0.223529 0.215841 -0.319747 0.201826 0.13775 -0.183586 -0.102072 0.294403 -0.268826 -0.120811 -0.529904 0.449575 0.076926 0.724493 0.536527 0.294324 0.511381 0.263183 0.069745 -0.006498 0.293575 0.215481 0.246686 -0.050745 0.265722 0.245013 -0.092806 0.744725 0.398571 0.057649 -0.625078 0.103064 0.11767 -0.065604 0.042934 0.046022 -0.109388 -0.21815 -0.133795 -0.338696 -0.166328 -0.002734 -0.229515 0.138689 0.689226 -0.172091 0.143429 -0.070356 0.045993 -0.197027 -0.179198 0.073334 -0.180294
laundering -0.183888 0.220278 -0.23922 -0.214416 -0.161628 0.707663 0.337497 0.178092 -0.527571 -0.232083 -0.158507 -0.088455 -0.095713 0.022193 -0.17598 0.072104 0.26572 -0.253689 0.519004 -0.291951 0.175822 -0.457152 0.136405 0.070567 -0.079772 -0.429328 0.217992 -0.038567 -0.296324 0.212574 0.411467 0.367708 0.356123 -0.294444 0.241863 0.497705 -0.73306 0.017981 -0.194272 0.024369 0.134649 -0.202495 -0.044867 -0.204237 -0.225325 -0.393393 0.177351 -0.317213 0.049668 0.304619 0.288439 -0.130355 0.20364 -0.149577 0.141022 0.137321 -0.349111 -0.532024 0.354437 -0.47032 -0.496389 -0.471913 -0.144808 -0.433522 0.069941 0.24609 -0.032205 -0.655649 0.204162 -0.033388 -0.064036 -0.181184 0.243726 0.026537 -0.056613 -0.150591 -0.476137 0.332482 -0.348626 0.067708 0.424431 -0.253272 -0.352955 -0.332821 0.332554 -0.292371 -0.490051 -0.018216 0.766718 -0.498262 0.453102 -0.218839 0.277428 -0.608475 0.146136 -0.443383 0.419923 0.348011 0.105473 0.015246 -0.008134 -0.426604 0.141585 0.040333 -0.376467 -0.518494 -0.012782 0.18057 -0.323594 -0.172938 -0.121837 -0.144989 0.391982 -0.542335 -0.410432 -0.045018 -0.239122 -0.082502 -0.539108 -0.052727 0.338939 0.055359 -0.470395 0.021984 -0.210388 0.245282 -0.162444 -0.01079 -0.21761 0.157403 -0.258196 0.177057 -0.092009 -0.269876 0.067418 0.019125 -0.22682 0.101829 -0.165804 -0.173257 0.269833 0.104597 0.228639 0.174877 0.206181 0.168175 0.536601 0.1693 -0.224078 0.156411 0.467866 0.314633 0.244923 -0.357726 0.034345 0.365392 0.055314 0.426029 -0.153614 0.068459 0.167601 0.251088 0.169485 -0.446177 -0.158741 -0.405099 0.156083 -0.096327 -0.152576 0.11737 -0.372921 -0.593635 0.456211 -0.557756 0.438111 -0.309934 0.120152 -0.056407 0.190156 0.14797 -0.04916 -0.464213 -0.097356 0.044102 -0.10664 -0.288264 -0.188985 -0.160666 -0.248939 0.099249 -0.395875 -0.218869 -0.615952 0.290103 0.12013 -0.207741 -0.158603 -0.403477 -0.154956 0.72768 -0.14288 0.530165 0.405421 0.076892 0.092738 -0.235316 -0.067018 -0.476065 -0.074918 0.154702 -0.322254 0.291614 -0.078986 0.392028 0.274374 -0.038748 -0.31121 -0.438659 0.348341 -0.276851 0.900648 0.068449 0.029446 -0.08935 0.305973 0.330438 -0.308058 0.307116 0.290151 -0.326042 0.079505 -0.146642 0.499114 -0.142566 -0.264435 -0.037741 0.080031 0.245106 -0.202689 -0.080155 -0.161491 -0.011506 0.198949 -0.005924 -0.21118 -0.358681 0.224469 0.923471 -0.128501 0.158429 -0.471884 -0.136299 0.28901 -0.296795 -0.276728 0.080308 -0.005268 -0.070673 -0.089964 0.951126 0.173857 0.020242 0.186976 -0.027845 0.387885 -0.09465 0.527169 -0.318357 -0.121739 -0.009573 -0.019382 -0.015209 -0.066481 0.36889 0.036004 -0.402832 1.036739 0.325072 -0.106796 -0.277643 -0.254999 -0.206239 0.098474 0.088852 0.045122 0.178181 -0.182351 -0.250021 0.217376 -0.267602 0.237254 -0.057653 -0.252222 -0.247618 -0.108068 -0.194059 0.254922 0.01778 -0.09753 -0.343999
