437 300
plane 0.04018 -1.788419 1.045157 0.154735 -1.358902 0.873771 0.526562 -0.457746 -0.423568 -0.631642 0.563141 -0.604904 0.016255 -0.087922 -1.494451 0.816568 1.77213 1.460474 -0.227651 1.249769 -1.395323 0.058431 0.061773 -1.243406 -0.320424 1.563578 0.821455 0.048993 -0.98925 -0.884219 -0.829329 0.985039 -0.710764 -0.601273 1.561315 1.336599 0.477449 -0.50838 -1.012426 -2.148634 -0.673702 0.173184 -0.422605 -0.152724 0.820023 -1.560059 0.62311 1.197408 0.639329 0.396174 0.922925 -0.680888 0.69852 0.863811 1.55083 -0.514503 -1.053352 -0.115031 -0.482529 0.049649 -0.012965 -0.820409 -0.30333 -0.183149 -0.264395 1.611593 0.525849 -1.961976 -0.147283 -0.086084 -1.375884 0.462481 -0.708453 0.270314 0.045212 0.150425 -0.390174 -0.176003 0.394256 -0.398926 -0.37013 -0.012653 0.731109 -0.755066 0.502093 0.384071 0.735338 -2.340914 1.910685 -0.636155 -0.770436 -1.220156 1.07884 -2.335963 0.092891 -0.415946 1.362899 -0.413795 -0.81157 -1.441807 -1.549387 0.151173 -0.405818 -0.352517 1.364343 0.957568 0.45973 1.623644 0.792433 2.72374 -3.022702 -0.903896 -0.534475 -0.856878 -0.940792 -0.798569 0.614541 1.12562 0.508647 0.265345 2.332429 0.975318 0.33296 -0.347881 -0.746096 0.196873 -0.309495 1.681098 2.49118 -0.713868 -0.449825 0.668559 1.387156 0.515902 0.545205 -0.340728 0.893599 -0.383431 0.152714 0.870245 -0.436701 0.468137 0.442006 0.35437 -2.554235 2.024654 -0.13822 -0.510953 -0.76758 0.550977 -2.063981 0.272393 -0.129357 0.813853 -0.958563 -2.133049 -0.747844 -0.86073 -0.649342 -0.700743 -0.375336 -1.321576 0.269186 -0.04327 0.680374 -1.206839 0.038748 -0.594561 -0.133926 1.682642 -0.872231 -0.572853 -0.495503 -1.583547 -0.576268 -0.872102 0.933139 0.756421 -1.624236 0.100914 1.276982 -0.500818 -0.800147 2.845296 0.647599 -0.23612 0.680609 -0.43508 0.505794 0.810529 -1.639417 0.063079 -0.196112 -0.366234 2.150227 0.164601 -0.806301 0.610037 -0.577194 3.067511 -2.394506 0.050054 -0.934562 -1.258053 0.750232 -0.147279 1.029464 -0.913843 1.471293 0.080356 -0.682959 -0.089242 1.089092 2.344353 0.264377 1.787851 -0.20579 -3.025574 0.85853 -1.970952 -0.579525 -1.274118 -1.429303 1.929693 0.610151 -0.458485 -2.969483 0.613306 2.933735 -0.905397 -0.025584 -1.535937 -1.017859 1.254842 -0.876146 0.627148 0.954463 2.42959 0.527036 -0.876178 0.375722 -1.447145 -1.316592 -0.731337 -2.363587 -1.761888 -0.007854 1.158612 -0.322632 -0.468117 1.537864 1.116468 0.71643 0.289044 0.348219 -0.138458 -2.371912 -0.502302 0.555333 -0.073683 0.211803 -0.515782 -0.999635 1.498549 2.149094 -0.210692 -0.192288 1.149577 -1.15236 -0.04178 0.309621 -0.457452 1.770854 0.149304 -0.517488 1.169343 0.513623 -0.266632 -0.120372 0.318584 0.927886 0.281256 1.713868 0.256169 -2.616852 0.900044 -0.6812 -1.074223 1.800335 0.065455 0.315014 0.641009 -0.332215 0.074306 -0.374769 1.06314 -1.667538 2.329672 -0.687783 0.942611
stupid 0.494364 1.193377 0.187459 -0.202923 -1.794412 -0.64584 1.110487 1.828002 0.673277 1.076543 -1.393261 -0.896159 -1.159044 1.782316 0.678653 1.093501 -0.442267 -0.595559 0.883281 -0.303189 -1.310214 -0.754881 -0.388562 -0.359353 1.300705 -0.657963 -1.273623 0.919405 -1.527716 0.38052 -0.310821 0.981614 0.653848 1.557533 0.262024 0.881841 0.451899 1.395221 0.850374 -1.176661 -0.316322 0.929381 0.397145 1.832623 0.055031 0.444232 0.768391 0.423139 -0.389821 0.417818 0.261614 -1.023587 -1.083481 -0.530209 0.28027 -0.998931 0.47794 -0.55785 0.623565 0.595369 0.067258 0.355693 0.932727 -0.952253 0.105656 0.890152 -2.192353 -0.990171 0.86125 0.551152 -0.973605 -0.365504 1.298172 0.860786 1.642828 1.507004 -0.932756 0.1888 -0.414245 0.299737 1.074929 1.025671 -0.906144 -0.42381 1.318922 1.979561 -0.511415 -1.953828 1.327253 1.382885 0.256745 -0.12061 0.339031 -1.642554 0.279991 0.091643 0.543467 1.005028 1.242397 1.14493 -0.479233 -0.570213 -0.481266 -0.710877 -1.455648 -0.420101 -0.778345 -1.006174 -0.193839 -0.35067 1.193995 -0.200751 0.725189 -0.39152 1.180066 -0.649797 -0.18825 0.962797 -0.140479 0.691269 -1.181698 -0.346033 0.11555 1.096446 -0.56123 0.076458 0.489987 1.373631 -0.640126 0.25426 -2.169588 -0.160962 -0.600238 -0.371184 -0.502604 0.192027 1.067197 -0.162502 -0.96701 -0.631433 -1.666892 0.098505 0.482915 -0.620058 -0.620709 -0.698297 0.47203 0.296552 1.968308 0.431194 -1.038248 -0.562061 -0.401886 -1.122701 0.669923 0.35262 0.548669 1.741934 -0.664324 -0.563249 -0.559425 0.118504 -0.101532 -0.850959 0.361471 -0.316917 0.168686 -0.734508 1.261019 -0.091631 0.007969 -0.744706 0.311411 -0.817731 -0.406693 0.407543 -0.293171 0.172287 -0.08825 0.010294 -0.003219 0.140408 0.095675 -0.047492 0.58918 0.848622 -0.405113 -0.792119 -0.925909 1.20112 0.490806 0.692071 0.614404 0.142915 -0.455061 -1.546309 -0.977388 0.726799 -1.68496 -1.526608 -0.308565 -1.365406 -0.473997 0.007317 0.386117 0.707934 -1.192063 -0.160735 -0.775905 -0.718494 -0.316669 -1.025052 0.449392 0.340195 -0.406741 -0.476117 -1.413406 -1.319022 -1.450554 -1.039891 -1.045543 -0.084973 -1.061009 0.348434 -0.118693 -0.104858 -0.384835 0.568584 -0.532712 0.918907 -0.272976 0.46213 -0.575304 1.237232 -1.072991 0.349171 -0.569618 0.756361 0.102086 -0.29881 0.189633 -0.896565 -1.412051 -1.284008 0.311549 -0.516755 -0.080063 1.248916 1.130891 0.407707 0.41482 -0.47171 1.685527 -0.39439 0.788283 -0.259207 0.814273 0.72081 -0.355126 0.609746 0.355245 -0.747619 -0.245558 0.042221 -0.194942 1.462951 -1.414851 -0.970776 0.217278 0.14086 -0.837252 -0.206626 -0.606568 0.405199 0.099382 0.865799 -0.644663 0.586079 0.040039 0.328868 1.409826 0.985634 -1.12774 -0.146064 0.077827 1.107909 1.199257 -0.393707 -0.209896 0.103677 -1.897618 0.580561 1.534617 0.418883 2.225533 -0.856555 0.128034 0.636446 1.037865 -1.522719
egg -0.430544 0.502395 -1.095621 -1.361563 0.518154 0.181902 0.550893 0.012533 -1.536633 0.65871 1.403158 0.482611 0.490892 -1.042222 0.853937 -0.965896 0.626942 1.132283 -0.847582 0.536176 -1.192625 0.091373 0.249909 0.587571 -0.471793 -0.015448 -0.892008 0.267963 0.419814 0.054551 -0.979161 -0.182295 0.242273 -0.837958 -0.789116 2.292683 -0.375273 0.843333 -0.032655 0.817253 0.633169 -0.915233 2.250168 0.584767 -1.501636 -0.280341 -0.035709 1.777113 -0.230148 -0.194365 0.520603 1.755726 1.048374 0.191772 2.445392 0.209355 0.951975 0.307982 -0.154928 -0.133162 -2.030676 -0.016317 -1.194805 2.234504 -1.978813 -1.216934 -0.477644 0.966714 -1.076462 0.506098 -0.264938 0.114722 0.277208 1.035151 1.817257 -0.010758 1.059226 0.663961 -1.615947 0.372294 0.146622 0.272862 -0.650819 0.600288 1.0065 -1.044132 1.322334 -1.090948 -0.84593 0.573133 -0.387727 0.967147 -2.682324 0.680112 -0.42112 -0.185369 0.466704 0.65957 -0.239986 -0.083512 -1.562001 -0.933302 -0.664125 0.903087 0.66197 0.05673 -0.572373 -0.381257 -0.134221 1.623569 -0.373071 -0.122865 -0.013062 1.039598 0.397217 -1.385651 0.263866 0.019635 0.374708 1.887211 1.441045 -0.016177 0.751329 -0.263495 -0.133578 -0.356163 0.569787 -0.800627 -0.866741 -0.214426 -0.954399 -0.778276 0.768286 -0.363485 -1.589813 -1.022374 0.832109 0.662407 -0.665831 -0.521028 1.633119 0.513598 -0.004732 -0.239157 0.981696 0.127865 -0.96729 -0.342239 0.21936 1.114486 0.410742 -1.157354 0.196454 -0.089727 0.248101 0.269511 0.723092 -0.487059 -0.713701 -0.910236 0.610826 0.088668 -1.066179 0.472302 -0.119252 -0.748623 -1.972253 0.186781 0.193315 -0.585264 -0.144656 -0.188211 -1.294777 -0.246276 0.535497 0.025743 -0.462671 0.2939 -1.967837 0.467846 1.019878 -0.165447 0.074257 -1.936769 -0.480336 0.651233 1.518243 -0.331684 -1.466379 0.047322 -0.802518 -0.308989 0.796767 -1.158436 0.366327 2.157825 -0.718681 0.403986 0.080781 -0.146947 -0.730987 2.144858 -0.008014 -0.37715 1.123875 1.190488 -0.756544 -2.221614 0.795703 0.776906 0.196531 -0.403046 0.283121 1.99435 -1.254589 0.647754 0.207713 1.129586 -0.885178 -0.016166 -0.496033 -0.735249 1.43925 1.204198 -0.476663 -0.327374 0.457631 0.573065 -0.791477 0.79498 -0.968029 -0.856194 -1.226689 1.171678 -1.641586 -2.342031 0.490954 0.784789 -0.08575 -0.684403 1.297853 0.264046 -1.206413 -0.465698 -0.464045 -1.280038 0.378147 -0.064709 -0.272415 -1.474405 2.097907 0.161689 -0.894768 -0.911984 0.930418 0.227417 -0.514863 0.215081 -1.053723 -0.21344 -0.712102 -0.537621 0.181469 0.945447 0.259791 -0.788949 -0.485354 -1.059405 -2.035303 0.331481 -1.651234 0.414914 1.59707 -0.08637 -0.55045 -0.131702 -0.235211 0.132887 -0.983764 -0.873391 -0.60549 -0.266047 0.158687 1.496172 -1.483196 -1.23629 -2.007846 -0.747083 1.469827 -0.202514 -0.525569 0.056607 0.079638 -0.110898 1.599215 0.706058 -0.485399 1.322537 -0.156506 0.852659
year -0.331123 -1.036325 -0.306141 0.582059 -0.016804 -0.514363 0.355909 -1.072587 -0.266287 -0.605242 0.233929 -0.493919 3.454814 -1.468092 1.830214 -2.576825 -0.387696 1.247108 -2.998439 0.674596 -2.024744 -0.766818 0.136826 0.473397 0.317676 -0.684306 1.472236 2.102838 0.043466 -2.411331 -0.687186 -0.625587 1.262043 1.270552 1.060038 2.087098 -1.443324 0.437236 -0.188667 -0.070107 0.953007 -1.873724 1.418663 -0.036038 -2.06016 -2.37975 -0.370035 -0.304379 0.686335 3.379594 -0.504537 1.456063 1.804686 -1.465665 1.15908 -0.965925 -4.725461 3.178728 1.25333 0.28406 -0.509208 0.658048 -1.400409 1.811282 -2.379117 0.680209 2.387617 1.492928 -0.745696 3.60462 -0.079003 -0.419461 -0.084211 0.281608 0.754299 -1.43847 0.96538 -2.041096 -2.668081 0.98467 1.384752 -0.211837 -3.210461 -0.92854 -0.941916 -1.702408 -0.483641 0.476279 2.815026 1.960505 1.107745 -1.672428 2.985871 0.620977 -2.281403 -0.162641 1.892073 3.497683 -1.982545 -0.045973 -0.142616 -0.649078 1.506107 -1.54615 -0.143867 -1.920107 2.588652 1.444346 2.721912 2.078705 -0.573836 -1.63329 2.730752 -0.151021 -3.179527 0.43517 -0.40478 0.550218 -0.691614 -0.577708 -2.898509 0.845523 0.737476 0.660205 2.073544 2.693301 0.53593 3.105471 2.271208 -2.534554 0.127624 0.515784 0.065688 1.538419 0.469212 -4.180731 1.697699 -0.743498 -1.031413 -1.446029 -1.706715 0.276476 -1.565724 -0.808695 2.761198 1.077387 -3.961664 -3.986445 -0.814328 -3.662399 0.216312 -4.591517 1.795882 0.623569 -0.818098 0.340506 -0.937179 -0.840971 0.47086 -0.90024 -2.802917 1.65938 0.215106 2.523336 0.247414 1.242762 -0.334488 -0.265784 -1.828669 1.472003 1.506142 -0.030916 -2.015364 0.096746 -0.474724 -0.200253 -1.083488 1.608919 1.984094 0.77609 -0.987212 2.460513 0.140824 1.790302 1.39054 2.603588 1.513213 0.061102 -0.607386 1.851405 -0.895724 -0.967197 0.827496 0.689921 -0.898823 -1.322445 1.140241 2.54989 0.183059 -0.41185 -1.112956 3.384294 -0.039668 -0.94742 1.611626 -0.995847 1.901782 -1.893581 1.319214 -1.658945 0.899546 -1.90515 0.946074 -1.093311 1.232546 -1.377595 2.577065 1.938216 0.78781 0.391203 -2.647446 -0.353344 0.568699 0.886798 0.938195 -0.021848 2.136757 0.502298 1.109009 -0.852639 0.568074 -2.39312 2.346188 0.540993 0.749115 1.634424 1.431945 -0.556086 -0.884125 1.739155 -2.606259 -0.608989 2.384535 -2.441156 -0.889249 -0.659447 0.68905 1.393318 1.398839 0.056029 1.411774 2.465116 2.393741 0.566418 3.061113 -1.242239 0.525056 0.055243 -0.158178 -2.752024 -1.688264 1.042976 1.785581 -1.434889 -0.1778 -0.06771 -2.305289 -2.273586 -1.290117 -0.193984 0.176846 -0.907662 0.239763 -0.04929 -0.023915 -0.467235 2.374242 0.308008 1.707319 -1.509296 0.566278 1.483202 1.137963 0.020898 2.077196 0.98719 -2.779181 1.810173 0.595138 -0.60125 1.912786 -0.75016 1.407046 -2.478663 1.773188 0.882104 -2.198502 0.601197 1.864062 1.391026
psychiatry -0.283018 0.543739 1.493982 -0.56411 -1.197708 0.781777 0.796941 0.17827 -1.073423 -0.388187 -0.870583 0.202539 -0.320965 2.199769 0.095939 -1.282778 -0.184572 1.345685 -0.764924 -0.866412 -0.83619 0.476245 -0.548311 -0.39046 0.187922 2.217655 -0.265687 -0.176914 -0.426056 -0.034779 0.507512 0.155029 -0.176524 -0.33199 -1.202054 0.265177 1.002191 -1.305403 0.536034 -0.296356 -1.570111 -1.307934 -0.116305 0.792309 0.051694 0.360588 1.232679 1.368251 0.238742 0.263501 0.094515 -0.868235 -1.32957 -2.059531 -0.923586 0.923971 0.169704 -1.315708 -0.970566 -0.153347 0.099218 1.066134 1.220176 -1.224576 -0.139474 -0.7709 1.125158 0.433731 1.853301 -0.071863 0.415577 -2.144821 0.577492 1.255156 0.196238 -0.367142 0.643424 -0.473085 -0.430687 -0.031013 -0.078115 -0.071305 -1.127995 0.887294 -0.779304 -1.215185 -0.368275 1.949835 0.858088 -1.19847 -0.461459 1.155968 -0.705712 -0.131596 -0.482398 0.433657 -1.072846 -0.810653 0.030716 -0.348737 -0.471659 1.851336 0.10332 -1.314261 0.52798 0.932628 0.949044 0.638137 0.015878 0.866496 -0.691481 0.009097 -0.188326 0.763377 0.59849 1.139017 -1.357902 1.130586 -0.126052 -0.57816 -0.656592 2.043257 -0.644139 0.31855 0.233914 -1.505736 -1.522101 0.361714 0.663142 1.083431 1.863204 0.169172 -0.006076 -0.452255 0.226196 0.379811 0.232022 1.713091 -1.862876 -0.166723 1.458129 -0.855945 0.75007 2.219341 -0.130806 -2.121997 0.280388 0.808271 0.325684 0.838639 3.974269 0.835952 0.216279 -0.549101 -0.210518 0.166738 -0.164413 0.179115 0.102198 -0.128188 0.667908 1.331541 0.194065 -0.47681 1.1137 -0.709797 -0.018912 1.594179 0.019671 -0.751723 0.62838 0.069427 0.952743 -1.312386 -0.408117 2.031207 -0.718747 1.429115 -1.041625 -0.831441 0.504665 0.502911 -0.477288 0.206445 0.547161 -2.031432 1.043448 0.305893 0.529932 0.110496 -0.918845 0.567319 -0.934171 0.677586 -1.552429 1.5191 -0.297506 0.030769 0.511579 -2.205909 -0.315776 1.765324 1.267677 -0.664105 -0.409479 1.102585 0.028532 0.877098 -0.842166 0.630316 0.504707 -1.554059 -0.873656 2.291875 0.955743 -0.61926 0.199854 -0.296104 0.987427 0.20933 -0.971982 -0.540902 -0.263494 0.084076 -0.212288 -1.104482 1.028198 0.370499 -0.95873 -0.030846 -1.59545 0.037543 0.158748 -0.492824 -1.144104 0.727595 0.343845 0.76887 0.377031 -0.543644 0.955772 0.033743 -0.501851 -0.060754 0.618564 -0.756312 2.4154 0.781832 0.867226 -0.340638 0.840851 1.810252 0.181105 -0.308708 0.501927 -0.155694 0.338288 0.411374 -0.245765 -1.48353 -1.714321 -0.423956 -0.124112 -0.413781 -0.102085 -0.558798 -1.265023 -0.227574 -0.023439 -0.766679 -0.882523 -0.223895 -0.351395 -0.280925 -2.641999 -1.385231 0.641082 -0.79717 0.35898 -0.867278 -0.755043 -0.912233 0.398193 0.900724 -0.184814 0.249929 1.652949 1.667292 -0.493065 -1.796548 1.234058 1.449405 -0.426181 -0.661425 0.389111 1.352193 1.224984 -0.289163 -0.224521 -0.309362
asylum 1.002537 -2.618201 -0.482723 -0.727258 0.923363 -1.376723 0.971453 -0.963436 -1.952886 -0.882028 2.59141 -1.382741 2.594928 0.501163 -1.575838 0.266456 3.041113 0.632914 -0.60239 0.022242 0.055158 -0.256274 -0.43868 1.347065 0.641924 1.893688 0.43294 -0.661643 -0.103755 0.270094 0.388961 0.352562 -0.750646 -1.991495 -0.926977 2.017237 0.177019 -0.981037 1.56335 -1.513417 -1.856798 1.913624 -0.183999 -1.207738 0.175397 0.020542 -1.165632 -0.855392 -0.727147 0.157671 1.706946 1.170863 -2.029083 -1.182433 -0.226963 0.033965 0.938491 1.68833 -1.1612 -3.300668 -2.481026 0.492947 -1.994168 1.507842 0.742345 -1.531077 1.356695 1.81107 0.048619 1.831616 -0.007663 0.283028 0.191629 0.537905 1.210087 0.492951 0.643974 -1.527372 -1.294291 2.16085 -0.598398 -0.254824 2.664731 0.187261 1.113801 0.762567 0.306736 1.175352 0.138344 0.430569 2.728616 -3.317225 -0.224597 1.118256 -0.26124 1.684661 0.769371 0.168054 0.604669 -0.162915 -0.450786 1.729213 -0.431104 0.787578 1.252933 0.198735 -0.545168 1.832208 1.056252 0.246295 1.131261 -0.970598 -0.101392 0.085501 -0.301609 -0.931982 -0.30011 0.676349 2.396634 -0.989476 1.243354 -2.721116 -0.738138 -2.144836 -0.366846 -1.903836 1.593235 2.822917 0.863453 -2.185792 -1.635206 -0.730666 2.042568 -1.808232 0.225729 -0.363724 -0.666033 -3.284452 -0.319052 -2.292062 0.655934 -1.216339 -0.526991 0.014968 -0.842969 0.548522 0.844011 2.213451 -0.119778 1.483546 0.049088 -1.486252 2.478786 0.147997 -0.599229 -0.497152 0.017176 -1.395774 0.636231 -1.499716 -0.094277 -0.949548 -1.243404 1.908227 -0.644369 -0.583791 0.375275 -1.783369 -0.892598 1.861281 -1.604375 -0.941876 -0.313415 -2.65629 -0.721662 -1.965425 0.157314 2.05007 -3.326608 0.881438 -0.380905 0.030292 -1.037154 0.846776 0.401927 -0.273339 1.013491 -0.383236 -1.143624 0.070192 0.219218 0.538419 -0.901919 -0.805489 1.576745 1.023934 -0.827372 1.547351 -1.153752 0.102163 -0.279904 -0.447527 0.998288 1.364616 0.004334 0.799018 -1.178258 0.904606 -1.964419 -1.87245 0.255372 1.376213 -1.011201 0.282244 -0.465991 0.486121 -0.391419 1.092072 1.640374 -0.315489 -0.443383 -0.334365 2.105621 -2.04507 0.092246 -0.467821 -1.327779 -0.68721 -1.160984 -0.99989 1.843772 -0.90649 -0.165448 3.303352 -1.126175 -0.813106 3.944765 0.956942 1.424934 -0.097493 -2.372884 0.121837 -1.901981 -1.091818 -0.749353 1.380976 1.665235 -0.801665 -0.965361 0.402165 0.064969 -0.654664 2.23607 -1.441056 -0.37737 1.648154 1.376452 -1.026823 -0.765859 1.457903 0.846212 -0.009778 1.640453 -0.524818 -0.183935 1.553235 -1.325517 0.613251 -0.61347 0.276274 -0.700911 1.063521 -0.449186 -0.726249 -1.541876 -0.417921 0.173816 -2.706051 -0.395707 -0.449814 -0.983852 0.989716 1.426071 -2.428608 -0.7679 0.133364 -0.910035 -1.305946 0.066977 1.049648 1.719962 2.084996 -0.755964 -1.359027 -0.524446 0.091595 1.085337 0.138345 -0.954202 0.593263
manslaughter 0.586263 -1.077201 -0.153896 -0.875292 -0.136866 -2.059655 -0.492176 -0.708406 0.806127 -1.991112 -0.228081 -2.227358 0.403169 -1.028057 -0.194143 -0.330436 0.87714 0.550093 -0.474022 -0.463052 -2.415732 1.026049 -1.109509 -1.762263 -2.165306 -1.213746 0.994333 1.825196 -1.320712 -0.105308 1.933225 1.09339 -1.726419 -0.76639 -0.629455 -1.336316 0.785489 1.241894 -1.28472 0.12261 0.653673 1.586517 2.458906 -0.47515 1.896915 0.630201 1.643481 0.961743 0.341116 1.307123 0.572687 -1.230779 0.651964 0.184473 -1.473209 0.41963 1.310573 -1.556925 -0.064005 0.347638 -1.19865 0.250448 -1.483087 -2.191144 -1.033813 0.42459 -1.644911 0.451254 0.783765 -0.402956 0.244218 1.980339 -0.245509 4.111074 0.504816 -0.950843 2.03788 -0.405997 1.330541 0.080759 0.615607 3.209743 1.84405 0.642035 -0.457549 0.665662 -0.53629 -0.162912 2.601311 2.237619 0.094779 -0.085876 0.306947 -1.156468 1.833733 -1.777334 -0.758076 0.181618 0.338885 -1.392489 0.194464 2.893805 -1.268954 -0.878435 0.579019 0.316714 -0.473694 0.110296 0.44875 -0.648728 1.604682 -0.244023 0.902005 0.039291 -1.911475 -1.090136 -1.272803 0.150269 -0.767847 -0.323393 0.881828 -0.63382 -0.862311 -0.354123 0.86717 -1.375586 -0.832185 1.078941 1.422384 0.75932 -0.375052 1.042067 0.003549 -0.129001 -1.283095 -0.918093 -0.566323 -0.246657 -0.036707 0.425846 -1.908666 -3.573112 -1.130646 -0.184127 -1.052809 -0.731416 0.516332 -0.878 0.249623 -1.782897 0.671822 -0.020629 -0.721248 0.293425 -0.567169 -1.039961 1.07907 -1.930945 -0.338589 1.258425 1.072968 -2.115712 -2.71557 -0.012369 0.044144 0.641014 0.714292 1.310524 -0.725943 -0.420791 0.057537 0.748431 -0.871949 -0.368754 0.897759 0.554156 -0.778784 0.208104 -0.854864 1.955534 -1.658697 -0.057567 -0.605324 -1.503054 1.854688 -0.398024 2.485496 -0.454158 0.541551 0.909814 0.226267 0.279058 -1.949539 1.220852 -0.139705 1.347839 -0.928605 2.336386 0.082514 -0.584414 0.54555 0.203863 0.187364 0.442954 -0.831668 1.75097 -0.225426 1.049488 -0.332787 0.219616 0.149163 -1.293351 -0.519831 1.170278 0.441699 0.297272 -0.308805 0.374461 2.239328 -2.770703 0.16221 -0.989228 -0.273669 -0.00379 1.587038 2.284325 -1.350421 2.37003 -1.367858 -1.405292 -0.01375 -3.328937 0.175383 -0.363808 0.505031 0.456388 1.346116 1.232927 1.608607 -2.715371 -0.620402 0.320998 -1.728448 -1.152414 0.507158 1.404372 1.242831 0.49502 -0.350944 -0.20014 -0.399557 -1.964433 -0.176672 0.2569 0.855415 -0.322922 0.573008 -0.220205 -0.282439 -0.693538 -2.186819 1.176009 -2.577719 1.342088 0.658725 -1.991853 1.340868 -2.38917 -2.056117 -0.400716 -2.086145 -0.595523 -0.692003 -1.115695 -1.913417 -1.147583 -0.546481 0.927016 -2.2872 -1.052377 0.926402 -1.148828 0.715058 -0.091672 1.267017 1.370174 0.427535 1.66322 -0.901654 -2.200979 0.57911 2.697678 -0.42357 -0.453748 1.066643 0.236027 0.981859 0.612396 -1.836337 3.746621
music 1.011377 0.032229 0.688047 0.271905 -0.909921 1.142834 1.738208 0.58257 0.18607 0.918756 0.712794 0.001783 -0.135538 -0.259533 0.447082 -0.255896 0.431748 -0.204908 -1.390241 0.086945 -1.10475 -0.928238 -0.548598 0.934514 -0.741004 -0.041052 -2.052589 0.194664 0.379469 0.076272 0.092772 0.537881 -0.485449 1.204419 0.242306 -0.314848 -0.224818 -0.04634 0.712244 -1.031972 -0.968222 1.435415 1.251799 -0.363303 -0.489587 0.505429 -0.061416 -0.528824 0.882947 -0.644985 -0.977846 0.764333 1.233352 1.817249 -0.783325 1.05599 -0.323496 0.801263 -0.498606 0.958925 0.858965 -0.123173 1.76089 -0.748739 0.526688 -0.626326 0.694856 -0.402333 -1.049726 0.081239 0.984054 -1.172633 0.175523 -1.325881 -0.503017 1.214542 -0.135663 0.654628 0.161619 -0.564437 -1.277534 0.117663 -0.286884 0.526216 -1.170341 0.503162 1.014549 0.974646 -0.371729 -0.184502 -0.170964 0.863601 0.29012 -1.200058 0.509719 -0.619292 -0.106321 0.566691 -1.044489 0.780078 -0.417089 -0.002823 -0.634207 0.751367 0.793919 -1.285207 -0.993873 -0.337575 -1.029617 -0.715194 -0.622466 -0.805426 1.03444 -0.176005 1.282189 -0.394934 0.704022 0.277056 -0.208251 -0.683752 1.314583 -0.215776 -1.154086 0.061814 1.175683 -0.999723 -0.833577 -0.944845 1.023447 -2.392642 -0.424139 0.954117 -1.072728 0.390783 0.228327 2.027116 2.000652 1.701615 0.375336 -0.741267 0.258805 0.27056 -0.856657 1.543768 -1.390694 -0.423369 -1.213214 -0.064567 -1.017933 -1.604333 -0.293503 -1.388888 0.634584 -0.726611 -0.679019 2.061762 1.227339 -0.339039 0.319758 0.202163 0.585697 0.047302 0.171708 -0.629772 0.476063 -0.348395 -1.101019 0.107854 0.927751 -0.105705 0.59122 -0.981917 0.519467 1.072733 -0.514514 -0.832901 1.189471 1.435734 -0.92752 1.136276 0.309268 0.834487 -0.362197 -0.620776 -0.506962 0.803043 0.554366 0.742526 -0.756308 -0.01201 -0.062454 -0.370547 -0.135117 -1.186546 -0.970624 -0.313216 0.184174 1.532833 -0.766491 1.270913 1.07251 0.423955 -1.223481 0.773481 -0.485983 1.140327 0.527736 -0.508957 -1.038541 1.275592 1.924321 -1.076139 0.018211 -0.194968 -0.313184 -0.565272 0.143406 0.334532 -0.678419 0.44569 -0.125274 0.636928 -0.061469 0.48323 -0.26057 -0.798479 -1.207602 1.693218 -1.296779 1.333606 -0.918269 0.827977 0.564144 0.964848 -0.16194 0.013321 0.195644 0.510491 0.477239 1.746512 -0.970743 0.353795 -0.114952 0.790004 0.600735 -0.069896 -1.578881 0.559809 2.028812 -2.536947 -0.236252 0.597474 0.225923 -0.171742 1.396191 -0.006122 0.798077 -0.772037 0.408628 -1.148092 -0.496661 -0.533028 -0.350281 0.168217 -0.0177 -0.607582 0.489122 -0.364696 -0.941665 0.268387 0.096561 -1.953855 0.530426 -0.545623 0.252806 -0.523163 -0.797845 0.102779 1.308368 0.329114 -1.346327 0.358709 0.1489 0.774018 0.987229 -0.054162 1.078227 0.620392 0.083832 -0.174682 0.619005 0.146594 0.148143 0.68849 0.399357 0.902685 0.291679 1.018264 -1.027968 1.038655
record 1.25069 -1.524879 -2.474054 0.388813 -0.216283 -0.315892 0.923795 0.630197 -0.541577 0.209009 -0.639615 0.080445 -0.189969 -0.850475 -1.219536 -0.070169 -0.100232 -0.134222 -0.793653 0.161102 0.131446 -1.022773 2.295625 1.671774 0.560022 -0.617754 -2.333821 -0.528723 -0.598515 0.655222 0.530225 0.411374 -0.00327 -0.43816 -0.054098 0.727622 -0.717678 -0.885611 -0.734764 0.736719 -0.230949 0.944615 1.045191 -0.236161 -2.193655 -1.840944 -0.966384 -0.385926 -0.464054 0.029864 1.235084 0.321466 1.585701 -1.013031 0.449467 0.281454 -0.344953 0.556006 1.123029 0.371761 -0.270234 -0.386199 0.27301 0.728433 -0.32104 0.469103 1.798878 0.330218 -1.513859 0.700187 0.535662 1.692836 -0.236987 -0.369486 0.959704 1.258145 -0.021127 -2.730357 0.827083 0.359824 -0.616994 -0.504298 -1.058265 0.284214 -1.185816 -0.81548 0.246272 0.637375 0.508727 -0.484169 1.706756 -1.443073 0.883313 0.858946 0.343386 0.471129 1.262767 -0.611662 -1.405978 -1.388343 -1.044775 -0.997695 -0.070093 0.661089 -0.390745 -1.457937 -0.313538 0.036124 1.953131 -1.473837 -1.479779 0.705271 1.064703 0.985857 -1.93272 -1.49644 -1.254205 -1.212147 -0.18333 1.436807 -1.113355 1.03639 1.000279 0.556871 0.251738 0.070663 -0.113653 -0.510179 1.620425 -1.903614 0.117698 -0.734829 -0.225175 -0.198421 0.228711 1.895785 0.588444 2.648371 0.863443 -0.366822 1.376428 -0.754387 -1.958319 0.285851 0.704165 2.42356 0.164015 0.861292 -0.730841 -0.573818 -0.936568 -0.725366 0.887612 0.151064 0.552324 -1.302953 0.299578 -0.804738 1.531801 -0.438126 0.232837 -0.261918 -0.212658 0.19483 0.941804 -0.425936 -0.642107 -0.040806 -1.31364 -0.305091 -1.639881 0.882737 0.364811 -1.071562 -0.209554 0.066645 -0.695808 1.086866 -1.089927 0.333961 -0.918116 0.483067 0.351706 -0.078584 -1.311152 0.833164 0.21581 0.068282 -0.171353 0.361101 0.547951 0.055943 0.081307 0.640078 -1.43104 0.367116 0.607866 1.694699 -1.158416 1.06209 -1.308489 1.129584 -0.626783 -0.110979 1.70209 1.589555 -0.824297 0.162793 -1.073709 -0.801376 -0.464748 1.090467 0.094756 -0.178254 -0.31552 -0.222989 0.716302 0.30605 -0.738898 -0.268191 -0.097509 1.399918 -0.327314 2.377716 0.081692 -2.266774 1.200362 -1.853838 0.462403 0.818379 1.504371 2.301822 0.771919 -0.1877 0.331636 -0.680865 0.9833 0.751593 -0.939591 1.176809 0.898119 0.619927 1.802764 -0.232291 -0.376705 -1.079512 1.930864 -1.83882 -0.226458 -0.384734 -0.170943 -0.661795 -0.437836 0.593463 -0.926874 -0.242605 -0.793472 -1.347057 1.190038 -0.350978 -0.780559 1.642343 -0.80229 0.920278 -0.550215 -0.532275 -0.680867 -0.318377 -1.382444 -0.190866 -0.601275 0.204037 -0.532479 -1.081584 0.447516 -0.645122 1.354641 0.48311 -0.197579 2.074899 0.859844 -0.504729 1.673815 1.522081 -0.604468 -0.29134 -0.141808 1.75861 -0.06276 -1.005985 1.437548 0.895853 -1.029366 1.659823 1.469692 0.010228 0.433377 -0.722739 -0.235732 0.876186
energy -0.340203 -0.546082 0.301635 -0.126325 -0.266643 0.135842 1.83749 1.759673 -0.593001 0.241859 2.018544 0.014307 1.231695 -0.873691 0.881212 -0.175977 -0.838296 0.484416 -1.813526 -0.220708 0.064368 1.18849 2.522893 1.156049 0.688967 0.836722 0.168489 -0.536881 -0.626427 -1.656782 1.391807 -0.543958 0.587644 0.733323 -1.749649 -1.280449 -1.822194 0.925759 0.392841 -0.424693 1.232772 0.214135 0.391191 -0.377148 0.248607 1.498146 -0.411274 0.762394 -1.074109 -0.685637 -1.970899 1.258999 0.481651 -1.169783 0.049403 1.137215 -2.701446 0.711519 0.584195 0.0538 -0.218124 0.517961 0.263301 0.016607 -0.489706 0.034539 0.233526 -0.101523 -1.096469 0.231522 -0.971813 0.175836 0.84316 -0.087379 -1.210403 -0.565646 0.450392 -0.232374 0.604492 -0.827509 -0.591357 0.369071 -1.059296 -0.779297 0.509 -0.324126 1.575318 -1.665656 0.326583 0.278118 1.215532 -1.513337 -3.570532 -0.215154 -0.548352 -0.054928 -0.419815 -0.304202 -0.710704 -0.041004 -1.063734 1.083955 0.329283 0.36873 0.007405 -1.2704 -0.488043 -0.755284 -1.304733 -2.595175 0.082063 0.693565 1.42797 -1.420024 0.225802 -0.575492 0.939148 0.074336 0.362367 0.042443 -2.591619 1.018484 1.493616 0.146351 -0.346964 -1.545034 2.494417 0.356976 -0.386478 0.715274 0.446151 0.257617 0.550064 -0.124925 0.532946 0.144904 1.031196 -0.697505 0.319824 0.597835 0.587498 -0.801113 0.552698 -1.112729 -0.57467 0.00898 -0.049985 -0.998418 -0.043867 -0.806074 -0.724106 1.320272 1.590776 -1.004927 -0.460041 0.61601 0.056944 -0.376734 -0.268732 1.826875 0.65382 -0.207146 -0.142108 0.10904 -0.06989 0.876361 0.712831 0.652318 -1.192144 0.191335 0.459469 0.682983 0.264651 -0.417942 -0.4691 -1.694927 -0.906361 -0.218649 -0.188223 0.102887 3.16719 0.3155 1.363328 -0.029926 -1.215037 -0.011908 0.56479 0.470482 -1.299964 0.883064 -0.860205 -1.244706 -0.397786 -0.477181 0.24518 1.736538 -0.845694 -0.981393 -0.042738 1.199032 -0.77675 -0.169905 -1.01873 0.883197 -0.868939 1.248386 -0.098027 -2.737893 -1.707143 -0.541632 -0.325789 -0.449964 0.596163 -0.760067 0.286823 -1.150105 -0.060545 -0.840251 -1.040593 -0.518396 -0.178791 0.068774 -0.001509 -1.797399 -0.170563 -0.322097 1.531293 1.179006 -0.92676 0.465686 -0.164984 -0.826497 0.013991 0.49065 -0.326218 0.094725 0.35095 0.069334 -0.103935 2.167387 0.604661 -0.205454 -0.404424 0.806626 0.480215 -1.305712 -0.127498 0.237844 -0.741856 -1.369944 0.590055 1.030614 -0.583574 0.299572 1.38899 0.916555 -2.401298 -1.142662 0.222226 -0.355653 -0.822222 0.784889 0.974132 0.530817 -0.188201 -0.397087 -2.158386 1.707889 -0.028372 1.501837 0.188554 0.033568 0.4782 -0.487132 0.767761 -0.738293 -0.19345 -1.63664 -1.932564 -1.051849 0.703217 -0.543236 0.651181 -0.12876 0.194708 -0.263332 1.734098 -1.570386 -1.176009 1.111671 1.021642 0.794567 -0.275176 -0.929546 -1.187695 1.670578 -1.136729 1.932039 -1.415535 -0.518367
announcement 1.999775 -0.180459 0.480748 0.779023 1.061991 -0.267481 1.065792 1.290036 0.114055 0.915921 -0.225946 0.688351 0.282272 -0.074577 -1.642953 -0.628839 -1.995777 2.001265 0.967174 -1.419724 -1.448583 -0.151799 1.225981 0.396198 -1.719685 -0.723815 1.714309 -0.651558 1.968069 -0.299667 0.423919 0.618155 -1.507762 0.976731 1.349745 0.873811 -0.920104 0.586246 -1.180918 -0.495236 -0.699299 0.672221 -0.278704 0.264123 0.966589 -0.588072 -0.249735 0.784534 0.907521 0.753163 1.601539 2.29336 0.677685 -1.324476 1.76893 6.88E-4 -0.595199 0.460207 0.830255 -0.352668 -1.842643 -0.463874 0.432477 2.086801 -1.416942 0.458309 0.546628 -1.810156 0.397358 1.020755 1.168448 1.16676 -0.213259 0.650863 1.974255 -0.06647 1.068285 -0.907772 -0.389179 -0.415121 1.022759 1.075329 0.44396 -0.231481 -0.192026 -0.556534 0.300484 -0.432304 0.619281 -1.109168 -0.260663 0.971324 0.633151 0.517056 0.94108 -1.168746 -0.129653 0.415492 -1.396098 -0.249061 -0.512946 0.711735 0.370694 -1.091172 1.105428 2.28474 1.178543 0.135855 1.720219 0.614703 -0.350842 -1.068032 -0.197658 0.070707 -0.434972 -1.323693 -0.122568 -1.465447 0.346848 -0.437808 0.280588 -0.120147 -1.182451 1.095621 0.696414 0.289637 -1.452307 -0.003865 0.521605 0.199037 -0.332268 -0.971652 -0.624751 -0.45954 1.16757 -0.357608 0.247867 1.976617 2.493911 -0.35813 1.550229 -0.659038 1.140695 0.414342 -0.407653 -0.118296 -0.215236 -1.111491 3.499997 -0.986136 0.840131 1.913515 -2.684581 -1.095277 0.05875 2.316548 -1.132755 -0.701662 0.776884 -1.906883 -0.321852 -0.343646 0.913627 -0.84067 -1.371534 -0.747256 1.017064 1.050334 -0.333852 0.811756 -0.223321 -0.205192 1.001133 -3.074177 1.734355 0.94345 1.227462 1.664152 1.655494 -0.99155 -0.335704 0.8159 -0.558213 1.787002 -0.367762 1.400641 1.611451 0.211139 -1.657078 -0.895061 -2.071117 0.134509 0.667932 -0.241248 -0.193489 1.848408 -0.131385 0.73012 0.415598 1.169458 -0.401271 1.158332 0.111761 0.963956 0.045796 -2.131512 2.097871 -0.384785 1.305588 -0.050296 -1.192798 0.303327 0.13994 1.818634 2.067432 -0.151277 -1.935997 0.665353 -0.255763 -0.809512 0.199401 -1.505009 -0.288188 0.935495 -0.951067 -0.862067 -2.338954 0.546087 0.733697 -0.085611 1.040337 0.692986 1.006582 -1.363587 -0.309366 0.395254 1.602207 1.409545 -1.233211 -0.281108 -1.687886 1.463816 -0.075723 1.163111 0.426283 -0.090255 -0.17113 -0.657159 -1.098954 0.740351 -1.169343 1.044075 1.772401 0.845631 0.852585 1.004387 -0.32016 0.284376 0.700183 0.976938 0.748245 0.173211 0.554793 0.314124 1.980971 0.132042 -0.716832 -1.91308 -0.129096 1.783359 -0.291977 0.945269 -1.124546 0.656009 2.507104 -0.822064 2.864554 -0.359346 -1.997218 -0.943227 0.816037 0.888527 0.980379 1.534386 -1.596447 0.042096 -0.090025 -1.06452 -1.502129 1.208378 0.883087 -0.997245 -1.346514 2.392046 -0.996185 1.730288 -1.837818 0.949965 -0.17927 2.156123
mile -2.323946 0.051623 -1.17136 -0.782202 -1.539366 -0.235117 0.361328 0.191486 -0.630398 0.326711 -1.033663 1.322056 0.830062 -1.229119 -2.263438 -2.809609 2.192642 1.224202 -0.292334 0.383599 -0.481783 -1.014076 2.391484 -2.308708 0.85459 -0.359517 0.656788 0.07898 0.408154 -1.89425 -0.483255 0.212554 -0.587189 0.833793 -1.144314 0.04156 2.52014 -0.455098 -0.981047 -0.163738 0.285899 -0.614272 1.531032 0.432962 -1.338188 0.828191 1.717345 1.769865 0.93549 3.195283 2.097336 0.340943 1.050639 -0.264031 -1.435767 -2.235636 0.140058 0.221303 0.626117 -0.419727 1.377536 1.179984 -0.574721 0.327145 2.213383 -0.583044 -0.516057 3.73228 -0.567913 0.023763 -0.098184 -0.455038 1.324621 -1.698527 0.93014 -0.682036 0.686619 -0.532426 0.259332 0.255237 -1.374434 2.485644 0.167956 -1.86236 0.682226 -0.82091 -0.035739 0.277567 -0.588053 -0.348274 0.322307 0.813047 2.098853 -1.574203 -9.9E-5 1.767937 1.895202 -0.568196 -0.061311 -0.186035 -1.961987 -0.623804 -0.296088 0.113077 2.058372 0.570027 0.18955 0.353427 1.443391 0.054813 -3.254851 -0.893312 -2.075516 -0.471411 -0.949342 0.689819 -0.750999 -2.355253 -1.83302 3.400865 -1.606125 1.231136 -0.054095 0.70282 -1.384796 1.254294 0.800479 -0.858884 0.515199 2.716224 -1.611805 -1.339739 0.148194 -0.471668 -1.002857 -0.412665 0.377953 -1.376158 -1.372841 2.545247 -0.208221 -0.69843 -0.869388 -0.752153 -0.350041 0.59237 -2.481407 -1.372409 -0.153309 -1.468898 0.620362 -0.683564 0.449178 2.132939 0.923843 -0.51483 0.52355 -0.969269 0.477628 -0.045384 -1.88942 -0.295512 -0.174687 1.457647 0.219434 -1.998045 -0.287617 -1.883828 1.771916 -0.051209 1.000554 1.460288 -1.076811 1.219793 -0.016455 1.89516 -1.401425 -2.085287 1.805623 0.814788 0.764162 -0.103116 2.480437 -0.286758 -0.80983 0.24383 0.647594 0.454756 -0.559631 0.365996 -0.676599 0.669467 -0.846986 -2.008639 -0.928258 -0.752668 0.463106 0.855405 -0.559561 0.581141 -0.398487 0.335784 -0.757408 0.619993 0.227214 1.079589 1.088199 -2.40248 1.512769 0.605216 -0.362494 -2.927267 0.666451 0.977338 2.306004 0.058862 1.8986 1.040156 0.987646 0.489878 -0.637839 0.642696 -0.447982 1.019571 1.76533 -1.169188 -1.604388 -1.668679 1.039104 -3.326822 0.268667 -1.560049 0.419446 1.713899 -1.290509 1.86875 0.545238 1.606075 -1.612398 -0.496242 -1.905836 -2.423183 1.808506 0.102864 -0.808165 -0.604481 -0.283851 -0.071684 2.382088 -2.052943 0.317358 0.508094 -0.167822 0.62889 2.297384 -0.864466 -0.386171 -2.599432 -1.949692 -1.131143 0.403969 -0.532189 -1.309891 0.293344 0.60436 -1.315757 0.049808 0.777939 -1.600817 0.338885 -0.478694 0.069985 1.467535 0.021501 0.293047 1.12678 0.338885 0.720301 0.242199 -0.720014 0.010737 -1.784352 2.112366 -0.151229 -1.686348 -0.486782 -1.308078 1.148165 0.792682 -0.765705 0.315912 0.135696 0.314019 1.852111 -0.473238 -0.9237 1.012047 2.070144 1.049317 -0.902525
airport -0.785991 -0.99209 2.398995 0.173969 -0.582823 1.733077 1.007354 -0.415368 -0.651593 0.963844 0.036774 -0.59862 -0.616618 0.724039 -1.411544 -1.126867 0.966052 1.402006 -0.684632 0.13211 -0.030129 0.257791 -0.615398 -0.988472 -1.210283 2.382981 0.177421 -1.57577 0.64025 -1.649997 0.350494 0.15037 0.545391 -0.742213 2.282884 0.552386 -0.481689 -0.031226 -1.912166 0.187114 -0.984047 0.223464 -0.988321 -0.798061 0.139663 0.076245 -1.349054 2.471035 -0.745066 0.872055 1.325158 0.072069 1.370855 0.435869 -0.10012 0.408763 -1.073127 0.163464 -1.200326 -1.646127 0.428815 0.296071 0.943723 -0.89181 0.062845 0.809833 -1.553005 -0.341513 -0.136423 0.645773 -0.294973 -2.147946 -1.542973 0.833477 -0.73771 -0.577653 0.591861 0.469349 -0.30467 -0.09706 -0.988537 -1.138774 0.21082 0.380136 -0.796338 1.161645 0.965755 -2.346618 1.664144 -0.849406 0.892852 -1.204274 0.129552 0.371005 0.834269 0.613056 -0.393208 0.439938 -0.401737 -1.330317 -0.229302 0.821048 -0.722215 -0.971574 2.162443 2.070576 -0.717832 1.008388 2.413956 1.109623 0.765041 0.530101 -1.135052 0.721809 -1.719801 -0.651608 -0.383815 -1.074301 0.451469 1.900873 1.206169 0.279886 1.047835 -1.577421 -0.353159 2.674879 0.931119 0.318543 0.994341 0.333346 -0.668571 0.108726 0.674189 -0.127183 0.182864 -0.391407 0.063665 -1.383348 0.6291 0.77449 0.328239 -0.26864 0.133447 1.493274 -0.929548 2.387245 -0.451542 1.021858 1.107046 0.13656 0.433668 -0.657262 -0.415602 0.683537 -1.407112 -0.218472 -1.679491 -0.200066 0.25798 -0.500552 -0.241627 -2.02751 0.40011 -0.12967 -0.764924 -0.735708 -0.352783 -1.411738 0.936307 0.17556 -1.270695 -0.597456 -1.114794 -2.06107 0.343727 -1.624965 -0.735395 1.168622 -1.81385 -0.214348 0.267892 0.246641 -0.31795 1.596885 -0.337723 -0.009348 0.817244 0.73402 -2.430511 1.277658 -1.049681 -1.097555 -0.872041 0.363611 0.562167 2.360213 -0.999302 0.518671 -0.376351 0.894574 -1.164017 -0.322163 0.254165 -0.879884 0.793591 -0.547546 0.526164 -0.390922 -0.255565 -0.204602 0.663673 -0.112112 0.595317 3.631081 -0.620984 0.027268 0.756706 -2.124979 0.108275 -0.818482 -1.085554 -1.223166 1.281345 0.307345 -0.514088 0.103557 -2.521969 0.587548 0.136577 -1.899393 0.303846 -0.243057 -1.075475 0.06652 -0.135359 1.621434 1.067282 1.402196 -0.847815 0.102431 -0.26647 -1.924035 0.669363 -0.031321 -0.935184 -1.881263 0.409228 0.54942 -1.208345 0.143222 1.218269 -0.722283 0.506786 -0.185075 -0.153243 -1.154569 -0.684728 -1.031099 -0.770932 0.251929 -0.965676 0.575726 -1.019533 -1.128354 0.406052 2.028924 1.194432 1.156625 -0.856344 1.217074 0.344664 -0.759011 1.399681 -1.438123 0.198902 0.605461 -0.781287 -1.722044 -0.058273 -1.17487 -1.100147 -0.495245 1.321879 -1.205536 -1.392038 0.869116 0.697166 -0.225513 0.184776 0.201717 -0.482663 1.480928 -0.132504 -1.339269 -0.492759 0.654185 -1.379741 1.862892 0.137918 0.144981
population -1.497729 0.057573 -1.256747 -1.894518 0.585106 1.912987 1.11465 -0.658838 -2.794311 0.318203 -0.229771 -1.738648 1.611241 -0.107156 -0.214437 -1.666271 0.599072 0.662371 -2.964116 -0.144069 0.728634 0.353259 1.956533 0.155772 -1.590309 1.159105 -0.027473 0.408121 0.178433 -0.532268 -0.78818 -0.629541 0.260659 2.293099 0.047566 0.867708 -1.064311 0.575548 -1.823814 -1.293429 0.86178 -0.881759 -0.865337 -0.960063 -0.335897 1.672676 -1.075444 2.691136 -0.858476 1.79783 -0.401819 -0.770043 0.084252 0.797042 -0.216126 0.365171 -1.924901 1.467003 2.447422 -0.203276 -0.012673 -0.546199 0.445693 0.61899 -0.917006 -0.407185 0.851167 0.228988 -0.717375 0.465018 -0.0759 1.11965 -0.502412 1.416031 1.355637 2.194567 1.184921 -1.465618 -0.469863 -1.98607 -0.284616 -0.43331 0.623864 -2.316733 -0.654718 -1.383222 0.281452 0.550578 0.279791 -0.103264 0.595049 1.513448 0.530636 -0.551065 -1.545401 2.542958 -0.068755 -0.820024 0.377029 0.547816 -2.106892 0.729328 -0.549292 -0.004852 0.600981 -1.880656 0.639977 -0.871256 1.433992 2.159507 1.362873 -1.187148 1.906502 -1.301986 0.481367 0.946908 0.465209 0.92131 -0.655903 0.469832 1.469994 0.441095 -0.365579 0.168478 -0.395172 -1.245011 1.184255 -1.298546 -1.160835 -1.385016 1.110373 -0.415486 1.705659 0.46905 -1.68327 1.543534 1.38435 0.819899 -0.123187 1.643968 1.086735 -0.235814 -0.255582 -0.671678 1.798517 0.235733 1.556646 -0.455865 1.838573 -1.301867 0.900078 -1.283849 1.362952 0.202972 -0.014962 1.527841 0.669515 -1.919895 0.501668 0.749024 1.542829 -0.217736 -0.699667 -1.627018 -0.488607 -0.599004 2.238348 -1.195475 -0.285199 -1.782038 -1.289851 0.430513 0.603148 -0.088794 0.171256 0.207911 0.624102 0.610315 -2.489814 0.177478 1.917905 0.774776 1.875713 0.712362 1.115642 1.788138 -0.055332 0.651757 -0.381713 0.270966 0.74997 0.951178 -1.213023 0.316611 0.59353 -0.799946 0.089822 1.139428 -0.253624 0.547744 -0.082177 0.681762 -1.028967 -0.693098 0.349372 2.450883 -0.546074 -1.214319 -0.796911 -1.009556 0.03463 -2.234457 -0.678936 -0.210407 -1.814699 0.921579 2.06093 -0.743128 0.048049 0.796205 -0.487694 0.635074 -1.23337 -0.774316 2.599162 -0.758411 -1.248239 0.453922 1.604818 0.222593 -0.854392 -1.283639 -0.425947 1.267649 -0.103553 1.892479 1.971354 1.421711 -1.550483 -0.744345 -0.682571 0.301723 2.31795 1.100021 1.639313 -0.753328 -0.35139 -0.271946 -0.530009 -0.28643 0.433556 -0.338936 0.53214 -0.395465 -0.567891 -1.594382 0.396148 -1.552474 0.956313 -0.520078 0.084285 0.274465 0.573558 2.217382 -1.76921 0.080539 -2.897947 -2.977297 -0.460791 2.032235 -1.201965 -2.117589 1.007848 0.167431 -0.563584 0.628246 0.29782 -0.088064 -1.466992 -3.162649 -0.781215 1.542464 0.789729 -0.619168 -0.736822 -1.510423 0.235239 0.535899 1.325029 0.643702 2.07253 0.832544 -2.787882 -1.033988 1.700734 -2.010528 0.234463 1.578071 0.576531 -1.754517
planning -0.338342 -0.13468 0.174248 1.17613 0.880537 0.145522 -0.713192 -0.046403 -0.458585 0.09572 1.215753 -0.696868 0.153101 -0.038248 1.803945 0.25795 -0.281413 0.878927 -0.038296 -0.31932 -0.06296 0.457744 0.26684 -0.014982 -1.730547 -1.443562 -0.166545 0.487754 0.38166 0.139217 -0.19795 0.483229 -1.301191 -0.690386 -0.798367 -0.344159 -0.445261 1.589659 -0.549298 -1.02401 0.116755 -0.768775 0.775798 0.705011 0.204354 1.103192 -0.024709 -0.408089 -0.805151 0.86503 0.355536 -0.214459 -0.906145 0.823667 0.396825 0.69129 0.024374 -0.90678 0.713127 -0.312731 0.958021 -0.106418 0.721911 -1.832689 1.062732 -0.554705 -1.295378 1.136857 -0.37551 2.223129 -0.946537 -1.616134 0.280207 0.008719 0.364387 -0.864673 1.883639 -0.484327 -0.057715 0.365013 -0.171222 -1.221436 1.412028 -0.84312 1.305095 2.686241 -0.070062 -1.277555 1.361615 0.717617 -0.39829 -0.739602 -1.79798 -0.296915 0.190643 -0.214442 -0.377745 1.50151 1.550567 0.5503 -1.065857 0.343005 0.201345 0.881485 0.317823 0.30762 2.5725 0.252724 1.192014 -0.812834 0.03252 -0.060499 0.727015 1.260074 -0.055267 -0.709022 0.912266 1.8836 -0.129532 0.578392 0.025333 -0.950841 -1.06742 -0.99584 -0.360446 0.049938 1.318203 0.166193 -0.059771 -0.177483 -0.068736 0.627434 0.024413 0.87822 -0.252452 -2.14231 1.116572 -0.890235 -1.152546 -0.848104 -0.932011 -0.867355 0.192481 -0.630268 -1.958188 0.504987 1.193496 -0.016708 0.773941 0.376722 0.254655 -0.886737 -0.543015 -0.496976 -0.501973 -0.47246 -1.494061 0.797653 0.100166 -0.919403 0.297076 -1.533383 0.008116 1.419577 0.31409 0.429353 -1.522723 -0.328496 -1.047208 -0.386252 -0.509127 -1.434123 -0.291651 0.267006 1.653365 -0.578532 -0.628431 -0.153029 -0.403314 -0.557608 0.560022 0.285891 -0.584356 -1.052433 -2.09013 -1.32586 0.817475 -0.303979 0.461952 1.598053 0.925084 0.454865 2.00056 1.274315 -1.713884 0.054895 -0.635299 -1.557137 -0.259308 -0.736606 0.487526 -0.666391 0.941244 0.924381 -0.633047 -0.218534 1.039086 0.537363 0.913641 0.851491 1.544834 0.207175 -0.087905 -0.039863 0.467051 -0.215437 -0.076741 0.030544 -1.621238 -0.161222 -0.116329 0.534345 -1.88772 0.20646 -0.977697 -0.137114 -0.018282 0.11566 -0.708016 -0.458656 0.531817 -0.104692 0.577892 -0.583238 -0.020926 -0.438932 0.255966 0.717933 -0.763269 0.194205 0.719703 -0.452508 0.382498 0.848023 -0.304237 -1.232862 0.274764 0.239109 0.446062 -1.783701 1.603336 0.139411 0.107949 -0.11389 0.258201 -0.122551 0.342368 -0.48941 0.594472 0.925194 0.846707 0.67743 0.90413 0.36749 0.48075 -0.78299 0.662294 0.008031 -0.455812 0.675539 0.303578 0.142178 1.399126 -0.207286 1.894114 -0.649637 1.45784 -0.490125 0.183484 -0.728476 1.106266 1.019832 -1.712737 -1.059484 1.090096 1.283307 0.942543 -0.338651 -0.483631 -0.882721 0.504354 0.274058 -0.576239 -0.702043 -1.793218 0.818643 -0.097203 0.640613 1.402921 -1.305415
canyon 0.010631 -0.586984 -0.505878 -0.688214 1.468986 -0.58863 -0.299767 -0.5172 -0.472171 1.130327 -1.201053 0.413094 -0.730644 0.303661 -0.361499 -1.166963 0.881913 -0.109823 -0.549354 0.822479 1.105883 -1.543021 1.16167 -0.492258 -0.562703 0.489399 0.56416 -0.098347 0.21595 -1.109379 0.008343 0.736067 -0.595424 -1.691549 0.867647 0.903962 0.960785 1.005845 0.595226 -0.438232 0.716879 0.30815 0.369372 0.393024 -1.267082 0.373194 0.437846 1.042236 -0.549678 1.705519 0.287106 -1.006498 1.402694 -0.096758 -0.152411 -0.840587 0.687846 -1.127275 1.722899 -0.384853 -0.173116 -1.09494 0.359924 -0.341571 -0.235258 1.100939 0.811034 0.950986 0.038692 -1.081709 -0.614781 -1.261776 -0.670248 -0.0346 -1.192708 0.542035 -0.156184 0.415209 1.279403 -1.404606 -0.467067 0.871073 0.30666 -1.412084 -0.15268 0.153614 1.026929 -1.681514 -0.492303 0.290085 -0.418151 0.847424 0.57567 -1.052355 0.702879 0.190395 0.262687 -0.214177 0.298864 -0.023984 0.175116 -0.613835 -1.010754 0.313184 1.405898 -0.105639 -1.030964 -0.924638 0.914877 0.815255 -0.711623 0.257033 -0.25518 -0.273536 0.566158 0.537669 1.826209 -0.718478 0.274439 1.304406 -1.079534 -0.285329 -0.543443 1.183257 0.035453 1.308435 -0.02869 -0.918996 1.432859 -0.323988 0.452095 -0.235054 0.841829 0.596595 0.204731 -0.049797 0.770781 -0.947238 0.770978 0.3165 -1.100939 -0.892269 -0.081393 0.805946 -0.890742 -0.730638 -0.368621 -0.220215 0.466396 0.279183 0.051793 0.072513 -0.48773 0.554697 -0.181851 -0.952813 -0.680468 0.446176 -0.395197 -0.833854 -0.737757 1.080515 -1.187787 1.248268 -0.075622 -0.278293 0.060453 0.404746 1.281382 0.458191 -0.019219 -0.69231 0.219517 0.168365 -0.688901 0.903573 -0.425415 -0.875043 -1.156314 0.563138 0.316428 0.379128 -0.142309 -0.213067 1.254248 -0.919486 -0.961073 1.026109 -1.345125 -0.995708 0.722727 -0.535967 -1.212853 -0.896898 0.219409 0.395614 2.00512 0.135888 -0.29022 0.276228 -0.394916 1.20179 -0.495644 0.047937 1.865502 0.153054 -0.628382 -1.906037 -0.073038 1.344599 0.359543 0.101457 1.419157 0.884474 -0.34321 2.013976 0.832129 1.091504 1.066397 1.093432 -0.488945 -0.603587 -0.075644 0.889756 0.284846 -1.508218 0.456808 0.906588 1.868965 0.10978 -0.128561 -1.295397 0.282355 0.469046 0.722255 1.413788 0.701899 0.865843 0.1576 -0.32877 0.560893 -0.332657 0.097192 0.886695 1.512161 0.202721 0.023471 1.411399 1.599749 -0.843141 0.115902 -1.365426 0.661916 -0.024804 -0.269487 -1.669732 -1.034646 -1.817451 -1.315482 -0.416613 0.439305 -1.131804 -0.390452 -0.191919 1.730676 -0.075863 0.29798 -1.125251 0.219267 -0.234501 -0.475613 -1.223927 -0.002028 1.284187 -0.516811 0.029318 -1.089076 -0.258126 -0.044204 -0.660935 -0.895496 0.500015 1.615694 0.107678 -1.452933 0.23741 0.034217 1.424915 0.965519 0.853566 -1.098444 -1.22889 0.747333 -0.17568 -1.453672 -0.274946 -0.040169 0.932541 -1.343221 0.426954
delay 0.294188 -0.391808 -0.671951 2.745483 -0.156181 -0.205551 -0.468051 2.116488 0.39991 0.517389 -0.269505 -0.066346 -1.626636 -0.816433 -0.959987 -0.35699 0.853601 -0.620921 0.695302 -0.286258 -1.244513 0.644653 0.734155 -1.337201 -1.073686 0.543438 2.389266 -0.245368 0.276224 -0.995028 0.412439 -0.544072 -0.670174 -0.84876 -0.429696 -0.826294 -1.900561 0.45253 -0.32016 -0.338631 -1.695506 0.68429 -0.007209 -0.256862 0.475273 -0.062946 -0.124535 -0.004266 0.694798 1.334397 0.603948 -0.257653 0.364957 -1.71791 0.993214 -0.664903 -0.452842 -0.389406 0.153915 -1.218427 -2.137481 -0.110617 -0.597299 0.733049 0.104104 -0.057751 -0.255859 0.285402 -0.445061 1.766031 -1.174713 1.058924 0.282219 -0.124948 -0.794258 -0.346593 1.294545 -1.259935 -0.528361 1.392269 -1.320179 0.695509 1.54524 0.232239 -0.23134 0.485306 0.371095 0.207236 -0.433711 -0.896198 0.60922 -1.195851 0.108814 -1.671717 -0.701014 -0.336268 -1.133075 0.88477 0.360783 -0.660514 0.976665 1.271702 0.857661 -0.100224 -0.031692 0.039331 -0.609588 -0.703595 -0.584029 0.157338 -0.046486 -1.95222 -1.158765 -0.89178 -0.312976 -0.357144 0.483469 -0.600079 0.695141 1.561899 0.238072 0.228663 0.680682 -0.241397 -0.300059 -0.214849 -0.686 1.366721 0.715743 0.061118 -0.448753 -0.044539 -0.204484 2.14025 -0.13414 -0.718162 0.610072 -1.196221 0.71767 -0.617727 -0.720285 -0.186774 0.683764 -0.816299 -2.717051 -0.399841 0.387166 -1.041098 1.841435 0.943288 -1.597837 1.344602 0.387554 -1.791708 2.139407 -0.907367 -0.203966 0.329386 -0.109379 -1.05522 -0.915566 -0.412143 1.160282 -0.848915 -0.003346 -0.53883 -0.422124 -0.052047 -0.189264 -1.845893 0.228995 0.667994 1.357935 -0.881901 -0.036674 0.438711 0.413959 0.456025 -1.190009 -1.146794 -0.513153 0.254978 0.260511 -0.025025 2.298116 0.411601 1.333451 0.302575 0.334651 1.221928 0.046099 0.97602 -0.184799 -0.795298 0.046612 1.229692 0.235941 1.270584 -0.078873 0.137211 0.199008 0.789777 0.515097 -0.079172 -0.418378 0.249684 0.470295 -1.403251 -0.597541 0.489023 1.270872 -0.892979 -0.371617 -1.121725 0.243954 -0.64378 -1.815485 1.784627 0.163998 -1.283906 0.162199 -0.602832 0.148595 0.427325 0.894987 1.490667 0.012331 -1.285242 0.017149 -0.906033 0.998706 0.863237 0.804259 -0.035236 0.527139 -0.347099 1.60012 -0.419428 -0.755491 0.35806 -1.458471 1.011476 -0.516195 -1.7798 -0.609732 -1.721292 1.187458 -1.014226 -0.36871 0.616112 -0.430572 0.038702 0.551239 -0.074232 -1.227488 0.072497 0.222165 -0.626424 1.401462 2.241182 0.155049 -0.023722 0.406386 0.784427 -0.681797 -0.308664 1.770376 -1.328517 -1.7517 -0.736319 -0.453366 0.591583 0.250569 -0.340993 -0.839347 -1.23696 1.708944 -0.362055 -0.278471 -0.291769 -1.203989 2.009387 1.488691 -0.283799 -1.247522 1.280016 1.899879 -2.043713 -1.053622 0.075946 0.631833 -0.004194 -1.11652 0.370394 -0.770107 1.20347 -0.612644 -1.924111 -0.919815 -0.407079
size -1.61323 0.502054 -0.052952 -0.87402 -0.70866 -0.124488 0.792148 0.520995 -0.875802 0.471777 -0.263345 0.410351 0.201452 -0.093267 0.169615 0.199361 -0.938988 0.451026 -0.546617 -0.015784 0.396492 1.997534 0.856497 -0.385194 -1.466773 0.092895 1.041279 1.09854 -0.687907 -0.589804 0.466198 -0.427137 -0.255219 1.092997 1.530043 1.014358 0.761448 0.191103 0.139287 -0.867518 1.181907 -1.112176 1.246047 -1.874767 -0.792961 1.083314 0.112072 1.727373 0.596318 1.520314 -0.300831 -0.841528 0.048942 -0.082347 -0.309839 0.413988 0.147677 -0.820108 1.237995 0.311389 -0.467839 0.917908 0.41172 -1.340503 -0.463543 0.593932 0.19623 2.2981 -1.091088 0.873402 -0.550337 1.642527 0.859806 0.494931 0.891814 -1.205538 0.154341 0.618375 -0.022977 -2.700629 0.554506 0.198686 0.33227 -1.190126 -0.967478 -2.103546 0.172195 -1.324301 -1.2546 -1.592601 -1.038243 0.03383 0.717667 -1.121469 -0.450564 1.374312 0.395195 0.242627 -1.12072 -0.214505 -0.085645 -0.45294 -0.056531 1.011709 0.866929 -0.517292 1.827636 -0.30273 2.211003 -0.309654 1.412309 -0.57033 0.622643 -1.351382 0.720648 1.553586 -0.344516 0.433497 -0.134682 0.685448 -0.614092 2.016894 -1.123784 -0.242386 -0.667945 -0.217594 0.864506 -1.385 -0.857994 0.091221 0.947471 -0.072947 1.486802 0.452922 -0.863927 -1.094652 1.954712 0.861874 0.585485 0.728483 1.471358 -1.751497 0.993211 -1.230477 0.861682 -0.950457 1.261945 -0.46026 -0.106468 -0.460094 -1.325142 0.079302 -0.216153 -1.447991 -0.420385 0.854532 1.712171 -0.282792 0.263589 -0.004609 -0.298727 -0.959081 -0.00188 -1.849858 -0.735312 -0.412873 0.978056 0.491339 -1.56092 -1.196996 0.318886 0.552727 0.628994 -0.509095 -0.70613 1.669955 -0.305382 0.456274 -0.180089 0.21218 0.259565 -1.680793 0.932529 -0.647335 -0.69277 0.797802 0.544334 0.996025 -0.860303 0.438122 0.267023 0.578732 0.416027 -0.188805 0.056901 0.386592 1.358568 0.158567 0.674754 1.015216 -0.182908 0.653595 -0.347768 -0.813445 0.116557 1.944298 0.130354 0.785766 -0.288148 1.022743 0.104812 -0.815316 -0.58873 -0.202717 -1.13742 0.424294 1.386645 -0.340971 0.970524 0.41364 -1.895267 0.611954 -0.200821 -0.300964 1.949156 -0.53172 -1.535651 -0.11714 1.411118 -1.084646 0.945256 -0.589003 -0.016312 0.028576 -0.315297 1.082718 -0.514853 1.157072 -0.801594 -0.376375 0.94982 0.290814 0.489151 -1.048754 0.421308 -0.907464 -0.237356 0.532183 -0.354969 -0.80693 0.142339 0.305116 1.306261 -0.812414 0.563618 -0.112588 1.318313 -1.643098 0.321498 -0.687427 -1.518155 -0.566201 0.254474 2.186606 0.67459 -1.366511 -0.105066 -0.846922 -2.611262 1.068263 -1.245183 0.138314 -0.04913 0.328533 0.62402 -0.458746 0.40168 -1.165989 0.383185 -0.676308 -1.135575 -0.497529 -0.319005 1.763169 -0.317682 -0.249896 -0.078662 1.067973 -0.164467 1.59489 0.410428 1.217534 -0.327332 -0.771201 1.256314 0.069608 0.849287 -0.659395 -0.210234 -0.587704
peace 0.025887 -0.678856 -0.188059 -0.026329 -1.04218 0.811501 0.475985 2.087557 -0.339799 -0.759944 -1.778131 -1.389191 2.25198 0.45053 -0.045088 -0.930016 -0.793217 -0.664518 -0.378943 0.042647 0.344596 -1.375224 0.601552 1.083351 0.837932 -1.156755 -1.377227 0.917115 1.147344 -0.757056 0.091747 0.95355 -1.059078 2.281189 -0.385518 0.143945 -1.3163 0.413419 -0.781997 -1.889396 -1.123742 1.979055 0.259472 1.176107 -0.753438 -0.931692 -1.642912 0.538706 -1.305126 2.008004 0.836523 0.350997 -0.853179 0.345537 -0.502717 0.415501 1.8511 1.156706 -0.818813 -2.529832 -0.620081 -0.736054 1.30771 1.264497 -0.844777 -1.601762 0.631341 -1.039914 0.63951 1.709322 -0.799194 0.700909 -1.316575 -0.75094 -0.71341 -1.261842 -0.41779 0.154623 0.505868 -0.884337 -0.364403 0.004204 0.266647 -0.595273 0.388709 1.737847 0.352632 -0.069955 0.12962 -1.050706 0.207016 -0.592402 -0.061616 -0.839079 -1.033002 -0.441778 -0.819584 -2.951059 1.323434 -0.7399 -1.618874 0.534285 1.536272 0.213919 -0.275378 0.741488 -0.631596 -0.305962 -0.686665 0.417449 2.088568 -2.06797 0.670793 -0.491983 0.66178 -0.70548 3.191458 0.364653 -1.977451 -1.487826 -0.161365 -1.265434 -2.152351 -1.008498 0.041921 0.68302 -0.632773 1.056383 0.603344 0.784915 -1.105195 0.100005 -0.223144 0.98682 0.153273 -0.301364 1.278845 0.893421 0.568883 -1.252881 0.048392 -0.84251 -1.907644 0.511365 -2.862937 -0.613784 0.217341 0.759367 -0.527517 1.540209 2.45328 0.570384 0.91973 -1.0025 2.305952 0.665069 -1.554765 -2.349537 1.696324 0.251919 0.377085 -0.144493 0.337947 0.385969 2.206547 -1.26657 0.354283 -2.267443 -2.181143 1.51455 1.389542 1.532608 -0.545818 0.663404 -1.274189 -3.505447 -2.02556 0.539765 -0.415689 0.839361 1.094717 0.43899 0.661961 -1.581384 0.801401 0.611002 -0.233548 0.233293 -2.600458 0.746188 -1.100725 -0.388423 -0.94515 -0.966995 0.694377 1.233176 -1.1254 -0.026417 -2.173043 1.762265 -2.047192 0.492788 -0.058609 -0.152606 1.629383 -0.2956 -0.821552 -1.292632 -0.284079 -1.012444 0.555079 0.2545 -0.516228 -1.378585 -1.697464 -2.765818 -0.473813 1.555278 -0.827198 -0.532874 0.603336 0.091314 0.23958 -1.459874 -1.97932 -1.154695 -1.639373 -0.628905 -1.185674 -1.732309 -0.19905 -0.45367 0.731877 -0.018344 -0.494832 -0.233226 1.437654 0.873328 -0.255177 0.136123 -1.322673 1.211699 1.860087 0.489872 1.539574 0.558814 -0.731953 -1.035982 -0.302746 -1.402468 -1.511157 -2.754446 -0.959212 1.75175 -0.173736 0.106195 0.377465 -1.214876 -0.281254 -1.863569 -0.371902 0.987948 1.508064 0.640937 -1.21688 -0.343374 -0.093113 -0.639376 1.702956 0.379042 0.238778 1.015528 0.115623 1.984926 -0.89757 -1.077039 -1.023289 0.701323 -0.980714 -1.112048 -1.34956 0.107835 0.461044 -1.668688 0.126244 3.510259 -0.372126 -0.226626 -0.678923 0.605813 1.544667 -0.041237 -2.264902 -1.156439 0.695712 0.984464 -2.725697 1.164421 -2.235347 -0.572632
science 1.277669 0.085699 0.667194 -0.20628 -0.386784 0.513697 1.683491 1.347494 -0.603307 -0.455813 0.766345 0.032531 -0.111127 0.30327 0.349333 -0.650825 -1.380997 0.424934 -1.851534 -0.99088 -1.161714 1.098169 0.237813 1.790595 1.156749 -0.664048 0.092422 0.130607 -0.228616 -0.032876 0.675007 0.96086 0.373288 -0.882862 -0.90617 -0.969593 0.140905 -1.118138 0.637414 -0.469153 -0.544372 -1.559401 -1.795396 -0.261862 -0.642321 0.401709 -1.41701 -0.131445 0.044682 1.021549 -0.414865 -1.002099 -0.386135 -1.457425 0.032615 0.714419 -0.583796 -0.668536 0.436208 0.679157 0.297112 -0.125709 1.101263 0.226031 -0.125507 -1.180179 0.187434 0.648683 -0.186221 0.092835 -0.546819 -1.772103 0.964686 0.538715 -0.481832 0.351599 -0.177419 -0.342627 0.2156 -0.196783 -0.484929 -0.953562 -0.342777 -0.018665 0.490946 -0.499133 0.51889 -0.898396 1.251172 -2.402613 -0.013193 1.278807 -1.354867 -0.367262 0.394614 -1.256866 -0.135711 -0.569428 -0.604119 0.753333 -1.05893 -0.35797 1.051619 0.672836 -0.40131 -1.094154 -1.416953 -0.06398 0.036866 0.657138 0.35224 -0.179796 -0.033016 -1.495165 0.234493 0.424835 0.282778 2.173462 0.012691 -0.528405 -0.043318 -0.406493 -1.841292 -0.233615 -0.187767 -0.255741 -0.285506 -0.691987 1.842334 -0.843325 0.206697 0.137721 0.791646 1.114441 0.09675 -0.522012 0.324084 -0.281953 -1.036707 -0.20089 -0.105872 -1.362902 -0.724619 0.826159 -1.077602 0.303499 0.586694 -0.532533 0.415485 0.70506 1.24832 0.651773 1.289835 -0.638076 -0.932395 0.227067 1.334716 -0.011333 0.216007 -0.536217 0.686356 1.657578 -0.605673 -0.340653 0.69328 -0.553542 0.853465 -0.098691 -0.08968 0.262131 -0.863514 -0.398234 0.653505 0.594644 0.876868 1.477779 -0.322396 -0.423617 -1.826596 0.469149 1.696314 0.2195 0.309795 -0.47269 -0.863233 -0.496354 -0.528506 1.32135 0.219589 0.460037 0.589025 -0.336859 -0.802869 -0.589984 -0.509537 0.973438 -0.79126 -0.020646 0.107951 -0.701227 1.458677 0.574299 1.723801 0.245563 1.413657 0.740043 -1.089934 -0.086774 0.12744 0.136926 0.353844 -1.557656 0.474116 0.838122 -0.850528 -0.959891 0.198645 -0.839389 -0.575789 0.693159 0.800931 -0.019546 0.71434 0.310897 -0.52081 -0.324444 -0.289589 0.273793 -1.602871 0.92093 -1.345525 -0.2609 0.684502 -0.780269 -0.170877 0.660248 0.692017 0.182205 0.006891 -0.392962 0.948825 -0.882755 -1.611174 -2.586976 1.404073 -0.318906 1.807149 -0.096887 1.787598 -0.925478 -0.100129 0.518017 0.283922 -0.437503 0.700537 0.25883 0.011281 0.853806 -0.234075 -0.458964 -1.134297 0.104679 0.344036 -0.015858 0.297561 0.099081 -1.926535 1.665925 -0.748562 -0.151281 0.059804 -0.720159 -0.847893 1.595359 -0.643874 -0.025319 -1.548794 -0.303012 -0.228872 -0.897426 -0.88973 -0.292069 0.712498 -0.366693 1.355182 0.956979 0.463634 -0.760315 -1.946936 0.011413 1.470434 0.655262 -0.899955 1.757451 -1.048304 0.556186 1.506149 0.838491 0.180573 -0.433922
dawn 0.400144 0.590271 1.601654 -0.716236 0.755145 1.211684 0.04574 -0.191642 1.659771 0.382105 0.189552 -0.631198 -0.031434 -0.779191 -0.657613 -1.284426 0.037957 1.416093 2.596793 -0.518408 2.387851 -0.90121 0.07074 0.095563 -1.656105 0.336994 -2.98718 -0.161902 -0.443564 -1.355283 -1.046687 1.231222 -0.416998 -0.72272 0.890047 0.701203 0.184431 -1.591549 -0.974308 -1.419422 0.407272 0.406676 -0.849089 0.668481 -0.855274 -0.953868 -1.820974 1.470078 1.08391 1.655655 -0.181144 0.351298 0.829629 -1.269011 0.572088 -0.475175 0.875756 -1.031347 -1.721947 0.952577 -0.156414 -0.269088 0.532398 -1.051967 -0.561199 -1.741774 -0.477389 -0.31988 1.009993 0.067728 1.812638 1.040455 0.065339 -0.493144 1.895936 0.883882 0.537445 -1.540835 0.034642 0.770351 0.093995 1.115084 -0.547931 0.908726 -1.144967 0.147949 1.439066 0.434172 1.403879 -1.250908 1.940142 -0.74048 -0.074643 0.734365 0.189618 -0.642641 1.328311 -0.253191 -0.19189 -0.787767 -1.062408 -0.139556 -0.879352 -2.508701 1.488618 0.362437 -0.553614 1.195001 0.024932 -0.534931 -0.068374 -0.262551 -0.077192 0.096034 -0.552269 0.379663 0.147821 -1.015903 -0.297368 1.212718 -0.574024 1.518201 0.007653 -0.484466 -0.547409 0.478178 0.13026 0.240784 1.210274 -0.673752 -0.538991 0.044598 -0.180504 -0.942371 0.774327 0.316865 1.253288 0.130567 0.229303 0.527511 0.331393 -1.143932 -0.563969 1.307242 -1.187075 1.697168 -0.305746 0.974522 0.410034 -0.307498 1.26274 -1.736537 -1.961275 -0.241497 -0.896593 0.092964 -3.093093 -3.054765 0.276135 -0.861354 -1.753322 0.333648 0.39975 0.840907 -1.258163 -1.808778 0.266454 -1.023627 0.619039 0.288866 0.247572 0.786434 -0.672775 -1.227031 -0.486876 0.039208 -0.050333 1.20134 -0.00861 -0.371316 -0.387653 1.226981 0.58661 -0.892104 -0.334423 -1.351808 1.826811 0.063894 -0.793514 -0.705987 -1.033393 -1.331497 -0.976623 0.424835 2.56214 0.943358 0.148091 0.468972 0.22633 -0.765783 1.43291 2.317116 -0.024612 0.539983 -0.103097 -0.671832 -0.234373 -1.759652 0.044419 1.706247 0.837517 -1.634008 -0.234264 1.408694 0.760561 0.614721 0.531753 -1.139569 -1.077415 -0.440617 1.596905 -1.413446 0.571421 -0.156341 -0.705005 2.117388 -1.546957 1.157352 0.973268 -2.206684 -0.16206 0.678731 1.795542 0.272693 1.090356 -0.829162 -0.130184 0.011447 0.032361 -1.003265 0.553136 -1.424701 2.389393 1.296424 0.647782 0.569725 1.031766 -1.533025 1.482362 -1.035153 -1.942981 0.367568 1.333073 -0.75705 1.28094 0.514322 -1.058832 0.589942 -1.751636 -0.894183 0.521399 -0.750805 -0.284834 -0.371171 1.26946 -0.408316 -0.18817 0.61625 0.525866 0.649242 -0.071973 -0.16525 -0.244016 0.363527 -0.93396 0.383459 -0.160674 -0.209217 0.156017 -0.320874 0.146429 0.664193 -1.232424 1.54185 -2.173697 -0.363166 -0.787426 0.621948 -0.22011 0.116758 -0.60458 -0.419807 0.796535 -1.379734 -1.542861 1.015563 0.090397 0.713815 -0.133903 0.648379
brother 0.08366 -0.678251 0.136048 -1.256118 1.597247 2.33413 0.661111 0.102341 0.662825 1.282893 -1.460161 -0.937067 0.281826 -0.702578 0.385672 0.977532 3.22181 -1.155487 -0.936083 0.646525 -0.156603 -1.238881 -0.089296 2.054889 0.298258 0.669885 0.54574 1.603601 1.366686 -0.9075 -0.798086 0.389919 -0.86922 1.188122 -1.302234 0.922198 2.465903 1.233083 -0.643117 0.171395 -0.536376 1.018927 1.164158 0.389603 0.428863 0.058885 0.431191 1.20879 0.28275 0.856012 1.518525 2.695585 4.77E-4 -0.715528 0.079818 1.679715 -0.804156 0.659081 0.708204 0.829746 0.267607 -3.079186 0.980757 -1.275963 -0.701187 1.345086 0.770761 -0.851461 -0.574714 0.855018 0.353564 -1.256651 0.533732 0.757798 1.209431 0.252046 0.278056 0.237048 -0.66289 -1.347319 -2.106444 0.841928 -0.445159 0.977583 -0.03455 1.110727 -0.397924 0.192188 -0.486496 0.667944 0.920472 -0.870984 1.607603 -0.135245 -1.409691 1.191126 -0.308748 0.265766 0.018817 -1.39011 -1.343256 0.670547 -1.472651 -0.404694 -0.034667 0.842608 1.49157 1.055617 0.196089 -0.468346 1.03194 0.058087 1.104128 1.58759 0.442557 0.660741 0.379091 -1.423005 -0.679051 -0.787963 0.401462 -0.654702 -0.434245 3.006068 -0.065091 -0.785211 -2.320814 2.281954 0.478708 0.699668 1.18134 1.651324 1.080823 0.160329 -0.646499 0.523285 -1.147312 1.054763 -0.190262 0.754275 -0.986043 -0.5295 -0.831069 -0.117963 0.363124 1.101398 -1.316669 0.425136 -0.402928 -0.445154 -0.75612 -1.534139 -0.874245 -0.19278 1.837584 0.219374 1.649618 -0.792142 1.665081 1.910428 1.374905 -0.258906 0.659727 0.125773 -0.691615 0.960042 -0.939124 0.799002 0.61053 0.890125 0.213659 -0.125756 0.732215 0.163493 0.739051 -0.54183 0.580371 0.178863 -0.180718 0.614729 1.850617 -1.166757 -0.666036 1.602717 1.694035 -0.12699 -0.475322 -0.330201 1.361782 0.372666 -0.737139 2.63926 -0.354358 0.250333 -0.988469 0.20035 -2.790711 1.086808 0.144502 1.086999 0.099502 -0.798362 0.270658 0.641834 0.334598 1.056225 0.730377 1.489026 1.3071 -1.67258 1.054075 -0.716901 0.768289 0.842524 1.585939 -1.01292 0.538492 -0.636748 2.519113 1.090991 0.103344 1.379934 0.013571 -0.461839 1.61033 1.49976 0.524885 1.045831 1.184994 0.392281 0.410526 0.079453 0.178434 0.247778 -1.505546 0.50493 -0.157642 1.413526 2.201143 -1.277088 1.989229 0.436055 -2.155462 -0.475531 -1.342585 0.431597 0.112384 0.148526 -1.269355 -1.722773 0.727913 -0.853142 0.573153 -0.715297 1.275651 0.912519 -1.089552 0.703768 -0.876346 -0.558887 1.311777 1.432444 -1.923735 1.807463 1.338649 0.979421 0.78599 0.954957 -0.633156 2.246459 -1.613576 -2.143642 0.81296 -2.071805 -0.566746 0.490549 0.035191 0.802326 2.108752 1.03194 0.05586 -0.913491 0.78337 0.497446 -1.256 -1.270553 0.123547 -0.583656 2.586962 -0.946959 0.813491 0.461129 1.159238 2.207563 0.640763 -0.153384 -2.065321 -0.610937 1.224322 1.182648
wine 0.074053 0.532841 0.13311 -0.763498 0.239703 -0.499668 0.587292 0.791302 -0.217883 -0.993848 1.743547 -0.052902 1.416586 -0.120149 -0.242737 -1.664276 -0.987581 -0.630604 -1.042019 1.430151 -1.347973 -0.762159 -0.502074 0.757089 1.794831 0.812084 -1.158853 -0.442372 0.237534 -1.042414 0.963651 0.128984 0.235127 0.184623 -1.053432 1.945816 -0.073607 0.17993 1.12142 -0.414661 0.186154 -0.274563 1.512696 0.198057 -0.150507 0.682608 -1.228278 -0.805155 -0.274067 1.099963 -0.354626 1.349254 0.289699 -0.37136 0.287432 1.008641 0.467544 0.994747 -0.827471 -0.536803 1.152779 -0.842059 0.59692 0.101683 -1.258168 -0.297377 -0.59348 0.254897 -1.840616 -0.670785 -0.086291 0.355285 -0.503404 -0.915236 -0.849263 -0.111768 0.350908 -0.897966 0.140415 -0.752377 -0.549004 0.46853 -1.44696 -0.323863 -0.163718 -1.958074 1.089462 -0.133787 -0.751822 0.804917 0.196451 0.164808 -2.272461 -0.370269 1.38976 -0.465111 0.392752 0.810093 -1.346684 -0.251538 -0.676173 -0.717846 -0.692735 1.746723 0.29153 -1.386813 -1.013888 0.280077 -0.284002 -0.68765 -0.709918 -1.338633 -0.066633 0.283229 0.710963 -1.847968 2.088452 0.071537 0.631098 0.042786 -0.779076 0.676113 1.001107 0.501127 0.386861 -1.099048 1.34764 -0.265724 -1.193126 -1.24439 -0.037712 1.398785 -0.200083 0.984204 -0.257957 0.627211 0.431364 1.455863 0.238644 0.754592 -1.145708 0.276657 0.304436 1.381093 -0.894189 0.49183 -0.056032 1.139665 0.50739 -0.401073 0.422506 -0.146393 -1.51096 0.415641 0.352324 -0.332957 0.152081 -1.012675 0.29478 -0.331446 1.340205 0.826802 0.341784 -1.628004 1.974233 1.01715 -2.212468 -0.645767 0.016917 -0.317193 0.114663 -0.319091 -0.175942 -0.143379 0.993953 1.00482 1.068808 0.513367 -2.209206 1.390923 1.225953 -1.166376 -0.890399 -0.034716 -0.033008 0.114598 -0.00553 0.45367 -1.134307 0.760399 -0.25617 -1.555077 -0.467295 -0.954809 0.593121 -0.021552 0.154219 -0.134039 0.027206 0.776773 0.606191 -0.70315 -1.316207 0.037739 -0.733856 0.011019 0.377705 -0.748294 0.523815 0.719122 0.121521 -0.458773 -0.422181 1.755827 -0.521392 0.505251 0.347291 0.301447 0.892665 -0.424151 -0.377519 0.061026 0.829367 -1.017049 0.884154 -0.348106 -1.459712 -0.397237 0.177739 -1.289398 -0.374117 -0.058337 -0.026095 0.491047 0.151491 0.333405 0.396722 1.283609 0.593354 0.987684 -1.024322 0.421334 -0.005776 -0.050631 -0.161663 0.152076 -0.189648 -0.449041 -0.031804 -2.340308 0.190419 1.271662 0.544612 0.390146 -0.081443 0.626605 1.012989 -1.463011 1.359231 -0.322472 -1.748932 -1.056589 -1.426085 0.29348 0.420143 -0.288916 -1.970496 -0.227751 -1.164067 1.108424 -1.841578 0.233116 0.401487 -0.827589 1.367144 -0.587171 -0.633913 -0.224885 -0.338585 -0.123338 -1.53114 0.421503 -0.565198 -0.061715 -0.587847 -0.590916 -1.449339 0.82851 -0.244662 0.88068 -1.906248 0.830802 0.6431 -0.70177 0.625358 0.757154 0.887835 -1.314402 -0.734951 0.442484
object -1.240732 0.160597 -0.816008 0.077287 -0.102194 -0.673746 0.961593 1.3847 -1.230786 0.891762 0.462012 0.305025 -0.06497 0.002626 -0.746222 0.951635 0.913286 0.637013 0.162319 0.576715 -0.05919 -0.211169 0.815544 -0.844073 -0.826093 0.573239 -0.843114 0.916912 -0.944477 -0.725101 0.378681 0.391411 -0.139448 -1.793188 -0.141635 1.377518 0.312326 -0.599737 0.672797 -0.696556 -0.150501 0.456907 1.065195 -0.399815 0.578857 -0.173271 -0.507294 1.040792 0.953893 0.486276 -0.246192 -0.263079 0.237456 -0.252227 0.10634 0.299831 -0.34985 -0.413959 1.827368 1.017405 -0.796555 -0.528834 0.204926 -0.160561 -1.239891 0.278357 0.710323 -0.204022 0.136674 0.582883 0.143643 -0.328388 -0.373636 1.419237 0.593903 -0.704109 0.324458 0.380606 0.601697 -1.838984 -0.025643 -0.72982 -0.234573 -0.188025 -0.333069 -0.184409 1.236346 -1.279079 -0.023996 -0.91393 1.493435 0.170949 0.149996 1.503013 1.334867 -0.519055 -0.013379 -0.237241 -0.274303 0.539013 0.406009 -0.183396 -1.423439 -0.695409 -0.230866 0.466581 0.199884 0.038602 0.494282 2.037296 0.671643 -0.725878 -0.684383 -0.501689 -0.038223 0.791056 -0.666714 0.765881 -1.165482 -0.042429 1.496737 0.628051 0.178336 0.075636 0.230685 -0.561688 -0.348397 0.366773 0.389076 0.57547 0.021717 -0.516221 0.829227 1.293911 -0.719954 -0.813507 1.267793 -0.626641 0.028917 -0.67242 0.65227 0.548036 -0.404093 -1.249714 -0.848661 -0.346408 -0.282903 1.182694 2.885633 0.347959 -1.12105 -0.164186 -0.609906 -0.438391 0.718144 0.926141 -0.180071 -0.19863 0.034246 -1.217894 -0.51935 -0.045616 -0.381036 -0.214858 0.297628 -2.043712 0.948002 0.081869 0.18393 0.179129 -0.248091 -0.25822 -0.168192 -0.803349 0.73555 0.741173 0.04418 0.255086 -1.192625 -0.037 1.336606 1.012321 1.098219 -1.173484 1.543489 -0.421104 0.558339 0.204484 -0.774481 0.72279 0.500721 1.687269 0.182735 -1.629851 0.035117 1.115628 0.610945 -0.090302 -0.13986 1.617205 -0.099834 -0.203527 -0.383499 0.437328 0.19645 0.243258 -1.103585 -0.559765 -0.535373 0.64624 1.189877 0.221502 0.823835 0.870512 -1.063005 0.076018 -1.303946 -0.092983 -1.108005 -1.396565 -0.228394 -1.116818 -0.940221 0.226584 6.07E-4 -1.595063 -0.309333 0.427793 1.491429 0.148626 -0.200407 -0.334901 -1.303566 0.643233 0.549483 0.481083 0.629798 1.203266 0.754034 -0.404418 -0.956802 -1.21955 -1.474165 -1.149833 0.389485 -1.999468 -0.129977 -0.332454 0.270597 -0.649415 0.506057 0.296568 0.604715 -0.488549 1.170286 0.280321 0.749586 1.587256 0.083509 0.688576 -1.206463 -0.347566 -1.48145 -0.198691 1.268961 -0.567223 0.566781 0.81415 -0.631429 -0.22902 0.497673 0.423579 0.417906 1.791237 -0.932495 0.608718 1.597142 -0.233589 0.009896 0.31101 -1.76836 0.157434 1.424755 0.3584 -0.264896 -0.737304 -0.804449 -0.706019 -0.301557 -0.047558 -0.281248 -0.408924 -0.686533 -0.029975 1.062482 1.012248 -0.20316 -0.408878 -0.662126 0.704283
attitude -0.925928 -0.411601 0.761081 -0.117008 0.298588 1.117258 -0.131008 0.210032 0.068882 1.206671 -0.092606 -0.488045 -0.005184 0.819058 -0.462733 1.239133 -0.225274 0.24018 -1.687838 -0.292507 -0.199121 -0.007188 0.563527 1.077957 -0.558825 -0.363714 -1.03887 1.605366 0.457089 -1.225241 0.269687 0.132052 -0.47049 0.939717 0.110007 0.509987 0.357321 -0.02945 1.509347 -1.201276 0.620621 0.206673 0.423181 0.105863 -0.808507 -0.363103 -0.195705 2.039815 -0.285159 -0.062547 0.059587 -1.270465 1.17675 -1.025526 0.371345 -0.628767 -0.429869 -0.266598 2.968751 -0.494511 0.466965 0.521548 -0.083298 -0.187391 -2.167562 -0.377347 1.752984 0.448853 0.075847 1.54696 -0.583518 -0.79785 0.871693 -0.418461 1.120426 0.38984 -1.32811 -1.553801 -1.090332 -1.090685 -0.697653 0.003679 -0.706563 -0.127155 -0.335445 -0.509243 -0.661105 -1.967888 0.722246 0.355161 0.916853 0.81245 -0.706134 -0.014862 0.982418 1.392981 0.677294 -1.043458 0.301957 0.787846 0.481909 0.889926 -1.324297 0.145118 1.766571 1.178409 -0.578882 1.435253 0.654292 2.57E-4 1.660749 -2.918993 1.28446 1.143604 -1.123354 -0.047611 -1.092721 0.109128 0.259797 -0.249213 -1.505473 -0.808195 0.615315 0.527078 -0.283268 -1.492509 -1.920429 1.510493 -0.120516 -0.753899 -0.041662 0.559346 -1.169406 -0.221556 -0.129168 1.235429 -0.023492 1.033787 1.00825 0.727041 0.854301 0.163689 0.532345 -0.231865 0.258382 -0.025355 -0.358514 -0.813639 0.91259 -0.016464 0.168851 -0.626048 -1.459504 -0.419082 -0.518219 -0.041824 -0.928229 -0.777688 1.817375 -0.107436 0.551264 -0.219064 0.050381 0.390233 -0.269494 -1.241892 -0.056902 -0.162699 -0.878606 0.638058 -0.723862 -0.47174 2.367845 -1.211944 -0.99416 -0.712495 -1.470372 0.405922 -0.623921 -0.102075 2.542706 0.33326 0.587992 0.087585 1.236842 0.946419 0.06253 1.925218 0.175324 1.148195 -0.669614 -0.824595 -0.509774 1.16054 -0.577737 0.803121 -0.331104 0.250302 0.856705 -0.064868 -0.646155 0.790686 -1.497034 1.605288 1.263099 -0.05856 -0.430593 1.206773 -1.668669 -0.347071 1.21104 1.246017 0.275596 -0.249506 -1.86265 0.365455 -1.477014 -1.011612 -1.051011 0.812312 0.14958 0.576327 -1.306438 0.196619 -0.250957 0.002847 -0.259737 1.001675 -1.022605 0.825643 -0.833173 0.499463 -2.150286 0.346913 0.256315 -0.609338 0.451893 2.98517 -0.654835 -0.399137 -1.71982 0.587889 -1.462239 -1.296395 0.762494 -1.595842 1.103648 -1.085747 -0.036636 -0.772359 0.324601 -0.332957 1.634078 -0.383651 0.507835 -0.08082 1.465558 0.860529 1.335883 -0.64608 -0.715168 -0.158765 -0.314191 0.047897 0.682269 0.253272 0.225996 -0.599659 0.542048 1.419604 -0.057076 -1.186034 1.008545 0.929914 1.407764 -0.960234 -0.470127 0.574506 1.577373 0.604009 0.740029 -0.021576 -0.533482 -0.463558 -0.933466 -0.20104 -3.043979 -1.340962 -0.967356 -0.37224 -0.401218 0.493968 -1.049243 2.228051 1.461993 0.69049 -0.066557 0.566918 -1.636042 -0.80247
treatment 0.284136 -0.480091 -0.141604 0.673239 0.285497 1.473852 -0.225775 -0.033366 -0.559165 -0.906287 -1.281942 -1.123634 1.282622 -0.813814 -0.310727 -0.785121 1.753032 0.739935 -0.765378 -0.37654 -0.115054 -0.136821 0.133599 -0.222346 -0.793504 -0.611338 1.435501 0.841909 0.495493 -0.276892 -0.258696 -1.490205 -1.425506 -1.364683 -1.95075 0.098408 -0.544871 0.352584 0.847825 -0.30948 -1.400457 -1.454214 1.017415 0.777015 0.617625 1.369608 0.759915 0.260144 0.517188 1.285791 -1.706491 0.525678 0.448242 -0.161953 -0.777039 -0.757224 -0.822868 1.852186 0.680888 -0.464012 -1.06409 -0.357415 -2.187815 -1.134784 0.309262 -1.684142 1.645515 0.439777 0.343666 0.954607 -0.553481 -0.497989 0.528637 -1.064308 -1.671568 -1.035233 1.393696 0.012611 0.39359 -0.174655 -0.382879 0.036471 0.546071 -0.048394 -0.191163 -0.709936 0.205604 -0.498524 0.730159 0.381013 -0.44373 -0.078309 0.582988 -0.209643 0.841149 -1.546317 -1.070484 -0.107528 0.038377 1.036335 1.46352 0.581679 0.317606 0.524112 0.396357 0.612318 -0.649293 1.715613 -0.171751 1.976608 -0.258967 -0.202271 0.659041 -1.725756 -1.871528 -1.929046 -1.658283 0.554515 1.550062 -0.951844 -1.053857 1.27422 -0.611049 -1.087839 0.375053 -0.572276 -0.190056 1.871559 -0.01513 -1.261421 0.820503 -0.116501 -0.26821 -1.515955 -0.030976 0.994673 0.30994 -0.711084 -1.046943 -2.536263 0.526933 -0.90586 -0.220115 0.719194 -0.432285 -0.233799 0.605292 0.050024 -1.037865 0.409494 1.749833 -1.127612 -0.098602 -1.293624 -0.624992 2.063181 -0.143098 -0.984974 0.920492 -0.555835 1.03066 0.036814 0.090045 0.618788 -1.587579 0.66218 0.024068 0.166363 -2.661462 0.26248 -0.504241 0.122967 0.229377 -1.655041 -0.843955 0.401863 1.146667 -0.061893 -1.700393 1.514409 -0.377756 -0.614939 1.220982 1.442009 1.953926 0.486915 0.882277 -0.139429 1.053693 -0.088363 -0.027878 1.730762 -1.072427 0.521509 0.834834 0.989476 -2.270595 0.419595 0.2501 -1.030439 -1.178372 0.535529 0.986208 0.264615 0.276252 0.722271 0.632074 -0.27165 -2.720113 0.450024 0.141626 -1.479187 -0.28292 1.526842 -0.335006 0.253842 1.174486 0.34671 0.197711 -0.269627 -1.827475 0.730369 1.111047 -1.622422 -0.341352 -0.841835 0.11864 1.192418 -1.234843 -2.397817 0.465403 0.148849 0.841399 2.84281 -0.706911 -1.357463 1.821236 1.564206 -0.434854 -0.925557 -0.158523 1.394187 -0.606656 -0.27301 0.525422 -0.601478 1.809713 -0.085137 -0.558328 -0.651621 0.397563 0.686913 2.82487 0.540538 -1.099481 -0.287707 0.07733 0.325745 0.792604 1.609094 0.184603 1.036099 0.930788 -0.073794 -0.495891 -0.538837 -0.578993 -0.479733 -0.928459 1.255651 -0.390519 -0.647826 0.651139 -0.461612 -1.091052 -2.121603 0.394899 1.340216 -0.264996 -0.343954 0.88868 -0.909332 0.482349 -1.582828 -1.501245 -0.075217 -0.959314 1.168293 -0.407305 1.174858 1.055939 1.375679 0.365295 0.843127 -0.882773 -0.641278 1.060264 -0.307372 -0.927575 -1.404076
flight -0.273298 -1.448413 1.329829 0.56901 -1.76569 1.380089 0.745231 -0.047403 -0.115487 -1.025375 0.427278 -0.880136 -0.650703 -0.20466 -0.047119 -0.722303 2.350143 2.601419 -0.299271 1.338424 -0.886215 0.202373 -0.206608 -1.855739 -0.727252 2.167076 2.016886 -0.543219 0.071672 -0.852933 -2.64134 -0.169311 1.746089 -0.209013 0.902311 -0.095072 -0.34297 -0.366276 -1.943481 -0.547933 -0.366766 -0.917223 0.120129 0.415245 -1.334633 -2.071036 0.439115 1.240957 -0.714472 0.225188 1.297844 -0.275254 1.417183 0.099997 2.21002 0.166685 -0.596456 -0.152895 -0.430692 -1.001359 -0.274787 -0.397498 0.29291 -0.205547 0.513696 1.046432 -0.741666 -0.84518 0.367324 -0.557884 -0.14055 -1.341951 -1.249954 -0.883593 -1.06431 0.33793 -1.178324 0.299851 0.674991 -0.206798 -0.339241 0.070303 1.138187 0.022037 -0.272323 0.954383 -0.137987 -0.206056 0.25168 0.410204 -0.153174 -0.629866 1.468681 -0.258958 -0.469721 -1.596793 0.268576 -0.316402 -1.117208 -1.7552 0.014498 -0.73118 -0.693645 -0.006327 1.616646 -0.417721 1.524707 0.713306 0.577622 1.229571 -1.603395 -0.823495 -1.995342 0.227554 -1.2885 -0.450757 0.652034 -0.059312 0.468795 0.380953 1.269993 -0.251891 0.088147 0.17861 -0.067464 -0.118869 0.250882 0.860399 2.842105 -1.452906 -0.279456 0.377419 -0.534803 0.385476 0.828873 -0.612948 0.981324 -0.429653 0.684242 0.415545 0.105525 1.16106 0.841484 -0.303382 -1.515476 2.064732 0.103723 -0.625246 -1.29303 0.270645 -0.794578 -1.321828 0.361349 -0.775104 -1.279101 -1.641397 -0.146514 -0.12807 -0.571593 -0.453809 -0.984009 -0.093221 -1.065372 0.741219 0.832025 -1.100003 -1.000377 0.72502 -2.108932 0.408193 -0.708819 -0.114337 0.433018 -1.574532 -1.752697 0.132215 1.031785 1.394666 -2.737587 -0.359525 1.114957 -1.164889 0.477853 1.474889 0.700846 0.533793 2.206811 -0.61528 0.85944 0.142981 -1.846237 -0.090896 0.159201 0.977846 0.027804 0.094059 0.122356 0.617723 0.529813 1.197316 -2.10334 1.35461 -0.091055 -0.458831 0.593065 -1.674888 2.320639 -0.564117 1.4996 -0.401817 -1.167574 -0.650029 0.474793 2.111962 -0.082846 1.304862 -0.272177 -1.129205 0.033775 -2.457906 0.136079 -1.318871 1.101585 1.082397 1.020496 -0.06045 -2.81807 1.227641 1.031819 -1.50655 1.340885 -0.451795 0.836345 0.202039 0.035138 0.421587 1.044858 2.3726 0.308173 -0.276045 -1.497582 -1.631551 0.395865 -2.079157 -3.189875 -1.776852 0.366016 2.041979 0.412996 0.743222 2.083993 0.2887 1.135361 -0.43791 -0.052413 -0.191424 -0.180054 -0.739849 -0.056442 1.536217 -0.17525 0.575269 -0.607929 1.710185 1.752396 -0.050333 -0.117062 -0.14653 -1.519731 1.459368 -0.650079 -0.663106 1.629251 -1.061452 -0.341139 0.914013 0.335067 -0.66907 -0.385622 -0.52332 0.884076 0.333144 2.094346 0.439021 -1.465404 1.488493 -0.970833 -1.60219 -0.470387 0.032753 1.284178 0.187253 0.799757 -0.246082 -0.08903 1.019461 -1.165017 1.634747 -0.869282 0.82261
forest -0.269112 -0.902238 -0.06805 -1.049032 0.284827 -0.713814 0.520243 -0.63967 -1.907298 -0.51567 -0.560643 -0.602836 -0.255271 -1.016621 -0.493546 -1.214684 1.179666 1.327831 -1.385069 1.709976 -0.084464 -0.284187 1.411728 -0.366804 -0.291578 0.339165 0.143411 0.020505 0.36686 -2.156551 0.3249 0.696178 -0.785455 0.957859 -1.031932 -1.299551 -0.689731 0.815773 -0.461309 -1.434798 1.481783 1.190907 -0.134174 -0.209206 -1.152964 0.885358 -0.538866 1.213307 -1.249375 2.299507 0.305689 0.233677 0.005723 -0.301198 0.580156 0.147509 1.475956 0.244435 0.576394 0.96281 0.208732 -0.899006 0.496267 0.847019 0.085069 1.506959 1.314962 -0.366008 0.127474 0.238381 -0.190347 0.67839 0.008651 0.581828 -1.805665 0.473444 0.39544 -0.662692 0.918032 -1.034009 -0.074828 1.272946 -0.511301 -0.953511 0.050563 -0.530761 2.294327 -1.058837 0.297926 0.481064 -0.880436 1.011935 -1.147784 -1.203378 -1.155537 -0.713737 -1.351155 -0.628157 0.572159 0.232757 1.178582 -0.926062 -1.539224 -0.731181 0.804732 0.409928 0.608768 -1.081214 0.739141 0.369864 0.458987 0.656097 1.110547 0.178857 0.693631 -0.139944 0.709723 0.091461 -0.210337 1.435916 0.484396 0.342954 0.017102 -0.498897 0.442695 0.555109 0.879544 -2.091466 -0.137929 -0.05223 0.42386 0.303654 1.591713 0.800054 -0.075157 0.534938 2.037762 -1.236783 -0.832159 0.198197 0.123425 -0.630396 -0.42363 1.023314 -0.170501 0.050625 -0.093033 -0.161961 0.631468 0.766916 -0.327699 -0.161402 -0.443164 -0.521385 -0.714138 -0.905725 -0.706658 0.299105 0.234746 -0.334874 -0.52224 0.314249 -0.145593 0.168339 -1.352206 -1.241953 1.446806 1.236022 0.492853 0.302573 -0.456684 1.15362 -0.444845 0.781639 -0.002729 -0.766824 -0.867198 -1.849509 -1.413219 0.638005 0.477446 -0.596353 0.29545 -0.407794 -0.337344 -0.316434 -0.709233 0.702709 0.18942 -0.080021 0.741963 -1.02619 -2.044207 -0.85285 0.60435 0.474249 0.700384 0.034135 -0.772324 1.305227 0.683334 0.314836 -0.559915 -0.14365 0.53096 1.627177 -1.210774 -1.799131 0.072392 1.286148 0.088952 -0.251888 1.73599 0.188 -0.545632 0.225655 -0.684198 1.380395 0.384822 2.236723 -0.976283 0.181968 -1.08021 0.823068 0.416448 -0.250537 0.713289 1.244094 0.013811 -0.195053 -0.294981 -1.585279 1.297758 1.044296 0.666875 0.144218 1.113673 -0.461773 0.106494 -0.465762 0.289632 -1.555775 1.39935 1.359696 0.786263 0.283991 -0.309929 -0.20463 0.445833 -1.282051 1.014818 -0.338505 -0.083086 0.602927 0.12313 -1.353598 -1.090432 -1.701564 -1.229496 -0.106952 0.047014 -0.999994 0.461884 0.927502 0.017047 0.531366 -0.3612 -0.533836 0.291556 -0.38992 0.815469 -0.289688 0.893383 0.04708 0.569251 -0.471431 -0.355243 -0.365697 -0.430459 -1.059463 0.112753 -0.294885 1.460548 0.510001 -1.653825 0.237044 0.310165 -0.241477 0.906049 -0.660558 0.654836 0.775207 -0.3449 -1.192948 -1.239749 -1.146752 -1.760049 1.156082 -0.495042 -1.142618
abuse 0.019285 0.387205 1.71729 0.644066 -1.813826 -1.005043 -0.958503 0.066109 1.558054 0.547147 0.245902 -0.389822 1.320175 0.905305 0.143224 0.42048 0.821 2.214122 -0.64112 -0.546374 0.8715 -0.46908 1.412054 -0.627631 0.008979 0.566222 1.279562 -0.178155 -0.644623 -0.265982 -0.163955 0.389206 -0.755236 -0.464693 -0.300707 1.041007 3.089352 -0.361369 0.278386 0.095224 -0.935582 -0.882153 0.376562 -0.356547 0.530016 -1.440157 1.264753 1.283301 0.053289 1.08781 -0.755881 0.22371 0.093967 2.468191 1.07791 -0.143615 0.666162 -0.637058 -0.121424 0.642846 -0.37509 0.679023 -0.73078 -1.051622 0.727076 -1.832746 0.719268 -0.544002 1.619923 1.967839 -2.39641 -0.308959 1.099916 0.596196 1.187919 0.715476 0.617096 -0.002923 -0.324893 -0.165859 -0.881102 0.703438 -0.50889 -0.841552 -2.514411 0.646657 -0.948274 1.154932 -1.017277 1.127041 1.259206 -0.020216 -0.274331 0.843178 1.175213 -1.261857 -1.088124 -1.823412 -0.189938 -0.62414 -0.811676 1.656718 -1.292257 -2.26985 1.267988 0.832333 -0.06108 1.535577 -1.582291 -0.352807 2.591115 -1.763444 0.22314 -0.474076 -0.517774 0.816231 -1.033382 1.995136 -1.012837 -0.294331 -0.601814 0.312349 1.863549 0.464749 -0.893842 -0.599159 -1.213869 1.770311 -0.323043 0.527311 1.650113 0.381437 1.009674 0.212967 -1.896856 -0.071769 0.71417 -0.016399 0.046733 0.875885 1.251134 0.123011 -1.025875 -1.249992 -0.691986 -1.359604 -0.043747 1.833476 1.218401 -1.748417 3.476395 -0.35373 2.42718 -1.282061 -0.34307 0.270876 1.774637 -0.100236 0.58135 1.476711 0.654608 -1.652983 -1.631389 -0.50425 -1.912812 0.414495 0.340882 0.239443 -0.648265 1.737458 -2.0606 -1.719487 0.127388 -0.170527 1.92745 0.514132 1.095437 1.360187 -1.63267 -0.266965 1.015842 1.466895 -0.137117 -0.1057 -0.08014 -1.420833 0.186176 0.799848 2.311289 0.146868 0.468995 0.212183 -1.102984 0.997917 -0.666194 -1.425557 -1.324016 1.998456 0.805313 -1.959739 -0.342498 -2.316121 0.432177 0.562345 0.532333 0.291966 0.509413 -1.323727 -2.60156 2.266122 0.35649 -0.348025 -0.934433 -0.579467 0.012257 -1.055056 -0.349119 0.841486 -0.75302 -2.551751 -1.169603 -0.695309 1.163114 0.405282 -0.426962 -1.155304 1.10703 2.341035 1.216787 1.296611 0.238337 -0.852813 -0.450007 1.769458 -1.711591 1.83034 1.35057 -0.969346 -0.551965 -1.636524 -0.860211 -0.454568 -1.166765 -0.2706 0.143656 0.73329 1.176808 0.449279 -0.896224 0.226807 -0.393702 -0.555798 0.976042 0.460815 -0.289312 -1.046536 0.70053 1.105296 -2.626359 0.068 -0.619562 -2.249373 -0.227336 -0.541531 -0.41123 0.931377 -1.231108 -2.026172 -0.411068 -0.497153 -0.948565 1.489968 0.289432 -1.499223 -2.416742 -2.115366 1.197779 0.167779 -1.123043 0.431418 0.476042 0.427731 0.046592 -1.701495 -0.764962 0.451884 0.011143 1.743708 0.208166 0.837723 0.973441 0.22856 -1.447911 -1.123068 0.045438 1.646367 1.529282 -1.993704 0.044335 0.289603
criterion -1.154878 0.159196 -1.018408 -0.963773 -0.224214 -0.739139 0.274892 -1.13538 0.48016 -0.151646 1.290093 -1.482546 0.710234 -0.811509 0.268862 -0.138968 -0.218181 0.85635 -0.121425 -0.806928 -0.969375 -0.792873 -0.264385 -0.083451 -0.400011 -0.546313 0.448887 -0.733323 -0.363838 -0.640503 1.004971 -0.045217 0.117362 0.786692 -0.739076 -0.754691 -0.896711 -0.151593 0.70059 0.824163 -0.272708 -1.38308 -0.061303 -0.586534 0.923043 -0.90315 -0.144174 0.576668 -0.360915 -0.337701 0.968617 -0.366848 -0.044628 0.087125 -0.662113 -0.528735 -0.608343 0.709881 0.513487 0.271568 0.475428 -0.357585 -0.354708 -1.217461 -0.423264 0.501683 -0.019452 0.828294 -0.443479 -0.48966 -0.192251 -0.663246 -1.830281 -1.065212 -1.211474 0.221433 -0.386887 1.47983 2.876991 -0.930414 -1.279573 -0.331335 -0.572432 -0.863393 0.05397 -0.504534 0.641756 0.144361 -0.088548 -0.912283 0.092883 -0.642603 0.883497 0.443842 0.179799 -0.052834 -0.129244 0.825103 -0.938042 1.65262 0.266584 -0.16692 0.936507 0.312535 -0.357658 -1.215797 -0.030259 -0.384374 0.132315 2.071655 1.185641 -0.341865 1.234184 1.407817 0.315985 -0.056246 -0.660766 -0.961252 -0.464654 0.022215 0.436829 0.483559 -1.246005 -0.235765 -0.436398 0.421159 0.752124 0.59245 0.945717 -0.702743 -0.988991 1.168744 -0.550272 1.073608 -0.263124 -0.419951 0.345146 -0.195642 -0.819345 -1.356469 -1.15129 0.170512 0.816847 0.12914 -0.746065 -0.21993 0.698546 -1.121554 0.721826 -0.09356 -0.658566 -0.113726 -0.266697 0.65507 1.436346 0.239047 -0.982229 0.104366 -0.351489 -0.451838 -0.427574 1.100377 0.288142 -0.482406 0.75775 -0.781643 0.324548 -0.156469 -0.783409 -1.206072 0.171852 0.203856 0.74818 -1.452692 1.405986 0.314237 -0.743886 0.686032 -0.407435 -0.645917 0.15983 0.518389 -0.557577 0.957596 0.137819 1.018529 0.557873 1.246856 0.011862 1.58106 0.344832 0.266258 0.958277 -0.543817 -0.604741 -0.08382 -0.025675 -0.387404 -0.976004 -0.32648 0.522231 0.592817 0.681071 0.741502 1.367682 0.015225 -0.958809 -0.28849 -1.191995 0.331868 0.614568 0.220343 -0.394874 -0.249499 0.408748 -1.089003 -1.134215 0.051992 0.590977 -0.281887 -0.076158 -1.489914 -0.911652 -0.171249 -0.088313 -0.2443 0.862968 -0.310462 -1.189123 -1.824612 -0.043154 -1.075325 -1.592788 0.786951 -0.356571 -0.015954 0.060635 1.685142 -0.827953 -0.069426 1.132607 0.353446 -1.451564 -1.34502 0.752964 0.482885 0.059012 -0.481195 -0.694931 -0.781226 1.183264 0.650563 0.052197 -2.66446 0.422352 -0.067245 1.612371 0.132535 0.36096 0.844173 0.975956 0.415694 0.447242 -1.017353 -0.472534 -0.684399 -0.113496 -0.129169 -0.916653 -0.47621 0.629133 0.870656 -0.627093 1.641435 -0.217931 -0.150363 -1.127247 0.252424 0.035391 0.15734 -0.484371 -1.760186 0.541212 -0.419939 -0.091883 0.372716 -2.107798 0.01792 -0.258986 0.390087 0.638187 1.326915 2.19E-4 0.54626 -0.325903 -0.21498 0.167676 -0.73701 -0.098672 -1.118086
sea -0.577733 -0.119616 -0.131368 -0.909387 0.200993 -0.174977 0.137651 -0.81927 0.57098 0.087114 0.291846 1.078732 1.097309 -0.384502 -0.349538 -1.066003 1.668488 1.226597 -1.171998 1.785079 1.384932 0.87936 2.051471 -0.53489 -1.875917 1.093194 -0.982006 -0.361187 -1.756566 -0.886689 -0.270679 0.601164 1.200428 0.099771 -0.645657 0.261888 -0.200017 2.062675 -1.507522 -0.386153 1.14152 2.293089 -1.184348 -0.145147 -1.442981 -0.632421 -0.289195 1.173145 0.206259 2.147866 -0.276187 -0.948001 0.595296 0.601613 -0.102051 0.233231 0.640006 -0.81532 0.533641 -0.397742 -0.749277 -0.491997 1.399073 0.186218 -0.139014 0.50518 0.649211 -0.03885 0.300582 -0.866036 0.939847 -0.325794 -0.210457 0.043368 -0.677487 -0.71741 -0.454322 -1.853443 -0.7634 0.213854 -0.704054 2.350396 -0.214431 -0.461591 0.135907 -0.924757 3.114605 -1.248102 -0.51081 -0.015688 0.199141 -0.666936 -0.822267 -0.231055 -0.579991 -0.851657 -0.441876 0.070106 1.462376 -1.444477 0.039764 -0.322472 -0.647802 -0.747479 1.142064 -0.708996 -0.56946 0.423196 0.924465 0.919695 -1.389654 1.049153 -1.005731 -0.808136 -0.418705 0.423539 1.651732 0.593856 1.582645 0.939942 -1.282487 0.365495 1.537675 0.138223 -0.91692 0.766454 0.458307 -0.927703 2.540697 0.042344 0.284324 0.989283 0.971781 1.020479 -0.855662 1.915859 2.433308 -0.095818 0.775585 0.199511 -1.324043 0.676523 -0.025065 -0.101872 0.362233 1.046447 0.150531 0.659548 1.63554 0.446101 0.768148 -0.942108 0.344188 0.922563 -0.638795 -1.644821 -0.374171 -0.240946 0.500309 -0.531726 0.073501 -0.045234 -1.689446 0.961411 -1.617231 -0.439242 -0.052145 -0.53259 0.278617 1.040377 -0.576974 -0.081955 -0.695637 -1.73372 -0.379718 1.446713 -0.215348 -0.722683 -1.333623 1.066267 0.551283 0.302709 0.029106 0.854038 -0.171098 0.435828 -1.012068 1.495414 -0.69099 -1.491129 0.035989 -0.055742 -0.319082 0.297436 2.151276 1.668967 1.311617 1.480166 0.468235 0.729601 0.588633 -0.394978 -1.458872 -0.883488 0.004166 0.335267 -0.334167 -2.11114 -0.555501 0.299309 0.802406 -0.167944 0.405456 1.863865 -2.071588 0.87525 0.150643 -0.205443 0.257924 -0.205613 -0.3483 -0.985636 0.077016 -0.70473 -0.641019 -0.244575 0.130385 -0.001984 1.291275 0.114855 0.24286 -1.162501 -0.113538 0.561069 1.016848 1.015245 0.825304 0.394562 0.168986 0.091762 0.528247 -1.144804 -0.787137 -1.008685 1.303707 1.496514 0.303478 0.26665 1.540575 -0.778815 -0.931223 -0.414659 1.319208 1.047087 0.751013 -0.962455 -0.192093 -0.583143 0.045659 -1.789845 0.319157 0.51263 -0.215098 0.937009 -0.092917 -0.152019 -0.556262 -0.103062 0.2285 -1.708829 0.024381 -0.228271 0.06744 -0.08921 0.212541 1.243773 -1.713909 0.177778 0.199705 -1.444431 -0.163289 0.377769 1.185404 -1.047163 -1.501707 0.48103 -0.429067 0.210889 0.324733 -0.211099 -0.122634 0.20175 -0.73404 -0.716656 -0.1982 0.32138 -0.080263 0.405759 0.222574 -1.870192
dollar -0.14945 1.108779 -2.055475 1.097113 0.849084 0.637649 -2.158651 1.291835 -0.090311 0.455192 1.863881 -0.929556 0.660703 -0.110701 -0.405253 0.476103 -2.570099 0.499093 -2.145711 0.411155 -1.385805 -0.142401 1.052376 0.568786 -0.224158 -0.053923 1.380324 -0.916996 -2.343097 -0.309209 0.212127 -0.141644 1.604536 -0.553932 0.278485 0.793775 -1.176205 -0.843777 -1.2225 -0.021005 2.89323 -0.080367 0.782034 0.77478 1.183722 0.484319 -0.644077 1.577369 0.727171 -2.146534 0.545522 1.176748 -0.040693 -0.496015 0.25165 0.381903 0.671299 0.870159 1.859613 1.134439 -0.478796 -0.325571 1.943323 1.457776 0.579045 1.440735 0.405349 0.971353 -0.124259 0.595917 -2.497775 0.576185 -2.647342 1.130138 -1.188723 0.393934 1.675949 2.00516 0.284959 -0.537764 0.309045 -0.652778 -1.05296 -1.726976 -0.80822 -0.864142 2.401854 -1.399066 -1.240349 -0.845023 0.312085 -0.483484 -1.324179 -1.097505 -0.494981 0.495646 -1.800723 -0.066045 0.124944 -0.281135 -0.677588 0.046868 -0.788982 -0.672219 -0.887394 -1.137811 1.329545 -2.967777 -0.364894 -0.263241 -0.726532 -2.406922 2.062686 -1.878525 -0.671782 -0.358281 -0.554865 -0.382834 0.214275 1.94146 -0.104835 -0.041671 2.686105 0.460536 -0.007289 0.745323 -0.364433 -0.830258 0.276662 -2.357011 -0.581081 -0.423059 -1.23799 1.074669 1.262013 -0.145039 1.196935 1.128505 0.412287 2.44285 2.071348 -0.609304 -0.59409 0.318924 0.233922 0.778924 0.668079 -0.184865 -0.61816 0.288007 -1.526248 -0.929052 0.110375 1.763377 -0.416486 0.245091 -0.402929 -1.369045 1.138711 -2.927881 0.02687 -1.778237 -0.557829 -1.17971 1.385458 -1.008727 -0.155867 -0.485419 -2.052639 0.201659 0.968299 -0.412248 -1.040891 -2.356278 0.84951 -2.127947 0.896203 -0.344559 -0.334861 0.393726 -2.206316 -0.290785 -1.527733 -0.559871 0.661018 1.248371 -0.575704 -0.311169 -1.938852 -1.605733 -2.232248 -0.492678 -0.82473 -1.38758 0.575396 0.404243 2.296378 2.137634 0.759571 1.85258 1.263161 0.257142 0.524498 -1.647239 0.326853 -0.456497 0.35054 -1.897573 0.933271 -2.300967 2.065564 -1.820949 -1.472549 -1.468801 -0.741267 0.377765 1.811677 -0.740464 0.594902 -1.760694 -0.914977 0.627068 -1.413461 -0.026273 -1.098962 2.607941 3.134177 -0.191096 0.522281 -1.172395 0.418305 -0.476904 0.695346 2.708422 -0.551355 1.570927 -0.2015 1.688858 -1.872833 -1.170027 -0.450011 -1.432481 0.378029 -1.189085 0.416814 -1.803883 0.445711 -0.218224 1.697581 -0.14272 0.392019 -1.467323 2.226387 1.809934 -0.51651 0.955559 -2.012145 0.863498 -1.192562 -0.909682 -1.460257 1.921522 1.004547 -1.11955 0.538164 -1.908319 -2.883323 0.172083 1.955635 0.356365 0.270352 -0.155384 0.724562 0.50308 -0.502787 1.761032 -0.242667 -1.011176 -0.822016 0.662886 2.047795 0.188264 2.538433 0.967724 -1.860623 -0.610291 -1.825776 1.520111 0.432672 0.588154 0.580802 0.238968 -2.007653 1.223113 0.656418 0.826392 -1.813838 0.904662 -1.973505 -0.385287
example 0.644615 1.786308 -0.402918 -0.712045 0.02802 0.113291 1.42055 0.48951 -0.296162 -1.01995 -0.903033 -1.745888 -1.026611 -0.549709 -0.602341 1.170217 -0.482051 1.140531 -0.991986 -0.094396 -1.365742 -1.294227 0.65556 0.905492 -0.224861 -0.400653 -1.346085 -0.406665 -0.929331 -1.110452 -0.717214 -1.020736 1.284674 0.576365 0.64076 0.186246 -0.772991 -0.489871 0.970652 -0.172833 -0.759832 0.584558 2.000918 0.096009 -0.88371 -0.489847 1.216106 1.678458 -0.151134 0.023413 -0.264123 1.358629 0.653251 -1.027316 1.14592 1.890258 -0.153005 0.66276 0.507381 0.139206 -2.364408 -0.583433 0.683529 -0.90198 -0.522914 -2.056115 1.89946 0.427085 0.726877 0.58249 0.087857 0.477432 -2.025044 0.012881 0.356618 -0.872973 1.0894 -1.460223 1.267437 -1.126949 -0.680606 -0.426681 -0.425953 -1.958295 -0.647294 -0.270834 0.63488 -0.981166 1.640003 0.759734 -0.614336 -0.301844 -0.365627 1.408519 -1.696472 -0.048189 1.270751 1.431923 -1.597055 0.309801 -0.526634 -0.842153 1.15175 -0.358649 -0.039645 -1.439542 0.312763 1.377111 0.090865 1.429301 -0.503649 1.050404 1.59315 0.362738 -2.197168 -2.430869 -1.021652 0.012206 -0.229533 1.651504 0.828731 0.664494 -0.746854 -0.315354 -0.789544 -1.33435 -0.908513 1.48484 0.079292 -0.587447 1.022877 -0.759132 -0.653032 0.524682 0.192256 -1.065376 0.476185 -0.48358 -2.355222 -0.32354 -0.687111 -0.854512 -2.074745 -0.003858 1.081531 -0.371431 -0.843592 -0.017289 0.694106 -0.023499 0.370134 -0.093695 -0.573242 -1.44575 0.793255 -0.032733 0.765438 0.434804 -0.553052 -1.529544 0.449625 0.055241 -0.715156 -0.466657 0.01333 0.715081 0.579968 0.114667 -0.618463 -0.823218 0.581751 0.041716 1.423443 -0.690418 2.10551 -1.344092 0.577678 0.893989 -0.381949 -0.93569 0.001345 1.085221 0.884183 0.860444 0.51457 0.262611 0.143708 -0.158359 -0.698759 2.074222 0.385201 1.145349 -2.56111 -0.750485 0.398349 0.607773 0.142198 -1.020411 -1.210994 0.734056 0.223535 -0.102258 -0.334679 1.163112 0.135206 2.06053 0.472552 -0.31033 -1.270507 1.4658 -0.50083 1.555795 0.337595 1.675681 -0.119384 -1.187803 -0.609328 1.625624 0.965211 0.423666 0.38467 -0.147911 0.827754 -0.759664 -1.3419 -1.386453 0.177798 0.997573 -0.270664 -0.960503 -0.049767 -0.570844 -2.248108 -0.906585 -2.18384 -0.057748 1.48407 1.395424 -1.33333 0.746703 1.031651 -0.175669 0.215283 -1.059699 0.78309 0.237535 0.245989 0.513686 1.314549 -1.209234 0.234029 0.844389 1.023196 -2.570246 -0.165564 -0.079082 2.341794 -0.717037 1.280229 2.064446 -1.005846 -1.183228 -0.676116 0.562885 -0.754572 -0.463972 -1.519488 -0.584565 -0.953579 0.473549 -0.124569 1.00186 -0.356958 -0.039701 1.456023 0.691444 -0.99642 0.493256 -0.716638 1.06174 0.670496 -0.838492 0.516511 -0.774801 -0.689544 0.492623 -2.378154 0.995484 1.153569 -0.530743 1.127944 -1.270078 0.346034 1.067388 -0.588762 0.542904 0.202796 -0.693778 -0.935395 -0.468171
journal -0.158476 -1.572625 2.799403 -0.027634 1.005339 0.83845 0.140215 -0.402765 -2.192092 -1.804002 -0.193273 2.535638 -0.673011 2.516219 -2.234107 -0.825958 -0.679425 0.222168 -0.409425 -0.849157 -1.145956 0.694918 0.344616 4.647186 0.713268 -0.990528 1.209524 1.419799 1.742499 -0.327589 -0.215026 -1.086681 2.730643 -1.443404 -1.869728 -0.679815 -1.589318 -2.608443 -0.840175 -1.576891 -0.269425 0.581078 -1.787048 -0.553513 -0.209702 0.325411 -0.109231 -1.933868 -0.929936 1.410275 0.097011 0.035214 0.136435 0.972675 -2.227843 0.956597 -1.782999 -1.307789 -0.794249 2.300785 -2.015635 1.102173 -2.747555 1.309428 -0.535627 0.289126 1.438922 -0.142099 1.372718 -1.915177 -0.437592 -0.371861 1.753652 1.078463 0.010387 1.207053 0.978755 0.466621 -0.282536 2.54246 -1.179047 -0.899753 -1.199619 0.237779 1.578593 -0.122743 -0.367397 -1.551722 -2.693172 0.540614 0.43538 -0.05603 -1.472447 -0.276359 0.721667 1.485187 -0.567702 1.623422 -1.38883 -0.73549 0.135135 1.149983 0.120885 -0.443155 1.195531 -1.761233 -2.727199 -0.57902 3.721659 1.202095 -0.856532 1.432587 -0.749172 -1.341811 2.058283 0.598058 -1.421188 2.037051 -1.699759 -1.907242 -0.479119 2.925247 0.189869 0.956497 1.109591 -1.094626 -2.332123 -0.537899 0.196632 -1.841538 1.632922 0.702161 1.108073 -1.168248 -1.279618 2.279919 1.000535 0.581607 0.009073 0.099632 1.897855 -1.271744 -2.716144 -0.224129 2.780033 -2.2637 -1.185746 1.483465 -0.602376 3.874523 1.913953 2.319317 0.362481 1.075419 1.797583 -2.596456 1.454496 -0.06472 -0.576195 -1.419427 0.648991 0.97336 -1.713946 -0.599856 1.185915 0.0466 -0.659458 2.092262 -0.480046 -0.056633 0.702866 -0.851033 -0.350661 -0.911861 0.626374 3.602647 0.780129 -0.070636 1.006834 -0.517238 -0.385114 -0.109187 -2.392903 -0.243378 0.304702 -2.218601 0.320607 0.525163 0.445189 -1.647226 -1.816714 -0.042126 -0.497869 1.146014 0.482405 -1.45553 -1.027494 -0.104163 -1.336122 -2.381581 2.293408 -0.716039 -0.475137 -0.52223 1.372299 -0.534892 -1.250237 0.764659 3.805524 1.191711 -1.005032 -0.943235 2.76724 -1.211633 -0.212922 -1.109245 -0.637847 1.900414 0.881569 0.609066 -1.353927 -0.916237 -1.396453 -1.269814 1.063787 -1.553313 -1.910058 -0.919684 0.290186 0.463731 -0.357421 -2.017957 -1.329629 -1.975957 1.149985 -0.475462 0.198601 0.251149 -2.995925 -1.515253 0.719105 -0.34366 0.18752 -1.868672 1.957831 -1.071519 3.396485 -0.159945 -0.389701 0.247145 0.116783 -0.461277 0.465983 2.33814 2.215984 -0.671038 0.072272 0.843262 1.219413 1.418729 -0.611926 0.53577 -1.669014 -0.771392 0.559127 -0.61081 1.406396 -2.694804 -0.82096 -0.4474 -1.100237 -2.563112 -0.270818 1.779736 -0.4243 -0.60178 0.591236 -1.194112 1.040368 2.006191 0.638345 1.840582 0.132398 1.203363 -2.272347 -1.591578 0.752247 0.62194 0.46323 0.135147 0.82774 0.124316 0.556804 0.992183 -0.981901 1.557939 0.59523 1.145591 -1.857862 0.160575
laundering 1.795851 -1.857071 -0.422897 -2.845392 -1.303411 -1.602417 3.537307 -1.106096 -0.596654 -0.445179 -1.32726 0.404842 -1.386448 1.10441 -0.604211 0.219122 0.896925 1.234101 -2.112072 0.654854 1.103379 0.746375 1.135553 1.424886 -0.152868 -1.713671 -1.321834 -0.452345 -1.890396 1.349809 1.841162 0.995976 -0.590147 -2.549916 0.213365 1.486734 0.160861 -0.379671 -3.628197 1.165457 -1.719089 3.595784 2.929863 -0.587026 -1.255725 1.982547 1.936882 0.874354 -0.562746 0.730644 -0.532515 -2.522593 1.114636 4.813868 -2.320156 -1.287491 -0.028537 0.926396 -2.441077 1.95471 -0.763889 0.355628 -1.635063 -0.390815 1.794845 0.888105 -0.806121 2.165695 0.59529 0.660553 -0.057133 2.776816 0.288467 -1.055428 0.648797 0.9353 3.925801 -0.76939 0.278509 0.725621 1.054716 -1.173689 0.96716 -0.765248 -0.834953 1.04108 -0.399069 -1.082818 0.931351 2.079264 2.140108 -0.661125 0.33218 -0.087888 2.222689 1.990525 1.920763 -0.034295 1.276209 0.222617 -4.228491 0.400341 1.634707 0.646266 2.126538 -1.506782 0.64133 1.935116 0.872653 -0.109409 0.275135 -1.009074 2.573473 1.678363 0.189871 2.542509 -0.639562 0.308488 -4.43094 0.191358 -2.95473 1.25906 2.808203 0.70847 -1.962006 -0.224946 -2.110334 0.153391 0.352786 -0.210116 -0.750574 -0.978612 2.384452 0.563152 1.833784 -1.113836 1.715529 -0.454156 -0.641959 1.113799 -2.2212 0.239691 2.299205 0.676272 -0.529325 1.221055 -0.16911 -0.174952 -2.772456 0.633089 1.97209 -0.495442 -0.15494 0.766772 0.091411 1.15766 0.884298 -0.635842 2.462188 0.047632 -0.152051 0.722764 -2.205075 -1.918383 0.859941 -2.133843 -2.312749 1.381271 -1.89392 1.862157 -0.452161 -2.085596 0.910469 1.456258 1.806931 2.5228 -1.320906 1.586127 0.301779 -2.550338 -0.516191 2.013887 0.127607 -1.069488 -0.922626 -1.82616 0.244829 2.619848 1.247831 -0.263116 0.696102 0.418717 1.54482 -1.673537 0.023775 0.703095 0.478097 -0.093098 3.03063 -1.051449 0.871895 -2.816944 0.785432 1.805303 -1.812245 -3.223869 1.183587 2.322077 -2.023912 0.174982 -0.013121 -0.927669 -0.674674 0.558092 0.370177 0.468882 -0.598837 -0.400654 1.492334 -2.436889 0.822919 1.030262 2.079777 -0.600962 1.871194 2.92505 -0.565551 1.064739 0.125525 0.201294 0.374487 0.216023 -0.523166 -2.721502 0.547809 -0.232292 0.746849 0.512571 1.310478 -0.377405 0.176485 -1.954039 -2.734759 -1.042908 -0.425805 2.071392 1.069546 0.928041 0.718757 0.326807 1.035723 -1.067638 -2.235036 3.130118 -3.37401 0.477099 1.231354 3.327629 0.122133 -0.746648 -1.424043 1.238859 -1.705573 -1.444564 0.134781 2.508238 -0.027835 -1.305985 -1.108295 -1.507266 -0.547588 1.540625 1.782315 0.363041 -0.47729 0.458837 -0.201342 2.36645 -2.44005 1.969411 -1.279196 0.625148 0.388664 -2.519397 -0.661576 0.376138 -0.620282 3.85014 -0.500491 -2.039836 1.564639 0.950035 -1.511009 -5.106452 -0.151886 2.009357 0.014241 -1.60476 0.692376 1.322008
