432 100
plane 1.39029 -0.021233 0.407582 1.011318 0.713646 -0.353268 2.10236 -1.023738 -0.321545 -1.182306 -0.41295 -0.204691 -1.068753 -0.617219 -0.346261 -0.773706 0.550428 -0.8417 0.943194 -1.523041 -1.666685 -1.443214 -2.424292 -0.42453 2.580501 1.758052 1.241192 1.134175 0.602213 -1.365235 -0.435264 -0.185865 -3.419973 -2.968472 0.325766 1.942432 -3.342451 -1.820273 0.32218 -0.341618 -1.427518 1.301319 1.201329 -2.980211 -0.3687 1.888659 -1.754153 1.040811 -3.426836 -1.696283 0.526888 1.511712 -2.034971 -0.109902 -1.202103 2.675032 -1.941331 -0.908425 1.513108 -0.496968 -2.368996 2.080121 2.464211 -2.113644 -0.479663 -1.248157 -0.329733 2.299152 -1.882156 -0.443875 0.160666 -0.750912 1.253729 -1.711156 -2.716213 0.193124 0.048693 -0.497852 -0.224463 -0.867863 2.361762 -0.606174 -3.132607 -2.395143 -0.398763 -1.809615 1.961176 -2.105952 2.605167 1.466773 1.031824 -0.196373 0.053109 -0.780604 -1.231867 -0.61591 -0.35001 1.161539 0.849769 -0.983032
stupid -0.082608 1.629439 -0.474668 1.917014 -1.338297 0.758665 0.6705 0.820623 -0.940467 -0.344313 -1.17586 -0.923761 1.410785 -0.870559 1.010624 -0.069998 0.624955 -0.051471 0.792908 0.707153 -0.395989 0.065062 0.399239 -0.724575 -0.338425 -1.992137 0.150951 -0.367932 0.617282 0.866684 -0.235746 0.802717 0.157809 1.350348 1.57509 0.670138 0.458584 -1.082978 0.829088 0.736335 -0.556053 0.313587 0.080831 1.209751 0.230924 -0.417952 -0.550977 -0.639972 -0.043383 -0.584684 0.232243 -0.20765 0.099055 -0.190163 1.825287 -0.448672 -0.704711 -0.886249 -0.697796 -0.528787 -0.312305 0.830192 -0.562564 1.425279 1.009023 0.341641 0.19737 -1.128204 0.711359 -0.224624 -1.178507 2.114014 -0.393028 -0.212172 -1.227953 0.561676 -0.490952 1.287984 -0.227514 0.226721 0.146263 -1.070841 0.259991 0.253496 -0.710026 0.666616 0.149027 0.398713 0.3983 -0.342752 -1.178229 -0.565588 -0.396647 -0.535429 0.945142 -0.20982 1.526589 -0.732419 -0.462621 0.073061
egg 0.867553 1.195724 -0.210044 0.083503 -0.463143 0.588104 0.743805 -0.371194 0.443049 -0.206947 -0.0209 -0.412137 -0.321067 1.063341 -0.260452 -0.48135 1.112166 -0.633018 -0.043244 0.636762 0.965324 -0.829774 0.629302 -0.950622 1.490762 -0.202381 0.63252 1.148493 0.21007 1.191165 -0.712956 0.267731 -1.040983 0.37388 -0.592665 0.027537 -1.599824 -0.493099 1.180069 0.033085 0.546586 0.218472 0.320081 0.140161 -1.457376 0.060104 -0.452596 0.271092 0.293403 -0.674386 -0.278794 0.800934 1.393964 -0.798722 0.053084 -0.65069 -0.482691 0.088186 -0.464165 -0.699366 0.222989 0.600732 0.313433 0.340243 1.115536 0.426914 0.195548 0.753696 -0.511124 -0.073139 0.405083 -0.913985 0.801775 -0.516148 -0.122551 1.646677 0.852758 -0.7801 -0.061979 0.670152 0.720249 0.188565 -0.698867 -0.322204 -0.477904 0.845112 0.722797 -0.023979 0.436241 0.171277 0.491702 -0.503456 0.458153 -0.542481 -0.35573 0.434856 0.771518 -0.951455 0.058999 -0.791064
year -2.172569 0.332081 0.748182 -3.362094 1.495053 -0.011377 5.826953 -4.446787 0.157277 -3.447334 2.000583 2.624062 -0.206298 -1.00814 -2.991635 -0.870332 1.104406 -4.594885 1.210202 -0.348863 -3.626318 4.592639 1.649411 2.027571 -0.001643 2.682049 3.694689 -1.744688 -1.667139 1.082358 -0.436969 -0.867393 -1.715482 -0.847426 0.542523 1.743174 -3.903052 1.174996 1.453756 0.639317 -4.211917 3.004856 0.743259 -1.648037 -0.02498 -4.16555 1.560778 -1.376855 0.125027 -1.683775 -1.780768 -0.882291 1.42116 -0.555728 -1.260758 -0.818243 2.301534 0.277188 -0.43704 -4.052739 2.820252 -0.362467 -0.714101 -0.011828 -3.227865 0.290502 -0.781986 1.444802 3.38369 -3.168054 1.752922 -4.265864 6.132766 0.537797 -1.074348 -2.294468 0.223033 4.548197 2.63716 -1.24572 0.800853 -4.801813 -0.373648 2.930943 1.170488 1.156428 -3.909019 -2.060716 1.468751 1.945213 -3.270753 1.207414 -1.196083 -3.287115 0.076621 0.479329 -0.149796 -0.245011 2.448623 1.10821
psychiatry -0.166214 -0.059704 -0.260468 0.342809 -0.186676 0.294731 -0.232649 0.015551 0.004996 0.383025 0.043895 -0.217995 -0.084972 -0.190545 0.158392 0.322781 0.032234 0.103795 -0.344445 0.326649 -0.046785 0.437614 0.472223 -0.011755 -0.034194 -0.20531 -0.459572 -0.134013 -0.088414 0.379638 0.189089 0.058286 -0.037915 -0.238075 0.132637 -0.030223 -0.266954 0.123191 -0.453636 -0.377576 0.335518 0.077823 -0.229307 0.238465 -0.203064 -0.034826 0.098269 -0.07342 -0.132035 0.453932 0.101109 -0.184874 0.553365 0.134569 -0.272898 -0.494359 0.089607 -0.008056 0.299385 0.212636 -0.085275 0.579418 -0.285513 -0.17555 -0.03877 -0.124016 -0.155494 0.40633 0.151356 -0.322387 0.215582 0.032628 0.040275 -0.212733 -0.319902 0.166635 -0.164022 -0.347278 0.107861 -0.069 0.489394 0.225399 0.100611 -0.240524 0.110627 0.01669 0.331839 0.111355 -0.235333 0.442984 -0.021641 0.055649 0.163267 -0.045903 -0.084653 -0.166288 0.150801 -0.606307 0.176635 0.303396
asylum -0.343272 -0.79924 -0.139197 -0.19079 -0.228266 0.746412 -1.23166 -0.61181 -0.258942 -0.473437 0.58755 -0.435126 0.410065 -0.800711 0.586721 -0.759979 1.466121 -0.039151 -0.553022 0.601782 0.152178 -0.232907 0.80984 -0.371048 1.263365 0.893494 -0.932363 -0.525735 0.35618 -0.372339 -0.517337 0.186432 0.65078 0.815504 -0.073873 -1.113004 -0.247031 0.759043 -0.565068 0.288377 0.256588 0.008001 0.701649 -0.343063 1.490296 0.476198 0.294979 -0.036514 -1.890683 0.401456 0.020839 -0.754828 0.917324 -1.470649 -0.192959 0.916929 -0.172008 0.937558 -0.034721 -0.645648 0.363777 -0.561922 0.523231 -0.078999 -0.763928 0.764027 0.487247 1.271782 0.428841 0.44265 -0.335771 -0.62587 1.134792 -0.272503 0.238292 -0.26817 0.06758 0.124899 -0.724415 -0.200238 0.88901 -0.278872 0.875524 -0.424419 -0.218238 -0.431979 0.44803 0.169817 0.878597 0.28354 0.160485 0.386164 -0.908327 1.681068 -0.800813 1.000575 -0.359048 0.701064 -0.270709 0.286439
manslaughter -0.444524 -0.225895 0.878304 0.037334 0.010313 0.717393 0.753051 -0.600044 -0.138439 -0.682671 -1.05832 -0.584306 -0.428499 -1.069156 -0.499877 1.25154 0.051633 -0.579408 -0.637165 -0.448085 0.757 -0.130475 1.178211 0.131641 0.579719 0.089286 -0.98097 -1.099613 0.210248 -0.705698 0.448321 -0.452475 0.246258 1.334819 1.117032 -2.387089 -1.650748 0.611919 0.772773 -1.83625 0.905301 0.703813 0.393953 0.081254 0.870239 -0.04619 -0.347553 0.393043 -1.255704 2.555065 1.515958 -0.264578 1.364461 -0.34056 -0.196597 -0.425759 -0.108829 -0.252229 0.642074 -0.247888 0.929445 -1.034785 1.370934 -0.149792 0.059187 -1.97004 0.058148 -0.046942 -0.536873 -0.353654 -0.81782 -1.079559 0.304036 -0.703916 0.096142 -1.68407 0.252426 1.315684 0.272185 1.339174 3.361441 0.168179 0.555617 -0.127775 1.058617 -1.298981 -0.743856 0.452469 -0.180474 2.269554 0.744004 -0.085619 1.632469 0.393915 -1.604253 0.031027 0.507262 -0.24318 0.830277 0.004432
music 0.087026 2.983571 0.164988 1.140674 -0.51413 0.108045 1.201096 -1.093823 -0.166571 -1.243914 3.438857 2.556442 1.3271 0.941322 -1.985185 -1.761111 1.182962 0.442347 0.047107 1.427139 -0.885685 -0.800547 0.416543 -0.775368 -0.933606 -2.241281 -0.835773 -0.079626 -1.27125 0.071734 0.503423 1.386303 -0.009136 -0.428842 0.075525 1.019547 -3.756435 -0.552711 0.57411 0.503986 2.095238 -1.155573 1.184556 1.436762 -2.40954 -0.307159 1.420733 -0.052105 0.522637 -2.391002 -0.613557 -3.283264 1.22217 -0.044302 1.107527 1.880251 -1.185857 0.554667 -1.649036 1.367355 -0.192357 3.991613 -1.060117 1.453066 0.664269 0.698417 0.441285 0.019041 2.931544 0.179718 0.501483 1.993891 -0.140175 1.436101 0.485077 0.730142 4.352502 -2.453585 0.950745 0.935912 0.070319 -1.631776 -1.499044 0.94197 1.045597 -0.743446 2.492933 -2.518711 0.024717 -0.43632 -0.874873 -0.152653 1.315787 -2.026384 -2.645057 -0.005815 -0.197637 0.865749 0.223471 -0.15143
record 0.510666 -0.751248 0.935553 -1.190175 2.214451 0.349917 0.245661 0.276155 -0.291371 -1.405221 0.999107 1.928065 -0.325764 0.389492 -1.923477 -1.505959 1.976024 -0.502736 -2.02942 -3.016167 -1.04348 1.264213 -0.702883 -1.374213 -0.337909 -0.562114 0.6017 0.630301 -1.746488 1.082263 -2.601821 1.545589 -0.159196 -0.036561 2.606695 2.47716 -3.472983 -0.318981 0.729716 0.891185 0.430624 0.195785 2.376557 1.035817 2.35445 -3.053164 2.337702 -1.617961 0.670347 0.007582 -2.407275 -1.130157 -0.065463 -2.637512 -0.526351 0.674028 -1.635058 -0.64581 -0.154174 -0.631312 1.494629 0.870078 1.75108 -1.085343 -0.93707 -1.58625 1.508347 -0.609029 0.594028 0.99435 3.065549 -2.812398 -2.344196 2.206392 0.816986 0.84659 2.610467 -0.157933 -0.727379 0.809038 -0.225183 -1.479835 -0.891086 0.895049 4.010627 0.095605 -1.091992 -1.756618 -1.70136 -0.869657 0.050432 0.975539 0.883948 2.260031 -1.134257 -0.6948 -2.378381 -2.177808 0.46949 2.214843
energy -0.84977 1.459143 -1.337149 2.872065 -0.179066 1.048495 1.880633 0.495966 1.691311 -1.144909 2.884379 1.56776 -0.281246 1.783981 3.531741 -3.206923 -0.239446 -1.781457 0.626165 -0.47211 -0.732853 1.517123 1.177593 -0.776481 1.494237 -2.604774 1.179921 3.841896 -0.298811 2.060694 -0.575735 4.248503 -0.13668 0.194397 -0.692281 -0.618321 -2.468135 1.281184 0.298844 1.839236 -1.668153 0.765476 -3.350548 -1.995901 0.195726 0.40441 0.42645 2.97634 0.25098 0.329392 -0.704879 -1.136061 1.175771 -1.401321 -0.877463 -1.972135 2.024978 2.258431 -1.562599 -2.981231 -1.07266 0.520215 -0.051468 2.040786 -1.588335 -0.361047 0.619616 1.388169 -0.284106 -0.202527 1.966776 -1.884409 1.078547 1.550571 -1.067108 2.191975 -3.456478 0.585333 2.343808 2.904674 -3.033915 -1.303854 1.155842 -1.4108 1.081406 0.439063 2.794345 -0.008223 1.443145 -1.817786 0.586045 0.053026 -2.153073 0.214483 -2.273736 -1.488783 -2.051004 -0.114716 -0.851275 0.069207
announcement -1.622039 -1.269255 0.764235 1.097641 0.066773 -0.458167 2.89134 -2.967961 -0.373815 -0.730676 -0.401808 0.64921 -1.534341 -0.236354 -1.289299 -0.869781 -1.035265 0.324432 -0.144759 -0.37508 0.36518 1.468352 1.173439 0.843894 1.961869 0.63195 2.667389 -1.785574 -2.287153 -3.135149 -0.860318 -0.704628 -1.290674 -0.92252 1.927628 0.244001 -0.095606 -2.692651 -1.001055 0.390328 2.539633 2.410697 -1.76657 -0.283506 2.097439 0.070634 -0.488039 -2.027976 -0.532957 -3.115488 1.080153 -1.235711 -4.677517 -2.182591 -2.705386 0.205098 1.291235 -1.075243 -1.294089 0.625238 -2.124723 -1.522148 2.283012 0.945411 -1.030856 -3.172572 1.164547 0.825565 -1.530824 -2.14582 0.227308 -2.824381 2.01556 1.879534 0.381259 -0.642547 -1.795121 -0.057207 -0.622009 1.681008 0.504847 0.270426 -0.705773 -0.728188 -0.381912 -0.815787 3.292231 -2.13008 -0.421818 -0.846597 0.866367 -0.90237 0.206961 0.31584 0.375424 1.341706 -0.727887 1.459514 0.515635 2.184461
mile -0.661594 -1.04457 -0.256729 0.159539 1.409759 0.17784 1.307292 -0.53009 0.72941 -0.080614 -2.198513 -0.037657 0.752036 2.09723 -0.692511 -1.137009 1.473481 -1.717632 1.119134 0.298593 0.410217 -0.160724 0.265187 -1.310017 1.103478 0.895256 1.897767 1.337031 1.280001 -0.095122 0.957729 -0.969144 -1.575984 -1.842524 -0.103304 2.258192 -3.655327 0.198213 0.349381 -1.651439 -2.415409 0.304515 0.341763 -2.176289 -0.355188 -0.958011 0.648316 -0.146246 -0.661519 -2.163164 -1.135099 1.91139 0.052983 -0.618101 0.758906 -0.444493 -0.534014 1.276756 2.15932 0.093346 0.005281 0.601531 -0.462097 -0.565881 0.55827 -0.898327 -1.411297 0.628145 0.225967 -1.560269 1.036349 0.007621 -1.061242 -1.053643 -2.287314 3.186181 1.192859 0.419396 0.826376 -0.535546 -0.074369 -0.79436 -2.284179 1.049848 1.28851 -0.138709 -1.716591 0.899787 0.315368 2.216994 0.354198 0.221648 -0.698883 -1.673975 0.037504 -0.945596 -0.923014 0.514863 0.557378 -0.729018
airport 1.194925 0.309186 1.429042 0.945759 -0.5948 0.066541 -0.725452 -1.357995 -0.089534 -1.281442 1.000267 0.911824 -1.07579 -0.27553 -1.76467 -1.260775 2.612896 0.425108 -0.35852 -1.902218 -1.79787 -2.184847 -0.212174 -0.707453 3.625605 -0.39554 0.983515 -0.645297 0.203618 -0.472 0.715255 -1.180197 -2.561352 -2.207905 -1.018641 0.400249 -2.134704 1.160183 -2.221603 -0.424122 1.452729 0.502112 0.938932 -2.585008 0.078515 1.122983 0.464845 -0.057843 -1.065729 -1.404997 1.394157 -1.496008 -0.496517 -0.824163 -1.351422 -0.389387 -1.36191 -0.683264 3.345092 -2.119816 -2.581993 -1.127091 1.999826 -2.34249 -2.519618 -1.307385 -1.21259 3.143985 0.200962 -1.351422 0.103108 -0.884705 0.019179 -1.411778 -2.950795 0.985804 -0.312742 1.338543 0.697257 -2.114234 0.084711 0.318672 -3.204765 -1.923554 -0.870345 -1.15632 1.024253 -1.197558 1.499147 -0.013194 3.397658 0.22266 -1.050601 -0.281315 -0.195144 -0.085326 -1.71896 0.76867 1.453681 -0.921733
population -0.462756 -0.560794 -0.236085 1.011765 -1.00875 2.659793 -0.792939 -3.123693 1.178066 -1.849763 0.446685 0.082864 -1.168983 -1.027957 -1.830868 -2.148437 1.705649 -1.611675 -1.010556 -1.148127 -2.425709 1.41985 -0.945523 -0.635646 0.880971 1.941895 -1.553931 3.381018 -1.174131 1.395222 -1.529722 1.274766 -0.973055 -1.704503 1.317379 -0.206903 -1.489535 -0.290702 1.310978 -0.716324 -2.279276 1.364517 1.356932 -4.298374 -0.228999 -2.675464 2.70658 3.72972 -3.918117 -0.186773 -1.505612 -0.521502 -0.951285 -3.015932 0.775444 -2.468647 0.656734 1.866416 3.162662 -2.334023 0.819408 0.968276 -1.066249 4.327555 -1.076138 -0.178465 -0.533282 0.293242 1.61072 0.126355 -0.019132 0.74346 1.425211 1.536317 -2.760532 4.767348 2.985726 -0.980517 3.535288 -0.308248 0.831707 -0.897836 3.200039 2.535634 0.619286 -2.873224 0.087757 1.365728 -0.386896 0.332738 -0.43291 -0.530056 -2.851259 1.698266 -1.759992 1.490174 -0.770607 -0.817778 1.180546 -0.951123
planning 0.503371 0.670271 0.269576 0.13875 -1.71464 0.961011 2.488546 2.42988 2.433366 -2.878881 -0.086924 0.518531 -0.038467 -1.424116 -1.556851 -0.802954 -1.004441 0.581271 0.322721 -0.895867 -0.755688 -0.421469 -0.413536 0.073207 2.402956 0.224804 -2.327232 -3.163419 0.784261 -1.819538 2.135163 0.829618 -0.476675 1.619483 0.149663 -0.393227 0.081347 -0.099717 -1.836718 0.300166 -2.113577 0.611641 -1.979424 0.501722 2.236649 0.543646 0.975623 0.421608 0.075055 1.782672 0.881949 -1.972545 0.908892 0.543956 -1.992972 0.215671 0.935971 -0.703655 -0.730238 -1.078814 0.507665 -1.407822 -0.578042 0.605143 0.044923 1.088911 -0.444838 1.511657 0.36795 0.882619 -9.77E-4 -0.793077 -1.575914 1.297354 -0.484552 0.247585 -1.378112 2.112152 2.512418 0.540074 0.120909 0.669918 -1.116253 0.176042 0.64641 -2.082667 1.395289 0.292665 1.490912 -1.04161 0.783168 0.191496 -1.23344 -2.614048 0.715979 -0.08996 -1.54645 1.404651 -1.374633 0.09905
canyon 0.193261 -0.297838 -0.092725 0.204704 -0.217868 0.140578 -0.068061 -0.235107 0.218282 0.127728 -0.063807 -0.10075 0.146554 0.138767 -0.120181 -0.134941 0.218216 0.041738 -0.313809 0.133453 -0.032575 -0.297905 -0.198594 -0.124874 0.017034 0.154982 0.445875 0.306667 -0.03442 0.164733 -0.017322 -0.177822 -0.272032 -0.126417 0.027599 0.346778 -0.474873 -0.197601 0.001327 -0.251326 0.01978 -0.266158 0.017254 -0.2858 -0.176117 0.080078 0.006651 -0.049566 -0.210527 -0.002722 -0.005769 0.135668 -0.032214 0.180915 0.145223 -0.266096 -0.451514 0.38332 0.312415 -0.102903 -0.271665 0.42068 0.021325 -0.45535 -0.012654 0.215785 0.026099 0.147046 -0.224547 -0.119161 0.240391 -0.086285 0.085242 -0.268086 -0.165362 0.366803 0.072948 0.091237 0.310991 -0.283089 0.300471 0.13311 -0.311848 0.102792 -0.037364 0.076553 0.053947 0.194015 0.20838 0.519905 -0.035139 -0.08526 0.320548 -0.182183 0.062554 -0.043309 -0.100677 -0.104235 0.277925 0.049279
delay -1.362462 -0.60195 -0.819588 -0.009639 0.331279 -0.083487 1.919409 0.996637 -0.425718 -0.056894 -1.389798 0.458133 -0.110112 -0.791875 -0.211539 -1.128937 0.09789 0.456315 -1.871491 -1.609221 1.16685 -0.546714 1.140099 1.172751 3.747419 0.207866 0.801723 -0.262164 0.450164 -0.641776 0.405813 0.169944 -0.873395 2.341762 -0.144496 0.075963 -0.336812 0.503059 -0.207483 0.040337 -1.058017 0.980992 -0.446933 -0.266565 1.988152 0.215523 -0.478341 -1.875406 0.395889 -0.46364 -0.068449 0.003186 -2.95927 -2.161454 1.109081 -0.031003 -0.360329 -0.080218 -1.786703 0.370227 0.29551 -0.225172 1.654945 0.084384 -1.583108 -3.227356 -0.025179 1.057249 -0.903722 0.210977 -0.729626 -2.543366 2.53704 -0.423238 1.13377 -0.352944 -1.18892 0.781143 0.026069 1.550457 1.363199 1.513117 -0.483735 0.840523 0.414766 -1.633464 -0.296627 -0.482789 1.093976 0.21323 0.181006 1.687345 0.182023 -0.893016 -1.46384 0.283936 0.471008 -0.538513 0.110847 0.421168
size 0.154013 0.851814 0.764349 0.89812 1.614929 0.5935 0.075701 -1.025938 1.139516 -0.860163 0.658359 0.110028 -1.029259 0.359438 -1.838301 -0.746635 -0.733 -2.221047 -0.432737 -1.803901 0.430008 -0.105091 -0.559305 -1.125136 3.169647 -0.249704 0.26123 2.257387 0.478131 1.23436 -0.517632 0.470523 -1.183093 0.075526 -0.720242 1.117734 -1.603774 -1.149454 1.012956 0.258946 -2.291008 0.995874 -0.458014 -0.639335 -0.328677 -1.571464 1.97108 0.443416 0.649618 0.179779 -2.109352 1.539795 0.007973 -1.376366 -0.288326 -2.637766 1.023032 0.600218 1.617665 -2.248223 0.984604 2.148818 -0.606917 -0.227934 0.821297 -2.289326 -0.515574 -2.147964 -1.309174 -1.32833 -1.039187 0.875628 0.562314 0.961044 -0.427627 3.106766 1.277609 -1.016898 1.922222 1.907278 1.941868 -0.051792 -0.581298 1.982287 0.68155 -0.62705 0.361583 -1.276393 -1.071863 0.23716 -1.012631 -1.922983 -0.983028 -0.429146 -2.403867 -0.621628 -0.997378 1.275534 -0.41443 -0.373153
peace 0.126494 -0.437037 1.827709 1.63444 -1.494247 1.747158 0.48453 2.917722 2.611001 -0.756663 1.500442 2.738876 -0.992564 0.854805 -0.727912 -5.195076 -0.981418 -0.038692 -0.942772 2.159702 -2.271598 -0.761995 -0.817081 1.156053 0.711036 1.517341 -3.274806 1.633711 1.167935 -2.875833 -0.957099 0.54955 1.160012 0.089479 2.447867 0.207332 1.553125 1.583263 -0.729655 -0.608448 2.001528 -1.582203 1.335361 -1.033931 3.189491 0.164947 -0.71112 1.989253 -1.174762 -0.566893 -0.48617 -1.763401 -1.962133 -5.679478 1.109001 0.207818 -2.454457 1.666314 -4.028091 -1.500562 -3.554335 -0.376683 0.003658 1.205825 0.385985 -0.699191 -0.901814 0.63144 0.391401 -0.669635 -0.893255 -2.779741 0.808517 -3.238818 -2.5948 -1.13382 -1.002209 3.137787 4.085231 4.731062 -0.166012 -0.417227 1.950604 0.58949 1.387592 -0.744267 1.428769 -2.097409 -0.194284 0.764991 -0.261943 0.023623 -1.079546 -0.617287 1.31901 -1.649467 0.580945 0.447587 0.246312 1.945719
science -1.170904 1.876839 -1.812137 3.054388 1.523511 1.924208 -0.558594 1.099617 -0.732425 0.185467 0.122319 0.597605 0.546983 -2.694349 -0.05445 -1.075165 1.181845 0.136991 -0.199055 1.780235 1.430044 0.600873 0.48105 -0.112602 0.175491 -1.17999 -0.989145 -0.187677 -0.173312 2.063304 0.845355 2.252591 0.50223 -0.303597 -0.763179 0.568928 -1.260285 0.600713 -0.222749 -0.128775 -0.342687 -0.485603 -0.888247 1.331204 -0.17609 -0.14354 2.078185 1.845642 1.212126 1.24062 0.341321 -1.883539 0.077295 0.817526 -0.401102 -1.186828 1.787113 1.188197 -1.511208 1.195848 0.059321 3.541456 -1.879541 1.408635 1.333309 0.738666 -0.637803 0.594159 2.331631 0.087755 -0.719076 2.550568 1.52626 -0.901794 -0.659815 1.076661 0.172544 -0.94662 2.30408 1.217216 0.894271 0.121277 1.012571 -0.541233 -1.03782 -1.028376 2.471651 -2.408069 -0.293104 0.059873 -0.131619 -1.567955 -0.71696 -1.011132 -1.407379 -0.055891 -1.56935 -2.114244 -0.68602 1.419172
dawn -0.705783 -0.701269 1.098587 0.785 -0.097743 0.109317 0.266883 -0.935971 -0.979109 0.179546 -1.444496 -0.306503 -0.271238 0.540481 -1.663913 0.051167 0.793862 -0.032904 -0.116264 0.255025 -0.653575 -0.919027 -0.951359 0.570986 1.450751 0.9888 1.112417 -0.241938 -0.805207 0.451987 0.798624 -1.226759 -0.334639 -1.073833 0.698677 1.368703 -1.024051 -0.929734 0.567031 -1.159471 1.664258 0.727239 0.204339 -0.330513 -1.207597 -0.562417 -0.425676 -1.011332 -0.881041 -0.431787 0.25773 0.230094 0.655255 0.0306 0.387602 -0.22528 -0.797652 -0.13588 -0.197039 0.090154 -0.893602 0.197433 0.211787 0.550933 -1.423864 -1.037126 -0.46594 0.925462 -0.712937 -0.771115 1.07475 -0.792366 -0.485531 -2.001073 -2.091971 0.041288 -0.007818 1.146079 0.76758 -0.927158 -0.037043 0.38893 -1.222997 0.177008 0.961889 0.594575 1.19656 -0.086095 0.792464 0.14622 1.094194 0.063876 -0.433394 -0.664121 0.506869 -0.444522 -0.878253 -0.026036 0.057063 0.241826
brother -0.590348 0.187042 0.679975 -1.887201 -0.553354 0.926866 1.519129 -1.676284 0.503639 -1.007112 1.383815 -0.576185 -4.061569 -1.317923 -0.086441 2.365826 -0.25988 1.759571 2.500304 2.210848 -0.577418 -2.349195 -0.064939 -4.215895 -2.128449 -1.529454 -0.349042 -0.19125 0.338145 0.136518 -2.292645 0.223419 -3.142817 -4.015579 0.966643 -0.041726 -1.415944 -1.372038 1.377076 -1.445012 0.771504 0.568321 1.048701 0.642466 0.975655 -0.249 -1.493955 0.973044 -2.036052 3.413338 1.69199 -0.45274 -0.260607 -3.082468 -0.595415 3.38633 -1.429238 -2.114894 2.356164 0.477762 -0.10735 1.188828 -0.805304 1.095979 0.180757 -0.959402 0.145111 1.040272 1.167966 -0.717725 1.210808 0.426492 1.486615 -0.598115 -1.57 -1.852073 1.047348 -0.802558 0.268979 -0.010151 2.150753 -1.050098 0.641029 -0.268276 0.633014 -2.149678 -1.147174 1.413904 0.883464 1.666862 -0.656038 0.763898 -0.024586 1.117471 -1.840886 -0.744218 2.375922 1.422895 0.011959 -1.309023
wine 0.604346 1.832507 0.607216 0.60155 -0.736625 0.451111 0.695877 0.83138 0.600452 -0.916867 1.602807 0.971351 0.047418 3.578938 -0.704653 0.112747 0.006189 -0.721562 -0.421509 0.474169 -0.316409 -1.218164 0.997414 -0.999961 0.388905 -0.555402 1.005018 1.599181 -1.219298 1.80163 -0.581351 1.000493 -0.073774 -0.556432 -4.81E-4 0.316164 -1.982009 -1.448484 1.035109 -0.038004 0.065091 0.991218 0.196148 0.093445 -4.028175 -0.300953 2.804212 1.333745 1.050693 -2.953636 -1.005479 0.314499 2.136296 -0.280331 0.848051 -0.698137 -0.469118 0.598691 -0.199679 0.142656 -0.437092 0.306124 -0.257599 0.6479 0.699256 0.57184 1.261277 0.877474 1.119611 -0.128657 1.635715 -0.009541 0.64043 -1.512582 -1.121112 1.915086 1.254485 -1.182877 0.654363 1.423263 1.410522 0.061955 -1.16895 -0.1546 1.202026 1.105716 -0.512295 0.735142 0.522371 -0.808338 -0.533208 -1.815876 1.368003 -0.038532 -1.459293 0.544463 -0.482459 -1.070455 0.158065 -0.679538
object 0.105825 1.065473 0.088181 0.79059 -0.863872 -0.643913 0.48951 -0.846997 0.314013 -0.19977 0.022835 0.098666 -0.879008 -1.37244 -0.791802 -1.186617 0.57709 -0.118077 -0.597184 0.151257 0.462474 -0.274297 -0.265565 -0.555386 1.659868 -0.99504 0.463258 1.270727 0.08774 0.108734 -0.750396 -1.039704 -1.652761 -0.301853 1.20552 0.279635 -0.010272 -0.470058 0.390074 0.27468 0.804938 0.594997 0.551837 -0.629636 0.85693 0.113285 0.087585 0.171434 0.006903 -0.359534 0.010857 -0.182812 -0.622514 -0.949663 0.549727 -0.057711 0.141137 -0.881152 -0.80239 0.040324 -0.403474 1.773929 0.582774 0.948981 0.727391 -0.376972 -0.028458 0.660724 0.078688 0.457264 -0.450847 0.901596 1.592351 -0.646122 0.050489 1.501028 -0.700382 -0.383635 0.332592 0.69413 0.439473 -0.493621 -0.392516 0.265607 0.014353 -0.433778 1.046145 0.278891 0.185633 0.069476 -0.437681 -1.042809 0.430219 -0.971762 -0.751774 0.365897 1.438631 -0.009599 0.282718 0.181035
attitude -0.027349 0.37647 -0.317872 0.833046 0.071894 1.292132 1.372956 -0.712572 -0.254138 -2.276637 0.111542 1.138427 -0.800713 -1.656711 1.228688 -0.875439 0.827556 0.611952 0.210978 0.528936 0.107528 -0.867708 0.36385 -0.975939 1.840911 -0.150729 0.628186 0.394881 0.2553 0.652795 -1.410679 0.090547 -1.17037 -1.39453 0.249165 1.617293 -0.046608 -1.497094 0.913451 0.444393 1.332115 0.972924 -0.472097 0.600739 1.674069 0.732602 -0.475723 0.616472 0.196593 0.591273 -1.300663 -2.005004 -1.060278 -0.59837 0.032878 -0.466194 -0.267463 1.408885 -0.710772 -0.606957 -0.527049 1.145435 -1.216489 1.626178 0.526909 -0.023502 -0.690046 -0.557163 1.598168 -1.404314 -0.276314 1.446761 1.263687 0.070459 -0.643627 0.209927 -0.086335 -0.137544 0.483716 1.598935 -0.954418 -1.748153 -0.050979 0.211913 0.668964 -1.561559 2.561206 -0.453109 -0.811906 0.341012 -1.164204 0.023056 0.688347 -0.382417 -0.124495 0.414013 1.11046 -0.538282 -1.090458 0.162857
treatment -0.225836 0.953404 -3.864104 1.56766 2.672176 2.608355 1.058898 0.309901 -2.747545 -2.157955 0.688884 0.24941 -0.654203 -1.285659 -0.442128 -0.35397 -0.191411 -1.906657 -2.478659 0.650413 1.494783 -0.03724 1.844973 -0.228423 2.511482 1.213142 -1.618623 -1.098388 -0.664286 -1.211428 0.759214 0.230994 -1.812705 1.83467 -2.400495 -2.184119 -1.929804 1.621831 0.072487 -2.09454 -1.344865 0.236319 0.087238 -0.90034 3.095262 0.896277 -0.886229 1.113456 -2.91145 1.021445 -0.84208 -0.410941 1.010904 -1.677116 -2.354445 -0.65434 0.56052 -0.217812 -0.41628 -2.556197 0.98052 -0.587354 -0.172578 2.074519 -2.935824 -1.712497 1.909523 2.129504 2.946472 -0.447767 0.070326 -1.114705 2.392241 -1.625599 -3.079862 -0.618925 1.773084 0.623482 -0.849297 1.919823 2.572235 1.513411 0.489989 -0.508879 0.676326 -1.25939 1.036234 -0.306216 0.318762 2.064315 -0.699903 0.240337 0.358765 0.292469 -2.977609 1.491338 1.419291 -1.867013 -1.88354 0.473946
flight 0.425482 1.388887 0.882331 0.802698 2.170835 -1.540741 1.559079 -1.291871 -0.723023 -1.060834 -0.821599 0.474442 -0.391267 -0.288276 0.081433 -1.557292 1.970835 -1.303826 1.105794 -3.437551 0.154594 -1.8954 -0.700175 -0.031805 1.746647 1.817212 0.338514 -0.721459 0.659357 -1.986257 -0.570654 -0.093445 -2.816486 -2.812247 -1.978808 2.121507 -2.134408 -0.234404 -1.09798 -1.677692 -1.579698 1.281729 -0.561252 -1.107368 -1.142365 1.610624 -1.002464 1.587894 -1.80536 -2.054118 -0.626574 0.300588 -0.712528 -1.152229 -1.758359 1.657287 -2.005909 -1.093385 0.905087 -0.523879 -1.012069 0.102375 2.40167 -1.72829 -0.636987 -2.218096 -0.21811 3.730797 0.748639 -0.858898 0.589579 -2.271554 -0.009954 -1.471176 -1.729458 0.365542 1.19855 -0.422868 -0.693518 -0.268729 3.601195 -0.509137 -4.162564 -0.158747 -0.678417 -0.905235 1.536312 -2.649559 0.842262 1.861358 2.283148 0.071237 0.009091 -1.698422 -0.39838 0.457272 -1.233999 0.262162 -1.225726 -0.29076
forest 0.830218 0.747617 -0.90861 1.240992 -0.348091 0.672493 0.038262 -0.205454 0.678009 -0.275384 -0.401742 0.211239 0.100624 0.968435 -0.267734 -0.83165 0.938857 -0.582727 -1.066732 -0.787645 -1.33933 -0.556256 -0.202312 -0.455338 0.402074 0.26239 0.949634 2.061825 0.038834 0.829991 -0.077935 0.291028 -0.003458 -0.442552 -1.235971 0.653003 -1.486843 -0.818761 0.607366 -0.25533 -0.193737 -0.280209 0.497938 -1.813311 -1.075108 -0.483959 0.460587 0.918534 -0.94154 0.338174 -0.454693 -0.144788 0.109506 0.46939 0.395773 -2.399217 -0.313915 1.672689 0.693932 -0.867617 -1.097168 1.174467 -0.323279 -0.858964 0.192238 1.070087 -0.79666 0.652292 -0.681793 0.788929 0.680368 -0.317216 0.969087 -0.447646 -2.015061 3.09619 1.534777 1.194773 1.396124 -0.142049 1.099496 -0.45012 -0.881274 0.265673 -0.142463 -0.294664 0.749978 0.449191 1.354716 0.564699 0.920012 -0.474189 0.638599 -0.529517 -0.221351 0.28357 -0.809028 0.958808 0.858825 -0.446863
abuse -1.014568 -0.252432 1.898397 0.339233 -1.127316 0.733261 -0.05122 -1.430238 -2.848403 -3.434189 -1.240402 -2.066238 -0.486921 -1.789104 0.752754 1.87913 0.988259 1.168103 -0.912158 -1.1565 1.595199 -1.121676 1.98313 -0.47442 2.149811 -0.357109 -1.207247 -0.231973 1.063536 -0.297069 1.122526 0.995331 0.976105 2.312155 0.945676 -2.421801 -0.525927 0.812679 1.546578 -2.8543 1.744657 -1.568867 2.001551 -0.722668 1.67418 0.101935 0.987925 0.331945 -1.643342 4.131467 1.036999 -2.924453 2.816347 0.713453 -0.160984 0.333685 1.520054 3.42235 -0.130909 -1.504448 0.336996 0.073245 0.625081 0.578896 -1.139328 -0.285416 1.193489 -0.094134 0.993593 -0.040616 -3.518438 0.248607 2.558315 -0.789736 -0.207111 -0.266356 1.187079 0.858655 -0.093555 1.51404 2.7147 -0.294617 1.477399 0.724009 1.63994 -1.481025 2.423771 -2.648179 -0.148538 2.204217 1.098947 -0.397523 0.261932 -0.374726 -1.444547 0.936056 1.032307 -0.633961 1.117794 -0.440672
criterion -0.099932 0.142731 -0.064816 0.253904 -0.008242 0.056909 0.037515 -0.155108 0.09926 0.034238 0.100978 -0.017197 0.016188 -0.01423 -0.01335 -0.130847 0.160736 -0.121647 -0.094802 0.086594 -0.09605 0.122929 0.279511 -0.01827 -0.07961 -0.050469 0.020735 -0.169465 -0.058355 0.011733 -0.117666 0.030377 -0.281022 0.20854 0.343042 0.007964 0.113038 -0.043718 -0.115912 -0.138772 0.104037 0.107609 -0.00174 0.090464 0.027613 0.151014 0.025243 -0.051634 0.032151 0.077998 -0.206565 0.045146 -0.004467 0.138299 -0.073472 -0.096119 -0.037025 -0.083119 0.041136 -0.00307 -0.025226 0.191998 -0.05145 -0.04781 0.01848 0.013186 0.040207 0.04682 -0.065635 -0.057173 0.16476 0.011041 0.058634 0.156407 -0.069723 0.10155 -0.001831 -0.084481 0.106588 -8.52E-4 0.31313 0.066073 0.015044 0.173029 -0.302852 0.076809 -0.076954 0.087293 -0.088362 0.191832 0.014084 0.006753 0.119934 -0.076188 -0.194382 0.046811 0.097892 -0.179007 0.015205 0.075489
sea 0.698628 2.077869 0.784833 0.962324 -0.75949 0.391508 0.1083 -1.068428 -0.692911 0.513671 0.230332 -0.460895 -0.389281 1.712224 -0.934294 -0.257018 2.260511 -0.673118 -2.288139 -0.853148 -0.357817 -0.268089 -1.5111 -0.128851 1.949037 1.119049 1.895377 2.391019 0.268221 0.320075 0.314971 0.733077 -1.70976 0.878533 -0.957143 2.175699 -1.635212 -0.398079 2.723671 -0.509128 0.160939 1.332548 0.738976 -2.272419 -2.42299 -0.55576 0.427999 1.177889 -0.216475 -0.445842 -0.484091 -0.756168 0.089592 -0.754324 1.323126 -2.362748 -1.948211 1.885819 -0.146654 -2.02893 -1.695459 1.50681 -1.682635 -1.839684 -0.716604 0.542601 -0.622998 0.856069 -0.423604 0.746592 1.873767 -0.202001 -0.114769 -2.262604 -1.627453 4.683005 1.561824 2.660124 1.732346 -0.143595 0.573686 0.421346 0.267343 -0.722401 0.492465 -0.770184 1.681441 -0.595639 1.079915 0.309411 0.818827 -0.233179 0.89749 -1.001999 -0.943298 -0.947608 -1.700629 -0.944327 1.0729 -1.459895
dollar 0.418301 -0.345277 2.085402 1.191403 -1.451262 -1.263966 0.386516 -3.508745 -0.504165 -2.63702 1.623145 1.288814 0.71671 3.147166 -2.140819 -1.753831 -2.689288 -4.124946 -2.469296 -2.26617 -2.089621 2.523494 -0.629186 0.712844 2.651506 2.119573 2.372441 3.097709 -2.197143 -0.950871 -2.663719 0.357913 -0.80007 1.645906 2.436834 1.434219 -3.531361 -1.478808 1.940457 1.152644 -1.896025 2.498555 -1.025085 -1.091284 0.425842 0.067556 -0.634584 1.882563 -0.033111 2.774925 -1.811252 -1.594375 -0.989203 -1.041538 1.027119 -0.916956 -0.581541 2.296533 -0.630708 -1.347407 -0.00279 -1.997367 2.821529 0.35523 -2.368823 -0.93181 3.438471 0.141739 0.322992 -2.228714 -0.172193 -2.900181 -1.886442 -0.386693 -1.202594 1.752472 -2.160264 -2.413409 -0.238325 0.882454 -1.305884 -4.463173 -1.955801 -1.80308 0.277926 -0.236949 -2.844768 0.447971 -1.098803 -1.417423 -0.288799 -2.800622 -0.525028 0.347996 -3.857575 -0.542761 -1.226488 -3.686661 1.62973 -0.114127
example 1.381911 0.976201 -0.045974 1.894877 4.271371 0.330769 0.226207 -0.910298 2.119301 -1.035191 0.198704 1.354331 -0.730163 0.306405 -1.145844 -1.758996 1.423574 0.663553 -1.146718 3.06759 -0.546116 0.909444 0.264749 -2.866878 0.828301 -0.637831 -0.502758 -0.82086 -1.846804 -2.126208 -0.239744 1.682496 -0.667396 2.12056 0.641125 0.057467 -1.305766 -1.7169 -1.234386 -1.059524 -0.014927 1.905682 0.66869 -0.042792 -0.186831 -1.450013 0.222036 -0.464295 -0.05287 -1.859932 0.043192 -0.047829 1.449754 1.124655 -0.566926 -0.564036 -0.309166 -2.154083 0.219436 -0.789433 -1.351669 1.282697 0.946295 2.5097 0.287423 2.045863 -0.172089 -1.095983 2.363623 0.090563 -0.05344 -0.976955 2.368286 0.387841 -2.123343 1.0709 -2.412494 0.744827 -0.355005 0.612598 1.210738 -1.156137 1.792425 2.481514 -1.299296 1.181231 0.289126 -1.558342 -1.160969 0.863981 -0.067762 -1.297227 -0.796603 1.130602 -3.353063 2.245404 1.767741 -0.524111 0.90206 -0.086512
journal -0.62466 0.314778 -0.602596 2.100642 0.176863 1.141277 -0.147253 -1.747227 -0.211421 4.614626 -0.468434 0.280135 0.461638 -2.734288 -1.149257 1.857154 1.114647 1.389901 1.103526 -0.205249 -1.865116 3.378678 1.365121 1.228764 0.005241 1.748369 -1.293397 -1.406641 1.080586 0.770237 0.433123 0.166028 0.912543 -0.829991 -1.761218 -2.299902 -2.703083 -0.529677 -2.363103 -0.94952 0.074176 0.650593 -0.122749 1.276861 -0.25489 -2.205903 -0.625941 1.221537 -0.152689 2.532272 -0.413132 -2.703867 -2.275191 2.207497 -0.861582 -1.35915 2.607922 -1.69703 -0.895722 2.252398 0.71281 2.523582 0.576539 0.57901 0.029666 1.465106 0.51527 -1.530223 -0.730673 -0.411942 -0.484499 -0.105084 1.472001 -0.172442 -0.200807 0.708226 0.955191 -2.511457 -0.418883 1.712512 2.684405 -0.188211 0.459868 0.314164 -1.783542 -1.796356 1.412118 0.559008 -0.953165 1.408908 -0.130459 -0.485505 -0.545379 -2.032421 0.965624 2.815951 -1.83498 -1.315356 0.731438 1.99207
laundering -0.685444 -1.355261 0.52805 -0.478891 -0.373244 0.341079 -0.336218 1.00002 -0.618518 -0.567914 -0.378149 -0.675233 1.168816 0.521905 1.140363 0.096959 -1.463514 -0.078595 0.535986 -1.613025 0.26588 -0.10517 0.913968 -0.088182 0.396558 -0.588508 -0.706273 0.130386 0.842977 -0.087879 1.539531 -0.092937 1.626302 0.340963 -0.985719 -0.858922 -0.759261 -0.766098 0.480948 0.498715 0.504005 -0.75772 7.55E-4 -0.895954 0.441929 1.279222 0.623202 0.198331 0.795356 1.741032 0.27401 -0.097068 1.705218 -0.543968 0.712546 0.386566 0.771033 0.042271 0.390848 -1.599162 1.494533 -0.471657 1.312662 -1.445427 -0.53451 0.413095 0.801986 -0.932834 -0.543407 1.076271 -1.676689 -0.097038 -0.72894 0.137054 0.071121 -1.367445 -1.44972 0.045046 -0.1102 0.298862 1.769156 -0.057215 0.279313 0.153343 -0.570636 0.94038 -0.28923 0.583271 -0.098632 1.468371 0.361739 -0.266741 0.068385 -0.490636 -0.797327 0.343721 1.289148 -0.063653 1.324672 -0.587813
hotel 2.268615 0.639885 0.611588 0.570499 -0.325971 1.313355 -0.428167 -0.411445 1.673275 -0.520883 2.040519 1.070342 -0.18221 0.850091 -3.349696 2.073304 0.078477 -0.026295 -0.696841 -0.59307 -0.917073 -3.332448 -0.193237 -1.284041 3.408535 -1.314762 0.950382 -0.715966 -0.009413 0.155807 -0.596346 -0.510014 -0.6435 -3.422612 -1.230289 -0.447824 -1.855373 -0.897169 -2.766672 -1.308066 0.680889 0.753145 1.990836 -0.419709 -0.616054 0.826224 1.774983 0.308702 1.509747 -2.312392 1.330618 0.037345 0.589109 -0.662688 -0.049092 -0.364023 -0.718934 -0.57054 1.536834 -0.419779 -2.247498 -0.188386 -0.029696 0.377577 -1.553179 0.176291 0.222435 3.450405 0.575011 -3.784096 2.62109 -1.131683 0.287329 -2.842306 -2.848822 0.417936 1.030699 0.050164 0.586647 -0.464273 0.07468 -0.688802 -3.783657 -1.366091 -0.108496 -0.051689 -0.749787 0.459756 0.416263 1.003146 0.005482 -1.701841 0.627681 -3.454045 -0.377204 0.717593 -0.260824 0.265485 1.485343 -0.981967
term -1.644669 -1.772829 -1.503799 0.238985 -0.274806 1.728251 3.558834 -2.015572 1.801296 -4.759024 1.277916 0.572314 1.741358 -0.30799 -0.568163 -1.770802 0.335678 -3.212324 0.345162 1.340437 2.505364 -0.064926 -1.271439 1.767677 2.00483 1.646434 1.241319 1.9914 -0.871219 -0.501231 -1.717076 -0.519279 -0.909335 0.924867 0.115039 1.202726 -0.586877 -0.143791 -1.18449 -1.969855 -2.287427 1.529619 0.532266 1.242229 2.703861 0.282562 1.290441 0.67664 3.579221 2.885165 -0.122975 1.014757 -1.563145 -1.850858 2.94636 -0.635283 -2.735454 -2.776485 -0.203507 -0.734408 0.771289 -0.942202 -0.015382 2.113369 -2.26926 -3.891448 -1.147772 0.242982 1.14069 1.320809 3.858914 -3.888063 3.533047 -0.089772 -1.66565 -1.802383 -0.211795 3.199165 1.241324 2.607774 2.061702 0.148503 -0.092145 1.561348 -0.07727 0.268201 0.764629 1.60104 0.278464 2.223365 -2.589015 -1.838836 -2.931669 1.97963 0.017294 0.680801 -0.250525 -0.308457 -1.446796 2.794913
listing 0.441219 -0.267296 -0.060595 0.868919 0.52333 -0.680426 1.117458 -0.282978 0.759961 -0.620624 0.857191 0.657965 0.370345 1.040719 -0.940735 -0.572112 0.12686 0.078399 -0.579012 -0.893733 0.45524 -0.234696 0.496418 -0.057696 1.609126 0.155445 -0.833854 -0.613183 -0.164063 -0.566859 0.00795 1.20017 -0.193484 0.300032 0.66989 -1.014456 -0.706369 -0.580391 -0.942921 -0.064968 0.151328 -0.585235 -0.241754 0.092834 0.059455 -0.437757 0.790043 0.003491 0.326247 -0.33034 -0.287993 0.449241 -0.330976 -0.197353 -0.234757 0.249825 1.13202 -0.660155 -0.327166 -0.606501 0.496704 0.040147 1.212934 0.295121 -0.665214 0.176068 0.144041 0.841154 -0.254882 -1.08063 0.002295 -1.299386 -0.336547 0.827861 -0.397404 -1.367593 -0.721574 -0.619875 -1.360298 1.143978 1.079158 -0.580708 -1.089411 0.810938 -0.321458 0.590781 0.294702 -0.070075 -0.294621 -0.052573 -0.184798 -0.752138 -0.083796 -0.465748 -0.011206 0.84891 -0.723295 -0.27012 0.285507 0.383652
chemistry -0.373996 0.917453 -0.618698 0.526754 0.340279 0.819103 -0.053322 0.716651 0.168556 -0.025578 -0.201946 -0.025154 -0.191821 -0.755809 0.053769 -0.341822 0.306718 -0.296346 -0.064133 1.301819 0.3073 0.368154 0.541394 -0.474249 -0.274388 -0.464197 -0.60203 -0.149235 0.209066 0.895714 0.183931 0.219451 -0.104284 -0.560324 -0.339974 -0.182551 -0.389238 0.460972 -0.10047 -0.409937 -0.428679 -0.865316 -0.422354 0.57415 -0.344592 -0.065084 0.423122 1.050733 0.358744 0.48847 -0.635794 -0.356201 0.289657 0.160571 -0.50094 -1.156842 0.163266 0.261975 -0.279965 0.241305 -0.015023 1.797377 -0.898323 0.598874 0.482853 0.069776 0.2139 0.024545 0.386837 -0.260286 0.409867 0.321116 1.280112 -0.506437 0.299245 0.756074 0.761116 -0.66388 0.953999 0.752172 0.443292 0.11968 0.074435 0.042891 0.138885 -0.016168 0.804587 -0.387219 -0.075944 0.322056 0.093334 -0.184986 0.53583 -0.295761 -0.255467 -0.062548 0.308793 -0.856201 -0.085745 0.394721
seafood 0.525271 0.627014 -0.070881 0.293122 -0.350178 -0.013338 0.390734 0.475011 0.357965 0.08308 0.71291 0.070445 0.006151 1.372637 0.232118 0.221069 0.395535 0.099204 -0.431183 0.279241 -0.24466 -0.213317 0.263728 -0.431735 0.173442 -0.481808 0.162671 0.923579 -0.488966 0.478938 0.225477 0.63046 -0.395675 0.192225 -0.363116 0.028972 -0.767709 -0.617424 -0.032221 -0.042864 -0.127793 0.114155 -0.155009 -0.199134 -1.12872 0.126542 0.405648 0.408557 -0.111853 -0.699123 -0.486046 0.087805 0.617069 0.802906 -0.152116 -0.600699 -0.07745 -0.053126 -0.554641 -0.426607 0.02004 -0.021068 -0.224257 0.266357 0.55258 0.463783 0.459649 0.14298 0.163206 0.169121 0.387966 -0.353275 0.424237 -0.526126 -0.284829 0.766785 0.328158 -0.41302 0.076749 0.349229 0.557378 -0.066994 -0.414449 0.038878 -0.138152 0.420434 -0.123761 0.46385 0.235667 0.073611 -0.034495 -0.586122 0.852298 -0.161765 -0.10046 0.636554 0.039636 -0.588938 0.278403 -0.362582
CD 0.713177 0.159903 0.307296 0.242727 0.199336 -0.511659 1.964919 -0.232672 0.54 -0.310748 1.287505 0.490644 0.463616 0.331249 -1.407897 -0.233295 0.139826 0.509311 1.276419 -0.115047 -0.317127 -0.361935 0.507084 -1.064556 0.510119 -0.608329 0.179203 -0.463169 -0.354302 0.257961 -0.068714 0.547116 -1.034824 0.110923 -0.048553 0.632507 -2.093466 -0.685148 0.481185 -0.050407 0.628554 -0.298046 -0.447752 0.832765 -0.609999 -0.387457 -0.127576 -0.512512 0.811989 -1.326697 -0.271781 -0.060853 -0.262078 0.558572 0.201395 0.702761 -0.230993 -0.538491 -0.425299 0.373872 0.834983 1.697907 0.224902 0.096859 0.755134 -0.443771 0.422733 -0.068238 0.623371 -0.096379 0.817842 -0.460787 0.120591 0.214872 0.119373 -0.523334 1.474128 -1.537117 -0.007887 0.867942 1.004063 -0.66436 -0.960716 0.395963 -0.388062 -0.008349 0.091786 0.279986 -0.602802 -0.08057 -0.976682 -0.558206 1.312633 -1.219951 0.093123 -0.525232 -0.324093 -0.802808 -0.116895 0.827798
mind -1.352997 1.267051 -0.369444 1.136465 -0.24544 2.441807 2.212325 2.222203 0.078138 -0.567693 0.186988 0.555575 -1.465867 -0.752959 -1.290564 -1.471025 1.441259 -2.381293 0.165886 1.073142 -0.802482 -1.341043 -0.740125 -1.812993 2.322978 -0.010942 0.556409 -0.472547 -0.857354 1.459566 -0.140498 1.11659 -1.589744 -2.026207 1.548696 1.007946 -0.985109 -1.707654 1.081336 1.434163 0.268168 -0.481151 2.059112 2.174579 2.191682 0.696494 -0.217316 0.548725 1.313405 0.940972 -0.719644 0.185625 -1.502199 -2.391215 0.903767 0.130463 -1.671126 -0.521915 -1.585546 1.632542 -0.970766 2.418671 -0.442014 1.764056 0.166773 -1.795565 -0.142906 -1.708981 -0.094667 -1.281476 0.566313 2.762783 2.194832 -1.299957 -0.309255 1.624962 0.155199 0.69967 -0.266529 2.598147 -0.77015 -1.749117 0.084775 0.516376 0.065027 -0.390531 3.828943 -0.259228 -0.879879 1.013805 -1.515315 -1.198614 0.573303 -1.615327 -0.442997 0.899519 1.128775 1.359299 -0.446981 -1.511897
sex 0.209965 2.847239 0.308947 0.578766 0.34372 2.519779 1.628056 1.615794 -1.960827 -2.294173 -0.544214 0.829225 1.409683 -0.328475 -0.347529 2.196178 1.35686 -1.00074 2.239992 0.691857 0.309629 -1.0157 -0.786307 0.674374 3.530577 -0.44329 -2.75823 0.299081 -0.001167 1.339286 0.035756 0.080987 0.189388 1.439976 2.500407 -2.333997 -2.249346 0.088722 1.057564 -1.760007 -0.119374 -3.235437 2.369492 0.625245 0.754101 1.069303 0.536738 1.267783 -0.792129 2.783623 2.964556 -1.263924 2.063049 -1.494959 1.618519 1.859861 -1.650332 2.464265 0.638022 -0.268348 0.282528 1.674812 0.250151 3.91486 0.454653 0.687329 0.478946 -0.102197 1.219531 -0.151321 -0.802786 0.083382 0.918489 -0.873095 -1.407887 -0.823123 3.36225 1.555119 -1.376877 2.631602 2.481045 -0.559623 0.365653 2.956528 3.18823 -2.907883 -0.143622 -1.002182 -1.379109 2.100593 -0.657789 0.360062 0.200683 -1.146937 -3.645668 3.163519 2.108903 -3.18538 0.998995 -0.472242
food -0.36413 2.411072 -0.777346 1.469817 -1.890605 1.184685 0.739222 1.293081 -0.268494 -2.101949 2.071277 2.191142 -0.961263 1.662906 0.600432 -0.286431 -0.821306 -1.856706 -1.116121 -0.336111 -0.993071 -0.738279 3.117946 -1.555085 2.72265 -1.069901 0.999318 2.851014 -1.435589 1.392847 0.479262 3.379377 0.695413 2.140368 -1.421211 -0.026398 -2.119928 -1.450081 0.500364 -0.916617 -2.053108 -0.73513 -1.424989 -1.401443 -1.664634 0.811721 3.135588 2.833445 -0.601538 -1.428821 -2.179023 -0.433447 2.87617 0.328266 -1.476143 -0.305487 -1.015672 2.36419 -2.378877 -2.121126 -1.085355 -0.718471 0.256276 1.502125 -1.262632 -0.135384 1.409649 2.928657 0.454484 1.094362 1.163425 -1.75106 1.315138 -0.401773 -3.377957 2.932018 0.484253 -0.129227 -1.098528 0.21547 -0.144921 0.29355 0.352734 -0.989749 0.289568 -0.938276 1.716235 0.450402 0.848062 -1.722518 1.00349 -0.995299 -0.555492 0.186053 -1.755473 2.730752 -0.08969 -1.82169 -0.512009 -1.998732
precedent -0.938815 0.162275 -0.91158 0.399511 0.469677 0.920096 0.309304 0.511801 0.015615 -0.574599 0.718318 0.64084 0.112743 -0.483859 0.12737 -1.035632 1.096876 0.792428 -0.678801 0.090218 -0.378574 0.273385 0.410022 -0.321809 -0.031268 0.239936 -0.35329 -0.517965 -0.168895 0.208202 -0.888085 0.776431 0.331287 1.749431 1.813304 -0.084331 0.096909 -0.010214 0.116173 -0.414677 0.89682 0.206696 0.876414 0.308152 0.97318 -0.017072 0.28205 -0.392898 0.374917 -1.427781 0.088803 -0.420807 -0.403865 -1.032843 -0.110155 -0.210094 -0.123136 -0.409228 -0.850615 0.254465 0.16358 0.198758 0.918172 0.347323 0.273074 -1.563145 -0.217353 -0.566298 0.416028 0.199582 0.325342 -0.557603 0.432942 -0.746835 -0.167459 0.147038 -0.243355 0.867608 0.789482 1.029317 0.208167 0.440105 -0.243634 -0.502522 0.149579 0.283404 -0.830837 -0.474385 0.519876 -0.170931 0.080199 -0.605766 0.162253 0.15765 -1.200312 0.711744 0.141539 -0.788277 0.536848 1.119851
series -0.560911 -0.687352 0.538002 0.087242 2.753187 -0.346394 1.68501 0.259915 1.068729 -2.0212 0.073517 1.753924 -0.772712 -2.5602 -2.696136 0.485823 0.676518 0.98419 2.428733 -1.289516 -1.552989 0.585441 -2.581584 -0.382698 -1.430224 1.540562 2.303787 -2.358939 -2.03221 0.182112 -0.521671 -1.324373 0.934062 -0.887367 1.467138 1.106053 -2.085612 1.704118 1.450763 -0.22574 1.446143 -1.32816 -0.549099 0.217308 1.958206 -1.409039 0.48738 -1.993186 1.322436 -0.53614 -1.616647 -0.584168 -0.640475 2.573085 1.035077 -0.399868 -2.007809 1.574794 -3.902463 -0.740324 -0.341135 0.430277 1.225798 -0.498388 -0.915312 1.162378 0.351036 -1.419036 2.496228 -2.009856 -0.156142 -4.103631 -0.889649 -0.484116 2.071475 0.696032 1.026447 -1.349912 0.079461 0.807683 2.790451 1.789914 0.742593 2.131253 1.059894 -1.441764 1.413717 -2.614994 0.37803 2.430555 1.256962 -0.38883 1.717267 -1.4815 -0.220719 -0.03683 0.353081 0.599933 2.103188 3.257783
kilometer -0.149698 -0.192588 0.044576 0.178449 -0.016647 0.212763 0.102522 -0.286506 0.374328 0.185291 -0.236263 -0.226734 0.054234 0.302235 -0.155313 -0.016948 0.236604 -0.215467 0.012528 -0.097659 -0.194057 0.177535 0.26183 0.018333 -0.091648 0.208655 0.207357 0.22215 0.154194 0.067434 -0.001041 -0.063251 -0.28031 -0.166313 -0.059691 0.277154 -0.346856 0.092743 -0.004011 -0.183703 -0.19615 0.085324 -0.075129 -0.004866 -0.037208 0.04916 0.043511 -0.164472 -0.077312 -0.224719 -0.140293 0.281851 -0.024509 0.006847 -0.070802 -0.154701 -0.193449 0.059662 0.352887 -0.067275 -0.075064 0.261551 0.284843 -0.230877 0.083839 -0.062913 -0.208039 -0.002355 -0.027528 -0.043698 0.229091 -0.095236 -0.111315 -0.089857 -0.156379 0.503974 0.305186 -0.003049 0.192911 -0.067163 0.242811 -0.017091 -0.209813 0.118886 0.00619 0.282034 -0.432226 0.254185 -0.055697 0.322721 -0.024121 -0.094506 0.090478 -0.180639 -0.021993 -0.122018 -0.011518 -0.266409 0.292879 0.136347
grocery 1.932172 0.368195 -0.373992 0.543714 -0.092453 0.086905 -0.095669 0.594083 -0.240697 -0.454659 1.125189 0.328718 1.325616 1.476121 -0.956777 0.826576 -0.466888 0.710313 -0.476766 -0.523147 -1.142748 -1.053166 0.832824 -0.554576 1.214667 -1.539946 0.643707 0.455355 -0.934824 1.200522 0.313274 0.269286 0.240286 -0.191881 -0.194919 -0.192139 -2.173785 -1.40187 -0.673748 0.058632 -0.40974 -0.667497 -0.318368 -0.387592 -2.688159 -0.036852 1.205226 0.315972 0.041977 -0.593429 0.082322 0.173935 1.490301 2.053911 -0.221584 -0.125044 0.418788 -0.272258 0.385224 0.003807 0.478688 0.528141 -0.522117 0.214353 -0.071719 0.156781 0.333373 1.08808 -0.611917 -0.546956 1.132579 -0.750052 0.319996 -0.784792 -0.677003 0.836065 -0.001141 -1.376714 -1.61643 -0.142444 0.385857 0.809316 -1.256648 0.425018 0.11433 0.805183 0.17714 0.962409 -0.397924 0.13336 0.10889 0.135454 0.192625 -1.094754 -0.077488 0.747886 -0.46159 0.258117 0.838232 -1.145465
wizard 0.034468 -0.274726 -0.187006 -0.197912 -0.04486 -0.216361 -0.06135 -0.088732 0.007718 0.334135 0.092951 -0.344317 -0.185401 -0.079571 0.078017 0.387648 0.067228 0.232154 0.486971 0.245855 0.203523 -0.125659 0.107645 -0.446695 -0.229658 -0.097312 -0.026305 -0.166217 -0.029112 -0.071839 -0.080394 0.206442 0.129862 -0.016457 0.007101 0.096982 0.092087 -0.115367 0.105885 -0.261339 0.220508 -0.182428 0.122461 0.386762 -0.106816 -0.053777 0.332791 -0.233312 0.102958 -0.160838 -0.056586 0.158261 0.188386 0.334232 0.056986 0.262636 -0.128346 0.096261 0.262528 0.233947 -0.121439 0.5068 -0.224058 -0.166148 0.139176 0.140683 0.227034 -0.067707 0.160422 0.069199 0.184097 0.160109 0.079981 0.258595 0.204904 0.047583 0.289132 -0.316242 0.092268 0.046924 0.570464 0.193309 0.161545 -0.081412 0.155275 0.112446 -0.19359 0.098227 -0.204061 0.462786 -0.177174 -0.085224 0.227011 -0.104234 -0.083897 -0.096952 0.306369 -0.075604 -0.114303 0.37243
information 1.278211 0.497454 2.259934 3.868711 -0.914852 -1.127825 2.749381 -1.16442 0.670627 1.498704 1.834136 1.271878 4.657631 -3.532103 0.75786 -2.519856 0.535828 -2.094961 -0.602812 1.061635 1.719932 0.065219 2.519904 1.129199 4.08351 -1.338761 -1.161392 -1.829668 0.190209 -2.989499 3.346413 4.564721 -4.115344 2.293379 0.861336 -1.617796 -1.905671 1.336257 -0.861972 -0.307118 -1.237882 -2.967917 -0.388882 -2.865655 2.892013 0.956707 0.534576 2.293467 -2.596107 -0.655617 0.634246 -0.654709 1.310446 1.224545 -2.735675 0.924189 2.716855 0.73321 -0.00346 -2.925666 -0.27189 1.019197 1.151031 2.820281 -0.015549 -1.521411 -1.87154 -1.328188 1.436402 -1.932679 0.435429 0.713203 2.085703 -1.78535 -0.798489 -1.061863 1.984394 -1.298247 -2.243996 0.712273 -0.598869 -1.714385 -2.077309 -0.744051 -2.247417 -1.348354 3.100098 0.258357 1.385956 1.711491 0.33266 -2.790597 -1.08757 0.629452 -3.839559 2.668689 -0.308729 -0.243989 0.472051 1.154077
Israel -2.045435 0.017432 2.425696 3.936266 -2.255734 0.674127 0.366472 1.099798 2.5405 -1.702912 1.303703 1.514604 -1.083192 -0.343247 0.061182 -2.462603 2.268296 0.965591 -0.341084 0.244924 -3.319087 -1.744107 -1.937693 3.146791 1.342075 0.619364 -1.684457 0.567166 -1.408738 -2.211178 -0.153432 -1.204414 -0.586086 -1.140039 0.844732 1.084057 0.399598 0.327644 0.053426 -1.883659 1.273861 0.030559 -0.360892 -2.799151 2.390205 2.540435 -0.914911 1.149317 -2.48804 0.844154 0.375907 -0.102524 -2.247197 -2.967228 0.019721 1.629414 -2.710056 1.66233 -2.859574 -1.524154 -0.846065 0.229404 1.215501 1.002154 -0.228736 0.286049 -0.732137 1.879692 0.518691 -0.022687 -1.490748 -0.991744 1.786875 -0.860241 -1.316786 0.568473 -0.747837 2.373345 0.982023 3.982208 0.602542 -1.416699 1.571744 -1.148887 0.726279 -4.50496 0.780276 -0.780439 0.746962 1.614005 0.792177 0.274285 -0.806561 2.036177 -0.789919 -0.946726 -0.129939 0.83954 2.99892 -0.533686
brandy -0.090388 0.190413 0.15666 0.091896 -0.126293 -0.014578 0.117822 -0.061636 -0.003533 0.083342 0.067178 -0.243258 -0.107943 0.407369 0.187849 0.041574 0.044716 -0.110073 -0.197027 0.33112 -0.192964 -0.1152 0.23879 -0.256886 -0.068876 -0.073723 0.071668 0.007757 0.058804 0.263741 -0.171387 0.117661 -0.155704 -0.023749 0.029393 0.117513 -0.33168 -0.108884 0.24159 -0.056256 0.195166 -0.156841 -0.152489 0.007331 -0.34751 0.177995 -0.099219 -0.060337 0.043203 -0.075385 -0.097123 0.03922 0.263618 0.013661 0.005981 -0.12677 -0.045284 -0.050464 -0.01405 -0.01186 -0.030768 -0.076097 -0.007902 -0.113852 0.172308 0.121817 0.03484 0.195501 -0.079397 0.037094 0.173818 -0.179492 0.017649 -0.082726 0.057098 0.203692 0.173517 -0.098353 0.041677 0.151425 0.305232 0.113192 -0.049842 -0.005828 -0.0742 0.105952 -0.002045 0.143995 0.162939 0.374461 0.047362 -0.080711 0.398555 -0.017211 -0.251391 -0.183735 0.186916 -0.303354 0.258791 0.007259
interview -2.190495 -0.235051 0.088545 4.006106 0.41102 -0.653915 3.795073 -5.08344 -0.62914 1.552648 -2.986013 -0.079451 -2.111229 -1.885342 -1.972345 0.35545 0.1298 2.577461 0.144698 3.717152 1.082315 -1.841596 1.567801 0.423713 -0.214641 0.854718 0.822634 -3.523796 3.79145 -0.014414 -1.960442 -1.189389 0.95419 -4.195653 2.430946 -0.771468 -2.820757 -1.247602 -3.327933 1.725576 2.996401 -2.030659 -0.010212 3.955415 2.533211 0.86856 -0.885377 2.30422 1.132944 0.616392 1.005405 -0.113805 -3.975071 -0.375116 1.132874 2.280718 -0.115061 -1.727515 0.076192 0.072242 -2.459415 -0.122703 4.198527 2.729144 -1.314864 1.261537 -0.307668 0.864404 -0.21585 -0.389962 2.238271 -0.746498 3.176605 0.006313 0.901 -1.601278 -1.899363 -1.922645 -3.738851 -0.144112 0.118145 -1.946553 -2.429314 -0.992685 0.430634 1.002816 2.082206 -3.974507 1.31286 0.30128 -0.438743 1.571735 1.276616 0.581713 2.087763 2.57628 -0.413826 1.133968 2.11805 5.966662
prominence -0.664513 -0.379645 0.307714 -0.373722 0.259486 -0.276096 0.076078 -0.488925 -0.111512 -0.521155 0.60432 -0.428616 -0.028334 -0.281197 -0.558644 -0.385744 -0.039517 0.126712 0.198531 0.686045 -0.447028 -0.118022 -0.106495 -0.450374 0.712913 0.332326 -0.150207 0.036599 -0.688248 -0.010496 -0.579792 -0.049181 -0.717022 -0.052618 0.513952 0.077956 -0.114527 -0.122144 0.044852 0.222389 0.128746 -0.27208 -0.420676 -0.098573 0.071283 -0.420303 0.078925 -0.199434 -0.061932 0.462714 -1.232795 -1.336973 0.399743 -0.324536 -0.457834 0.311072 -0.193869 -0.101734 0.569184 0.327625 -0.121434 0.721308 0.156295 0.382708 0.173761 -0.672589 0.450682 0.172427 0.034223 -0.439988 0.621275 -0.052931 -0.21418 7.58E-4 0.222024 0.139149 -0.145962 -0.328678 0.080217 -0.107683 -0.244765 -0.867256 0.287374 0.137693 0.079027 -0.810137 0.40397 -0.395417 0.102974 -0.067398 0.027677 0.184871 -0.685371 0.033101 -0.832434 0.28383 -0.461457 -0.180292 -0.033785 0.302939
bed 1.209679 0.975974 -0.046152 1.553853 0.658085 1.420688 3.42765 0.894068 -1.059094 -0.765823 -1.158866 0.050131 -1.60514 0.817863 -1.621505 0.786498 0.406158 -0.079785 -0.356635 1.14016 0.372004 -2.399224 1.520593 -2.27388 2.110564 -0.46191 1.701463 1.034686 1.835536 1.106674 0.438663 0.755127 -0.902989 -1.823114 0.650648 1.164451 -2.977839 -0.858149 1.148751 -1.069633 -0.162736 -0.663179 2.272588 0.392115 -0.372735 0.124148 -1.890231 1.274741 -0.011011 0.708697 1.241631 0.324191 1.135524 -1.233423 1.112331 0.28325 -0.945031 1.161912 0.886117 1.150278 -0.879682 1.332975 1.558937 -0.311605 -0.36422 -0.697708 -0.350881 1.404629 -0.408606 -1.587169 2.931084 0.557553 0.132163 -2.90736 -2.436976 1.702346 0.627079 1.64724 0.33642 0.255292 1.439037 0.607413 -2.269381 -0.513425 0.823379 0.525102 0.806722 0.59857 -0.112676 -0.229169 -0.328848 0.507061 1.680415 -1.711285 -0.201308 -0.217831 -0.019786 0.471393 0.40611 -2.222133
furnace 0.058493 0.011651 -0.078036 0.16743 0.017469 0.050129 -0.143756 0.059577 0.03893 -0.060269 0.084126 -0.1439 -0.062169 0.207509 0.025532 -0.010978 0.123156 0.108127 -0.091819 0.057795 -0.019264 -0.008488 0.03907 -0.201262 0.067823 -0.053184 0.053262 0.177982 -0.009964 0.249834 0.041092 0.092777 -0.194425 -0.054413 -0.003029 0.290374 -0.255903 0.012883 0.022596 -0.108428 0.074628 -0.039 -0.140523 -0.12765 -0.407422 -0.12852 -0.145586 -0.014466 -0.144504 -0.113887 -0.220849 0.271382 0.190318 0.145477 -0.150758 -0.187172 -0.128462 0.021421 0.059758 -0.268468 -0.00872 0.283629 0.051461 -0.217799 0.032419 -0.009259 -0.078225 0.333193 -0.128295 0.002128 0.172985 -0.182524 0.052953 0.008536 -0.157665 0.374607 0.12832 -0.08857 0.244201 0.160505 0.329866 0.097666 -0.210309 0.069722 -0.131015 0.187356 0.238616 0.314802 0.231451 0.238216 0.147786 0.006325 0.325683 -0.225307 -0.069831 -0.118539 0.01717 -0.035707 0.216622 0.212496
evidence -0.349181 2.140417 -0.861808 2.870583 0.483612 0.512905 -0.065934 -1.661691 0.324563 0.859238 -0.856178 2.215851 -0.585862 -6.099132 -2.018904 -2.771254 1.57681 -1.348218 -2.087982 2.105793 1.454506 0.153898 1.621634 -0.410399 3.882673 -1.097731 1.407994 -1.130523 -1.9742 -2.005846 -0.04417 2.770213 -0.212648 4.240282 2.71701 -0.814007 -1.849874 1.110722 2.08919 -0.35836 0.216211 -1.164635 1.542942 -1.477755 2.902689 -1.383735 1.072565 3.717967 -0.478054 2.174125 2.280377 -2.216363 0.883124 0.009618 -3.356122 -0.441994 1.151716 2.280166 -1.833979 -0.320727 -1.039266 -0.793513 -0.220402 -0.129643 0.348871 -2.033027 0.534179 -2.644246 -1.546168 0.792887 0.259074 -0.303419 1.671945 -2.156699 1.517246 -1.843559 1.832254 0.328138 0.870753 0.975716 1.570733 -2.568396 -1.721892 -2.099485 -1.316021 -2.898675 2.565616 0.447912 1.593303 1.225849 -0.377192 -2.020297 -0.286969 0.735978 -2.636871 1.754961 0.405048 -0.406037 0.233325 1.683744
sprint 0.062743 0.614679 -0.032333 -0.7975 0.033538 0.542358 -0.436707 -0.239359 -0.145838 -0.23395 0.357837 0.001434 -0.40669 0.710172 -0.600463 -0.338544 0.425473 0.04875 0.03231 0.504797 0.378114 -0.662395 -0.463038 -0.701367 -0.372481 0.332164 0.1 -0.458721 -0.761414 0.576973 0.303265 -0.810515 -0.545465 -0.329353 0.01424 0.415708 -0.432183 0.537266 0.048425 -0.319165 -0.451487 -0.265767 -0.030592 0.236164 -0.327996 -0.431169 0.020771 -0.137693 -0.223928 -0.271771 -0.695626 -0.022354 -0.89354 0.108326 -0.045403 0.262193 -0.880765 0.537198 -0.020321 0.36377 0.024369 0.262807 0.167159 -0.56222 -0.779599 0.03342 -0.002248 0.011586 0.234791 0.600476 0.585567 -0.957788 -1.117678 0.133334 0.36512 0.217316 -0.227318 -0.134565 0.418381 -0.019352 0.031885 -0.048262 -0.349473 0.008803 1.167917 0.561058 -0.385193 -0.545948 -0.390696 0.432186 0.078425 -0.103934 0.554746 -0.424606 0.052889 -0.381635 -0.245211 -0.486057 -0.363372 0.506549
emergency 0.840737 -0.826813 -1.756795 2.97336 0.164589 -0.634906 -0.492853 0.019013 0.302169 -1.761182 -1.505629 -0.135156 -0.552789 0.971802 0.909661 -1.338922 -1.082042 -1.382848 -0.502357 -0.268691 -0.125473 -0.374905 1.15078 0.839472 3.469055 -1.604336 -2.214842 -2.49841 0.781313 0.389226 0.715198 -0.595518 0.895638 -0.616119 0.443193 -1.270552 0.29139 1.742288 -1.897295 -0.737165 -0.23011 1.732766 -1.154595 -1.45712 1.8858 0.593895 0.600071 -0.736411 -3.332097 -0.882513 -0.811494 -0.041769 2.052779 -2.219167 -1.471442 -1.432446 0.839594 0.671767 -0.997051 -1.150514 -0.478011 -0.613774 3.133143 -0.147156 -4.511874 0.395555 0.07779 4.594872 -1.897378 -0.623339 -1.114805 -3.907395 2.196769 -0.133201 -1.693214 2.264974 -0.027127 2.937844 -0.459552 -1.849551 0.427901 2.323315 -1.963794 -1.001433 -0.699137 -0.4654 1.166768 -2.116755 1.348283 -0.453499 3.139933 0.99882 0.323225 0.607769 -0.288919 -0.548166 1.146817 1.416061 0.022537 -1.927372
Jackson 0.535325 -0.690943 0.461884 -0.355353 0.646123 -0.214183 0.917199 -1.268146 0.333025 -0.795819 0.453038 -0.352065 -1.639906 1.136562 -1.409656 0.424471 0.230618 0.818674 0.452434 0.386615 -1.137389 0.025853 1.078445 -2.551996 -1.680053 -2.441669 1.04975 -2.104676 -0.055009 0.719743 1.773686 -1.252704 -1.925475 -1.560217 0.37954 -1.850198 0.378343 -0.684542 0.197493 -1.944257 0.140431 -1.144877 0.68265 2.895257 -0.812628 -0.184526 0.519212 0.33125 -0.984774 0.650963 3.92312 -1.17368 -1.253061 -1.142375 -0.362473 2.281993 -0.616976 0.264541 -0.418153 1.964136 2.02071 2.429959 1.282089 -0.467894 -0.324767 -1.883447 1.042226 0.502985 1.126941 -0.059455 2.057328 -0.52079 0.395622 0.578061 0.487832 -0.715162 3.421766 0.241233 -2.489516 -0.460802 1.478718 0.636043 -0.262079 -0.828775 -0.574835 -2.021155 -0.586625 -1.16702 1.823808 3.879681 0.542006 0.052077 -0.101822 -0.398049 -1.619249 1.000296 3.424233 -0.423095 1.534475 0.436847
institution 0.670037 -0.299942 -0.329401 0.863 0.605053 1.820052 0.020482 -1.645155 0.788722 -2.183358 0.477273 0.843242 0.633762 -2.194988 -0.172819 -0.786145 0.520239 -0.5194 -0.325671 0.587168 0.497032 0.821463 0.91796 0.431456 1.715408 -0.888393 0.516858 0.223392 -0.171811 -0.324018 -1.247093 -1.027702 -0.96872 -1.107819 0.990563 -0.284117 0.829247 0.282559 -0.29611 0.129716 0.721569 -0.187319 0.304173 -0.021224 0.952148 0.342678 1.885699 1.14053 0.303444 0.627951 -1.103981 -1.383184 -0.02027 -1.171144 1.077553 -0.826284 0.099797 -0.564982 1.01513 -0.229977 -0.180059 2.142839 0.642352 0.558318 -0.212894 0.685317 -0.240247 1.610462 1.873002 -1.837635 -1.105569 0.408414 1.928909 0.073791 -0.478177 0.525886 -0.204786 -1.027056 0.315341 0.325852 0.55785 -0.036107 0.413739 0.473184 -1.767123 0.498431 0.024202 -1.402968 0.510906 0.240529 1.077693 -0.626253 -0.490725 0.01791 -0.053523 1.791905 -0.367305 -0.336744 -0.445638 0.408618
bird 0.693987 1.025602 -1.027489 -0.126386 0.041877 0.002597 0.177298 0.015109 0.292003 -0.656169 -1.219309 -0.067016 -0.161235 -0.653178 -0.62082 0.303356 1.676898 -0.130254 0.236508 -0.180783 -0.766187 0.175436 0.500395 -0.180019 1.081175 0.926732 0.543158 0.665285 -0.663486 1.051335 -0.381682 1.081927 -0.978473 0.338587 -0.459434 0.897804 -1.265985 -0.551843 1.627938 -1.417487 0.358222 0.56551 0.568212 -0.134624 -0.840718 -0.981084 0.26769 1.969191 -1.168294 -0.78344 -0.517272 0.194336 0.602366 -0.013616 -0.00638 -1.466896 -0.889357 0.80277 -0.95134 -0.293275 -0.675865 1.317512 -0.886178 -0.841057 0.951607 0.410202 0.346758 0.517297 -0.014805 1.196232 -0.536609 -0.066255 1.041886 -1.749774 -0.500259 2.35409 2.084691 0.290775 0.250567 -0.086414 0.767699 -0.141532 0.629663 0.789525 0.800418 0.046841 -0.098755 -0.224925 0.716954 1.812551 0.198327 -0.875592 1.097235 -1.298454 -0.747605 0.561668 0.635677 -1.054523 0.730506 0.203537
Brazil -2.275384 0.623888 0.877172 -0.239815 0.225147 1.510837 -0.418382 0.014107 1.426855 -0.053029 2.467704 -0.409608 0.306004 2.129601 0.190688 -1.030615 0.502909 -0.640839 -0.870558 0.515949 -1.21586 -0.639911 -1.007753 -0.16621 -0.346428 -0.571743 1.136426 0.161884 -2.75796 -0.673212 0.880196 -0.265924 -2.190229 -2.386428 -0.110026 -0.043944 -0.227244 -0.609703 -0.011046 -1.103963 -0.274883 1.179403 -2.58655 -0.953017 0.002006 0.352106 -0.267876 0.961805 -1.733009 -0.037914 0.27972 -2.056567 -0.017692 -0.463251 -1.44161 0.183987 -3.220431 0.764389 0.525469 -0.374838 -1.685322 -0.922559 0.198881 -0.14563 -0.736126 1.086321 0.947034 1.293896 1.488058 0.339459 -1.774823 -1.398684 -0.05736 -0.118647 0.96381 0.650651 -0.709442 -0.098309 0.862655 0.438626 -0.158411 -1.573589 0.748973 0.175605 1.184346 0.189737 -0.92568 -0.146504 1.934702 -0.99639 -0.975795 -0.244567 0.328988 1.66697 0.313985 1.607922 -1.966395 0.552225 0.285833 0.292644
warning -1.112572 -0.373885 -1.321332 1.186574 0.425403 -0.656695 3.157345 -0.657834 -0.427196 -0.858028 -1.899397 -0.568974 0.334427 -0.904995 0.417843 -0.140685 1.199221 1.119265 -1.453095 -2.757956 1.224495 0.269714 -0.896985 0.55131 1.945924 0.974221 1.16546 -0.387676 -1.727621 -1.990273 0.405304 2.494878 -0.299354 0.830852 1.432296 0.469979 -0.640736 0.105172 0.331356 1.195899 0.567184 1.969036 -0.677917 -1.398192 0.73023 -1.880771 1.225765 -0.880936 -1.266071 -2.254525 -1.046964 -1.159846 -1.471571 0.914047 -4.054424 -0.327118 -0.742497 0.75567 -1.716884 0.460259 -2.278259 -1.013319 1.199891 1.751206 -0.833265 -0.434674 1.271122 1.634711 -1.929222 0.403229 -1.077365 -1.782376 -0.255355 -0.251985 -0.531585 0.188319 0.999382 2.473347 -2.038464 1.017937 -0.545617 -0.572173 -0.695561 -1.469867 -0.23967 -0.310339 2.883529 -0.06681 1.582278 0.267676 0.971654 -1.473731 0.34276 -0.246068 -1.038337 0.252201 3.187573 0.331802 0.042127 0.341602
implement -1.206477 -1.039963 0.442543 0.974715 0.729716 -0.930743 0.669552 2.177866 0.881704 0.170239 1.51038 0.315752 0.794569 -2.208666 0.849519 -2.503936 0.213218 1.015994 0.309084 -1.378247 0.432321 -0.655808 0.706061 0.165839 2.13731 -0.466112 -0.998803 0.365876 1.835864 -0.761134 -0.587683 0.823822 0.873231 0.84402 -0.643565 -0.729193 0.148914 1.693413 -0.317496 2.224758 -0.140316 0.240408 -2.154603 -0.149462 1.284215 -0.162956 0.43184 -0.031345 1.024986 0.82952 -0.741647 -0.312446 -1.548058 -1.67088 -0.162746 0.076081 0.043028 -1.100913 -1.392476 -1.424071 0.883715 1.362269 0.092399 0.603767 -1.314415 -0.255849 -0.436813 0.740314 1.347974 -0.023205 -1.046937 -1.095066 0.679732 -0.564339 0.412469 0.165429 -2.04618 0.051018 0.77824 1.473202 0.345977 1.628278 0.845821 -0.654427 -0.700447 1.028749 0.208696 0.398126 -0.072206 -1.216644 -0.311446 0.453978 -1.075114 -0.330443 -0.604676 -0.116053 0.630558 -0.12838 -1.175826 0.40806
train 1.16743 1.848867 -0.465041 1.396734 1.071272 -1.893505 1.216573 1.490725 0.847687 -0.378023 0.763691 0.04253 -0.431282 -1.581374 -1.630987 -0.706548 1.924519 -0.465381 0.640458 -1.39923 -1.31841 -3.46821 -1.213424 0.731762 1.774741 0.812092 0.481368 0.576035 1.899351 -0.963454 0.135932 -0.107737 -0.542069 -0.940078 0.602457 0.833649 -3.157607 0.398811 -0.099068 0.620974 -1.433608 0.301769 0.483705 -1.424675 -1.754237 1.86367 -1.194972 -0.327633 -0.835747 -1.982635 -0.081573 -1.076746 -0.18793 0.004494 0.283036 0.633955 -2.149691 0.924902 2.335535 -0.805435 -2.466587 2.239319 0.883786 -1.386593 -1.233963 -0.582231 -1.714537 2.536154 -0.080112 -1.034444 0.859484 -2.240134 0.298714 -1.737394 -2.836606 0.34048 1.136599 -0.181202 1.469324 -1.768012 0.492325 1.129482 -1.723396 -0.991105 0.582371 -0.582825 1.198004 -1.898007 0.822437 -0.250691 1.887183 1.088549 -0.643361 -1.347417 0.330758 -0.469623 0.882307 1.196478 0.638913 -1.287259
area 2.008934 0.044933 -1.241001 1.605324 0.577037 1.704462 -0.915512 -1.849255 0.463095 -2.345233 -0.189392 -0.102481 0.256055 -2.517853 -2.286529 -0.396826 3.70392 -1.746936 -2.918518 -0.080924 -0.33308 -0.698925 0.121062 1.059522 2.337327 -0.702811 2.959307 0.792965 0.689058 -0.251553 -0.51589 -0.186109 -1.133639 -3.138773 -1.203923 -1.139641 -1.942582 0.726348 -0.715218 -0.774878 -0.280857 -0.962658 1.18389 -2.764266 0.852968 -0.721009 0.326377 2.16408 -1.047778 0.176382 -0.035761 -0.951149 0.40207 0.085124 2.038594 -3.044221 -0.007605 0.606091 2.804508 -3.032872 -1.562945 1.463166 0.315288 -0.411533 0.063792 1.645085 -0.677003 1.074011 -0.936115 -1.382704 1.775569 -1.392109 1.760357 -0.061959 -1.460027 2.225527 0.731187 1.539584 2.571948 -0.717046 0.456026 0.429279 -2.095345 0.485119 -0.226162 -2.406516 0.990673 0.487297 1.568484 2.504518 1.3342 -1.944835 0.246701 -0.524094 1.563299 1.505889 0.724845 3.18187 2.007413 -1.208837
image 0.925143 -0.288615 -0.407078 1.583563 0.675409 0.901597 1.46204 -0.763038 0.894239 -1.648992 2.219016 0.485846 -0.787868 -1.912865 -1.106187 -1.178917 0.676801 0.131155 1.865222 1.053591 0.469521 -1.664991 0.437284 -0.600287 2.085701 -1.763689 0.095359 1.175618 -0.929256 0.01048 -2.564718 -0.140867 -1.213845 -0.416455 0.32303 1.817115 -0.857239 -2.601595 0.816438 1.123166 1.999388 -0.586008 1.16999 -0.305655 1.070492 0.479066 0.569278 1.907901 -1.331456 1.108149 -1.197985 -0.306384 -1.304295 -0.450265 0.022442 -0.38544 -0.557854 0.796327 -0.61934 0.471512 -0.318115 2.62629 -0.14189 0.819358 0.344989 0.186522 -0.440449 -0.587968 1.629474 -0.339005 0.003176 1.288184 1.441722 0.522672 -0.065205 1.138914 0.811305 -0.976155 0.165323 1.504434 0.709876 -2.646216 0.724854 1.095297 1.067337 -0.052065 3.388268 -0.860177 1.086063 0.535037 -0.963517 -1.372895 1.337773 -0.421632 -0.820152 0.641004 0.073759 0.493184 -0.466043 1.484145
murder -1.886925 -0.417313 1.456708 -0.973166 -0.406022 1.106408 0.136469 -2.106007 -0.772326 -0.828674 -0.898695 -1.420434 -0.887734 -2.827277 -3.440126 3.12695 1.760133 0.366067 0.559775 1.129535 0.648487 -2.794205 0.147297 0.281917 1.135005 0.940296 -2.769847 -1.725386 -0.141328 -0.964223 -0.343704 -0.370614 -0.237986 -0.176845 2.443088 -3.518351 -2.713998 -0.742086 0.564828 -3.871441 2.168475 -0.411979 1.178739 0.250551 1.447232 -0.240679 -0.574545 2.718975 -2.249647 2.975157 4.603533 -1.268715 1.798912 -1.798467 1.590909 -0.483744 -0.368526 0.293438 2.876704 0.339664 -0.797331 -1.470097 2.203623 -1.023033 -0.058932 -2.255715 -0.151973 -1.179995 0.415871 0.093747 -2.022331 -0.921126 0.634509 -1.463123 -1.305823 -1.960271 -0.099356 1.698327 1.508206 1.754194 5.066337 -0.063441 1.005873 1.184972 2.729525 -1.134056 -0.318855 -1.445359 0.044959 4.114665 0.284454 -0.295515 1.409875 0.007192 -3.062272 0.479972 1.94659 0.393943 2.7464 -0.302295
journey -0.328914 0.289978 0.308962 -0.883301 0.21423 0.584903 2.046219 -0.436386 0.322745 -1.406276 -0.207993 0.565577 -0.635772 -1.190671 -1.811814 -1.227433 1.984361 -1.204765 0.557222 -0.471815 -0.156501 -1.679328 0.671477 -1.480491 0.203381 0.910787 2.481961 0.572297 -0.232501 -2.559332 -1.379276 0.124386 -1.474133 -1.990321 -0.389553 1.965148 -1.64156 -0.980575 -1.168535 -1.793865 -0.707597 0.282856 -0.140259 0.102016 0.456585 0.703143 -1.304612 0.994629 -1.019969 -1.513657 -0.389787 -1.11688 -1.934839 -0.150502 0.493772 0.292179 -0.831865 0.547105 0.126689 0.118446 -1.022244 0.563621 0.438179 -0.56938 -0.957526 -1.771044 -0.601668 0.061033 1.477899 0.152894 2.377417 -0.935261 0.982349 -0.743314 -3.052773 1.322157 1.578232 0.420559 0.844822 1.377159 0.660392 -0.128388 -0.213002 1.137263 -0.375834 -0.127685 2.061094 -1.295223 -0.607395 0.460473 -0.070809 0.945415 1.178971 -1.831753 -0.080021 0.41079 -0.411382 1.56589 -0.871189 0.580901
minister -0.284612 -2.59698 0.707508 -1.058825 1.466964 -0.842965 1.317336 -2.090444 0.379702 -2.164787 2.272457 1.211709 -4.394983 -2.207574 4.517975 0.763256 -2.732929 0.649709 3.667376 4.680271 -2.755678 -2.240567 0.63133 -1.4029 0.285621 1.966681 -1.973841 0.526948 -1.513071 0.275401 1.093611 2.241235 -2.743424 0.282838 4.492775 1.550343 0.243783 -0.609145 -2.468376 -2.035318 2.01153 6.017912 -1.276277 -2.490867 0.212173 1.859895 1.024041 2.062674 0.655798 4.671978 1.318892 -3.403706 -0.489492 -1.171319 2.852254 4.628148 0.229958 0.737899 0.188063 -0.166163 -4.385532 -0.954344 1.192908 2.190771 -3.597763 -1.314301 -0.81076 0.720497 0.937987 2.274288 0.507244 -0.095957 -0.116986 -1.881398 0.78048 -0.528117 -4.221659 2.720095 0.713872 -2.042381 2.149148 -0.279795 2.087339 -0.362036 -5.630943 -1.833759 -0.434231 0.755748 1.750529 -0.911261 4.023886 -1.003435 -2.363061 1.815184 -2.335922 3.838258 -1.07598 3.59301 0.377409 3.259027
planet 0.544716 0.695956 -1.221592 1.01354 -0.560702 0.937964 2.341483 -0.22441 -0.051359 -0.774171 1.132563 0.562581 0.368088 -0.280295 -1.006501 -0.846711 2.806288 -2.211452 0.066184 -0.578798 -1.602673 0.423497 0.31723 -0.372169 1.186742 0.430156 0.911296 1.817498 0.499075 0.706897 0.077528 1.71644 -1.67687 -0.569006 0.738468 1.049678 -1.398042 -1.660029 2.874227 -0.96479 -0.27982 0.495583 0.084218 -0.744221 -0.105927 0.319693 -0.727029 2.106658 -0.652432 -1.471018 0.161787 -0.142971 -1.370402 -0.534604 1.715943 -1.882717 -0.322517 1.537888 -0.307534 -1.527961 -1.089339 2.967611 0.169316 -0.188211 0.17284 -1.97631 -1.187587 -0.540688 1.552648 1.771318 -0.205394 0.885313 0.671316 -0.541944 -0.953969 2.338264 0.755403 -0.622442 0.927492 0.739862 0.121736 -1.044931 0.53493 1.628536 -0.792646 0.841945 0.385324 -0.251633 0.908256 0.307629 -0.348963 -1.574501 0.603921 -1.072652 -0.54184 0.030211 -0.635437 -0.510564 0.519157 0.068408
article -0.234386 -0.230482 -0.780307 2.664278 0.964284 -1.970181 3.633001 -5.714169 1.282066 2.174148 -1.65443 2.139586 0.870193 -3.488808 -2.176941 -0.931094 2.888881 -0.609116 0.671588 1.811608 -0.946876 2.250477 1.786473 0.044533 0.83927 1.866985 0.697515 -2.362357 2.7712 -0.600414 -1.28084 0.690393 -0.767615 -1.03215 2.031605 0.476133 -2.459966 -2.211053 0.810878 2.208277 -0.062771 2.257734 0.84952 2.580504 2.989081 2.023547 -0.518506 0.667396 0.272103 1.111319 2.149103 -2.683266 -2.63995 0.497578 1.967016 -0.743806 1.180798 -1.346707 0.279951 0.767335 -0.479097 1.398208 2.867434 0.749984 1.520857 1.516452 -0.52281 -2.882365 1.005376 -4.306775 0.824726 -0.340141 3.105401 -0.165764 -1.451534 -0.720248 2.379307 -0.657336 -1.93427 1.056961 3.080395 -2.496354 -0.314132 1.609959 -1.405641 0.871709 3.305291 -2.638961 0.8612 1.976511 -1.837253 -1.604274 0.198229 -0.070939 1.473963 1.753161 0.300267 -2.172114 1.827984 3.131402
anxiety -0.097645 0.787297 -0.617488 0.237209 -1.423971 1.251912 0.228305 -0.396573 -1.899742 -0.339192 0.139086 -1.258101 -1.339097 -0.768852 0.554172 0.569838 -0.221779 -0.64173 -1.023885 0.258263 1.595938 0.628579 1.224748 -0.162134 2.229808 -1.150688 -0.262179 0.616433 -0.634555 -0.095515 -0.018676 1.518856 -0.510551 -0.341419 -0.032619 1.086088 0.769865 0.577664 1.05301 0.006588 -0.722209 -0.973821 0.126797 -0.010998 0.01416 0.385579 0.035173 0.487078 -0.360418 1.139501 -1.242648 -1.149139 0.037734 0.316883 -0.654242 -0.988341 0.141945 1.545184 -0.959355 -0.27039 -0.19086 -0.102116 -0.68795 1.170176 0.134385 -1.298737 0.954073 -0.043167 1.031431 -0.969776 -1.20403 0.588048 1.323125 -1.367117 -0.01942 1.671632 1.813565 1.433933 0.760225 0.86679 -0.463298 -1.021087 1.077491 1.244299 -0.022095 -0.868219 1.346887 -0.823328 0.251615 1.03844 0.686021 -0.040084 -0.138571 -0.237409 -0.907499 -0.003693 1.212759 -2.207178 0.566465 0.718299
month -2.968276 -0.441372 1.04163 -2.882174 0.983241 -1.153496 5.102919 -3.775641 1.115148 -2.099676 1.355754 2.571688 -1.634648 -2.140211 -2.053541 -0.781173 1.012684 -3.237777 1.931431 -0.209764 -3.377113 3.682296 1.685731 2.602811 0.469281 3.033558 3.299283 -2.197182 -1.55365 0.230764 -0.506115 -1.925621 -0.855399 -0.846379 0.725891 0.999929 -3.47099 0.680055 0.270535 0.132288 -4.124656 3.091382 2.012349 -1.795665 -0.51878 -2.872804 0.828184 -1.709022 -0.723712 -1.239926 -1.282717 -0.031505 1.643963 0.209451 -2.45882 0.52837 3.11423 -0.124841 -0.250147 -2.832594 1.248023 -1.417319 0.134521 -0.834437 -2.174016 -0.147655 -1.759203 2.206749 1.525071 -3.073744 1.643214 -3.994582 5.590401 -0.452178 -0.432157 -2.830651 -1.767139 5.309711 1.001417 -2.004571 1.026571 -5.446101 -0.998694 2.670438 1.128901 1.352245 -2.940993 -1.037154 1.985149 2.790727 -2.145523 1.808923 -0.627419 -3.785904 0.099612 1.424242 -0.728924 -0.912295 3.004551 0.92128
carnivore -0.027046 -0.045958 -0.077339 -0.006827 -0.005424 -0.045359 -0.025324 -0.043807 0.044965 0.113828 0.065961 -0.061911 0.055245 -0.006598 0.053957 0.051846 0.062263 0.074475 -0.070105 0.067338 -0.064115 0.044395 0.159045 -0.045063 -0.017367 0.037311 -0.027851 0.011896 0.025975 0.072955 -0.08691 0.008414 0.003636 -0.122025 0.107096 0.042405 -0.029025 -0.019376 -0.079901 -0.015729 0.019119 0.030567 -0.005416 0.068945 -0.033388 0.032825 -0.023976 -0.096887 -0.038198 0.03363 -0.049479 -0.038529 -0.03395 0.096886 -0.01965 -0.057992 -0.07629 0.040752 0.047708 -0.03316 -0.0773 0.095099 -0.016472 -0.108017 0.004868 -0.009977 -0.003512 -0.003603 0.016294 0.002178 -0.01633 0.041451 -0.082861 -0.034427 0.006538 0.044176 -0.043131 -0.072552 0.077695 0.029089 0.196051 0.115212 0.088275 0.010693 -0.079716 0.074273 -0.063104 0.090587 -0.068554 0.163346 -0.0036 -0.043834 0.063258 -0.040565 -0.025294 -0.018008 1.0E-5 -0.045606 0.022547 0.143417
party -1.918856 -0.136461 -1.288653 -0.287458 -2.74912 3.430371 2.098414 -3.477341 2.636185 -4.10299 1.99776 1.831386 -1.943661 -2.243989 -1.065525 -0.491774 2.11246 0.449034 0.800153 1.435123 -0.478347 -2.226656 -0.930185 1.321025 2.685015 -0.34195 -0.831012 1.118913 -0.675362 1.028543 -0.945004 -2.179267 -2.237501 0.031537 1.810641 0.032664 0.4385 0.129427 2.149537 -0.440392 1.492449 1.085156 0.083472 -1.25747 2.490136 -0.477619 0.174568 -2.052312 -0.037189 1.764157 0.384099 0.4749 -2.139593 -2.459357 2.539206 2.026957 0.218107 1.71102 -2.359771 1.00715 -2.80745 1.770041 -3.077713 2.371799 -2.256286 0.053317 -0.399569 1.206703 -0.967294 -2.282638 1.429432 -0.044197 -0.871513 1.253346 -0.406084 0.711519 -1.233772 2.163818 0.661837 2.410986 -0.549938 -0.611253 -0.111381 -0.323092 -0.97195 0.432152 -2.286569 -0.578053 1.374467 0.245062 -0.656253 -2.737355 -3.845979 0.799082 -2.596099 2.251408 -0.464807 1.72241 1.706135 0.567365
production -0.408532 0.620486 -0.084757 0.231579 1.450331 -0.868106 1.40001 -1.730703 -0.111309 -0.721639 3.135526 2.889639 -1.96676 3.379126 -1.600385 -1.16815 -0.517857 -0.213668 -0.83925 -2.071492 -1.58785 0.388093 -1.082391 0.331643 0.687203 0.44561 1.528426 1.268744 -0.973017 -0.05457 -0.9134 2.039863 -1.969892 1.592254 -1.859386 -0.20171 -2.696458 0.468289 0.799325 1.270762 -1.335946 0.328944 -0.927157 -0.078307 -2.057722 -0.752946 1.035354 1.971036 0.469907 -0.351934 -1.285851 -2.667549 -0.143491 -0.52186 -1.271731 -1.895038 -0.094593 0.407292 -1.263569 -2.418394 2.018988 0.754655 -0.485169 0.162766 -0.311115 -1.451312 0.238188 1.822988 1.610321 -0.895421 -0.064402 -1.56824 0.826179 2.813589 -1.290102 0.007943 -0.991016 -1.466569 2.053558 2.349933 1.417934 1.202027 0.948654 0.881854 0.642041 -1.041693 1.011231 0.182736 1.242025 -1.178574 1.567655 0.557383 0.138115 -0.471628 -0.115251 -2.04736 -3.184069 1.246265 1.564829 1.156101
importance -0.921319 -0.1107 0.583112 0.226852 0.414566 -0.45843 -0.627932 0.130743 -1.170578 -0.385279 2.443828 1.38948 -1.542408 -2.829419 0.162503 -1.711872 -0.680195 -1.394222 -0.917603 1.809255 -0.782851 0.972022 1.664035 0.24879 1.839164 -1.410034 -1.006229 -0.108392 -0.254105 -0.368328 -0.401879 1.567065 1.075447 -1.284251 1.219516 0.213244 1.049686 0.995339 -0.414929 -1.010989 -0.001097 -0.14845 -0.319407 -1.461445 2.998509 0.137035 0.83873 1.747193 -0.359565 0.599507 -2.654346 -1.781697 -1.411209 -0.703392 0.657576 -3.230775 1.331505 1.602368 -1.775085 0.111637 -1.062542 0.729686 -0.459838 0.776179 0.493495 -0.65607 -0.445739 -1.407235 1.309932 -0.169983 -0.880369 1.694585 0.270786 -0.43604 0.79725 1.486347 -0.492633 -0.131362 0.293067 2.38759 0.831218 0.186276 -0.004049 0.878536 0.277066 -1.741487 2.776567 -0.798249 -1.400933 0.018454 0.340179 -1.24496 -1.374325 0.561977 -1.203059 0.223976 -0.621285 0.981697 -1.196555 1.78519
inmate 0.881057 -0.71043 -0.323458 0.401454 0.169061 0.128083 -0.088529 -1.412152 0.728666 -0.651742 -0.380882 -0.167623 -0.166495 -0.787021 -0.460866 0.115479 0.482583 -0.315258 0.203838 0.502567 0.505885 -0.504914 0.011997 -0.46207 -0.222946 -0.252233 -0.996211 -0.204987 -0.17016 0.142228 -0.281929 -0.451169 -0.386871 -0.008923 0.457722 -0.78219 -0.325341 0.047312 0.114679 -0.626045 0.391169 0.842518 0.646189 0.43364 0.057472 -0.123773 0.296388 0.581018 -0.61205 1.196368 0.631374 -0.144327 0.704036 -0.76794 0.143301 0.431632 -0.030853 -0.32678 1.004519 0.038874 0.405735 -0.090078 0.867206 0.198121 0.182104 -0.144515 -0.464982 1.310722 -0.545817 0.362362 0.421111 -0.675369 1.106328 -0.031516 -0.093441 0.5466 -0.34837 0.111404 0.66602 -0.539535 1.243569 0.311498 -0.125455 -0.190294 0.316821 -0.143454 -0.175988 -0.595413 0.016302 1.345825 0.48853 0.09802 0.71575 0.078587 -0.227422 0.230234 1.271749 -0.663996 0.389736 -0.132089
Harvard -0.742245 -0.679476 -1.522515 0.97951 0.290054 0.433563 -1.274938 0.178238 0.184997 1.298709 0.270725 0.0453 1.151227 -1.767 -0.876468 1.336358 0.419554 0.335719 0.18997 1.838959 -0.47077 2.056986 0.216918 0.332256 -1.632944 -1.662638 -0.829114 -0.811259 -0.28919 0.930099 0.331845 -1.664962 -0.175559 -1.205723 -0.508746 -0.164528 -0.458288 0.700503 -2.126838 -1.295808 0.992776 0.343674 -0.732344 1.453872 -0.296361 -0.796408 0.834686 -0.097987 0.331314 1.728455 1.119849 -0.47216 1.152145 0.14972 -2.056371 -0.448753 1.065113 0.134756 0.528891 1.4868 0.001094 2.525608 -1.49519 0.404597 0.072669 1.422578 -0.4513 1.647329 1.443511 -1.118854 1.595912 0.899951 -0.114409 -1.760864 -1.002485 0.063588 -0.262428 -1.230917 0.530363 -0.096779 1.821882 -0.89833 0.196072 -1.831996 -0.09775 -0.448716 0.720273 -1.103273 -1.03671 0.586293 -0.247329 0.239776 -1.720337 0.93385 -0.013173 -0.944427 1.013073 -1.984422 0.211479 0.619171
psychology 0.261896 0.252106 -0.628045 0.636734 -0.389371 0.207004 -0.714728 -0.004461 0.035354 0.132151 -0.047138 -0.081915 0.025179 -0.707587 0.147542 -0.316405 0.411359 0.04709 -0.628016 0.761859 -0.034252 0.472565 0.529206 -0.236812 -0.348024 -0.905807 -0.097936 -0.134358 -0.107366 0.42298 0.107294 0.285924 0.13272 -0.284306 -0.120836 -0.004338 -0.236821 0.248426 -0.417002 -0.598992 0.432221 -0.42432 -0.381065 0.785487 -0.391079 -0.072082 0.605465 0.373422 0.109024 0.534705 -0.106882 -0.254102 0.691611 0.480481 -0.644324 -0.601743 0.538938 0.084654 0.208269 0.661841 -0.048481 0.979978 -0.698333 0.480358 0.437649 0.080679 -0.10905 0.272966 0.53375 -0.351046 -0.034735 0.540838 0.635073 0.071047 -0.434144 0.281174 -0.002374 -0.721447 0.269687 0.608668 0.697671 -0.325468 0.156577 -0.106892 -0.136081 -0.224983 0.988271 -0.481713 -0.421927 0.423664 -0.245071 -0.117879 0.255018 -0.368391 -0.471299 0.008289 0.293731 -1.346179 0.032446 0.780353
medal 0.063402 2.829515 -0.120283 -2.121853 -0.179303 3.1873 -0.660326 -1.787771 -0.830749 -1.283248 1.460699 2.207934 -1.22092 1.277483 -0.668587 -0.700928 0.950768 -1.27889 0.859474 2.475007 -0.930593 -1.224224 -0.780219 -2.883174 0.750049 0.201133 -1.29521 -0.273888 -2.203329 1.101045 0.229717 -2.920245 -1.089722 -0.551638 -0.259961 1.389066 0.232252 0.147831 1.123888 -0.505519 -0.493004 0.02252 0.542533 0.460563 1.427496 -1.711796 -0.154591 0.856298 0.35523 -1.049106 -2.309672 -1.03581 -2.088598 -1.845363 -0.619314 -0.154083 -2.260972 0.50056 0.305014 0.470014 0.0225 0.454771 1.49616 -1.315958 -2.665797 -0.864493 0.972001 0.273635 0.723906 1.176026 1.912735 -2.81261 -2.493771 -0.477732 1.016692 1.038661 -0.11633 -2.327261 0.027165 0.059552 1.973662 -1.534477 -0.625422 -0.595239 2.77272 1.99145 -1.300277 -1.773808 -0.114689 0.74733 -0.44786 -1.272561 0.69174 0.332952 0.667901 -0.527956 -0.24167 -0.874445 -1.520311 1.422529
company 1.859079 -0.989725 0.983474 0.233339 -0.936442 2.703751 0.397174 -1.090647 1.899734 -1.589552 2.863648 3.155025 -0.431067 0.508033 0.629578 -1.502775 -1.815441 0.434148 0.262764 -1.681719 -1.918749 2.209476 -0.498848 2.00756 2.846812 -1.124791 1.542932 1.195058 -1.019693 -2.038019 -1.012428 0.044463 -2.692294 -0.750011 1.145766 -0.937396 -4.514643 -0.255675 0.782231 1.176235 -0.208662 -0.387822 -1.648679 0.345348 -1.158103 0.381086 2.224256 2.507346 -0.011942 0.518614 0.574108 -0.512253 -2.493073 -0.542873 -0.336349 0.762994 1.335622 -1.194986 -0.583331 0.304475 0.653761 3.490653 0.747673 0.256686 -1.217353 -0.450887 1.995759 3.165322 1.637147 -2.366926 -0.900776 -1.440453 1.829459 1.604511 -0.901411 -0.662275 -1.885785 -2.804053 -1.85954 1.816503 1.596344 0.454697 -2.733789 -1.272927 -2.060306 -3.456283 -1.268465 -0.705934 0.485796 -1.410668 1.77375 -2.153369 -1.698541 1.174458 -0.848161 1.253115 -1.068544 1.196635 3.228699 0.535346
live -1.516668 2.546762 1.161677 1.871146 0.767076 1.913716 2.075714 0.892791 0.430403 2.068818 0.659873 -0.516439 0.801025 1.074367 -3.25225 -0.997824 2.647598 0.991359 -1.643677 -2.6414 0.113397 -4.338235 -0.834283 0.218097 2.496747 -0.120389 -0.006857 1.175948 1.616413 1.75581 -0.112316 0.566224 1.628753 -2.044998 -0.904512 -0.231415 -1.130208 1.215116 -0.367486 -0.514678 0.421552 -0.787443 0.520145 1.151096 -1.288598 0.046028 0.115979 1.662091 -0.595054 -1.767634 0.401317 -1.599873 -1.182609 -1.509152 3.881479 1.622939 -0.455308 1.569261 -0.141098 -1.382604 1.392093 0.693586 0.23963 3.039403 -1.217378 -0.588641 -1.307763 -0.180196 2.312379 0.626632 0.278856 0.965095 0.52844 -2.920596 -0.281335 2.134881 1.817775 -1.638997 0.939871 -1.670052 1.507754 -0.232032 1.446868 1.920131 0.336482 -0.190857 1.328048 1.042456 -0.131093 0.663066 -0.78319 1.177243 -0.251462 -1.078551 1.090147 1.11873 0.953171 1.464677 -0.332436 1.113608
holy -1.197387 -0.449772 0.990321 1.356267 -1.579466 1.23795 -1.723518 -0.667422 0.122897 -0.943293 -0.455535 0.101474 0.534496 0.081083 -1.151782 1.634844 1.326645 1.212237 -0.188718 -0.495986 -1.157909 -1.613598 0.73976 0.421521 0.18967 0.047478 -1.470633 0.486183 -0.573351 -0.150129 0.106092 0.606706 1.679461 -0.494742 -0.127931 -0.075912 0.361412 0.026388 -0.30364 -1.363475 0.432072 0.07357 0.082234 -1.600305 -0.030281 0.172483 0.044237 -0.483538 -1.735495 0.193006 0.210299 -0.622293 -0.047104 -0.950848 1.109093 0.205219 -0.796604 -0.001454 -0.011456 0.490672 -2.057994 1.183319 -0.446294 -0.32087 0.801091 1.330706 -0.263577 -0.645681 -0.74905 1.66776 -0.031017 0.091907 -0.124908 -1.165598 -1.183295 2.071924 0.54586 0.326762 1.084818 0.945757 0.526886 0.114118 0.46906 1.447335 0.688846 0.458833 0.403725 0.369132 0.247058 0.952763 -0.151708 0.205286 -0.698424 -0.373291 -0.721554 -0.362569 -1.451846 0.461208 -0.02852 0.704509
ticket 1.428317 1.623855 0.548964 -1.57356 0.612784 -0.108701 2.433197 -0.248482 0.293296 -2.063209 0.986696 1.666672 2.11699 2.010597 -1.184032 -0.102506 0.287862 -0.629828 -0.082867 -0.998605 0.379822 -0.347941 0.02009 -0.401135 1.959669 -1.518947 0.64879 1.010224 -0.839327 1.620782 -0.673862 -0.541727 -0.361502 0.033234 0.415108 -0.393143 -2.041065 -1.799879 -1.587042 0.163585 -0.227177 -0.345803 0.477349 -0.155692 1.508151 0.572488 0.795665 -2.309834 0.014847 -1.343971 -1.19551 -0.238959 -1.643557 -0.686074 0.267999 1.242682 -0.105031 0.425103 -0.027011 0.230669 1.413223 -0.449907 0.570011 0.961828 -0.290788 -0.121569 -0.355876 1.462752 -1.741137 -0.358752 2.104945 -1.630467 -0.643041 0.574267 -1.4409 -0.665642 -0.072722 -1.029984 -1.907797 0.166645 0.159935 -2.209965 -2.536911 0.377579 -0.138836 0.225565 -0.455822 0.404522 -0.327909 -0.868492 -0.142401 -0.206477 -0.069679 -0.982124 -0.5528 0.121165 -0.568601 -0.66223 -0.744847 0.419038
victory -3.142966 -0.613813 1.192533 -3.344472 1.752836 2.925149 2.410909 -1.12554 0.065009 -1.706499 -0.024344 -0.416558 0.907218 -0.925512 -0.390621 -4.323127 2.79501 2.737896 -1.771907 2.428531 0.685593 -4.032443 -0.272727 -0.024887 2.010423 2.673398 2.012584 -1.234795 -1.777892 0.072117 -1.785735 -2.99615 -3.591116 -2.922474 0.741451 4.597409 1.146942 0.812715 3.098611 -2.7767 -1.478837 -0.008836 0.915722 0.911802 4.010007 -2.651329 -1.034099 -0.756065 -0.097188 0.371328 -1.861336 -0.675069 -5.334955 -3.211879 2.301566 -1.12803 -0.123158 -0.110266 0.094941 0.653781 -0.509011 0.010091 2.682178 -0.487125 -0.919509 -0.468153 0.982422 -1.696439 -0.678661 -3.566395 0.751581 -5.344354 -2.87112 0.8901 1.805194 1.65607 -1.33317 0.674985 1.45769 -0.627856 0.577395 -2.071967 -0.275429 -1.56864 1.908387 -0.072935 -1.824813 -3.866633 -1.958822 2.071259 -0.335788 0.930087 -0.405657 4.667794 -0.097923 1.469656 1.393131 -0.471731 -1.801835 5.25351
football 0.074748 2.648999 1.858548 -0.008455 0.996374 1.632371 -0.529031 1.274097 0.3576 -3.272593 1.389133 -0.278187 0.776405 0.222832 -0.269881 0.648383 2.832573 0.463923 -0.885123 0.510879 0.280043 -0.724957 -1.887319 -0.21082 -0.379414 -2.38543 0.634975 -2.916525 -0.848693 -1.246123 1.52619 -0.391151 -1.213286 -2.840335 1.178876 -0.185556 -1.921782 0.34785 1.009875 0.153126 -0.809278 0.399932 0.634519 0.887249 1.188327 0.730514 1.583889 -0.163329 1.580152 -0.506348 -1.535408 -2.236508 -0.539512 0.130108 2.723915 -0.483192 -0.748468 2.216774 0.240049 1.023259 -0.730252 3.218489 -2.057803 0.128892 -1.163556 -0.724547 -0.294746 0.84904 1.153702 -0.629308 -1.005111 1.145297 -2.017946 -1.244467 1.424479 -1.378644 2.231184 0.389992 1.066992 1.190302 -0.185651 -1.373363 0.438377 -1.433759 2.373284 -0.049882 -0.051391 -2.526052 -1.110265 0.360243 1.679379 -0.008777 0.756378 -1.442362 -1.58344 -0.656228 -1.478089 -1.484863 -2.475565 1.393847
stroke -0.168494 0.138959 -2.129879 -0.170161 0.357494 2.011283 1.299795 -0.421814 -0.639621 -1.082071 -1.992128 -0.129392 -2.266855 -0.123274 -1.219307 0.233476 0.779104 -1.840121 -0.817593 -0.014504 1.378503 0.647833 -0.371251 -0.352844 1.089277 0.99845 0.756203 -0.245091 -0.520918 0.59408 -0.720759 -0.274447 -3.245037 -0.676491 -0.796804 1.674182 -0.947299 -0.704133 0.200118 -1.815452 -0.687508 0.684479 -0.248231 0.314597 -0.006697 -0.291749 -1.325776 0.082296 -0.896811 0.294076 -0.31252 -0.356576 0.665093 0.127375 -0.894892 -0.02713 0.177973 1.365421 0.915298 0.058467 -0.877068 1.892647 0.20143 -0.283313 -1.191941 -1.960002 0.83612 0.655594 0.032299 -1.300816 -0.169521 -0.854353 0.622008 -1.862176 0.82839 -0.337885 0.675361 0.654012 -0.037107 0.461075 0.604835 -0.518178 0.745067 0.877544 1.682164 -1.202835 -1.578323 -1.637287 0.141804 1.293407 0.260577 -0.359734 1.488988 -0.314387 -0.56167 -1.243723 1.444643 -1.785671 0.204645 0.152616
environment 0.673352 1.423736 -1.458394 0.928181 0.33194 1.982797 0.560791 -0.415212 -0.581804 -2.857679 2.48185 1.334358 0.284789 -1.851315 2.105845 -1.956548 0.00243 -1.723059 -1.329413 1.216831 1.157438 0.081534 1.361273 0.902288 1.998663 -0.573718 -0.27712 0.13464 0.595716 1.685513 -0.628124 1.273293 0.764103 -1.921114 0.240726 -1.138712 -1.159623 -0.092481 -0.958706 0.283364 0.110865 -0.19799 -0.513437 -0.466835 -0.313522 1.578742 0.273262 3.161671 1.018675 1.046515 -2.515831 -2.104385 -0.049461 0.599735 1.551629 -3.250633 -0.365614 0.145778 -0.865199 -1.875582 -0.695621 1.982424 -0.254815 1.547107 -0.746365 -0.997009 -1.403503 0.007599 2.758356 -0.219171 0.122665 0.33814 2.991149 1.808355 -2.200132 1.693988 -1.124573 0.489248 1.574438 0.947245 -1.495359 -0.186405 0.925349 0.338156 -1.703701 -0.939196 2.744491 0.434341 1.610087 -1.173746 -0.707024 -0.109504 -0.861449 -0.828771 -0.315351 1.451721 -0.117605 -0.127356 0.647717 1.36019
coffee 2.000254 1.762092 0.45489 0.084642 -0.671932 0.503906 1.19223 1.760002 0.653464 -0.870318 1.260982 0.845573 -0.250556 3.210652 -1.10589 0.851947 0.500402 0.357407 -0.557987 0.596805 -0.205258 -2.316483 1.513781 -0.700995 2.307436 -0.777362 0.652903 1.339788 -0.763092 2.297287 0.447439 1.073239 -1.522632 -1.060934 0.517576 0.619936 -2.401794 -1.316325 0.004967 -0.130948 -0.741619 -0.2646 -0.217256 0.22593 -3.542819 0.287951 0.740702 0.508325 1.10843 -2.136708 -0.492531 0.205275 2.101975 0.132773 0.842686 -0.060139 -0.092563 0.399879 -0.272344 0.783425 -1.196 0.262042 0.562338 1.425854 0.883009 0.44642 0.183743 0.968825 -0.35919 -1.045094 2.277996 0.075013 0.055664 -0.998427 -1.675528 1.478583 1.1743 -0.868438 -0.626647 1.286289 1.238283 0.690419 -2.007823 -0.318593 0.283498 1.836033 0.793451 0.169652 -0.400332 -1.066842 0.184515 -1.108186 1.014946 -0.810886 -0.970242 0.608018 -0.027665 -0.87336 0.587737 -2.109296
baby 2.700263 1.014873 -0.689668 -0.090954 -0.634492 2.655555 1.736788 -0.190013 -0.277411 -0.096735 0.847639 0.467156 -2.087254 -0.971801 -1.143654 1.859298 -1.01093 -0.534227 1.630593 1.873548 -0.780459 -1.138782 0.308194 -2.214782 2.024423 -0.360911 0.15432 0.331322 -0.017231 1.155086 -1.192753 0.425177 -2.037961 -0.660189 1.391347 1.101571 -1.321057 -1.84382 3.264641 -1.90024 -1.155033 0.328461 0.8153 0.666878 -1.022942 -0.912169 -0.897572 2.126569 -0.724539 -0.33704 1.294855 0.835148 1.600865 -2.058123 -1.643051 1.810272 -1.654449 1.15777 0.261934 0.458547 0.601388 1.189651 0.619879 0.864329 -1.284186 -0.747073 1.634119 1.598103 -0.18868 0.857498 1.05106 0.105238 2.619689 -1.425921 -1.864988 2.149539 2.386189 0.302397 -2.083504 -0.053873 3.313859 0.979762 0.430861 0.368988 1.095682 -1.342203 -0.390446 1.962368 0.314368 -0.240478 -0.159083 0.779944 -0.311769 -1.786081 0.129119 2.031306 2.672954 -1.815238 0.287146 -1.758678
personnel 2.508892 1.804944 1.504665 3.273085 -0.394499 -0.546563 -1.20669 0.354807 0.098981 -0.756716 0.251077 -0.368005 1.023044 -1.877995 0.420099 -0.548282 0.058746 -0.795933 0.092901 -1.271169 0.287205 -0.908371 0.211851 0.632874 -0.842704 0.982224 -2.284218 -1.165434 0.0402 0.313657 1.750134 2.542229 -0.436262 -0.461723 -1.353677 -0.303957 -0.096808 1.598616 -1.456254 0.406403 -0.967745 1.063571 -0.062188 -4.148586 0.992552 -0.076164 0.573692 2.772577 -1.106791 1.255304 -3.097355 -0.749178 0.660554 -0.092613 -2.087393 0.549898 -0.264762 -0.45534 -0.332287 -2.797023 1.682843 0.130831 1.253607 -0.663759 -0.452253 -0.669304 -0.692576 2.335448 -0.559963 -0.255948 0.077507 0.020401 1.534285 -1.410595 -1.252586 -2.123341 1.222729 0.364253 1.149076 -2.154817 1.369477 1.787055 0.460369 -2.776501 -0.099136 -2.179827 -0.425901 -0.827769 -0.226829 2.152057 2.00953 1.017956 -1.849263 1.540333 -1.975188 -1.029215 -0.24142 2.183563 0.134829 -1.490668
family -0.310538 -0.03996 1.148588 -0.423054 -2.078369 4.217121 2.14265 -1.407735 0.536136 -1.817623 1.924807 1.458643 -1.780012 -0.644718 -1.614995 1.461474 1.099123 1.173263 0.428509 -0.145775 -0.476846 -1.15585 -0.07548 -1.499462 2.498493 -3.172648 -1.417555 0.162347 0.679116 -2.931193 -1.85621 0.654147 -0.942178 -3.999872 -0.224122 -0.739882 -1.303741 -1.175869 1.289671 -1.754483 -0.354767 -0.274631 0.218694 0.275014 0.611151 0.917307 -0.500622 2.280154 -0.718007 1.745029 1.761319 1.151118 0.186892 -2.688912 2.598913 0.907752 -0.368925 1.880049 0.628577 -0.119674 -0.643579 2.150106 -0.832716 -0.085384 -0.773171 1.364989 1.475765 2.655923 2.117972 -2.084166 1.438345 -0.041927 1.570204 -1.952549 -2.507082 -1.148278 3.143539 -0.182096 -1.906246 0.919828 1.08447 0.815841 0.999494 -1.160929 -0.90929 -2.941677 -0.763422 0.032177 0.084002 2.317103 -0.777791 -0.99554 -2.176108 -1.093707 0.013056 1.437351 2.099346 1.927599 1.898094 -1.656058
hypertension 0.168692 0.51931 -0.395531 0.479286 0.209674 0.381356 -0.1519 -0.108615 -0.020069 0.028018 -0.275524 -0.614358 -0.144827 0.117983 0.437407 0.434828 0.056016 0.053572 -0.591419 0.307092 0.112476 0.540212 0.232008 -0.090457 0.221461 -0.062303 -0.554351 0.023686 -0.056391 0.28817 -0.017362 0.162672 -0.273897 0.213042 -0.242147 -0.231739 -0.177342 0.082866 -0.021585 -0.131569 -0.183694 -0.132066 -0.248565 0.176635 -0.263992 -0.090869 -0.08947 0.270608 -0.513907 0.598049 -0.213898 -0.347725 0.445112 0.421747 -0.445117 -0.353657 -0.019077 -0.09734 -0.045223 -0.437764 0.261331 0.344289 -0.119679 0.125813 -0.128804 -0.205608 0.417858 0.297398 0.462197 0.013828 -0.203524 -0.093695 0.214924 -0.475557 -0.069263 0.176402 0.576348 -0.083692 0.042745 0.232871 0.32926 0.423838 0.263499 0.192255 0.229675 -0.045106 -0.032815 0.091974 0.052878 0.371164 -0.072279 0.046408 0.245033 -0.228958 -0.145417 0.181082 0.420458 -0.759221 0.198693 -0.043331
president 0.848923 -1.058193 1.815999 1.616736 -1.314789 -2.137971 0.532139 0.450484 -0.923166 -0.84524 3.966574 0.329394 -1.653732 -0.894718 1.841745 -0.408684 -2.046417 0.597585 -0.248004 3.667612 -2.834329 0.368179 0.935569 0.978582 -2.885938 0.79306 -0.815059 -0.283978 -2.085018 0.027419 -0.701681 -0.73906 -2.358807 -1.508064 3.154648 0.726517 1.580687 0.663209 -1.301237 -0.79852 -0.512143 3.359344 -1.418077 -0.762434 0.680618 -0.622965 0.956887 -0.850501 -1.432985 2.966621 0.777116 -1.034102 -3.472692 -3.913201 1.143559 1.604406 2.202748 -0.291336 -2.470697 0.76731 -0.239114 0.423685 -0.323421 1.572626 -1.700127 0.100669 -2.498887 1.716175 0.621163 1.122565 0.81051 1.29688 -0.105333 1.416055 -0.133716 -2.524984 -3.537276 -0.925397 1.166491 0.651977 2.363961 -2.740559 -0.750853 0.007873 0.081639 -0.264731 -0.821509 -1.214296 2.059093 -0.304955 0.901799 -0.30735 -1.795852 1.370519 -1.239394 0.790219 0.96773 1.225363 -3.317856 3.479254
atmosphere 0.207791 1.913399 -0.259483 1.103793 0.666171 1.111888 -0.224165 -1.187112 0.239223 -1.256614 0.255692 1.305739 -0.539094 -0.126555 -0.22547 -0.822092 1.360765 -0.686517 -0.624916 0.754749 -0.118438 -0.831078 1.157112 -0.475772 1.368182 -0.021153 1.409713 1.197394 -0.368143 0.03423 -0.049836 -0.689548 -1.388566 -0.980055 -0.212801 0.986124 -1.677112 -0.853261 1.480339 -0.432135 1.269277 1.557424 0.496957 -0.698268 -0.651662 0.116896 -0.628031 -0.067799 0.249384 -0.455282 -1.053421 -0.852709 -1.182381 -0.816997 0.293829 -2.592497 -0.926747 1.167803 -1.690403 -0.818414 -0.337282 1.405511 -0.688296 0.505839 0.564061 -0.544122 -0.508388 -0.665511 0.654701 -0.167215 0.3659 0.589036 1.443189 -0.067337 -1.160138 2.957641 0.75392 0.401924 1.781362 0.978958 -0.598486 0.13144 -1.197087 0.598247 -0.68723 -0.946273 2.710479 -0.617919 1.445299 0.237161 -0.51558 -0.468208 0.8029 -0.912547 -7.79E-4 0.087419 -0.368325 -0.42682 0.725772 0.921762
practice -0.796515 0.739063 -0.707608 0.706587 0.807149 1.777099 0.063873 -0.107696 -0.624216 -1.804524 0.79446 1.007787 0.348065 -2.472129 -0.759132 -0.110894 0.281651 0.044645 -2.030974 0.256182 1.09841 -0.169802 -0.535422 1.267103 0.645124 -0.649469 1.221781 -0.434972 -1.887882 0.847858 1.363379 0.666433 -0.871724 -0.571371 -0.156667 -0.770173 -2.446095 1.428971 -0.1817 -0.237922 0.440822 -0.156865 0.909398 1.242495 1.339609 0.672944 0.667686 0.297189 0.51677 1.329301 -0.525082 -0.652821 -0.297246 -1.054767 1.435573 -1.306764 -0.495629 -1.030456 -0.801947 0.307701 -0.784901 1.449671 0.649431 1.021274 -2.03394 -0.877553 0.750138 0.814304 0.764958 -1.981125 -0.129239 -0.691637 0.504655 -2.221307 -0.992586 -1.2834 0.670766 1.444907 0.442403 2.01736 0.568858 1.99903 -1.755061 -0.582593 -0.254119 -2.095931 0.700251 -2.199718 -1.116657 0.674302 0.223217 -0.65492 0.966174 -0.242427 -1.690454 1.063957 -0.720655 -0.955628 -2.124697 0.360486
movie 1.295993 -0.207073 0.988262 0.871988 -0.580242 0.135829 1.706629 -2.039434 -0.724121 -0.868515 1.06399 2.237025 1.704824 1.126298 -2.453545 -0.601552 1.164176 0.657578 2.099108 1.600012 -1.447007 -0.688526 -0.874543 -1.111855 -1.733226 -0.922069 1.339469 -0.786184 -1.577011 -0.261666 -1.874968 -1.214731 -0.161328 -0.564953 0.995018 2.376562 -1.197807 -1.834967 1.07796 0.240852 1.493809 -1.875877 1.207691 2.489681 0.148072 -0.420789 0.868043 0.226149 1.905529 -3.485914 0.632037 -2.732743 -1.569233 1.349317 1.391198 3.299131 -1.847691 -0.045169 -2.443802 0.121828 0.114741 2.504984 1.554271 1.081283 0.357559 -0.813151 0.498176 0.053383 3.372386 0.2106 0.309382 0.483177 1.124587 1.637366 -1.095895 0.270231 2.313461 -2.871133 0.42927 1.244736 1.605393 -0.459603 -1.455746 1.197936 0.568406 -1.221413 0.472554 -1.309446 1.525401 1.525508 -1.172308 -1.741271 1.056895 -2.419698 -0.573736 -0.428459 1.342746 -0.59539 0.728259 2.607999
popcorn 0.260398 0.337856 0.134411 0.15766 -0.225464 0.269816 -0.101041 -0.056496 0.052533 0.077978 0.095783 -0.168258 -0.056717 0.778884 -0.175691 0.094269 0.062491 0.213607 -0.116895 0.500524 -0.00416 -0.129577 0.19406 -0.316374 0.130123 -0.25033 0.368179 0.284673 0.091066 0.590553 0.108207 0.210092 -0.270535 0.060854 -0.209953 0.198088 -0.361776 -0.351646 0.365115 -0.173514 0.253743 -0.186707 0.051476 0.291759 -0.737903 0.098147 0.047616 -0.086226 0.172815 -0.472804 -0.155712 0.027401 0.379659 0.4894 0.046867 -0.105686 -0.346346 -0.072376 -0.179909 -0.040234 0.055326 0.176582 0.142703 -0.061922 0.39982 -0.211795 0.228378 0.165647 -0.093541 -0.107259 0.576095 -0.015374 0.180939 0.022261 -0.3884 0.262552 0.306186 -0.345605 -0.014599 0.029785 0.520967 0.18816 -0.358751 0.019664 -0.229216 0.167705 0.060139 0.164275 0.306374 0.205566 -0.111942 -0.208724 0.642081 -0.288683 -0.247398 -0.213859 0.129795 -0.456778 0.154193 -0.153423
recommendation -0.261729 0.156137 -0.498778 0.945595 0.020496 -0.272327 1.782814 -0.00657 0.77304 -0.446324 0.668623 0.810935 -0.020442 -1.267732 -0.778739 -0.746527 -0.110427 -0.071159 0.386225 -0.896878 0.222481 0.567671 0.807295 -0.211952 0.564872 0.735344 -0.564884 -1.567105 0.094329 -0.818573 -0.804424 0.230508 -1.018864 0.323398 1.294031 -0.193822 -0.502358 -0.261804 -0.405015 -0.3706 0.4021 0.892269 -0.521203 0.711186 1.487134 -0.195215 -0.639385 0.124326 -0.034012 -0.309322 0.092717 -0.282893 -0.662751 -0.834876 -1.137 0.301574 0.532102 -0.526221 -0.426156 0.685258 -0.018643 0.844077 -0.464182 0.40384 -0.027627 -1.007919 -0.134502 0.940314 -0.369887 -1.214124 -0.099653 0.051391 0.993714 1.199285 -0.444451 -0.661918 0.062571 -0.108144 -0.28844 1.170076 1.009473 -0.461776 -0.471587 -0.784026 -0.318827 0.228019 0.762036 0.070695 -0.309689 0.038287 0.048861 -0.567622 -0.076017 0.244494 -0.589889 0.386782 -0.089429 0.602668 -0.797865 0.288589
focus -0.719821 -0.351332 -1.058646 -0.20735 -0.015632 -1.728051 3.619442 1.676369 -0.621424 -1.243429 3.155642 0.477918 -0.629298 -3.558099 -1.123369 -1.648167 1.020641 -2.329165 -0.965569 -3.081158 -1.789531 -0.043236 1.074956 -0.395676 2.766727 -1.684941 -0.130507 2.450998 0.45377 -0.312701 -0.188961 4.558385 -1.040041 -0.320639 0.214158 -0.852265 0.477666 -1.909897 1.284038 0.203364 0.407756 -0.005369 -0.82593 -1.32681 4.304482 1.529119 -0.442143 1.801746 1.047997 -0.667726 0.081847 -2.250529 -3.426576 0.819952 0.786949 -1.39529 1.748399 1.001933 -1.96586 -1.436321 -1.93146 1.904506 -0.382781 2.268574 -0.325707 0.028773 -2.092096 1.223218 3.386816 -0.321858 0.522213 -0.509794 -0.797322 -1.048409 1.942058 -0.375502 -2.243091 -2.309474 1.503899 2.090481 0.67667 0.238661 0.77218 1.253116 -0.82129 -2.285213 1.955956 -1.723679 -2.052066 -0.104797 -0.491437 3.672054 -1.111076 -0.933078 -1.58986 0.485689 -0.212794 0.362222 -0.761381 0.55482
attempt -1.32151 -0.825758 0.867099 0.842566 -3.165157 0.38483 0.651134 -1.728073 2.79512 -6.179845 -1.510551 0.408041 -1.533081 -2.84712 -2.706809 -3.140359 1.579794 0.169352 2.199504 -0.466609 2.226392 -0.38191 -0.581306 -0.896168 5.264331 1.108565 -0.511587 -1.109212 2.65745 -2.577151 -0.743992 -3.182923 -2.798976 1.606393 0.734168 2.190275 -1.127865 -1.845921 1.765524 0.250891 1.16866 -0.420025 -0.030696 1.630725 1.520611 0.45785 -1.155418 -0.455911 -1.979903 2.681061 -0.013934 -2.730086 0.281154 -1.274366 -0.482277 -0.088331 -1.014374 -1.259104 -0.78533 -1.355338 -1.930512 0.769972 1.309778 -0.804108 -0.428425 -0.246087 -1.636391 1.231632 -1.908329 1.63216 0.918914 -4.090709 1.128266 0.784345 0.240651 1.707786 -3.362489 1.10218 1.938192 -0.858957 -1.355744 -1.963663 -0.232635 -0.969305 0.163235 1.011527 1.912007 -3.753626 -0.482477 -1.506459 -0.75163 -1.407048 1.466637 0.06014 0.661908 0.336393 -0.079208 1.85544 -0.953421 -0.730443
approach -0.303406 -0.258825 -1.197422 1.312779 0.694648 1.011772 1.53402 0.263456 1.20209 -3.797874 1.460104 1.010783 -0.184623 -4.445103 1.17599 -1.696039 0.741911 0.977769 0.547193 0.690942 -0.153673 0.631525 0.116099 0.20347 2.57711 0.537999 1.322699 0.816716 0.847628 -0.560392 -2.36375 -1.3064 -1.560331 0.054995 0.311079 1.303895 -1.913521 -0.408847 0.197473 1.619945 1.013982 1.475672 -0.960217 -1.011553 2.986045 1.636204 -0.006536 0.50785 0.024106 -0.387796 -1.651967 -2.527529 -1.015697 -0.549583 -1.032091 -0.437763 -0.105855 -0.291164 -1.935502 -1.032674 -0.125088 1.050078 0.020701 2.194168 0.887447 -1.506102 -1.021089 -0.164937 3.308268 -1.928293 0.60295 0.740563 2.454822 -0.150537 0.011931 1.019128 -2.624622 0.082679 2.059093 2.1356 -1.414922 0.246697 0.930279 -0.413657 -1.477092 -1.986381 1.645213 -0.58754 -1.475105 0.27058 -1.335044 -0.332458 0.555546 -0.057823 -1.418788 0.736509 0.854746 -0.227791 -1.402225 1.247598
