437 100
plane -0.004547 0.597209 0.212683 -0.169041 -0.066583 -0.080511 0.074461 0.135311 -0.146165 0.553592 -0.559137 0.129024 0.524875 -0.52974 0.016356 -0.38928 -0.516438 -0.523775 0.200227 -0.525061 -0.433116 -0.036496 -0.471577 -0.753456 0.321865 0.335598 0.037858 -0.350987 0.246076 0.107011 0.090546 -0.361042 -0.469079 -0.023322 -0.409106 0.574277 -0.307355 0.234259 -0.274496 -0.006347 -0.041697 0.045559 0.206941 0.459342 -0.433008 0.842842 0.096292 0.062714 -0.045055 0.247412 0.178289 0.190336 0.045149 0.077979 -0.684208 -0.159683 -0.094777 -0.12252 0.722828 -0.416382 -0.593104 -4.73E-4 -0.276313 -0.446417 -0.494731 -0.011598 -0.117149 0.137864 0.729459 -0.776212 -0.116452 -0.36009 -0.060791 -0.003764 0.080897 -0.119293 -0.20565 -0.200555 -0.059645 -0.276528 -0.372623 -0.224173 -0.162386 0.089568 0.23502 0.347722 0.411058 -0.080651 -0.572158 0.581569 -0.142151 0.226683 0.156631 -0.354712 -0.508422 0.554367 0.317111 0.077786 0.096574 0.136477
stupid 0.404035 0.448524 0.36696 -0.157013 -0.174825 0.129626 -0.158687 0.321386 -0.263202 0.310103 -0.356308 0.450554 -0.382906 0.258462 -0.432655 -0.455884 -0.774342 0.148523 0.490001 -0.129652 0.028618 -0.332632 0.359907 -0.428271 0.433913 -0.442727 0.323104 -0.149653 -0.269592 0.140365 0.065974 -0.147644 0.044549 0.333079 0.143003 0.411479 0.233822 0.258426 0.06122 -0.070439 -0.253442 0.33171 -0.15648 -0.106785 -0.230505 -0.164335 0.162755 -0.060168 0.402866 -0.3085 0.191875 0.836294 -0.349577 -0.57737 -0.170929 0.508657 0.257571 -0.090888 0.069189 -0.204529 -0.117081 0.705286 0.069163 -0.102071 -0.362403 -0.23184 -0.38789 0.079754 -0.08654 -0.231291 0.370954 -0.302171 -0.227377 0.43025 0.853455 -0.049343 0.153835 0.126528 -0.103406 0.623893 -0.454892 0.404521 0.070486 0.49472 -0.011721 0.067765 0.51834 0.572183 0.040583 -0.060624 -0.319745 -0.289817 0.068384 0.623447 -0.234127 -0.157061 -0.0834 -0.58222 -0.228348 0.118672
egg 0.592527 0.179025 -0.049842 -0.218484 0.158259 -0.503344 0.361601 0.333985 -0.068541 0.276103 -0.323425 -3.2E-4 -0.051514 -0.345714 -0.158649 0.69374 -0.366604 -0.081631 -0.111978 0.33045 -0.433818 -0.455926 -0.195478 0.116189 0.110697 -0.425241 -0.685465 -0.278122 0.079137 0.424998 -0.075302 0.229539 -0.31224 0.175712 0.328588 0.345562 0.44679 -0.084456 -0.670444 -0.144067 0.13128 -0.156849 0.173099 -0.079064 0.51894 0.151322 0.456758 0.198974 0.234119 -0.830386 0.779561 -0.355042 -0.295819 0.05453 -0.124077 -1.49E-4 -0.149012 -0.43531 -0.103944 -0.345435 0.128668 1.069085 -0.09356 0.567945 -0.597287 -0.113212 -0.326117 0.449043 0.817394 -0.026279 -0.010244 -0.345732 -0.496837 0.021855 0.553239 0.248547 -0.266889 0.661147 0.441687 0.410639 0.479583 -0.374515 -0.186393 -0.113938 -0.095923 4.31E-4 0.282023 0.078928 -0.040075 0.069978 -0.146783 0.096846 -0.047305 1.033053 -0.097264 0.326383 0.388372 -0.020659 0.145882 0.717443
year 0.001891 0.672634 -0.442827 -0.18885 0.109344 0.003106 0.062998 -0.131399 -0.435962 0.222183 -0.019631 -0.115235 0.110366 -0.182756 0.452892 0.247949 -0.867333 0.300268 0.001294 -0.400275 -0.028419 -0.011978 0.021505 0.158833 -0.086654 -0.25433 0.06017 -0.166139 0.33542 -0.11736 -0.155356 -0.699105 0.02584 0.029875 -0.05045 0.534701 0.502242 -0.042925 -0.026882 0.15803 -0.098888 0.121749 0.255978 0.659458 0.145692 -0.508439 0.080972 0.216237 -0.37949 -0.018066 0.145932 -0.08783 0.276141 -0.043275 -0.261903 0.525205 0.263521 -0.373956 0.452619 -0.504872 0.198367 0.029667 0.052531 -0.059925 -0.035791 0.140618 0.182389 -0.034847 0.090395 -0.155737 0.393585 0.196837 -0.125933 -0.700595 0.238797 0.403167 0.129258 0.624119 -0.069916 0.042815 -0.257583 -0.170233 0.333683 0.054466 -0.046477 -0.049178 -0.1292 0.173985 0.415617 0.13999 0.41448 -0.067148 -0.339666 0.289394 -0.060509 -0.440385 0.089772 0.035309 -0.148113 0.110758
psychiatry 0.396703 0.094824 -0.563821 0.504894 -0.078355 -0.744976 -0.33142 0.163736 -0.90333 0.300944 -0.560712 -0.403146 -1.11158 -0.429364 -0.707201 -0.159262 -0.019766 -0.388801 0.030243 -0.040217 -0.293736 -0.266486 0.250185 0.360713 0.027806 0.037337 0.03785 -0.366419 0.019019 -0.115403 0.474882 0.182294 -0.952428 0.086031 0.071115 0.984342 -0.095601 -0.484678 0.124083 -0.491426 -0.138714 0.633223 -0.110065 0.292749 -0.590347 -0.180109 0.003735 0.02193 0.142602 -0.252356 -0.75414 0.002728 0.023031 -0.471123 0.351096 -0.620869 0.761344 0.443446 0.05958 0.701842 -0.47271 0.28021 0.051784 -0.445507 -0.004134 0.510714 -1.028289 -0.144535 1.092288 -0.254277 0.722327 -0.010912 -0.944533 0.050332 -0.083239 0.158412 -0.474571 0.139095 -0.344079 0.29606 0.488359 0.035898 0.18269 -0.140663 -0.358605 -0.746249 -0.603835 0.341045 -0.247106 -0.292307 -0.238301 -0.028273 -0.120533 0.02455 0.251468 -0.47333 -0.164302 0.309791 0.13311 1.072162
asylum -0.133329 0.322567 0.678878 0.143069 0.52597 -0.762602 0.092741 -0.852059 -0.093957 0.118185 -0.192856 -0.361478 0.186605 -0.12362 -0.704645 0.026229 -0.715021 0.13958 -0.151252 -0.718914 0.028028 0.260388 0.186654 0.149494 0.159054 0.191913 -0.101036 -0.652629 0.576833 0.591045 0.228338 0.181568 -0.161416 -0.186702 0.298658 0.177314 -0.179411 0.079084 0.338758 -0.753488 -0.044898 0.153131 -0.162166 0.614696 -0.825925 0.114342 -0.380192 0.781381 0.110232 0.015231 0.164039 0.424286 0.41426 -0.415224 -0.662649 0.668736 -0.296584 -0.733411 0.143874 0.137179 0.636347 0.328264 0.137613 -0.587031 -1.001947 -0.057666 -0.302505 -0.03508 0.250656 -0.335045 0.745945 -0.377574 -0.509626 -0.074627 0.485485 -0.456897 -0.220308 0.273608 -0.096416 -0.100752 0.500509 -0.248687 0.103523 0.140667 -0.189667 -0.399314 0.307188 0.033507 -0.30219 0.237396 0.392166 0.281439 0.142304 -0.768131 0.018008 0.222593 -0.249574 -0.137408 0.100131 0.38239
manslaughter 0.017696 -0.07903 0.574918 0.756949 -0.169921 -0.250506 -0.885358 -0.413841 -0.780407 -0.602393 0.200573 0.477513 -0.752492 -0.357663 -0.327401 -0.042074 -1.064798 0.136999 0.2499 0.389836 -0.263594 0.111894 -0.096007 -0.559654 -0.180949 0.187721 -0.232046 -0.749902 0.218992 -0.921582 0.123866 0.447397 -0.485362 0.750743 0.305918 0.377966 -0.626576 0.352845 -0.30309 0.375325 -0.665118 -0.010729 0.015013 0.257662 -0.217876 -0.537945 0.370624 0.314182 -0.845856 0.126698 -0.502658 -0.736374 0.537141 -0.263783 -1.025229 0.481407 0.338649 -0.228776 0.127262 -0.572576 -0.71196 0.456662 -0.755958 -0.201614 -0.311147 -0.016647 -0.165424 0.011896 0.493874 -0.338846 0.633756 -1.091127 -0.500534 -0.036187 -0.123165 -0.111489 0.634982 0.07469 -0.526407 0.3022 0.335252 -0.68681 -0.317923 0.025351 -0.214293 -0.484435 -0.071622 0.269155 -0.493957 -0.166858 -0.095697 0.889379 0.19088 -0.249653 -0.095267 -0.449648 -0.484729 -0.149758 0.804643 1.12855
music 0.365705 -0.051245 -0.28441 -0.133162 0.346099 -0.303588 0.061008 0.165074 -0.051008 -0.267516 -0.721109 -0.102274 -0.186519 0.156424 0.367473 0.047263 -0.03688 -0.40986 0.226015 0.245063 -0.458684 -0.136145 -0.329536 -0.441897 0.126347 0.473756 -0.105888 -0.420201 0.191952 0.325727 -0.202498 0.292145 -0.457086 0.069223 0.233819 0.736945 0.496631 -0.356736 0.252277 0.83606 -0.385417 0.203301 0.005085 0.415243 -0.089983 -0.617911 0.270488 0.13541 0.390137 -0.370296 -0.040366 0.465314 -0.541781 0.061121 -0.531629 -0.100716 0.063885 -0.287836 0.122035 0.290553 0.59975 0.535496 0.328438 0.169764 0.110611 0.477254 -0.544302 -0.162728 0.125124 -0.112493 0.346666 -0.169274 0.003849 0.190724 -0.175966 -0.488885 0.67552 0.283551 -0.2666 0.237256 -0.060964 -0.244687 -0.196388 -0.297855 -0.005007 0.100692 -0.175174 -0.063135 -0.178143 0.041909 0.088103 -0.378557 0.046053 0.115638 -0.436961 -0.026153 -0.247962 0.317748 -0.073597 0.483678
record -0.15527 0.023697 -0.347366 0.061313 0.147761 -0.202853 0.201269 0.155152 -0.144257 0.335361 0.04721 0.011244 -0.387463 -0.115897 -0.26553 0.494626 -0.541595 0.114853 0.754548 -0.087143 0.074425 0.123782 -0.136184 -0.096379 0.226808 0.155401 -0.093383 -0.061112 0.549986 -0.089277 0.041077 -0.322632 0.358156 -0.265567 -0.126218 0.607341 0.002433 0.253387 -0.001395 0.026476 -0.672108 0.26005 -0.058315 0.394592 0.990406 -0.443861 0.265661 -0.115519 0.04482 -0.149056 0.202915 0.088692 0.26514 0.088552 -0.441389 0.630755 0.223261 -0.492168 0.183875 0.142249 0.105065 0.124282 0.092562 0.511133 -0.275823 -0.240704 0.090289 -0.177714 0.338477 -0.518444 0.006724 0.30928 0.190619 -0.016277 -0.114954 -0.119986 -0.078507 0.563513 -0.095791 0.250238 -0.264033 0.05334 -0.174461 -0.242304 0.323325 0.014594 -0.260586 0.056792 -0.196006 -0.219135 0.555274 -0.282304 -0.051582 -0.284054 -0.058727 -0.093264 -0.429589 0.233655 0.378436 -0.218334
energy 0.234802 0.856746 -0.172408 0.020841 0.553362 -0.169674 0.124479 0.137255 -0.103444 0.399454 0.1814 -0.129809 0.15261 0.17335 0.066412 -0.087965 -0.435097 0.080753 0.337047 0.06721 -0.663452 -0.642503 -0.119219 -0.173619 -0.17444 0.137464 -0.186404 0.108283 0.842567 -0.123386 -0.03293 -0.204667 -0.207667 -0.556658 0.284587 0.661975 -0.025852 0.253549 0.036225 0.272746 -0.360102 0.064855 -0.618432 -0.021174 -0.139901 0.164099 0.307381 -0.288742 0.621963 0.166007 0.595639 0.088739 0.192445 -0.25484 -0.081602 -0.09065 0.118111 -0.143586 0.40078 -0.312731 -0.25281 0.957106 -0.107385 0.044947 -0.07285 0.027271 -0.810491 0.01044 -0.120948 0.06567 0.104667 0.266025 0.059064 0.297748 -0.033725 0.098549 0.124497 0.702845 0.058062 0.429827 0.397314 -0.321807 0.107518 -0.262015 -0.240356 0.029287 -0.299566 -0.531347 -0.207723 -0.333667 -0.133976 0.174215 0.019339 -0.12882 0.182759 -0.095116 0.432139 0.184179 -0.131148 0.158271
announcement 0.260616 0.133591 -0.301834 -0.246497 0.056986 -0.538631 0.075051 0.130618 0.030272 0.111486 -0.653442 -0.016451 0.022971 -0.6418 0.539725 0.133028 -0.753927 -0.092684 -0.206031 -0.388593 -0.405871 0.289374 0.165602 -0.527205 -0.45021 -0.226925 0.27871 0.393892 0.661049 -0.31105 -0.283029 -0.500575 0.064265 -0.064436 0.119105 0.465396 -0.250859 -0.537639 0.406883 0.044398 -0.4171 0.148881 -0.160504 0.080939 0.188645 -0.227332 0.266504 -0.306333 -0.479527 0.198773 0.023528 0.444427 0.611684 -0.274066 -0.421109 0.179396 -0.305252 -0.114416 -0.124525 0.446058 0.119389 0.499544 -0.50326 0.499933 -0.101656 0.350857 -0.057146 -0.1837 0.19679 -0.483328 -0.076589 -0.071629 0.246702 -0.085057 0.00633 0.098721 0.189472 0.254961 5.09E-4 -0.202844 0.114776 -0.228284 -0.315722 0.536206 -0.031927 0.273112 0.126307 0.120263 -0.379758 0.511392 -0.169337 0.040646 -0.082582 0.435889 -0.017614 -0.506411 0.366553 -0.503581 0.374647 -0.199394
mile -0.036524 0.656497 -0.014587 0.658842 0.412397 -0.304484 0.170674 -0.068304 -0.41845 0.673815 -0.233216 -0.220817 -0.269678 -0.125108 0.423935 -0.832333 -0.510588 -0.427528 0.362301 -0.162735 0.059755 0.286016 0.481141 0.116478 0.3604 -0.050556 -0.445775 -0.117111 0.725668 -0.323358 0.205539 -0.086912 0.019873 0.207692 0.069952 0.079436 0.326703 -0.090883 -0.160934 0.694943 0.012536 -0.311695 0.108767 0.369663 0.246362 0.092985 -0.172314 -0.060019 -0.069787 -0.344575 -0.088005 -0.224616 -0.159925 -0.407587 0.137695 0.214092 0.057363 -0.028791 0.860962 -0.350815 -0.379037 0.125115 -0.138935 -0.355985 -0.915663 0.02135 -0.005817 0.26403 0.304761 -0.557671 -0.399564 0.063044 0.559054 -0.043091 0.425392 0.103322 0.138458 0.819175 0.49573 -0.075527 -0.698341 -0.584793 0.520998 -0.229873 0.233665 0.166054 -0.346294 0.596464 0.583081 0.236479 0.252438 0.167768 0.26446 0.043387 -0.28594 0.444569 0.112595 -0.190355 -0.087568 -0.164773
airport 0.140239 0.357952 0.475389 -0.116132 0.066457 -0.057775 0.426191 -0.175227 0.264234 0.801868 -0.591746 0.114223 0.45435 -0.508625 -0.379504 -0.246551 -0.778942 -0.675893 -0.117547 -0.227264 -0.211182 -0.251583 0.019977 -0.523076 0.123601 0.223633 -0.161701 -0.011966 0.511997 -0.05223 0.271922 -0.701561 -0.648101 0.05078 -0.165359 0.216008 -0.040284 -0.195136 -0.058323 0.106858 -0.558175 0.150757 -0.190701 0.318391 -0.592948 0.525107 -0.011542 0.371858 -0.168217 -0.168592 0.138681 -0.105872 0.185923 -0.202585 -0.420491 -0.35478 -0.004244 0.138959 0.398439 -0.326656 -0.469949 0.09409 -0.117155 -0.560523 -0.234835 0.209525 -0.245889 -0.12166 0.435579 -0.667284 0.120252 0.124031 -0.191707 0.066293 0.479413 -0.627748 0.46596 0.040868 0.036629 -0.655172 0.005749 -0.436078 0.090796 -0.019468 0.106618 -0.071772 -0.096808 -0.277605 -0.461969 0.426398 0.170261 0.279194 -0.16007 -0.479547 -0.768067 0.185212 0.062573 0.106175 0.25251 0.021352
population 0.215476 0.493535 -0.351602 0.292824 0.199237 -0.112087 -0.219796 -0.539101 -0.83394 0.298967 -0.433759 -0.370578 -0.009848 -0.332437 -0.094576 0.232486 0.102194 -0.084227 0.178556 -0.509538 0.307478 -0.452047 -0.508454 0.313642 0.425138 0.107128 -0.36611 -0.577243 0.786219 0.120712 0.090098 -0.042034 0.037493 0.059459 0.036853 0.233723 -0.044429 0.180575 0.111077 0.131024 -0.064623 0.327364 -0.728655 0.114776 -0.151079 0.196691 0.223429 -0.053627 0.207327 -0.478907 0.172956 -0.261446 0.100691 -0.258285 -0.474043 0.358595 0.182221 -0.46133 1.006602 0.11482 0.286573 0.086603 -6.71E-4 -0.123443 -0.326071 0.23641 0.352311 0.386383 0.065712 -0.370785 0.077045 0.124586 -0.156966 -0.064592 1.108223 0.112473 -0.100028 0.45343 0.054112 -0.155593 0.458456 -0.582402 0.244723 -0.262011 0.248418 -0.642231 -0.387013 -0.320528 -0.116658 0.493498 -0.250555 -0.42397 -0.297069 0.586174 0.268139 0.44047 -0.15058 -0.225867 -0.445921 0.309935
planning 0.213959 0.248113 -0.309617 -0.198358 0.027031 -0.384967 -0.052228 -0.349434 0.181966 0.156142 0.192452 0.05868 -0.308876 -0.098276 0.170385 -0.190208 -0.87527 -0.312872 -0.093306 0.064519 0.014845 -0.104917 -0.190547 -0.315049 0.08315 -0.038175 0.185994 0.066862 -0.295017 -0.1669 -0.173168 -0.186231 -0.568388 0.086229 -0.005732 0.184826 -0.297138 -0.215092 0.120993 0.163901 -0.347614 0.225059 -0.07615 0.168612 -0.362007 0.211194 0.005595 0.090497 -0.173072 0.266674 0.562811 0.009948 -0.165749 -0.597629 -0.250073 0.012112 0.193437 -0.651022 0.348025 0.194978 0.120029 0.325386 -0.203351 -0.426995 -0.222982 0.142436 -0.258227 -0.288183 0.189901 -0.28638 0.227991 0.080012 0.243026 -0.053963 0.288664 -0.273982 0.20118 0.342362 0.10499 0.05268 0.191419 -0.168451 -0.311321 0.16195 0.389597 -0.063103 0.132656 -0.135086 -0.352218 -0.404842 -0.265551 0.47042 -0.373245 -0.097511 -0.353331 -0.34181 -0.063826 -0.185772 -0.340687 0.097753
canyon -0.386532 0.259947 0.19694 0.755025 0.4701 -0.364841 -0.114408 -0.013471 -0.092652 0.224605 -0.7036 -0.264471 -0.055214 -0.416858 0.227861 -0.360687 -0.358536 -1.060814 -0.028177 0.111086 -0.238117 -0.347229 -0.329295 -0.023081 0.204083 -0.16718 0.158092 -0.027248 0.355757 0.041373 0.243458 0.472115 -0.639589 -0.169938 0.197059 0.182645 -0.147579 -0.212329 -0.191835 0.639235 -0.054749 0.058922 0.066676 0.452101 0.188075 0.02646 0.766693 -0.285932 0.684038 -0.690385 0.313864 0.053097 0.366613 -0.045293 -0.54709 0.231464 -0.31436 -0.031294 0.823623 0.038778 -0.780247 -0.059401 0.046991 0.173529 -0.492081 -0.027964 -0.162872 2.06E-4 0.562127 -0.24804 -0.035714 -0.431514 0.108473 0.333979 0.334575 0.214847 -0.168666 0.446122 0.415363 -0.54531 -0.592714 -0.04414 0.07299 -0.389871 0.27099 -0.268567 0.244838 0.356231 0.499172 0.554602 -0.098423 -0.064802 0.132777 -0.110645 0.076772 0.862789 -0.125657 0.11765 0.480959 -0.33807
delay 0.477089 0.030833 -0.109347 -0.010267 0.061388 -0.237302 -0.101473 -0.446332 0.675341 -0.185361 -0.293268 0.314521 -0.295203 -0.303938 0.205384 -0.361147 -0.640177 0.453153 0.049536 -0.077959 2.15E-4 0.072902 0.121886 -0.367307 0.012168 -0.085225 -0.090445 -0.010865 0.408401 -0.631086 -0.170865 -0.315685 -0.364939 -0.212647 0.273949 1.019666 -0.174279 -0.204901 0.088791 0.260692 -0.349194 -0.062315 -0.35443 -1.86E-4 0.014664 0.232332 0.072174 0.029035 0.068251 0.152958 -0.060322 0.299125 0.068758 -0.357059 -0.208881 0.590013 -0.314249 -0.522756 -0.003011 0.266076 -0.195616 0.081237 -0.307605 -0.245553 -0.362107 -0.075298 0.113397 0.156906 0.386408 -0.420142 0.034636 0.016182 -0.414513 0.083601 0.222335 0.199331 0.158192 0.19256 0.249828 -0.098355 -0.092952 -0.511518 -0.123183 0.459652 0.30186 -0.040517 0.135608 -0.027676 -0.292461 -0.087121 0.267685 0.605912 0.201849 0.127796 0.316528 -0.540611 0.684748 -0.227047 0.326734 0.207476
size 0.359203 0.02408 -0.294806 0.372902 0.114607 -0.102301 0.049746 -0.157732 -0.446823 0.219389 -0.64831 -0.043769 -0.297528 -0.616247 -0.179387 -0.365067 -0.27004 -0.259316 0.192563 -0.251628 0.120899 -0.010293 -0.458807 -0.306189 0.347366 -0.331462 -0.572852 -0.195522 0.418318 0.157158 7.45E-4 0.193683 0.085428 -0.267756 -0.200176 0.687519 -0.07295 0.024311 -0.14574 0.418374 -0.144826 -0.15649 -0.414651 0.31356 0.141643 0.275647 0.220333 -0.075065 0.410062 0.222515 0.277893 -0.664171 -0.153109 0.086444 -3.68E-4 -0.076109 0.089708 -0.133169 0.565305 -0.134941 -0.142182 0.113938 -0.046745 0.316524 0.03198 -0.035995 0.593042 -0.052144 0.136048 0.08922 0.059902 -0.064383 0.13793 0.161507 0.80346 0.339024 0.067514 0.418633 -0.081474 0.413749 0.167027 -0.494099 -0.148833 0.020746 0.071026 -0.122192 0.02661 0.382852 -0.064636 -0.066724 -0.040433 -0.371848 -0.556145 0.291451 -0.41858 -0.036592 0.565168 -0.118668 -0.189469 0.239946
peace 0.226295 0.452348 -0.384009 0.27136 0.197481 -0.752439 -0.535339 -0.633331 0.107208 0.006498 -0.439529 -0.312335 -0.107472 0.190623 0.645197 0.373207 -1.14049 -0.047976 -0.913273 -0.357484 0.002082 -0.727563 0.288294 -0.394204 0.110229 -0.094184 0.352011 0.625222 0.659545 -0.500026 0.11949 0.227147 0.227089 -0.120383 0.534124 0.289899 -0.238229 0.178514 0.426252 -0.500693 -0.163073 -0.135352 -0.101139 0.438958 -0.256625 -0.280069 -0.315267 -0.38887 0.86174 -0.407698 0.090029 0.33432 0.196647 -0.319898 -0.544411 0.327126 0.389299 -0.671174 0.027496 0.007586 0.180388 0.267519 0.124263 -0.01866 -0.393798 -0.278024 -0.985225 0.107931 -0.073348 -0.520705 -0.363912 -0.201377 -0.072237 -0.113569 0.358194 -0.308054 0.025958 0.085899 -0.449301 -0.016777 0.095774 -0.713582 -0.208324 0.307412 -0.549214 -0.266277 0.337228 -0.166576 0.090714 -0.020926 0.211176 0.016478 0.21848 -0.161188 -0.196984 0.209673 -0.701864 0.763391 0.286232 0.355014
science 0.114612 0.095826 -0.446375 0.255996 0.272059 -0.423405 -0.123514 -0.164765 -0.635988 0.685365 -0.266691 -0.18746 -0.201761 -0.062862 -0.135807 -0.175391 -0.137267 -0.064565 0.361634 -0.026207 -0.162496 -0.17344 0.083101 -0.087585 -0.023568 0.655751 0.170253 0.061991 0.289704 0.030827 0.376035 0.031901 -0.630605 -0.243777 -0.09068 1.0794 0.326895 0.301243 -0.173707 -0.015663 0.431102 0.351254 -0.241749 0.057738 -0.370433 -0.15063 0.258438 -0.069273 0.337894 7.72E-4 -0.02405 0.490736 -0.179104 -0.560409 -0.125889 -0.425055 0.513734 -0.691423 0.365936 0.233782 0.158223 0.494804 -0.154283 -0.001288 0.026551 -0.192179 -0.462297 -0.31215 0.13055 -0.451767 0.290761 -0.102957 -0.27153 -0.064123 -0.189905 0.26522 -0.074144 0.34243 0.007509 0.522211 0.199673 0.15782 0.122458 -0.032934 -0.157443 -0.2451 0.138614 0.01071 -0.05406 -0.332372 -0.680691 0.0866 -0.003174 -0.15168 0.262096 -0.045152 -0.092804 0.217918 -0.336258 0.50413
dawn 0.020019 0.274391 -0.087468 0.052007 0.106051 -0.160896 -0.111073 0.143438 -0.179292 0.170213 -0.455271 -0.199955 -0.284715 -0.375559 0.061825 0.02751 -0.854277 -0.572278 -0.280967 0.210513 -0.906294 -0.42424 0.26346 -0.29119 -0.189005 0.109564 0.103007 -0.250622 0.419647 -0.004202 0.481326 -0.313982 -0.48057 0.407079 0.512699 0.183688 -0.572809 0.21654 -0.112191 -0.102771 -0.409215 -0.039886 0.545481 0.1269 0.032295 -0.026816 0.261857 0.577765 0.111296 -0.433935 -0.465231 0.097104 0.384249 0.035669 -0.437013 -0.201094 -0.021419 -0.220733 0.410522 0.009654 0.428694 -0.148178 -0.016022 0.329236 -0.103892 -0.00314 -0.568032 -0.014898 0.236345 -0.533711 -0.070618 4.59E-4 0.065183 0.125554 0.61099 -0.437546 0.104941 0.133244 -0.122375 -0.078326 -0.459097 -0.290082 0.114226 0.288345 -8.51E-4 0.175557 0.108876 0.070967 0.029851 0.284682 -0.119239 0.517621 -0.397556 0.412844 -0.350608 0.49024 0.414975 0.189984 -0.062601 -0.360824
brother 0.49621 0.239898 -0.0698 0.12777 -0.16389 0.047121 -0.536159 0.552267 -0.094271 -0.051253 -0.322843 0.023231 -0.561515 0.117819 0.043694 -0.094123 -0.324105 -0.06751 0.182801 -0.358408 -0.34051 0.435343 -0.234815 -0.3532 0.070838 -0.010999 0.116463 -0.744241 -0.117544 0.234582 -0.048671 0.241146 -0.026097 0.362858 -0.196173 0.253079 -0.072604 -0.27771 0.218933 0.108112 0.201347 0.614601 -0.187211 0.464817 0.19483 0.140955 0.033778 -0.425748 -0.073501 0.289312 -0.212974 -0.409687 -0.399894 -0.013819 -0.50472 0.867137 0.194609 0.114292 -6.11E-4 -0.331579 -0.142607 0.236796 -0.837108 -0.291484 -0.408048 0.250058 -0.677343 -0.419916 0.192282 -0.485594 0.479456 -0.053901 -0.005083 -0.564462 -0.090409 -0.111142 0.562495 -0.112646 -0.291659 0.305464 -0.153004 -0.329816 0.104075 -0.024495 -0.217341 -0.217329 0.243757 -0.547519 -0.309202 0.387389 -0.148537 0.204996 -0.441756 0.096443 -0.248956 0.205245 0.104231 0.076837 0.12805 -0.118642
wine 0.299154 0.401887 0.034848 -0.189933 0.391322 -0.036097 0.374286 -0.152644 -0.371209 0.461609 -0.511661 0.08402 -0.086774 -0.046026 0.23022 0.651806 -0.230337 -0.333461 0.288781 0.044839 -0.672051 -0.645661 -0.402611 -0.340578 0.551215 0.458195 -0.056502 -0.229132 0.158419 0.340601 -0.505191 0.174864 -0.107086 -0.163108 0.583025 0.429754 0.434824 -0.439298 -0.113347 0.592968 -0.128412 -0.137504 0.257882 0.050492 -0.05536 -0.035851 0.396258 -0.118675 0.403916 -0.708095 0.225496 -0.898365 0.149173 0.352647 -0.404142 -0.188803 0.215645 0.186792 0.117837 -0.212634 0.043468 0.62675 0.309187 0.144698 -0.649713 0.166399 -0.385663 0.162865 0.434176 0.160092 0.476727 -0.077914 -0.078048 0.543887 0.028195 -0.480123 0.303212 0.449877 0.180443 0.446221 0.180116 -0.071491 -0.090722 -0.294654 0.158349 -0.067048 0.239073 -0.099725 0.215534 0.024067 0.044562 -0.100698 -0.02696 -0.056765 -0.11914 -0.188178 -0.270805 -0.141357 0.197809 0.323719
object 0.208974 -0.101347 0.162121 0.334043 0.516077 -0.431317 -0.049006 -0.009042 -0.077154 -0.149343 -0.756563 -0.105839 -0.228868 -0.119448 -0.187973 -0.21044 -0.466113 0.122372 -0.009804 0.125691 0.079622 0.139852 -0.213492 -0.559814 -0.082596 0.130595 -0.006815 -0.613933 0.231328 -0.054392 0.067802 -0.323682 -0.134266 -0.212109 0.058213 0.613945 0.109248 -0.081286 -0.266366 0.133577 -0.017973 -0.113441 -0.251091 0.228274 0.072015 0.087923 0.124467 -0.347301 0.05633 -0.13694 0.4423 0.192685 -0.134432 -0.144329 -0.284858 -0.40265 -0.13308 -0.140854 0.381266 -0.148283 -0.550578 0.24372 0.070504 0.39211 -0.456884 -0.104872 -0.274244 -0.202547 0.103281 -0.545245 0.01543 -0.496841 -0.048682 0.321595 0.497244 0.08928 -0.038703 -0.033357 -0.05827 0.308935 0.014534 0.141989 0.130371 0.074582 0.048389 -0.003694 0.443818 0.388367 -0.434677 0.204876 -0.129749 0.136991 -0.063041 0.247835 -0.037613 0.330801 0.054074 -0.112852 -0.082615 0.021554
attitude 0.384812 -0.200511 -0.316135 0.05511 0.594222 -0.276736 -0.124205 0.162785 -0.322498 -0.036335 -0.745359 -0.086003 -0.446703 -0.154761 -0.165028 0.358115 -0.520229 0.340994 0.161425 -0.388523 -0.231666 -0.615811 0.054979 -0.596487 0.253054 -0.579059 -0.257245 -0.058942 0.276919 -0.215914 0.060127 -0.430861 -0.223388 0.137541 0.430592 0.172689 0.246641 -0.059082 0.250682 -0.231163 0.128557 0.776987 -0.458366 0.154083 -0.167501 0.17885 0.010163 -0.604009 0.136277 -0.005919 -0.375085 0.541364 0.074375 -0.209225 0.057318 0.344837 0.160558 0.008025 0.302623 0.196322 -0.299311 0.52294 0.324598 -0.163452 -0.484287 0.144429 -0.020647 -0.355955 -0.294191 -0.129161 -0.038753 -0.441473 -0.192253 0.250408 0.419507 -0.229198 0.034314 0.169466 -0.359717 0.677884 -0.113596 0.010177 -0.239095 0.049079 -0.093458 -0.221357 -0.001932 0.433029 -0.107215 0.330315 -0.302954 -0.343612 -0.288999 -0.3712 -0.293464 0.059614 0.183131 -0.256786 -0.277177 -0.022838
treatment 0.301552 0.198038 -0.443805 0.008053 0.060284 -0.733221 -0.302269 -0.047996 -0.396085 -0.125472 -0.25393 -0.189151 -0.293736 -0.091972 -0.255415 0.085554 -0.613658 0.140369 -0.062622 0.243335 -0.419614 -0.149121 0.540784 0.170822 0.225279 -0.536432 -0.38202 -0.274785 0.451538 -0.088409 -0.158518 0.209336 -0.521836 -0.261901 0.373566 0.389721 0.244652 -0.512642 0.397849 -0.185905 -0.245424 0.524241 0.304039 -0.073264 -0.705786 0.098027 -0.187682 0.329958 -0.150659 0.014982 -0.078043 -0.033363 0.163598 -0.054113 -0.411126 0.275376 -0.135499 -0.068244 0.216912 0.054268 -0.047081 0.257777 -0.415461 -0.234357 -0.632026 0.061503 0.225591 0.132173 0.556546 -0.009196 0.060629 -0.071809 -0.571472 -0.310537 0.2492 -0.184527 -0.417552 0.119998 0.19289 0.238619 0.458244 -0.544239 0.578958 0.304225 -0.36681 -0.097362 -0.302326 -0.119489 -0.351931 -0.207481 -0.027927 -0.242078 0.40347 -0.45217 0.029866 -0.119613 0.120889 -0.300748 0.085309 0.373304
flight 0.027044 0.46689 0.164731 -0.374331 -0.179237 -0.020044 0.227909 -0.350794 -0.177346 0.703335 -0.520739 0.042406 0.395861 -0.705326 -0.155424 -0.131865 -0.540464 -0.3975 0.163102 -0.565647 -0.392001 -0.011202 -0.14291 -0.39318 0.587803 0.392185 -0.335739 -0.295614 0.17855 -0.164348 0.113718 -0.501873 -0.463837 -0.20038 -0.28762 0.567038 0.163732 0.020974 -0.276429 0.291538 -0.182868 0.136127 0.138873 0.700092 -0.232784 0.750142 -0.064178 0.171954 -0.438093 0.181884 -0.134706 0.314114 -0.067699 0.133563 -0.441558 -0.53881 -0.254726 -0.482508 0.416364 -0.274005 -0.381075 -0.03217 -0.161792 -0.435353 -0.394088 0.12206 0.064062 -0.149484 0.725983 -0.698295 0.192977 -0.222787 -0.186092 0.145961 0.171839 -0.201174 0.097592 -0.185754 0.066219 -0.280868 0.044391 -0.460507 -0.299055 0.141714 0.178104 0.00536 0.086466 0.048947 -0.497678 0.253007 -0.092011 0.584946 0.010333 -0.707823 -0.372392 0.211156 0.50179 0.15442 0.230947 0.252157
forest -0.142267 0.69789 0.176225 0.369126 0.355347 -0.548707 -0.06206 -0.277356 0.282853 0.265094 -0.029075 -0.418467 -0.043079 -0.346926 0.177757 -0.048969 -0.564051 -0.668712 -0.191187 0.111438 -0.071039 -0.675934 -0.375676 0.127632 0.038656 -0.134458 -0.011346 -0.431371 0.314059 0.269721 0.178828 0.351838 -0.439303 -0.146372 0.157974 0.441363 -0.479348 -0.029543 0.025203 0.388777 0.074012 0.183861 -0.241731 -0.347078 0.204233 0.350364 1.06283 -0.2454 0.511854 -0.52761 0.230301 0.019263 0.322988 -0.183905 -0.82755 -0.002753 0.028522 -0.271133 0.466422 -0.367791 -0.03921 0.350916 0.109704 0.222551 -0.296752 -0.077847 -0.18667 0.250497 0.056147 -0.115359 0.037959 -0.163891 0.277802 0.018891 0.617812 -0.003537 -0.079249 0.838741 0.18142 -0.286468 -0.151803 -0.330611 -0.140079 -0.546764 0.297541 -0.290187 -0.074432 -0.134473 0.353042 0.164985 -0.112671 -0.00356 0.033483 0.182923 -0.145642 0.843185 -0.121925 -0.084072 0.03849 0.066299
abuse 0.516617 0.254645 -0.224521 0.250299 -0.056156 -0.318461 -0.544501 -0.181778 -0.582864 -0.005749 -0.093311 -0.046253 -0.760979 -0.571574 -0.330838 -0.199359 -0.155467 0.4411 0.263234 -0.159256 0.177249 -0.244311 0.435133 -0.261155 -0.075836 -0.439202 -0.468735 -0.81784 0.152855 -0.052122 0.533061 0.342486 -0.136171 -0.113953 0.52665 0.446482 -0.294285 0.24394 -0.19152 0.045169 -0.314652 0.417093 0.019314 0.093007 -0.588336 -0.531771 0.102891 0.644997 -0.457483 -0.394286 -0.116456 0.295123 0.465824 0.174657 -0.321633 0.29975 0.127906 0.211799 0.209743 0.420751 -0.298957 0.219075 -0.081082 -0.216591 -0.559602 -0.080522 -0.308859 -0.154218 -0.08248 -0.100695 0.293219 -0.456617 -0.115666 -0.209468 0.511067 -0.520816 0.392256 0.451931 0.138777 0.18389 0.333314 0.074324 -0.125004 0.067872 -0.180882 -0.549906 0.267538 -0.109139 -0.780457 0.167307 0.11206 -0.030392 0.206716 -0.048369 0.15614 -0.128063 -0.282315 -0.109638 0.127124 0.901717
criterion 0.330865 -0.110077 -0.368812 0.055601 0.48191 -0.025489 0.151944 -0.437257 -0.262018 0.043942 -0.415818 0.256095 0.289779 -0.274515 -0.587235 0.138724 -0.896646 0.290225 0.227335 0.41625 -0.043246 0.190552 0.068294 0.088331 0.38363 -0.34517 0.413261 -0.364329 0.804816 -0.217299 0.160304 -0.08968 -0.206383 -0.445122 0.297998 0.402344 0.743409 -0.13543 0.393263 0.038677 0.361471 0.43303 -0.797391 0.146731 -0.197051 -0.388048 0.006126 -0.412218 0.013176 -0.470747 0.75344 -0.119255 -0.240664 -0.901968 0.274798 0.110063 -0.040468 -0.686031 0.004322 -0.315069 -0.051664 0.096037 -0.355136 0.19891 -0.455889 -0.141331 -0.207968 -0.200728 0.299175 -0.287893 0.050108 -0.247936 0.182971 0.0734 0.21648 0.051136 -0.24033 0.00623 0.127645 0.581061 0.33815 -0.147104 -0.0762 0.504092 -0.378034 -0.237025 -0.327642 0.355485 0.13721 0.277323 -0.01342 0.161038 -0.513854 -0.10322 -0.004969 -0.14745 0.031291 -0.347188 0.030408 0.673017
sea 0.068159 0.513618 -0.0772 0.175514 0.291575 -0.128982 0.160965 -0.080404 -0.056369 0.017443 -0.392414 -0.070264 0.184384 -0.132402 -0.20115 -6.79E-4 -0.780129 -0.596517 -0.008833 -0.132767 -0.145135 -1.156646 -0.180455 -8.76E-4 -0.015549 0.348769 -0.185887 -0.107545 0.403968 0.239273 0.50828 0.167408 -0.180862 -0.394421 -0.015974 0.475678 -0.307385 0.198728 -0.393643 0.24884 0.118527 0.082786 -0.007907 0.397061 0.147089 0.366706 0.646831 0.232382 0.440102 -0.731497 0.129185 0.022705 0.250598 0.397184 -0.502653 -0.469809 0.270915 -0.378405 0.803942 -0.295999 -0.366053 0.525791 0.10967 0.084507 -0.736693 -0.329462 0.044182 0.00345 0.313926 -0.169797 0.195692 -0.218323 0.130234 -0.026857 0.378055 -0.091969 -0.179578 0.109273 0.169988 -0.067601 -0.089691 -0.515709 0.065546 -0.376689 0.348307 -0.045355 0.268829 0.354679 0.225643 0.044451 -0.054843 0.267261 0.367185 0.088522 0.132033 0.758388 0.201991 0.260271 -0.129497 -0.030608
dollar 0.337241 0.154054 -0.10191 -0.487098 -0.341747 -0.350327 0.200656 -0.181277 0.24641 0.330397 -0.004595 0.280762 0.266998 0.063188 0.122062 -0.233698 -0.710374 -0.008676 0.924684 -0.664779 -0.492461 -0.665606 -0.183127 -0.236342 0.007521 -0.489609 0.110406 0.043305 0.579912 0.466354 -0.306876 -0.114858 0.478168 -0.179135 0.575309 0.781375 -0.650887 0.582459 0.162188 -0.085957 -0.781051 0.608621 -0.186777 0.10492 0.08175 -0.127437 -0.474477 0.085252 -0.306933 -0.281783 0.221474 -0.392426 0.122542 0.568745 -0.122184 0.334753 0.470529 -0.528882 0.867459 0.049469 -0.263206 0.758113 0.108353 0.649596 0.153436 0.22148 -0.138743 0.057655 0.352309 -0.171932 0.313492 0.564225 0.150229 0.621881 0.27827 0.395958 -0.149359 0.079866 -0.221136 0.25439 0.587604 -0.510875 0.171272 -0.186296 0.264371 0.298275 -0.438692 0.50601 -0.092792 0.585578 0.755495 0.100427 0.321451 0.082578 -0.014321 0.666408 0.004156 -0.117395 0.184858 0.396158
example 0.275744 0.007217 -0.313371 0.055876 0.137257 -0.34814 -0.087058 -0.065633 -0.298522 0.00413 -0.380463 -0.252333 0.088645 0.02102 0.003041 0.09885 -0.588678 0.035676 0.104545 0.161614 -0.182694 0.215982 0.297054 0.081378 0.411129 -0.217839 0.295343 -0.625228 0.402409 0.080803 0.030128 -0.432339 0.038374 -0.044157 0.477646 0.418788 0.426628 -0.049983 0.285039 -0.104065 0.208486 0.055835 -0.027591 0.018468 -0.054996 0.028338 -0.049807 -0.391236 -0.159038 0.014728 0.058425 -0.163667 0.246295 -0.33616 0.177865 0.091311 0.143378 -0.355819 0.271859 -0.531232 0.070383 0.32553 0.00495 0.226283 -0.212678 0.371511 -0.179535 -0.198644 0.341562 -0.003121 0.423651 -0.101565 -0.416747 0.394385 0.39469 0.006734 -0.17501 0.434681 -0.0436 -0.382011 0.04423 -0.033329 -0.366314 0.206803 0.197171 -0.060719 0.135084 -0.120281 -0.200267 -0.321333 -0.174853 -0.220981 -0.403124 -0.030575 -0.153639 -0.407544 -0.069434 -0.121266 -0.068763 -0.112944
journal 0.067928 0.038671 -0.796764 -0.051743 0.270012 -0.788225 -0.067709 -0.317614 -0.469193 0.559304 0.011573 0.24726 -0.144183 -0.966084 -0.342166 0.05042 -0.539531 0.574184 -0.464887 -0.30847 -0.056831 0.18967 -0.136847 0.090065 -0.047936 0.182359 -0.015062 -0.278349 -0.186672 0.203534 0.698675 0.564559 -0.211462 0.001351 -0.46816 1.678201 0.238588 -0.479509 -0.132009 -0.673523 0.376859 0.626187 0.383572 0.358014 -0.687914 0.0069 0.110239 -0.339361 -0.049036 0.671563 -0.654908 -0.227978 0.18747 -0.050507 -0.455651 -0.160659 0.343457 -0.353738 0.217346 0.878769 -0.155835 0.120534 -0.042848 0.421717 -0.288402 0.756273 0.140852 -0.008217 1.032235 0.262939 1.15588 -0.193903 -0.022923 0.810544 -0.308854 0.168341 -0.529887 0.795209 -0.211841 0.53852 0.2479 -0.087665 -0.25211 -0.135405 -0.957423 0.015247 0.149891 0.102131 0.472715 0.399989 -0.454153 0.323348 0.074706 1.252944 1.008203 -0.295422 -0.493699 0.591759 -0.047233 -0.052953
laundering 0.702635 0.308557 0.209933 0.135848 -0.981833 -0.432453 -0.473608 -0.572671 -0.380253 0.584628 0.325586 0.326604 -0.386149 -0.564537 0.416758 -0.404093 -1.217911 0.412163 0.752493 0.384 -0.018246 -0.056386 -0.636702 -0.198787 -0.100802 -0.221288 -0.628729 -0.303185 -0.206641 0.765293 0.515629 0.388841 -0.021967 0.116232 0.675196 0.660633 -0.393034 1.162099 -0.28737 -0.142526 -1.214532 -0.389859 0.010761 -0.124334 -0.710494 -0.770504 -0.181448 0.090575 -0.383912 0.482668 0.413265 -0.360315 0.266284 -0.124601 -0.50936 -0.113595 0.388076 0.098089 0.138688 -0.175936 -0.311433 0.215911 -0.666221 -0.316584 -0.724677 -0.172185 -0.422829 0.050089 0.062918 0.340076 0.691229 0.082527 -0.431927 -0.121076 0.477879 -0.81518 0.526581 0.515571 -0.376412 -0.037134 0.279976 -0.364673 -0.338544 -0.435762 -0.76999 0.021072 0.062735 -0.365451 -0.170759 -0.154558 0.631909 0.651896 -0.282059 -0.233172 -0.296881 -0.061327 -0.526581 -0.256997 0.28083 0.74141
hotel -0.162333 0.323722 0.189974 -0.325477 0.182645 -0.349638 0.54638 0.044252 0.013042 0.62377 0.073178 0.035554 0.006678 -0.329079 -0.070127 -0.011385 -0.756579 -0.648351 -0.271722 -0.130498 -0.575285 -0.317619 -0.173549 -0.150708 0.214996 0.055312 0.151916 -0.155253 0.201518 0.091228 -0.052518 -0.146007 -0.638738 -0.12442 0.062459 0.051302 0.223682 -0.210189 0.014718 0.323355 -0.350791 -0.031443 0.207699 0.742113 -0.297729 0.142924 0.160167 0.231808 0.216273 -0.281557 0.265246 -0.828147 -0.169133 0.196172 -0.143879 0.185415 0.198423 0.296546 0.359393 -0.108725 -0.570916 -0.076201 0.29049 -0.483599 -0.21621 0.394577 -0.283127 -0.597555 0.36639 -0.61288 0.254293 -0.388292 0.188476 0.287242 0.316863 -0.626426 0.25297 0.21084 0.057495 -0.224956 0.289241 -0.129228 0.256193 -0.052681 0.204817 0.301443 0.060418 -0.263425 -0.193065 0.147241 0.02809 -0.135556 -0.313111 -0.254763 -0.504404 0.192462 -0.062663 -0.134567 0.448821 0.020244
term 0.691952 0.292998 0.113241 0.271103 0.044209 -0.254164 -0.203918 -0.489267 -0.048038 -0.26299 -0.126189 -0.157065 -0.402383 0.067479 -0.015779 0.490515 -0.763402 0.108006 0.895795 0.384834 -0.010157 -0.380888 -0.001059 0.394363 0.44428 -0.387617 -0.142818 0.123289 0.534817 -0.293042 0.070747 -0.611906 0.232833 -0.549182 0.310632 0.22277 0.025654 -0.174744 0.140285 -0.345424 -0.052808 0.00807 0.07182 0.50144 -0.241192 -0.192062 -0.165362 -0.043096 -0.164527 -0.141997 0.015627 -0.18869 -0.108048 -0.166581 -0.305121 0.834199 -0.070917 -0.440659 0.267378 0.1301 -0.13472 -0.46182 -0.261115 0.094334 -0.512291 -0.197041 -0.212995 -0.314335 0.398738 -0.449825 0.242903 0.263244 -0.087852 0.321014 0.029714 0.328507 -0.003148 0.053521 -0.490739 0.021966 0.034357 -0.297048 0.047837 0.497077 -0.353392 -0.400517 0.192954 -0.217275 0.69524 0.290159 0.049675 0.263078 -0.252817 0.265746 -0.305383 -0.23994 0.400291 -0.211725 0.133305 0.209979
listing 0.513263 -0.123715 -0.057609 0.011305 -0.052577 -0.658344 0.478731 -0.496185 -0.094717 0.430952 0.021219 -0.087759 0.350469 -0.457284 -0.095407 0.077378 -0.589198 -0.419508 -0.064367 -0.022151 -0.192543 0.221247 -0.173875 -0.223915 0.284348 0.160631 0.126265 0.102634 0.453064 0.098422 -0.10046 -0.065376 -0.108902 -0.494207 0.291178 0.41294 0.127704 -0.334865 0.207242 0.110125 -0.233316 0.083785 -0.013192 0.309491 0.188788 -0.137951 -0.16675 0.111488 -0.091437 0.277727 0.120408 -0.217612 0.343997 -0.204905 -0.414256 0.148161 0.064964 -0.450405 0.279893 0.340066 -0.220065 -0.465774 -0.028559 0.471936 -0.276082 -0.11596 -0.521944 -0.109651 0.291888 -0.183692 0.367544 0.1474 0.080973 0.133432 0.01361 -0.398444 -0.073825 0.429209 0.273619 -0.204988 0.471557 -0.231429 -0.673374 0.021442 0.274916 0.353123 -0.162618 0.668584 -0.023003 -0.13448 0.041099 0.027543 -0.220436 0.032817 -0.193104 -0.0933 -0.162614 -0.232686 0.462978 0.032085
chemistry 0.115213 0.030551 -0.694327 0.590051 0.40686 -0.321136 0.036913 0.090529 -0.687621 0.290228 -0.527167 -0.166384 -0.286901 0.094239 0.079886 0.185357 1.93E-4 0.108092 0.244667 -0.031377 -0.293286 -0.335287 0.008329 -0.429603 0.070421 0.062163 0.201437 -0.209643 0.457415 -0.30365 0.232696 0.37626 -0.932584 -0.143298 -0.121586 0.987318 0.409724 0.094362 -0.322407 -0.202401 0.390259 0.312311 -0.046147 0.103809 -0.133165 -0.188392 0.124492 -0.593022 0.442728 0.268957 -0.059991 0.293296 -0.450673 0.072865 -0.37921 -0.343285 0.151549 -0.168553 0.070274 -0.098389 0.151514 0.783108 -0.363259 0.253501 -0.049936 -0.191755 -0.220358 -0.211164 0.541381 -0.210971 -0.098023 -0.085796 -0.556842 -0.243734 -0.313057 0.086396 0.23095 0.314724 0.367655 0.886474 0.347175 0.037811 0.066955 -0.051548 -0.468134 -0.274603 0.347126 -0.227558 0.353765 -0.215422 -0.312688 0.010214 -0.246736 -0.334796 0.013474 -0.149259 0.056186 0.590902 0.043054 0.406088
seafood 0.236403 0.389199 -0.255826 -0.383842 -0.162563 -0.0995 0.216981 -0.224769 -0.556746 0.442041 -0.536386 0.358886 0.431531 -0.230119 -0.065934 0.466272 -0.456433 -0.061319 0.502699 0.134773 -0.896101 -0.85278 -0.047385 -0.045106 0.555375 0.412118 -0.139847 -0.029536 0.204013 0.365448 -0.53613 0.260661 -0.667457 0.156042 0.269897 0.410675 0.199153 -0.162049 -0.095758 0.416338 0.083999 0.096659 0.508406 -0.139714 0.041783 0.13189 0.339694 -0.191637 0.381344 -0.844376 0.42399 -0.86667 0.424753 0.321915 -0.270456 -0.139254 0.524529 -0.044084 0.168414 -0.254463 -0.348384 0.843027 0.429628 0.193327 -0.661229 0.015781 -0.219802 0.239964 0.234646 0.067985 0.348517 -0.292132 0.131953 0.45987 0.142307 -0.258433 0.19815 0.545232 0.324279 0.128882 0.507974 -0.471824 -0.008084 -0.376598 0.460869 0.034454 0.142938 0.115432 0.066248 -0.437617 -0.286627 -0.242 -0.096239 -0.127682 0.11121 0.077954 -0.217474 -0.015025 0.124286 0.189723
CD 0.981586 0.355407 -0.254524 -0.266534 0.194824 -0.443956 0.233415 0.375204 -0.002524 -0.089672 -0.006264 0.419425 -0.156355 -0.016463 0.435674 0.422831 -0.280547 -0.153487 0.21377 0.192889 -0.242024 0.052196 -0.137227 -0.510718 -0.059889 -0.263002 0.082422 -0.71965 0.135338 0.541293 -0.28715 0.577225 0.343917 0.150124 0.098416 0.745113 0.647009 -0.180987 0.303923 0.459658 -0.586887 -0.014398 0.280142 0.74161 -0.20107 -0.38025 0.206756 0.159387 -0.11991 -0.015742 0.142159 0.094186 -0.680283 0.372096 -0.391604 0.453021 0.052802 -0.532191 0.176316 0.372494 0.160943 0.275925 0.163757 0.726104 0.439235 0.218636 -0.173829 -0.15362 0.500557 0.116425 0.151693 -0.179769 0.406549 0.412207 -0.438619 -0.351612 0.718913 0.354498 -0.115058 0.022915 -0.181966 -0.40643 -0.300137 -0.051684 0.239042 0.223263 -0.191786 0.247387 0.13747 0.044171 0.421172 -0.219056 -0.217614 0.065136 -0.177157 0.335429 0.115115 0.184389 0.017948 0.492495
mind 0.639121 -0.173245 -0.094306 0.099667 0.242695 -0.479365 -0.225512 -0.009774 -0.373284 0.076799 -0.35638 0.00947 -0.477821 0.080049 -0.101989 0.304861 -0.828192 0.096593 0.12112 -0.459987 -0.04947 -0.20786 -0.066186 -0.383342 -0.002847 -0.267828 0.071045 -0.255392 0.075101 -0.337254 0.173258 0.055994 -0.191976 -0.043404 0.0222 0.481757 0.165783 -0.058963 0.214093 -0.105073 -0.03199 0.209732 -0.192968 0.062135 0.454415 -0.055421 0.492484 -0.608641 0.347189 -0.089942 0.243282 0.250139 -0.280823 -0.179515 -0.241297 0.219181 0.278112 -0.2101 0.034305 -0.163237 -0.028626 -0.025804 0.057307 -0.06096 -0.200653 0.058013 -0.693038 0.035821 0.045793 -0.463703 0.167124 0.041594 -0.20111 0.433318 0.056167 -0.477271 -0.103654 0.081776 -0.138216 0.339936 -0.068096 -0.087333 -0.008682 0.075269 -0.196227 0.266987 0.317457 0.323175 -0.115331 0.261454 -0.031635 -0.482086 -0.489071 0.06642 -0.254191 0.350433 0.604586 -0.081619 -0.046599 -0.179702
sex 0.117493 -0.292486 -0.154129 -0.218486 0.149468 -0.278674 -0.224712 -0.233322 -0.485824 0.059169 0.152931 -0.050916 -0.390315 -0.398876 -0.152795 0.13197 -0.357802 0.463046 0.435584 -0.198049 0.0944 -0.23545 0.034928 -0.596801 0.525976 -0.507077 -0.340424 -0.748281 -0.14048 -0.269643 0.338411 0.528401 -0.313882 0.267516 1.031334 0.12128 0.347716 0.200179 0.161017 0.086526 -0.191843 0.095344 0.080382 0.327821 0.160294 -0.213423 -0.150099 0.737857 -0.160567 -0.327972 -0.051013 0.03381 -0.286453 -0.079527 -0.499901 0.099473 0.18018 -0.065661 0.56706 0.23876 -0.212368 0.155316 0.081245 -0.106892 -0.803237 -0.20059 -0.4863 -0.493227 0.021267 -0.373253 0.308366 -0.415604 -0.700363 -0.088961 0.573627 -0.509311 0.240048 0.406738 0.303044 0.237912 0.462045 -0.078622 -0.14358 0.006476 -0.006745 -0.309624 0.034007 -0.043822 -0.191512 0.173041 -0.1468 0.004796 0.274675 0.1763 -0.185668 0.231483 -0.419502 0.053556 -0.008176 0.682369
food 0.560354 0.665474 -0.339355 -0.371567 -0.050703 0.02887 0.216112 0.039728 -0.290092 0.239367 0.180973 0.299715 0.442079 0.041064 -0.057661 0.204314 -0.526646 -0.107938 0.133138 -0.042187 -0.823049 -0.50056 -0.029138 -0.167442 0.327021 0.130314 -0.207109 -0.303525 0.527237 0.22333 -0.255107 0.058942 -0.31816 0.099084 0.122256 0.634203 0.352066 0.171531 -0.281135 0.17543 0.144797 0.316391 -0.09146 -0.058933 -0.224528 0.248646 0.465952 0.053802 0.464327 -0.70012 0.411363 -0.373558 0.253451 -0.019505 -0.212709 0.149669 0.499383 -0.293404 0.266635 0.109984 -0.231136 0.63188 0.398631 0.059704 -0.41569 0.154488 -0.347385 0.327579 -0.110963 0.304986 -0.026475 0.107611 -0.064844 0.018711 0.249885 -0.660505 0.117443 0.673592 0.465683 0.205586 0.358436 -0.289616 0.263527 -0.335209 0.146899 -0.20064 0.292066 -0.224708 -0.287811 -0.11688 -0.083254 -0.015991 0.132092 -0.298876 0.028902 -0.41644 0.109789 0.218208 0.113332 0.608751
precedent 0.058381 0.143932 -0.090191 0.560633 0.139777 -0.745458 0.005403 -0.15009 0.324081 0.161387 -0.566931 0.09264 0.229758 -0.404828 -0.076706 0.181366 -0.914974 0.362075 0.385955 0.574423 -0.088751 0.030476 -0.306889 0.033681 -0.301356 -0.387604 0.258957 -0.529791 0.212736 -0.422289 -0.043321 -0.108609 -0.178359 -0.540511 0.491198 0.850055 0.234462 0.16289 0.179302 -0.283335 -0.018934 0.004617 -0.868034 0.035582 -0.104433 -0.524208 -0.008304 -0.531511 0.319349 -0.429538 0.027811 0.407698 0.420715 -0.626044 -0.360851 0.690726 0.181719 -0.568395 -0.049418 -0.221556 0.0371 0.281224 0.394654 -0.098862 -0.429861 0.158161 -0.187591 0.09363 0.036781 -0.698618 0.608498 -0.315169 -0.25284 0.07998 0.007474 -0.236576 -0.37641 -0.049238 -0.64143 -0.035524 -0.263528 -0.364216 -0.555144 0.352131 0.407415 0.090314 0.286799 0.353878 -0.139389 -0.172372 0.03255 -0.024689 -0.131399 -0.463076 -0.302588 -0.304819 -0.270648 -0.077755 0.164837 -0.094375
series -0.201715 0.186384 -0.631257 -0.577986 -0.271727 -0.086246 -0.349521 0.585816 0.111932 0.339804 3.9E-5 0.087816 -0.370144 -0.316641 0.232885 -0.092064 -0.24954 0.079046 -0.217588 0.055572 0.149644 -0.443833 -0.273166 -0.117013 -0.122167 -0.213528 0.307886 0.057608 0.266921 0.056771 0.688223 0.128701 -0.433146 -0.040121 0.222833 0.759933 0.228644 0.053532 -0.181962 0.114721 -0.13824 -0.093223 0.565854 0.518995 0.224853 -0.322228 0.298752 -0.286485 -0.186465 0.10473 0.04504 0.467189 -0.137776 -0.235035 -0.298963 0.536844 0.262062 -0.202445 0.534181 0.394922 0.05815 -0.327091 -0.171403 0.218273 -0.192188 -0.058525 0.273392 -0.253817 0.208604 -0.382126 0.066023 -0.19989 -0.189548 0.235512 0.302811 -0.224658 -0.128429 0.232934 -0.419644 0.006168 0.128731 -0.032445 -0.461222 0.835036 0.503712 -0.149766 -0.135397 -0.08419 -0.08353 -0.191556 0.226163 -0.096341 -0.171108 -0.18371 0.147189 -0.348695 0.155348 0.070864 0.121175 -0.063079
kilometer -0.066859 0.688431 0.36346 0.654221 0.678249 -0.117844 3.98E-4 -0.386187 -0.090773 0.925549 -0.489839 -0.016458 0.022619 -0.357048 0.71081 -0.666638 -0.313035 -0.521761 0.137797 -0.088653 0.532105 0.116445 0.070376 -0.181544 0.613292 -0.150918 -0.656895 -0.212131 0.622315 -0.595014 0.293126 0.024507 -0.300009 0.110421 0.123216 0.455799 0.081064 0.0783 0.186215 0.471051 -0.061469 -0.362058 0.097474 0.26662 0.061895 0.077074 0.157803 0.040873 0.041784 -0.595514 0.262449 -0.094548 0.372585 -0.315952 0.039214 -0.021218 0.208635 -0.125088 0.681781 -0.580665 0.006892 0.107325 -0.496551 0.03821 -0.795151 0.286981 0.299471 -0.201238 0.681937 -0.676487 -0.705282 0.338961 0.694588 -0.243511 0.823751 0.439281 -0.256322 0.889737 0.309797 0.232707 -0.484588 -0.813644 0.975747 -0.228802 0.189414 0.210185 -0.557325 0.184556 0.921992 0.331741 0.611299 0.558807 0.468638 -0.276865 0.219303 0.809853 -0.026212 -0.656485 -0.058583 -0.386993
grocery 0.571763 0.499486 -0.023786 -0.261821 -0.062813 -0.228752 0.062652 0.189636 -0.125889 0.575667 0.088254 0.560872 0.045502 -0.037941 0.198206 0.131671 -0.314642 -0.339977 0.351937 -0.079225 -0.939599 -0.241962 -0.330822 -0.212225 0.249021 0.139877 -0.349576 -0.211919 0.422698 0.16295 -0.319171 -0.060356 -0.324293 0.299616 -0.035207 0.162614 0.556816 -0.332873 -0.448611 0.060828 -0.463228 0.110471 0.015073 -0.045507 -0.092261 0.189803 0.137898 0.478678 0.391035 -0.371778 0.397928 -0.740774 0.082736 -0.16053 0.15953 0.394639 -0.007172 0.428969 0.511445 0.201406 -0.527003 0.438693 0.579562 -0.032422 -0.166698 0.612109 -0.981332 0.351184 0.68385 -0.106333 0.043694 -0.155559 0.368312 0.434358 0.161185 -0.469198 0.490918 0.667218 0.459585 -0.248883 0.155714 -0.126957 0.124938 -0.542177 0.214248 -0.129746 -0.064844 0.116798 0.132205 0.217442 0.02184 -0.215602 -0.511184 0.413389 -0.515285 -0.481587 -0.233947 0.379402 0.182476 0.671067
wizard -0.020178 -0.037236 -0.229414 -0.187029 -0.27102 -0.375137 -0.318116 0.450872 -0.402008 0.275147 -0.164001 0.022667 -0.874264 0.118754 0.240231 -0.022286 0.003959 -0.282962 0.570254 -0.20701 -0.249349 0.023777 -0.055509 -0.44451 0.627458 -0.534405 -0.004945 -0.451009 -0.179714 0.500965 0.260972 0.336695 0.167967 0.528681 -0.080595 0.720667 0.257329 0.250028 -0.309833 0.547283 0.433448 -0.345475 -0.107465 0.532795 0.057297 -0.111466 0.65633 -0.370806 0.075848 -0.137589 0.006462 0.021182 -0.398228 0.246961 -0.454521 0.232309 0.201021 -0.228816 0.261573 0.243115 0.43556 -0.120475 -0.134123 0.329712 -0.112563 0.071854 -0.260972 -0.624531 0.196913 -0.438327 0.20267 -0.07577 -0.027967 -0.169678 -0.179908 -0.011959 0.445905 0.357931 -0.962398 0.485904 0.142043 -0.356136 0.149353 0.948786 0.348961 -0.211621 0.415378 0.211495 -0.220539 0.338606 -0.177288 -0.448963 -0.083078 0.185804 0.077705 0.219389 -0.46239 -0.373753 -0.329197 0.402726
information 0.869316 0.334671 -0.599199 0.244206 0.375262 -1.033619 -0.072556 -0.265381 -0.203738 -0.084834 0.172158 -0.139491 0.347814 -0.3499 -0.110204 -0.650336 -0.730825 0.670612 0.64895 -0.19497 -0.591329 -0.01443 0.415614 -0.345661 0.202866 0.071886 0.019148 -0.193586 0.276524 -0.015298 0.366861 -0.005733 -0.118325 0.00819 -0.022031 -0.113779 0.43923 -0.177255 0.243436 0.407632 -0.082269 -0.108486 0.172066 -0.118732 -0.352687 -0.168636 -0.118965 -0.190392 -0.14372 0.429552 0.19375 0.424811 0.344646 -0.422227 -0.723938 -0.13667 -0.012539 0.067182 -0.443587 0.404727 -0.038892 0.25136 -0.062263 0.118668 -0.28275 0.092109 -0.630728 0.065651 0.179829 -0.341483 0.106126 -0.32569 0.255014 0.23142 0.152131 -0.325325 0.050082 0.640887 0.472934 -0.031771 0.231256 -0.273198 0.12416 -0.286453 -0.282332 0.551206 0.217528 0.140273 -0.138795 -0.078183 -8.89E-4 -0.097362 -0.492336 -0.534098 0.362168 -0.01027 -0.032331 -0.36947 -0.273866 0.12758
Israel 0.428248 0.496257 -0.102596 -0.113391 0.370412 -0.776607 -0.518436 -0.201725 0.009516 0.034953 0.123503 -0.114565 -0.076499 -0.247991 -0.119428 0.079229 -0.182983 0.135246 -0.532312 -0.217986 0.356311 -0.294838 0.13584 -0.631141 -0.096684 0.289892 0.211094 0.299502 0.544051 0.044717 -0.113832 0.379468 0.152754 -0.177297 0.263326 0.315045 -0.004439 -0.207278 0.371731 -0.282618 -0.479982 0.520819 0.232802 0.823219 -0.530395 -0.222398 -0.226211 -0.126845 0.284334 -0.7647 -0.067868 0.239779 0.482054 -0.516555 0.033996 0.066683 0.583601 -0.406039 0.492321 -0.113334 -0.247676 0.340527 -0.121108 -0.014698 -0.730131 0.069087 -0.737794 0.670114 -0.06568 -0.807749 -0.410646 -0.394758 0.041018 0.291789 0.667097 0.500925 -0.37285 -0.195629 -0.578851 -0.467458 0.312417 -0.152975 -0.005427 0.394073 -0.03745 -0.274811 0.533526 -0.694853 -0.321564 0.328009 0.527761 -9.5E-4 0.24111 -0.09749 -0.186794 -0.219012 0.122522 0.339252 -0.340015 0.017674
brandy 0.729192 0.328843 -0.168391 -0.029287 0.257021 -0.21385 0.313938 0.242816 -0.399222 0.077082 -0.329082 0.214539 -0.530015 0.250039 0.200501 0.667902 -0.369407 -0.318352 0.295697 0.31528 -0.755318 -0.643222 -0.148038 -0.66681 0.036662 -0.11872 -0.085026 -0.355687 0.040575 0.559767 -0.41458 0.228907 -0.23981 0.261848 0.045473 0.484821 0.248945 -0.275986 -0.084347 0.662926 -0.022375 -0.392506 0.460572 -0.281661 -0.104467 -0.061569 0.528921 -0.412941 0.063335 -1.056883 0.176229 -0.793237 0.052318 0.814475 -0.355994 -0.058463 0.139713 0.093821 -0.047504 -0.504382 0.126009 0.666046 -0.222893 0.123416 -0.771291 -0.021776 -0.127843 0.344046 0.60287 -0.036897 0.602508 -0.322161 -0.027427 0.37352 0.034111 -0.190222 0.096674 0.514686 0.375339 0.826315 -0.512749 -0.655379 -0.087477 0.191198 -0.129576 -0.186237 0.554602 0.103647 0.375742 0.406885 -0.055744 -0.045751 0.489207 -0.140332 -0.362197 0.196072 -0.134977 0.030086 0.325746 0.302816
interview 0.268289 0.205687 0.166735 -0.375191 0.385393 -0.928086 0.087262 0.191765 -0.251136 0.147386 -0.218091 -0.84702 0.289439 -0.863512 0.030515 0.014439 -0.050099 -0.05199 -0.425011 -0.807779 -0.120927 -0.104467 -0.006353 -0.144902 0.188143 -0.44122 0.218791 -0.080916 -0.030729 -0.217564 0.668849 -0.441217 -0.293506 0.116769 0.160337 0.370192 0.347598 -0.357786 0.767727 -0.38572 -0.632257 -0.140401 0.417287 0.533286 -0.122476 0.11208 0.154492 -0.432053 -0.045975 0.139865 -0.371985 0.023735 0.069639 -0.140381 -0.821194 0.036854 -0.256905 0.024036 0.092151 0.493407 0.086314 0.386692 -0.585531 0.010174 -0.404205 0.053463 -0.409017 -0.737257 0.479857 -0.00606 0.607359 -0.336701 -0.231742 0.37839 -0.020592 -0.102768 0.063606 0.070256 -0.766933 0.160981 -0.268759 -0.087475 -0.047634 0.37219 -0.524493 0.39646 0.209778 -0.278177 -0.148811 0.230866 -0.146408 -0.29775 -0.093411 0.343259 0.217468 -0.616594 0.365292 0.159881 0.78237 -0.021968
prominence -0.40619 0.260062 -0.324858 0.058007 0.897622 -0.624694 -0.252989 0.536394 -0.150062 -0.335105 -0.070608 -0.586988 -0.431089 -0.022841 -0.241688 0.582877 -0.330661 -0.522566 0.920483 -0.49618 -0.507753 -0.158954 0.036145 -0.318901 -0.353251 0.187383 -0.275656 -0.330686 0.421382 -0.101867 0.283396 -0.502772 0.058521 -0.098195 0.136983 0.341184 -5.94E-4 -0.104605 0.437587 0.083371 0.499965 0.602839 0.106839 0.484313 0.045134 -0.520136 -0.140199 0.044917 0.38377 0.636566 0.519986 0.26687 0.541716 -0.080734 -0.198054 -0.11049 0.179963 -0.141976 0.58776 0.365618 0.342447 0.265696 -0.081405 0.550966 -0.170159 0.375489 -0.387195 0.002959 -0.400034 -0.321744 0.236021 -0.338452 -0.49812 -0.010076 -0.176745 -0.335529 0.204724 -0.056673 -0.107197 0.477429 0.331861 -0.348327 -0.257513 -0.030081 0.107725 0.091145 0.212427 0.113233 -0.437449 0.393057 0.337491 0.021841 -0.555216 0.065794 0.208575 0.094955 -0.184718 0.10759 0.128701 0.227008
bed 0.40617 0.195513 0.119516 0.161093 0.138257 -0.437922 0.019673 0.629766 -0.300991 0.289066 0.073248 -0.091722 -0.269172 -0.125726 -0.020111 0.211994 -0.676508 -0.533465 -0.246717 -0.195764 -0.271702 0.069597 0.348681 -0.004644 -0.064762 -0.240971 0.001695 -0.52378 -0.188783 0.16287 0.109532 0.306264 -0.066747 0.193892 0.205938 0.481188 0.174058 -0.069688 -0.137388 0.003257 -0.199266 0.102828 0.229442 0.50223 0.075496 0.365873 0.501834 0.055167 0.318955 -0.40863 0.220686 -0.569389 -0.261889 0.139043 -0.685654 0.305984 0.222044 -0.120527 0.823905 -0.220945 -0.396842 0.047073 -0.253026 -0.297461 -0.46276 -0.187656 -0.164583 -0.069414 0.571708 -0.110817 0.216556 -0.353178 0.031877 0.201056 0.097979 -0.385907 0.007204 -0.035746 0.302957 0.347885 -0.009202 -0.051671 0.427765 -0.125279 -0.278911 0.322368 0.334814 -0.08529 0.11955 0.229551 -0.359402 0.060209 0.490226 0.093328 -0.249333 0.341117 0.631937 -0.011022 0.350399 0.135127
furnace 0.44 0.666315 0.143607 -0.005121 0.44231 -0.111629 0.134159 0.549205 -0.287503 0.635408 -0.180429 -0.069321 0.116849 -0.087661 -0.013047 0.398518 -0.379943 -0.384716 -0.286845 0.241603 -0.581178 -0.381669 0.088276 -0.01407 -0.329804 0.027278 -0.224505 -0.488609 0.431056 -0.336272 -0.209598 0.558982 -0.892975 0.06026 0.006811 0.581071 -0.385241 -0.280761 -0.846692 0.797679 0.008003 0.066313 0.088238 -0.083554 0.123093 -0.011432 -0.066452 -0.395668 0.28382 -0.426753 0.288962 -0.21258 0.05914 -0.412986 -0.519668 0.402336 -0.29929 -0.207817 0.517059 -0.354251 -0.799505 0.460628 -0.407464 0.230128 0.485168 0.030179 -0.329196 0.251979 0.472813 -0.728576 -0.199543 0.011691 0.11068 -0.007262 -0.12416 -0.126317 0.072999 0.561732 0.173213 0.443792 0.110129 0.237964 0.070134 0.106596 -0.09002 0.045083 0.013243 -0.744983 -0.21671 -0.401092 0.349178 -0.037097 0.189008 0.199549 0.086062 0.651546 0.865327 -0.165511 0.016217 0.153676
evidence 0.389473 0.06619 -0.354409 0.520487 0.258191 -0.869676 -0.371461 -0.501045 -0.133215 -0.267426 0.077331 0.145973 0.079149 -0.218322 -0.190148 0.061323 -1.01748 -0.07159 0.275574 0.299648 -0.015706 -0.350038 -0.039347 -0.260935 -0.551935 -0.042149 0.067919 -0.508382 -0.022386 -0.232748 0.565936 0.050498 -0.250245 0.164246 0.568211 0.610496 0.294782 0.622357 0.063916 0.008854 0.065978 0.325465 -0.227237 0.099355 -0.179418 0.130856 0.258167 -0.060558 -0.249001 0.151855 0.202233 -2.82E-4 0.211328 0.09981 -0.320635 0.166847 -0.019717 0.049882 -0.015737 0.548068 0.125104 0.793258 -0.330866 0.473124 -0.245384 -0.272804 0.091629 -0.02258 0.298945 -0.719693 0.497774 -0.422971 0.210391 0.208837 -0.06305 -0.419498 -0.296766 0.237691 0.147627 0.088968 0.055955 -0.041721 0.253859 -0.058966 -0.141606 0.31262 0.460587 0.089633 -0.607862 0.145937 -0.040709 0.093094 -0.277239 -0.355223 0.301728 -0.303535 0.043128 -0.163557 -0.132744 0.567694
sprint -0.276692 0.066567 -0.220165 -0.377712 0.743863 -0.400674 -0.29608 -0.186901 0.369289 0.561593 -0.812369 0.318064 -0.150497 0.235789 -0.002935 0.370728 -0.688928 -0.622176 0.762926 -0.706877 0.273308 0.154468 -0.416506 -0.099795 0.213691 -0.034892 -0.627203 0.361611 0.217687 -0.188925 0.69105 0.208256 -0.221501 0.07485 0.117177 0.353048 0.322967 0.25103 -0.222902 -0.046127 -0.345186 0.174128 -0.073504 0.171543 0.401085 -0.063854 0.02434 0.337651 -0.152421 -0.347103 -0.046355 0.431502 0.148123 -0.004616 -0.23568 -0.039585 -0.046767 0.072769 0.416205 -0.490899 0.09461 0.541462 -0.334361 0.123773 -0.550412 0.519363 0.036756 -0.248299 0.686556 -0.271418 -0.564194 -0.093186 -0.134796 -0.15633 -0.26128 -0.346538 0.131392 0.429829 -0.285558 0.563962 -0.765696 -0.478668 0.386279 0.359571 -0.326606 0.424266 -0.875278 0.478347 0.340741 -0.005015 0.028853 0.916918 -0.160825 -0.661881 -0.038676 0.382331 -0.489587 0.072004 0.884676 0.089358
emergency 0.075481 0.410592 -0.20403 -0.130429 -0.137863 0.065117 0.197359 0.087201 0.274426 0.012374 -0.756191 -0.665412 0.274169 -0.471435 -0.529455 0.095304 -0.37002 -0.227688 -0.32206 -0.165879 -0.628021 0.054775 0.721478 -0.210524 -0.1666 -0.749515 -0.110218 -0.395554 0.460282 0.332877 -0.355274 -0.073465 -0.585117 0.02147 -0.112878 0.841512 -0.26533 0.153663 0.579767 0.048022 -0.723578 -0.325592 -0.199107 0.164607 -0.375374 0.367653 0.517494 -0.006532 0.190621 -0.259439 0.317339 -0.098731 0.04334 -0.322705 -0.595959 0.016372 0.20786 -0.53119 0.077754 0.359135 -0.1902 -0.269975 -0.378031 -0.688697 -0.119458 -0.055899 -0.370986 0.523421 0.498478 0.127491 -0.005005 0.169217 -0.041745 -0.341172 0.556531 0.011271 -0.177254 0.302685 0.458217 -0.583174 0.192463 -0.201393 0.112999 0.463968 0.088464 0.019462 0.20564 -0.322805 -0.66742 -0.316039 0.193238 0.183074 0.086836 -0.099609 -0.554025 -0.505232 0.023495 -0.319601 0.324451 0.326283
Jackson 0.15167 0.030324 0.035729 0.118871 -0.410653 -0.195177 -0.255579 0.116573 0.431274 -0.386933 0.006986 -0.027806 -0.516633 -0.046535 0.1243 -0.115074 -0.022471 -0.5289 0.211255 -0.122 -0.229563 0.180999 -0.105665 -0.244049 -0.272774 -0.229237 0.201205 -0.42227 0.121402 -0.124309 0.108254 0.518573 -0.004488 0.224766 0.380921 0.830918 0.25694 -0.602765 0.026761 0.182806 -0.417656 0.7208 -0.28928 0.900835 0.175018 -0.395183 0.432516 -0.055561 -0.404575 -0.127265 -0.029684 0.060407 -0.468596 -0.216982 -0.574426 -0.067815 0.398366 0.16897 -0.256937 0.101785 -0.16351 -0.296484 -0.381606 0.438943 -0.10885 -0.028679 -0.721552 0.129495 0.384105 -0.493844 -0.285288 0.037987 -0.055682 -0.352662 0.07365 -0.128626 0.221742 0.719285 0.100845 0.006078 -0.435175 -0.033962 0.205692 0.061831 0.086959 0.011332 -0.135195 -0.197949 -0.518187 0.359068 -0.191871 -0.19611 0.159813 -0.370074 -0.050873 -0.298576 -0.227634 0.002903 0.626109 -0.005717
institution 0.382108 -0.092867 -0.525498 0.36339 0.050268 -0.453053 -0.128268 -0.472849 -0.436055 0.399648 -0.839659 -0.263103 -0.112893 -0.354157 -0.409688 0.163185 -0.153996 0.306884 0.132041 0.277787 -0.137931 -0.373598 0.182068 0.261512 -0.096059 -0.338402 0.009666 -0.013311 0.414189 0.164156 -0.213178 -0.620925 0.100859 0.085486 0.044904 0.24264 0.277618 -0.054405 -0.009205 0.068512 0.097491 0.068308 -0.280958 0.593637 -0.328476 -0.586385 0.175878 0.035251 0.132011 -0.093971 0.278555 -0.24088 -0.310648 -0.462952 -0.385823 -0.010875 0.586264 -0.264693 0.337894 0.375395 -0.417156 0.143345 0.285927 -0.103445 -0.268707 0.503489 -0.335672 -0.550826 -0.055377 -0.409129 0.572789 -0.150076 -0.036285 -0.179357 0.034579 0.047247 -0.443074 0.004271 -0.275842 -0.142641 0.454092 0.230204 -0.15053 0.225984 -0.19509 0.228267 -0.261421 -0.169964 -0.180455 0.176818 0.052092 -0.03019 -0.292797 0.32795 -0.355796 0.52595 -0.293091 -0.359218 0.158118 0.746052
bird 0.178034 0.201319 -0.30208 -0.177719 -0.092332 -0.260568 -0.094455 0.044115 -0.233262 0.255543 -0.303551 -0.114233 0.442989 -0.339775 -0.296057 0.424451 -0.510041 -0.275221 0.25251 -0.296762 -0.15735 -0.665087 0.075425 -0.100512 0.409005 0.224245 -0.270909 -0.530839 -0.188829 0.464587 0.169771 0.492423 -0.470574 0.258716 0.344877 0.701477 0.055829 -0.151131 -0.162234 0.149878 0.211158 0.175402 0.131427 -0.145283 0.448914 0.304842 0.642202 0.169721 -0.071126 -0.586006 0.217958 -0.101045 0.262267 0.252936 -0.484097 -0.22651 1.77E-4 -0.557608 0.49525 -0.088832 -0.336998 0.200664 0.034122 0.343598 -0.353645 0.103349 0.092147 0.348822 0.425114 -0.609508 -9.96E-4 -0.23158 0.031263 -0.141083 0.80734 0.141392 -0.43298 0.359729 -0.047075 -0.196929 0.181284 -0.508645 0.217244 0.038203 0.487723 -0.264893 0.352257 0.515644 -0.079214 0.095698 -0.172514 -0.407967 0.074086 0.415897 0.088137 0.575677 -0.299754 0.161733 -0.335739 0.120774
Brazil -0.291057 0.45287 -0.0626 0.010933 -0.083731 -0.12716 3.5E-5 -0.257468 0.18502 0.529537 -0.405561 0.182581 0.397622 -0.176087 -0.277656 0.662307 0.07736 -0.124513 0.342352 -0.021533 -0.199392 -0.12567 -0.471105 -0.567568 0.127653 -0.38019 -0.177575 -0.094911 -0.271361 0.406752 -0.061001 0.186261 0.183512 -0.166812 0.790853 0.718801 -0.068636 -0.404406 0.391163 -0.033463 -0.089836 0.543899 0.318458 0.283368 -0.15118 0.197923 0.601805 -0.207808 0.159282 0.022945 0.0724 -0.036019 0.463641 -0.309379 -0.296727 0.254808 0.246756 -0.228532 0.323667 -0.581926 0.290854 0.816765 -0.341379 -0.056359 -0.691578 0.01099 -0.051658 0.068351 -0.356849 -0.284461 -0.188306 0.198811 -0.116519 0.076528 0.367322 0.234628 0.375739 0.328017 -0.185502 -0.224732 -0.038671 0.00287 0.02583 -0.134865 -0.127133 0.067713 -0.028236 -0.50155 0.034332 -0.013758 0.800266 0.574328 -0.40637 -0.458862 0.260402 -0.040457 0.180087 -0.299483 -0.080176 -0.330082
warning 0.789046 0.565987 -0.565181 -0.148969 0.023002 0.171648 -0.370759 0.189731 0.13392 -0.143201 -0.254675 -0.191892 0.234439 -0.533796 -0.379191 0.184551 -0.562085 -0.353378 0.08919 0.077262 -0.468076 -0.066949 0.153891 -0.408171 0.083214 -0.324357 -0.147483 -0.049331 0.402937 -0.045856 -0.269953 -0.406711 -0.002038 -0.152084 0.296096 0.323273 -0.263129 0.272527 -0.18694 -0.036639 -0.072466 -0.030708 -8.06E-4 0.020644 0.243366 0.165245 0.262595 -0.033823 -0.137683 0.026359 -0.003814 0.459076 0.752425 -0.095982 -0.641388 -0.012412 -0.064087 -0.370068 0.080043 0.722023 -0.191252 0.431559 0.083695 0.030394 -0.597613 0.234006 0.077372 0.190426 0.17006 -0.423992 0.214984 -0.111127 0.162323 0.266501 0.213153 -0.342458 -0.189767 -0.068071 -0.192984 -0.365399 -0.243359 -0.363785 0.054868 0.467298 0.128977 0.222817 0.520166 0.721931 -0.368764 -0.002801 -0.201334 0.017623 -0.291362 0.038044 -0.220801 -0.530111 -0.167552 -0.279303 -0.146977 -0.272531
implement 0.462066 0.132428 -0.315989 0.19955 -0.035881 -0.467913 -0.337257 -0.505405 0.437437 0.312384 -0.245504 0.162687 -0.050147 -0.375868 -0.324456 0.384832 -0.803209 0.194889 0.076511 -0.044586 0.031215 0.011553 0.215433 0.102728 0.175607 -0.623282 0.031502 0.260524 0.570587 -0.057255 -0.547695 -0.295002 -0.362716 -0.457017 -0.288456 0.340656 -0.005475 0.056095 0.471207 0.285818 -0.499588 -0.176118 0.233673 0.137741 -0.40731 -0.492562 0.020934 -0.283387 0.631314 0.666026 0.225931 0.221008 0.451867 -0.799348 -0.407121 0.071871 0.045419 -0.210668 0.437526 0.001435 0.133084 -0.059664 0.157043 -0.276091 -0.448087 -0.250689 -0.257741 0.046938 0.28204 0.529957 0.013469 0.370379 0.064694 -0.084237 0.429242 -0.0557 -0.043842 0.306703 -0.358088 0.234273 0.014804 -0.039737 -0.116536 0.376772 0.177241 -0.526323 0.03017 -0.038059 -0.369232 -0.416224 -0.308181 0.427123 -0.289014 -0.031155 -0.024949 0.075077 0.123339 0.11727 -0.270415 0.453508
train 0.265962 0.011721 -0.06253 -0.142272 0.424783 0.14662 -0.233864 0.318951 0.054149 0.65935 -0.528817 0.195367 0.441339 0.182847 -0.118913 -0.364008 -0.586986 -0.158315 0.091867 -0.128824 -0.490573 -0.094388 0.012085 -0.316048 0.12286 0.130671 -0.106656 0.061263 0.499273 -0.150256 0.093775 -0.221176 -0.435666 -0.120808 -0.327727 0.257539 0.040439 0.240304 -0.153282 0.379661 -0.354127 0.02856 0.30416 0.128574 -0.220751 0.530367 -0.179633 0.012597 0.119482 0.083157 -0.205185 -0.053324 -0.163991 -0.396735 -0.423679 -0.142561 -0.162837 -0.399871 0.694982 -0.330259 -0.157836 -0.015197 -0.001361 -0.440226 -0.378949 0.194009 -0.130971 -0.146688 0.481595 -0.468377 -0.148456 -0.441192 -0.121263 0.078577 0.198886 -0.600646 0.343046 0.188612 -0.221192 -0.573363 -0.401269 -0.190637 0.105498 0.45377 0.157323 -0.047142 -0.147091 -0.048629 -0.265581 0.269064 0.219092 0.352774 -0.107973 -0.221549 -0.680478 0.400865 -0.210423 0.371074 0.152622 0.477156
area -0.106008 0.21528 0.020016 0.428332 0.101198 -0.318869 -0.164449 -0.047011 -0.05461 0.189788 -0.333028 0.176413 0.272198 -0.256169 0.002699 -0.159035 -0.404098 -0.35986 -0.122993 0.02003 -0.241683 -0.309763 0.281399 0.306532 -0.166013 -0.197921 -0.16323 -0.306439 0.481665 -0.060876 0.556227 -0.277758 -0.594429 0.113992 -0.053851 0.107508 -0.178144 -0.438141 0.015257 0.061719 -0.263969 0.002595 0.032955 0.175228 -0.277228 -5.59E-4 0.35949 -0.444253 0.181099 -0.110776 0.223507 -0.342981 -0.083485 -0.180107 -0.504323 -0.055871 -0.209273 -0.107794 0.637302 0.349019 -0.36375 0.058644 -0.082292 -0.356835 -0.3682 0.247791 0.142949 0.011662 -0.067084 -0.29436 0.362155 -0.285754 0.235423 0.179895 0.605839 -0.030867 0.122753 0.401542 0.33049 -0.349747 -0.112308 -0.283698 0.167545 -0.33002 -0.014892 -0.11721 -0.027495 0.079149 -0.092647 0.509353 0.12232 -0.434665 -0.537686 -0.07592 -0.22108 0.367288 -0.17013 -0.025216 0.008173 -0.125927
image 0.44447 0.015947 -0.260452 -0.105369 0.405682 -0.565862 -0.245263 0.099401 -0.170129 0.128308 -1.03154 -0.069765 -0.424384 -0.177516 -0.128567 0.342981 -0.14089 0.075005 0.112406 -0.352198 0.230795 -0.161136 0.011807 -0.505706 0.082169 -0.024385 -0.048192 -0.330967 0.233334 0.331254 0.329722 -0.218386 0.109439 0.277909 0.143412 0.064686 0.355307 0.144525 0.350511 0.13821 0.06 0.491573 0.086244 0.088747 0.119865 0.293391 0.15784 -0.291323 0.184407 0.25916 0.484125 0.249684 0.144679 0.187624 -0.606207 0.221967 -0.093181 0.098444 0.592326 0.081555 -0.42499 0.095432 -0.116878 0.396666 0.157261 0.320345 -0.124909 -0.418005 -0.176537 -0.463032 0.347814 -0.432716 -0.010581 0.368781 0.227196 -0.172408 -0.113131 0.414021 -0.582615 0.074359 0.014879 -0.21884 -0.176213 0.058875 -0.295277 -0.034781 0.406812 -0.088394 -0.090826 -0.058643 -0.198295 -0.402537 0.087341 -0.181752 -0.265924 0.322557 -0.063578 -0.282336 -0.423892 0.148126
murder 0.338066 0.053105 0.326583 0.329342 -0.21329 -0.73483 -0.530147 -0.165419 -0.880651 -0.124079 -0.193626 0.340386 -0.651774 -0.005977 -0.237037 -0.064901 -0.47481 0.247802 0.008683 0.061574 -0.008983 0.052068 -0.034126 -0.304022 -0.189738 0.57538 -0.034589 -0.691432 0.040948 -0.502489 0.739308 0.685289 -0.198943 0.653736 0.539972 0.402113 -0.543785 0.660976 -0.258196 0.349823 -0.870837 -0.192282 -0.019126 0.36732 -0.44572 -0.411094 0.090341 0.254232 -0.56159 -0.276023 -0.176331 -0.387573 0.346068 -0.076667 -0.553526 0.522146 -0.183056 -0.302006 0.037005 -0.394367 -0.032272 0.345426 -0.548419 -0.123396 -0.543656 0.109221 -0.326963 0.009535 0.318854 -0.510582 0.612617 -0.816153 -0.194156 -0.394284 0.208124 -0.26016 0.457053 -0.00881 -0.572454 0.141592 0.099488 -0.585065 -0.275611 -0.13991 -0.233369 -0.258439 0.04896 0.081605 -0.403892 0.078135 0.087113 0.639441 -0.291743 0.093642 -0.368327 -0.360204 -0.692697 0.262804 0.497711 0.642233
journey -0.057031 -0.073307 -0.155122 0.205633 -0.118011 -0.356495 0.190577 -0.55707 -0.409863 0.377695 -0.734614 0.063235 -0.332138 0.099659 0.465655 -0.146909 -0.513258 -0.073781 0.013752 -0.44308 -0.381429 -0.036062 0.166175 0.023203 0.542812 0.054516 -0.148311 0.059976 0.320562 -0.19441 0.32577 -0.167399 -0.060235 0.250507 -0.011715 0.326283 0.262877 -0.286334 0.096548 0.435757 -0.078156 0.038303 0.233533 0.449627 0.077031 0.420231 0.39303 -0.604249 -0.502026 0.025194 -0.264404 0.700852 0.159361 -0.223173 -0.184071 0.142147 -0.484675 -0.634668 0.522761 -0.435551 -0.147357 0.041428 0.111737 -0.258494 -1.041783 0.614851 -0.020068 -0.28486 0.351955 -0.384037 -0.588167 -0.089695 0.163205 -0.080782 0.419567 -0.582977 0.022734 0.258636 -0.30743 0.060651 -0.218481 -0.388531 -0.152649 0.201272 -0.075872 -0.135946 -0.097414 -0.013714 0.214593 0.421044 -0.230546 0.440451 0.453985 -0.399199 -0.385392 0.294479 0.443077 0.375032 0.240406 0.179028
minister 0.436103 0.38999 -0.270701 -0.486583 0.395339 0.090585 -0.70235 -0.111292 0.458748 0.112427 0.162402 -0.447204 0.183984 0.035194 -0.039715 0.16723 -0.431983 -0.037157 0.401784 -0.416128 -0.371263 0.06211 0.178939 -0.195046 -0.043972 0.50943 0.261506 0.130652 0.610262 0.813267 0.579889 -0.416292 0.080623 -0.050062 0.563918 0.706326 -0.933898 -0.004401 0.530019 -0.199238 0.049762 0.116098 -0.487763 0.118929 -0.618984 -0.321256 -0.089476 -0.430705 -0.026503 -0.370297 -0.3788 -0.445156 0.738436 -0.621688 -0.437183 0.362263 0.209833 -0.046465 0.142628 0.06102 0.059451 0.205449 -0.44239 -0.44649 -0.457336 0.267389 -0.635528 -0.621459 0.366433 -0.582143 0.618451 -0.129959 0.455811 -0.620097 0.24971 0.02577 0.161242 -0.039399 -0.130763 0.584571 0.532276 0.241951 -0.090034 0.71167 0.019105 -0.43308 0.538885 -0.56096 0.055105 0.146535 -0.110971 0.422436 0.100475 0.158536 0.048399 -0.202832 0.03558 -0.202113 0.09202 -0.025444
planet 0.172699 0.369648 0.139091 0.526541 0.284222 0.086124 0.003313 -0.301186 -0.567941 0.33073 -0.4574 0.1299 0.367495 -0.423934 -0.056646 -0.015383 -0.413106 0.15286 0.108785 -0.028903 -0.168469 -0.662221 0.015967 -0.152357 0.318361 0.211979 -0.147641 -0.324282 0.068039 0.188796 0.593997 0.093584 0.222523 -0.210058 0.627475 0.656863 0.316324 0.066808 -0.104802 0.362565 0.026332 0.264803 -0.292341 0.243666 -0.200578 0.047999 0.967818 -0.341996 0.54326 -0.307959 0.765941 0.46886 -0.115599 -0.020587 -0.802264 -0.069083 0.147975 -0.529667 0.600854 -0.642105 -0.198251 0.217279 -0.28972 0.344681 0.081665 0.285173 -0.291748 -0.194261 0.149098 -0.702944 -0.131864 0.073671 0.08285 -0.072783 0.402565 0.335726 -0.470087 0.266044 -0.061822 0.225586 -0.143474 -0.329066 0.060318 -0.421224 -0.360351 -0.184484 0.039961 0.324459 0.041142 -0.002946 -0.445162 0.166694 0.079685 -0.013568 0.357867 0.844976 0.487754 0.215712 -0.002219 -0.524569
article 0.407309 0.010737 0.182398 -0.438448 -0.339218 -0.494819 0.385211 -0.174627 -0.237126 0.844379 -0.454676 0.043 0.096153 -0.343724 -0.032041 -0.195989 -0.281536 1.176911 0.010462 -0.47905 0.219756 -0.307278 0.843682 -0.194819 0.319128 -0.011656 1.286722 -0.326435 0.175736 -0.342258 0.51351 -0.186421 -0.244948 0.112666 -0.400813 1.144095 0.091455 -0.466478 0.539573 0.095489 -0.021975 0.185243 0.529096 0.237537 -0.366495 0.194575 0.189285 -0.203116 -0.524685 0.421307 -0.165472 -0.008295 0.356317 -0.67257 -0.245627 0.142059 0.171335 -0.400129 0.407063 0.502769 -0.337491 0.074985 -0.454498 0.736736 -0.328047 -0.230013 -0.144816 -0.365387 0.379458 -0.123162 1.514927 -0.853845 0.090376 1.109806 0.006745 0.194773 -0.259248 0.393369 -0.693581 0.803806 -0.132633 -0.1497 0.051533 -0.244543 -0.480884 -0.140396 0.191734 0.625698 0.454753 0.979472 -0.42127 -0.145667 -0.354011 0.639383 -0.10882 -0.260702 0.056917 0.259307 0.204767 -0.228485
anxiety 0.736224 0.17549 -0.873858 0.373858 -0.033764 -0.191578 -0.354066 0.284901 -0.484603 -0.246938 -0.264245 -0.130518 -0.487776 -0.177497 -0.695746 -0.171666 -0.066696 0.274605 0.077762 -0.272533 -0.505246 -0.743089 0.185906 -0.200533 -0.060571 -0.536436 -0.092056 -0.418102 0.272164 -0.52375 -0.04753 -0.116118 0.057433 -0.354876 0.347053 0.737628 0.232367 0.02606 -0.413994 0.472855 -0.127707 0.750816 -0.172646 0.216707 0.034632 0.337453 -0.200437 -0.13089 0.227987 0.120838 0.023633 0.344306 0.478337 0.268517 0.334544 0.117671 0.220937 -0.197815 0.105832 0.22299 -0.211818 0.268172 0.08919 -0.339856 -0.193046 0.3223 -0.459685 -0.170258 -0.0089 -0.259486 0.080865 -0.30062 -0.535763 0.46465 0.322118 -0.27661 0.320124 0.14507 0.630898 0.224481 0.359057 -0.285195 0.08855 0.16154 -0.320986 -0.018472 0.342943 -0.121556 -0.38034 0.683941 0.112793 -0.051786 0.240226 -0.082461 0.08699 -0.310967 0.155754 -0.412429 0.315255 0.422567
month -0.002021 0.741132 -0.443481 -0.298122 0.122033 -0.132008 0.104835 -0.131391 -0.383086 0.124672 0.077311 0.051722 0.222092 -0.513825 0.519001 0.167882 -0.748508 0.257205 -0.390299 -0.418876 -0.060022 0.10115 0.054113 -0.011745 -0.296873 -0.264137 -0.08665 -0.247534 0.32911 -0.331016 -0.167976 -0.851035 -0.116314 0.272302 0.091379 0.403522 0.209509 -0.200197 0.077904 0.108925 -0.146538 0.089928 0.177889 0.632397 0.21273 -0.390998 0.096312 0.132778 -0.415904 -0.029313 0.062255 -0.181683 0.231149 0.01601 -0.118397 0.471004 0.287779 -0.254671 0.470763 -0.462383 0.258704 0.090413 0.183352 -0.158155 -0.09286 0.094883 -0.009544 -0.183776 0.309271 -0.32802 0.729456 0.239339 0.20388 -0.489291 0.259931 0.38857 0.040638 0.568836 -0.032298 -0.175811 -0.265544 -0.102 0.351954 0.198855 0.031219 0.104541 0.072068 0.085478 0.273382 0.229889 0.500246 0.130772 -0.256381 0.225179 -0.100517 -0.55821 0.157653 0.036438 -0.057077 0.28882
carnivore 0.089211 0.480882 -0.184279 0.219168 0.093263 -0.489199 -0.06084 -0.493774 -0.570591 0.291916 -0.270946 0.154408 0.258894 -0.180305 -0.362112 0.330714 -0.242631 -0.106013 0.014768 -0.032244 -0.152912 -0.482616 -0.246637 0.196581 0.546956 0.114898 -0.123494 -0.760932 -0.143325 0.2775 0.105575 0.004782 -0.14526 0.180275 0.444241 0.725905 -0.046392 -0.123954 -0.270324 0.366586 0.627121 -0.009547 -0.286558 0.049375 0.22889 0.12993 0.634028 -0.090411 0.453163 -0.536837 0.16904 -0.433927 -0.233085 -0.09359 -0.017041 0.287869 -0.013221 -0.476369 0.633211 -0.408996 -0.186731 0.461448 -0.221332 0.90387 -0.351012 0.212137 -0.234867 -0.069777 0.459061 -0.481108 -0.119986 -0.353804 0.077818 -0.138219 0.607817 0.412656 -0.397608 0.415649 0.065585 0.256065 0.179051 -0.314526 -0.187284 -0.105313 0.213557 0.080557 0.214541 0.498797 0.027649 0.080258 -0.364364 -0.200531 0.030614 0.480791 0.316631 0.713349 -0.14905 -0.070356 -0.253236 0.29956
party 0.349246 0.340119 -0.448262 -0.76769 0.574397 -0.204763 -0.078587 -0.383244 0.462788 0.127303 -0.508481 -0.41825 -0.110013 -0.238105 -0.007855 0.141585 -0.744563 -0.136975 -0.004486 -0.091849 0.208142 -0.188283 -0.51238 -0.130277 -0.219082 0.446333 -0.207812 -0.216019 0.506464 0.11371 -0.113356 -0.119011 0.024526 -0.0344 0.252217 -0.17186 0.030976 0.024 -0.062584 0.072459 -0.239354 -0.084321 -0.299057 0.074181 -0.194292 -0.421808 0.201143 0.004849 0.214262 0.092095 0.431166 -0.072802 -0.339565 -0.391569 0.031388 0.67401 0.15318 0.298667 0.475856 0.035674 0.361655 0.139555 -0.323887 -0.002865 -0.394468 0.161724 -0.668763 -0.274913 0.179367 -0.819954 0.270859 -0.326446 0.047685 -0.250065 0.156748 0.063892 0.128645 -0.065999 0.180536 0.337775 0.113908 0.14931 -0.148392 -0.029531 -0.309463 -0.331926 0.253319 -0.15678 0.053249 0.35474 -0.159035 0.218183 0.011684 0.395853 -0.555717 0.023226 -0.144633 -0.167761 0.516677 -0.119375
production 0.381666 0.252724 -0.063114 -0.17803 0.189133 -0.044631 0.142046 -0.088242 -0.265742 0.127343 -0.245027 0.349773 0.089476 0.330168 0.770176 0.181227 -0.234925 -0.262831 -0.133719 -0.037311 -0.383921 -0.704157 -0.283324 -0.211775 0.275435 0.20286 -0.524776 0.258363 0.684295 -0.209123 -0.168971 0.1961 -0.629307 -0.23035 0.013108 0.864812 0.154237 -0.091961 0.139294 0.394533 -0.387235 0.563575 0.145022 0.305535 -0.230263 -0.272186 0.143671 -0.121326 0.022585 -0.077932 0.170909 -0.192125 0.164107 -0.491246 -0.075565 0.148796 -0.428343 -0.234034 0.501732 -0.102278 -0.041856 0.563021 -0.507659 0.400211 0.260361 -0.088399 0.236918 0.40177 0.092526 -0.044577 0.06293 0.153899 -0.06932 -0.158542 -0.09631 0.013662 0.450982 0.497428 -0.466435 0.122767 0.626291 -0.049793 0.077975 -0.077587 0.452259 -0.114948 -0.364377 -0.367345 -0.050224 -0.365633 0.242718 -0.104577 0.001228 0.095782 0.125314 -4.26E-4 0.479812 0.108226 -0.269639 0.304544
importance 0.188317 -0.379977 -0.834743 0.566386 0.138222 -0.158115 -0.407028 -0.033065 -0.330238 0.060945 -0.421946 0.373104 -0.327724 -0.297236 -0.349559 -0.028367 -0.738911 0.21306 0.325065 -0.418001 -0.050323 -0.245429 -0.020385 -0.303511 0.305106 -0.14191 -0.011795 0.069241 0.289162 -0.13949 0.628557 -0.222414 -0.158466 0.08413 0.002455 0.812561 0.068643 -0.153634 0.490268 0.251112 0.043124 0.400429 -0.388457 -0.195496 -0.07977 0.448992 0.242273 -0.708425 0.556926 0.191585 0.370854 -0.048703 0.200569 -0.090424 -0.062072 -0.202613 0.48119 -0.269302 0.150787 0.652271 -0.02053 0.075287 0.157252 0.060911 -0.10329 -0.32185 -0.209447 -0.151631 -0.329997 -0.164738 0.075522 -0.275301 0.240504 0.393787 0.496376 -0.145486 0.161677 0.164783 -0.056267 0.400177 0.557519 -0.299826 -0.49968 0.001342 -0.645243 -0.21798 -0.135261 0.065852 -0.323632 0.337837 0.015716 0.125083 -0.120683 -0.125801 0.177346 -0.432507 0.093909 0.160592 -0.1494 0.205953
inmate 0.40252 0.409224 0.369504 0.111024 0.150285 -0.280571 -0.460662 -0.398995 0.006901 -0.403617 -0.234596 -0.314751 -0.052063 -0.402582 -0.233635 0.077929 0.23559 0.208156 0.063746 -0.07919 -0.630983 -0.221894 0.380825 0.226083 0.350083 -0.19179 -0.237894 -0.742729 0.550714 0.009807 0.225651 0.3736 -0.20448 0.421274 0.105232 0.47976 -0.357826 0.003867 -0.075807 0.079608 0.03317 0.174329 -0.409547 0.509947 0.364073 -0.088326 -0.220214 0.333393 -0.613049 -0.726666 0.214859 -0.465686 -0.46218 -0.258946 -0.421931 0.500012 -0.12991 0.04334 0.134267 0.133315 -0.307991 0.084723 -0.752581 -0.14208 -0.417063 0.004707 -0.437799 0.072948 1.109704 -0.63045 0.892639 -0.474475 -0.238649 -0.017794 0.617043 -0.074168 -0.429697 0.020835 -0.477758 -0.325364 0.064506 -0.130254 0.397329 0.189167 0.045812 -0.675093 -0.071841 -0.16985 -0.188898 -0.396546 0.157724 -0.067685 0.004879 -0.080192 -0.073809 0.149907 -0.404422 0.003484 0.365668 0.738433
Harvard 0.178631 0.017308 -0.413398 0.388487 -0.12769 -0.290606 0.33376 0.338938 -0.454781 0.291257 -0.288461 -0.57128 -0.580222 -0.465239 -0.200416 -0.146418 0.022674 -0.228699 0.33078 0.087401 -0.504366 0.314539 0.06807 -0.257106 -0.086097 0.14045 0.32302 -0.085745 0.105254 0.405951 0.010677 0.008526 0.111637 -0.102257 -0.253487 0.643825 0.235361 -0.165204 -0.48904 -0.41614 0.112791 0.456865 0.167927 0.550456 -0.06718 -0.317831 0.096009 0.291596 0.046609 0.367485 -0.232167 0.115753 -0.176226 -0.448935 0.200237 -0.261189 0.67697 0.13133 0.112956 0.679845 -0.18375 0.484464 -0.06582 -0.116248 -0.415252 -0.062889 -0.790463 -0.355014 0.828715 -0.347808 0.344544 -0.00589 -1.071439 0.088302 0.073069 0.536202 -0.30212 0.148179 -0.351187 0.313737 -0.134384 0.315169 0.483661 0.167382 -0.562311 -0.705385 -0.122758 -0.009947 0.185959 0.300132 -0.324829 0.501832 -0.599163 0.100008 0.136587 -0.460664 -0.483474 0.164804 -0.058581 0.408537
psychology 0.103794 -0.045751 -0.711098 0.65423 0.129275 -0.70421 -0.027381 -0.05314 -0.755928 0.34968 -0.487022 -0.285002 -0.691325 -0.051782 -0.183324 -0.030856 0.204333 -0.048136 0.314717 -0.16704 -0.262534 -0.372214 0.041209 -0.182085 -0.085903 0.197832 0.124839 -0.239383 0.335639 -0.028851 0.556768 0.029885 -0.663186 0.065473 0.076749 1.005904 0.062764 0.235772 -0.182589 -0.253841 0.171928 0.520355 -0.212649 -0.043477 -0.415039 -5.58E-4 0.209398 -0.185016 0.138423 0.112568 -0.59917 0.39975 -0.085851 -0.351726 0.27081 -0.260445 0.295408 -0.04756 0.153703 0.612027 -0.108996 0.710805 0.34073 -0.285471 -0.103736 0.246494 -0.898686 -0.410972 0.574167 -0.29601 0.426753 -0.158954 -0.719128 0.110917 -0.157181 0.090568 0.057228 0.128821 -0.029676 0.544551 0.302895 0.237416 0.129998 -0.321912 0.0826 -0.265248 -0.273 0.396818 0.284764 -0.150531 -0.439784 -0.096763 -0.521491 -0.212145 0.078738 -0.08108 -0.451154 0.1239 -0.047932 0.811182
medal -0.300486 0.642882 -0.296402 -0.280848 0.50084 0.004156 -0.235756 -0.309425 0.241203 0.748152 -0.829112 0.309346 -0.687608 0.009558 -0.132871 0.651914 -0.881313 -0.576718 0.573655 -1.216387 0.230801 0.530964 -0.501845 -0.345339 0.253487 0.393323 -0.176673 2.5E-5 0.471288 -0.202878 0.787479 0.250033 0.344945 -0.045637 -0.496573 0.511149 0.519374 -0.038462 -0.173106 -0.210852 -0.194833 0.200148 -0.370063 0.067049 0.275512 -0.52744 -0.060617 0.195592 -0.055656 -0.495662 0.156654 -0.141583 -0.007469 0.3417 -0.417409 5.6E-5 0.254807 -0.239048 0.215245 -0.136406 -0.543096 1.003813 -0.093127 0.476387 -0.544213 0.192361 -0.044151 -0.134284 0.59788 -0.519934 -0.043569 -0.121048 -0.486511 -0.157156 -0.227487 -0.619394 -0.4194 0.126478 -0.185118 0.522358 -0.077607 -0.335843 -0.170622 0.302406 -0.983075 0.422494 -0.436271 0.377879 0.222201 0.028101 0.471741 0.802885 -0.072188 -0.890307 0.134561 0.361425 -0.494216 0.347762 0.7614 0.048991
company 0.324302 -0.110639 -0.268432 -0.092244 -0.157497 -0.393726 0.037573 -0.438182 0.008818 0.238575 0.098982 0.102 0.363027 -0.502238 0.281369 0.01905 -0.322643 -0.070567 0.249612 -0.012965 -0.59289 -0.350827 -0.481661 -0.374671 0.208592 0.299801 -0.011128 0.057683 0.488599 0.353093 -0.319195 -0.426576 -0.301708 0.01628 -0.036644 0.265854 0.209284 -0.161537 -0.108634 0.364693 -0.136434 0.363285 -0.098571 0.181888 -0.025929 -0.334231 0.013392 -0.097577 -0.066908 0.315102 0.014162 -0.039475 0.019646 -0.595013 -0.519001 0.394721 0.080916 0.282599 0.231312 0.025512 -0.434101 0.279608 -0.278933 -0.036721 0.07865 0.186747 -0.147638 0.055392 0.74161 -0.155819 -0.107395 0.334638 0.273902 -0.074166 -0.08934 0.282348 0.108192 0.447685 -0.345623 -0.142484 0.638705 0.073521 -0.214557 0.127605 0.008365 0.479376 -0.133787 -0.138091 -0.248911 0.153964 0.131854 -0.223432 -0.011821 0.165779 -0.148571 0.104991 -0.021835 -0.068614 -0.037129 0.108974
live -0.010172 0.209092 0.00605 0.199013 -0.044722 -0.510544 0.116496 -0.022815 -0.137605 0.054749 -0.121105 -0.396788 -0.06638 -0.155098 -0.052169 0.024416 -0.027325 -0.042981 -0.345693 -0.282884 -0.061317 -0.379394 0.035861 0.220391 0.305583 0.143785 -0.026553 -0.575001 0.36743 0.093731 0.255408 0.348415 -0.090133 -0.029714 0.171544 0.147456 0.427508 -0.499967 0.55966 0.397305 -0.609692 0.056074 0.003251 0.149139 -0.03033 -0.09751 0.247213 0.011404 0.401558 -0.06997 -0.405815 0.301467 -0.49862 0.078291 -0.921351 0.44279 0.106496 -0.357518 0.759649 -0.136301 0.395191 0.107604 0.27521 -0.101871 -0.348834 0.137953 -0.335916 0.290108 -0.14751 -0.659232 -0.361133 -0.317749 0.016783 0.152504 0.576274 -0.317336 0.43915 0.109672 -0.166091 0.009032 -0.080852 0.096469 0.444699 0.102536 0.109097 0.268947 -0.149055 -0.182737 -0.027248 -0.285098 -0.350056 -0.050176 -0.09833 0.277248 0.327181 -0.010377 0.153471 0.300636 0.256314 0.233631
holy 0.343294 0.064583 0.315474 -0.214 0.455655 -0.428899 -0.297474 -0.250503 -0.154555 0.615132 0.105276 0.199071 -1.080226 -0.263901 -0.011164 -0.195332 -0.882859 -0.620777 -0.323568 -0.057666 -0.814462 0.092951 0.499144 -0.321246 0.444133 0.248258 0.032701 -0.115132 0.375849 -0.147399 0.150522 0.342302 -0.162417 -0.09649 0.164904 0.380365 -0.092524 -0.131358 -0.237962 0.324181 0.026091 0.704956 0.187716 -0.306292 -0.589245 -0.34043 -0.133545 0.053843 0.398501 -1.074177 0.187281 0.189177 0.40927 0.21351 -0.183852 0.187552 0.455242 -0.75524 0.269301 0.0945 0.183777 -0.2082 -0.065138 0.231927 -0.971419 0.419043 -0.62927 0.234756 -0.05185 -0.754144 -0.233716 -0.235788 0.609656 0.39188 0.774248 0.080486 -0.366713 -0.089478 -0.508868 0.087144 -0.427157 -0.360838 -0.124519 0.189506 -0.135437 -0.525687 0.584726 -0.486675 0.610853 0.392139 0.4932 -0.185245 0.281326 0.1117 0.272479 -0.383368 -0.538952 0.563517 -0.102191 0.267467
ticket -0.028325 0.263112 -0.066318 -0.564738 0.453972 0.264291 0.944868 0.119796 -0.045945 0.366388 -0.059882 0.234569 -0.02707 -0.176278 0.007444 -0.013611 -0.756171 -0.272854 0.475972 -0.431587 0.163127 -0.008014 -0.736009 -0.403774 0.335795 0.007098 -0.116085 -0.051406 0.745177 0.040416 -0.293196 -0.392377 0.312319 -0.100214 -0.168794 0.28903 0.659195 -0.135131 -0.040884 -0.195292 -0.772104 -0.127544 -0.030718 0.250404 -0.048315 0.078817 -0.164172 0.012585 -0.142395 -0.152785 0.472593 0.020804 -0.54676 0.034762 -0.238927 0.27935 -0.244544 -0.187441 0.488992 -0.33244 -0.337359 0.041081 0.030297 0.139437 -0.341974 0.04484 -0.590763 -0.167369 0.042744 -0.70343 0.061377 -0.052084 -0.142366 0.253296 0.017929 -0.32117 0.402009 0.483732 0.404301 -0.201684 -0.177172 -0.414143 -0.127647 -0.263326 0.238102 0.132319 0.439612 0.368667 -0.064091 0.287183 0.420416 0.03964 -0.272336 -0.360285 -0.501938 -0.435433 -0.203218 0.041018 0.212243 0.39435
victory -0.728248 0.556703 -0.485088 -0.263919 0.112386 -0.514302 -0.264601 -0.121213 0.291801 0.448463 -0.705875 0.025147 -0.819629 -0.565064 -0.120898 0.245209 -0.060215 -0.089025 0.471924 -0.568797 0.38986 -0.112731 0.113058 0.423486 -0.048605 -0.25295 -0.280655 0.132573 1.155686 -0.222581 0.022257 -0.348228 0.269604 0.601161 -0.235191 0.011171 -0.056481 -0.160312 0.128432 -0.193204 -0.060094 -0.00111 -0.117726 -0.14135 0.312435 -0.090212 0.119649 -0.304253 0.338194 0.143859 -0.201266 0.25756 0.308463 0.012138 -0.229775 0.817337 0.147353 0.090769 0.377026 -0.157724 0.070192 0.411718 -0.584151 0.255435 -0.439243 0.336364 0.030571 0.191433 0.230648 -0.731831 0.357333 -0.429759 -0.172451 0.461969 -0.08835 0.028622 -0.128186 0.373431 -0.350785 0.284437 -0.460884 -0.414694 -0.480849 0.649123 -0.667401 0.198167 -0.204097 0.066273 -0.070728 0.16519 0.078175 0.563831 -0.255619 -0.420827 -0.312722 -0.315904 -0.092942 0.193048 1.046017 -0.372458
football -0.579478 0.223579 -0.156191 -0.412618 0.210199 -0.137137 -0.175552 -0.155062 -0.191644 0.330626 -0.639259 -0.309582 -0.425888 -0.411269 0.093816 0.235657 -0.379929 -0.016767 0.448094 -0.067734 0.132432 -0.426368 -0.009362 -0.64298 0.04778 -0.116497 -0.302486 -0.179734 0.169922 0.262766 0.384013 -0.022542 -0.126889 -0.270938 -0.00179 0.673908 0.037513 -0.261803 -0.400208 0.112835 -0.419476 0.303417 -0.24719 -0.03622 -0.203171 -0.33651 0.378939 -0.273687 0.176318 -0.525238 -0.510036 0.126618 -0.618726 0.137667 -0.458566 -0.207433 0.483864 -0.204512 0.23344 -0.100198 0.071433 0.499375 0.093173 -0.02602 -0.202282 0.135634 -0.668585 -0.282353 -0.180699 -0.384865 -0.097905 -0.360447 0.308254 -0.187846 -0.521416 -0.131726 0.535101 0.169054 0.106428 0.410498 -0.412414 0.055355 0.048978 0.438924 0.060461 -0.453028 -0.309787 0.081873 -0.163636 -0.078823 0.35976 -0.474557 -0.754104 -0.247403 -0.219778 0.076972 -0.321195 0.00874 -0.029843 0.489716
seepage 0.586571 0.249539 -0.34106 0.52624 0.340617 -0.554838 -0.24457 -0.125948 -0.040485 0.009234 -0.368966 0.03858 0.198079 -0.164291 0.050066 -0.294938 -0.799126 -0.268639 0.104577 0.388639 -0.126734 -0.674824 0.021456 0.025294 -0.379416 -0.266809 -0.23213 -0.166949 0.54508 -0.19235 -0.085859 0.327523 -0.410674 -0.086474 0.224162 0.625308 -0.164 -0.075827 -0.361108 0.435683 -0.017042 0.145163 -0.018335 -0.139892 -0.344492 0.087487 0.319784 -0.227112 0.338309 -0.278408 0.15483 0.175421 0.463606 -0.058854 -0.072524 0.006824 -0.131322 -0.167695 0.399311 0.141622 -0.835932 0.40585 -0.478525 0.201323 -0.44025 -0.009681 0.094695 0.527773 0.230343 -0.218351 0.211899 -0.063194 -0.184601 -0.075114 0.159261 -0.271492 0.063307 0.43464 0.65124 -0.081916 -0.043848 0.238946 0.108943 -0.195498 -0.052819 -0.056134 0.388947 -0.225388 0.130097 -0.119202 0.031495 0.051508 0.396179 0.023136 0.054041 0.303889 -0.072655 0.286169 -0.079497 -0.075603
rook 0.240306 0.104949 -0.110084 -0.158541 0.24833 -0.404234 0.068379 0.132117 -0.097174 0.395667 -0.276037 -0.011549 -0.200592 0.037788 -0.111893 0.310611 -0.119763 -0.152154 0.157117 -0.108646 0.047724 -0.405468 0.241942 -0.065438 0.284561 -0.224163 -0.017295 -0.313881 -0.07704 0.509951 -0.095113 0.230896 -0.021362 0.370675 0.110234 0.15689 0.280384 0.192051 -0.26871 -7.33E-4 0.123564 -0.183477 -0.011805 0.056721 0.196056 -0.197763 0.286731 -0.038753 -0.010206 -0.400055 0.188871 -0.013078 -0.408985 -0.012111 -0.226 0.401114 0.238558 -0.261416 0.277996 -0.403289 -0.147159 0.20823 -0.192202 0.273239 -0.344055 0.035186 -0.204737 -0.09541 0.292299 -0.450739 0.187009 -0.510978 -0.004266 0.323784 0.471214 0.026208 0.099771 0.298607 0.019645 0.16653 -0.27526 -0.1783 0.051429 0.216182 -0.049385 0.099287 -0.020488 0.548344 0.355734 0.099263 -0.206944 0.004397 0.130722 0.266595 -0.192682 0.484511 0.11499 -0.238126 0.011191 -0.026308
stroke 0.381235 1.02467 -0.713307 0.417937 0.121565 -0.260474 -0.683172 0.693408 0.028428 0.126686 -0.123933 -0.279257 -0.353696 0.209643 -0.291451 0.352856 -0.352643 0.088551 0.166358 0.057311 0.044285 -0.582802 0.202618 -0.172498 0.249049 0.026084 -0.128282 -0.197695 0.044322 -0.23669 -0.098886 0.500106 -0.033428 -0.238248 0.083445 0.478096 0.083856 -0.615934 0.225845 0.237114 -0.109408 0.138664 0.116222 0.060315 0.53388 0.327131 0.347804 0.658233 -0.092942 0.306786 -0.385896 0.063429 0.526196 0.112231 0.027445 0.424813 0.128161 -0.406613 0.438344 0.128731 -0.509599 0.210502 -0.517015 -0.014899 -0.279746 0.452595 0.01317 -0.051728 0.827605 -0.461703 0.193735 -0.346325 -0.740871 -0.180907 0.12994 0.347708 -0.524323 -0.185518 0.164633 0.316692 0.180147 -0.504529 0.649491 0.227358 -0.331058 0.333885 -0.191526 0.248823 -0.313177 0.215132 0.035243 0.324711 -0.223994 0.066829 -0.144345 0.325635 -0.306947 -0.296371 0.784295 0.089393
environment 0.263187 0.276477 -0.408649 0.104946 0.302077 -0.039846 0.14653 -0.205616 -0.054638 0.183745 -0.003902 -0.216126 0.278199 -0.300023 -0.181835 0.203848 -0.700364 0.276384 0.413849 -0.079793 -0.080714 -0.62547 -0.061306 0.201107 -9.17E-4 -0.313748 0.11855 -0.136948 0.361736 0.211322 0.322581 -0.265144 -0.517221 -0.389059 0.219166 0.285668 -0.002061 0.047765 0.292624 -0.018651 -0.185148 0.495949 -0.183806 -0.053419 -0.093484 0.016393 0.414174 -0.467623 0.489606 -0.163556 0.185828 0.173563 0.214696 -0.459209 -0.47515 0.167458 -0.029301 -0.191753 0.459289 0.229481 -0.24265 0.504453 0.129989 -0.543067 0.116862 0.227319 -0.26852 -0.522908 -0.163681 -0.176642 0.036782 0.132741 0.121424 -0.145632 0.597039 0.148936 0.210003 0.459158 0.080605 0.522591 0.372125 -0.282066 -0.332758 -0.492332 -0.30433 -0.122627 0.281913 0.023675 0.257543 -0.328453 -0.550238 -0.138761 0.171859 -0.430898 0.314797 0.291229 0.24872 -0.292352 0.076777 0.1563
coffee 0.495902 0.298025 -0.096743 -0.31119 0.231622 -0.269308 0.293583 0.191793 -0.226574 0.465411 -0.105266 0.151999 -0.19675 -0.081653 0.140928 0.379737 -0.141215 -0.468085 0.213836 0.194943 -0.908586 -0.290887 -0.175361 -0.406917 0.345903 0.24613 -0.456122 -0.229619 0.301546 0.190031 -0.428098 -0.014618 -0.406277 0.203282 0.478139 0.195158 0.42405 -0.497762 -0.248974 0.385146 -0.172976 -0.154904 0.367543 -0.264712 0.046452 0.099215 0.129277 0.090834 0.441124 -0.644142 0.276609 -0.781921 0.099367 0.401275 -0.187406 0.197798 0.308301 0.121129 0.294216 -0.116328 -0.143474 0.577731 0.17271 0.044551 -0.439418 0.359445 -0.528763 0.136311 0.444179 -0.073579 0.274612 0.151502 -0.010833 0.656029 0.298499 -0.43226 0.384105 0.350877 0.390623 0.305021 -0.137052 -0.115261 -0.015908 -0.100466 -0.26628 0.032714 0.2079 0.074269 0.082964 0.250816 -0.216924 -0.124004 0.022378 0.092132 -0.315495 -0.335896 0.086127 0.195592 0.146296 0.362154
baby 0.429146 0.40415 -0.093577 -0.148461 -0.396129 -0.149044 -0.232047 0.144219 -0.112187 -0.046999 -0.194641 0.030467 -0.159239 -0.04495 -0.258188 0.595694 -0.373197 -0.024549 -0.199718 -0.342279 -0.574378 -0.00825 -0.03229 -0.540964 0.169996 -0.218062 0.066198 -0.775046 0.239328 0.101021 -0.127088 0.416718 -0.025435 0.549185 0.399263 0.642657 0.295408 -0.176231 -0.414341 0.055754 0.413341 0.520989 -0.184763 0.342474 0.147614 0.449935 0.34911 0.570763 0.097125 -0.313692 0.180784 -0.430415 -0.276242 0.071297 -0.60435 0.592006 -0.073547 -0.169671 0.375883 -0.273972 -0.797746 0.363973 -0.139046 0.112225 -0.344338 -0.162283 -0.280044 0.147102 0.529944 -0.156022 -0.036765 -0.288536 -0.083716 -0.466396 0.204118 -0.345263 0.147993 0.258088 0.342155 0.308823 0.475961 -0.478744 0.145349 0.121523 -0.203736 0.051558 0.041757 0.037689 0.059257 0.005349 -0.54558 0.1594 0.097836 0.6151 -0.185379 0.214835 0.242843 0.360317 -0.273859 0.048021
personnel 0.266883 0.139599 -0.313192 0.033338 0.3048 -0.045019 -0.365266 0.050851 -0.077643 0.243358 -0.166413 -0.201221 0.287315 -0.1522 -0.136035 -0.600797 -0.644737 0.262688 0.357064 -0.689047 -0.4443 -0.334272 -0.237046 -0.114923 -0.044497 -0.155251 -0.346559 -0.082516 0.715453 0.0501 0.205674 0.244782 -0.622719 -0.151728 -1.08252 0.345347 0.021162 -0.210449 0.042918 -0.210552 -0.366023 0.424374 0.062367 0.656409 -0.25833 0.125348 -0.371024 0.441929 0.171492 -0.104158 -0.015712 -0.165983 0.116818 -0.360846 -0.541208 -0.258784 0.210509 -0.207 -0.169383 0.139538 -0.219275 0.028378 0.012956 0.046024 -0.066907 -0.093812 0.053823 0.337765 0.258957 -0.231703 0.270364 0.096205 0.384229 -0.336536 0.684115 -0.012497 0.200334 0.009914 0.23074 -0.359897 -0.325632 -0.107959 -0.235763 0.069776 -0.023234 -0.227336 -0.010239 -0.231018 -0.915739 -0.349112 0.187936 -0.039455 -0.21873 -0.564989 -0.257976 0.114533 -0.194616 -0.515137 -0.409666 0.50959
family 0.2396 0.07045 -0.003229 -0.155453 -0.186401 -0.369115 -0.100633 -0.074332 -0.279261 0.122116 0.030398 -0.183171 -0.229266 -0.329282 0.210981 -0.154334 -0.506758 -0.266274 -0.141758 -0.352106 -0.705507 -0.088235 -0.282403 -0.246674 0.252609 0.049536 0.210546 -0.72791 0.016804 0.078129 -0.007536 0.272154 0.040945 -0.074109 0.021117 0.009461 0.124191 -0.343487 -0.008241 0.266859 -0.051804 0.389767 -0.311288 0.314453 0.168103 0.016906 0.325249 -0.168938 0.019068 -0.003783 -0.019628 -0.27212 -0.370484 -0.097827 -0.45659 0.61496 -0.099218 0.166591 0.058724 0.071575 -0.085856 0.263049 0.219296 -0.463137 -0.532223 0.284409 -0.524578 -0.161063 0.292512 -0.653203 -0.057989 -0.243427 0.148413 -0.524626 0.206768 -0.034769 0.217082 0.156703 0.047592 0.064336 0.189941 -0.021733 -0.285306 -0.326092 -0.113154 -0.316846 0.115478 -0.302282 -0.306406 0.187455 -0.050927 0.032576 0.026975 -0.012854 -0.302546 0.285328 0.143217 0.033586 0.137473 0.209603
hypertension 0.861884 0.972934 -0.681326 0.297932 -0.135768 -0.377 -0.562755 0.060108 -0.634299 0.039002 -0.517093 -0.145866 0.048201 0.079153 -0.932955 0.43605 -0.264634 -0.046946 0.378131 0.342135 -0.458918 -0.273505 -0.089408 -0.217644 0.331071 -0.68962 -0.463417 -1.020166 0.026489 -0.55067 -0.119723 0.829757 -0.245013 -0.51534 0.222271 0.708914 0.722898 -0.517784 0.142821 0.276613 -0.599571 0.90427 0.083503 -0.092183 -0.268199 0.070278 -0.039691 0.404204 0.126108 0.262809 -0.509466 -0.267524 0.427435 0.196825 0.15575 0.071034 0.563143 -0.465053 0.75421 0.065929 -0.47306 0.386001 -0.3872 0.222859 -0.496889 0.467785 -0.53472 -0.110711 0.819513 0.354341 -0.205816 0.36427 -1.114191 0.097815 0.278403 0.290286 -0.375032 -0.095628 0.846243 0.524555 0.589609 -0.421818 0.405087 -0.164754 -0.058266 -0.496959 -0.417235 -0.115445 -0.258763 0.3325 0.004071 0.234156 0.432276 -0.055659 0.100245 0.166967 -0.670247 -0.300958 0.315827 0.392583
president 0.298498 0.43098 -0.311138 -0.248298 -0.054016 0.083091 -0.096949 -0.184188 0.182938 -0.262929 -0.899091 -0.106402 0.068835 -0.228548 0.1723 0.331307 -0.379947 -0.230449 0.117929 -0.321427 -0.119067 0.048409 -0.489218 -0.230403 0.380085 0.246359 -0.139205 0.219941 0.634156 0.182322 -0.040213 -0.546892 0.266557 0.048999 0.147084 0.284787 -0.390841 -0.226902 0.397965 -0.396489 0.096843 0.585642 0.130246 0.238627 -0.60929 -0.12275 -0.007459 -0.424184 0.138882 0.101746 -0.051094 -0.161697 0.047329 -0.420143 -0.304698 0.395899 0.262975 0.340527 0.058957 0.001008 -0.327532 0.191591 -0.297633 -0.222729 0.110201 -0.096764 -0.750663 -0.483661 0.506247 -0.236102 0.240486 -0.098315 -0.028383 -0.120214 0.050983 0.12065 0.277135 -0.383822 -0.261005 0.131529 -0.109898 0.186888 -0.203519 0.386172 -0.270787 -0.189284 0.207273 -0.048668 -0.212434 0.117998 -0.098087 0.325568 -0.472811 0.235184 0.053667 -0.553489 -0.093352 -0.031989 -0.301587 0.560796
atmosphere 0.001563 0.135908 -0.191178 0.230959 0.429384 0.175171 0.756177 0.060695 -0.056092 0.214592 -0.667253 -0.205523 0.049877 -0.364821 0.286853 0.114076 -0.748326 0.047188 -0.251805 0.2644 -0.091818 -0.939549 -0.347587 -0.14267 -0.414111 0.010339 -0.251705 -0.355702 0.487054 -0.488992 0.262161 -0.221349 -0.472251 -0.053053 0.371921 0.320085 0.053941 0.252357 -0.243354 0.418422 -0.187557 0.210616 -0.251557 0.172578 -0.051549 -0.337311 0.432159 -0.626596 0.555961 -0.309812 0.134489 0.233147 0.044633 0.396983 -0.229427 -0.505727 -0.185282 0.101524 0.490776 0.086259 -0.188156 0.425721 -0.238637 -0.151033 -0.341198 0.340212 -0.137105 -0.363199 -0.203566 -0.763344 -0.017233 -0.197039 -0.289348 0.168588 0.606525 -0.294108 -0.224393 0.541426 -0.053988 0.610267 -0.092216 -0.013433 -0.216163 -0.250797 -0.243048 -0.182279 0.284007 -0.429786 0.065629 0.526756 -0.11475 5.79E-4 -0.125344 -0.347954 0.333993 0.45423 0.668431 -0.126142 0.168201 -0.246476
practice -0.006147 -0.272751 -0.1051 -0.031555 0.206318 -0.682947 -0.214356 -0.157285 0.178403 0.074321 -0.106858 -0.198834 -0.100483 -0.412554 0.071097 0.191879 -0.785698 0.095695 0.483375 0.246532 -0.497784 0.024586 0.037572 -0.183409 0.298294 -0.462081 -0.357342 -0.191893 -0.044348 -0.166897 -0.013987 -0.161 -0.762688 -0.254154 0.156493 0.486034 -0.004806 -0.281406 -0.231008 -0.102503 -0.138264 0.521946 0.084316 -0.122755 0.243964 -0.221451 0.25937 0.018078 0.047649 -0.061411 -0.421609 0.185037 0.10684 -0.449023 -0.156743 0.056953 0.475977 -0.373981 0.051914 0.494462 0.007636 -0.027301 -0.001317 -0.203529 -0.24672 0.064624 -0.224198 0.043759 0.164281 -0.177454 0.070907 -0.400987 -0.050556 0.117092 0.079769 -0.009693 -0.299997 0.030943 -0.02016 0.362117 -0.32545 0.090038 0.117856 0.233949 -0.26206 0.102422 -0.388707 -0.195981 0.038009 0.104007 -0.212982 -0.3362 -0.310763 -0.209955 -0.315094 -0.274266 0.158889 -0.161461 0.407694 0.389415
movie -0.024182 0.13027 0.059022 -0.505127 -0.073141 -0.116355 0.055317 0.319758 0.007367 0.045869 -0.380952 -0.019831 -0.171847 0.075922 0.709325 0.14789 -0.267904 -0.105833 0.247858 0.032852 -0.3733 -0.220379 -0.365748 -0.204599 0.539574 0.281876 0.261345 -0.088474 -0.053334 -0.065896 0.133485 0.554919 -0.2887 0.039435 -0.018486 1.007112 0.667312 -0.112774 0.229025 0.408909 -0.12496 0.005312 -0.021403 0.853562 -0.303325 -0.623124 0.010253 -0.11365 0.008351 -0.701383 0.254552 0.206013 -0.390708 -0.135047 -0.31433 0.453917 -0.322342 -0.10136 0.506635 0.060338 -0.103103 0.247224 1.23E-4 0.278052 0.231382 0.19359 -0.146323 -0.215983 0.112884 -0.678675 -0.018088 -0.121407 -0.326544 0.259871 -0.020861 -0.558084 0.207354 0.538035 -0.792321 -0.030489 0.186393 -0.2551 0.006477 0.23334 0.424678 0.040456 0.150755 0.142841 -0.267991 0.275675 -0.124569 -0.479363 -0.011405 0.026416 -0.038844 0.110595 -0.198234 0.03677 0.052028 0.065777
popcorn 0.344016 0.197655 -0.139783 -0.400613 -0.115896 0.148037 0.142849 0.475182 -0.280382 0.025415 -0.130269 0.281201 -0.411459 -0.016846 0.421099 0.350816 -0.198833 -0.21872 0.182175 0.327185 -0.894217 -0.425153 -0.334861 -0.394186 0.509125 0.265405 -0.278251 -0.305734 -0.106069 0.041522 -0.462936 0.580295 -0.553893 0.209825 -0.194127 0.950828 0.807109 -0.40726 -0.688946 0.152637 -0.106698 -0.353083 0.106278 0.12578 -0.03199 -0.328197 0.21941 0.099254 0.499603 -0.885934 0.446706 -0.444469 -0.001777 0.566704 -0.324895 0.339704 0.269764 0.223078 0.412444 -0.159202 -0.294556 0.458064 -0.066568 0.525351 -0.086005 0.120972 -0.393586 0.4041 0.559634 -0.348215 0.003877 0.036325 -0.645852 0.526448 0.127922 -0.162338 0.071156 0.521272 0.388941 0.311951 -0.307784 -0.252376 0.210502 0.145409 -0.202104 0.232266 0.548446 0.140278 -0.201524 0.05653 -0.365286 -0.307696 0.447011 0.32609 0.234733 -0.241687 0.295815 0.036277 0.132212 0.389648
recommendation 0.90521 -0.167426 -0.151639 -0.134752 0.442745 -0.232004 0.12819 -0.101068 -0.393125 0.125317 -0.171841 0.306532 0.049339 -0.767725 0.137281 0.4769 -0.802872 0.031292 0.226991 0.003789 -0.57554 0.339499 -4.29E-4 -0.277785 -0.307443 -0.382358 0.175609 -0.046976 0.158896 -0.416481 -0.488125 -0.166741 -0.107251 -0.251531 -0.203206 0.149367 0.219491 -0.371893 0.469717 -0.184881 -0.225755 0.263958 -0.227983 0.300239 0.037609 -0.044582 0.225375 -0.421889 -0.338595 0.067264 0.206758 0.140429 0.088906 -0.412042 -0.374671 0.261861 0.366653 -0.307773 0.073068 0.246455 0.141797 0.259798 -0.368784 0.151887 -0.631571 0.055698 0.171601 0.20479 0.720096 -0.22 0.11455 0.287807 0.287049 -0.11769 -0.078385 0.103525 -0.399744 -0.120218 -0.083523 0.278379 0.073763 -0.504339 -0.460623 0.006553 0.033976 -0.216347 0.242819 0.805658 -0.324816 0.136316 -0.253357 0.352532 -0.215792 -0.19073 0.229158 -0.585629 0.246168 -0.431837 -0.041625 0.399784
focus 0.017762 -0.174523 -0.450315 0.051526 0.270237 -0.554192 -0.261908 -0.19429 -0.309272 -0.097829 -0.004855 0.541032 -0.178727 -0.34033 0.15663 -0.066179 -0.490072 0.396822 0.342386 -0.419463 -0.404048 -0.321577 -0.019496 -0.173877 -0.155506 -0.12204 -0.20512 0.273063 0.213323 0.145695 0.45374 -0.099003 -0.254991 -0.223664 0.14027 0.52224 0.170799 -0.046648 0.144094 0.248693 -0.292656 0.42303 -0.049637 -0.26927 -0.040521 0.088003 0.066343 -0.505015 0.410794 0.515969 0.331225 0.254233 -0.103544 -0.479709 -0.183917 0.290637 0.249585 -0.258473 0.77221 0.538025 -0.101086 0.143239 -0.049979 0.122537 -0.070549 0.07942 -0.405747 -0.199242 -0.046574 0.045232 -0.209363 -0.267123 0.069847 -0.004155 0.376281 -0.147107 0.253132 -0.210792 -0.083225 0.308838 0.163445 -0.202896 0.129284 -0.162944 -0.048393 -0.068066 -0.194035 0.174904 -0.328628 0.21218 -0.29604 0.393217 -0.192067 -0.142758 -0.106174 -0.302581 0.598648 -0.077742 -0.311388 0.075645
