437 300
plane -0.139916 -0.246989 0.13444 -0.146928 -0.072254 0.326069 -0.121778 -0.462609 0.092404 0.15429 0.111657 -0.292191 0.208339 -0.104598 -0.120028 -0.349378 0.098038 0.198303 -0.043301 0.045734 -0.344842 -0.163824 -0.482448 -0.435291 -0.34319 0.058548 0.09719 0.102191 -0.093051 0.048815 -0.240947 0.008078 0.174357 0.092018 -0.049258 0.049823 -0.101993 0.071908 0.006473 0.048758 0.090057 -0.20594 0.277718 0.004523 0.284656 -0.175065 -0.106357 -0.020493 -0.041617 0.258182 0.05274 -0.205706 -0.294733 0.06154 0.169368 0.258529 0.304731 -0.09501 -0.173081 -0.047596 -0.192102 -0.40926 0.046616 0.13804 0.088078 0.093131 0.081585 -0.043728 0.274812 -0.006325 -0.245751 0.245603 0.182765 0.003742 -0.356973 -0.375577 0.272452 0.183979 0.205327 0.016669 -0.09315 -0.321257 0.105242 -0.087526 0.058661 -0.295126 0.173967 0.091831 0.097422 0.368746 0.051253 -0.345979 0.065138 0.124736 -0.20897 -0.276404 -0.20194 0.112825 0.09975 -0.171947 -0.241548 -0.043779 -0.097431 -0.146338 0.381011 0.116976 -0.338013 0.031509 0.27981 0.345985 0.176228 -0.174243 -0.208336 -0.062404 0.114112 -0.004465 -0.258559 -0.537998 -0.224005 0.174593 -0.470995 -0.100725 0.079574 -0.269216 0.113017 0.001864 0.224685 0.027689 -0.323087 -0.052472 -0.155719 0.31743 -0.217035 0.270785 -0.103526 -0.099873 0.171324 -0.012502 -0.296489 0.060891 -0.048196 -0.463098 -0.054095 0.174243 0.083706 -0.239138 -0.123979 -0.030288 0.202018 -0.110942 0.063665 -0.147671 0.545196 0.267989 0.017458 -0.024374 0.001441 0.02669 -0.132635 0.114993 -0.370284 -0.115651 -0.202201 -0.109515 -0.418842 0.108475 0.08297 0.192161 0.290491 -0.091141 0.032138 0.155207 -0.04749 0.395264 0.139118 0.165546 -0.183544 0.04134 0.07082 0.303327 -0.076083 -0.234121 0.020974 0.006279 -0.235714 -0.139625 0.332792 -0.060537 0.359968 0.033945 0.039154 0.10855 -0.140867 -0.081667 -0.010464 -0.185084 -0.050202 0.060507 -0.10186 0.528127 -0.381991 0.100828 -0.108826 0.421522 0.24351 -0.103845 -0.099391 0.274836 0.238688 0.060928 0.181679 0.01162 0.135941 -0.072501 0.014934 -0.253058 -0.064534 0.270297 -0.020615 -0.152394 -0.069925 0.382567 0.310766 0.219919 0.213404 -0.140886 0.279355 0.240459 -0.037879 -0.24104 -0.103111 0.288288 -0.293851 0.263914 0.007064 0.140879 0.030406 0.178918 -0.109558 -0.086159 0.133541 0.057342 -0.168633 -0.173029 -0.183439 0.15102 -0.174274 -0.095966 -0.288597 0.275614 0.184029 0.010612 0.179695 0.081635 0.201364 0.102465 0.412825 -0.289349 0.207554 -0.085984 0.188741 -0.101166 -0.005899 0.05107 -0.178884 0.042596 0.231916 -0.071435 0.019322 0.169146 0.225978 0.320566 0.13129 -0.016064 -3.43E-4 -0.349462 -0.289836 -0.075589 -0.185209 0.192857 0.273793 -0.105033 0.169807 0.299938 0.27794 -0.101092 -0.141225 -0.045592 0.032607 0.188445 -0.338559 -0.029728 0.148996 0.006199 -0.120948 0.228726 0.032372 0.086569 -0.031763 0.087433
stupid -0.167828 -0.180323 0.304166 0.28604 0.203693 -0.111645 -0.051341 -0.240001 -0.267946 0.213897 -0.191039 -0.31853 -0.139943 0.187083 -0.250629 0.061316 -0.145793 -0.180543 -0.024694 0.304012 -0.312436 0.179809 -0.214284 -0.060012 0.196161 -0.112705 -0.152663 -0.138765 0.128972 -0.207979 -0.167855 0.082314 0.248812 -0.110367 0.038871 0.032966 -0.180406 -0.263765 -0.196826 0.192693 0.0651 0.21052 -0.090716 0.302673 -0.207932 -0.130355 0.272028 -0.341568 0.097399 0.216245 0.34008 -0.01598 -0.238717 0.020685 -0.056047 -0.012945 0.206771 -0.05686 0.144401 0.178162 0.067024 -0.04441 -0.28077 0.073113 0.276602 0.239065 0.061932 -0.210226 0.136795 -0.084893 -0.060581 0.194113 0.137699 -0.02721 -0.304457 0.03405 0.098796 0.233239 0.056552 0.091844 0.081557 -0.160314 0.085548 0.329098 0.14218 -0.015783 -0.121154 -0.116985 0.183201 -0.102316 -0.01031 0.215185 0.292087 -0.06472 0.09128 0.042692 0.159322 -0.045565 0.148393 -0.194265 0.063274 0.050624 -0.072092 0.050679 0.201894 -0.087813 -0.160785 0.093774 0.132464 0.050272 -0.024669 -0.301162 -0.366288 -0.072775 0.089192 0.307658 0.272388 -0.154624 -0.108629 -0.220574 4.39E-4 0.071398 -0.097558 0.053634 0.267697 0.022662 -0.032915 0.412027 0.089149 0.116301 0.139535 -0.284765 -0.274301 -0.024409 -0.112196 -0.137089 0.295678 -0.090499 0.114617 0.1979 0.092299 -0.245162 -0.105736 -0.15558 -0.058495 -0.207031 -0.087907 -0.072696 0.092827 0.075992 -0.008205 -0.089973 -0.07239 -0.123477 -0.062255 0.029129 -0.119717 0.100542 0.267412 -0.00499 -0.044406 -0.097617 0.153795 -0.063783 8.54E-4 0.00777 0.082378 0.27507 -0.266892 -0.014361 0.222639 -0.175287 0.047523 0.047156 -0.184692 0.066459 -0.080848 0.019216 -0.183881 -0.040674 -0.118388 0.047808 -0.127737 0.182389 0.089699 0.079068 -0.204325 -0.169598 -0.13508 -0.137318 0.357937 -0.04611 -0.133688 -0.187225 0.263376 0.307378 -0.176464 0.141349 0.078578 -0.015136 -0.005814 0.013485 0.487774 -0.07852 -0.035086 0.122745 -0.294247 0.133402 -0.027726 -0.077913 0.227287 0.188442 -0.057074 -0.132031 -0.167675 0.071999 0.150794 0.250756 0.012374 -0.138446 -0.018133 0.088769 0.177132 0.086931 -0.318335 -0.131884 0.382523 -0.276785 -0.175433 -0.060417 -0.116755 -0.313662 -0.038995 0.084222 0.01097 -0.072176 -0.03215 0.180556 0.451505 -0.129325 0.157982 -0.035023 -0.360914 -0.281707 0.214988 -0.057939 0.010795 0.113552 -0.251916 0.127436 -0.154647 -0.295612 0.005923 0.315219 -0.215221 -0.012955 0.084045 -0.03702 0.106532 -0.182353 0.2407 0.121176 0.04359 0.184523 -0.1213 -0.128768 -0.049986 -0.441867 0.1759 -0.155556 0.063126 -0.072607 0.4529 0.083047 -0.190413 -0.183427 0.043459 -0.021738 0.033946 -0.30596 0.056392 -0.010788 -0.217474 -0.028858 0.236159 0.14269 0.101753 -0.130953 0.219839 0.206244 -0.56379 0.336993 -0.314673 -0.036809 0.096368 0.542971 0.3492 -0.217991 -0.04839 0.267805
egg -0.141101 -0.301216 0.242323 -0.127175 -0.179837 -0.126702 0.100791 -0.35729 -0.29078 -0.020891 0.114747 -0.379666 0.244371 0.468432 0.272936 -0.057574 -0.264111 0.037939 -0.229192 -0.09863 -0.077377 -0.279225 -0.212334 -0.289705 0.247136 0.028866 0.070805 -0.351621 0.242435 0.27931 0.025399 -0.225642 -0.195664 0.029608 -0.058554 0.523217 -0.281133 -0.209853 -0.003418 -0.005388 0.243137 0.118233 0.11956 -0.003568 0.033161 -0.363621 0.242938 0.065366 -0.025546 -0.159314 0.226055 -0.021477 -0.167318 -0.034879 -0.10594 -0.039709 0.001007 0.092032 -0.221872 0.081441 -0.067703 0.166719 0.079929 0.200314 0.352355 -0.111171 -0.122838 -0.14065 0.033712 0.084382 -0.109922 -0.130783 -0.091513 0.247012 -0.016379 -0.255913 0.049532 0.007384 0.229079 -0.078903 0.139247 -0.021545 -0.041628 -0.165279 -0.05238 -0.302587 -0.197312 0.343359 0.10437 0.142063 -0.237007 0.064401 -0.274479 0.467552 -0.099883 -0.020827 -0.196406 -0.181136 -0.213608 -0.068151 0.291346 0.16792 0.0976 -0.55412 0.2942 0.147546 0.434304 0.265876 -0.065252 -0.031202 -0.077849 0.129249 0.097134 0.053933 0.036267 -0.223828 0.246777 0.349796 -0.174959 0.164585 -0.319598 -0.046844 0.019869 -0.2924 0.256582 0.185616 0.0037 0.217493 -0.248217 -0.189102 0.144011 0.046778 0.004926 0.533203 -0.235354 -0.183776 0.16734 0.01501 0.195664 -0.39202 -0.323862 -0.162511 0.031913 -0.06391 -0.215708 0.04388 -0.07214 -0.154363 -0.018178 0.152239 0.299936 0.083271 -0.053246 -0.181587 -0.102517 -0.094035 0.359879 0.083405 0.111918 -0.073478 -0.040515 0.306318 0.213371 -0.127482 0.222182 0.005807 0.234898 0.043745 0.00331 0.240511 -0.37151 -0.14123 -0.341699 0.332726 -0.092869 0.08656 -0.298763 0.025833 -0.103974 -0.332024 -0.077992 -0.05335 -0.274614 -0.149347 -0.049913 0.126691 0.233653 0.376682 0.176859 -0.369813 -0.14059 0.02972 -0.207862 -0.10514 -0.234623 -0.092466 -0.021691 -0.742137 0.110234 -0.206137 -0.009633 0.004676 -0.194703 0.250425 0.580366 0.375723 -0.312346 -0.170134 0.084168 -0.002589 0.15369 -0.285558 -0.051033 -0.098393 0.134189 -0.039872 -0.232609 -0.048614 -0.199133 -0.070763 -0.044402 0.152997 0.293289 -0.050802 0.085872 0.123015 -0.287018 -0.286027 0.221668 -0.0051 0.272534 -0.104466 0.099544 0.082091 -0.177114 0.227847 -0.27591 0.126451 0.093469 0.302189 0.172787 -0.122906 -0.224579 -0.336631 0.038237 -0.22802 0.243511 0.146875 -0.101597 0.34459 0.223968 0.121791 0.429525 -0.361231 -0.200357 -0.078672 -0.321335 -0.241126 -0.27675 -0.336872 -0.081735 0.410505 -0.085977 0.001246 0.165104 0.246823 -0.055752 -0.248833 -0.063682 -0.269342 0.031961 -0.542961 0.268474 -0.207627 -0.011983 0.117368 -0.063908 -0.001797 0.143558 -0.078386 0.019658 -0.43385 -0.360822 0.141315 0.391153 0.033715 -0.073597 -0.193763 0.009186 0.612333 -0.251894 -0.103921 -0.069451 0.353508 0.137056 -0.01059 0.044499 -0.346352 -0.140374 0.237323
year -0.104665 0.09142 -0.128846 -0.283562 0.022132 0.110394 -0.168917 -0.153655 0.0166 0.1486 -0.13638 0.092907 0.033863 -0.08105 -0.119244 -0.057103 0.16093 -0.116737 0.036645 -0.003036 -0.208344 0.045526 -0.026798 -0.259311 -0.210286 -0.225485 -0.064034 -0.086857 0.128238 -0.253116 0.256264 0.276216 0.11291 -0.002378 0.361316 0.042337 0.06529 -0.043495 0.196841 -0.070633 0.058804 0.181143 0.296411 -0.161546 0.044851 2.16E-4 0.073109 -0.010596 0.280496 0.054107 -0.061267 0.12508 0.186629 -0.205793 -0.163018 -0.238631 -0.052904 0.072836 -0.052693 -0.042151 0.166273 -0.129316 -0.073418 -0.045942 0.145414 0.084042 0.222651 0.150161 -0.031079 -0.087474 0.189616 0.393041 -0.167443 -0.021135 -8.9E-5 0.182731 0.007635 0.162904 -0.232333 0.215354 0.074899 0.008129 -0.17634 -0.18022 -0.362786 0.137069 0.036587 0.08421 0.136511 -0.080329 -0.019873 0.147698 0.252825 -0.158794 0.119413 0.035198 0.182491 0.145092 -0.079529 -0.322864 -0.141394 0.116011 -0.084218 0.186196 0.098892 -0.04529 -0.023116 -0.047331 0.054855 0.116285 -0.137385 -0.090715 0.122991 0.082956 0.031167 -0.204846 0.180677 -0.264113 0.033576 0.2516 -0.164724 -0.05247 0.180543 -0.002508 0.210594 -0.161787 -0.183614 0.177043 -0.188847 -0.00671 0.314285 -0.00435 0.182727 0.075336 -0.086936 -0.012657 0.042359 0.007255 -0.203681 0.090338 0.163685 0.08166 0.078456 0.025735 -0.148454 -0.288129 -0.103281 -0.056282 0.055074 -0.087201 0.212051 -0.259691 -0.029106 -0.1126 0.050589 -0.342777 0.301433 -0.235056 0.328595 0.014545 0.127734 0.168228 -0.001843 -0.23682 -0.214328 -0.236502 0.095286 0.095628 -0.098258 0.039895 -0.171196 0.272822 -0.244378 0.040635 0.163462 0.202958 -0.212146 0.055902 -0.007774 -0.198586 0.07553 0.067233 -0.0213 0.103725 0.07912 0.084596 -0.061492 0.058609 0.050074 0.114495 0.078744 0.074747 0.236991 -0.072371 -0.124562 -0.206313 -0.115164 0.011159 0.166464 0.149724 -0.109295 -0.114821 -0.305476 0.054636 0.058182 -0.111855 -0.046996 -0.052984 -0.232818 0.037002 -0.022434 0.236623 -0.227125 0.377526 0.125468 0.305554 -0.202044 -0.011497 -0.30173 -0.205118 0.195177 0.09438 -0.088432 0.054082 -0.034395 -0.0541 -0.091509 -0.023172 0.016833 -0.16155 0.240844 0.181919 0.096447 -0.033836 -0.013282 0.019926 -0.070969 0.049847 -0.168608 0.062896 -0.037632 -0.010284 -0.066188 0.211006 0.137224 -0.071941 -0.067744 0.009002 0.069895 0.250683 -0.165988 -0.0746 0.041411 0.044697 0.07276 -0.004009 -0.171084 0.124825 -0.025596 0.092517 -0.046782 -0.111038 -0.052919 0.032613 -0.024881 -0.03009 -0.004708 -0.265546 -0.047765 0.037141 0.308393 0.349037 0.192834 -0.159259 0.211225 -0.118665 0.153567 -0.262998 -0.03821 -0.338275 -0.232092 0.140551 -0.360821 0.027201 0.084667 0.065313 -0.304549 -0.357615 0.105165 0.023144 -0.268206 -0.154086 -0.078206 -0.250505 0.255097 -0.082898 0.243787 -0.095103 -0.143526 0.015319
psychiatry -0.529917 -0.424628 0.252109 -0.14823 -0.045263 0.240306 -0.260232 -0.177888 -0.176482 -0.027314 -0.130179 0.553486 -0.40762 -0.158331 0.105662 -0.137616 0.101377 0.494133 -0.199545 0.067833 0.405496 -0.40924 -0.10576 -0.443574 0.119065 -0.035633 0.086051 -0.091467 -0.232261 -0.187283 -0.241964 -0.559513 -0.320439 0.359142 0.293201 -0.070601 -0.223481 0.050144 -0.080903 0.210908 0.421678 0.162566 -0.312952 0.043744 0.246017 -0.787906 -0.423613 -0.438362 0.518965 -0.299278 -0.390472 -0.238018 -0.016118 -0.003837 -0.261035 -0.051686 -0.156339 0.210898 -0.199418 -0.203779 0.048459 -0.056984 -0.116903 0.317433 0.07741 -0.458823 -0.072449 0.033437 -0.322648 -0.30554 0.153169 0.181011 0.093546 -0.374661 0.056148 0.126153 0.347114 0.249031 0.182418 -0.075545 -0.119231 -0.607126 0.117068 0.146312 0.452853 -0.126566 -0.10719 0.176037 0.099963 -0.309061 0.309183 0.195851 0.304534 0.364552 0.172112 -0.252205 -0.131626 0.211418 -0.175369 -0.044192 0.178254 0.136032 -0.442073 -0.070198 0.506953 -0.14616 0.283895 -0.216664 -0.085223 0.62053 0.160139 -0.594405 -0.460619 -0.080318 -0.555124 -0.140503 0.114697 0.060731 -0.146421 -0.561835 -0.25755 -0.247123 -0.191854 0.279929 -0.421124 0.565508 -0.181932 -0.303176 -0.49657 0.118876 0.121281 -0.090388 -0.605574 -0.003648 -0.443565 0.302153 0.423578 0.763842 -0.480767 0.141652 -0.316491 0.362881 -0.169026 0.038785 -0.633429 0.149997 -0.376265 -0.074957 -0.048321 0.20675 -0.32854 0.364839 -0.642743 -0.414735 -0.016173 0.006817 0.196488 0.207735 -0.168404 -0.564466 0.170347 -0.284727 0.081283 -0.498533 -0.220889 0.054525 0.215699 0.401377 -0.096159 -0.218314 0.103235 -0.420628 -0.284246 0.193905 0.335415 0.185377 0.430389 0.065701 -0.061363 0.15235 -0.191218 0.317384 -0.107093 0.153563 -0.342385 -0.185772 -0.113117 0.334886 -0.320011 -0.162491 -0.058991 0.034261 0.063414 -0.098072 -0.07133 0.461269 0.099374 -0.250162 0.393583 0.587993 0.06943 0.180766 -0.033014 -0.148335 -0.226557 0.422483 -0.352595 0.201833 -0.153888 -0.074047 -0.311898 -0.046333 -0.412704 -0.186093 -0.092325 -0.140881 0.078774 0.231477 0.124953 -0.0799 0.209005 -0.127044 0.254478 -0.452997 -0.258808 0.702465 0.016044 0.043023 -0.069138 0.593336 0.404889 0.248782 0.178243 -0.066812 0.3586 -0.352365 -0.068037 0.198141 -0.196547 0.237931 0.126517 0.403143 -0.263417 0.2174 -0.268127 -0.278737 -0.254821 0.444215 0.471796 0.005543 -0.39346 -0.003545 0.128291 -0.077851 0.549127 0.061439 -0.493954 -0.455965 0.15687 0.098224 -0.076577 0.220531 0.465645 0.040006 -0.294798 -0.131353 0.310076 -0.222999 0.024491 0.079334 -0.344707 0.002211 -0.432254 -0.138866 -0.103335 -0.084639 -0.325378 -0.227465 0.197809 -0.004038 0.228643 0.140773 -1.59E-4 -0.041059 0.294498 0.028279 0.582489 -0.72634 0.476303 -0.184659 0.391985 0.08685 0.207128 -0.227919 -0.141939 0.37467 0.668077 -0.21868 0.287266 -0.198454
asylum -0.131241 0.029002 -0.047306 -0.054236 -0.073734 0.019193 -0.006287 0.166583 -0.213982 0.199105 0.229829 -0.27754 -0.065731 0.037388 0.126762 -0.007109 -0.037025 -0.117501 0.169607 -0.293409 -0.022791 0.043689 -0.238618 -0.046743 -0.037972 -0.289361 0.021474 -0.055303 0.037525 -0.304004 -0.515264 -0.089053 0.23445 -0.09762 -0.143948 -0.62619 -0.332001 0.125642 -0.196772 -0.023038 0.404292 0.059628 0.417283 0.048256 -0.116314 0.169727 -0.165184 -0.30602 -0.207448 0.26534 -0.029865 -0.289857 -0.77931 -0.097412 -0.008933 0.301565 0.211939 -0.325477 -0.308036 -0.036744 -0.009414 0.134878 0.171514 -0.151072 0.472013 0.061305 0.02481 0.147043 -0.110236 0.384351 0.003821 0.525789 0.281165 0.205252 -0.243742 -0.193455 0.389828 -0.086551 0.179561 -0.516037 -0.138385 -0.19547 0.194618 0.280367 -0.129542 -0.357293 -0.120141 0.105691 0.080969 -0.117288 -0.033245 0.433434 -0.011219 0.198467 -0.192353 -0.369388 0.106109 -0.091717 -0.228273 -0.539289 -0.220078 -0.302675 0.538106 -0.047755 -0.132611 -0.105664 0.119946 0.577925 0.044681 -0.250354 -0.282385 0.079937 0.192306 -0.266018 -0.575669 0.034649 0.219228 0.047687 -0.031976 0.358418 -0.366594 0.103782 0.138724 -0.082843 0.375271 0.128658 -0.019675 0.458758 -0.267928 -0.243211 -0.182122 -0.083667 -0.020431 0.218733 -0.110418 0.150008 0.030506 0.242541 -0.10226 -0.007247 -0.068275 -0.054147 -0.205932 0.200015 0.2185 0.057093 -0.046084 -0.198284 -0.128359 -0.343913 0.346394 0.136932 -0.077096 0.00436 -0.039996 0.185503 0.38191 0.160742 0.062378 -0.013913 0.08208 -0.203455 0.140833 -0.329066 0.365964 -0.449774 0.167277 -0.062195 -0.252666 0.050501 -0.534441 0.341942 -0.221491 -0.188291 0.364173 -0.028108 -0.040345 -0.067377 -0.108729 0.11339 0.007941 0.324226 -0.159157 0.135122 0.182961 0.256074 0.242914 -0.140973 -0.210532 0.082527 -0.053157 0.15752 -0.300387 -0.25464 0.246893 -0.219099 -0.04755 0.151904 -0.361336 0.697708 -0.024131 -0.112138 -0.003905 0.121847 0.116333 0.655211 0.241393 0.105085 0.368485 0.274266 0.157808 0.106471 0.062752 0.054622 0.019627 -0.297434 0.248878 0.039807 0.099311 -0.148687 0.308449 0.052076 -0.022627 -0.490001 0.181065 -0.011079 0.310807 0.537158 0.16493 -0.097914 0.548481 -0.318546 0.032539 -0.355969 -0.052514 0.025788 -0.178087 0.185241 -0.138424 0.304324 0.563277 -0.232536 -0.369157 0.008867 -0.38331 -0.42491 -0.371114 0.387834 0.128536 0.320487 0.161266 0.292684 -0.282262 0.111276 -0.043203 0.11084 -0.001029 -0.197756 0.119186 0.228833 -0.112724 -0.247878 -0.040964 0.336957 -0.119273 -0.590334 -0.36718 -0.003117 -0.036244 0.08208 -0.43944 -0.193542 0.350238 -0.237366 0.202026 -0.219792 0.026679 -0.273355 -0.223618 -0.245821 0.136804 0.1069 -0.163346 0.400388 0.569328 -0.191181 -0.069427 0.017777 -0.031877 -0.182969 -0.128533 0.257273 -0.391203 0.110896 0.048551 0.107566 -2.0E-4 -0.047714 0.047837 0.414709
manslaughter -0.202871 -0.094407 0.716296 0.006301 0.256351 0.113461 -0.372346 -0.267793 -0.313593 -0.112333 0.214791 -0.355611 -0.635353 -0.064028 0.39066 0.689836 -0.459113 -0.23709 -0.400198 0.06153 -0.258679 -0.007582 -0.234281 0.03364 -0.243443 0.136004 -0.132351 0.151733 0.327244 0.008876 0.087099 -0.122208 -0.520356 0.151553 -0.137228 -0.121747 -0.2618 0.32283 -0.127258 -0.271457 0.168945 0.111302 -0.112442 -0.293458 0.131048 -0.488874 0.084079 0.005914 0.011622 0.345591 0.020541 0.631363 -0.128265 0.374874 0.157085 0.34448 0.308852 -0.491558 -0.30978 0.06771 0.173054 -0.708338 0.373988 -0.229931 0.499396 -0.036163 0.004144 0.133528 0.40079 -0.340033 3.51E-4 0.239084 0.09699 0.450026 0.172173 0.854898 -0.020145 0.626219 0.234309 -0.232334 -0.33647 -0.238502 0.099104 0.443508 -0.103695 -0.308416 0.340261 0.332433 -0.11249 -0.254911 0.214362 0.663197 0.701635 -0.11128 0.124528 0.189217 0.302731 -0.097164 -0.091289 -0.078355 0.02932 0.160231 -0.010609 -0.103178 0.177533 -0.02572 0.21885 -0.278763 0.060188 0.117475 0.09786 -0.691231 0.099121 -0.24157 -0.588528 -0.376094 0.35814 0.305839 -0.067335 0.250069 0.136039 0.233335 -0.048976 -0.00967 0.089463 0.496014 -0.300839 0.270631 9.51E-4 -0.537231 0.047595 -0.003489 0.187429 0.208587 -0.070949 -0.108433 0.111653 0.102843 -0.471614 -0.377538 -0.36784 -0.251031 -0.080817 0.704751 -0.124661 -0.100448 0.163904 -0.074042 0.783816 0.34341 -0.503272 0.018387 0.199712 -0.369269 0.227955 -0.055901 -0.109316 0.469059 -0.045622 0.129041 -0.067016 -0.184571 0.624703 -0.22223 0.087484 -0.256946 0.041143 -0.135866 0.359646 0.326925 -0.490205 -0.206905 0.238851 0.295501 0.173148 -0.192735 0.099788 0.042801 0.144649 0.295806 0.187559 -0.566262 0.2748 -0.071193 0.036356 -0.075491 0.335886 -0.155172 0.633424 -0.008773 0.184398 0.420299 0.062774 0.302401 0.380547 0.143025 -0.18765 -0.137638 0.794389 0.475097 -0.482958 -0.025144 -0.035204 -0.030133 -0.291757 -0.028284 0.498236 -0.384859 -0.166069 -0.141511 -0.423565 -0.248298 0.031113 0.769533 0.193717 0.06112 0.57314 -0.075258 -0.048853 0.559279 9.85E-4 -0.058416 -0.357578 -0.078185 -0.393836 0.126767 0.610193 0.208848 -0.004226 0.362092 -0.203041 -0.113719 -0.282785 0.231586 0.062149 -0.495221 0.013539 -0.056934 -0.527271 0.543951 -0.054405 0.325296 -0.174981 0.523037 -0.142031 -0.297269 0.038971 -0.216172 -0.060987 0.211603 0.363391 0.088406 0.018709 0.480876 -0.411355 -0.186089 -0.028959 -0.236031 0.674295 -0.138593 0.241376 -0.056047 0.048648 0.295565 -0.077777 0.040458 -0.065085 0.413491 -0.296967 0.016955 0.155414 -0.242871 0.513244 -0.08841 0.091572 -0.401715 -0.180759 0.15099 -0.168394 -0.185202 -0.567834 0.418597 -0.022272 -0.131419 0.329153 0.081967 0.170032 -0.391576 -0.147137 -0.217946 0.006191 0.009907 -0.294803 -0.514589 -0.331276 0.667784 0.299751 -0.380067 0.205937 0.099671
music 0.260636 0.347734 0.033246 -0.10349 -0.036653 0.101406 -0.069206 -0.33544 0.347086 0.12829 -0.086002 -0.034314 -0.175934 0.16892 -0.093066 -0.027273 -0.181642 0.093057 -0.08745 -0.120335 -0.135158 0.126709 -0.057833 -0.236786 -0.096438 0.083501 -0.305237 -0.099817 0.096503 -0.208852 -0.073286 -0.219779 0.121966 -0.124821 -0.078752 0.030611 -0.21273 -0.205812 0.381301 -0.116567 0.03781 -0.29476 -0.036103 -0.199593 0.005139 -0.219809 -0.329027 -0.152147 0.212932 0.028261 0.118123 0.307906 0.374827 0.05825 0.062034 -0.440825 -0.100741 -0.094568 -0.003006 -0.113098 -0.170742 -0.16943 0.219112 0.091431 -0.03113 -0.232437 -0.247205 -0.084559 -0.186312 -0.419097 -0.10907 0.019744 0.011243 -0.250911 0.08423 -0.021771 0.069843 -0.143654 -0.009287 0.352772 0.20181 -0.14943 -0.087622 0.223248 0.063565 -0.174276 -0.050735 -0.026337 0.21632 0.035286 -0.016863 0.160007 -0.087301 -0.003067 -0.214945 -0.075665 0.168646 0.024412 -0.035551 -0.141153 0.26404 0.185149 0.010954 -0.234891 0.07611 0.034215 0.056894 -0.146094 0.166381 0.04546 0.009534 -0.052055 -0.176067 -0.318645 -0.116243 -0.217788 0.210516 -0.006737 -0.057904 -0.224744 0.128324 -0.026602 -0.202803 0.136841 0.286159 0.112888 -0.186808 -0.118454 -0.219356 -0.240983 0.074815 -0.108588 -0.008438 -0.057398 0.048332 -0.087672 -0.182421 -0.273834 -0.152877 0.41193 -0.351528 0.060777 -0.036518 0.059941 -0.149227 -0.014068 0.25429 0.038369 0.187856 -0.195622 -0.136394 0.004198 -0.156577 0.032726 -0.276189 0.187269 0.299388 0.09722 -0.145747 -0.045265 -0.010711 -0.008325 0.179429 -0.140059 0.112038 -0.008533 0.140745 0.02669 -0.052959 -0.210116 -0.099426 -0.059252 0.037445 -0.097782 0.14478 0.028828 -0.023716 -0.001296 0.03283 -0.219645 0.032451 0.287024 -0.17258 0.327655 0.052789 0.123491 0.226622 0.019999 0.179514 -0.215758 0.00391 -0.222003 -0.015796 -0.002732 -0.317089 0.033622 0.071145 0.131857 0.191019 0.090482 -0.021142 -0.10874 -0.181926 0.014228 -0.094911 0.109294 -0.313906 0.154195 0.205994 -0.155474 0.110122 0.146798 0.017557 0.152275 -0.089412 0.203448 0.05761 0.005987 0.017185 0.23066 -0.15513 0.325452 0.07776 0.214735 0.102988 0.051168 -0.027763 0.296287 -0.090688 -0.107209 -0.225632 0.324961 0.091261 0.056366 -0.407414 0.082416 -0.111897 -9.99E-4 -0.108483 0.006282 -0.140428 -0.11374 0.13157 -0.193453 -0.066353 0.040654 0.031543 0.008212 -0.045596 0.133817 -0.006344 0.578142 0.142924 0.49499 -0.17654 0.114784 0.078235 -0.198143 0.151432 0.197863 -0.034664 -0.064358 0.008787 0.085585 -0.004638 0.00734 0.082705 -0.300263 0.557694 -0.006735 -0.059666 -0.032646 -0.005104 0.047379 -0.09574 -0.008778 0.002126 -0.196273 0.414666 -0.1657 0.132436 -0.020836 -0.112682 -0.305011 0.201853 0.024434 0.016976 -0.031661 -0.0375 0.582241 0.058341 0.069762 0.28159 0.0927 -0.069722 0.265589 -0.079564 -0.041703 0.174869 0.284926
record -0.009782 0.128748 -0.227781 -0.405951 -0.032851 0.164224 -0.038383 -0.144958 -0.079067 0.118173 -0.008413 -0.348442 -0.180044 -0.205773 0.301491 0.095069 -0.276501 0.099282 0.114692 0.117293 -0.113782 0.053179 -0.098036 -0.159347 -0.058211 -0.186897 0.003018 -0.10409 -0.113296 -0.10091 0.328789 -0.038683 -0.04907 -0.177548 -0.271056 -0.080695 -0.114512 0.077225 0.124642 0.289025 0.133785 -0.067433 0.179257 -0.044468 -0.206453 0.173148 0.28832 0.178171 0.273594 0.210422 0.29691 0.043837 -0.065835 0.030112 -0.249646 -0.061134 0.121722 0.13438 -0.042192 -0.156507 0.087453 -0.093753 -0.15734 -0.184883 -0.212866 0.149828 0.002231 0.020761 0.007914 0.087716 0.088703 0.116989 0.041577 -0.062704 0.201411 -0.005606 0.018075 0.052934 0.230239 0.319493 -0.04061 0.211741 -0.102056 -0.074403 0.218121 0.040053 0.184069 -0.109043 0.037493 -0.004776 -0.19499 0.02336 0.03284 -0.286905 -0.190826 -0.086633 -0.086396 0.061892 -0.356178 -0.522168 -0.158934 -0.035027 0.199178 -0.092429 -0.163825 0.094555 0.153 -0.206572 -0.055506 -0.074053 0.172923 -0.026609 -0.010837 0.00906 0.093253 -0.021672 0.180096 0.118399 0.033253 0.075694 0.080706 0.129925 -0.470641 0.003696 0.26983 0.124917 -0.217521 0.17749 -0.294129 0.24555 -0.044456 0.081283 0.016764 0.076399 0.090858 -0.016574 -0.159921 0.148922 -0.233855 0.130412 -0.287657 -0.044574 -0.109855 0.346051 -0.257217 -0.018229 0.101705 -0.037932 0.026325 0.051086 -0.189049 -0.067475 -0.207549 0.038977 0.268146 -0.100229 0.229071 -0.277828 0.121449 0.181564 0.148753 -0.024957 0.099068 -0.179687 -0.255321 -0.277718 -0.114601 0.305606 -0.114079 0.09821 -0.12929 0.037287 -0.054236 0.067183 -0.275865 -0.016422 0.213184 -0.197208 -0.219044 -0.111553 0.255278 -0.094958 -0.214681 0.156631 0.257176 0.092876 -0.178982 -0.023511 -0.180728 -0.224752 0.153152 0.002905 -0.043668 0.074339 -0.012528 -0.403141 0.066687 -0.152567 0.231923 -0.032447 -0.180942 -0.159601 0.077209 0.164839 -0.008015 0.04916 -0.262817 0.157391 -0.038328 -0.11926 0.400387 -0.051159 0.10285 0.052828 0.297196 -0.298687 0.099405 0.041795 -0.083392 -0.08587 -0.114459 0.106527 -0.115264 0.157616 0.340613 0.121332 0.024761 -0.176189 0.192207 0.102355 0.105887 0.143988 0.302672 -0.002031 0.264556 0.220575 -0.380349 -0.281079 -0.235819 -0.016378 -0.08432 -0.006456 -0.292715 -0.270942 -0.234455 0.02488 -0.034842 -0.069462 -0.180981 0.011302 -0.058171 0.136272 -0.047033 0.027285 -0.094799 -0.020248 0.028332 -0.036431 -0.103351 -0.039051 -0.201864 -0.100978 -0.053512 -0.011518 -0.281104 0.18622 -0.319512 -0.095879 0.222507 -0.009182 0.133164 0.268084 -0.214073 -0.019018 0.358929 -0.148477 -0.221319 0.10161 0.197591 -0.263876 0.042751 0.023662 -0.532128 0.298689 0.123464 0.111803 -0.415215 -0.007698 0.087171 0.109907 -0.034994 -0.031635 0.337103 0.241453 0.084931 0.145054 0.403049 0.141218 -0.002501 0.178215
energy 0.009255 0.266717 -0.136159 -0.199583 0.057397 -0.159917 0.031259 0.071017 -0.096221 0.160201 -0.144342 -0.30358 0.394538 0.042116 -0.122884 0.071626 0.031228 0.234367 0.120733 -0.008743 -0.163592 0.027238 -0.103285 -0.280822 -0.348941 0.261392 -0.17468 0.008109 -0.065498 0.244102 0.020962 0.036088 0.074623 -0.024293 -0.114251 0.415426 -0.14346 -0.309876 -0.143421 -0.006011 -0.123214 -0.022619 -0.266288 -0.02604 0.303948 -0.034197 0.094092 0.113034 -0.301698 0.083671 -0.058621 0.082703 -0.151348 0.218837 -0.09677 -0.048932 -0.031437 -0.151388 -0.030542 -0.004395 -0.166004 0.066004 0.083576 0.027243 0.113564 0.159112 0.145588 -0.142919 -0.23959 -0.166889 0.129638 0.096698 -0.182005 -0.109259 0.247961 -0.20427 -0.031913 0.290389 -0.113396 0.092174 0.164089 -0.036212 0.22227 0.120102 -0.211377 0.257351 -0.117307 0.176035 -0.108158 -0.331833 0.295448 -0.074445 0.067006 0.056412 -0.165631 -0.183586 0.208026 0.17069 0.372335 -0.088766 -0.125762 -0.060656 0.034178 -0.214577 -0.1236 0.089225 0.064299 -0.31955 0.14141 0.312324 0.181527 -0.086655 0.176864 -0.182508 -0.210852 0.134672 0.290581 0.03802 -0.038207 -0.041704 -0.001691 -0.39388 -0.066245 -0.296836 -0.191139 0.317708 0.036548 0.204237 -0.226923 0.04185 0.024304 -0.087627 -0.106986 0.156735 0.121832 -0.218657 -0.081152 -0.023505 -0.07184 0.081362 -0.303456 0.114186 0.258814 -0.242129 -0.075298 -0.190694 0.058711 -0.060959 0.130286 -0.146666 0.124434 0.063386 0.036621 0.208711 -0.022487 -0.031001 0.255485 0.037605 0.432966 0.188037 -0.109196 -0.079973 0.021057 -0.132352 0.456981 -0.222584 0.071311 0.276079 0.193046 0.107974 0.15174 -0.023581 0.067461 9.52E-4 -0.372301 -0.148732 -0.358834 0.132322 0.380954 -0.036896 0.026846 0.047257 -0.228452 0.154696 0.25169 0.096674 -0.016969 0.13717 -0.244355 0.254303 -0.177661 0.091833 0.007131 -0.149653 -0.323459 0.015593 -0.024334 -0.038842 0.248466 0.096441 -0.151039 -0.565494 0.224191 0.208372 -0.099733 0.221728 -0.166953 -0.078868 0.243102 -0.019807 0.324158 0.110535 0.033101 0.220715 0.500857 -0.03851 0.194018 0.130687 -0.099711 0.178284 -0.001094 0.069673 -0.011782 -0.172547 -0.065367 -0.013357 0.149168 -0.039108 0.163446 -0.041862 -0.32111 0.054648 0.26 -0.170616 0.301142 0.280858 0.178398 -0.203325 0.140828 -0.131378 0.038453 0.08711 -0.041604 0.121652 -0.012533 -0.031068 -0.042837 -0.423947 0.047607 0.040716 -0.071536 0.077479 -0.077561 -0.251019 0.539955 0.438266 -0.289244 0.032442 0.060219 0.171256 -0.150039 -0.180181 -0.075223 0.13452 0.031893 -0.198996 0.185138 -0.167975 0.32828 0.153787 0.198423 0.0874 0.128401 -0.014052 0.173942 0.187073 -0.168658 -0.154556 -0.118605 -0.538136 0.20879 -0.153864 0.102657 0.006742 0.174384 0.219685 -0.083143 -0.316179 -0.091858 0.289313 -0.266154 0.388019 -0.02089 0.041062 -0.167718 0.053521 -0.165777 -0.062813 0.13868 -0.195479
announcement -0.386069 0.085078 0.109171 0.066312 -0.27434 0.318892 0.031823 -0.150332 0.020317 0.052025 -0.044679 -0.105104 3.23E-4 -0.254313 -0.152142 0.105877 0.208933 -0.336048 0.385919 0.173871 0.116256 -0.211086 -0.34274 -0.120268 -0.417005 0.21081 0.187413 -0.254702 0.346868 -0.046348 0.059873 -0.083895 0.137232 -0.278259 -0.08382 -0.018465 0.085622 -0.042992 -0.09023 -0.316132 0.130176 0.197362 0.065879 0.013877 0.221552 0.209247 0.003621 0.081588 0.4903 -0.007351 0.221886 -0.121125 0.287593 -0.228892 0.14183 -0.19779 0.059909 0.06142 -0.206362 -0.027643 -0.156421 -0.203155 0.191055 0.024865 0.177117 0.074636 0.122038 -0.05496 0.149958 -0.05779 0.274229 0.356557 -0.066381 -0.219504 -0.039826 0.087946 0.362185 0.131075 -0.050972 0.349625 -0.366461 -0.015296 -0.069415 0.042528 -0.085491 -0.008897 0.04735 0.113546 0.045995 -0.082314 0.077557 -0.320041 -0.104866 0.214664 -0.25031 0.080607 -0.121553 0.208774 0.217292 -0.111483 -0.030004 0.120912 0.267617 0.114751 -0.105846 0.018772 0.143569 0.027904 -0.285345 0.039501 -0.108946 -0.054549 0.109515 -0.410469 0.034449 -0.24583 -0.125218 -0.122461 -0.110576 0.060444 -0.163009 -0.143453 -0.092634 -0.086166 0.227614 -0.050594 -0.199329 0.073835 0.180191 -0.168824 0.190774 -0.033255 -0.157334 0.079628 -0.202353 -0.062903 0.115744 -0.142294 -0.09085 -0.036154 -0.15425 -0.126387 -0.013787 0.107445 -0.012222 -0.199115 -0.045121 0.108031 0.124124 -0.169403 0.067722 0.090429 0.06804 0.385541 -0.09445 -0.045554 -0.203365 -0.345559 -0.075014 -0.081182 -0.252861 0.365314 0.019743 -0.110519 -0.169316 0.191743 -0.147209 0.02214 0.179911 -0.248613 0.009938 0.004106 0.021666 0.466067 0.005403 -0.007506 -0.1023 -0.040615 0.136825 -0.374779 5.96E-4 -0.137637 0.407123 0.297251 0.270217 0.289486 -0.261685 -4.95E-4 -0.077993 -0.222328 -0.037728 0.058126 0.135586 -0.215319 -0.043018 -0.08913 -0.2387 -0.053208 -0.078112 0.030249 0.197508 0.207288 0.124158 0.036032 0.146738 0.165701 -0.152865 -0.005671 0.097045 -0.126734 0.136214 -0.012895 -0.024188 0.327376 0.404769 0.107676 -0.078532 -0.061832 -0.280656 0.022625 -0.426543 0.045663 -0.074958 0.003069 -0.089987 0.188199 0.026494 -0.356863 -0.056909 0.030474 -0.127751 -0.3553 0.292111 -0.180016 -0.018688 -0.221614 -0.213662 0.06802 -0.164392 0.013708 -0.073216 -0.017831 0.12277 0.052552 0.052086 -0.245195 -0.118362 -0.007893 0.111784 0.031364 -0.147702 0.067598 -0.010596 0.136237 0.072768 -0.048415 -0.093398 0.18915 -0.182471 -0.058215 0.267954 -0.478456 -0.098498 -0.141975 0.076293 0.009732 0.045789 0.095318 0.125887 0.380898 -0.120971 -0.011885 0.033263 0.104147 0.269574 -0.008614 -0.015379 -0.286053 -0.249555 -0.059744 -0.0056 0.018599 0.249274 0.172317 0.290901 0.041782 0.174964 -0.239886 0.086216 0.432367 -0.005805 0.1124 0.03919 0.006047 -0.08932 0.25496 -0.069315 -0.115107 -0.244851 0.345459
mile 0.302435 0.099891 0.038878 -0.502612 0.037348 0.263059 -0.260207 -0.206371 -0.286006 -0.218678 -0.046423 -0.101306 0.485156 -0.098382 0.219089 0.154933 -0.153222 0.134929 -0.33612 -0.342962 -0.502635 -0.212629 -0.459024 -0.066859 -0.001064 -0.23707 -0.198287 -0.093129 0.111436 -0.137389 0.245522 -0.082077 0.206959 -0.004752 -0.145693 -0.131126 0.133266 0.338829 -0.341377 0.002459 -0.035788 0.062857 -0.094309 -0.237318 0.119795 0.03307 -0.158382 0.057167 -0.26717 -0.163192 0.411201 0.35054 -0.01744 -0.105598 0.107316 -0.217967 -0.211515 -0.3825 -0.028511 0.14089 0.317786 0.062259 -0.260774 0.388258 0.035096 -0.270546 -0.027937 0.03664 -0.179147 0.242601 -0.191919 0.377982 0.055288 -0.17064 -0.402979 0.039997 -0.062098 0.154027 0.253107 0.161685 -0.120294 -0.072531 0.063385 0.162109 0.363699 -0.223461 0.060949 0.221067 0.27199 0.189344 -0.306458 0.179295 0.036323 -0.068236 0.097827 0.002717 -0.158095 0.042844 0.298151 -0.320345 -0.091599 0.156086 0.107961 0.091246 -0.194106 0.185321 -0.164643 0.055289 0.133674 -0.019871 0.121735 -0.401643 0.127379 0.200534 0.187445 0.046253 -0.121743 -0.228698 -0.019473 0.143895 -0.077579 0.272264 0.302622 0.02945 0.191813 -0.204016 0.07236 0.179738 -0.11695 -0.104567 0.018507 0.319622 0.191217 -0.159134 0.022939 0.168153 0.139887 -0.172748 -0.061974 -0.115014 0.332384 -0.220625 -0.009541 -0.208669 -0.363305 0.015369 0.155239 -0.059727 -0.052981 0.40252 0.218877 0.288106 0.447277 0.233243 0.163582 -0.058155 0.110497 -0.281901 0.163437 -0.304217 0.512339 0.362944 -0.17807 -0.240366 -0.297218 0.02291 -0.00351 0.256317 -0.251707 0.11217 -0.085859 -0.103677 0.053429 -0.151089 -0.340995 0.186703 0.117263 0.007281 0.015696 9.43E-4 -0.084051 -0.463173 -0.058684 0.123289 -0.031258 -0.192174 0.034778 0.19273 0.233779 0.043314 -0.086706 -0.205504 0.251449 0.268726 -0.383031 0.026043 -0.0138 -0.162639 0.413945 0.23867 -0.290549 -0.013351 -0.267302 0.202395 0.22816 0.166108 0.232681 -0.013934 0.116977 -0.107643 0.279456 0.008816 -0.215154 0.606429 0.101714 0.285756 0.198249 0.530153 0.443769 0.018435 -0.045857 0.074112 0.121525 -0.216004 0.168461 0.089207 0.024689 -0.026055 -0.587238 -0.156666 -0.210442 0.349118 -0.148179 0.115933 0.061353 -0.175594 0.079057 0.295285 -0.016705 0.398512 -0.094878 -0.087316 0.132261 -0.060877 0.167453 0.250809 -0.023666 -0.396638 -0.136207 -0.036168 0.042788 0.077989 0.362068 -0.262023 0.061643 0.117342 0.044777 0.098827 -0.271142 -0.10764 0.142208 0.005436 -0.029642 0.087554 -0.026093 0.182274 -0.108906 -0.104812 0.322328 0.330496 -0.080053 0.238333 -0.221705 -0.277718 0.38572 -0.052485 -0.226202 -0.475348 -0.144491 -0.359062 -0.218031 0.074686 -0.263922 -0.046771 -0.353589 -0.13374 0.306821 -0.248951 0.128944 0.049266 -0.19926 -0.057565 0.073858 -0.078113 0.027833 0.137649 0.383668 -0.140893 -0.128382 0.117501
airport -0.210779 -0.180641 -0.031961 -0.15464 -0.02299 0.222243 0.031949 -0.129358 0.008048 0.095051 -0.034589 -0.175508 0.195981 -0.184511 0.086328 -0.337148 -0.048599 0.119648 -0.291237 -0.023798 -0.124273 -0.35047 -0.529181 -0.303375 -0.206833 -0.123808 -0.240199 0.050273 -0.019595 -0.173287 -0.03444 0.043998 -0.066326 -0.174323 0.306097 -0.022136 -0.12401 0.137274 -0.295522 0.030139 0.346196 -0.103091 0.13976 -0.154277 -0.047235 -0.10274 -0.283807 -0.16443 0.077302 0.204196 -0.302092 -0.015842 0.098839 0.007403 0.171186 0.238235 0.322179 -0.392976 0.10135 0.148268 0.119953 -0.116521 0.079012 0.131403 0.101055 -0.291772 0.325352 0.01576 0.301349 0.068739 0.220475 0.625659 0.1378 -0.094251 -0.325708 -0.436339 0.363491 0.272079 0.106897 -0.064897 0.053749 -0.135241 0.13568 -0.252608 -0.030078 -0.223655 0.048961 0.010714 -0.008637 0.268159 0.153322 -0.048874 0.00371 -0.041791 -0.26887 -0.283653 -0.11461 0.12084 -0.026886 -0.056389 -0.08184 0.091428 0.146677 -0.038764 0.107191 0.066431 -0.273421 0.38988 0.271686 0.049136 0.183706 -0.322737 -0.126357 -0.1852 -0.230837 -0.067786 0.048744 -0.02304 -0.35965 0.228137 -0.338292 -0.006041 0.160454 -0.038963 -0.337799 -0.032582 0.074597 0.162247 -0.153586 -0.079917 0.142809 0.027599 -0.058188 0.143865 0.167267 0.095581 0.20618 -0.076223 -0.368062 -0.042028 0.110385 -0.081917 -0.070217 0.20862 -0.1174 -0.199366 0.003627 -0.108379 0.136607 0.088232 0.21985 0.025023 0.220175 0.259158 0.203568 0.15681 0.040356 0.076487 -0.073623 0.019954 -0.264492 -0.243982 0.045462 0.032133 -0.166778 0.111713 0.116189 -0.071221 0.045903 -0.109052 0.168795 -0.095509 0.052551 0.109978 0.131977 -0.490408 -0.169953 0.012543 0.333047 0.112137 -0.244636 -0.19561 -0.014932 0.142133 -0.194726 0.131126 0.114497 0.153123 0.363226 0.324026 -0.142482 -0.335188 -0.023426 -0.120937 -0.216434 0.091948 0.111959 -0.091293 -0.187466 0.37479 0.011589 0.191202 -0.049453 0.159447 0.032288 0.24091 0.268806 0.14158 0.212785 -0.147133 0.220125 0.266292 0.281902 0.208243 0.274284 -0.262534 0.204617 0.211261 -0.036929 -0.336183 -0.284973 -0.005826 0.423502 0.216332 0.242162 0.143779 0.092854 0.228828 -0.128668 -0.215452 0.199166 -0.28017 -0.17255 0.110008 0.017411 -0.108179 -0.153153 0.292235 0.012442 -0.319811 0.078703 -0.289773 -0.267659 -0.073052 -0.267186 0.118844 -0.085006 -0.096991 -0.154002 0.234148 0.183914 0.21744 0.082136 0.049425 0.249648 0.321876 0.232933 -0.087543 0.109428 -0.066685 -0.093029 -0.214165 0.030022 0.1973 -0.157516 0.140266 0.348689 -0.503011 0.15348 0.150124 0.026118 0.067126 0.102643 -0.122284 -0.08635 -0.171686 -0.441331 0.102419 -0.082517 0.022951 0.251637 0.001751 0.063775 -0.047494 0.490637 -0.044036 -0.002978 -0.204895 -0.024652 0.009663 -0.405346 0.002204 0.259242 -0.023973 -0.351146 -0.06337 0.009296 0.12413 -0.141621 0.185473
population 0.121044 -0.027512 -0.100646 -0.07481 0.290215 -0.001537 -0.188101 0.006174 -0.380316 -0.222987 0.072351 -0.274237 0.106377 -0.18132 0.208971 -0.358707 -0.141491 0.056014 0.036739 -0.257906 -0.414415 0.020813 0.12341 -0.154947 -0.035866 0.045548 -0.246599 0.210463 0.123523 0.137714 0.166867 0.185238 -0.170857 0.377882 -0.294735 0.036309 -0.23638 0.105651 -0.027953 0.00197 0.151085 0.143002 0.106348 0.005983 -0.008128 0.007575 0.074852 -0.13185 0.017918 0.016882 -0.338677 -0.05396 -7.01E-4 -0.048678 0.104554 0.277785 0.254453 -0.205917 -0.159504 -0.16988 -0.297797 0.06235 0.369499 -0.27326 -0.005482 -0.342382 -0.053148 0.078488 -0.069934 0.029571 0.020624 0.115851 0.039545 -0.027032 0.120224 0.139959 0.093847 0.060809 0.027028 -0.054139 0.012057 -0.083263 -0.206373 0.028508 -0.067541 0.236742 0.068545 0.226666 -0.073293 -0.114215 -0.005195 0.081276 -0.054009 -0.152046 -0.0137 0.162845 -0.030684 -0.152777 0.214953 -0.084148 0.090699 0.098251 0.370176 0.236777 0.255951 -0.07855 0.109885 0.273329 -0.147862 0.259989 -0.028456 -0.08217 0.048753 0.32278 -0.072971 0.348456 0.16504 0.278275 0.201744 0.00753 0.051559 -0.21077 0.141415 -0.013554 0.083513 0.003459 0.347723 0.060969 -0.216 -0.141017 0.411345 -0.192533 -0.109629 -0.218951 -0.016574 -0.045599 0.065217 -0.034124 0.085097 0.047137 0.271273 -0.178841 0.032994 -0.271316 -0.344576 0.227243 -0.314349 -0.218962 0.178304 0.194186 0.167065 -0.123996 0.235922 -0.01843 -0.030049 0.038356 0.189722 -0.150829 0.069448 0.101727 0.005258 0.310058 0.690102 -0.089756 0.057059 -0.099874 0.15507 0.112046 -0.138189 -0.155523 -0.280011 0.017727 -0.415714 0.139001 -0.020528 0.390869 0.054774 0.050957 0.129036 -0.120019 -0.134407 0.208771 -0.257801 0.296028 -0.002661 0.18356 -0.283199 0.138938 -0.057814 0.054001 0.025427 -0.049261 -0.05673 -0.149844 -0.223886 -0.178519 -0.071636 -0.363584 0.140556 0.011063 0.04988 0.070707 -0.144276 -0.29384 0.297498 0.223529 0.095614 0.180426 0.051829 -0.006167 0.090134 -0.233572 0.011054 0.110836 0.014112 0.002208 0.168264 -0.011727 -0.05751 -0.214624 0.324941 0.260028 -0.133742 -0.319262 0.170776 0.288591 0.050806 0.002237 -0.042432 -0.004453 0.343037 0.207202 0.003277 -0.126318 0.180444 0.056286 -0.492403 -0.107045 -0.342749 0.245872 0.006749 0.044586 0.022037 -0.243626 -0.196493 0.177325 -0.367774 -0.125781 -0.013261 0.373513 -0.162281 -0.005712 -0.018195 0.219994 0.32486 0.304638 0.057397 -0.284491 0.045351 -0.058992 0.48421 -0.131708 -0.125719 0.303794 0.189037 -0.134473 -0.031694 -0.301376 0.141795 -0.083249 0.240044 0.099152 0.043788 -0.066235 0.112241 -0.14799 -0.067692 -0.379779 0.116984 -0.178884 0.34943 -0.101348 -0.096801 0.18312 -0.029859 0.163328 0.137214 -0.272203 -0.054231 0.323266 -0.492267 0.068511 -0.017027 -0.062726 0.022074 0.064112 -0.078104 0.045667 -0.196302 0.112358
planning -0.13297 -0.201137 -0.064865 0.104589 0.007909 0.142066 -0.26042 -0.377105 0.003537 0.096975 0.338598 0.033494 -0.010296 0.063995 -0.104664 0.019114 0.225154 0.309053 -0.071399 0.08442 0.004681 -0.039402 -0.245687 -0.329762 -0.174085 -0.071825 -0.076535 -0.028726 -0.060854 -0.210592 -0.177897 -0.053753 0.055141 -0.086005 0.171677 0.072487 -0.007402 -0.275908 0.094787 -0.373342 -0.123835 -0.244242 -0.072409 -0.338509 -0.065857 0.003659 -0.03139 -0.152775 0.147163 0.032647 -0.109677 0.060628 -0.037115 0.169471 -0.033043 0.133498 -0.103141 -0.024039 -0.020699 0.085138 -0.109044 -0.020566 -0.020455 0.100783 0.020439 0.029497 0.308891 0.143413 0.013342 -0.152331 0.012269 0.348185 -0.029173 0.037911 -0.183802 -0.085013 -0.024067 0.376445 -0.021433 -0.043534 0.015902 0.06802 0.054747 0.163542 0.278055 0.195708 -0.112233 0.031283 0.106472 -0.11949 -0.076618 0.083013 -0.11137 -0.056427 -0.065011 0.207147 0.069334 0.133586 0.027643 -0.066832 -0.026086 -0.038861 0.067026 0.113635 0.036073 0.290567 0.070136 -0.143488 -0.004998 0.055281 -0.339658 0.110506 0.021617 -0.210135 0.171681 0.145581 -0.105204 0.184399 -0.16326 -0.010845 -0.149633 -0.186944 -0.070986 -0.01774 0.044733 0.412345 0.233601 0.080662 -0.005544 -0.04122 -0.036675 -0.012031 -0.24727 0.076093 -0.170099 0.095356 0.058258 0.003259 -0.174926 0.054955 -0.034428 -0.032356 -0.026078 0.040159 0.171379 -0.023772 0.081249 -0.066703 -0.014359 -0.293228 -0.138206 0.0928 0.049046 0.081742 0.21474 -0.101762 0.29836 0.202327 -0.122239 0.176851 0.134561 -0.068422 0.120832 0.030376 0.247443 0.03659 0.154782 0.075834 0.208095 0.033809 -0.096434 -0.010615 0.087374 -0.049701 -0.199925 -0.01542 -0.315587 -0.070945 0.025744 -0.00624 -0.091237 -0.011358 0.060409 -0.309445 0.208681 -0.030979 -0.004637 -0.092939 0.152614 -0.031686 -0.035873 -0.168129 0.102811 0.102803 -0.24339 -0.195662 -0.064551 -0.00859 0.110652 0.063981 -0.057602 -0.050752 0.155154 0.137543 0.244638 0.076806 0.121007 0.245198 -0.057463 0.085183 0.161307 0.059383 0.132126 0.450467 0.046453 0.125431 -0.087923 0.272592 0.103547 -0.095721 -0.036902 0.029083 0.048722 -0.114013 0.06591 -0.105009 0.088224 -0.097277 -0.122438 0.004617 0.168348 -0.216291 0.176735 -0.184393 -0.198112 -0.21355 -0.027678 0.096104 -0.024744 -0.059892 -0.078568 0.049225 0.039434 -0.070723 0.103717 -0.380289 -0.051416 0.042755 0.160353 0.089022 0.152375 -0.099695 0.09006 0.243841 0.06106 0.005283 0.099733 0.001084 0.093874 -0.024168 -0.020324 -0.321151 -0.046069 0.206712 0.044632 -0.25595 -0.030956 -0.201299 0.059224 -0.046302 -0.290421 -0.286529 0.51838 0.015784 0.192639 0.065456 0.108304 0.006714 -0.105256 -0.200691 -0.152302 -0.205124 0.028059 0.211361 0.234348 0.165026 0.06319 -0.141375 -0.009116 0.10943 -0.209915 -0.027921 -0.020165 -0.119764 0.090588 0.091367 -0.071667 -0.060886 -0.245473 0.158992
canyon 0.286806 -0.246405 -0.098234 -0.374348 0.010947 0.321083 0.151148 -0.013705 -0.137809 -0.002533 0.235071 -0.390834 0.079678 -0.043239 -0.128789 -0.004462 -0.227214 0.335967 -0.216644 -0.159678 -0.384425 -0.568932 -0.059885 -0.280194 0.074025 -0.154737 -0.063678 -0.440755 0.234084 -0.351465 0.042346 -0.23461 0.18817 -0.164129 -0.041988 -0.248776 -0.111512 -0.109617 -0.130266 0.197224 -0.253274 0.154312 -0.075081 -0.183273 0.017998 -0.038293 -0.121475 0.364125 -0.220485 0.169426 0.016966 0.17356 0.167095 0.128619 -0.074853 -0.138509 0.359811 -0.23134 -0.183904 -0.159007 -0.260103 0.056036 0.075239 0.47744 -0.307266 -0.265934 0.111532 -0.003202 0.07148 -0.269735 -0.091235 0.238373 0.081347 0.059004 -0.367934 -0.023409 0.334539 -0.055364 -0.055799 -0.137664 -0.069225 -0.347532 0.132552 0.182232 0.390388 -0.0531 0.40319 -0.070011 0.362642 0.289698 -0.16892 -0.110274 -0.158811 -0.387186 0.332463 -0.034917 -0.295956 -0.16248 0.191496 -0.023622 -0.416435 0.181055 0.122543 0.109432 0.373315 -0.254821 -0.0232 0.158543 0.041327 -0.023469 0.235953 -0.124177 0.038786 -0.044359 0.456726 0.117433 0.085635 -0.157862 -0.169032 -0.049962 -0.058696 0.231494 0.248791 -0.078875 0.270853 0.115169 0.010902 -0.039834 -0.147057 -0.071197 0.213415 -0.002619 -0.044779 0.082177 -0.133041 0.050464 0.132516 -0.317932 -0.116996 0.192393 0.314526 -0.401125 -0.182108 -0.303682 0.108002 0.1464 0.389569 -0.236473 0.021698 0.077847 0.239005 0.142179 0.087934 0.411623 0.064844 -0.164234 0.009914 0.043763 -0.124582 0.080881 -0.074123 -0.053304 -0.184987 -0.033047 -0.255274 -0.176563 0.002428 0.231801 0.171474 0.123296 -0.134179 0.031123 -0.15523 -0.025488 0.12416 -0.017848 0.326969 0.06353 0.096379 -0.242127 -0.233157 0.14151 -0.064195 0.135603 -0.071757 -0.182491 -0.035256 0.156568 0.430035 -0.227657 -0.00554 -0.022411 -0.166612 0.101875 -0.091234 -0.099395 -0.109758 0.153932 0.486666 -0.077873 -0.12456 -0.243441 -0.196415 0.283672 0.078473 0.051852 -0.201504 -0.233952 0.020537 -0.033337 -0.049626 -0.289985 -0.161022 0.143818 -0.038221 -0.244951 0.366486 -0.147833 0.145726 -0.038734 0.096806 0.213683 0.216498 -0.369115 0.266407 0.244522 -0.213285 0.203776 0.021174 -0.132754 -0.118344 -0.04054 -0.113597 0.311147 0.242692 -0.008935 0.102957 0.148107 0.009221 0.577302 -0.206809 0.077315 -0.299939 0.021043 -0.110347 0.257215 -0.104509 -0.261134 -0.177669 0.087139 -0.05183 0.082465 0.063516 -0.144049 -0.049939 -0.166555 0.059887 -0.249757 -0.160544 -0.203407 0.263884 0.16871 0.1487 0.046013 0.013879 0.071212 0.171643 -0.377539 -0.002681 -0.179937 0.227739 0.376383 0.040687 0.014814 0.251969 0.13279 0.141953 -0.328085 -0.147859 0.044569 0.043894 -0.058104 0.189239 -0.039091 -0.428865 -0.125429 0.594233 -0.224624 0.009129 0.189781 7.6E-5 -0.173589 0.344293 0.293946 -0.136678 0.578323 0.223685 -0.180586 0.26041 -0.068012
delay -0.399613 0.328818 0.218807 -0.117419 0.085703 0.103556 0.015955 -0.104086 -0.204583 0.203078 -0.257153 -0.324962 0.007027 -0.059823 -0.165482 0.042998 -0.051527 0.047356 -0.033906 0.047017 0.139298 -0.298337 -0.256174 -0.115696 -0.224645 -0.219848 -0.076506 -0.081248 0.044778 0.041635 -0.034551 0.070313 0.133523 0.15986 -0.071366 -0.002255 0.171764 0.194258 -0.148943 0.023195 0.273699 -0.02144 -0.109712 -0.303789 -0.053408 0.068894 -0.058186 -0.188801 0.275524 0.012858 -0.075391 -0.032582 0.161696 -0.020103 0.001857 0.221641 0.173615 0.060677 -0.280164 -0.038871 0.165101 -0.026456 -0.219101 0.035585 0.128232 0.002802 0.383702 -0.086401 -0.049309 0.083697 0.020046 0.283707 0.050571 0.138233 -0.479845 -0.047962 0.233852 0.127745 -0.009321 -0.084022 0.032138 0.016239 0.222318 0.007949 0.13647 0.181021 0.124415 -0.113777 -0.10821 0.020603 0.119458 -0.051518 -0.144155 0.052688 -0.299933 0.230134 -0.26523 0.112938 -0.03911 -0.009119 0.042343 -0.123625 -0.101081 -0.062293 0.043635 0.012371 0.141956 -0.006301 -0.170375 -0.199597 0.046327 0.297478 0.02266 -0.273385 0.107683 -0.232791 -0.119188 -0.099384 -0.029892 -0.025055 -0.166417 0.038829 -0.19927 -0.136132 -0.065218 0.174461 -0.020308 0.204527 -0.152024 0.017879 -0.168165 0.038705 -0.012796 0.140756 -0.199189 -0.08868 0.03077 -0.092948 -0.132786 0.207179 -0.108101 -0.114691 0.153102 0.242324 -0.193086 -0.184673 -0.206619 0.063135 0.398115 -0.301356 -0.07226 0.013353 -0.234153 0.019132 0.09099 0.016495 -0.116814 0.204049 0.033625 -0.025062 -0.008357 -0.285661 9.68E-4 0.006546 -0.113806 -0.01815 0.071693 -0.156309 0.140513 -0.193272 0.150641 0.118025 0.092237 -0.001257 -0.214035 -0.029257 -0.259097 0.046186 0.138609 -0.017775 -0.12332 -0.036967 0.073397 0.072614 0.192009 0.138201 -0.219774 0.063879 0.337849 -0.023637 0.048069 0.193376 0.085433 -0.20845 -0.009959 -0.165554 -0.023722 -0.003216 -0.005075 0.206699 0.305601 0.100217 -0.063769 -0.05222 0.20488 0.084811 0.112277 0.194161 -0.164617 -0.086044 0.229449 -0.008441 0.337424 0.352025 -0.008751 -0.004839 -0.194793 0.073438 -0.083471 -0.097987 7.86E-4 0.192153 -0.033674 -0.167343 0.049211 -0.128035 0.066709 -0.162558 0.087305 0.165439 -0.068843 -0.295806 0.172384 0.161676 -0.172761 0.100669 -0.14115 0.026759 -0.170605 0.187925 0.036196 -0.0448 -0.103894 -0.283304 0.139764 -0.286364 -0.342247 -0.243868 0.343423 0.112466 0.144833 -0.258525 0.124605 0.070128 0.006826 0.161858 0.162541 0.077714 -0.093893 0.040111 0.157995 -0.045276 -0.190866 -0.175807 0.058793 -0.055473 -0.35655 0.254774 -0.010817 -0.139826 -0.04715 0.018885 0.137231 0.098158 -0.031527 0.121514 -0.146862 -0.32846 -0.147139 -0.311476 -0.071417 0.209483 -0.069227 0.188645 0.217036 0.241915 0.112966 -0.106679 -0.081811 0.253437 -0.082251 0.12189 -0.149919 0.025195 -0.122914 0.298863 -0.044592 -0.31268 -0.110266 0.295615
size 0.045768 -0.197211 -0.093509 -0.126584 0.138664 0.045888 -0.165864 -0.327419 -0.010595 -0.24916 -0.031485 -0.048561 0.202033 0.189394 -0.062495 -0.418419 0.221988 0.157 5.17E-4 -0.250407 -0.239669 -0.06202 -0.14112 0.123482 -0.102084 0.123277 -0.135141 -0.182684 -0.104408 0.087959 -0.025124 0.12219 -0.287121 0.021722 -0.01697 0.123101 0.009977 0.153925 -0.062208 0.444776 0.124764 -0.182074 -0.108364 0.04773 0.072555 -0.220459 0.156038 0.004766 0.129723 -0.067962 -0.126908 -0.180179 -0.062605 0.033937 -0.023008 0.16994 0.021464 -0.024937 -0.166491 -0.113004 0.056073 -0.133774 -0.022714 -0.064026 0.2164 -0.151356 -0.081528 0.154218 0.228556 -0.071003 -0.012648 0.171645 -0.013108 -0.121586 0.08234 -0.066612 0.439199 -0.173798 -0.150016 -0.125504 0.147617 -0.261407 -0.266061 0.233149 -0.008591 0.140834 0.07084 0.092329 0.146788 0.056877 -0.146328 0.297962 -0.031502 0.058234 0.10379 0.135595 0.03593 -0.042386 -0.036169 -0.034063 0.222578 0.173098 0.261404 0.169206 0.109871 0.224346 0.130772 0.178196 -0.126962 0.161448 0.152104 0.043966 0.053277 0.184273 0.091684 0.010209 0.236578 -0.079167 0.358229 -0.026026 -0.101768 -0.001186 0.108123 -0.052705 0.027696 -0.034481 -0.019131 0.173807 -0.277251 -0.283509 -0.008316 -0.013877 0.035778 0.08086 0.031039 -0.16109 0.050625 -0.21947 -3.26E-4 -0.09139 -0.129405 0.083953 -0.113866 -0.071205 -0.282854 0.13287 0.111276 -0.016863 -0.013242 0.437271 0.170164 0.086163 0.193505 -0.233863 0.225249 -0.072268 0.137667 -0.086257 -0.023299 0.156772 -0.248672 0.284038 0.199141 -0.041589 -0.052682 0.291189 0.011719 -0.044563 -0.062259 -0.258129 -0.108805 -0.349715 -0.047001 0.218038 -0.100859 0.210662 0.076763 0.133476 0.28323 -0.116835 -0.168935 -0.112686 -0.23295 -0.125433 0.250272 0.086947 -0.285952 0.160317 0.259407 -0.03609 0.005388 -0.252441 -0.143861 -0.252296 0.016416 -0.086544 0.145165 -0.546415 0.164856 0.071736 0.091592 -0.026537 -0.119997 -0.111914 0.107832 0.07888 -0.05305 -0.038491 0.211136 -0.046719 0.202577 0.075883 -0.170405 0.019228 0.205172 0.068783 0.155605 0.151581 -0.044167 -0.142688 0.026044 0.143826 -0.189311 -0.129389 0.288635 0.073252 0.159764 -4.33E-4 -0.003099 -0.095962 -0.34827 -0.093472 0.005532 -0.001784 0.061545 0.298454 -0.093832 0.008914 -0.20464 0.252758 0.01151 0.024765 0.106504 -0.037183 0.078932 -0.249394 0.046537 -0.301139 -0.026213 0.066033 -0.160855 -0.274724 0.140631 -0.051593 0.41277 -0.092279 0.034299 -0.256167 0.12081 0.377844 0.23114 -0.186004 -0.103645 -0.032558 0.086282 -0.09017 0.135986 -0.025698 0.114238 -0.056226 -0.033108 0.080807 0.092015 0.11175 0.376248 -0.09108 -0.009992 -0.097361 -0.009812 -0.319698 0.087732 0.020241 0.043061 0.164657 -0.31929 -0.022039 0.048511 -0.114887 -0.083201 0.403242 -0.377773 -0.095393 -0.088633 0.027283 0.043702 0.160675 0.186769 -0.272097 -0.038547 0.042313
peace -0.206484 0.12099 -0.1676 0.022389 0.002858 -0.169012 0.137501 0.162507 0.065224 -0.123991 -0.100877 -0.389226 0.209245 0.136515 -0.174694 -0.266964 -0.211735 -0.281577 0.233088 0.152936 -0.07718 0.002282 -0.129935 -0.2792 0.341439 0.260764 -0.177239 0.173298 -0.001724 -0.378283 0.066297 -0.138161 0.319628 0.032976 0.048799 -0.516597 0.440482 -0.372322 -0.127884 -0.183602 0.26973 0.491201 0.055742 -0.166546 -0.061511 0.364034 -0.419365 -0.373577 0.095426 0.436453 0.072493 0.489365 -0.28989 0.100433 0.188846 -0.008949 0.121191 -0.123893 -0.126349 -0.172171 0.109616 -0.123161 0.082642 0.284409 0.027919 0.019851 0.158989 -0.35804 -0.15982 0.042949 0.046961 0.13133 -0.204665 -0.06123 0.271427 0.199314 0.501277 -0.098121 0.104895 0.277193 0.44176 -0.111761 0.134519 0.166189 -0.177644 -0.182134 0.26019 -0.01611 0.102956 -0.022891 -0.285442 -0.111795 0.541941 0.401931 -0.335031 -0.278481 0.054353 -0.121569 0.223722 -0.176545 0.002455 0.393323 0.203858 0.089655 0.544484 -0.221482 -0.037153 0.377137 0.12084 0.133269 0.13405 -0.011556 0.385371 -0.123418 0.153291 -0.196457 0.010017 0.556335 0.06772 0.230624 0.054624 -0.012489 -0.212363 0.04228 0.21502 0.226167 0.145054 0.111879 0.009325 0.005432 0.021863 0.176852 0.118906 -0.004946 -0.139833 0.079219 0.08417 -0.206273 -0.148149 -0.168725 -0.00514 -0.183561 -0.036067 0.284787 -0.003061 0.162701 0.348818 0.291429 0.042632 -0.504622 -0.032637 0.020078 -0.453535 0.235819 -0.32645 0.097395 0.215615 0.063518 -0.282429 -0.175055 0.397574 -0.220272 -0.137169 -0.009892 0.231525 -0.484639 0.218379 0.338548 0.058157 -0.32448 0.171151 0.214197 -0.09128 0.037699 -0.235248 0.34813 -0.484162 0.079356 0.320283 -0.145883 0.321143 -0.047477 -0.427185 0.154426 -0.017312 0.303056 1.31E-4 0.214049 0.380389 0.27702 -0.133146 -0.107713 -0.178674 -0.028186 -0.260227 -0.077822 0.176413 -0.122164 0.426844 0.469481 -0.226423 0.288335 0.342432 0.073033 0.219397 0.153503 -0.034805 0.069161 -0.05914 0.136649 -0.282023 0.149796 0.078733 0.238801 0.361515 -0.403461 0.124235 0.016056 -0.415832 0.105939 0.346373 0.025709 -0.104118 -0.356514 0.170242 -0.070469 0.479763 0.255202 -0.359691 0.139446 -0.015898 -0.435017 0.511021 0.271914 0.208158 -0.221613 -0.09867 -0.022946 -0.151085 -0.143933 0.168826 0.239228 0.080387 0.012982 0.260825 -0.575528 -0.14901 -0.058996 -9.33E-4 0.059505 -0.493951 0.472853 -0.053169 0.068145 -0.139482 0.173502 0.024994 -0.135224 -0.282431 0.280473 0.152803 -0.018173 -0.041301 0.008688 0.133402 -0.057764 -0.091743 -0.088526 0.312432 0.155977 0.256636 0.034629 -0.107533 -0.329341 -0.036556 0.01314 0.058573 -0.330419 -0.033184 0.125186 0.075112 -0.144093 0.075614 0.357107 0.440606 0.1504 0.658548 0.105636 -0.198497 -0.021432 -0.114968 0.063495 -0.129372 -0.218344 -0.363531 0.118533 0.30201 -0.109784 -0.127514 0.238548
science -0.111366 -0.025368 0.305964 -0.159468 0.068073 -0.321437 -0.137186 -0.149804 -0.236005 0.044386 -0.15398 -0.01892 0.009446 0.277659 -0.18765 -0.017664 -0.079717 -0.040856 0.349893 0.033284 -0.06253 -0.209476 -0.060515 -0.06439 -0.104909 0.089833 -0.034619 -0.193999 -0.03801 -0.310765 -0.1664 -0.104201 -0.071566 0.246824 0.285325 0.15706 -0.047233 -0.058007 0.181616 0.061458 -0.015566 -0.06215 -0.163379 -0.102372 0.190676 -0.302633 -0.027356 -0.142511 0.23831 -0.02241 0.11502 0.07532 0.085529 0.035507 0.173305 0.046273 -0.298968 0.114165 0.116006 -0.321875 -0.224637 0.03798 -0.039856 0.158507 0.173065 -0.163599 0.009034 -0.149596 -0.366684 -0.154401 0.268037 0.14882 -0.079839 -0.261486 0.13736 0.302656 0.136104 0.020371 -0.097168 0.257886 -0.108624 -0.327199 0.020011 -0.120957 0.193212 -0.047648 -0.24556 -0.186351 0.221233 -0.019939 0.001623 0.073666 -0.145334 -0.076156 0.229885 -0.228605 0.122999 0.035326 0.030328 -0.022712 0.026102 0.003957 0.097675 -0.166719 0.499935 -0.118433 -0.023383 0.10609 -0.163153 0.376643 -0.139885 -0.121371 -0.139558 -0.15797 -0.169327 -0.052038 0.092183 -0.047751 -0.276476 -0.231127 -0.255802 0.169308 -0.231863 -0.113146 -0.143761 0.196424 0.151708 -0.141937 -0.247691 -0.065105 -0.008497 -0.020527 -0.321109 0.091678 0.231786 0.044861 0.180146 0.094018 -0.164034 0.016169 -0.325302 -0.081855 0.022875 -0.13019 -0.219909 0.056345 -0.236041 -0.110394 -0.03478 -0.10423 0.165583 0.078994 -0.04061 -0.063021 0.072165 0.013996 0.144718 0.227344 -0.160137 0.0722 0.276271 -0.150803 0.120772 -0.091371 0.087577 -0.047151 0.082142 -0.018935 -0.046762 0.061527 -0.221558 0.151034 0.151896 -0.165981 0.197187 0.148273 0.006297 0.296023 -0.131289 0.071211 0.073376 0.297101 -0.23932 0.044939 -0.103423 -0.199199 0.05856 -0.1491 0.113908 -0.199258 -0.045568 -0.214897 -0.18401 -0.126372 -0.162142 0.022514 0.039141 -0.290935 0.492029 0.354564 -0.132674 -0.221808 0.337822 0.251391 -0.024987 0.411459 -0.376702 0.269304 0.142547 0.130999 0.093086 0.050242 -0.06295 0.308252 0.098883 -0.061443 0.105269 0.039072 -0.318813 -0.11597 0.222507 0.027249 0.005562 -0.359783 -0.233827 0.2548 0.149428 -0.025214 -0.03739 0.067026 0.027715 -0.020836 0.074726 0.191234 0.323221 0.04043 0.088553 0.080991 -0.141885 -0.062063 0.131386 -0.160097 0.02493 -0.013855 4.81E-4 -0.295796 -0.075969 0.211803 0.326274 -0.282066 -0.178585 -0.06511 -0.119569 0.082116 0.231107 0.455918 -0.327681 -0.200423 0.255864 -0.117237 0.016407 -0.002013 -0.027381 0.177515 -0.109677 -0.216127 0.112473 0.047641 0.152921 0.305646 -0.401846 0.278534 -0.072324 -0.101398 0.048789 0.225495 -0.165191 -0.138373 0.048634 0.061302 0.418263 0.139249 -0.159053 -0.067605 0.102918 0.202119 0.377745 -0.255777 0.269526 -0.085258 -0.337152 0.207757 -0.014857 0.138193 0.092486 0.218493 0.008251 -0.026201 0.539177 0.200773
dawn -0.02321 0.125527 0.138527 0.275731 -0.245735 -0.045117 0.121504 -0.160397 -0.533833 0.02395 -0.009186 0.19846 0.153745 -0.011116 0.108503 -0.099061 0.019291 -0.225792 -0.128479 0.125641 0.06056 0.145786 -0.410164 -0.481882 0.079306 0.059349 0.500823 -0.020525 -0.094594 0.009053 0.126413 -0.301344 0.158473 -0.403603 0.189831 -0.073883 -0.060891 0.009497 -0.027614 -0.129172 0.314164 0.108434 -0.027876 0.067889 -0.022257 0.114577 -0.089017 0.121168 -0.012569 -0.186195 0.086439 0.140756 0.247629 0.101327 0.371887 0.223416 0.379873 -0.233201 -0.293089 -0.238714 0.383452 0.022826 0.09399 0.194371 -0.155866 -0.233065 -0.037332 -0.098378 -0.107679 -0.16697 0.071876 0.185097 -0.238857 0.150818 0.072409 0.020226 0.409501 0.287961 -0.222878 -0.013584 -0.154713 -0.207884 -0.043073 0.173728 -0.069269 0.001777 0.144278 0.152814 0.088151 0.054576 -0.095883 -0.004906 0.114149 0.301335 -0.089999 0.045353 0.076382 -0.009051 0.336847 -0.083745 -0.132289 -0.015253 -0.011435 0.025423 -0.047298 0.242065 0.157932 0.390736 0.143982 0.457513 0.129336 -0.12789 -0.403134 -0.043995 0.019232 -0.0315 0.328756 -0.053002 -0.276939 -0.084439 -0.301508 0.297502 -0.268675 -0.129191 -0.159258 0.084534 -0.121215 0.29662 -0.403021 0.050003 -0.227192 0.047327 0.066122 0.145208 0.123541 0.011902 0.123629 -0.072046 -0.171326 0.323826 0.007883 0.088922 -0.00531 -0.057732 0.164715 0.010409 0.16746 -0.043599 -0.128739 -0.15594 0.350795 -0.050156 -0.136874 0.327161 0.161896 0.255895 0.082944 -0.108869 -0.186925 -0.194456 -0.032216 -0.114235 -0.080771 -0.331306 -0.164173 0.110797 -0.051995 0.09373 0.040631 -0.098248 0.105216 0.00716 -0.020201 0.255643 0.091818 0.0155 0.058987 -0.206458 -0.082957 -0.036249 -0.237491 0.258761 -0.006773 -0.012931 -0.197101 0.322136 0.141652 -0.038161 -0.022901 0.267059 0.239471 0.103301 -0.010524 0.259449 -0.063893 0.108938 0.072216 0.120694 0.338729 -0.283541 -0.266026 -0.135991 0.220406 0.134359 0.168838 0.242306 0.072976 -0.12445 -0.114352 -0.287983 0.094202 0.093703 -9.67E-4 0.269518 0.073386 -0.013359 0.027359 -0.068699 -0.086652 -0.033232 -0.356977 0.024336 0.222411 -0.079525 0.221738 0.229538 0.025192 0.088156 0.010319 0.191206 0.012885 0.367961 -0.117575 0.274773 -0.163686 -0.212942 0.081388 0.190736 -0.379257 0.195928 0.115932 0.092455 -0.115951 -0.096096 -0.056292 -0.004655 0.030063 0.196424 0.068659 0.148225 -0.102476 0.254968 0.155203 -0.020379 0.155078 0.109767 0.17562 -0.167429 0.0055 -0.283077 0.208281 0.075749 -0.368584 -0.172166 0.125661 0.059608 0.258406 -0.270158 0.124514 0.373106 -0.075052 0.186319 -0.099738 0.12131 0.08795 0.064169 -0.069199 -0.095883 -0.3967 -0.197936 0.057879 -0.127582 0.014182 -0.028339 0.158216 -0.429781 0.20913 -0.227046 0.048666 0.329794 0.024068 -0.063561 0.329767 -0.300962 0.007134 0.300374 -0.194495 -0.044047 -0.523328 0.355309
brother -0.31756 0.078806 0.004182 0.116949 0.019861 0.076701 0.054288 0.044943 0.05016 0.255343 0.263514 -0.134817 0.012173 -0.040209 -0.132462 0.042828 0.134539 0.251838 0.143523 0.041411 0.002882 -0.059568 -0.145637 -0.348324 -0.187744 -0.104381 -0.053628 -0.156289 0.178461 -0.230168 0.055455 0.147358 -0.031268 0.034775 -0.133332 0.031762 -0.193549 -0.021899 -0.135528 -0.108533 0.288396 -0.115292 -0.046514 0.090718 0.161473 -0.144249 -0.165905 -0.130712 0.050341 -0.081265 -0.09676 0.167293 0.045583 0.007685 0.378758 0.158384 0.087256 -0.038005 -0.019458 0.091355 -0.060771 -0.13812 0.011884 0.147342 0.065265 -0.146478 -0.248899 0.39483 0.252786 0.02952 0.036184 0.038428 0.173615 0.148333 0.207103 -0.072216 -0.194109 -0.16834 -0.028801 0.271842 0.122677 -0.491681 0.49941 0.332922 -0.336138 -0.075538 0.28147 0.268323 -0.119575 0.248239 0.141504 0.123308 0.157344 -0.066815 -0.373874 0.050797 -0.162652 0.170203 -0.066199 0.079016 -0.082564 0.109884 0.071233 0.329244 -0.003754 0.045116 0.334288 -0.190188 0.370364 0.278187 -0.013271 -0.23746 0.008282 -0.157167 0.052958 -0.128102 0.149226 -0.074407 0.097276 -0.144843 -0.200442 0.008316 -0.29098 0.152091 0.255281 -0.079126 0.063458 0.413209 0.087469 -0.24533 -0.035989 -0.059987 0.091475 -0.01068 -0.302257 -0.289749 0.153001 0.209724 -0.234734 -0.029026 -0.028554 -0.299097 -0.00859 0.182002 -0.00196 -0.26598 -0.129402 -0.068503 -0.207232 -0.060662 -0.385586 -0.0618 0.075015 -0.017518 -0.180549 -0.181762 0.330228 0.044494 -0.211793 -0.290057 0.129233 -0.069227 -0.058047 -0.05418 0.163006 0.108608 -0.204459 0.053365 -0.17922 0.219096 -0.284046 -0.20905 -0.042707 0.129487 0.171932 -0.18214 -0.142752 -0.083849 0.256816 -0.218219 0.024873 -0.009847 0.368288 0.144619 -0.112737 -0.232499 0.071764 0.364548 -0.131497 -0.359983 0.215647 -0.279398 0.188549 0.131963 0.186424 0.042444 -0.144924 0.061147 0.249265 -0.033135 -0.014571 0.038441 -0.110376 0.09614 -0.085717 0.133256 -0.142331 0.074272 -0.32529 -0.353188 0.208073 -0.288676 0.162665 0.025972 0.252863 -0.124126 -0.131665 -0.084044 0.138233 0.091043 -0.01089 0.154487 0.099849 0.220119 -0.256962 -0.410956 0.275427 0.245667 0.150665 -0.182578 -0.128358 0.034805 -0.176228 0.048668 -6.1E-5 0.06603 -0.1261 -0.215909 0.036999 0.08315 -0.089901 -0.130568 0.003838 0.122654 0.363785 -0.268754 -0.225305 0.016005 0.222128 0.204811 -0.004931 -0.081236 -0.294611 0.239103 -0.091662 -0.062258 0.284244 -0.352484 0.146896 -0.234499 0.163988 -0.258085 -0.015944 0.256242 0.046427 -0.079942 0.102304 -0.0254 -0.017186 -0.259703 -0.294555 0.075556 0.025859 -0.111214 0.094204 -0.151093 -0.183307 -0.438033 0.156173 0.270908 -0.050607 -0.119798 0.031292 -6.23E-4 0.107733 -0.016012 -0.154745 -0.09046 -0.191877 0.010201 -0.108045 -0.299691 -0.195104 -0.153599 -0.126384 0.122829 0.017432 -0.047494 0.093191 -0.159613
wine 0.123694 0.030101 -0.031899 -0.2222 -0.010134 -0.067808 0.035503 -0.281222 0.003679 0.231256 -0.071803 -0.202702 0.008795 0.540995 0.287351 -0.19009 -0.103582 0.0359 -0.243486 -0.610972 -0.30161 0.052865 -0.23489 -0.402962 0.371365 -0.059104 -0.011187 -0.359062 0.467357 -0.214565 -0.346099 0.16245 0.188119 -0.225992 0.011214 -0.070892 -0.42974 -0.010943 0.297187 0.245937 0.245425 -0.114243 -0.069651 -0.028445 -0.004 -0.197347 -0.342868 0.05264 0.040729 0.012574 0.091227 0.118443 -0.096572 0.405411 0.104718 -0.235801 0.110245 0.156533 -0.211492 0.007495 -0.29795 0.106506 -0.169163 0.173112 0.002424 -0.133402 -0.089164 -0.202143 -0.018551 -0.161494 0.067605 0.050317 0.121677 -0.093307 -0.002679 -0.087217 0.350383 -0.067509 -0.07484 -0.023341 0.14741 -0.182659 0.066789 0.02719 0.028734 -0.072502 -0.004836 0.186157 0.065619 -0.062276 0.083861 -0.160056 0.071953 0.341972 -0.298333 0.032722 -0.040437 0.051454 0.007651 -0.162519 0.474508 -0.015678 0.039872 -0.520777 0.022269 -0.22464 0.153708 0.055348 -0.001526 0.061647 -0.199545 0.105377 0.028175 0.239107 -0.106522 0.059903 0.356257 -0.117096 -0.163865 0.29278 -0.070132 -0.040567 -0.05326 0.062081 0.07647 0.049634 0.065524 0.229061 -0.291776 -0.042596 0.124262 0.116034 0.102092 0.133906 -0.102238 -0.355116 -0.106341 -0.211749 0.011042 -0.053868 -0.016021 -0.110956 0.003708 0.049125 0.109105 -0.159487 0.035441 0.30175 0.165732 0.224777 -0.010665 0.275729 0.012786 0.210846 -0.201049 -0.333289 0.224731 0.125514 0.340496 0.313448 -0.29303 0.073293 -0.049928 -0.122845 0.224951 -0.200152 0.279171 0.002838 0.107606 0.029596 -0.21403 -0.173024 -0.035201 0.475248 -0.059011 0.133882 -0.042526 0.245039 0.239537 -0.142413 -0.332074 0.18131 -0.540003 0.15529 0.184469 -0.145572 -0.296129 -0.00451 -0.224447 -0.033926 0.327026 -0.08957 -0.220338 -0.005073 -0.46089 0.150536 -0.031153 -0.185412 0.328166 0.07173 -0.527077 -0.029926 -0.061484 0.284327 0.221429 0.308535 0.216987 -0.239799 -0.11364 -0.220145 -0.010085 -0.018081 -0.166534 0.111145 0.237074 0.004644 -0.02461 -0.201411 0.064148 0.10373 0.108725 -0.027758 0.062566 0.119686 0.020529 0.041716 -0.153535 -0.069217 -0.002148 -0.150406 -0.136896 0.043416 0.290459 -0.222703 0.035126 0.261267 -0.060287 -0.09151 -0.230056 0.039073 -0.05399 0.070401 -0.081439 -0.134958 0.09712 -0.001614 0.108692 -0.121341 -0.194999 0.153292 0.178884 0.091661 0.253172 -0.091294 0.088634 0.209683 -0.25588 -0.162017 0.114186 -0.434616 0.068745 0.262206 0.056228 0.019888 -0.009954 0.048097 0.003977 -0.051687 0.195735 -0.145126 -0.167375 -0.003773 0.010568 -0.126104 -0.108692 0.168036 0.265912 0.067183 0.317594 -0.247883 0.13512 -0.230591 0.004696 -0.241572 0.239923 0.181671 0.079786 -0.03572 -0.102843 0.105922 -0.050355 -0.063681 0.179459 0.101941 -0.234158 -0.220518 -0.005159 0.069206 0.110402 0.143494
object -0.180865 -0.168294 0.327318 -0.125317 0.072775 -0.02045 0.26217 -0.226265 -0.080613 0.268764 -0.075153 -0.004119 0.159541 0.076772 -0.02479 0.116032 0.016197 -0.042177 -0.054677 0.004002 0.029667 0.049745 -0.241874 -0.001459 0.082374 -0.034892 0.013634 -0.056705 0.046166 0.038728 -0.362582 -0.012805 0.053377 -0.009287 -0.009117 0.168495 -0.232583 0.068533 0.014466 0.149228 0.27767 -0.171933 0.175249 -0.187953 -0.059379 -0.32169 -0.062472 -0.037427 0.098707 0.172963 0.003204 -0.008716 -0.073947 -0.099664 0.103004 0.199598 0.050933 -0.106141 -0.220055 -0.313339 -0.143006 -0.043066 -0.047295 0.164099 0.13772 0.035721 0.251675 -0.189794 0.267228 0.152327 -0.082457 0.194314 0.214365 0.06847 -0.061036 -0.043207 0.108406 -0.028011 0.04162 -0.061266 0.189342 -0.354189 0.016994 0.173269 -0.152305 -0.048201 0.043401 -0.015653 0.029118 -0.034679 -0.141954 0.144814 -0.295245 -0.116268 -0.013373 -0.16853 0.031986 0.02222 0.119405 0.080222 -0.018442 -0.083167 -0.031738 -0.107571 0.055998 -0.002126 -0.032621 0.025385 0.084453 0.027748 -0.108598 -0.135877 -0.060111 0.00527 0.083729 0.013544 0.090293 -0.162825 -0.016517 0.013763 -0.070763 -0.092289 -0.00601 -0.05943 0.226715 0.085578 -0.153807 -0.062488 -0.127537 -0.078213 -0.087802 0.161305 -0.115709 0.155591 -0.259745 0.268615 0.091243 -0.051474 -0.103681 -0.061008 -0.154385 -0.006554 0.195444 -0.169137 -0.122884 0.113266 -0.065549 -0.045497 0.382632 0.124667 0.304352 0.073267 -0.031353 0.052309 0.365835 0.161364 -0.007773 -0.256504 0.00486 0.201984 -0.166537 -0.19417 0.273599 -0.097076 -0.161512 -0.023767 -0.18092 0.08462 -0.053018 0.096453 0.046173 0.071797 0.26571 -0.130377 0.100606 -0.026577 -0.015701 0.11577 -0.105943 -0.052199 0.019671 -0.158802 -0.064494 0.173079 0.183413 0.06142 -0.076095 -0.122965 0.157775 0.041867 0.148041 0.179547 -0.164747 0.034431 0.00626 -0.027781 0.085631 -0.046568 0.210304 -0.094768 -0.109133 -0.119321 -0.001346 0.364315 0.017504 -0.029138 -0.226855 0.104691 0.054328 0.09416 0.206804 -0.173723 -0.083904 0.067342 0.208662 -0.163883 0.163119 0.248889 -0.084046 -0.171993 -0.09568 -0.039509 -0.033001 -0.091423 -0.051401 0.144355 0.105482 -0.05801 -0.13345 0.041949 -0.237439 -0.261816 0.049052 0.062332 0.254688 0.026772 0.102855 -0.142352 0.014622 0.217112 -0.009577 0.111585 -0.15709 -0.029219 0.194963 -0.28958 0.176768 0.180536 0.137635 0.012209 0.155396 -0.051282 0.106828 -0.011682 0.003538 -0.121793 0.256825 -0.184463 -0.148597 0.084734 0.135499 0.085177 -0.010083 0.102485 0.16625 -0.085202 0.125579 -0.373859 0.103338 0.047059 -0.020911 -0.045642 -0.028749 -0.065476 -0.026281 -0.076186 0.103467 -0.28204 0.086362 -0.184108 0.309363 0.143972 -5.5E-4 0.058367 -0.195678 0.078433 0.388426 -0.009843 0.019908 0.437903 -0.390023 -0.084711 0.007591 0.160659 0.159069 0.218141 -0.147884 -0.280593 0.003575 -0.02747
attitude -0.08269 0.031616 0.056261 0.129527 -0.24543 -0.025864 0.14965 -0.010644 0.014192 0.044119 -0.011309 -0.347202 -0.093853 -0.049095 -0.078422 -0.160008 -0.139982 -0.048313 -0.122404 0.110181 0.055753 0.204314 -0.0092 0.082643 -0.035179 -0.015512 -0.029876 -0.053687 0.15391 -0.164103 -0.454721 -0.02844 -0.252802 -0.147635 -0.429811 -0.050212 -0.08736 -0.037846 0.10665 0.082761 0.033842 0.429871 -0.064498 0.298785 0.016063 -0.085876 0.087569 -0.095387 0.181029 0.187649 0.061103 -0.079078 0.342982 -0.126306 0.001971 0.036569 0.346581 -0.046234 -0.180184 -0.077621 -0.118642 0.066015 0.212108 0.128583 0.037148 0.029836 -0.0147 -0.229146 0.074214 -0.087489 0.147976 0.153595 -0.106753 -0.140799 0.035067 -0.136966 -0.061809 -0.100888 0.005318 0.225928 0.296443 -0.173975 0.077928 0.373002 -0.071434 -0.040981 -0.187695 0.076644 0.209177 -0.091919 -0.06677 0.023014 0.048777 0.020998 -0.237906 -0.286719 0.139582 0.002607 0.020415 -0.133135 -0.003154 0.228043 -0.053354 0.160425 0.016762 0.20859 -0.136276 0.079143 -0.048985 -0.212218 0.136949 -0.253792 0.015168 0.04586 0.009767 -0.018691 0.441546 0.048915 -0.060372 -0.020207 -0.115379 -0.207143 -0.016794 0.148462 -0.164788 0.194997 -0.156191 -0.205699 -0.162303 0.106457 0.057472 0.010403 -0.178674 -0.113196 0.150752 -0.249275 0.352651 0.014788 0.107063 -0.079748 0.177179 -0.154782 -0.020207 -0.091462 -0.036619 0.1348 -0.246664 0.013113 0.114494 0.150811 0.114894 0.041778 0.031538 -0.136158 0.066743 -0.028499 0.236259 0.05302 0.110085 0.131391 -0.166654 -0.100327 -0.175891 -0.210331 -0.092057 0.067537 -0.137132 -0.0062 -0.411817 0.202343 0.112135 -0.095687 0.042388 0.174305 -0.159879 -0.14366 0.09382 -0.148939 0.126118 -0.168006 0.010263 0.148024 0.130794 0.307142 0.055383 0.244793 -0.068486 -0.066961 0.127943 -0.196483 0.187895 0.087189 0.112087 -0.146858 -0.182454 -0.022199 -0.064558 0.002205 0.154283 0.150764 0.056487 -0.211998 0.381071 -0.054357 -0.020482 0.012096 0.177879 -0.05996 -0.23474 0.131161 0.11983 0.001378 0.16742 0.315909 0.049783 0.02208 0.150707 0.092392 0.087325 0.012443 0.197894 0.273627 -0.063902 -0.095629 -0.067505 -0.070419 0.20419 0.015353 -0.205912 0.131766 -0.441242 -0.085596 0.173721 0.036564 0.115201 -0.145738 -0.25131 -0.259892 0.052865 -0.109037 0.133335 -0.025269 0.040121 -0.406794 -0.021094 -0.461333 0.095236 -0.049121 -0.048715 0.085631 -0.002974 -0.103616 -0.150824 0.061679 0.10825 0.07581 -0.039789 -0.206267 -0.092921 0.153317 0.226796 0.143103 0.04259 -0.19226 0.071669 -0.38729 0.007588 -0.475158 0.414421 -0.036077 -0.356407 4.46E-4 0.205639 0.060418 0.198331 -0.237655 0.167908 -0.31514 -0.049259 -0.078508 0.206229 0.241929 -0.120073 -0.099162 0.238596 -0.110271 -0.013636 -0.003993 -0.072867 0.306218 -0.572507 0.005757 -0.028029 -0.085436 0.376446 0.09394 0.015533 0.167223 0.054233 0.340019
treatment -0.1902 0.003887 -0.075342 0.097509 -0.073439 -0.182797 -0.130725 -0.257516 -0.306392 -0.101617 0.288196 -0.154424 -0.284759 -0.252677 0.086545 0.118191 0.056768 0.097956 0.127743 -0.015345 -0.035273 0.038458 -0.207865 -0.160664 -0.202136 -0.24113 -0.029555 -0.018714 -0.117551 -0.090726 -0.320058 0.04856 -0.082154 0.092326 -0.091107 -0.072693 -0.149293 0.317183 0.122668 -0.013776 0.229076 0.01251 0.134033 -0.082268 0.100131 -0.277501 -0.143007 -0.2298 0.103264 0.163901 -0.33405 -0.070331 -0.186138 0.039111 -0.199696 0.115597 0.013963 0.00632 -0.151791 0.189601 -0.166715 0.007284 0.084794 -0.053916 0.151048 0.117083 0.0726 -0.137915 -0.246381 0.104792 0.085678 0.096221 -0.125479 0.052403 -0.108881 -0.017891 0.155845 0.032771 -0.025846 -0.100964 -0.022384 0.113595 0.349278 0.196416 -0.04321 0.274476 0.062522 -0.020372 0.022538 0.090209 0.072371 0.034777 0.135287 -0.194862 -0.205454 -0.279288 -0.093013 0.010848 -0.39839 0.112202 0.059633 0.079824 -0.298591 0.200956 0.032724 -0.093936 0.136363 0.262678 0.091897 -0.209869 0.097659 -0.042381 0.140176 -0.019894 -0.221199 0.002811 -0.057902 0.075647 -0.029677 0.228399 -0.167805 -0.307042 0.299044 -0.044523 -0.092908 0.401931 0.067287 0.173572 -0.141855 0.179703 -0.256703 -0.221055 0.054516 0.289035 0.02441 0.230528 0.123905 0.092627 -0.173932 -0.262981 0.180152 -0.143176 -0.157964 0.103985 -0.227364 -0.00125 -0.237902 -0.007499 0.02902 0.120555 0.07245 0.026516 0.075346 -0.084929 -0.092015 0.03357 0.423847 0.258978 4.89E-4 -0.381682 -0.03074 -0.019742 -0.127954 -0.111313 -0.035634 -0.056804 0.186866 0.188094 0.20496 0.200012 -0.167562 0.200341 0.242575 -0.099608 -0.141462 -0.128489 -0.00596 0.295375 -0.077683 -0.542925 0.04043 0.136303 0.01827 0.084595 0.023624 -0.31365 -0.165163 0.162574 -0.215225 -0.043668 -0.13728 -0.18705 0.217979 -0.364887 -0.006024 0.209445 -0.52521 -0.062447 0.230419 0.248736 -0.036079 -0.242964 0.03927 -0.231995 -0.058031 0.10376 0.479128 -0.16488 0.194976 -0.138503 0.180538 1.55E-4 0.110378 0.200406 -0.02058 0.023939 0.024369 0.024802 0.116722 0.141008 0.014036 -0.005054 0.003262 -0.183654 0.046598 0.517629 0.019993 0.339771 0.026607 0.155617 -0.174022 0.187786 0.010292 -0.06883 0.124498 -0.113473 -0.205141 0.167838 -0.25562 0.127876 0.226424 0.129791 -0.038736 -0.11206 0.042628 0.014981 -0.18858 0.142923 0.191382 0.292827 -0.01226 -0.071053 -0.054778 0.053005 0.203389 0.018621 0.098776 -0.069044 0.023456 0.128129 0.058106 0.081247 -0.160381 -0.112265 -3.78E-4 -0.092927 -0.200519 0.160858 0.176505 -0.088321 -0.05256 -0.254771 0.209951 0.147742 -0.074851 0.05398 0.151422 -0.304256 0.130481 -0.170847 0.125254 -0.019923 -0.163301 0.081731 0.411631 0.242573 0.029146 -0.452977 0.432171 0.30676 0.095881 -0.078451 0.066966 0.244657 -0.002472 0.132895 0.225544 0.14193 -0.229706 0.354583
flight 0.054455 0.112071 -0.029835 -0.239485 -0.170781 0.237297 -0.123958 -0.253487 0.115168 0.09657 -0.107912 -0.141873 0.025956 -0.140877 -0.069625 -0.054715 -0.135877 0.06485 -0.175187 0.034467 -0.006184 -0.2286 -0.621422 -0.167073 -0.430811 0.006731 -0.338649 0.043793 -0.062128 -0.102618 -0.08978 0.151332 -0.034794 0.060926 0.15968 -0.126341 -0.161118 -0.020316 0.017597 0.006114 0.105206 -0.259566 0.297951 0.022294 0.182134 -0.173104 -0.069559 -0.155385 0.208551 0.036207 0.080571 -0.349622 -0.026969 0.070379 0.197234 0.254085 0.250489 -0.238463 -0.149012 -0.201181 -0.221776 -0.135447 -0.074389 -0.084095 0.217883 0.060578 0.163718 0.010958 0.179332 -0.146561 0.033822 0.175321 0.061287 0.136214 -0.130283 -0.421931 0.26092 0.239116 0.375845 -0.021486 0.189967 -0.09886 0.42029 -0.26951 -0.057519 -0.221273 0.117284 0.075374 0.09748 0.442158 0.072351 -0.087314 0.046295 0.224178 -0.232433 -0.332276 -0.17141 0.209042 0.006982 -0.277434 -0.248145 -0.073829 -0.233039 -0.33407 0.53684 0.268696 -0.112892 0.06812 0.157934 0.417234 0.150431 -0.078087 -0.164216 -0.113181 0.212181 -0.092 -0.205231 -0.229252 -0.441104 0.288326 -0.371693 0.055757 0.410767 -0.126031 -0.277646 -0.051616 0.139718 0.255157 -0.604818 -0.05072 0.074539 0.271633 0.126568 0.130635 -0.027336 0.039847 0.123484 -0.066599 -0.234249 0.118854 0.006494 -0.218704 0.043002 0.238655 -0.260395 -0.289484 -0.021447 0.056923 0.005664 -0.200555 0.089571 0.266883 0.344118 0.082135 0.236001 -0.059211 -0.106391 -0.052206 0.063928 0.239338 -0.340561 -0.043354 0.006455 0.016728 -0.411773 0.271481 0.272072 0.02805 0.140386 -0.029539 0.107804 0.099052 0.113104 0.292742 -0.043523 0.060001 -0.180488 0.05018 0.008825 0.151462 0.032372 -0.204553 0.189287 -0.061827 -0.179984 -0.032392 0.089495 -0.152022 0.510133 0.135908 -0.273853 0.116155 -0.072491 -0.207638 -0.123915 -0.226263 -0.034808 0.034767 -0.144976 0.519887 -0.260602 0.226652 -0.064484 0.283828 0.286281 0.259065 0.046716 0.118676 0.244423 0.063423 0.008775 0.094836 0.270692 -0.108234 0.021197 -0.132972 -0.165174 0.328773 0.122847 -0.250436 -0.038143 0.134807 0.257244 0.185912 0.329379 -0.013789 0.148695 0.069091 0.112633 -0.205854 -0.149218 0.082409 -0.281669 0.089098 0.138116 0.132306 -0.23713 0.245671 -0.3343 -0.230385 0.135724 -0.172379 -0.157967 -0.252733 -0.245696 0.071669 -0.245182 -0.078981 -0.089308 0.202505 0.019092 0.113355 0.212127 0.341098 0.302892 -0.125337 0.363323 -0.191904 0.146905 0.079177 0.045781 -0.160023 -0.31146 0.032694 -0.319699 -0.165959 0.194403 -0.196434 -0.071954 -0.101976 -0.046017 0.391539 -0.105247 -0.26803 0.070987 -0.02005 -0.23883 -0.210967 -0.023929 0.142056 0.134755 -0.083784 0.124448 -0.064091 0.33852 0.045544 -0.074748 0.013593 -0.033361 -0.018456 -0.27194 -0.083844 0.088783 0.223584 -0.156189 0.021097 -0.032826 0.049076 0.044506 0.356954
forest 0.43424 -0.399465 0.00287 -0.37113 0.005947 -0.020521 0.030237 -0.018711 0.206446 -0.153596 0.133594 -0.39972 0.518229 -0.116768 0.153606 0.00858 0.273557 0.14842 -0.152557 -0.115383 -0.432537 -0.279214 -0.167054 -0.484189 -0.025109 -0.062025 0.001105 0.011364 0.022977 -0.229115 0.178248 -0.157133 -0.078896 0.247292 0.211478 -0.07779 -0.310737 -0.168296 -0.160461 -0.044747 -0.047636 0.22997 0.049769 0.09852 0.050343 -0.157747 -0.045932 0.135898 -0.089762 0.127689 0.029199 0.09318 0.076436 0.230365 0.163224 0.017682 0.426379 -0.209727 -0.019252 0.280874 -0.297753 0.033613 0.281431 0.215322 -0.075711 -0.125087 0.196179 -0.408311 -0.411574 -0.291699 0.046826 0.100521 0.058547 0.104183 -0.311732 -0.048368 0.261457 0.166784 0.116866 0.011491 -0.14477 -0.268987 0.070922 0.148954 0.256004 0.140237 0.192596 0.175383 0.1197 0.102101 -0.04718 0.028284 -0.139339 -0.249616 0.192658 -0.071353 -0.323429 -0.089291 0.604036 -0.122041 -0.479124 -0.065445 0.013712 0.081425 0.257564 -0.140845 0.25087 -0.147368 0.073573 0.248092 0.4539 -0.079175 -0.123974 0.043818 -0.050811 0.016261 -0.035066 0.363418 -0.056397 -0.009667 0.119182 -0.042207 0.240885 -0.018065 0.006233 0.090027 0.249721 -0.011784 -0.133543 -0.151977 -0.021486 0.091195 0.159147 0.01756 -0.236157 0.417361 -0.169409 -0.143545 -0.171061 0.059953 0.181932 -0.123487 -0.147449 -0.236447 -0.070652 0.229119 0.02869 -0.105115 -0.039337 0.023606 0.119992 -0.185663 -0.225285 0.299054 -0.121396 -0.181699 0.088877 0.075913 0.146674 0.156187 -0.259572 -0.143326 0.019759 0.150198 -0.04627 -0.199071 0.048821 0.052714 0.054978 0.226941 -0.125704 0.012912 -0.160006 -0.099023 -0.061486 0.195033 0.163264 0.149601 0.227357 -0.145929 0.001124 0.106246 -0.199357 -0.067818 -0.003091 0.120345 0.023237 0.35044 0.326366 0.264343 0.073963 -0.039553 -0.249011 0.02409 -0.209886 -0.276997 0.09136 -0.278883 0.309817 0.193573 0.100129 -0.269268 -0.193059 0.179256 0.178855 0.151369 -0.219147 -0.0383 0.123196 0.056719 0.223718 -0.341838 0.050612 0.264493 0.286876 2.76E-4 0.308712 -0.291051 -0.041107 -0.17319 0.120966 0.226471 -0.014731 -0.270091 0.223632 0.149505 0.143208 0.173973 0.065696 -0.112038 0.25276 -0.028684 0.131173 -0.060817 0.047525 -0.063066 -0.116238 0.113361 -0.174713 0.365857 -0.099842 0.090558 -0.011488 -0.211536 -0.025756 0.223779 -0.264357 -0.167608 -0.148647 0.113843 0.038874 0.008686 0.067073 -0.062338 0.096039 0.046726 0.074145 0.02731 0.011187 0.224653 0.226849 -0.004226 -0.022066 0.089157 0.122254 -0.019548 0.20486 -0.231288 0.221088 -0.13848 0.077583 0.087514 -0.073336 0.181271 0.308891 0.114368 0.036 -0.067761 -0.115835 -0.229613 -0.056133 -0.19962 -0.001365 -0.255048 -0.230372 0.113752 0.377282 -0.243429 0.039609 0.349224 -0.148741 -0.025974 0.009054 -0.07383 -0.474891 0.436047 -0.080591 0.065921 0.258691 0.079546
abuse -0.221769 0.13049 -0.270741 -0.210311 0.11745 0.092049 -0.230186 -0.151613 -0.289356 -0.252108 0.057569 0.197166 0.061244 0.028257 0.169634 0.430592 -0.082799 -0.485625 0.283529 -0.034067 -0.198208 -0.012205 -0.055931 -0.056186 -0.015463 -0.281204 0.160648 -0.156802 0.185749 -0.18037 -0.04468 0.22903 0.221471 -0.177312 -0.266825 0.117694 -0.363592 0.165615 -0.012498 -0.023752 0.112968 0.188325 -0.089815 -0.195411 0.269738 -0.598295 -0.21172 -0.311651 -0.074407 0.251507 -0.172311 -0.161487 -0.301493 -0.150232 -0.065886 0.449233 0.087659 -0.133088 -0.055718 -0.03996 0.014102 -0.040503 0.256508 -0.333068 0.036917 0.01094 0.205521 -0.179076 -0.02658 0.067922 -0.232815 0.044958 0.032854 0.182332 0.009089 -0.172426 -0.289538 0.13942 0.095964 0.007397 7.28E-4 -0.358286 0.196931 0.628214 0.079513 -0.113732 0.16723 0.0178 0.111995 -0.190291 0.066116 0.145119 0.383537 0.167902 -0.015177 -0.309778 -0.033453 -0.278293 0.028888 0.093026 0.063731 -0.138991 -0.27042 0.106998 0.185676 0.004532 0.093625 0.080634 0.302252 0.004148 0.046861 0.19693 0.047928 -0.094942 -0.473885 0.432078 0.311768 0.243858 -0.07973 0.020551 -0.017363 0.011784 -0.026201 0.026685 -0.103126 0.185493 -0.556327 -0.070804 -0.408564 0.218642 0.094774 -0.0093 -0.042442 0.107357 -0.148197 0.49662 0.13573 0.228629 -0.462081 0.038835 -0.265266 0.234284 0.333556 -0.066658 -0.169005 0.110742 0.013296 0.132116 0.173859 0.03107 -0.191437 0.366486 -0.079291 -0.230171 0.324787 -0.139274 0.273954 -0.173169 -0.154735 0.007099 0.205344 0.094815 0.38859 -0.291339 0.101965 0.004049 -0.089538 -0.087957 0.237773 -0.047552 -0.196085 0.049742 -0.118589 0.135557 0.119809 -0.036416 0.133516 0.032874 0.297011 -0.285507 0.126983 -0.485087 -0.057198 0.182831 0.09563 0.126451 -0.06243 0.411354 -0.188784 -0.163584 -0.150252 0.154042 -0.074854 0.168885 0.256711 0.352028 -0.198384 0.095372 -0.01816 -0.05471 0.21385 0.177851 0.02319 0.066405 -0.209029 -0.074773 0.452839 -0.166423 -0.041341 0.402039 0.27653 -3.4E-5 0.0089 0.117494 -0.092684 0.174798 0.163361 -0.067247 0.09775 -0.037902 0.03108 0.256829 0.402455 -0.470103 -0.267016 -0.027127 0.107735 0.485253 2.07E-4 0.223271 -0.066759 -0.325926 -0.210758 -0.005407 0.072877 0.274028 0.027341 -0.052329 -0.148872 -0.008333 0.035364 0.268308 -0.190369 -0.218694 -0.117967 -0.267975 -0.086235 -0.224332 0.058679 0.561341 -0.085945 -0.007215 -0.035641 0.341541 0.102207 0.101375 0.045377 0.206221 -0.220842 0.090088 0.108511 0.030978 0.058454 0.223406 0.204261 0.204941 0.021613 -0.156319 0.004173 0.034035 -0.276945 -0.210546 -0.113392 0.041883 -0.41692 -0.166118 -0.102003 -0.50262 -0.061794 0.102151 0.014486 0.187695 -0.358367 0.093669 0.363482 -0.14469 0.153272 -0.760487 0.017316 0.053059 -0.118838 -0.11876 -0.396907 -0.348623 0.182992 0.579272 0.287766 -0.199282 0.2484 0.272452
criterion -0.061231 0.074384 -0.172127 -0.169019 -0.004101 -0.13017 0.055213 -0.096131 -0.236154 0.225419 -0.002893 0.004715 0.075694 0.188863 -0.10046 0.269679 -7.14E-4 0.398055 -0.173542 -0.178242 0.254311 0.049328 0.042925 0.081009 -0.115504 -0.276848 -0.35819 -0.205393 -0.063844 0.030433 -0.26571 -0.187652 -0.040622 0.067213 0.105781 0.312244 0.084443 0.298249 -0.003805 0.118642 0.119262 0.338224 0.042457 -0.29925 -0.229322 -0.037407 -0.07486 -0.165945 0.17267 0.041549 -0.408349 -0.140457 -0.140652 0.010014 0.126111 -0.102879 0.25009 -0.260537 -0.031864 -0.007807 -0.242085 0.347071 0.04144 -0.110364 0.208618 0.219075 0.373191 -0.364233 -0.205387 -0.056882 -0.172389 0.252873 0.199916 -0.016135 0.188694 0.246979 0.06436 -0.089141 0.304915 0.254761 0.033159 0.040813 0.030058 -0.515988 -0.013212 -0.168073 -0.480963 -0.081444 0.078216 0.116553 0.222724 0.132144 -0.209941 0.335326 0.199629 0.028567 0.187531 0.095369 -0.114319 -0.020506 -0.119309 0.01291 -0.163728 -0.068212 0.214151 -0.390353 0.015658 -0.139386 -0.072235 0.052708 -0.051811 -0.164581 0.239242 -0.009306 -0.044648 0.079413 0.216935 0.115688 0.030356 0.309757 -0.43288 -0.214597 -0.049867 0.039558 0.353049 -0.443647 0.271709 0.057219 -0.27156 -0.053433 0.127942 -0.217517 0.306989 -0.091633 0.201208 0.002109 -0.16868 -0.216599 -0.097255 -0.275636 0.119475 -0.089432 -0.18378 -0.311714 -0.222248 -0.232245 -0.053815 -0.299862 0.17182 0.0623 -0.027898 -0.30299 -0.110945 -0.113566 -0.049633 -0.075078 0.390481 0.061387 -0.37307 0.017622 0.107806 -0.394803 0.209018 0.021916 -0.285916 0.044782 -0.075646 0.14497 -0.094749 0.061253 0.017313 0.050157 0.28997 -0.026061 0.127351 0.034104 -0.304605 0.40457 0.030153 0.072003 -0.003413 0.02123 0.09687 0.119464 0.153329 0.013531 -0.158512 0.256375 -0.125236 -0.305456 0.173353 0.255737 -0.244985 -0.140235 0.06629 -0.010621 -0.054693 0.11451 0.160349 0.359698 -0.06478 -0.081725 0.145176 0.37592 -0.124164 0.269028 -0.032099 -0.020801 0.133585 0.211267 0.126251 0.415339 0.015088 0.287651 0.198855 0.036005 0.094883 0.624639 -0.101292 -0.007283 0.094666 0.127531 -0.205293 -0.016137 0.089476 0.267954 0.226497 -0.042671 -0.328087 0.079493 0.103002 -0.362973 0.120744 -0.103678 -0.016444 0.027735 -0.288466 -0.340738 0.028646 0.186348 -0.005498 0.268975 -0.096469 -0.125607 -0.146317 -0.328247 -0.002423 -0.121489 0.360663 -0.481384 0.102735 -0.216632 0.008359 0.123897 0.152129 -0.144573 -0.210286 -0.243462 0.16238 0.242444 0.360425 -8.11E-4 -0.192314 0.190744 0.214708 -0.094224 -0.047559 0.13129 0.099631 0.007007 -0.093749 -0.153016 0.316 -0.007685 0.239604 0.177148 0.070713 -0.33379 -0.047596 -0.419076 0.200093 -0.350241 -0.310412 0.058008 0.043813 -0.099009 0.136264 -0.359823 0.024947 0.466824 -0.072637 -0.170909 -0.153047 -0.125471 0.032546 0.610891 0.043554 0.189767 -0.157114 0.357929
sea 0.15511 0.151817 0.12299 -0.322291 -0.311602 0.009787 -0.045925 -0.112416 -0.243726 0.16181 0.233931 -0.418518 0.266721 5.68E-4 -0.103054 -0.260882 0.087707 -0.204565 -0.42193 -0.132442 -0.351304 -0.107804 -0.221813 -0.139556 0.173601 0.151202 0.180856 0.057152 -0.011879 0.208997 0.001945 -0.132597 0.14034 0.11638 0.065971 -0.008212 -0.123565 0.114866 0.042267 0.048609 0.00138 0.090653 0.136819 -0.041658 0.17877 0.283671 0.006919 0.073063 -0.272911 -0.030107 0.047587 -0.008755 0.132772 0.182154 0.200669 0.15385 0.224895 -0.102408 -0.037662 -0.007864 -0.179312 0.012313 -0.045252 0.243242 -0.305385 0.057679 0.095985 0.016371 -0.003293 -0.363084 -0.27716 0.030866 -0.084342 0.226121 -0.386457 -0.276933 -0.027172 -0.041341 -0.038732 0.024041 -0.027632 -0.242356 -0.096195 0.135842 -0.081402 0.023765 0.245824 0.152451 -0.005419 -0.088373 -0.199704 -0.16062 -0.044225 -0.341044 0.497189 -0.102145 0.107008 -0.026125 0.315364 -0.015125 -0.231258 0.025785 0.093987 -0.173093 -0.02447 0.098334 0.192296 0.171733 0.167732 0.310753 -0.12224 0.140639 0.021372 0.106913 -0.011984 -0.045658 0.391014 -0.133331 -0.19205 0.33198 -0.115372 -0.186224 0.052471 0.090156 0.0794 0.074147 -0.047552 0.275007 -0.098225 -0.012819 -0.040546 0.127957 -0.061801 -0.039829 -0.174821 0.077666 -0.264972 0.024696 0.119054 -0.124684 0.219439 -0.460523 -0.099067 -0.225085 -0.048059 0.29178 0.046969 -0.340762 -0.427958 -0.066785 0.344103 0.023016 -0.059123 0.287051 0.146467 -0.1428 0.115745 0.100265 0.014846 -0.110043 -0.275303 -0.106062 0.057069 -0.327938 -0.0405 0.114887 0.206547 -0.099345 0.062155 0.080413 -0.254162 0.003026 -0.243086 0.131055 0.087812 -7.34E-4 0.125832 0.14744 0.093519 0.035667 0.080629 0.155953 -0.063742 0.056396 0.217412 0.057651 0.219916 -0.046817 0.411361 -0.071823 0.264918 7.07E-4 -0.175194 -0.009912 -0.262861 -0.018716 0.117091 -0.085496 0.553201 0.127829 -0.137617 -0.293396 -0.033019 0.301328 0.084562 0.148146 -0.128375 -0.093809 -0.036538 -0.098808 0.307792 -0.359554 0.089763 0.303337 -0.117692 -0.118332 0.416368 0.022722 -0.223035 -0.267527 -0.162984 0.193194 0.203985 -0.061405 0.114745 0.477311 0.115466 0.253221 0.227178 0.013591 -0.190566 -0.006314 -0.377032 -0.030355 -0.06165 0.018322 0.161949 0.240869 -0.263561 0.288539 0.470233 0.009476 -0.363548 -0.434472 0.046675 0.091056 -0.172802 -0.159308 -0.064922 0.22766 -0.3008 0.105897 -0.172433 -0.077367 -0.126473 0.039791 0.080373 -0.051344 -0.113956 -0.034406 0.02596 0.21707 0.226784 0.090963 -0.035371 -0.130382 0.272176 -0.338935 -0.121977 -0.20754 0.05225 0.296921 -0.015099 0.077643 0.484298 -0.069208 -0.109254 -0.003388 0.018604 -0.245656 0.388099 -0.091936 0.075137 0.07082 0.023699 0.279302 0.413607 -0.163315 0.195714 -0.063376 -0.233694 0.049818 0.069719 -0.177525 -0.315005 0.107035 0.143728 -0.130762 0.283458 0.195135
dollar -0.112672 0.045791 -0.104745 -0.351954 0.263433 -0.260949 -0.163934 -0.280307 -0.11572 0.111755 -0.305109 -0.321724 0.045987 -0.584502 -0.015377 -0.027093 0.028655 -0.135163 0.055017 0.143791 -0.112878 0.166889 -0.015725 -0.453425 0.129261 -0.0262 0.03441 0.185116 0.132205 -0.256178 0.217405 -0.028104 -0.072739 0.315434 -0.302442 0.20143 0.055714 -0.053209 0.063101 0.299741 0.143841 -0.052127 0.084609 -0.024316 0.384331 0.154879 -0.433675 -0.093256 -0.427908 -0.1614 0.503756 -0.286317 -0.27763 0.137272 0.100061 0.265399 0.232385 -0.056623 0.123876 0.094117 -0.3374 -0.196153 -0.23941 0.169883 0.013865 0.355965 0.390031 -0.049921 0.149706 0.02494 0.135809 0.483774 -0.451104 0.176006 0.020483 0.020569 0.047443 0.182453 -0.017519 0.167782 0.183657 -0.055937 -0.066428 -0.283112 0.066727 0.476559 0.207876 0.18382 0.257466 -0.094814 0.112059 0.053839 -0.296045 -0.145377 0.250642 0.294828 -0.20428 0.305647 0.05454 0.273802 0.019928 -0.102587 -0.174667 -0.329692 -0.152396 -0.04895 -0.044056 -0.067593 -0.133979 -0.037502 0.19995 -0.271208 -0.338204 -0.172742 -0.046394 -0.162551 0.249936 0.123104 0.312974 -0.197084 -0.240115 -0.066884 0.085219 0.134837 0.694414 0.108623 -0.561449 -0.118223 -0.359902 -0.274951 0.040879 0.270145 0.075618 0.138068 0.188495 -0.300102 0.127182 0.035086 0.111377 0.016621 -0.121041 -0.012162 -0.367003 0.129958 -0.152527 -0.148425 0.250204 0.19116 -0.172035 -0.001659 0.107068 0.099059 0.574124 0.172364 -0.190646 -0.174066 0.164319 -0.375266 0.268677 0.408583 0.172886 -0.218571 -0.045391 0.046086 -0.316566 -0.39071 -0.071698 -0.128682 0.198844 -0.299845 -0.177189 -0.283119 0.192003 0.158278 -0.423151 -0.292983 -0.5669 0.415019 0.242311 0.006338 0.221776 -0.068611 0.040589 0.315475 0.276809 0.43111 -0.254709 0.22308 -0.18868 0.350434 0.294331 -0.180063 0.23667 -0.445496 0.061305 -0.262105 0.090021 0.02751 -0.140307 -0.332569 -0.154707 0.238421 -0.004031 0.135532 0.104468 0.013781 0.154836 0.191393 -0.035883 0.145361 0.092021 0.322606 0.166371 -0.130257 0.015145 -0.102439 0.401313 -0.085174 -0.28432 -0.216446 0.05965 0.181447 0.377498 -0.198316 0.085895 0.476972 -0.105521 -0.30177 0.177941 0.036931 0.105415 0.177844 0.37454 -0.001968 0.381121 0.288095 -0.145161 0.157313 -0.129834 0.554656 0.036529 -0.030477 0.020947 -0.229909 -0.06092 -0.293071 -0.146162 -0.227505 0.03168 -0.00897 -0.415972 0.13857 0.090775 0.08586 -0.102999 0.274629 -0.2465 0.050709 0.170102 -0.041198 0.081245 0.220576 -0.036761 -0.139346 -0.291489 0.080477 -0.306411 -0.339275 0.063534 -0.007118 0.148273 0.059962 -0.107172 -0.018004 0.606146 -0.213954 0.225393 -0.167726 -0.093067 -0.146831 0.135969 0.20994 0.158357 -0.084935 -0.134717 0.049689 0.067026 0.012032 -0.163588 0.359702 -0.190724 -0.204546 0.314129 0.248434 -0.038975 0.064827 0.307691 -0.092471 0.211325 -0.243749
example -0.19172 -0.154823 0.096655 0.086411 -0.285533 0.16335 0.052622 -0.112639 -0.037591 0.160064 -0.104921 -0.070393 0.252739 0.039224 -5.96E-4 0.005519 0.028719 0.076383 -0.090166 -0.081358 0.015279 0.108105 -0.162805 -0.040742 -0.053136 -0.182407 -0.138121 0.070268 0.036436 -0.269752 -0.060921 -0.224687 -0.318635 -0.074553 -0.089755 -0.07064 -0.440139 -0.067333 0.328454 0.13826 0.072265 0.139669 0.188353 -0.028196 0.048265 -0.178704 0.096271 -0.112212 0.348731 0.021727 -0.043757 -0.056751 -0.227604 0.022329 -0.400942 -0.359296 0.070181 0.340638 -0.217116 -0.002667 -0.221797 -0.002235 -0.069972 -0.191285 0.281211 0.030371 0.04358 -0.164005 -0.001266 -0.059062 -0.030818 -0.024722 0.134598 0.063012 0.119441 0.073002 0.289028 0.036129 0.146952 0.185568 0.048331 -0.165293 0.067476 0.060857 0.064872 0.100396 -0.22631 -0.228265 0.038165 0.027855 0.125769 0.140537 0.145764 -0.153808 0.1124 -0.024126 -9.78E-4 -0.109501 -0.092691 -0.058045 -0.211502 0.013639 -0.104985 0.051961 0.069767 -0.152235 0.288485 0.152609 0.114244 0.032307 -0.147501 0.015781 -0.163203 0.225034 -0.036787 -0.105065 -0.052135 -0.057578 0.086696 0.38276 -0.16485 0.062907 -0.072123 -0.052747 0.327824 0.069765 -0.077939 0.341307 0.009812 0.057484 -0.256872 -0.13679 0.096077 -0.172136 0.185248 0.033156 0.154356 0.01904 0.025317 0.230223 -0.073064 -0.14684 0.122121 0.159534 0.082916 0.054098 -0.146623 0.064138 0.084466 0.336726 -0.146716 0.01138 -0.157549 0.008662 0.04155 -0.009137 0.157389 -0.152089 0.06319 0.174679 0.182957 0.051792 0.116733 -7.24E-4 0.064041 -0.054365 -0.019747 -0.174503 0.042736 0.037804 0.004603 0.18454 -0.073799 -0.026436 -0.05805 -0.120802 -0.09769 0.067708 0.022763 -0.043161 -0.024787 -0.257144 -0.208878 0.269609 0.009842 0.032602 -0.259922 0.220653 -0.005554 0.077313 -0.056934 0.21664 -0.015203 -0.071431 -0.368127 -0.272825 -0.300345 0.034568 0.133061 -0.041165 -0.06357 -0.144453 0.146529 0.133793 -0.014276 0.221666 0.105827 -0.008601 0.017229 0.04399 0.051901 -0.115723 -0.065458 0.211851 0.075632 0.195038 -0.003755 0.380741 0.187229 -0.130337 -0.074355 -0.045427 0.154942 -0.146357 0.043181 -0.07338 0.01466 -0.049511 -0.120659 0.045953 -0.117643 -0.033518 0.018122 -0.004148 0.028703 -0.100172 0.074522 -0.191055 0.133498 0.167829 -0.058286 0.168971 -0.006196 -0.021196 -0.047195 -0.151702 -0.316232 -0.113329 0.012426 -0.058372 -0.084848 0.047641 0.157188 0.072515 0.254778 -0.107412 -0.172058 -0.186763 0.212653 0.120238 0.029504 0.001824 -0.21922 0.058529 0.175597 -0.132736 0.091743 -0.185938 0.081323 -0.03899 -0.182634 0.003504 0.073096 -0.268247 0.281507 -0.014027 -0.257337 0.077364 0.131645 -0.055003 -0.040342 -0.135983 -0.175222 -0.025057 0.354311 0.11531 0.025491 -0.097028 0.078455 0.473509 -0.006617 -0.025678 0.008457 0.078788 -0.132288 0.090157 0.020013 -0.100604 0.074013 0.245481
journal -0.444625 0.108546 -0.203436 -0.048157 0.119802 -0.406386 0.024607 0.360205 -0.180146 0.058345 -0.243899 -0.084916 -0.335024 0.25625 0.229813 0.024335 0.613139 -0.251995 -0.029442 -0.021204 -0.17952 -0.17963 0.039564 0.125078 -0.246766 0.218524 -0.250123 -0.003194 0.530364 -0.337091 0.310986 0.033817 -0.545995 -0.127027 -0.447282 0.130257 -0.612614 0.365225 0.009994 0.094504 0.177796 -0.527954 -0.034965 0.350109 0.01757 -0.608555 0.30682 0.549707 0.392279 0.294573 -0.274027 -0.614006 0.054202 -0.209856 -0.290252 0.03659 0.099413 0.477172 -0.360748 -0.48651 -0.176276 0.435875 -0.296695 0.140944 -0.600621 0.119372 0.136168 -0.273576 -0.540061 -0.152726 -0.393686 -0.161678 0.115145 -0.280569 0.25325 0.322837 0.284781 -0.499833 0.138509 0.815946 -0.270924 -0.578629 0.257875 0.134551 0.176231 0.042762 -0.396981 -0.053247 0.632707 0.474554 0.154554 0.291099 -0.497895 0.159575 0.333307 -0.159232 0.062038 0.035153 -0.221666 -0.22913 0.208036 -0.078548 -0.615886 0.085545 -0.127406 0.298925 0.188478 0.020926 -0.218526 0.45576 -0.101413 0.316412 -0.277461 -0.059895 -0.198536 -0.083268 0.068323 -0.339689 -0.029099 0.012574 0.309767 -0.280767 -0.054821 0.477071 -0.13286 0.077711 -0.100984 -0.477057 0.163408 0.13809 -0.028903 0.315559 -0.174679 0.064762 -0.345905 0.165147 0.142633 0.052162 -0.258209 0.258912 0.304789 -0.53181 0.032323 0.389583 -0.164604 -0.075562 -0.202539 -0.13266 0.246401 -0.40132 0.351694 0.290139 -0.442384 -0.160634 -0.316575 0.426991 -0.136887 -0.266762 0.746219 -0.194754 0.069906 -0.075887 0.008221 -0.037034 -0.209408 -0.090528 -0.019906 0.834501 0.616286 -0.274905 -0.115681 -0.021821 0.398622 0.050654 -0.168914 0.344203 0.176872 0.272698 -0.289673 0.356764 -0.797433 0.184733 0.096958 0.250099 0.201518 -0.20783 0.171441 0.370881 0.004024 -0.620901 0.226425 0.205474 0.627576 -0.525708 -0.2295 0.102656 0.069955 -0.479997 0.451468 0.441849 0.22017 0.141355 -0.376305 0.274444 -0.140426 -0.001188 -0.315789 -0.25407 0.038464 -0.373087 0.036133 0.025212 -0.181653 0.597462 -0.123845 -0.237602 -0.454224 -0.83479 -0.409341 -0.062669 0.070266 -0.730027 0.308279 -0.492211 0.249143 -0.032316 0.265505 0.075515 0.615962 0.41067 0.204834 0.165196 -0.049491 0.476188 -0.096438 -0.215042 -0.799096 0.120873 0.084589 0.362693 0.008786 -0.20818 -0.202705 0.272274 -0.019981 -0.445953 0.109877 0.05618 0.253457 0.496329 -0.657712 0.204819 -0.275598 -0.195384 0.059073 0.017666 -0.101892 -0.208435 0.082859 -0.396208 0.193462 -0.06873 -0.077556 0.433723 -0.304253 -0.189221 0.090361 0.1507 -0.029433 0.050576 -0.082056 0.064678 -0.004838 -0.067053 0.100336 0.107956 -0.474561 -0.286922 -0.18742 0.110576 0.314335 0.16148 -0.124567 0.008301 0.362175 0.645893 0.35514 -0.247686 0.460865 -0.178841 0.102978 0.258874 0.220316 0.169419 -0.158081 0.716981 0.621035 0.276177 0.588501 -0.384966
laundering -0.389799 -0.170725 -0.566327 -0.202701 0.218821 -0.167638 -0.642292 0.059246 -0.310914 -0.196864 -0.39522 0.149828 0.196832 0.761907 -0.156872 -0.085124 -0.382702 0.334448 -0.206871 0.148335 0.014496 0.014615 -0.358535 -0.516016 0.090444 0.107896 0.011073 -0.154259 0.696483 -0.1381 0.126047 0.039387 0.491643 -0.265117 0.313331 -0.711751 -0.522754 -0.05789 0.090255 0.192863 0.342252 -0.212912 -0.107386 -0.524297 0.193005 0.149937 -0.671626 0.035033 -0.112675 0.421943 0.129876 -0.200778 -0.595913 0.716011 0.040818 0.173806 -0.039243 -0.088174 -0.024734 0.027335 0.017494 -0.490891 0.311095 -0.406127 0.153875 -0.016284 0.438401 0.384099 0.147075 -0.156028 -0.59586 0.178927 -0.209424 -0.167106 -0.094736 -0.063139 -0.686835 0.252564 0.118836 0.229822 -0.012007 -0.468534 0.17824 0.151767 -0.013844 -0.406084 0.520336 -0.078343 0.453464 -0.496352 0.30413 0.410662 0.893939 -0.361343 0.537152 0.324162 -0.058112 -0.296284 0.106681 -0.466909 -0.031872 0.037405 -0.33236 -0.266552 0.135806 -0.24328 -0.029718 -0.039203 -0.039984 0.259927 -0.274325 0.195 -0.510067 0.074168 -0.23051 -0.300831 0.584038 0.475478 0.508549 -0.154232 0.231002 -0.028235 -0.463141 -0.085902 -0.706546 0.187355 -0.800602 0.272764 -0.135391 -0.220518 0.180041 -0.141412 0.2338 0.702587 0.236961 0.092042 0.112629 0.24567 -0.20922 0.046429 -0.206173 -0.481922 -0.538961 0.423438 -0.117493 0.142867 0.176088 -0.048244 -0.033549 0.185773 -0.071734 0.014703 0.309912 -0.489693 0.166537 0.055702 -0.158584 0.15978 0.047336 0.304002 -0.12209 -0.141654 0.306268 -0.503689 0.351751 -0.353578 -0.303432 0.20603 -0.142779 -0.265453 -0.263856 -0.180695 0.2827 -0.090921 0.286437 -0.527984 -0.2551 0.278528 0.469317 0.010068 0.171793 -0.180242 0.661278 -0.152584 0.214411 -0.021807 0.665465 -0.098028 -0.141424 -0.30992 -0.029578 0.545887 -0.019377 0.160866 0.141882 -0.135357 -0.011471 -0.443679 0.086804 0.594737 -0.026818 0.13439 0.163782 0.746341 -0.169329 0.493832 0.590372 -0.217871 -0.034137 0.092572 0.226128 0.421828 0.285077 0.586081 0.149415 -0.059302 0.492089 0.469741 -0.045182 0.406489 0.076594 -0.037773 -0.153183 -0.665326 -0.489114 0.198428 0.493495 0.225933 -0.038199 0.328367 0.037986 -0.06575 -0.355763 0.201708 -0.065881 -0.133871 0.20025 0.261317 -0.331516 0.019594 0.382245 0.196379 0.044482 -0.354286 -0.097853 -0.102741 -0.190173 -0.03333 -0.202347 -0.011599 0.016075 -0.304074 0.114901 0.633549 -0.321363 -0.095466 -0.486083 -0.018063 -0.577275 -0.610419 0.186356 -0.003347 -0.151838 0.148623 0.117178 0.076249 0.339069 -0.033855 -0.348406 -0.387812 0.309796 -0.193484 0.276514 -0.068939 -0.132191 -0.103374 0.213536 -0.180747 -0.258827 0.199354 -0.263549 -0.017963 -0.12426 0.139539 0.731889 0.039049 0.099571 -0.155813 -0.240175 -0.178338 0.023315 -0.30093 0.152251 -0.384069 0.075962 0.055594 0.729093 -0.386049 0.117209 0.110946
