437 100
plane -0.157394 0.075508 -0.366711 0.075539 -0.06115 -0.253823 -0.416783 -0.045618 0.146899 -0.10004 0.389525 0.4701 0.260301 0.208186 0.052771 -0.461107 0.0678 0.193108 -0.194513 -0.643795 -0.421652 0.110607 0.400649 0.105279 -0.002076 -0.139305 -0.381234 -0.021632 0.149538 0.693784 -0.1827 0.151845 0.33543 0.056054 -0.333063 0.061257 -0.245235 0.36518 -0.298951 -0.190228 -0.084422 0.500947 0.015859 0.03376 -0.233657 -0.050729 -0.137762 0.283358 -0.664864 0.230856 0.493727 -0.47252 -0.131632 0.41815 -0.452204 0.350706 0.043222 -0.519252 -0.428192 -0.049887 -0.035149 -0.544146 0.241415 -0.249858 -0.235475 0.046373 0.102524 -0.117182 0.106666 0.251568 0.168877 -0.091585 0.12874 -0.165813 0.172947 -0.05147 -0.290017 0.155935 -0.639883 0.218503 -0.003174 0.275688 -0.028564 -0.135929 0.342448 -0.143101 0.337746 -0.236964 -0.126576 -0.170686 0.261229 0.094585 -0.546573 -0.084136 0.067519 -0.3961 -0.054977 -0.360026 -0.046027 0.034453
stupid 0.037967 -0.222122 -0.571809 -0.160885 -0.324085 -0.245849 0.094057 -0.081778 -0.140718 0.579874 0.574429 -0.038638 0.167533 -0.437353 -0.179748 -0.508109 0.223728 0.415174 -0.177759 -0.022343 -0.060673 0.043718 0.06637 -0.560481 -0.030969 -0.140791 -0.171623 0.070054 -0.359096 -0.298669 -0.125414 0.084764 0.2311 -0.194231 6.78E-4 -0.008627 -0.063413 -0.046684 0.180628 -0.043518 -0.020081 -0.080299 0.339458 0.632561 0.099166 0.060253 -0.040595 0.095287 -0.305332 0.332208 -0.372134 0.205496 0.119424 0.281639 -0.130778 0.203241 -0.010084 -0.356436 -0.019269 -0.137715 0.293459 0.298531 0.426693 0.182479 0.154402 -0.111708 0.101988 0.225002 -0.024978 -0.02777 0.088409 -0.180005 -0.15743 -0.44669 -0.202674 0.130398 -0.218974 -0.330695 0.060438 0.246889 -0.018222 0.054384 -0.573896 -0.159419 0.1469 -0.293834 -0.13699 -0.239133 0.029523 0.190068 -0.044635 0.842529 0.180182 0.294651 0.201663 0.191898 -0.545205 -0.453798 0.030907 -0.018163
egg 0.160615 0.099438 -0.591191 -0.035376 -0.157852 0.22604 -0.425133 -0.392213 -0.358833 -0.224572 0.148637 -0.169198 -0.21911 -0.062012 7.98E-4 -0.014222 0.495919 0.416901 0.276074 0.038607 0.195326 0.124152 0.408402 0.080349 -0.237467 -0.312733 -0.04902 -0.019939 0.303489 0.347993 0.827524 -0.201741 -0.632993 0.205201 0.379056 -0.505106 0.109062 0.357353 -0.350937 0.028156 -0.009561 -0.234854 -0.186154 0.967068 0.317825 0.245913 0.244675 0.074654 -0.355528 0.050059 0.005117 0.353429 0.443901 -0.103253 -0.141765 -0.104273 -0.35724 0.037065 0.174699 0.041691 0.034871 -0.154825 0.182202 -0.07362 -0.082394 -0.293167 0.118255 -0.06116 0.012118 -0.201934 0.352687 -0.252507 0.44309 -0.483877 -0.198842 -0.071465 -0.247506 0.256685 -0.537174 -0.034095 0.181764 0.224098 0.632586 -0.041353 0.257834 -0.019657 -0.013136 -0.225332 -0.334463 0.180211 -0.157292 0.267641 -0.420588 0.021066 0.071722 -0.042089 -0.429858 -0.35337 0.161244 -0.080789
year -0.329549 0.034116 0.003407 -0.004013 0.036434 -0.052373 0.166205 -0.395753 -0.005327 -0.03025 -0.072181 -0.126255 -0.213416 0.104083 0.470646 0.02302 -0.09343 0.135527 -0.209887 0.141263 -0.427519 0.216375 -0.348825 -0.244842 0.218126 -0.480024 -0.100581 -0.183343 -0.131105 0.549772 0.383815 -0.060115 0.145974 -0.044858 0.118 -0.2458 -0.100277 0.279979 -0.424179 0.32099 -0.206574 0.090203 -0.322361 -0.195603 -0.172754 -0.047238 -0.099625 0.155307 0.068284 -0.153949 -0.274071 0.252239 -0.114497 0.638018 -0.197983 0.05161 -0.273788 -0.251145 -0.198414 0.046541 0.210414 -0.141426 -0.060232 -0.016777 -0.182519 -0.560703 0.026979 0.159836 -0.081876 -0.301415 0.07066 -0.451645 -0.248397 0.158283 -0.098249 -0.112872 0.164983 0.188578 0.210056 0.394984 0.150398 -0.393174 0.014636 0.348067 0.140997 0.111953 -0.140825 -0.10892 0.519521 0.194938 -0.073334 0.477931 0.478168 -0.010453 -0.06745 0.085332 -0.248282 0.008657 -0.153242 -0.052217
psychiatry -0.127719 0.441344 -0.216383 -0.068917 -0.022388 -0.144705 0.107846 -0.874844 0.053694 0.26942 -0.366122 0.266206 0.080479 0.108579 -0.707557 -0.118595 -0.456371 0.654689 -0.028431 0.072559 -0.453458 0.181505 0.346602 0.66964 0.2773 0.672539 -0.177505 0.448097 0.092175 0.306625 0.287834 -0.413423 -0.36562 -0.043836 0.176884 -0.486887 -0.072021 0.502874 0.044767 -0.374683 0.154717 -0.28832 0.100109 0.018457 -0.082793 0.297699 -0.219129 0.36213 -0.893364 -0.641011 0.196611 -0.471179 -0.189623 -0.194679 -0.036689 -0.574981 0.422307 0.701565 -0.098145 0.648049 -0.238721 0.475195 -0.18889 0.116853 0.168806 -0.737058 0.546212 0.649043 -0.736429 -0.725778 -0.261229 0.168938 0.018383 0.00475 -0.549287 -0.181413 -0.219412 -0.452721 0.152302 0.343537 -0.255981 0.558489 0.07257 -0.51803 0.200185 -0.756167 -0.228857 0.451907 -0.478005 0.013082 0.710139 0.706966 -0.183205 0.652195 0.357211 -0.064243 -0.27226 -0.060848 0.687146 -0.505434
asylum -0.423383 -0.230607 -0.337177 0.506847 -0.317289 -0.294555 -0.391798 -0.481739 -0.018185 0.129014 -0.244607 0.200781 -0.194455 0.143021 -0.489149 -0.026165 -0.186582 0.152819 -0.179609 0.301075 -0.222473 0.199907 0.68762 -0.06335 0.017925 -0.1144 -0.485337 0.089106 0.354554 0.059093 0.04439 0.161858 -0.176131 0.002762 0.221841 -0.148458 0.200108 -0.073999 -0.301408 -0.311683 -0.260045 0.409222 0.411855 -0.20838 -0.121075 -0.142666 0.032906 0.805184 -0.140322 0.226815 0.22252 -0.121784 -0.205044 -0.137831 0.084795 -0.062526 0.038796 -0.06983 0.083045 -0.227771 -0.291323 -0.120665 0.042484 -0.36651 0.017507 -0.323833 -0.082591 -0.456858 -0.233355 0.102801 0.21163 -0.160593 -1.001805 -0.130492 -0.193594 -0.072634 0.22996 -0.641718 -0.302615 0.439714 0.34774 0.212078 0.532572 0.157862 -0.086588 -0.030156 -0.356694 0.043155 -0.125739 -0.313937 0.167809 0.515281 0.042293 -0.281804 0.440332 0.304084 -0.156343 -0.862176 -0.944789 0.239438
manslaughter -0.266734 -0.134572 -0.323844 0.268818 0.369315 0.235209 -0.353732 -0.161466 0.057401 0.37954 -0.604332 0.782506 0.375921 0.165091 -0.396544 -0.620214 0.358254 -0.042036 0.001188 -0.081252 -0.817892 -0.361352 0.154443 0.327526 0.310567 -0.070406 -1.238074 0.313853 0.25083 -0.255677 0.6802 -0.165286 -0.580556 -0.108871 0.394193 0.244712 0.530502 0.003823 -0.003667 -0.024126 0.062874 0.057239 0.392003 -0.208058 -0.149033 1.074859 -0.453315 1.128653 -0.813894 0.238392 0.18034 0.351256 0.820916 -0.063427 0.100592 0.257139 0.652131 0.548426 -0.413757 0.464493 0.933971 0.021495 0.160108 -0.45593 -0.29663 -0.687896 -0.39071 -0.168357 -0.042568 0.836858 -0.556676 0.070654 -0.144028 0.274778 -0.034419 -0.126582 -0.579575 0.015639 -0.062013 0.674631 -0.88447 -0.110921 -0.032614 -0.088567 0.487596 0.151198 0.016552 -0.100896 -0.187755 0.061585 -0.051897 0.628642 0.279929 -0.321454 0.274563 0.500048 -0.286182 -0.200644 -0.368206 -0.06003
music -0.351644 -0.099298 0.134524 0.111061 0.175033 0.160451 0.08598 -0.10453 -0.054468 0.39859 -0.031199 0.293408 0.054467 0.302507 -0.382034 0.099294 0.275176 0.188511 0.029225 -0.012193 -0.188678 0.159966 0.474371 0.126798 0.09219 -0.03063 0.122778 0.284905 0.2112 -0.099078 -0.331042 -0.019229 -0.067409 -0.670138 0.015909 -0.156292 -0.034058 0.50492 0.494412 0.033415 -0.045395 -0.265041 -0.217354 0.120182 -0.08284 0.354364 -0.083717 -0.05028 -0.539252 0.399764 -0.024273 0.321002 0.491429 0.157439 -0.216171 -0.184791 -0.629075 -0.078507 0.081132 -0.083461 -0.085661 0.174345 0.246449 0.021475 0.002979 -0.066898 -0.051043 0.251332 -0.292974 -0.182602 0.15937 -0.160985 -0.006204 -0.29342 0.172671 -0.181298 0.102465 0.519983 0.167753 0.154588 -0.08246 0.010322 0.007758 0.007381 -0.118307 0.115449 -0.390837 0.329585 0.240635 -0.118821 -0.050885 0.393985 0.340733 -0.095743 -0.228654 -0.445424 -0.209796 -0.176991 0.233183 0.171078
record 0.01072 -0.07682 0.209391 -0.022284 0.157517 -0.190791 -0.26484 0.125428 -0.171729 0.180752 -0.044324 -0.087476 -0.220863 0.069614 -0.034785 0.314226 -0.138993 -0.140481 0.230638 0.042153 -0.534423 0.16778 -0.189922 -0.451751 0.379753 -0.60373 -0.137241 -0.162292 -0.194635 0.177485 0.019324 -0.234172 0.270376 -0.148847 -0.132708 -0.083096 0.27901 0.243791 0.118906 -0.128529 -0.06101 0.020681 -0.157706 0.226732 0.071527 0.102042 -0.174124 0.35499 -0.421081 0.122529 -0.005816 0.215719 -0.171744 0.319968 0.234579 0.014136 -0.237814 -0.058355 -0.256249 -0.123268 -0.170683 0.269877 -0.366382 0.135167 0.129306 -0.162372 -0.011209 -0.032757 0.118168 -0.338974 0.099611 -0.176082 -0.010495 0.001568 0.11102 0.079952 0.091474 0.199517 0.391784 0.26443 -0.270598 0.021333 0.234269 0.713498 0.027262 0.099902 -0.167798 -0.313975 -0.235264 0.085298 0.341216 0.137248 0.251198 -0.040569 -0.120215 -0.038779 -0.035146 -0.080484 -0.268832 0.055574
energy -0.249198 -0.290429 -0.634845 -0.443902 -0.076978 0.059232 0.013402 -0.032983 0.048586 0.063208 -0.036107 -0.069954 -0.11234 -0.184619 0.281592 0.723919 -0.109617 0.7908 -0.100574 -0.156944 0.025053 0.593074 -0.093739 0.022861 -0.075556 -0.135029 -0.058232 -0.016815 0.251857 -0.421627 -0.184895 0.076666 -0.343265 0.328001 -0.138289 -0.020143 -0.063395 0.200106 -0.14309 0.453014 0.498369 0.238551 -0.194816 0.125395 0.152324 0.388977 -0.075864 0.486865 -0.224207 0.014184 -0.09253 0.083936 0.473806 0.412544 0.096246 -0.160719 -0.153039 -0.388024 -0.450844 0.058323 -0.509311 -0.097538 0.20048 0.091361 0.217931 -0.153156 -0.113987 0.01796 -0.145696 -0.197379 0.092628 0.016344 0.335803 -0.253472 -0.161761 -0.018423 0.140493 0.120634 -0.050749 0.236978 -0.324894 -0.285092 -0.158095 0.242216 -0.102428 0.368174 -0.100227 0.450728 -0.313177 0.058169 0.291609 0.371027 0.201182 -0.238958 0.073107 -0.166956 0.210626 -0.232726 -0.239131 -0.13617
announcement -0.028995 -0.036712 -0.281756 -0.3665 0.220715 -0.191533 0.045309 -0.32572 -0.00851 -0.188088 0.458356 -0.248036 -0.31745 0.472202 -0.248087 -0.06146 -0.083869 0.25377 -0.023572 -0.347881 -0.295788 -0.141023 -0.168879 -0.347898 0.265129 0.219025 -0.152597 0.165629 -0.182078 0.258081 -0.048564 -0.042481 -0.256724 0.102497 -0.491546 0.268341 -0.006363 -0.098793 -0.417052 0.230813 -0.42747 0.192653 -0.251269 0.201094 -0.53039 0.112349 -0.126727 0.192557 -0.36273 0.178439 -0.542696 0.313164 0.321393 0.317143 -0.085303 0.038282 -0.519887 0.10593 0.004574 0.154273 0.217257 -0.019323 0.238025 -0.343738 -0.204566 0.322327 0.396572 -0.158973 0.097665 -0.036291 -0.077807 -0.193707 -0.240775 0.338398 -0.411303 -0.477953 0.087551 0.396787 -0.226976 0.313889 0.048522 -0.068234 0.025927 0.262013 0.374954 0.127921 0.003231 -0.03092 -0.546516 0.042471 0.408158 -0.093512 0.2111 -0.074751 -0.353622 -0.112929 -0.326571 -0.258635 -0.151354 0.317314
mile -0.216873 0.072109 -0.404211 0.098981 0.110131 -0.142052 -0.450985 0.37767 0.07837 0.300894 0.20293 -0.164781 0.530105 0.158703 0.16338 -0.064184 0.021793 0.124695 0.668894 -0.204982 -0.21639 0.41426 0.010729 0.274675 0.046617 -0.272358 0.155218 -0.551383 0.252389 0.359492 -0.16277 0.076773 0.30952 -0.056084 -0.006694 -0.418695 -0.299515 0.43996 -0.397288 0.288089 -0.48138 0.316303 0.179714 0.123196 0.246763 -0.215681 0.099617 0.361012 -0.304039 0.165978 0.056417 0.305565 -0.333441 0.591637 -0.01392 0.293422 -0.125362 -0.412397 0.278714 -0.143499 0.075121 0.219383 0.18084 0.101635 0.121965 0.024934 -0.09168 0.197494 -0.17241 -0.423685 -0.177082 -0.279261 0.13297 0.222002 0.52985 0.062676 -0.035718 -0.129354 -0.148376 0.652496 -0.610868 -0.402401 0.403578 -0.259388 0.485614 0.231721 0.366966 -0.381936 -0.052246 0.215504 -0.001967 -0.018684 -0.102685 -0.160346 0.066797 0.373347 -0.037349 0.291232 0.010505 0.412126
airport -0.49676 0.305296 -0.071601 -0.049046 -0.412867 0.019618 -0.233671 0.079193 0.392861 0.0295 0.415633 0.408769 0.043031 0.3155 -0.119968 -0.090475 -0.174587 0.297395 0.018348 -0.129397 -0.094082 0.040306 0.41052 0.162319 0.001905 -0.183202 -0.034682 0.27023 0.393556 0.2532 -0.075986 -0.01071 0.089184 -0.02422 -0.646492 0.018107 -0.227514 0.216153 -0.105632 0.131719 -0.254615 0.191021 -0.375428 -0.158663 -0.396146 0.021723 -0.074528 0.748789 -0.437433 0.148094 0.128652 -0.115478 -0.283346 0.313825 -0.346828 0.551768 -0.055172 -0.37818 -0.251495 -0.135592 0.064972 -0.389253 0.06089 -0.445995 -0.130374 0.149293 0.110801 -0.112467 -0.101504 0.037175 -0.18177 -0.06882 -0.002519 0.044868 -0.089112 0.133155 -0.302616 -0.349249 -0.337513 0.393753 -0.230059 0.289002 -0.055033 -0.355079 0.049971 0.084696 0.335335 -0.185901 -0.170623 -0.324858 0.410124 0.260614 -0.166694 -0.340161 0.442236 -0.178259 0.052861 -0.383534 -0.290657 0.405353
population -0.051411 0.265684 -0.176534 0.169299 0.115142 -0.292502 -0.073856 -0.232049 -0.112935 0.03332 0.181582 0.062353 0.1427 0.015257 -0.192255 0.479506 0.018037 0.426148 0.384548 0.197976 -0.211182 0.353317 -0.331673 0.215798 0.222369 -0.54701 -0.418813 -0.356145 -0.166676 0.212065 -0.087761 0.064352 -0.314221 -0.200892 0.089014 -0.503405 -0.020914 0.402025 -0.434309 0.294963 0.127752 -0.36533 0.299394 0.437721 0.017915 -0.139607 -0.258156 0.426145 -0.019249 -0.0417 0.485083 -0.019964 0.056002 0.369689 0.021593 0.069063 0.022134 -0.16178 0.472156 -0.117791 -0.179733 -0.342566 0.037849 -0.43877 0.026086 0.200687 0.272574 -0.071404 -0.270418 -0.393949 -0.143644 -0.062667 -0.009755 -0.491645 -0.071452 -0.058893 0.144905 -0.420449 -0.462313 -0.049497 -0.376195 -0.138256 0.423957 -0.091314 0.243288 0.015419 -0.459998 0.289879 0.522798 0.077857 0.247952 0.15967 0.236621 -0.130302 0.104182 -0.115824 -0.126529 -0.159633 -0.513446 0.021341
planning -0.089003 -0.018484 -0.191021 -0.02208 0.109549 -0.147153 -0.309301 -0.30708 0.072662 0.028149 0.176468 0.266906 -0.198278 0.07326 -0.266812 0.137393 -0.006733 0.278631 -0.348486 -0.009011 0.037997 0.194605 0.116948 0.300719 -0.04675 -0.058664 -0.193038 -0.001488 0.053688 -0.14416 -0.103738 0.092761 0.065158 -0.225456 -0.541385 -0.012513 -0.107471 -3.7E-5 -0.055781 0.460389 0.282998 0.124674 0.231858 -0.199449 -0.0341 0.349145 0.124354 0.064508 -0.055276 0.246915 -0.320133 0.049716 -0.070378 0.181709 0.049464 0.099656 -0.146954 -0.245821 -0.194867 -0.048496 0.250604 -0.238524 -0.028512 -0.041834 -0.150894 -0.02167 -0.084132 0.078821 0.257224 -0.18915 -0.314972 -0.249612 -0.290225 0.150979 -0.362434 -0.085584 0.121026 0.103258 -0.144017 0.069754 -0.070408 0.245402 -0.146271 -0.207601 -0.006813 0.096667 -0.11549 -0.189506 -0.228137 0.058199 0.11998 0.464284 -1.36E-4 -0.125353 -0.126969 0.329313 -0.21931 -0.371286 -0.277244 -0.007125
canyon 0.15269 0.02264 0.076838 0.363624 0.051608 -0.093065 -0.180686 0.203684 -0.167896 0.555385 0.42676 0.041803 0.423496 0.263211 -0.207849 0.02047 0.058442 0.041357 0.40603 -0.694542 -0.070111 0.090549 0.0018 0.421639 0.082575 -0.327686 0.049269 -0.210401 0.111071 0.213963 0.192455 -0.141109 0.200579 0.01071 -0.502549 -0.248066 -0.376809 0.169885 -0.605133 -0.246728 -0.022219 -0.24284 -0.016428 0.129882 0.389955 0.283937 0.060514 0.22488 -0.723022 0.196463 0.472241 0.040682 0.299849 0.204183 -0.023111 0.083019 -0.374035 -0.314266 0.149014 -0.46951 -0.254307 0.014712 0.202027 0.018853 0.31197 -0.10466 0.295223 0.175385 -0.435357 -0.294012 0.132961 -0.574248 0.511124 0.281364 0.52175 0.260384 0.096479 -0.529754 -0.63101 0.461259 -0.227491 -0.413555 0.428349 -0.123001 0.44972 -0.051058 0.428558 -0.199958 -0.022474 -0.413969 -0.039894 0.130578 -0.068539 -0.053115 -0.18068 0.120501 -0.079205 0.140453 0.01698 -0.145269
delay 0.020504 0.157032 -0.518897 -0.206309 0.205336 0.029857 -0.277321 0.227644 -0.286042 -0.041561 0.214124 0.120153 -0.363894 0.100157 -0.563561 -0.127756 -0.216651 0.055764 -0.090035 -0.399876 -0.223195 0.107081 -0.076215 -0.150278 -0.024321 0.149052 -0.357188 -0.052351 0.031424 0.401102 0.024078 0.172801 -0.282572 0.016683 -0.274431 -0.191591 0.262642 -0.213183 -0.015346 0.260913 -0.193154 0.516573 -0.136788 0.044732 -0.308745 0.212689 -0.051371 0.429837 -0.251763 0.311242 -0.557201 0.152781 0.01017 0.475484 -0.018174 0.096452 -0.149796 -0.189489 -0.205661 0.220743 0.429603 -0.250898 -0.210739 -0.026743 0.049557 -0.148222 0.162255 -0.18686 -0.098353 0.126527 -0.245573 -0.195309 -0.111396 0.160637 -0.073843 -0.372425 0.147839 -0.106317 -0.16892 -0.02381 -0.024609 -0.074063 0.006929 0.0385 -0.115619 0.111042 0.039971 0.232634 -0.222483 0.127542 0.112322 -0.00653 0.025928 0.132149 0.078744 0.332803 -0.289049 -0.419207 -0.109719 -0.027218
size -0.0887 0.255472 -0.227144 0.05201 0.285887 -0.187142 -0.047622 0.098565 0.175611 0.061565 0.303992 0.128427 0.013685 0.047105 -0.2953 -0.068436 0.071391 0.322176 0.216713 -0.385303 -0.081925 0.084897 -0.104262 -0.100245 0.33314 -0.399488 0.002631 -0.388468 -0.13494 0.072795 -0.198586 0.049359 -0.570206 0.029631 -0.057437 -0.601274 0.07477 0.157906 -0.038139 0.161925 0.220203 -0.371286 -0.08332 0.162133 0.209394 -0.002411 -0.049896 0.217675 -0.096229 -0.096 0.119003 0.176392 -0.023759 0.405402 -0.135942 -0.050554 -0.064921 -0.380902 -0.142793 0.416624 -0.214771 -0.042572 0.032008 -0.1373 0.128019 -0.023243 0.088058 -0.145539 -0.07504 -0.124958 0.07693 -0.018367 0.585802 0.01398 -0.092785 -0.061835 0.044589 0.139609 -0.170005 -0.054414 -0.343535 -0.111329 0.235379 -0.141527 0.443087 0.017429 0.135645 -0.311773 0.189374 -0.003534 0.023338 0.145359 -0.074112 -0.005099 0.103021 -0.278693 -0.067485 -0.137351 -0.233892 -0.097163
peace -0.21558 -0.283845 -0.539163 0.255229 -0.101329 -0.172508 0.03918 -0.281596 -0.119987 0.266732 -0.128723 -0.069317 -0.48085 0.013261 0.00493 -0.234398 -0.061043 0.82123 0.05672 0.268519 0.488416 -0.166313 0.213264 0.471421 0.473482 0.311818 -0.783021 0.048857 -0.103917 0.553572 -0.114529 -0.439466 -0.13454 0.107487 -0.084909 0.207815 0.379671 0.016775 0.020857 0.241859 0.197717 0.347698 -0.27128 0.33136 -0.014894 0.378433 0.350098 0.401356 -0.062535 0.838572 -0.055925 -0.057923 0.120339 -0.010424 -0.150236 0.18548 -0.292779 -0.134925 -0.065876 0.307593 -0.479348 0.303574 -0.195328 -0.192718 0.08724 0.445645 0.011963 0.458935 -0.420899 0.012354 0.229571 -0.599161 -0.730375 -0.026542 0.348562 -0.077455 0.297161 -0.453832 0.148872 0.603787 0.033079 -0.126626 0.543304 0.138683 -0.206241 0.256098 -0.096339 0.648918 -0.559711 -0.330679 0.0621 0.322258 0.391929 -0.221926 -0.382831 0.554741 -0.046697 0.149794 -0.607445 -0.14753
science -0.25098 -0.274034 -0.306608 0.060756 -0.070115 -0.211675 -0.032854 -0.656112 -0.061599 0.586453 -0.049803 0.287065 0.203469 0.100967 -0.26667 0.279752 -0.024802 0.362882 -0.262957 -0.095 -0.193484 0.397166 0.179855 0.102152 0.043609 0.501689 -0.251537 -0.173557 -0.074965 -0.127996 -0.089074 0.020662 -0.20401 0.155693 -0.226068 -0.163073 -0.119187 0.407425 0.35663 0.104426 0.316128 0.05691 0.243108 0.438165 -0.005094 0.046633 0.018769 -0.038028 -0.434599 -0.283402 0.05086 0.118252 -0.022554 0.360171 0.096595 -0.30527 0.030341 0.136861 -0.327809 0.507251 -0.335616 -0.00479 -7.32E-4 0.187633 0.245716 -0.313854 0.025632 0.196167 -0.16531 -0.570293 -0.260713 -0.443349 -0.193865 -0.276066 -0.170315 -0.080832 0.002924 -0.02226 0.015849 0.466224 -0.129638 0.385374 -0.093626 0.055621 0.037707 -0.128141 -0.243264 0.45574 -0.271579 -0.273356 -0.043946 0.330387 -0.228516 0.290608 -0.022708 -0.416782 0.074037 -0.222674 0.240048 -0.384286
dawn -0.14706 -0.022199 -0.20007 -0.0631 -0.159782 -0.034193 -0.213958 0.207186 0.383341 0.322105 0.39266 0.340778 -0.191304 0.331469 -0.069259 -0.056041 0.505083 0.125378 -0.126947 -0.371908 -0.201975 -0.153065 0.242646 0.262892 0.26128 0.058898 0.038974 -0.121522 0.06003 0.563379 -0.16543 0.255949 -0.090221 -0.112117 -0.415002 0.211032 -0.086433 0.062241 -0.114252 -0.154891 0.041982 0.320208 -0.228219 0.4197 -0.362542 0.077115 -0.285263 0.260642 -0.347503 -0.352373 -0.008208 -0.128409 0.017431 0.131238 0.050289 0.424492 -0.301534 0.043427 0.174575 -0.325328 0.37223 0.13847 -0.022638 0.056673 -0.083386 0.295821 0.004876 0.212224 -0.568465 0.031264 0.52189 -0.303689 -0.107569 0.171363 -0.336002 -0.030482 0.068871 0.128559 -0.648584 0.60876 -0.297392 -0.190091 0.274386 -0.200675 0.180402 0.090742 -0.185458 -0.098854 -0.411184 -0.50169 -0.028671 0.483538 0.319557 -0.206593 0.028931 0.087413 -0.359114 0.18781 0.214219 0.163455
brother -0.41668 0.040612 -0.260854 0.069976 0.204157 0.560272 -0.048082 -0.184717 -0.048752 -0.120357 0.091503 -0.37652 -0.06522 0.338555 -0.398425 -0.545324 0.146377 0.168253 -0.00867 0.201395 -0.365495 0.041202 0.238093 0.344555 0.631882 -0.224202 -0.307124 -0.172405 -0.135721 0.158791 -0.323328 0.137123 0.473174 0.087029 0.011144 0.031243 0.076916 -0.121981 0.050348 -0.223128 0.022496 -0.120011 -0.059042 -0.489858 -0.088155 0.513925 -0.296209 0.471161 -0.063769 0.177639 0.277155 -0.27516 0.225595 0.343935 0.083869 0.190273 -0.317198 0.247377 0.035456 -0.047607 -0.104623 -0.102288 0.171721 0.232288 -0.586806 -0.322424 0.068306 0.286189 0.323343 -0.0328 0.147437 0.191577 -0.243737 -0.472526 -0.06296 0.162832 -0.350587 0.404082 -0.302686 -0.045079 -0.402231 0.147072 -0.345125 -0.05818 0.515902 -0.412224 -0.228971 0.346296 -0.269791 0.316454 0.135941 0.123137 -0.161676 0.038028 -0.078791 -5.46E-4 -0.240228 -0.094559 -0.243163 -0.060927
wine -0.252122 -0.1253 -0.252414 0.057001 -0.327439 0.127867 -0.34599 -0.014946 -0.456919 -0.174238 -0.216129 0.083903 0.433333 -0.152948 0.052519 0.033187 0.321407 0.112256 0.229861 0.21796 0.131993 0.294376 0.28034 0.015778 0.114352 -0.604341 0.196607 0.354681 0.426589 0.157823 0.357409 -0.024332 -0.278808 -0.105096 -0.030293 -0.618101 0.023701 0.31336 0.052024 0.2077 -0.182355 -0.256972 -0.163717 0.249913 0.413769 0.20882 -0.337854 0.039608 -0.320768 0.266393 -0.171753 0.082757 0.589919 0.137414 -0.409477 -0.309573 -0.126238 -0.208779 -0.004437 0.032315 -0.507237 0.218425 -0.060778 0.018558 -0.30034 0.075382 -0.329349 0.161995 -0.369994 -0.207403 0.481588 0.053559 0.447483 -0.109029 -0.107415 -0.075918 -0.122512 0.114651 -0.128023 0.475491 0.11405 0.451862 0.60073 -0.038008 0.308792 0.148092 -0.269156 0.023321 -0.148671 -0.199921 -0.074354 0.469969 -0.20452 -0.176714 -0.034316 -0.179657 -0.459396 -0.128622 -0.176306 0.124434
object -0.110833 -0.22384 -0.393873 0.093341 0.095448 -0.141256 -0.127398 -0.118084 0.198955 0.460233 0.130861 -0.045993 0.248631 -0.007577 -0.409781 -0.359124 0.194265 0.071204 -0.135416 -0.416041 0.240262 0.103922 0.050561 -0.146382 0.177643 0.032328 -0.340908 -0.206781 0.072505 0.066765 -0.041226 0.224015 -0.013843 0.175125 0.031059 -0.153348 0.140704 0.055745 0.006929 0.10611 -0.189448 -0.198298 -0.083321 0.364039 -0.173692 0.042235 0.073841 0.172207 -0.722927 0.052887 0.166197 0.129757 0.036121 0.034204 -0.047145 0.163137 -0.215101 -0.201508 -0.113014 0.108008 -0.167674 0.018561 0.435033 0.012005 0.180369 0.009842 0.276704 -0.136361 0.082897 -0.094947 0.097479 -0.264987 0.078384 0.126347 0.021472 -0.10314 0.060575 -0.100328 -0.24072 0.035095 -0.175389 -0.174798 -0.001267 -0.010761 0.274891 -0.010959 0.128664 -0.111445 0.042684 -0.013002 0.317281 0.356579 -0.276996 0.022824 0.247924 -0.146457 -0.346963 -0.31053 0.068814 -0.219323
attitude 0.087707 -0.099296 -0.413779 0.0428 0.041878 0.107215 0.46872 0.065269 0.153743 0.315482 0.137384 -0.29505 0.279454 0.268663 -0.511001 -0.214292 0.241436 0.497517 -0.103472 0.055881 -0.014254 0.241637 0.016539 -0.096661 0.653186 0.16425 -0.160527 -0.042559 -0.169932 -0.413174 -0.276831 0.208125 -0.275719 -0.041766 -0.091729 -0.09271 0.058087 0.156285 -0.147233 -0.279115 -0.3024 -0.167388 -0.04783 0.423822 -0.246659 -0.250983 -0.04803 0.237319 -0.140508 0.453863 -0.129513 0.100489 -0.119463 0.441918 -0.180682 0.148849 0.13889 0.020647 -0.237125 -0.020568 -0.187221 0.182902 0.347042 -0.124062 -0.005223 0.005494 -0.130776 0.232339 -0.304383 -0.104919 -0.024477 -0.574596 0.137258 -0.410178 -0.307688 -0.092978 0.108145 -0.190657 0.246563 0.081432 0.048833 0.076904 -0.015051 0.147367 0.237691 -0.316855 -0.171912 -0.006133 -0.074961 -0.086715 0.163446 0.277188 -0.026378 -0.130241 0.110637 0.176154 -0.343159 -0.31098 -0.237403 -0.269759
treatment -0.222139 -0.309503 -0.643131 0.157532 -0.144935 -0.038139 -0.292689 0.458566 0.134104 -0.137996 -0.141504 -0.181609 -0.348315 0.057918 -0.428936 0.081877 -0.290637 0.444085 0.033871 0.241207 0.115984 0.42728 0.266439 0.352934 0.199082 0.008327 -0.435944 0.268804 0.152609 0.062289 0.089022 -0.296793 -0.049074 0.007873 0.129848 -0.252249 -0.26908 0.046486 -0.13405 -0.113782 -0.122981 0.40525 -0.027476 0.003145 -0.137823 0.380415 0.094746 0.261746 -0.268947 -0.165861 9.76E-4 0.008374 0.159765 0.327492 0.289163 -0.32115 -0.0541 0.091945 0.071295 -0.028375 0.131547 -0.138297 -0.04151 -0.400902 -0.173399 -0.416374 0.385565 0.25363 -0.323715 -0.17364 -0.312901 -0.186507 -0.22241 -0.058375 -0.580617 -0.527237 0.101559 -0.127463 0.262947 -0.140977 -0.043866 0.461084 0.320412 -0.329458 0.226697 0.081744 -0.338341 -0.017475 0.061615 0.139794 0.079484 0.039914 -0.065318 -0.030151 0.494161 0.259848 -0.348455 -0.129392 -0.080544 -0.104585
flight -0.213913 0.315922 -0.124717 0.07411 -0.104821 0.054099 -0.411963 0.018735 0.189232 -0.113439 0.163215 0.521057 0.066011 0.144496 -0.138484 -0.084016 -0.011845 0.247994 -0.183053 -0.26338 -0.459343 0.283208 0.563734 0.193519 0.027327 0.035198 -0.280082 0.028611 0.250777 0.650671 0.013564 0.370851 0.242588 -0.112709 -0.44261 -0.021677 -0.157353 0.191795 -0.015792 0.038147 -0.294845 0.390715 -0.023445 0.076663 -0.340138 -0.016462 -0.039919 0.35263 -0.595047 0.105261 0.110986 -0.224642 -0.459762 0.420097 -0.444635 0.294643 0.202354 -0.430189 -0.493116 0.211927 -0.00938 -0.648335 0.184228 -0.4935 -0.339398 -0.223245 -0.040757 0.033155 -0.009354 0.084976 0.01172 -0.110208 0.153416 -0.002758 0.117706 -0.352799 -0.460104 0.145759 -0.483995 0.256933 0.079113 0.322826 -0.094373 0.094609 0.210148 -0.124699 0.190094 -0.403738 -0.05547 -0.154873 0.271136 0.075464 -0.466521 -0.031721 0.020184 -0.415066 -0.040127 -0.500267 -0.265874 0.047103
forest 0.21143 -0.161577 -0.328758 0.211844 -0.021432 -0.055667 -0.258696 -0.034033 -0.124591 0.300818 0.497616 -0.025592 -0.013334 -0.012763 0.128223 0.330071 0.002584 0.234012 -0.011421 -0.274257 0.101343 0.296084 -0.07669 0.465668 -0.040028 -0.315931 -0.166436 -0.450115 0.028466 0.223134 0.364468 0.266787 -0.343549 -0.118322 -0.414518 -0.322672 -0.333391 0.315663 -0.518495 -0.086372 0.249847 -0.126625 0.075756 0.288656 0.197584 0.38769 0.205928 0.034684 -0.098852 0.079966 0.466007 0.07089 0.556366 0.322287 0.301066 -0.010795 -0.412666 -0.09643 0.206639 -0.504033 -0.250864 0.042434 0.019247 -0.190847 0.044901 0.091871 0.142258 -0.010681 -0.415257 -0.122178 0.183298 -0.323938 0.344225 0.15705 0.176173 0.503491 0.046591 -0.345734 -0.827758 0.321886 -0.311358 -0.17899 0.361627 -0.077078 0.231694 0.029258 0.124438 0.235472 -0.083089 -0.07328 0.246448 0.508452 0.275934 -0.151217 -0.106316 0.037892 0.095409 -0.135474 -0.266618 -0.186812
abuse -0.132054 -0.02566 -0.349279 -0.06587 0.272868 -0.354673 0.278931 0.049289 0.220095 0.582397 -0.263039 0.052609 0.001132 0.08003 -0.339546 -0.119443 0.550907 0.264014 -0.110269 0.06232 -0.353812 1.04E-4 -0.193135 0.065696 0.039035 0.196095 -0.637881 -0.106768 0.122249 -0.195786 0.338514 0.219911 -0.102528 -0.160465 0.256153 -0.230057 0.166351 -0.094115 -0.261485 -0.108739 0.038202 -0.167162 0.066562 -0.119122 -0.157309 0.349897 -0.172243 0.626717 -0.631659 0.349518 0.154069 0.262066 0.063578 -0.016837 0.166336 -0.405761 0.211326 0.206119 0.12657 -0.109409 0.169324 -0.197404 -0.065385 -0.282582 -0.033869 -0.523629 -0.22896 0.094401 -0.366432 0.037887 -0.438998 0.033204 -0.511468 -0.037997 -0.395817 -0.124311 -0.073788 -0.315518 0.324594 0.136879 -0.302696 0.158379 0.337091 -0.575804 0.444163 -0.329012 0.134358 0.316434 -0.052217 0.222665 -0.01503 0.39212 0.373681 0.010802 0.806506 -0.079279 -0.522234 -0.521151 -0.136021 -0.183926
criterion -0.469803 -0.19052 -0.459473 0.373576 -0.138593 -0.105892 0.098552 -0.416109 0.043787 -0.031512 -0.110103 -0.370115 0.078791 -0.173171 -0.484388 -0.598646 -0.280552 -0.021678 -0.013741 -0.072036 -0.035899 0.454135 0.205232 -0.246478 0.440119 -0.442791 -0.193284 -0.066301 -0.036432 -0.402424 0.130583 -0.094394 -0.299886 -0.047805 -0.109321 -0.516477 0.014101 -0.067265 0.255495 0.436001 0.160018 0.053812 -0.050824 0.764771 0.22213 -0.32485 0.066177 0.502887 -0.026459 -0.009558 -0.24802 0.16552 -0.016656 0.131979 -0.072217 0.303547 -0.166981 -0.306007 -0.066745 0.504446 0.365458 -0.061554 0.17211 -0.089022 0.081354 -0.357949 0.187722 0.220329 -0.005806 -0.325481 -0.052799 -0.637858 -0.282402 0.279584 -0.15114 -0.427043 0.387538 0.006973 0.020718 0.033944 -0.066808 -0.17372 -0.12061 -0.086573 0.104515 0.018303 -0.261511 0.072347 -0.410741 0.102312 0.122567 0.071945 0.023708 0.227973 0.157314 -0.156438 0.437356 -0.41282 -0.340761 -0.311582
sea -0.01506 -0.02735 -0.231711 0.385865 -0.231921 0.173593 -0.069972 0.311265 -0.240323 0.38976 0.246205 0.272929 0.254352 -0.106899 -0.017672 0.325119 0.217732 0.259653 0.094775 -0.102373 -0.056153 0.344275 -0.101798 0.465466 1.71E-4 -0.265822 -0.350782 -0.62302 -0.107529 0.582254 0.508089 0.378797 -0.121367 0.125238 -0.411425 -0.089905 -0.08268 0.221552 -0.021566 -0.123967 0.143637 0.051081 -0.109649 0.251168 0.300097 0.053142 0.054405 0.133062 -0.441168 -0.131885 0.177776 -0.088846 0.145141 0.226708 0.048466 0.091096 -0.30095 -0.153747 -0.011421 -0.272386 -0.435242 -0.138358 0.105153 0.111741 0.10612 -0.085658 -0.006869 0.027371 -0.423178 0.165626 0.186671 -0.411048 0.557449 -0.194895 0.265904 -0.012741 -0.024371 -0.123456 -0.684283 0.404854 -0.225712 -0.23353 0.599754 0.197645 0.293612 0.036634 0.446531 -0.294055 -0.12847 -0.277008 0.186256 0.408639 -0.121687 0.088674 0.268276 -0.117998 -0.168253 -0.320157 -0.230379 -0.052087
dollar 0.368224 -0.0373 -0.533592 0.187233 -0.14158 -0.211774 0.026992 0.141125 -0.318412 -0.586301 -0.100721 0.001366 -0.252748 -0.036111 -0.072086 0.13741 -0.24247 0.532405 0.042673 -0.051925 -0.326818 0.00386 -0.059434 -0.335617 0.201597 -0.676 -0.141937 -0.042735 0.094589 0.601352 0.067077 0.133071 0.481463 -0.035473 -0.041472 0.137316 0.532401 0.314469 0.276175 0.071692 -0.131392 -0.134427 0.125671 0.13951 0.45497 -0.169204 -0.232194 0.389822 -0.570055 0.087769 0.05098 0.030663 -0.034527 0.136281 0.445473 -0.152292 -0.189984 -0.6746 -0.195353 0.197016 0.064779 -0.394283 -0.183149 0.106413 0.639429 0.302689 0.270347 -0.060248 -0.108635 0.057021 0.306277 -0.421717 0.492756 -0.449202 -0.801986 -0.029677 -0.244497 0.045315 -0.035332 0.568289 -0.417311 -0.17158 0.219473 0.577289 0.078916 -0.113178 -0.388841 -0.142962 -0.287896 0.089592 -0.023372 0.024409 0.84851 -0.616826 -6.43E-4 -0.210967 0.313653 -0.508074 0.240523 0.119287
example 0.30585 -0.103049 -0.404976 0.297795 0.036403 0.080124 -0.171453 -0.379721 0.06616 0.007459 0.045024 -0.125689 0.049661 -0.015473 -0.502676 -0.023647 -0.11423 0.028779 -0.506269 0.197565 0.012079 0.181072 0.16278 -0.26367 0.20115 -0.365052 -0.255897 0.156733 0.23148 -0.07537 -0.057961 0.005122 -0.254835 0.017706 -0.105356 -0.156014 -0.230246 0.190911 -0.176305 0.385967 -0.061639 -0.127568 -0.039651 0.190088 -0.041733 0.109621 -0.224799 0.194556 -0.176926 -0.111673 -0.173561 -0.030686 0.154298 0.362342 -0.227471 0.072405 0.118554 -0.154726 -0.124819 -0.112619 0.019974 0.122522 0.164544 -0.266926 -0.076285 -0.008547 0.24627 0.327116 -0.137397 -0.350472 0.20117 -0.056324 -0.090272 0.19558 -0.183148 -0.1577 0.110088 -0.063016 0.056779 0.141372 0.031591 -0.047471 -0.110025 0.003424 0.177984 0.050494 -0.212047 -0.133411 -0.191776 0.257101 -0.012977 0.162134 0.160114 0.065549 0.076794 0.163102 -0.183952 -0.107955 0.207717 -0.129813
journal -0.176082 -0.245588 -0.003639 0.53331 0.295978 -0.218027 -0.11031 -0.921318 -0.389391 0.136795 -0.297996 -0.235248 0.456955 0.266237 -0.247932 -0.081743 -0.068885 0.522686 -0.374315 -0.664539 -0.334073 0.403139 -0.258179 0.215783 0.614652 0.061824 -0.331949 0.002984 0.363218 -0.390695 0.804761 -0.283759 -0.779614 0.594066 -0.332418 0.055977 -0.315193 -0.693259 -0.58578 -1.123658 -0.018657 0.011361 0.124461 0.357085 0.170897 0.214085 -0.282119 -0.187652 -0.536586 -0.05795 0.301361 -0.092593 -0.38465 0.663322 0.271907 -1.043961 -0.20712 0.174434 0.488976 1.458661 -0.552101 -0.650481 -0.764351 0.261946 -0.042904 -0.10422 0.841647 0.404733 -0.472037 -0.612426 -0.250878 0.089952 -0.098574 -0.2299 -0.026523 -0.724571 0.384271 -0.473454 0.282721 0.563037 -0.367624 0.716006 0.398369 0.236353 0.071104 -0.442223 -0.026609 -0.443832 0.038221 0.023142 -0.477568 0.408736 -0.037418 0.219383 0.022571 -0.202834 -0.27512 -0.096302 0.908896 -0.284709
laundering 0.151454 0.107665 -0.226913 0.551597 0.460825 0.015907 -0.598733 -0.294073 0.075872 0.204209 -0.36567 1.573114 0.478881 -0.23742 0.195985 0.141938 0.10237 0.815508 -0.443344 0.428314 -0.474941 0.059058 0.500195 0.143375 -0.532779 -0.380726 -0.473101 -0.178214 0.30456 -0.329855 0.532474 -0.313296 -0.281064 -0.136668 0.526767 0.018603 0.842577 -0.830256 -0.551013 -0.237185 0.659958 -0.72505 -0.773975 -0.683775 0.230691 0.502781 -0.53695 0.603029 -0.500138 0.838767 -0.26812 0.154816 0.134892 0.105289 0.379688 -0.778223 0.257115 -0.360611 -0.138289 0.143407 0.648339 -0.213495 -0.124016 -0.395459 0.285228 -0.609455 -0.579197 -0.23895 -0.16767 0.029546 0.136063 -0.021052 -0.784424 0.136247 -0.106295 -0.207581 -1.123837 0.088575 0.641114 0.500784 -1.076433 -0.079049 0.235832 -0.164376 0.538705 0.330635 0.467139 0.047307 -0.473175 0.541419 -0.214979 0.662595 -0.356886 0.071524 0.339451 0.079621 -0.356524 -0.806743 -0.216815 0.381911
hotel -0.473957 0.253621 -0.062186 0.058549 -0.184419 0.043194 -0.099084 -0.033976 0.001389 -0.114617 0.193945 0.206189 0.152101 0.143533 -0.463972 -0.003418 0.037418 0.021015 0.161992 -0.205227 0.211475 -0.073701 0.341205 -0.078143 0.158645 -0.448594 0.206902 0.211943 0.465873 0.103203 -0.116013 -0.119999 0.223864 -0.127713 -0.712265 -0.321309 -0.252895 0.524823 -0.162949 -0.069004 -0.132454 0.007998 -0.305353 -0.438519 0.141875 0.180614 0.224101 0.289776 -0.425676 -0.007974 -0.059968 -0.225314 0.146169 -0.119849 -0.053129 0.294477 -0.148116 -0.341968 -0.178611 -0.062332 -0.033451 -0.213741 0.26594 -0.103846 -0.466396 -0.102039 0.028413 0.149289 0.015037 -0.152716 0.200461 0.116942 0.108095 0.328851 -0.207953 0.06311 -0.141347 -0.089329 -0.214354 0.640876 -0.22856 0.367962 0.422287 0.011342 0.05236 -0.066053 0.213088 -0.135915 0.058174 -0.243749 0.045011 0.61007 -0.089391 -0.534979 0.19037 0.068486 -0.041018 0.160528 -0.33015 0.103172
term -0.298576 0.392992 -0.335155 0.498748 0.027277 -0.233784 -0.321426 0.08305 0.023575 0.068002 -0.156209 -0.100941 -0.107313 -0.207919 -0.461509 -0.122403 -0.18183 0.281548 0.217493 0.08608 -0.251191 0.115503 -0.010968 -0.029619 0.475304 -0.605841 -0.005245 -0.391373 0.027279 0.033977 -0.091998 -0.182014 -0.154394 0.145087 0.194943 0.022811 0.065332 -0.361964 -0.372149 0.642158 -0.178561 0.349352 -0.053006 0.350422 -0.336012 0.444086 -0.228887 0.44601 0.201416 0.377976 -0.503959 0.095343 -0.208993 0.369394 0.295201 0.111796 0.066963 -0.142535 -0.221304 0.128979 0.032726 -0.009904 -0.030698 0.450274 -0.113349 -0.221208 0.214123 -0.104498 -0.4765 -0.023635 0.057715 -0.293723 -0.260151 0.097798 -0.124203 -0.243926 0.166323 -0.104616 -0.061747 0.425159 0.030883 -0.126768 0.035176 0.047406 0.240263 -0.211688 -0.009247 -0.003115 -0.101774 0.216714 -0.182439 -0.133027 0.392263 0.148046 0.137609 0.051885 -0.016103 0.341976 -0.41131 -0.548757
listing 0.051809 -0.038572 -0.150988 0.236722 0.153342 -0.17072 -0.256326 -0.348873 -0.115225 -0.172927 -0.094971 -0.087496 -0.209628 0.038078 -0.36449 0.106961 -0.215215 -0.013598 -0.136761 -0.323936 -0.219002 0.134696 0.358472 -0.111952 0.158029 -0.376975 0.058548 0.355793 0.067774 0.144485 0.207297 -0.195038 -0.139979 -0.27695 -0.596151 -0.238358 -0.11682 -0.174785 0.067016 -0.007994 -0.119854 -0.071494 -0.178279 0.036299 0.040778 0.130258 0.049942 0.294073 -0.091177 0.117574 -0.286387 0.067814 -0.143993 -0.011556 0.222338 0.038764 -0.456875 -0.284642 -0.114401 0.316354 -0.161314 0.070484 0.011196 -0.093918 0.34993 0.160458 0.177953 0.152922 -0.023895 -0.049671 -0.07259 0.062009 -0.196433 0.414156 -0.10884 -0.049094 -0.014217 0.23146 -0.282325 0.465663 -0.247719 0.081115 0.329723 0.124982 0.271301 0.012978 0.06697 -0.279745 -0.310828 0.382963 0.115749 -0.165462 0.035114 -0.312667 -0.120912 -0.378393 -0.095699 -0.258054 -0.262321 -0.096487
chemistry -0.214903 -0.23045 -0.282869 -0.13983 -0.09028 0.201083 0.053306 -0.011022 -0.186527 0.289606 -0.140304 0.094789 -0.001499 0.091716 -0.162902 -0.210869 0.01006 0.342155 -0.207874 -0.090972 -0.214803 0.221533 0.427802 0.310634 0.182924 0.393976 -0.437598 -0.110144 -0.066298 0.031009 -0.278014 -0.369797 -0.240546 0.335007 0.104569 -0.350977 -0.178268 0.490055 0.250487 0.030093 0.291196 -0.016644 -0.081585 0.594227 0.044816 0.392594 -0.117682 -0.337498 -0.337993 -0.163894 0.310263 0.157427 0.296875 0.469924 -0.083182 -0.248599 -0.255276 0.413054 -0.25484 0.669239 -0.435752 0.087652 -0.095389 -0.010737 0.199157 -0.681688 -0.19567 0.309265 0.046613 -0.727067 -0.072512 -0.628464 0.158542 -0.288619 -0.192315 -0.030397 -0.065664 -0.110425 -0.006523 0.127493 0.115034 0.214892 0.074631 0.234137 0.046163 -0.010507 -0.11032 0.280538 -0.228849 -0.185339 0.044665 0.264707 -0.261811 0.030128 -0.060741 -0.330587 0.080212 -0.090094 0.216096 -0.613039
seafood 0.046859 -0.16611 -0.259063 0.133571 -0.474927 0.120128 -0.3042 -0.152003 -0.550292 -0.131615 0.057717 0.032701 0.366819 0.005295 0.002056 0.219456 0.347174 0.165353 0.338009 0.23181 0.123539 0.352904 0.357038 0.002708 -0.14355 -0.48762 0.175419 0.349928 0.350302 0.301813 0.510749 0.103544 -0.649682 -0.188937 -0.138897 -0.683474 -0.071782 0.404285 0.090524 0.016453 -0.105719 -0.146707 -0.205176 0.236069 0.704296 0.302532 -0.32777 -0.086563 -0.28269 0.108265 -0.195185 0.061875 0.477452 0.302422 -0.329774 -0.271152 -0.15382 -0.113987 -0.012518 -0.129673 -0.196229 -0.200065 0.246462 -0.207014 -0.114074 0.029978 -0.480857 0.196869 -0.323872 -0.073858 0.171927 0.075721 0.800787 -0.220085 -0.203744 -0.138967 -0.207805 -0.031046 -0.337985 0.576977 -0.064649 0.557926 0.440671 0.080155 0.406099 0.272263 -0.429456 0.074939 -0.430591 -0.244128 -0.039167 0.199277 -0.402871 -0.250713 -0.025859 -0.046299 -0.240998 -0.284184 -0.288777 0.069777
CD -0.247923 0.030221 -0.075644 0.248923 0.231731 0.503255 -0.069784 -0.227752 -0.291459 -0.176025 -0.158005 0.086392 -0.302145 0.082865 -0.134605 -0.118959 0.179704 0.207005 -0.022583 -0.180222 -0.14442 -0.158637 0.770054 -0.206786 0.161487 -0.558941 0.221046 -0.019117 -0.118772 -0.04312 -0.255809 -0.097404 0.349248 -0.472175 -0.261743 -9.31E-4 -0.013095 0.153713 0.479611 -0.004039 0.120692 0.011045 -0.044903 -0.201754 -0.148362 0.278175 -0.137371 -0.040316 -0.327353 0.400203 0.135479 0.530216 0.410018 0.245151 0.176978 -0.270195 -0.562395 -0.364281 0.186849 0.076454 -0.075235 0.051306 0.199697 0.032633 0.097652 -0.275102 0.004024 0.046182 -0.071244 0.206914 0.156862 -0.18612 0.159396 -0.135918 0.360386 -0.40235 0.301027 0.679297 0.491914 0.219016 -0.228766 0.013405 0.394541 0.15931 0.144335 0.100879 -0.56114 -0.07821 0.267839 0.358436 -0.159818 0.376459 0.53217 -0.309273 -0.006748 -0.547875 -0.304811 -0.156134 0.468047 0.074306
mind 0.076232 -0.265216 -0.236938 -0.121232 -0.150862 0.279613 0.398853 -0.088427 -0.050519 0.281025 0.039994 -0.138006 -0.038825 0.121644 -0.485206 -0.155496 -0.064369 0.596451 -0.058819 -0.425329 0.046585 0.117358 0.372119 -0.110235 0.48882 -0.032209 -0.236478 -0.111782 -0.172504 0.041062 -0.284375 0.008017 0.002319 0.018661 -0.195131 -0.278503 0.23929 0.085047 -0.115422 -0.066569 -0.132564 -0.364869 0.143642 0.611827 0.015172 0.155127 0.06257 0.292577 -0.077574 0.322608 0.044719 0.193358 0.07521 0.417702 -0.036872 0.117395 -0.361423 -0.108663 -0.172492 0.105847 -0.153301 0.396345 0.13784 0.175478 -0.288521 -0.08481 -0.099456 0.292174 0.023409 0.135937 0.378115 -0.240002 -0.230763 -0.112887 -0.190205 0.045507 -0.006611 0.106733 0.035972 -0.095089 -0.241145 0.016677 -0.070991 0.089914 0.293205 -0.249348 0.137955 -0.001429 -0.319313 0.057266 -0.048052 0.276215 -0.205578 0.058941 0.120255 -0.015896 -0.385254 -0.029321 -0.046208 -0.163049
sex -0.174053 -0.076701 -0.482058 0.326867 0.488092 -0.173231 0.294234 0.056879 -0.15322 0.512656 -0.293821 0.189985 0.195459 -0.022941 -0.338893 -0.159994 0.68457 -0.138093 -0.076725 0.237304 -0.067043 0.261507 0.273551 0.22432 0.09816 0.062341 -0.52907 -0.136648 0.199021 -0.371754 0.172684 -0.134421 0.120679 -0.300269 0.193115 -0.514257 0.131294 0.089172 -0.137446 0.082403 -0.159693 -0.304576 0.043881 0.345509 -0.346448 0.388468 -0.286529 0.48278 -0.497391 0.226588 0.002567 0.16507 -0.106671 -0.158023 0.170406 0.007846 0.049915 -0.237387 0.080765 -0.221972 -0.015341 -0.127388 0.004941 -0.09595 -0.344836 -0.251121 -0.069746 0.377299 -0.209214 0.08245 -0.216355 -0.16629 -0.283817 -0.265686 -0.267864 -0.031585 -0.380014 -0.043279 0.094222 0.208388 -0.195994 0.200203 0.337368 -0.167325 -0.037422 -0.257777 -0.03967 -0.088861 0.109477 0.50581 -0.221556 0.359592 0.21901 -0.389076 0.33824 0.139995 -0.192978 -0.465715 -0.129961 -0.17354
food -0.257797 -0.093083 -0.573605 -0.147584 -0.272453 0.123031 -0.011619 0.046983 -0.394605 -0.243456 -0.235618 0.138124 -0.10404 -0.101308 0.076598 0.50861 0.217373 0.253632 0.389812 0.137913 0.080561 0.359578 0.132401 -0.241509 -0.351201 -0.597376 -0.16667 0.262268 0.150919 0.099634 0.266266 0.181834 -0.485688 0.08863 -0.216456 -0.457306 -0.062129 0.317088 -0.094412 0.227672 0.237018 -0.015975 -0.224554 0.118969 0.45687 0.072487 -0.153155 0.226134 -0.271415 0.075761 -0.115025 -0.260884 0.270334 0.297323 -0.281696 -0.261023 -0.219318 0.00669 -0.140856 -0.287504 -0.202478 -0.179813 0.007557 -0.047291 -0.109423 -0.011278 -0.292411 0.377517 -0.234579 -0.043713 0.059829 -0.024604 0.159967 -0.30388 -0.134097 0.05053 0.204655 -6.55E-4 -0.046925 0.299804 0.008701 0.470583 0.250778 -0.011396 0.170565 0.260595 -0.352151 0.257324 -0.406113 -0.032897 -0.122746 0.324925 -0.073917 -0.196408 0.413807 -0.132113 -0.232087 -0.460483 -0.115797 -0.15647
precedent 0.3874 -0.43867 -0.49344 0.449089 -0.135128 0.029981 -0.238467 -0.201993 -0.414646 0.119904 0.002634 0.249905 -0.254908 0.141439 -0.857279 -0.314061 -0.087871 0.100092 -0.644507 -0.164565 -0.063125 0.02576 0.080397 -0.191318 0.201461 -0.08134 -0.349471 0.08664 -0.127402 -0.306343 0.21855 -0.024613 -0.144877 -0.189692 -0.030469 -0.075948 0.190915 0.300858 0.155386 0.086626 -0.186558 0.185682 -0.26665 0.428568 0.110098 0.12885 -0.041351 0.810263 -0.38244 0.394948 -0.259196 0.312033 0.200106 0.509194 0.073656 0.102521 0.14578 -0.158081 -0.302743 -0.050045 0.508936 0.311532 -0.196181 0.258882 0.183095 0.223593 0.169093 -0.229887 0.206162 -0.082221 -0.002643 -0.468866 -0.392389 0.305727 -0.030242 -0.006207 0.397685 -0.497669 -0.192901 0.424087 0.115412 -0.143348 0.071992 0.088138 0.397109 -0.125149 -0.378626 0.277147 -0.258751 0.012293 0.5544 0.043023 0.330941 0.143691 0.035776 -0.124564 0.112802 -0.186478 -0.385706 -0.232872
series 0.075636 -0.172342 0.136392 0.054025 0.56021 -0.103957 0.101609 0.157374 0.070104 0.290129 0.138276 0.460749 -0.129967 0.39556 -0.312559 -0.155531 0.297209 -0.161685 -0.265958 -0.302461 0.045893 -0.179198 -0.103417 -0.259222 0.162992 0.026079 0.131977 -0.491693 -0.131302 0.169099 0.212456 0.10394 0.159635 -0.462987 -0.442308 6.03E-4 0.134635 0.236402 -0.097998 -0.003474 0.240032 0.550286 -0.446508 0.18202 -0.175027 0.408646 0.163975 0.021419 -0.170426 0.288806 -0.204684 -0.063928 0.184636 0.366727 0.240233 -0.156791 0.109455 -0.118955 0.037751 0.093356 0.079958 -0.121907 -0.135878 -0.016919 0.076778 -0.398323 0.130754 0.304608 -0.04514 -0.33363 -0.042781 0.085452 -0.009308 -0.221711 -0.225269 -0.342421 0.376907 0.162274 0.30944 0.282919 0.189627 0.157101 0.235065 0.177412 0.098714 -0.24367 -0.216819 -0.189972 -0.224585 -0.100748 0.144707 0.170945 0.40495 0.010724 0.087984 0.028264 -0.172984 0.103718 -0.004075 0.032406
kilometer -0.558563 -0.021833 -0.358968 0.115569 0.147894 -0.237265 -0.967837 0.417135 -0.117818 -0.050235 0.847999 0.215146 1.003754 -0.025456 0.226554 -0.04297 -0.072413 0.127283 0.423884 -0.185584 -0.022564 0.309039 -0.38377 0.329301 0.291201 -0.234177 0.442286 -0.902896 0.224242 0.461136 0.116701 0.108726 0.23792 -0.176148 0.076076 -0.422104 -0.114776 0.448285 -0.101528 0.178107 -0.539583 0.289795 0.342542 0.32021 0.097463 -0.098207 -0.023747 0.461343 -0.146433 -0.176576 0.200014 0.586788 -0.345188 0.668935 -0.089876 -0.08058 -0.186828 -0.522913 -0.058283 -0.006434 0.072359 0.157507 -0.015672 0.040524 0.020999 0.168925 0.194067 0.148059 -0.105977 -0.57491 -0.231595 -0.31644 0.009253 0.215747 0.895314 0.064928 -0.2209 -0.339394 -0.123004 0.316046 -1.008929 -0.625978 0.643141 -0.262036 0.495132 0.560296 0.467144 -0.197075 -0.173957 0.023643 -0.051604 -0.151893 0.231088 -0.213736 -0.065077 0.35198 0.083735 0.014316 -0.124338 0.390263
grocery -0.296115 0.707151 -0.491134 -0.294506 -0.1295 0.01419 0.146061 -0.203012 -0.224545 -0.431283 0.105742 0.02936 0.052381 0.056406 0.107234 0.094662 0.375083 0.277382 0.723523 -0.123282 -0.005408 0.274995 0.272995 -0.107996 -0.290925 -0.773141 0.222738 0.801454 0.608942 -0.012698 -0.014819 -0.228469 -0.048286 -0.245882 -0.45153 -0.546014 0.279757 0.58927 -0.34179 -0.019874 0.265046 -0.050959 0.036503 -0.311528 0.293471 0.192646 -0.458218 0.259994 -0.49378 0.266457 -0.240965 -0.020224 0.542197 -0.157264 -0.222946 0.106397 -0.247675 -0.076303 -0.162211 -0.124915 -0.103247 -0.184298 -0.150151 -0.179042 -0.062563 0.006139 -0.470165 0.366132 0.015808 -0.108244 0.067089 0.410899 -0.022221 0.013034 0.035746 0.129589 0.28972 -0.191241 -0.214789 0.557558 -0.138808 0.502809 0.418039 -0.454894 0.171546 0.026925 -0.198523 -0.326521 -0.391361 0.075974 -0.160393 0.490436 -0.199604 -0.447091 0.091265 -0.228836 -0.131101 -0.212154 0.299382 -0.144452
wizard -0.372327 -0.279827 -0.310742 0.520389 0.574584 -0.052956 0.138137 -0.309961 0.189117 -0.010433 -0.015995 -0.163059 0.018824 0.333214 -0.274973 -0.338265 0.439408 -0.380051 0.055455 0.012486 -0.139936 -0.267801 0.297149 -0.313635 0.239231 8.74E-4 0.396773 -0.559858 -0.060305 -0.007611 0.006358 0.223344 0.21224 -0.252182 0.201945 -0.093718 0.096563 0.300188 0.422115 -0.074385 0.198036 -0.165628 0.099716 0.181831 -0.00794 0.133026 0.193396 -0.085881 -0.755763 0.419208 0.165415 -0.256501 0.169212 0.294084 0.17845 -0.563273 -0.236825 -0.049895 -0.159671 -0.082901 -0.465524 0.057544 0.278159 -0.171767 -0.216661 -0.166563 0.170942 0.361843 0.008469 -0.137919 -0.170735 -0.331077 0.146865 -0.471459 -0.15609 -0.213503 -0.297549 0.499362 -0.221669 0.153992 -0.14459 -0.142764 0.072808 0.224514 0.45206 -0.458117 -0.124062 0.222691 -0.032624 0.220642 -0.088183 0.603899 0.306335 0.408984 -0.076103 -0.072216 -0.518714 0.375778 0.098192 0.146666
information 0.135888 -0.215634 -0.227152 0.232439 -0.171293 0.002635 0.23663 -0.11682 -0.086922 0.094654 -0.038693 -0.232818 0.080793 -0.107538 -0.256955 0.162062 -0.259943 0.47723 -0.500203 0.00651 0.033736 0.193561 0.46966 0.031684 -0.007731 0.001591 -0.25404 -0.122966 0.422893 -0.179114 -0.361166 -0.024479 -0.421201 -0.1567 -0.157427 0.024834 -0.427112 0.264759 -0.506728 0.173138 -0.00512 0.179154 -0.077031 -0.041308 -0.239573 0.113802 0.04038 -0.021773 -0.523457 -0.103492 0.17842 0.376266 -0.180392 0.274971 -0.053315 -0.314631 -0.778775 -0.254619 -0.063562 -0.059403 0.262375 0.383142 0.249001 -0.489812 0.512928 0.020559 -0.24568 0.322143 0.258865 -0.102812 -0.352606 0.080749 -0.349774 0.309745 -0.080973 -0.359549 0.004236 -0.008235 0.029009 0.489095 -0.361587 0.297853 -0.092105 0.199242 0.290659 0.39206 -0.201899 0.020653 -0.402233 0.599929 -0.592301 -0.274288 -0.073396 -0.142752 0.096928 -0.102922 -0.318374 -0.381465 -0.410241 -0.126302
Israel 0.03664 -0.135007 -0.239767 -0.062752 -0.348298 0.026256 -0.064428 -0.397256 0.175193 0.294296 -0.266692 -0.367355 0.272767 0.28061 -0.226792 -0.091879 -0.264982 0.598138 0.19793 0.135745 0.277269 -0.213947 0.003995 0.217857 -0.006951 0.110975 -0.44903 -0.225778 -0.162865 0.369761 -0.137197 -0.201978 0.34841 0.138313 -0.016714 -0.100786 0.463866 -0.076609 -0.209139 0.207354 0.232239 0.507036 0.042869 0.161821 -0.216923 0.213703 0.482673 0.589764 -0.164268 0.576627 0.238208 0.209819 -0.102927 0.042762 -0.407287 0.05505 -0.099312 -0.248227 -0.107226 -0.038551 -0.349211 -0.296908 -0.009639 0.044861 0.133037 0.493673 0.202076 0.630109 0.03064 0.034251 0.408957 -0.125203 -0.67088 -0.033647 0.143089 -0.387116 0.335272 0.045215 -0.025693 0.48519 0.225874 0.024545 0.259436 -0.261811 0.126787 0.10592 0.14756 0.633355 -0.175224 -0.340908 0.434189 0.170667 0.626824 -0.140074 0.29981 0.184065 -0.138288 -0.524646 -0.184214 0.067019
brandy -0.377667 -0.031064 -0.533649 0.009028 -0.393704 0.142733 -0.491986 0.140982 -0.49949 -0.307753 -0.215288 -0.136487 0.266884 -0.089609 0.154493 -0.468232 0.685227 0.297418 0.223655 -0.007022 0.007015 -0.034941 0.401691 0.188904 0.139793 -0.497419 0.198629 0.026811 0.465139 0.246306 0.6075 0.27867 -0.157318 -0.029732 0.405549 -0.470487 -0.163397 0.273897 0.051015 0.034228 -0.177639 -0.034627 -0.10013 0.351673 0.359765 0.531448 -0.343209 -2.44E-4 -0.204324 0.537658 0.240437 0.326552 0.732799 0.1648 -0.231815 -0.335014 -0.205464 0.066331 0.218097 -0.134249 -0.301645 0.211327 -0.055412 0.090029 -0.222223 -0.03303 -0.284186 0.332443 -0.297927 0.027353 0.357755 -0.193094 0.927399 -0.25677 -0.319782 -0.063595 -0.222077 0.306956 -0.005805 0.619747 0.289383 0.148758 0.598473 -0.079588 0.456178 0.307836 -0.003806 -0.079612 -0.413404 -0.116996 -0.251052 0.436299 -0.255017 0.089027 0.148795 -0.008282 -0.623513 0.01555 0.043608 0.064216
interview -0.402054 -0.100868 -0.157225 0.061486 0.273053 -0.171031 -0.211117 -0.604006 -0.067829 0.154468 -0.367532 0.346311 0.026871 0.189486 -0.125584 -0.261519 -0.081161 0.389275 -0.189517 -0.60538 -0.147194 -0.393232 0.142661 -0.189468 0.422129 0.047446 0.038847 0.063351 0.11083 0.100622 -0.172218 -0.381853 -0.638942 0.215715 -0.59064 0.546773 -0.225658 0.073794 -0.86862 -0.467201 -0.529315 -0.424448 -0.316231 0.229181 -0.592267 0.646795 0.154119 0.628671 -0.031993 0.101998 -0.352471 -0.09381 0.291611 0.046519 -0.431939 -0.347485 -0.386053 -0.402025 0.397837 0.156852 -0.369713 -0.024193 0.110829 0.039199 -0.57809 -0.133971 0.439636 -0.007169 -0.092633 -0.497727 -0.010609 0.320423 -0.415371 -0.10794 -0.137728 -0.634957 -0.384982 0.267164 0.187621 0.295148 0.119723 0.332866 -0.02469 0.412441 0.239544 -0.364754 0.014369 -0.029646 -0.264005 0.014382 0.436809 -0.166879 0.167844 -0.019588 0.417117 0.255602 -0.356021 0.125354 -0.246103 -0.040644
prominence -0.255818 -0.221936 0.095521 0.322152 0.193358 -0.291515 0.290794 0.053872 0.366323 0.142959 -0.01674 -0.447582 -0.208211 0.038274 -0.266726 0.56618 0.096256 0.125607 -0.357077 -0.368654 -0.246114 0.329623 0.145567 -0.096222 0.337944 0.005622 0.044869 -0.068046 0.330114 0.16679 -0.55135 -0.073099 -0.12112 -0.251337 0.340393 -0.0874 0.286604 0.529509 -0.090513 -0.02102 0.056966 0.12479 -0.190128 0.354839 -0.15109 -0.062757 -0.440491 0.284904 -0.29059 0.104569 -0.166388 0.032903 0.220319 -0.070197 -0.025944 0.111057 -0.375315 0.552922 -0.15071 0.008241 -0.564889 -0.196914 0.042539 0.153587 -0.020907 -0.202008 0.202031 0.040271 -0.118166 -0.058378 -0.163047 -0.2974 -0.427359 -0.185473 -0.171632 0.190505 -0.10726 0.117286 -0.106115 0.045393 -0.044964 -0.048895 0.069093 0.690739 0.598349 0.090879 -0.317072 0.039224 -0.331127 -0.064883 0.226048 0.107859 0.382709 -0.339435 -0.002686 -0.259384 -0.313712 -0.153492 -0.323914 0.210978
bed -0.253504 -0.140571 -0.588913 -0.042274 -0.283352 0.293044 -0.06171 -0.003097 -0.167029 -0.077502 0.024205 0.263451 -0.03844 -0.035625 -0.088004 -0.328776 0.313647 0.270132 0.354463 -0.346778 -0.046641 0.210447 0.299642 0.210559 0.284815 -0.321443 -0.267382 -0.102748 0.032503 0.128175 -0.07602 0.039367 0.250612 0.33175 -0.272149 -0.26915 -0.193193 0.190187 -0.205199 -0.230923 -0.051331 -0.229224 -0.002441 0.037254 0.106478 0.279917 0.261141 0.284396 -0.442935 -0.053818 0.101024 -0.106436 0.35922 0.11739 0.386704 0.047002 -0.187574 -0.07509 0.114278 -0.101868 -0.006888 -0.008267 -0.021437 0.245388 -0.513161 -0.404674 0.266651 0.085649 0.065688 0.067204 0.257048 -0.119175 0.071839 -0.222642 0.115218 0.128486 -0.151872 0.281499 -0.302282 0.210471 -0.097474 0.17197 0.405544 -0.059717 0.263176 -0.256368 0.187963 -0.335266 -0.161956 -0.090488 -0.364374 0.509031 -0.219179 -0.343776 0.482618 0.077423 -0.453852 0.26765 0.124936 -0.270642
furnace -0.060316 0.022383 -0.529156 -0.737907 -0.377822 0.341831 -0.069345 0.132509 -0.170951 -0.085599 0.041051 -0.116108 0.05388 -0.066242 0.048963 0.111703 0.308556 0.044189 0.155742 -0.633628 0.001869 0.042817 0.108098 0.236367 -0.166507 -0.331821 -0.152926 0.139421 0.160796 -0.289804 0.330412 0.264948 -0.008555 0.344237 0.110213 0.060028 -0.404422 0.335949 -0.20753 0.342474 0.20098 -0.103621 -0.117437 0.247659 0.190246 0.897459 0.031914 0.200393 -0.356792 -0.151333 0.691343 0.043308 0.436327 0.422709 0.045361 0.419183 -0.135318 -0.420435 -0.341984 0.159096 -0.250504 -0.200862 0.259256 -0.074708 -0.015519 -0.528593 0.412746 -0.044331 -0.113623 -0.102825 0.288705 -0.235448 0.120478 0.009866 0.148434 0.261903 0.288995 0.559738 -0.418125 0.042986 -0.244072 -0.026727 0.266059 -0.301725 0.424472 0.33993 -0.062749 0.374318 -0.091418 -0.008985 0.132222 0.481116 0.210578 -0.178787 -0.041345 -0.050286 -0.353498 0.119706 0.0533 -0.090268
evidence 0.058617 -0.149973 -0.445537 0.188326 -0.40617 0.156363 -0.21814 -0.12057 -0.107416 0.262557 -0.117489 0.166647 -0.322553 -0.033334 -0.448988 -0.177325 -0.084078 0.193103 -0.458433 -0.31711 -0.214709 -0.227177 -0.04113 -0.081118 0.241865 -0.008115 -0.720578 -0.359251 0.210255 -0.33204 0.08773 0.13659 -0.164034 0.119487 -0.016247 -0.182508 0.403638 0.361204 -0.34601 -0.043705 0.003494 0.060869 0.013533 0.044088 -0.050984 0.118404 -0.18574 0.03768 -0.50737 0.054853 -0.099599 0.349525 0.371123 0.008854 0.172181 -0.308037 -0.441678 0.291948 -0.216484 0.121414 0.345487 -0.202175 0.195894 -0.118254 0.218465 0.110529 -0.263218 0.100778 0.088584 -0.18836 -0.242945 -0.343099 -0.262109 0.132836 -0.202755 -0.450595 0.193459 -0.229195 0.058166 0.090762 -0.452108 0.438022 0.338379 0.318075 0.374431 -0.137027 -0.184493 -0.120742 -0.168557 -0.062764 -0.218228 0.102619 -0.326511 -0.032546 0.362722 -0.227359 -0.169549 -0.296743 -0.372799 -0.001258
sprint -0.152034 -0.711556 0.018676 0.382948 0.025261 0.380138 -0.419171 0.836836 0.043044 -0.202393 0.526079 -0.248462 0.560253 -0.280165 0.09329 -0.212034 0.017316 -0.052202 0.159272 -0.269834 -0.207761 0.47321 0.295385 0.235916 0.299129 -0.215611 0.176065 -0.119464 -0.041023 0.068292 0.197756 -0.661617 0.006113 -0.281303 0.21796 0.401116 0.172023 0.530587 -0.095288 0.242765 -0.236559 0.29133 -0.223082 0.38762 -0.30446 -0.257553 -0.239065 0.929956 -0.422448 0.491075 0.04054 0.136013 -0.219099 0.136158 0.023891 -0.15729 -0.454319 0.007681 -0.508957 0.087785 -0.109074 0.153005 -0.43119 -0.323723 -0.389684 -0.310479 -0.063703 0.183676 -0.234767 -0.803263 -0.080503 -0.350509 -0.17323 -0.038517 0.122138 -0.179493 -0.199935 0.095048 0.047739 0.215103 -0.221335 -0.055688 0.261054 0.270997 0.228159 -0.291012 0.164138 -0.358728 -0.332772 -0.729954 0.426992 0.060513 -0.112573 0.081755 -0.481899 0.565397 0.1598 -0.275828 0.211341 0.36322
emergency -0.121265 -0.154065 -0.357635 -0.225928 -0.018065 -0.353143 -0.329116 -0.170742 -0.034877 -0.005382 -0.05923 0.571976 -0.510749 0.043312 -0.059706 0.010719 -0.315526 0.459435 0.127398 -0.153711 -0.064545 0.065456 0.505824 0.016451 -0.202325 -0.139841 -0.065926 0.383672 -0.121149 0.482077 -0.074434 0.086269 -0.109816 0.407398 -0.439667 -0.440681 -0.596869 0.272849 -0.334136 0.069902 0.197925 0.348054 -0.387214 -0.263497 -0.023511 0.317814 0.037531 0.454249 -0.556514 -0.005874 0.08053 -0.142017 -0.153541 -0.233234 -0.142442 0.182149 -0.208258 -0.329702 0.136793 -0.200086 0.474658 -0.143662 -0.07827 -0.437919 -0.134035 -0.096256 0.597106 -0.167359 -0.292408 0.048833 -0.033676 -0.302847 -0.03812 0.196988 -0.380217 -0.292766 0.115987 0.151957 -0.02541 -0.392721 0.27213 -0.079447 -0.102563 -0.251068 0.008098 0.022857 -0.271637 0.231949 -0.572098 0.023449 0.25917 0.177369 0.071087 -0.009365 0.493698 0.490924 -0.178822 -0.188005 -0.393892 0.165608
Jackson -0.049807 0.116734 -0.059732 -0.281232 0.456421 0.438834 -0.139687 0.102409 -0.038606 0.103745 0.485225 -0.017184 -0.339579 0.305927 -0.350637 -0.207551 -0.258973 0.007377 0.322999 0.072431 -0.221086 0.009352 0.28137 0.094854 -0.051156 -0.132375 -0.349417 -0.084932 -0.073279 0.003851 0.195512 -0.055626 0.408709 -0.024256 0.073551 -0.175399 0.281683 0.293869 0.158888 -0.018467 -0.035945 -0.058162 -0.18907 -0.017782 -0.37199 0.570115 -0.047749 0.267568 -0.307484 0.082753 0.272498 -0.025308 0.259674 -0.186039 -0.096754 -0.356917 -0.509325 0.032387 0.047491 -0.251425 0.265637 0.119258 0.200707 0.22394 -0.319172 -0.259484 0.197504 0.692953 0.0682 -0.324533 -0.075106 -0.171531 -0.290512 0.310162 -0.033316 0.030952 0.011336 0.447499 0.054731 0.274592 -0.371863 0.110543 -0.353709 0.16407 0.305862 -0.211075 -0.119819 0.240141 0.047212 0.093602 -0.079502 -0.2431 0.3134 -0.265065 -0.025761 0.002292 -0.052964 -0.08637 0.090225 -0.00896
institution -0.381855 0.126081 -0.249074 0.333079 0.149879 -0.18529 0.030319 -0.554969 0.161888 0.076533 -0.12181 0.10382 0.323734 0.141658 -0.501125 -0.003036 -0.081582 0.343644 -0.015217 0.310789 -0.053294 0.2797 -0.042819 0.1013 0.38795 -0.02425 0.260999 0.218287 -0.10506 -0.123458 -0.012173 -0.066375 -0.101571 0.134278 -0.11744 -0.5136 0.061705 0.439517 -0.264327 0.041335 0.067741 -0.154017 -0.265454 0.361518 0.265004 -0.08272 0.065913 0.275971 -0.29691 0.47995 0.061997 0.055399 -0.187319 -0.242903 0.203943 0.237398 -0.040551 -0.153164 -0.047451 0.197354 0.236919 -0.199942 0.073936 -0.255574 0.309967 0.015256 0.450324 -0.100922 -0.309272 -0.095974 -0.14657 -0.499524 -0.288517 0.249944 -0.440291 0.154905 -0.089102 0.043308 0.230101 0.23113 -0.064861 -0.07056 -0.073841 0.141629 0.328591 -0.049112 -0.130396 0.435448 0.099933 0.123655 0.053381 0.269552 0.032988 0.205368 -0.028681 -0.529588 -0.200666 0.019002 -0.171242 -0.250036
bird 0.288644 0.041516 -0.296744 0.310008 -0.0282 -0.260269 -0.185735 -0.232431 -0.057605 0.288605 0.318474 0.013586 -0.0711 0.341202 0.077993 0.07547 0.079105 0.075638 -0.052521 -0.129171 0.308348 0.152602 0.179822 0.204086 -0.011573 -0.272029 -0.393902 -0.089118 -0.186446 0.533266 0.84707 0.204242 -0.337782 -0.199774 -0.138368 -0.351939 -0.251067 0.352736 0.213925 -0.04507 0.033737 -0.046453 -0.084353 0.584563 0.127778 -0.046604 -0.157722 -0.10132 -0.403001 0.034374 0.564582 0.260095 0.037153 0.107827 0.227344 -0.09006 -0.290344 -0.116865 0.175692 -0.516568 -0.205732 -0.37629 0.405213 -0.031032 -0.038977 0.071287 0.176788 0.137524 -0.330391 -0.27575 0.183406 -0.117329 0.323742 -0.316616 -0.054367 -0.344108 -0.123093 -0.080823 -0.589297 0.130868 -0.089997 0.158603 0.67886 0.185065 0.397319 -0.191096 -0.024438 -0.265606 0.084053 -0.014319 -0.057065 0.368934 -0.234833 -0.017782 0.165032 -0.043724 -0.421315 -0.377245 -0.044712 0.045946
Brazil 0.031554 -0.090081 -0.019036 -0.135668 -0.440667 0.042402 -0.379127 -0.221946 -0.045095 -0.138965 0.266859 0.16637 0.594814 0.524808 -0.110187 -0.041 -0.112347 0.456258 -0.477255 -0.05838 0.069877 0.621183 -0.095346 0.056318 0.187277 -0.113843 -0.129441 -0.273671 -0.020182 0.065931 0.179598 0.078561 -0.125039 0.307558 0.052636 -0.397652 0.108875 -0.095801 0.10929 0.157358 0.242299 0.162713 -0.168009 0.19218 0.155409 0.05153 -0.310662 0.285646 0.033727 0.235129 -0.067434 0.247246 0.00463 0.186042 -0.142399 -0.38476 -0.266901 -0.164036 -0.311894 -0.405561 -0.297811 -0.320555 -0.00925 -0.618819 -0.596194 -0.340179 -0.009095 -0.287253 -0.234272 -0.025105 0.409286 0.172882 -0.083855 -0.245086 0.211525 0.161903 0.163686 -0.094553 -0.063606 0.074863 -0.032675 -0.186002 -0.115546 0.201454 0.259821 -0.431384 -0.254857 0.067095 -0.240585 -0.230043 0.270766 -3.59E-4 0.580628 -0.562848 -0.174421 0.054811 0.226496 -0.405642 -0.170223 0.357352
warning 0.140142 -0.210564 -0.46806 -0.183166 0.125125 -0.163196 -0.028751 0.022414 0.035436 0.002768 -0.020985 0.200894 -0.338945 0.233413 -0.166407 -0.149831 0.120905 0.294185 -0.255722 -0.200798 -0.139946 -0.151915 -0.16684 -0.171964 0.235758 -0.08396 -0.13434 0.113257 -0.078782 0.381572 0.11352 0.335705 -0.25007 0.05431 -0.390196 -0.013995 -0.261118 -0.099883 -0.293328 -0.070219 -0.005586 0.408552 0.134083 0.04788 -0.129906 -0.191987 -0.363982 0.140244 -0.628684 0.210812 -0.264932 0.437393 -0.155746 0.125462 0.099008 0.151611 -0.17216 0.029435 -0.067898 -0.449571 0.037905 -0.028599 -0.016357 -0.092707 0.137576 0.419106 0.085115 0.084023 -0.096018 -0.097284 0.067695 -0.290278 0.215628 0.26444 0.082294 -0.522685 0.170425 -0.05864 -0.305746 0.140416 -0.008836 0.049901 -0.224293 0.159269 0.403322 -0.082199 -0.156446 -0.062703 -0.239212 0.140066 0.216517 -0.027563 0.066047 0.15275 0.306303 0.064213 -0.525412 -0.365637 -0.299699 0.245837
implement 0.091634 -0.293919 -0.480528 -0.072572 0.065381 -0.469341 0.141301 -0.45978 -0.043102 -0.153978 0.083147 0.026312 -0.309526 0.014141 -0.368856 0.316278 -0.212249 0.273715 -0.226462 -0.138061 -0.285904 0.462047 0.316644 0.199761 0.278843 -0.098942 0.230211 0.124725 -0.316713 -0.047158 -0.134212 -0.04101 -0.555193 0.014313 -0.155363 -0.346366 0.197053 -0.314459 0.077481 0.255757 0.167228 0.545845 -0.420484 -0.060104 -0.178799 0.376868 0.237774 0.180421 -0.024485 0.226043 -0.060731 0.196433 -0.188323 0.116241 0.182688 -0.173356 -0.254015 -0.474732 -0.126449 0.207394 -0.168134 -0.042343 -0.216741 -0.181525 0.40223 0.012808 -0.025139 -0.117867 -0.046734 0.048304 -0.391645 -0.447669 -0.106501 0.030115 0.019669 -0.057637 0.08192 -0.444285 0.186701 -0.022994 -0.032189 -0.171187 -0.400506 -0.330297 0.161363 0.435566 0.002736 -0.124246 -0.281317 -0.143077 0.085946 0.449983 0.068763 0.045531 0.014722 0.372202 -0.049565 -0.055237 -0.59307 -0.614892
train -0.170216 -0.134776 -0.417533 0.055798 0.017891 -0.003308 -0.051456 0.170141 0.033315 0.137188 0.169208 0.295197 0.169747 0.451232 0.038382 -0.288909 0.265211 0.125548 -0.083002 -0.189838 -0.302314 -0.031107 0.222446 0.20713 0.027662 -0.230976 -0.065391 0.259662 0.427628 0.347381 -0.336465 -0.098698 0.03509 -0.169858 -0.461818 0.20274 -0.299356 0.286887 0.129749 0.105043 -0.066559 0.573316 -0.060926 -0.083987 -0.067322 -0.087568 -0.087516 0.506325 -0.449922 0.320014 0.406179 -0.284048 -0.328788 0.285119 -0.261008 0.494188 -0.035513 -0.497648 -0.404733 -0.072388 -0.069192 -0.445554 0.014613 -0.391969 0.01584 0.06109 -0.004945 0.166946 -0.03975 -0.18234 -0.113045 -0.20379 0.055383 -0.113622 0.224988 -0.013166 -0.258128 0.053207 -0.168206 0.252975 -0.051285 0.118264 -0.280613 -0.340003 0.183609 0.294315 0.32948 -0.221224 -0.057979 -0.303621 0.032679 0.433623 -0.049886 -0.055467 0.296216 -0.062256 -0.038375 0.092677 -0.066314 0.080176
area -0.051669 0.270347 -0.016745 0.197874 -0.12468 0.034927 0.009343 0.144615 -0.074155 0.213736 0.168083 0.2423 0.118972 0.450792 -0.060946 0.036775 -0.053989 0.278065 0.081839 -0.257529 0.075536 0.072184 -0.089526 7.09E-4 0.14594 -0.279161 -0.072839 -0.141082 0.46064 0.164548 -0.002273 -0.062548 -0.051512 0.06283 -0.390713 -0.279287 -0.442241 0.185985 -0.37048 -0.152892 0.159316 -0.232061 -0.20811 -0.066002 0.115519 0.252473 0.015214 0.188222 -0.181123 0.056453 0.283107 -0.066397 -0.053939 0.179395 0.020614 0.396984 -0.112234 -0.25573 0.321281 -0.182943 -0.048913 -0.015875 0.157609 -0.303083 0.091339 0.039894 0.244 0.164683 -0.190938 -0.180075 -0.136716 -0.448982 -0.152194 0.133158 -0.151256 -0.016135 0.202632 -0.350488 -0.341862 0.36974 -0.351228 -0.009895 -0.073876 -0.193568 0.407528 0.161895 -0.08142 -0.09432 0.153327 -0.133671 0.225077 0.179817 -0.172183 -0.236723 0.118646 0.148023 0.024542 0.195778 -0.16796 0.167587
image -0.173241 -0.151402 -0.256391 0.496971 0.102984 0.02546 0.132112 -0.177014 0.216231 0.258839 0.087697 -0.041156 0.170891 0.157232 -0.354189 -0.210334 0.118946 0.475505 -0.124646 -0.105737 0.096556 0.028204 0.143305 -0.253822 0.448184 -0.159041 0.072761 -0.024781 0.028446 -0.166936 0.014553 0.256889 -0.136129 -0.090456 -0.280072 -0.006976 0.050278 0.372614 -0.204015 -0.050015 -0.054792 -0.36982 -0.17838 0.308192 -0.536288 0.128031 -0.177054 -0.001802 -0.483514 0.299244 0.204791 0.292557 0.026076 0.337505 0.046838 -6.23E-4 -0.17684 0.091945 -0.229695 -0.064046 -0.268371 -0.169542 0.471881 -0.164345 0.202272 0.147221 0.282734 -0.052767 0.027374 -0.126865 0.048648 0.099104 -0.027152 -0.309844 -0.07861 0.119069 0.253659 0.247685 0.040681 -0.261579 -0.160844 0.052811 0.11968 0.126431 0.38991 -0.202192 -0.116663 -0.051813 0.045519 -0.181396 -0.091732 0.201371 -0.013584 -0.042103 0.012898 -0.136376 -0.317515 0.012469 -0.303522 -0.214777
murder -0.242289 -0.113888 -0.16556 0.477103 0.262515 0.1041 -0.335405 -0.249141 0.137065 0.47647 -0.301453 0.616491 0.181432 0.051723 -0.221569 -0.478613 0.580266 0.026117 -0.113923 0.260176 -0.615016 -0.536485 -0.171339 0.274038 0.142933 -0.076868 -0.866409 0.128138 0.29047 0.011615 0.12044 -0.042583 -0.445515 0.252997 0.214537 0.281073 0.547601 -0.071553 0.022538 0.150826 0.305887 -0.283538 0.091368 -0.165445 -0.305578 0.94219 -0.410381 0.872547 -0.745772 0.32446 0.363984 0.185683 0.468994 -0.110062 0.094495 0.099115 0.187 0.455528 -0.056451 0.264575 0.428285 0.189066 0.109341 -0.373992 -0.38889 -0.419034 -0.345265 0.113999 0.006596 0.461773 -0.15591 0.243141 -0.57063 -0.108732 -0.190386 -0.232834 -0.425359 -0.041991 0.100111 0.602262 -0.873161 -0.131536 0.413239 -0.258605 0.301984 0.003771 -0.119192 -0.056905 -0.203784 -0.077596 0.100313 0.632588 0.024268 -0.322126 0.04482 0.135454 -0.165781 -0.232814 -0.127267 -0.01331
journey -0.289277 -0.094193 -0.258974 0.393109 0.070977 0.150947 -0.272127 0.213054 0.027306 0.132133 0.101182 0.100785 0.024379 0.601313 -0.343425 0.058506 0.049135 0.46942 0.145531 -0.158612 -0.39426 0.384553 0.192204 0.295071 0.120306 -0.090156 -0.173002 -0.167722 0.059307 0.237793 -0.400369 0.403161 0.0405 -0.251861 -0.318118 0.143789 -0.052058 0.18558 -0.158846 0.148951 -0.638028 0.199629 0.054509 0.419067 -0.450104 -0.0526 0.35265 0.211512 -0.380327 0.351402 -0.124346 -0.278464 -0.063746 0.634009 -0.185203 0.110509 -0.008566 -0.102818 -0.134097 -0.144519 -0.04196 -0.139934 0.220254 -0.488816 -0.387006 -0.034789 -0.083405 0.372574 -0.280447 -0.084734 -0.056153 -0.146261 -0.191147 -0.077799 0.301314 -0.012159 -0.073209 0.008417 -0.053566 0.442196 0.050562 -0.183314 0.441307 0.009442 0.343058 -0.12301 0.33788 -0.391602 0.002874 -0.248608 0.212222 0.1948 -0.222415 0.121829 -0.498239 0.267931 0.122998 -0.097406 -0.004794 -0.1518
minister -0.801817 0.294721 -0.408572 0.158616 -0.337202 -0.043906 0.272399 -0.348727 0.145083 0.12188 0.365263 -0.396308 0.219433 0.295629 -0.049682 0.08998 -0.072492 -0.149088 -0.201158 0.251471 -0.553217 -0.127148 -0.069855 0.333299 -0.086535 -0.505121 -0.01249 -0.349821 0.107878 -0.300723 -0.183774 0.082029 -0.254489 0.35651 -0.207698 0.314541 0.283571 -0.191155 0.142299 0.408856 0.019152 0.416372 -0.362376 -0.301506 -0.18669 0.110331 -0.427506 0.203542 -0.068582 0.144001 0.339183 -0.247743 -0.126185 0.42626 -0.259174 -0.292436 0.352606 -0.074715 -0.011291 -0.211809 -0.293594 -0.063504 -0.14149 0.322424 -0.032629 0.090673 0.900057 -0.084371 -0.089481 -0.237395 0.252799 0.111115 -0.623515 -0.179049 -0.660293 -0.505677 -0.432411 0.017343 -0.367655 0.537335 0.389586 -0.057528 -0.252712 0.089721 0.228668 -0.071528 -0.328155 0.803533 -1.303111 -0.072751 0.266121 0.482102 0.004403 -0.164591 0.16342 -0.061248 -0.434495 -0.508306 -0.653735 -0.054872
planet -0.015483 -0.131139 -0.16264 0.306838 -0.042558 0.195861 -0.219926 -0.060177 0.172897 0.53402 0.187358 0.409005 0.081245 -0.181486 0.027215 0.2901 -0.115111 0.573344 0.034275 -0.013248 0.097098 0.567773 -0.230837 -0.04104 0.054472 -0.013723 -0.325317 -0.238107 -0.147604 0.0457 0.285205 0.12676 2.91E-4 0.156901 -0.21375 -0.047279 -0.051649 0.264897 0.054309 0.037313 0.300038 -0.115906 -0.107185 0.868717 -0.097683 3.54E-4 0.062394 0.005005 -0.314747 -0.078129 0.645242 0.202709 0.127712 0.498766 -0.04382 -0.139731 -0.180991 -0.640379 -0.281742 -0.04342 -0.140966 -0.070451 0.384594 -0.157326 -0.142055 -0.26693 0.380695 0.358449 -0.125844 -0.098086 0.263668 -0.145445 0.248896 -0.180644 0.465604 -0.090191 0.15128 -0.28922 -0.682273 0.278387 -0.601582 -0.554385 0.11435 0.358202 0.309331 -0.123306 0.17123 0.216476 0.10335 -0.032992 -0.250022 0.465515 -0.085428 0.021629 -0.157854 -0.158079 -0.134273 -0.150821 -0.307552 -0.376383
article -0.546839 -0.745473 -0.491311 0.776424 -0.180288 -0.606807 -0.06407 -0.896099 -0.207043 -0.037939 0.242274 -0.085644 0.307215 0.548792 -0.047003 -0.031995 0.293805 0.468864 -0.437484 -0.597448 -0.223216 -0.280787 -0.023071 -0.911982 0.729362 -0.060142 0.066386 0.286561 -0.115038 0.004989 0.445449 -0.13221 -0.469946 0.218311 -0.060159 0.433319 -0.7968 -0.562081 -0.338252 -0.751347 -0.286044 -0.416675 0.297856 0.567558 -0.495173 0.340918 -0.578015 0.460913 0.236749 0.082982 0.150228 0.14249 -0.22776 0.524224 -0.275416 -0.337481 0.342412 -0.540675 0.392451 1.221661 0.019232 0.15617 0.130484 0.00237 -0.047502 -0.370047 0.336709 0.881637 0.272005 -0.312535 -0.453794 0.471796 0.31981 0.035263 -0.422078 -0.876923 0.71039 0.122088 0.514458 1.443959 -0.044551 0.169086 -0.374379 0.246009 0.125338 -0.400445 0.315275 0.10962 0.711335 0.139844 0.058687 0.853499 -0.060191 -0.413794 0.401744 -0.337879 -0.393029 -0.095388 0.40176 -0.228781
anxiety -0.055007 0.043335 -0.593485 -0.377573 -0.214238 0.007243 0.639259 0.526044 -0.134335 -0.187112 -0.023785 -0.087176 -0.224945 0.423395 -0.616752 -0.109701 0.178298 0.355873 -0.050599 -0.006849 0.080184 0.318861 -0.33125 0.094135 0.065725 -0.056979 -0.338173 0.008905 0.288212 0.273349 -0.201144 -0.029256 0.122419 -0.052651 0.0845 -0.176446 -0.262132 0.321844 -0.224158 -0.073719 -0.247706 -0.011459 0.26087 0.253232 0.14285 -0.033034 -0.254887 0.341184 -0.544941 0.20267 -0.131367 -0.011072 -0.139744 0.022562 -0.240327 -0.091497 0.028434 0.2671 0.015447 -0.014985 0.04393 -0.474234 0.207444 0.172848 0.307621 -0.470726 -0.049444 0.411148 -0.543119 0.039826 -0.221434 0.011339 0.179807 -0.218068 -0.215816 -0.332489 -0.004716 -0.12738 0.447655 0.071332 -0.357415 -0.076976 0.292574 0.411901 0.391976 -0.199897 -0.051605 0.377363 0.057795 0.171895 -0.351442 -0.001522 0.016648 0.331394 0.214773 -0.074675 -0.713296 -0.535346 -0.388987 -0.254495
month -0.538042 0.137004 0.079898 -0.105047 -0.052388 0.01052 0.181722 -0.468986 -0.133501 -0.081662 -0.060201 -0.226079 -0.140912 0.112625 0.425557 0.024148 0.086799 0.059423 -0.273565 -0.066275 -0.29344 0.098869 -0.359104 -0.123563 0.296875 -0.377713 -0.22529 -0.091815 -0.02169 0.686208 0.302073 0.016305 0.109752 0.132562 -0.079423 -0.098966 0.018092 0.423336 -0.445816 0.135948 -0.250413 0.144614 -0.277976 -0.461733 -0.240434 0.112808 -0.107589 0.186359 -0.050654 -0.170415 -0.42616 0.309534 -0.11315 0.519338 -0.23257 -0.056319 -0.20247 -0.282464 -0.138452 0.023441 0.44224 -0.39893 -0.102913 0.009951 -0.211712 -0.376188 0.145559 0.225942 -0.121375 -0.152713 0.112007 -0.415484 -0.325106 0.289009 -0.087512 -0.188098 0.231552 0.186706 0.180782 0.430441 0.228857 -0.475386 -0.045352 0.320149 0.139575 0.13235 -0.161323 -0.243804 0.397031 0.395813 0.019539 0.536037 0.38655 -0.156291 -0.063939 0.05829 -0.156249 -0.070514 -0.272729 0.039777
carnivore 0.085242 0.113084 -0.428783 0.846105 -0.114295 -0.124734 -0.582141 -0.293116 0.131307 0.324007 0.030477 -0.542094 0.392231 0.029609 -0.118652 0.029469 0.166617 0.07576 0.097867 -0.142701 0.506975 0.680418 -0.164725 -0.10753 0.023275 -0.520752 -0.119891 -0.162131 -0.357636 0.251009 0.701073 0.086306 -0.439052 0.119529 0.410242 -0.231325 -0.141229 0.529127 0.194915 0.105543 -0.008698 -0.441568 0.296181 0.663394 0.33798 -0.0677 -0.022196 0.098838 -0.231199 -0.203445 0.152498 0.174727 0.506598 -0.085231 0.305776 0.19242 -0.488233 -0.354718 0.071594 0.018064 -0.10365 -0.23582 0.067664 -0.141192 0.101201 -0.214549 0.220684 0.406463 -0.600086 -0.23545 -0.217228 0.025737 0.413849 -0.462708 -0.054259 0.019939 0.137627 -0.225739 -0.898684 0.287668 -0.427701 0.033163 0.762035 0.311013 0.417719 -0.404966 -0.214723 0.135088 -0.257493 0.126315 0.060225 0.774845 -0.292674 -0.061658 -0.174994 -0.07299 -0.138903 -0.206964 -0.130325 -0.582388
party -0.389291 -0.05011 -0.006931 0.226168 0.011595 0.059944 -0.042275 -0.036052 0.104209 0.320312 0.366409 -0.027068 0.211891 0.076632 -0.288253 -0.006233 0.222026 0.243631 0.192238 0.198579 -0.183428 0.036274 -0.261418 0.233615 0.19364 -0.107837 -0.099412 -0.099986 0.178354 0.1143 0.090121 -0.159943 0.15434 -0.188859 0.07049 -0.098078 0.152355 0.174968 -0.135299 0.288949 0.019299 0.233874 -0.260597 -0.097491 -0.511989 -0.297066 -0.356651 0.505787 -0.053373 0.495385 -0.087916 0.319382 0.47718 -0.08657 -0.125355 0.409692 -0.360963 -0.302679 0.087122 0.215587 -0.140869 -0.199301 0.164019 0.495467 0.023877 -0.149847 0.376648 -0.273201 0.140911 -0.124804 0.412167 -0.001014 -0.387337 0.00193 -0.2718 0.081573 0.153994 0.037432 -0.066443 0.146759 0.294929 0.099112 -5.35E-4 0.051076 -0.007061 -0.015791 -0.277252 0.171632 -0.59561 0.114379 -0.045201 0.297072 -0.477061 -0.185591 -0.187286 -0.093449 -0.341911 -0.258963 -0.510601 -0.283548
production 0.082935 0.026283 -0.072966 -0.3218 0.118288 0.190252 -0.267586 -0.040277 -0.064999 -0.254193 0.057666 -0.153682 -0.071016 0.257061 0.202029 0.407852 -0.257645 0.30431 0.174725 -0.271642 -0.107892 0.112162 -0.065038 0.241042 -0.025383 -0.185713 -0.023364 0.097918 0.120628 -0.080792 0.018848 0.093171 -0.337411 -0.318004 -0.096002 -0.155388 0.239647 0.066028 0.125476 0.41466 0.176884 0.159251 -0.17864 0.192049 0.028817 0.623346 0.038435 0.138848 -0.115096 -0.047284 -0.272778 0.042051 0.521725 0.677478 -0.040948 0.119647 -0.146854 -0.208256 -0.56073 0.255854 -0.369904 -0.25038 0.281762 -0.036779 0.050521 -0.223156 -0.064064 -0.019374 -0.266858 -0.288464 -0.366127 -0.251189 0.125103 -0.542953 -0.103864 -0.143131 0.204534 0.399807 0.010411 0.24855 -0.161698 -0.059323 0.10044 -0.211996 0.063772 0.352942 -0.132195 0.112557 0.146991 -0.146248 0.098585 -0.071531 0.462514 -0.378349 0.10458 -0.278914 -0.110197 -0.220538 -0.051339 0.136338
importance -0.251213 -0.063836 -0.074454 0.036776 -0.033318 0.013134 0.622986 -0.206447 0.144578 0.135786 0.008787 0.036636 -0.293452 0.314121 -0.272467 -0.041496 -0.065842 0.620472 -0.07452 -0.211958 0.001402 0.435888 -0.154336 0.019847 0.616369 0.076179 -0.418167 -0.192348 0.119715 -0.226363 -0.202463 0.017662 -0.349954 -0.118125 -0.040917 -0.411821 -0.146378 -0.043705 0.073699 -0.120724 0.277537 -0.07626 -0.008273 0.547752 0.016358 0.080055 -0.108656 0.136207 -0.050327 0.284609 -0.376934 -0.179352 -0.138635 0.234835 -0.291839 -0.388501 -0.039955 -0.014493 -0.215491 0.15632 0.030289 -0.033806 0.098777 -0.313013 0.215339 0.383736 0.175607 0.312427 0.043256 -0.202238 -0.18454 -0.244266 0.109303 -0.291345 -0.177844 -0.102429 0.371453 -0.032803 0.234854 0.011899 -0.369344 0.144459 0.143922 0.31285 0.224175 0.004772 -0.224637 0.088453 -0.407285 -0.192516 -0.103982 0.11552 -0.216182 0.046536 0.206497 -0.117284 -0.021869 -0.169666 -0.469976 -0.291134
inmate -0.204604 0.221222 -0.185016 0.309995 0.37164 0.07709 -0.546516 -0.39914 0.009475 0.161721 0.274125 -0.079717 0.086787 -0.113678 -0.22605 -0.532218 0.147754 0.153251 0.173054 0.111288 -0.180881 -0.203322 0.346397 0.175554 0.269487 -0.324968 -0.444116 0.019861 0.088573 0.450411 0.152862 0.07634 -0.180209 0.43063 0.222803 0.077459 0.123111 0.353699 -0.307785 0.188784 -0.153981 -0.386608 -0.017306 0.097881 -0.122903 0.63233 -0.072818 0.617014 -0.658666 -0.144849 0.590126 0.127839 0.138561 -0.290782 0.269103 -0.019563 0.385153 -0.037318 0.112458 -0.15893 0.305345 -0.254829 -0.085252 -0.111508 0.080466 -0.718032 0.20555 0.351567 -0.291901 0.310296 -0.237006 -0.006456 -0.387475 -0.077395 -0.275198 -0.051349 0.073495 0.099132 -0.37118 0.351831 -0.097645 -0.030974 -0.129041 -0.195073 0.121295 0.013763 -0.460147 0.177788 0.014619 0.563703 0.23818 0.10746 0.045715 0.134513 0.457271 0.160631 -0.033315 -0.119981 -0.368121 -0.045479
Harvard -0.23384 0.238884 -0.20828 -0.194488 -0.100847 -0.186603 0.093222 -1.006497 0.188876 0.431869 -0.088315 0.215849 0.170253 0.095587 -0.621552 -0.279243 -0.359271 0.297103 -0.05782 0.113127 -0.567122 0.208258 0.245686 0.087219 0.397351 0.414902 -0.24907 -0.044765 0.006909 0.358469 -0.124086 -0.44773 -0.009278 0.27303 0.132714 -0.2642 -0.181417 0.225578 -0.220646 -0.130125 0.347601 0.368921 0.092155 0.028062 -0.018054 -0.108944 -0.354589 0.107689 -0.850011 -0.322872 0.189778 -0.066578 -0.244136 -0.316729 0.056414 -0.512351 -0.064004 0.775823 -0.100316 0.577428 -0.526069 0.101111 -0.256592 0.439919 0.028761 -0.398262 0.310461 0.317704 -0.256905 -0.820407 -0.2202 0.01607 -0.022359 0.064008 -0.179242 0.304263 -0.104642 -0.233823 0.102733 0.63378 0.23399 0.364441 -0.228265 0.038877 -0.077764 -0.362076 0.133099 0.235064 -0.072484 0.224713 0.217215 0.320551 -0.058876 0.429085 0.164792 -0.373446 -0.24226 -0.265085 0.724129 -0.132205
psychology -0.025919 0.098028 -0.265403 0.094062 0.029116 -0.036794 0.154078 -0.545274 0.010836 0.29444 -0.111424 0.240323 0.261362 0.147423 -0.412448 0.055704 -0.14381 0.337882 -0.285101 -0.0961 -0.39649 0.206877 0.236871 0.474182 0.252217 0.687856 -0.230151 0.128754 -0.028998 -0.042033 -0.336122 -0.108679 -0.266738 0.095565 -9.85E-4 -0.356261 -0.083117 0.583162 0.080486 -0.214242 0.189018 -0.262217 0.20187 0.293457 -0.105806 -0.065358 -0.300193 0.004201 -0.571774 -0.352942 0.203984 0.009533 -0.121896 -0.00603 -0.03762 -0.269395 0.268854 0.540103 -0.295539 0.475479 -0.392206 0.383958 -0.069141 0.109054 0.353357 -0.60967 0.061504 0.347716 -0.391924 -0.854187 -0.352681 -0.130762 -0.04218 -0.334547 -0.557497 -0.001057 -0.064888 -0.386663 0.06771 0.760333 -0.148234 0.277666 0.148998 -0.059772 0.175262 -0.533923 -0.456615 0.428816 -0.223863 -0.003137 0.365686 0.50375 -0.21048 0.313125 -0.084892 -0.197424 -0.031575 -0.324421 0.56216 -0.459445
medal -0.606338 -0.800529 -0.080951 0.624822 -0.009372 0.323545 -0.179557 0.8517 0.111905 -0.168144 0.142457 -0.274064 0.462064 -0.354013 0.256995 -0.309623 0.149396 0.557596 0.284134 -0.192253 -0.394151 0.27908 0.658892 -0.107393 0.460584 -0.685576 -0.155927 0.140386 -0.271043 0.264638 0.414296 -0.519856 -0.127014 -0.385725 0.181857 0.369714 0.484029 0.286615 -0.037232 0.160653 -0.008553 0.14885 -0.177671 0.480764 0.041309 -0.053649 -0.625285 0.807689 -0.651829 0.132104 0.149234 0.071663 -0.127074 -0.183636 -0.010991 -0.009517 -0.503677 0.24527 -0.649993 0.467999 -0.094558 0.402083 -0.64703 -0.497167 -0.58151 -0.187653 0.489106 0.031393 0.47792 -1.001406 0.166853 -0.408642 -0.16262 -0.096416 0.267783 -0.14807 0.138871 -0.139466 0.523045 0.61498 -0.211543 0.159732 0.330693 0.653655 0.200839 -0.358147 0.394114 -0.072204 -0.110973 -0.533194 0.523319 0.040344 -0.097019 0.244768 -0.559861 0.302574 0.245347 -0.373474 0.074678 0.38521
company -0.047448 0.205754 -0.234429 -0.293009 0.222694 -0.090268 -0.194511 -0.290661 -0.01388 -0.250947 -0.106181 -0.220763 0.333601 0.35947 -0.145509 0.279586 -0.197238 0.210661 -0.109769 -0.202334 -0.312807 0.046165 0.075355 -0.015796 0.151571 -0.158859 0.2184 0.261156 -0.070665 0.015247 0.199023 -0.491577 -0.060377 -0.085706 -0.15848 -0.201805 0.018935 0.179715 -0.185182 0.340634 0.028846 0.125061 -0.155428 -0.05302 0.015143 0.320085 0.049892 -0.106763 -0.544487 0.282085 -0.043883 -0.180405 0.360869 0.327952 -0.138589 0.032643 -0.327603 -0.372813 -0.364347 0.085556 0.063443 0.047436 -0.144778 -0.169617 0.15682 0.0361 0.233129 -0.130352 0.103672 -0.015492 0.024824 0.055367 -0.008563 -0.04543 -0.24968 -0.171021 0.18204 0.263227 -0.24745 0.247429 -0.261792 0.373847 -0.191016 0.153616 0.143189 -8.53E-4 0.102187 0.082638 -0.011661 0.313363 -0.100907 -0.040078 0.224788 -0.289291 -0.092029 -0.31989 0.155172 -0.260585 -0.232342 -0.163866
live -0.061875 -0.085922 -0.068889 0.091194 -0.082231 0.192764 -0.050562 0.089954 -0.028822 0.402029 -0.172073 0.241563 -0.030244 -0.081969 -0.396879 0.145588 0.346375 0.123006 0.346643 -0.099694 -0.072104 0.278884 0.00607 0.358521 0.162992 -0.115246 -0.360854 -0.096633 -0.112818 0.270457 -0.341766 -0.067011 -0.192978 -0.438967 -0.421902 -0.099913 -0.071955 0.467035 0.013504 -0.002388 -0.290449 0.047077 -0.018028 0.4622 -0.114466 0.409401 0.181994 0.200835 -0.045138 0.125066 0.087297 -0.089969 0.048003 -0.022719 0.158787 -0.138215 -0.576258 -0.408441 0.535274 -0.184672 -0.185958 0.118728 0.217465 -0.237966 -0.227387 -0.045762 0.054708 -0.040425 0.042441 -0.278983 0.040509 0.508371 -0.28596 -0.10622 0.16087 -0.159755 0.079599 0.065712 -0.228218 0.315799 0.008196 -0.134223 -0.064221 -0.031572 0.116058 -0.013955 -0.334419 0.102893 0.357148 -0.056444 -0.00348 0.348998 0.320382 -0.295522 0.171672 0.198405 -0.157143 0.057677 0.003073 -0.055001
holy -0.261543 -0.01717 0.282561 0.073033 -0.281133 -0.205727 -0.326323 -9.65E-4 0.012318 0.259271 0.028902 -0.387887 -0.405832 -0.057703 -4.5E-5 -0.126421 0.318269 0.221579 0.263091 0.028252 0.490653 -0.101201 -0.019705 -0.019266 0.008837 -0.190126 -0.165999 -0.460254 0.32138 0.418314 -0.229501 0.146022 0.038938 -0.227971 -0.011592 -0.19289 -0.018792 0.053947 -0.103038 -0.162734 0.318611 0.107059 0.443475 0.500816 -0.421719 0.424221 0.061902 0.255614 -0.354039 0.898801 -0.053581 0.022729 -0.107019 0.270178 -0.37987 -0.006787 -0.182449 0.078277 -0.101286 0.011328 -0.158365 -0.386341 -0.171792 -0.368481 -0.011843 0.711997 0.865824 1.229189 0.064755 -0.081144 0.173596 -0.274054 -0.404803 0.210193 0.026722 0.184016 0.038996 -0.274191 -0.66692 0.903011 -0.061893 0.003922 0.494063 -0.399378 0.292577 0.444457 -0.287383 0.3242 -0.158381 -0.162951 -0.159073 0.689125 0.360229 0.363489 0.16892 0.294054 -0.089273 -0.312679 0.378932 -0.284321
ticket -0.24586 0.392829 0.046544 0.098911 0.043267 0.073358 -0.242336 0.247863 -0.173077 -0.148416 -0.150341 0.044163 0.167856 -0.062659 0.10489 -0.24043 -0.203026 0.403156 0.330284 -0.073446 -0.292267 -0.003498 0.479988 -0.618854 0.067455 -0.520267 -0.402886 0.114784 0.417367 0.205324 0.012672 -0.250935 0.341449 -0.592568 -0.518391 -0.124614 0.092834 0.138352 0.04625 0.328544 -0.265925 0.116911 -0.043616 -0.077776 -0.22403 -0.329885 -0.335251 0.455832 -0.396448 0.284818 -0.384377 0.026362 -0.155505 0.219757 -0.283459 0.252152 -0.441753 -0.416757 -0.136807 -0.045139 -0.299402 -0.046888 0.064833 0.270362 -0.005386 -0.304263 -0.153749 -0.190445 0.305577 -0.162131 0.157982 0.079184 -0.085697 0.061543 0.033025 0.04819 0.028058 0.085593 0.135384 0.192798 0.179328 0.013907 0.138132 -5.7E-5 0.091452 -0.057467 -0.042259 -0.23268 -0.120824 0.060126 0.098011 0.446726 -0.085581 -0.085332 -0.006342 -0.298965 0.014432 -0.266081 -0.078961 0.178343
victory -0.069844 -0.002988 -0.016492 0.074203 -0.174022 0.284717 -0.116054 0.322928 0.425924 0.054293 0.142673 -0.296237 0.029457 -0.143614 0.087452 -0.116632 0.138547 0.358596 0.185541 -0.36073 -0.442019 -0.202863 -0.120343 -0.235674 0.681291 -0.040953 0.172908 -0.321666 0.082378 0.334555 0.200821 -0.472813 -0.053849 -0.091109 0.150568 0.145718 0.335403 0.519139 -0.406352 -0.141443 0.022891 0.610334 -0.078225 0.273211 -0.387889 0.144856 -0.295885 0.614697 -0.403965 0.438882 -0.053975 0.181629 0.083451 0.427098 0.163579 0.035247 0.262534 0.189303 0.615073 -0.013108 0.016917 -0.251478 -0.363515 -0.520227 0.14888 -0.422346 -0.057684 -0.172952 0.170737 -0.426067 0.232605 0.237184 0.032598 5.05E-4 -0.220369 0.03984 0.387328 -0.181904 0.453273 0.408771 0.353766 -0.134154 -0.16541 0.642101 0.230499 -0.272624 -0.112344 0.034987 -0.473289 -0.258523 0.53035 0.110193 -0.207298 0.256331 -0.580618 0.439598 -0.229556 0.085728 -0.494081 0.209826
football -0.089355 0.058213 -0.060832 0.052559 0.122281 0.09413 0.190999 0.171404 0.241747 0.70388 0.03906 0.10148 0.422234 -0.016449 -0.014709 -0.008337 0.271694 -0.18506 0.400096 0.12492 -0.046584 0.11918 0.149847 -0.161838 0.235679 0.071092 -0.201024 -0.27272 -0.004594 0.051399 -0.026832 -0.069383 0.078828 -0.346161 -0.178347 -0.0876 -0.020795 0.382948 0.308329 -0.237722 0.034955 -0.278599 -0.255269 0.127453 0.186808 -0.112682 -0.476664 0.139163 -0.186044 0.491946 0.059913 0.312507 -0.140385 0.162725 -0.06105 -0.345978 -0.492354 -0.340031 -0.265799 0.307696 -0.288003 0.171881 -0.377517 -0.439264 -0.397566 -0.498846 -0.045293 0.082901 -0.181925 -0.186081 -0.253501 -0.583253 -0.05335 -0.001594 -0.344981 -0.022546 -0.060026 0.252099 -0.211203 0.229859 -0.121921 0.272305 -0.064841 0.006646 0.496313 -0.217883 -0.173971 0.505679 -0.26176 -0.124178 0.586634 0.517318 0.156659 0.055799 -0.272494 -0.13975 0.087294 0.029912 0.141749 -0.051121
seepage 0.214399 -0.055465 -0.621543 -0.033535 -0.436543 0.492127 0.022691 0.493874 -0.428389 0.476622 -0.032788 0.172727 -0.107409 -0.002471 -0.119735 0.169252 -0.144469 0.393315 -0.272913 -0.025394 -0.052558 0.077219 -0.656152 0.4461 -0.166453 -0.305275 -0.430256 -0.169717 0.287475 -0.28578 0.468119 0.103412 -0.077093 0.445103 0.135382 -0.318211 -0.393902 -0.00877 -0.121671 -0.005629 0.115374 0.142062 -0.506885 0.24814 0.31018 0.613129 -0.192848 0.141858 -0.633627 0.162808 0.449222 0.329109 0.308144 0.458702 -0.43498 0.071733 -0.61421 -0.286484 -0.123615 -0.092895 -0.078317 -0.3393 0.12363 0.093859 0.529426 -0.156298 0.103381 0.008704 -0.380297 -0.096228 -0.339262 -0.4981 0.165678 0.128284 0.198501 0.207432 0.162854 -0.414177 -0.206141 0.463998 -0.046691 -0.10346 0.383109 -0.323561 0.400384 0.272583 0.273622 0.245475 -0.190848 -0.201932 -0.306654 -0.038235 -0.285036 0.144796 0.296211 0.071171 -0.199703 -0.342587 -0.061581 -0.363592
rook 0.125843 -0.068959 -0.612289 0.308999 0.107064 0.579825 -0.425546 -0.543444 -0.218445 0.544628 0.499433 -0.214488 0.505751 -0.312718 0.005699 -0.229846 0.459637 0.116184 0.249867 0.095453 0.194274 -0.020569 0.51307 -0.394848 0.277092 -0.490506 -0.059909 -0.253022 -0.137893 0.339237 0.225374 0.052201 -0.100668 0.08038 -0.102237 0.23868 -0.200221 0.485011 0.199137 0.087087 0.010405 0.040216 0.097489 0.619801 0.074625 -0.33968 0.179524 0.221634 -0.213529 0.586544 0.199724 0.598905 0.004456 -0.344735 0.401804 0.252655 -0.253367 -0.142829 0.301477 -0.033327 0.045639 -0.036681 -0.009856 -0.129831 0.107554 0.033418 0.285107 0.164225 -0.061631 -0.027445 0.338215 -0.128709 0.533669 -0.380959 -0.122015 0.128945 -0.534422 0.064663 -0.144412 0.15783 0.126995 -0.085051 0.593817 -0.017961 0.294524 -0.257033 -0.104565 -0.111773 0.12669 0.05915 -0.261947 0.316484 0.034939 0.167474 -0.085518 0.170544 -0.465112 -0.349242 0.331636 -0.191395
stroke -0.17883 -0.121872 -0.68579 0.079627 -0.138769 -0.192482 -0.274039 0.438902 -0.104153 -0.284801 0.495135 -0.06317 -0.005999 0.487766 -0.387171 0.052396 -0.279999 0.055534 0.025638 -0.322645 -0.016978 0.329269 -0.316609 0.482606 0.554817 -0.206439 -0.181238 0.045759 0.095781 0.715082 0.154833 -0.584999 0.17083 -0.230837 -0.053856 0.086361 -0.151185 0.05827 -0.196624 -0.114145 0.071018 0.394513 -0.002615 0.356982 0.374385 -0.076062 -0.1578 0.394873 -0.253708 -0.288337 0.541655 0.593276 0.217621 -0.16717 0.210072 0.254615 -0.054186 0.444531 -0.016989 0.106152 0.006694 -0.108092 -0.197671 0.042002 -0.329608 -0.588238 0.097891 0.327853 -0.210563 -0.175346 -0.174847 0.200524 -0.06562 -0.181103 -0.291333 -0.487272 -0.230804 0.163769 -0.022543 -0.143817 -0.103446 -0.084286 0.270114 0.218757 0.341516 -0.503448 -0.060282 0.086979 0.097151 0.276204 0.156988 -0.111635 -0.142839 0.375535 0.136058 0.250758 -0.809328 -0.306267 0.118155 -0.325325
environment -0.178996 -0.047593 -0.320848 -0.06056 -0.049051 -0.013583 0.409355 -0.143515 -0.284519 0.006815 0.061537 0.308297 0.203475 -0.021142 -0.161229 0.362552 -0.119175 0.728269 -0.054364 0.037915 -0.027621 0.542498 0.052276 0.180782 0.054553 -0.125396 -0.046389 -0.011662 0.062446 -0.372375 0.112213 7.21E-4 -0.386821 0.078449 -0.36276 -0.02096 -0.336104 0.209185 -0.074412 0.013385 0.345814 -0.039325 -0.109184 0.354977 -0.200007 0.051735 0.183886 -0.018089 -0.059251 0.143663 4.7E-5 0.126888 -0.045803 0.351861 -0.13292 0.137671 0.062092 -0.196847 -0.219212 -0.324189 -0.109674 0.188965 0.162781 0.009589 0.127196 -0.192592 -0.022567 -0.191658 -0.114172 -0.271389 -0.221881 -0.256462 -0.005129 -0.120885 -0.276737 -0.133993 0.2414 -0.241784 -0.133026 0.315064 -0.196091 0.055378 -0.019388 0.468689 0.302046 -0.046678 -0.315469 0.311835 -0.210641 -0.086474 0.026351 0.32345 0.102381 -0.094942 0.109939 0.082028 0.073482 -0.149344 -0.415095 -0.653434
coffee -0.29051 0.257783 -0.298808 -0.232787 -0.28705 0.056427 -0.160632 0.083473 -0.333211 -0.22101 -0.300441 -0.141662 0.261642 0.016468 -0.079801 -0.034199 0.647725 0.391228 0.443376 0.011272 -0.02702 0.148625 0.299181 -0.044994 0.118003 -0.481714 0.250945 0.377344 0.535006 0.087992 0.248852 -0.071541 -0.271829 -0.102342 -0.14205 -0.37752 -0.001619 0.466051 0.038179 0.24859 -0.002998 -0.239586 -0.110702 0.131647 0.301693 0.205365 -0.232278 0.195705 -0.423596 0.212644 -0.314854 0.092971 0.497181 0.103684 -0.146046 -0.191916 -0.209921 -0.16557 0.150365 -0.168299 -0.230061 0.060965 0.02659 0.06859 -0.251307 0.039023 -0.161827 0.261452 -0.26024 -0.046375 0.541241 0.094808 0.450664 -0.169381 -0.169295 0.046654 -0.153915 0.093337 -0.16888 0.474493 0.050831 0.510939 0.40824 -0.310189 0.181501 0.140975 -0.014013 0.027339 -0.432391 -0.115991 -0.283622 0.39665 -0.252001 -0.328618 0.179954 0.012321 -0.476824 -0.034555 0.237952 0.023163
baby -0.207119 0.004123 -0.947711 0.063381 0.138718 0.48169 0.119097 0.061122 0.120231 -0.190045 0.009782 -0.148246 -0.253904 0.034249 0.172215 -0.289995 0.389538 0.121334 0.083754 0.004378 -0.169756 0.236785 0.399446 0.184039 0.079593 -0.393139 -0.352796 0.18114 -0.318397 0.12091 0.49669 0.05112 6.95E-4 0.230663 -0.169619 -0.520229 0.063569 -0.077309 0.096168 0.07106 0.009164 -0.035403 0.114877 0.201157 0.018315 0.270365 -0.267641 0.224538 -0.388724 -0.079937 0.142994 -0.156115 0.209195 0.203553 0.132154 0.156079 -0.408305 0.022749 0.18982 -0.246554 -0.166322 -0.295057 0.167509 -0.024351 -0.391827 -0.335654 0.249824 0.318329 0.127016 0.105213 0.127271 0.019561 0.025686 -0.466681 -0.099597 -0.097073 0.04664 0.27735 -0.431504 -0.036841 -0.235211 0.138394 0.453098 0.018559 0.15188 -0.536871 -0.166539 0.07996 0.130625 0.352384 -0.219367 0.387171 -0.307601 -0.453628 0.140287 0.04676 -0.271871 -0.177598 -0.040187 -0.143511
personnel -0.134116 0.073162 -0.022697 -0.279443 0.130215 -0.279441 0.201302 0.127442 0.274046 0.127481 0.220719 -0.030008 0.214999 0.020739 0.009137 0.017975 0.025664 0.426377 -0.062809 -0.065345 -0.353254 0.117713 0.323939 0.218888 0.08161 -0.62223 -0.398281 0.053296 0.113306 0.409025 0.028994 0.051541 -0.369044 -0.367343 -0.145966 -0.228399 -0.245059 0.160613 -0.215543 -0.083952 0.41274 0.323163 0.026205 -0.535388 -0.010571 0.368554 0.397753 0.632914 -0.11614 -0.379632 0.457643 -0.110007 -0.324024 -0.064481 -0.190016 -0.06964 -0.095639 -0.485698 -0.328202 0.084927 0.194204 0.035515 0.190177 -0.376034 0.223421 0.261535 -0.213886 -0.023239 0.126441 0.098096 -0.546526 -0.674956 -0.134089 -0.062246 -0.098332 -0.0573 -0.061387 0.107616 -0.020279 -0.190144 -0.14649 0.613417 -0.337791 0.003012 0.312458 0.068622 -0.1515 0.308262 -0.194707 -0.247313 -0.010203 0.021638 0.152308 0.136313 0.389494 -0.241239 -0.173651 -0.361486 -0.086822 0.133205
family -0.265267 0.204178 -0.174047 -0.002519 0.201679 0.159434 -0.054153 -0.125144 -0.015891 0.114464 0.077358 -0.187858 -0.114715 0.415004 -0.31058 -0.296321 0.340285 0.285337 0.255144 0.114953 -0.317431 0.257834 0.083208 0.408943 0.079086 -0.208042 -0.188563 0.049238 0.139446 0.072815 -0.245575 0.142962 0.154284 -0.039677 -0.281262 -0.490291 0.035614 0.109088 -0.150288 -0.015286 0.005697 -0.156258 0.088654 -0.181718 -0.060197 0.180814 0.208017 0.263855 -0.238984 0.31565 0.161147 -0.286036 0.30391 0.00534 -0.058028 0.036033 -0.255818 -0.099541 0.033404 -0.172946 -0.0804 -0.013793 0.297311 -0.119672 -0.390376 -0.236692 0.006152 0.197892 0.216686 0.073989 0.156558 0.131642 -0.311106 0.01117 -0.076167 0.03871 -0.053561 0.205329 -0.196612 0.208922 -0.166852 0.360204 0.125838 0.229625 0.088917 -0.400808 -0.076949 0.1705 -0.056936 0.345802 0.023134 0.269278 -0.131781 -0.04219 -0.153088 0.005939 -0.088374 -0.151966 -0.349145 -0.232294
hypertension -0.232062 0.121569 -0.785706 0.240497 -0.349263 -0.21587 -0.099685 0.514959 0.032078 -0.513533 0.013436 0.044183 0.026606 0.203191 -0.668346 0.073684 -0.181628 0.279634 0.387519 0.414873 0.103948 0.957408 -0.282468 0.360678 0.236041 -0.573802 -0.197897 0.688815 -0.070311 0.239177 -0.025267 -0.948966 0.127909 -0.132588 0.214377 -0.083224 -0.369513 -0.253042 0.015721 -0.131123 0.047876 0.236518 0.369049 0.655027 0.348796 0.192238 -0.10772 0.475043 -0.536175 -0.380335 0.396597 0.663252 0.201926 -0.270813 -0.121603 -0.190989 -0.248562 0.154322 0.25868 0.061876 -0.380784 -0.653575 -0.205336 0.107725 -0.041702 -0.776387 0.340107 0.670453 -0.708937 -0.551543 -0.484902 -0.133303 0.099696 -0.331614 -0.538283 -0.771503 -0.574208 -0.464548 0.117248 -0.529539 -0.419584 0.344204 0.556152 -0.252724 0.696556 -0.062946 -0.120976 0.285279 0.201695 0.356338 0.106022 -0.306375 0.206316 -0.045026 0.471529 0.147682 -0.622542 -0.693742 0.089313 -0.723778
president -0.213375 0.263836 -0.01799 0.193742 0.087502 -0.015083 0.276473 -0.534903 0.005825 -0.017336 0.19026 -0.280649 0.255513 -0.190893 -0.227326 -0.129364 -0.313962 0.221399 0.074998 0.232258 -0.306658 0.083737 0.228691 -0.050052 0.587192 -0.009647 -0.282797 -0.070907 -0.123407 0.299502 -0.061839 -0.109369 -0.246186 0.011261 -0.033453 0.347543 -0.080822 0.019828 0.070214 0.184265 0.194977 0.213319 -0.044364 -0.242136 -0.210582 0.228798 -0.544429 0.031205 -0.386245 0.044296 -0.527534 -0.117794 0.304253 0.205719 -0.38592 0.099967 -0.095448 -0.341065 -0.164159 0.066483 -0.170122 -0.139534 -0.174944 0.011479 -0.076683 -0.01024 0.439906 -0.160044 -0.073922 -0.129873 0.108724 -0.040776 -0.288683 -0.274292 -0.213191 -0.025422 -0.011282 -0.281535 -0.166217 0.015987 0.16737 0.115112 -0.284095 -0.315848 0.382539 -0.263376 -0.093502 0.350958 -0.34978 -0.0089 0.188012 -0.025943 0.257214 -0.006704 -0.279192 -0.292614 -0.389242 0.119237 -0.52084 -0.169691
atmosphere -0.226323 0.320283 -0.219238 -0.28798 -0.090248 0.224598 0.101567 0.458208 -0.117691 0.44798 0.186844 0.403171 0.289477 -0.068794 -0.387424 0.213446 0.305358 0.581565 -0.068047 -0.273819 0.110234 0.104866 -0.142506 0.141424 0.186395 0.203748 -0.230607 -0.291086 -0.001047 -0.340642 0.291281 0.362039 0.029298 0.113582 -0.079899 0.028045 -0.095004 0.553132 -0.280122 -0.181206 0.161904 -0.075258 -0.487234 0.655797 -0.260898 0.058693 -0.079258 0.0923 -0.382975 0.016898 0.138599 0.095436 0.416936 0.294541 -0.418639 0.11987 0.035346 -0.101145 -0.202463 0.129742 -0.313114 0.080027 0.414523 -0.137567 -0.107516 -0.131191 0.042267 0.130887 -0.288933 -0.283616 0.275994 -0.458142 0.165909 0.09875 0.002768 0.023991 0.172659 -0.107638 -0.195829 0.234489 -0.099322 -0.393242 0.23274 0.302727 0.070731 0.331825 0.348696 0.203117 0.11156 -0.369307 0.330012 0.44467 0.035317 -0.261243 0.004826 0.004508 -0.100269 -0.085038 -0.34081 -0.205043
practice 0.135995 -0.094602 -0.214433 -0.098831 -0.00483 -0.170129 0.051121 -0.128898 -0.011418 0.143588 0.061877 -0.037643 -0.084617 0.090211 -0.399186 -0.043929 0.034272 0.012653 0.061616 -0.325785 0.001802 0.344233 0.090864 0.11175 0.296176 0.027786 -0.056322 -0.128835 -0.050441 -0.079311 -0.094868 -0.329033 -0.199903 -0.195136 0.05883 -0.290975 -0.103925 0.277854 -0.192237 -0.392735 -0.085534 -0.001891 -0.037357 0.23987 -0.223894 0.066005 0.001698 0.278569 -0.263042 0.236567 -0.168079 0.146636 -0.208866 0.257955 0.144075 -0.026794 -0.159711 -0.093191 -0.300999 0.009755 0.24819 0.067173 -0.197351 -0.154405 -0.182539 -0.238399 0.022861 0.275237 -0.465903 -0.088089 0.053257 -0.388235 -0.280172 0.249311 -0.471058 -0.194716 -0.05962 0.126546 -0.085772 0.234814 0.036282 0.541343 -0.158555 0.069766 -0.014402 0.0616 -0.042272 0.079482 -0.351213 -0.032988 0.189075 0.05015 -0.027119 -0.092894 0.186032 0.046923 0.034389 -0.052659 0.199768 -0.433464
movie -0.132516 -0.309573 0.104415 0.221974 0.3355 0.007448 0.009564 -0.125082 -0.007133 0.154141 0.065917 0.391982 0.08713 0.212238 -0.438285 -0.048932 0.203723 0.244995 0.161019 -0.141544 0.08219 -0.347531 0.5776 -0.149043 -0.068318 -0.117688 0.235072 0.040173 0.065987 0.205028 0.172328 -0.090148 0.273168 -0.636478 -0.190208 -0.026063 0.274849 0.314593 0.241782 0.088058 -0.294801 -0.032551 -0.447528 0.3966 -0.028859 0.244076 -0.124392 0.130128 -0.359532 0.157127 -0.063447 -0.065857 0.649259 0.473479 0.027815 -0.065997 -0.257455 -0.202232 -0.290238 0.056455 -0.303902 0.043652 0.587812 0.182676 -0.252518 -0.285665 0.14979 0.278425 0.050951 -0.292399 -0.285044 -0.296062 -0.163417 -0.361879 0.003404 -0.298316 0.159772 0.128608 -0.03581 0.384954 -0.135455 -0.026874 0.153976 0.009109 0.004663 -0.316094 -0.152988 0.064006 0.186043 -0.028304 -0.224675 0.155561 0.603819 -0.066011 -0.166125 -0.229058 -0.244951 0.029454 0.230305 0.089567
popcorn -0.238946 0.0291 -0.423379 -0.363844 -0.191215 0.197913 -0.109263 0.113807 -0.220195 -0.271709 -0.033819 0.145079 0.057537 -0.105378 -0.147743 -0.099817 0.642207 0.355548 0.624409 -0.103326 -0.042556 -0.058869 0.479935 -0.407782 -0.290466 -0.33172 0.026032 0.032645 0.269211 0.343064 0.515028 -0.28925 -0.36318 -0.296172 0.035784 -0.517736 0.059504 0.338376 0.176102 -0.013945 0.015393 -0.055968 -0.367925 0.381176 0.324769 0.433843 -0.357739 -0.040804 -0.357688 0.087365 -0.154586 0.130971 0.648274 0.266638 -0.084394 -0.369772 -0.349161 0.02923 -0.030284 -0.039013 -0.084466 0.120661 0.393738 0.243383 -0.346084 -0.157335 0.010036 0.270801 -0.07244 -0.061955 0.328535 -0.012405 0.609477 -0.378056 -0.154858 -0.137356 -0.042051 0.174377 -0.25389 0.161065 0.222979 0.248206 0.448563 -0.112481 0.339354 0.160323 0.099402 0.110456 -0.315004 -0.038685 -0.50241 0.16866 -0.18291 0.145231 0.160103 -0.078788 -0.617633 -0.107505 0.421231 -0.06792
recommendation -0.111199 -0.068934 0.005459 0.016645 0.022261 -0.056182 -0.125961 -0.426033 -0.535781 -0.270642 -0.156778 -0.301141 -0.114375 0.160788 -0.363286 -0.063342 -0.059525 0.46371 0.009863 -0.123916 -0.498121 0.344525 0.177368 -0.154182 0.35558 -0.146304 -0.151189 0.221188 -0.278818 0.058477 0.204816 -0.025832 -0.249028 0.181482 -0.268991 -0.070759 0.251415 -0.142654 -0.171812 0.079983 0.010287 0.166214 0.200675 0.062037 -0.133817 -0.058668 0.147158 0.234737 -0.375054 0.222318 -0.294292 0.347675 0.068586 0.283555 -0.028515 -0.217792 -0.112476 -0.170578 -0.169063 0.535174 0.245114 0.219014 0.214994 -0.112657 -0.277225 -0.015543 0.044174 0.141721 0.216331 0.036521 -0.153995 -0.598993 0.036998 0.558334 -0.262013 -0.457997 0.178979 0.03883 -0.241503 -0.074341 0.058976 0.215562 -0.035582 -0.078839 0.462555 0.084649 -0.131765 -0.305702 -0.484396 0.503285 0.192786 -0.014697 -0.091996 -0.097211 0.099721 0.026695 -0.252432 -0.229506 -0.329444 0.014841
focus 0.321294 -0.094561 -0.058147 0.131694 0.003103 -0.159696 0.400282 -0.089091 0.234343 -0.076024 0.022965 0.184552 -0.004685 0.248036 -0.307459 0.186105 -0.030854 0.541227 0.02289 -0.402897 -0.139528 0.554524 -0.17787 0.099494 0.151277 0.150515 -0.172318 -0.131831 0.020535 -0.054851 -0.441713 -0.197377 -0.121965 0.057075 -0.300172 -0.006048 0.05309 -0.005293 -0.082001 0.02191 0.188351 -0.080072 -0.032653 0.079333 -0.322801 -0.100471 0.082073 0.23039 -0.15415 0.161587 -0.401068 -0.068481 0.150451 0.229854 0.203041 -0.252357 -0.215575 -0.371944 -0.233878 0.102574 -0.026994 0.057756 -0.071379 -0.153882 0.130053 -0.008723 -0.228835 0.3062 -0.064644 -0.072152 -0.160846 -0.178966 -0.07732 -0.400813 -0.222801 -0.203565 0.297035 0.158269 -0.008043 0.040908 -0.128572 -0.001432 -0.215818 0.068944 0.416569 0.164532 -0.064262 0.163529 -0.180446 -0.055337 -0.025174 0.399916 -0.233516 -0.322433 -0.111657 -0.020082 -0.108808 -0.292485 -0.15594 -0.360381
