437 100
plane -2.455421 4.538785 2.491325 -0.066271 5.570298 0.155293 -1.26531 0.085422 -1.053834 0.459159 0.872921 1.437229 1.368579 1.516098 1.1528 1.806035 -0.058378 0.634591 -0.868366 1.930085 -4.464754 -0.238642 -0.608951 -1.050918 -2.381326 -1.443832 -0.105158 0.298227 -1.840231 0.505058 4.907718 3.111 3.138882 -2.210616 1.966335 0.285431 0.022062 -2.424379 -1.651378 -5.317853 -1.188654 1.298566 2.418926 -1.044163 -0.068183 3.110579 -2.783466 -3.126239 -1.11977 1.077295 0.019194 -2.961053 1.453165 -1.958191 4.051083 -0.807679 4.511551 -2.846955 2.095002 -0.272909 2.469475 3.153354 2.359556 -1.002814 2.429095 1.129578 0.958665 -0.691998 0.409536 1.215323 4.420399 3.415672 0.021925 0.084502 3.044154 2.067126 3.042942 2.474564 0.40465 5.081581 2.411136 -0.125403 -3.728148 0.837107 0.128525 1.31451 4.085703 2.933742 2.401201 -2.294151 2.195703 -4.053916 -4.35694 -6.184177 1.719051 -3.388901 1.602152 7.126606 -0.946106 -0.258118
stupid -0.131549 2.784391 0.772637 1.122981 -0.149819 2.299179 2.996308 -2.353205 -0.819179 2.435014 2.289091 -0.369816 0.102447 2.092628 0.502924 3.759711 4.44543 -1.903406 -0.456675 0.823249 1.263059 -1.280613 0.137131 0.685269 0.926138 2.660504 -2.732857 -0.943898 0.54901 0.325537 -2.355005 0.612453 1.417797 -2.177199 -2.164667 0.296996 1.087745 3.921057 1.645535 0.890725 2.79348 0.685004 2.599698 -4.642426 3.420314 -0.37765 2.572008 2.377642 -0.239106 -1.112333 -3.210955 -2.888997 2.251104 -0.078865 1.126705 2.148828 -2.987518 -0.949924 -1.891362 2.617681 -0.747923 1.375342 -3.279438 -0.350087 1.627408 -2.521995 -0.200683 -3.673845 2.583468 0.048343 -0.592983 0.277804 3.164463 -0.995655 -1.12573 -4.035162 3.796423 0.007809 -1.955487 -0.260608 2.020085 -0.460279 -0.019538 -0.011421 -0.778905 -0.752748 3.708986 1.539273 0.47037 -1.017981 2.753743 -0.248952 -0.320875 2.822109 0.619944 -0.567465 -0.63339 -0.875985 -1.757496 -0.742762
egg -0.609773 -1.384453 -0.708469 1.812413 0.270893 0.742934 4.14675 -0.447507 -0.283837 1.21409 -2.615063 1.690216 0.506759 -0.915815 -1.246687 -0.497838 -3.036897 0.866916 0.358302 1.739775 1.923469 3.288213 1.089949 -0.716496 0.181559 -0.499033 -1.5122 -0.852892 2.431827 0.419721 4.152258 0.967317 0.339331 -2.333375 1.604807 1.758583 1.958393 -3.3246 3.96461 -2.188564 2.48738 -2.005408 1.812037 -3.703061 2.064035 4.236409 -0.344338 3.724941 -1.999592 -4.553335 1.9142 2.15925 -0.5863 0.409677 2.217456 1.957249 -0.665868 1.185999 -1.70186 -1.308971 0.909574 1.044854 -2.010677 1.293882 2.613918 -1.020726 1.680307 3.704433 1.054042 2.614832 0.638283 -0.295712 -0.099699 0.889203 3.761926 1.078449 -0.126923 2.07043 3.572843 -0.001051 2.498649 -2.883792 0.761498 -1.477926 2.610359 -4.342463 2.325656 -2.690445 -0.622733 -2.207486 2.877834 -1.13948 -1.591816 -0.202831 -4.60882 -2.984028 0.075091 1.478629 -0.615708 -0.815826
year -3.441606 -0.196479 7.565565 -0.848324 3.55594 -5.933556 -3.904063 1.154552 -6.061298 -3.182519 -4.812955 -1.044514 3.84562 1.147446 -1.469933 -1.561783 0.155338 3.91906 0.272398 2.771568 -0.885183 4.097854 -1.39839 1.922592 -0.614284 0.884707 0.11235 3.753908 1.087823 -2.729904 1.88594 2.112774 0.944388 -6.968216 -2.037812 6.189714 2.091008 -4.469221 1.944181 1.009798 -3.906121 -6.363614 1.096701 8.904813 -0.695091 -4.76369 -1.721319 0.395024 -1.214179 0.390785 5.022096 -7.308578 0.258719 -1.282907 -1.232052 8.092507 -3.98449 0.64127 5.164575 -4.402574 2.163044 -3.408573 -1.5766 1.610741 6.061098 3.388796 1.133381 1.344137 2.623996 -5.88569 -2.269034 7.346959 -2.982906 5.485856 2.468636 8.784354 -2.352715 6.032252 3.509487 -3.502401 -1.383289 -2.421233 4.850336 1.238149 3.116624 0.027459 6.925073 1.406737 -0.101199 -1.540929 0.576969 1.418603 1.710675 3.630632 1.888107 -2.028795 -3.214023 0.347629 -2.083492 -0.740518
psychiatry 1.508135 -1.651862 -0.606091 0.210651 0.530544 -0.017135 -0.535089 -1.076964 0.223388 0.956362 -1.511876 1.495288 -3.108716 0.346965 0.481818 -1.821453 1.794825 -0.499665 -1.085059 0.707396 -2.276779 -0.612029 1.901873 -0.264839 -0.43317 1.849347 -0.381479 -0.345871 0.503105 0.602451 1.749439 1.540429 -0.651107 0.082581 2.051258 0.98577 1.376552 0.51445 -1.33991 -0.62893 -0.315433 -0.889604 1.300362 0.851743 -0.376783 -0.382132 0.599995 2.383176 0.585381 -0.940279 -1.450231 -0.353768 0.294592 1.590211 -1.634009 -2.435229 0.83534 0.941842 -3.216856 2.06722 -1.456082 2.030059 0.276871 0.629734 1.394928 1.801705 -0.07642 1.316544 -0.699179 0.006151 -0.936255 -0.560484 0.11958 -0.948435 1.2887 0.164441 -2.062918 2.728105 -0.820344 2.338269 -0.230713 -0.123307 0.601789 1.083124 1.064713 -1.009185 -1.137093 -1.088655 0.540759 1.230235 0.772002 0.952909 2.141872 2.615191 0.279612 0.610392 0.262158 -1.542923 -0.147525 0.535422
asylum -1.604309 -2.481626 0.77959 -0.075168 -1.235325 2.030483 -1.140056 -1.46389 -2.542903 -2.156756 -3.064029 -0.392752 -3.968258 2.449474 2.673522 2.21301 1.102268 0.349542 -1.124762 2.920233 0.872611 1.933141 5.512532 -0.705451 2.411313 1.601419 -0.433949 1.57215 -1.29007 2.257092 1.198938 3.131353 2.539284 0.0713 4.29941 -3.585359 4.820875 -1.009697 -3.603388 -0.696726 -2.57181 -3.190555 2.247506 -2.36779 1.148116 0.574738 -0.90501 -0.211981 -0.978717 2.011905 1.611307 1.089597 0.119741 1.214938 0.055234 -0.040242 1.450078 2.745599 -0.563868 -2.775883 -0.512922 2.292731 5.146135 3.790862 -1.812638 -4.317711 -4.349437 -1.126476 -0.648089 4.614735 0.449576 6.127278 3.373918 7.394261 1.223915 0.192504 2.864071 2.74003 -1.550291 2.918921 -3.100254 5.076854 0.444721 3.898489 -0.083057 0.88861 0.086938 1.68229 -0.622512 -3.322634 0.675895 3.353574 0.237933 -2.85821 -1.996827 3.053244 2.906163 4.51953 0.410544 -1.047132
manslaughter -1.453007 -6.334065 2.404036 -0.962568 3.226885 -0.703333 -2.665188 0.722034 1.965754 0.505125 -0.347887 4.310792 -1.470386 2.621879 -0.38486 -5.509572 3.887629 -0.123141 0.1664 0.342998 -4.114767 2.857946 5.548871 -1.011722 -1.457038 1.141637 -2.241959 3.862844 -1.645512 3.710686 1.964116 -0.573153 -3.372587 -0.770253 -0.349052 -2.375582 1.845165 2.271473 1.545122 -0.427529 1.566874 -0.781116 -0.402667 -1.693692 3.219608 -2.453615 -2.654981 -0.959709 1.863431 -1.622218 -3.585176 -3.413311 -1.701841 1.759228 -1.641239 -0.583589 -0.114663 3.384207 4.857886 2.138567 0.221596 2.731902 4.564924 -4.63152 -0.267117 -0.885613 1.315946 -1.754771 -4.750626 -0.336518 -2.503237 2.063379 2.627725 -0.03277 -0.13828 -0.523361 -2.984202 2.558724 0.873689 0.600883 -4.742322 -3.155127 0.020846 2.358072 1.713761 0.42876 0.464974 -3.068675 -1.163913 -4.162371 1.768879 0.994982 -0.649145 2.711576 0.770207 -4.459025 1.021305 0.620019 3.063716 -1.724338
music -0.764309 1.031315 1.895082 0.150887 -1.077471 1.071578 -0.05691 2.430027 -2.097107 0.073605 -0.83223 -2.231026 2.179088 -0.905214 -2.976922 0.258223 -1.044406 -4.089675 2.24759 -3.866354 -2.372316 -1.309834 0.984345 -0.749904 0.371043 3.504032 -3.265611 -3.165773 0.97298 0.617064 4.88048 2.336253 -1.181079 0.904951 -1.150299 1.734625 -1.724103 2.12736 1.964812 -2.584826 3.069413 -3.912655 2.062366 -0.055582 1.149849 1.935906 -1.896649 -0.981208 2.32262 -1.53294 0.102545 -0.942761 -0.231217 -3.927537 -5.846325 -2.150848 -0.731738 4.784554 -1.707348 2.49917 -3.994231 0.778413 0.700588 3.153157 0.370605 2.92295 0.991829 -1.867099 -0.887461 -2.24032 2.346621 0.205177 2.229353 2.452797 2.798571 2.123841 5.255524 -1.173292 3.270269 -1.160419 3.934097 0.986709 1.521534 -0.672177 1.808977 -5.262137 -2.814543 -0.974481 -3.739592 -1.544164 -1.138926 -1.723403 -2.160711 4.083914 -1.52126 1.906244 -2.469168 1.254125 0.655765 1.00447
record 1.7233 -1.696473 -0.764889 -1.917091 -0.159498 -0.146903 -2.115151 2.156938 -1.369946 -1.485177 -3.3046 -0.377352 1.398951 0.934786 -2.921706 -1.624593 -1.12179 -4.502387 0.452489 -3.82368 1.431982 0.062016 1.993913 2.460823 -1.266357 -0.912222 2.164578 -1.116265 3.825954 -1.062499 1.859474 2.219734 5.847066 -0.695188 -1.787704 -1.558582 -1.584788 0.373914 -1.543633 3.465664 1.552159 -2.161857 -2.754178 0.537592 -0.165479 -3.345031 -3.968984 3.989686 -1.607781 -1.363446 -0.414719 1.116246 -0.360348 -1.461159 -1.06714 -0.13952 -2.430487 -0.023002 4.740334 -3.836812 1.536755 -1.821534 -0.200416 1.873657 1.927433 3.172149 0.567248 -3.797122 -1.664719 1.476054 -5.453083 0.093524 -2.84605 3.126993 2.721516 2.217247 3.084126 1.19539 3.538977 -2.266795 -0.293426 2.217265 -2.981904 1.647797 4.854579 -1.354656 0.680448 -1.605067 -0.157116 -3.867149 0.665849 -0.3077 -0.872912 -3.18839 -0.057508 -2.005298 -1.302656 -0.807749 -1.680129 2.778229
energy 2.09946 -1.721757 1.016913 -1.40226 -0.858271 2.026195 -0.307574 3.26322 0.614008 0.929486 -0.132694 -6.2889 -2.340115 0.199276 1.086098 0.346773 0.733609 0.602396 -4.175539 -1.002717 0.068732 0.922291 -1.365808 1.722432 -1.224946 4.537454 -0.834878 -2.983465 0.403008 0.113864 1.269805 2.444853 3.558778 0.285435 2.469866 0.955157 -1.145932 -1.4143 0.774422 1.087855 -0.472841 -5.770798 4.781379 -2.563 -3.269525 1.858919 -0.722642 -0.213713 0.086598 -4.351066 -2.791704 4.396815 3.036106 -2.246167 1.923084 -0.010515 -1.313059 0.653235 -5.938803 -0.656676 -1.68257 -5.948678 -0.692332 3.000252 -2.240151 -1.699206 4.656461 1.632011 1.153691 2.650607 -1.425855 4.444975 -1.359901 1.466209 3.123163 4.645265 0.534815 -0.943649 0.761849 -3.744675 -1.117773 -3.615932 -1.909168 -4.263974 2.262885 0.01477 -0.567429 -1.22456 1.673208 1.790756 -1.824167 -3.057684 -2.049049 -1.493315 0.358963 -1.431047 -3.881997 -0.133058 0.174857 0.098556
announcement -0.074234 1.290977 -2.824963 2.54379 3.744362 -0.617452 -0.114526 -3.272777 -1.862687 -0.710711 -0.214927 -1.934905 -1.764412 1.137864 -1.794549 0.67993 -1.127232 1.277456 -1.81163 0.72501 -4.877071 -1.014117 -0.806659 -2.996081 -0.623458 -2.744378 4.443212 1.632244 2.364722 0.727916 1.839319 -3.757112 -1.447652 3.107033 -0.59565 4.89456 1.345646 -4.778445 0.472025 2.407917 -6.71695 -4.228983 3.024954 -5.577271 1.560569 1.725157 1.314545 1.560644 4.608069 -0.699571 0.282254 0.241191 0.108844 -3.287272 -0.813536 -1.979804 -1.58013 -0.454784 7.067719 -1.517416 1.853999 1.02637 1.279145 -2.014415 1.093091 2.860277 1.252443 -1.667063 -1.914246 0.180415 0.649678 3.766851 -1.724378 1.562904 -3.623037 1.838608 1.31535 -1.096035 0.699064 -3.709044 0.355007 -0.546379 -0.117234 -2.163857 4.419382 2.861211 4.982149 -2.19206 0.752364 -2.691271 -2.09008 2.691327 1.105562 -6.271976 3.478873 1.63997 -1.946401 1.580785 -1.958346 -0.207306
mile -0.212948 0.740032 6.232751 -3.297469 4.930452 -5.216341 -0.43699 1.266812 -2.048805 1.810518 -0.054203 -1.475117 3.629844 0.764878 -3.685364 -1.791133 -0.184926 -0.534611 -1.029491 5.835906 1.261399 0.25875 -2.099743 0.927698 2.490685 2.165271 -0.572946 5.56809 -1.6782 -0.967195 -1.504784 -1.696645 0.837581 -2.907576 -1.014878 3.955192 -0.838885 -4.362376 0.33758 0.769411 0.202461 -0.246146 -0.564453 5.268331 0.931088 5.047119 -1.32491 0.443387 -0.818226 0.632662 -2.250433 -1.963434 4.658842 1.333616 -0.113361 1.525176 3.293057 -5.06091 -0.073826 1.369598 3.990769 -1.264537 -4.315357 -0.217249 -0.474552 3.526897 3.48306 -1.509884 -1.810581 -3.45314 -2.712853 -2.168546 -0.429857 3.281628 5.572912 -0.377102 2.786822 2.93899 3.759961 3.189298 -0.084216 0.26178 -1.049314 3.043241 -1.175386 -6.055519 0.345986 -1.181526 3.463006 2.205532 -1.47003 -0.366052 -5.181309 -3.003416 -1.681369 -5.069718 -3.174198 3.246967 -2.421106 -0.850255
airport -0.47491 3.811083 1.299972 0.404141 4.296659 -0.22145 -1.82398 1.664141 2.503105 -1.976977 -0.129186 2.163975 2.476982 1.925062 3.882997 -2.085197 0.807654 -0.247482 0.576829 0.92938 -5.97939 1.642715 1.543302 -6.240958 0.449933 0.028899 -1.704403 0.114068 -2.822966 1.739674 4.063947 3.333135 2.776659 -0.857494 3.671938 2.268376 2.065728 -1.520064 -2.61362 -0.406621 -3.136547 -2.76127 0.778571 -1.653969 -0.461641 3.924414 1.461179 -2.931682 -0.208676 3.037777 1.180543 -1.347412 1.579634 -0.425184 5.969198 -3.098119 6.344755 1.722319 2.387451 -0.77361 2.204159 0.386983 1.76414 1.796764 -0.442211 -1.132485 0.82337 -2.544171 0.506633 -1.093741 0.688435 5.223311 -0.719988 3.396146 -1.108499 1.872067 0.22568 0.732319 1.988151 5.034635 1.280545 1.240654 -3.794236 -0.689588 -0.472006 -1.133177 0.422774 2.925115 0.989251 2.613396 -0.428222 -3.665059 -4.633657 -2.435686 0.448609 -2.37652 2.011757 2.798517 -1.388128 -1.245324
population 1.376016 -2.223036 3.89134 -4.223296 -2.149648 -4.536095 -4.009489 -0.60618 -4.770844 2.06507 2.822227 3.422013 -0.649545 1.486062 2.720366 -2.963472 -0.854019 -3.701834 -2.575563 -0.579759 7.691902 2.825664 -0.282849 2.952 2.209359 1.085507 2.798232 -4.927878 1.377962 -1.019332 2.754513 1.0375 0.23746 -0.849599 1.13701 -0.091168 1.008652 -4.074954 -0.558841 -3.631137 -5.093564 -2.573504 5.022471 1.692759 -4.413304 1.042942 -1.956982 0.538129 0.598471 -1.15612 -3.547544 -2.333569 -3.151676 3.918693 1.764126 -0.523453 1.758227 4.42265 -3.687669 1.920102 3.174175 -0.933173 -3.671295 4.804589 2.752491 -1.932718 0.273358 -3.287943 -3.145078 0.784874 -0.707546 1.358937 5.683118 5.812669 4.71286 6.585831 -2.519579 5.030939 3.015146 3.301689 -0.256585 -1.180995 1.693908 1.635306 3.709865 -4.802158 -0.855428 3.299882 1.789313 -0.428166 2.422515 -0.761749 0.520866 -2.274215 -0.735009 -1.967123 -3.891529 1.236357 -1.969839 -2.79002
planning 2.812506 -1.049809 1.94559 0.341284 3.268497 -0.752464 1.899838 1.530611 4.062811 -1.294564 -1.92373 -0.176767 -0.811044 2.125645 -1.416781 1.436526 1.845963 -0.348905 -1.888592 -0.609252 -0.166924 0.728961 0.998877 0.191794 0.996874 1.370854 -2.809301 -0.937518 -2.168039 2.208702 1.313264 0.072156 -1.723255 0.47623 0.151973 -1.829763 6.008863 1.291878 0.897308 2.196608 -1.343327 -1.73232 1.393066 0.861328 -0.50253 0.933184 0.91239 -1.777811 -0.902229 -0.304465 -0.284677 -2.217154 1.476127 0.00288 1.019779 -4.008526 -1.199556 -0.072417 -2.510123 -0.601081 1.635552 -2.571117 0.285853 2.283696 0.142992 -3.135277 1.635705 -0.906113 3.187831 -0.803413 2.489191 4.412715 2.527421 1.496181 -1.469645 -4.485844 -1.329593 -1.797944 5.116107 0.688027 -3.135643 -0.388385 -0.963025 -4.236943 -2.793433 2.530298 2.148143 -1.598489 0.261658 0.399156 -0.734499 0.186148 0.586242 -1.000126 3.623507 0.554399 -1.572345 -2.254002 3.069504 -0.426739
canyon -0.674038 0.783195 2.789315 -0.811281 0.978435 0.027188 0.189665 0.692672 -2.624298 -0.770537 1.563054 -1.729026 2.129742 0.717854 -1.529414 0.261575 -1.722911 -1.458411 1.488114 -0.617699 -0.401168 0.07861 0.549305 -0.688652 1.903916 0.380043 -1.130375 0.564051 -0.992747 -3.517817 2.342145 0.385408 0.584431 -1.089297 0.420468 1.577646 1.320428 -1.685589 0.375925 -1.204877 -0.699567 -0.927095 1.612064 1.502892 -2.18248 0.574669 -0.145486 1.214162 -0.341816 -0.24475 -1.132443 -0.77329 0.711825 2.541997 2.794499 1.074588 2.677075 -1.250795 -0.102933 2.2518 0.881091 -0.582443 -0.880626 -0.26225 1.566513 1.61546 -0.170831 -0.024268 -0.206794 0.927631 -1.30018 -2.447357 -0.368579 1.602517 1.586119 0.727512 0.906101 -0.06834 0.421079 1.053605 1.045426 1.491425 -2.435233 -0.146416 -0.362242 -0.894025 -0.913258 0.750845 -1.087328 -0.179107 -0.272 -0.050651 -4.534038 -1.822332 -0.160855 -3.014576 1.132508 1.476557 0.11013 -1.578226
delay -0.494762 -0.99993 -0.32312 0.339371 -0.620405 -0.455705 -1.47238 -0.622285 -0.41853 3.041481 -1.139513 0.033174 -0.887991 0.917633 -1.422244 0.660616 -1.059505 0.32671 -1.353647 0.227563 -3.516811 1.832928 3.767737 -3.472747 -4.956518 0.368957 4.286331 3.579554 0.402301 2.42047 3.001855 -2.096946 0.010969 -1.922603 0.75398 -0.990095 2.213958 0.538319 -2.950606 2.992069 -0.652958 -2.82954 3.173558 -4.295448 -0.41956 -0.758093 4.281967 0.50088 0.981798 2.758394 1.341374 -0.672707 1.406623 0.876382 -0.014793 -0.779217 0.033208 -0.943402 2.036652 -3.520026 -2.448745 -0.608503 -1.402777 -1.749597 -0.884502 -0.55078 3.176825 -2.099765 0.053256 1.530159 2.169539 0.396069 2.524047 1.902776 -0.363481 -0.82896 -0.774171 0.570507 -0.761945 -4.498459 -5.51003 -0.944643 -3.260566 1.144479 -0.258162 1.341386 3.173154 -1.870148 -0.04882 -2.757609 -0.988517 -1.104932 1.019793 -0.530115 3.056093 -3.542356 -1.397608 3.995979 -2.709935 -3.508735
size -2.712404 -0.088612 1.908304 -3.821277 0.595014 -3.432171 -3.192134 0.426401 1.107627 2.602505 -1.074042 -2.930205 0.208676 2.253759 1.420653 -2.024066 -4.492739 -1.259922 -1.846105 -1.568948 2.846122 2.562859 -0.050512 2.707171 1.56288 2.049785 3.811586 -1.766207 0.611072 -0.760418 3.55809 -0.608454 -2.553292 0.00624 -0.763951 1.338015 -4.42546 -2.339657 0.858229 -0.980658 1.686349 -1.725388 0.297284 1.35244 -1.268808 1.285432 0.492761 -0.546283 0.119176 -0.848338 -0.390473 -1.607965 -0.679048 0.850462 3.863863 -1.83402 -2.089364 1.63715 -2.753839 -1.459003 1.687699 0.446441 -4.02165 0.57053 0.325803 -1.273751 -1.031414 -1.740487 1.022361 -1.392333 -3.366693 -2.255039 2.0863 1.729304 4.083251 1.069342 0.183939 4.001794 1.649099 3.578755 -0.023609 -5.022016 -0.185295 -1.412495 0.944399 -4.344798 2.902444 -1.740129 0.770226 -0.204993 -0.247908 -0.817296 -0.327645 -0.86473 4.120486 -4.015681 -0.841745 0.920853 -0.896549 2.135058
peace 1.077882 -5.754196 1.556356 -1.44432 3.678384 1.518576 0.185181 5.257172 -3.019679 3.342919 1.031752 -3.506657 -0.591779 2.835025 -1.387501 4.725924 -0.178198 -1.659531 -2.060813 3.498749 1.821649 0.763836 3.105659 4.308751 2.459802 -0.293809 1.237689 2.11068 0.629825 4.204553 -2.92011 2.532559 0.84454 -1.090811 3.196885 -4.144298 2.058684 3.136506 3.226268 0.616365 -1.961807 -7.11106 4.572134 -3.969991 -4.656071 0.016427 -1.5383 -3.600859 1.023795 -2.233967 1.382495 0.199783 -1.897671 -0.595566 2.31265 -1.909204 2.499322 -1.475441 4.339762 2.856682 0.902619 -2.40312 2.68185 3.086453 0.828655 0.752295 1.59379 2.801248 -0.333396 1.870233 4.177328 1.925087 3.795388 6.585771 -2.151306 -2.269902 -1.252113 -3.279481 -1.472519 -5.741024 0.430659 -0.708906 -3.142082 0.434544 2.076191 -1.625734 -0.572724 0.482641 1.574275 -4.164261 -3.559433 1.2432 -0.305143 -0.316452 -1.809598 3.634418 2.984724 1.316584 0.252235 -6.732669
science 3.87478 -0.558859 0.700533 1.753599 -1.734737 -0.137361 0.892178 1.31658 -1.999346 0.441125 -3.047717 -1.711572 -2.833868 -0.024826 1.653558 0.410128 1.768178 -1.99534 -1.953003 -0.880899 -2.1822 0.614263 1.044896 3.661857 1.367927 5.834795 0.017278 -0.347986 0.724618 1.042131 2.635174 2.440575 0.502542 -1.133661 -0.4135 0.298074 0.36998 2.924105 -0.47536 0.833951 3.781838 -2.63793 5.1795 -2.361644 -0.52797 2.362909 -2.151068 1.576618 -0.204867 -1.513523 -1.542319 0.285538 1.581293 -0.140575 -1.621555 -1.566499 1.151594 0.509234 -6.867578 2.183683 -2.38511 1.754596 -2.641138 3.246922 0.942732 2.708693 -0.803469 1.926721 0.551473 0.572715 0.50911 -0.074401 2.585533 -0.571541 0.964263 1.41647 -1.968762 2.777868 -0.996886 0.62129 3.037365 0.2747 -1.695709 -0.085294 1.384775 -1.718906 -0.653471 -1.161843 -0.417351 2.016739 -1.463546 2.371169 3.297158 -0.593164 2.531964 0.029046 -0.71818 -0.906597 2.875725 1.312155
dawn -1.506081 2.542309 4.150002 2.250654 3.481099 2.274043 0.282649 1.040365 -3.969 -0.54551 3.418015 0.007301 2.665397 -0.143051 0.357454 -1.488657 0.435131 1.105945 1.045812 2.158681 -2.715801 -1.049897 1.688605 -3.17497 -2.398199 -1.067689 -2.044335 -0.642023 0.770131 -1.377501 -1.045601 2.51943 0.931249 0.641745 2.868757 3.600549 2.296214 -1.149294 2.963211 1.907476 1.236751 -3.770321 -0.99839 0.640933 -1.532338 -0.467199 -0.798346 0.291934 -1.769219 -3.111011 -0.007534 -2.986544 -0.215405 0.107034 1.243528 -3.128258 1.742936 -0.038395 3.415776 1.191337 0.876038 2.263321 -0.980096 -0.690182 3.965879 0.491145 -1.200955 -0.178196 -0.26363 -3.724739 2.619395 0.309908 1.429952 0.73472 -0.487446 0.702464 -0.677384 -1.251788 3.120935 2.16459 -0.096342 0.840693 -3.275616 -0.302255 0.364346 -1.901603 -0.781743 -2.402832 -0.197127 1.664004 -0.838563 3.190945 -1.706402 -4.212446 -1.8813 -0.235321 0.753767 3.97914 -1.318993 -4.078828
brother 0.534591 -7.290034 0.999842 -0.832397 -1.360203 -1.103156 -0.246427 2.043162 1.268615 0.686946 2.087014 2.180326 2.280542 2.367996 -1.867529 -1.949574 1.939361 2.273116 2.675629 2.84366 -0.312978 -1.609351 0.661066 -2.711775 0.313256 -1.553931 -2.653491 -2.016613 0.1911 0.746337 0.125858 4.144722 -4.247686 -0.212607 -0.675088 2.08869 -0.379717 4.859576 1.02991 -2.908377 -4.023551 0.204772 -0.032443 1.624239 2.199519 -1.404769 -4.123982 -1.108977 4.001943 -4.255505 2.579527 -4.257636 1.895143 -5.061903 1.735299 0.799797 1.339582 2.834248 1.143613 3.619435 -0.511041 3.958629 1.934078 -4.821867 2.106642 1.452597 1.339051 0.025743 -6.593493 2.170084 0.981836 2.004972 3.066012 0.604403 2.958754 1.556834 2.58678 3.231428 -1.790768 5.685964 2.162949 1.166559 0.296129 0.480687 -2.019885 2.623783 2.855929 0.746921 0.348029 -2.051546 4.273799 -5.516088 2.858526 -2.248352 -0.002775 -1.307724 -0.768872 1.530882 0.289127 1.285602
wine -1.300314 -1.471692 1.159741 0.987757 0.32509 2.274719 3.353054 1.159063 -1.579028 1.233111 0.851303 -2.644113 1.881846 -1.553192 -0.333994 -4.482937 -1.547331 -1.13841 0.951538 0.912169 2.328563 3.694967 -0.350631 2.184257 1.882126 1.510671 -3.99911 -1.685346 3.211638 -0.249944 5.508366 -0.033825 0.286384 -0.705991 3.147235 2.732295 -0.658426 -3.078096 -1.072919 -1.141949 1.630707 -1.333309 -1.32937 -1.292103 0.177094 2.977854 -2.172359 2.41984 -0.532197 -1.519564 -1.603609 0.714953 -0.717934 -3.387975 -1.766904 -0.98716 -0.598631 4.95885 0.366389 -2.852303 -0.324951 -0.852948 -0.709186 0.91427 0.004612 0.698099 0.680008 0.477652 2.133596 -0.156226 1.270845 1.846324 -1.300702 0.102654 3.539659 1.18183 5.470589 -1.253905 2.466919 0.024106 1.326835 -1.614548 1.020512 -1.510159 1.959582 -4.58051 -2.062447 0.084413 -1.303471 0.880474 1.758112 -1.950829 -1.711653 4.283505 -2.35437 -2.46158 -1.235574 -0.976791 -0.244073 -1.026274
object -1.779135 1.987833 1.342095 -0.868102 1.425205 0.541275 2.470393 0.545622 -2.33206 1.143412 0.290928 -1.118173 -1.186626 1.061386 0.625653 1.006011 -0.249433 0.272674 1.200405 -1.410511 -0.459688 0.491873 -0.403817 -1.717852 0.053204 2.65008 2.621071 -2.376791 -0.006407 2.092289 3.470236 0.104336 -1.16071 0.436788 0.076658 0.698218 0.046635 0.526579 0.74343 -0.936598 1.653401 1.936155 3.695983 -3.400506 0.950403 3.738975 2.507519 1.382609 -0.211244 -1.546077 -0.098426 -1.013983 1.533121 1.223323 1.605378 2.585796 1.020831 2.602781 -0.508182 0.592396 -1.687099 3.554639 0.049873 0.563496 1.495427 2.167506 -0.856153 -0.824289 -1.509571 0.933903 1.923381 0.527135 1.533536 4.291911 1.547743 -0.666064 0.679834 1.195564 -0.497921 0.577283 1.518498 -3.203044 -2.794094 1.613415 0.037314 -1.387472 2.445269 -0.89366 -0.94482 -0.341603 1.972709 -0.319698 -2.57283 -3.264097 1.185581 -1.680493 2.620851 -0.783436 -0.577076 -0.276886
attitude -0.080062 -1.673056 2.580489 -2.212503 1.800004 1.218143 0.449841 -0.894994 -1.354591 1.050158 2.912498 -2.624956 -2.026595 0.266287 1.587409 5.961021 2.924792 -4.543613 2.205856 0.71629 0.205244 0.225918 -0.753981 -2.147349 1.940736 5.174724 1.987977 -2.37983 3.006845 3.041112 2.387373 2.102205 -1.165911 2.414412 0.435671 0.660576 1.191754 2.915599 -1.97453 1.1843 -2.122975 -3.693001 4.815456 -2.931114 -2.268417 2.689932 1.766625 2.743669 2.812131 -2.501484 2.149049 -1.434263 1.0837 -0.423187 1.741876 -0.085578 -1.076189 1.905689 0.827501 2.288743 -1.008407 2.157104 -0.154609 -1.186669 5.087817 0.004958 0.389573 -1.488992 -0.129165 0.602483 -0.391584 3.00396 -0.849947 1.354055 1.367037 -1.442853 -0.567045 1.004813 -0.195617 -0.600694 1.527359 -1.550767 1.993026 0.945518 1.62326 -2.734131 -1.5415 0.544014 1.692792 -2.222771 5.529576 1.297534 1.066029 -1.478825 1.613148 -0.442183 0.215819 0.683298 1.604735 5.280422
treatment 0.167182 -4.294537 2.111405 -3.599942 3.59252 -0.04016 -1.016796 -2.417642 -1.648948 -1.931641 -0.095783 0.444517 -5.015779 3.409654 3.748096 -0.579256 -0.178538 2.00228 -1.669139 1.91023 -5.188083 1.718272 6.4969 -0.945992 0.557326 2.559695 0.872071 0.043705 2.07065 3.623369 2.388785 -0.971345 -0.531318 -2.715565 3.431809 -2.272341 1.832132 -1.479528 -4.331505 -1.404909 -3.618235 -2.263633 2.65111 1.886878 1.21405 2.329049 0.096747 0.391676 -0.581211 0.805945 -2.491249 -3.540392 1.613165 1.335743 -2.014189 -2.694096 0.288878 0.350504 -1.49071 -1.800981 -1.509307 3.285204 -1.689842 0.965124 1.524248 -4.206445 4.072278 2.048357 0.442454 1.608641 1.361338 1.812285 -0.854875 3.549035 4.720348 1.520256 -2.092376 2.506642 -3.072763 -0.172652 -2.132224 -1.070746 2.178929 0.39541 4.155668 0.078792 -1.113967 -3.637829 0.46467 -1.124021 0.033233 0.035953 3.011823 2.186986 -1.464508 1.925581 -0.319824 3.551171 -1.427738 3.68503
flight -1.023685 2.001856 -0.385899 1.32547 5.313229 -1.044781 -2.606556 0.135841 -0.308445 -0.383248 -1.583276 3.774086 5.30831 0.988804 1.601601 -0.269743 -1.793332 1.337327 0.813022 1.901123 -3.894465 2.342208 0.152396 -0.731008 -2.002492 1.819998 0.950657 2.839058 0.210475 1.537263 5.949108 2.343141 3.708519 -3.361018 -0.120376 -0.120993 0.778793 -2.07738 -4.885179 -2.993042 -1.744448 -1.697489 1.665389 -0.050701 -0.999346 2.98122 -1.068973 -4.023053 0.687492 2.645123 0.588887 -3.321999 1.07057 -1.254544 2.410952 -3.018282 3.150812 -2.60444 0.915473 -2.845109 0.719879 2.980561 2.671874 -0.684176 2.551992 0.322992 1.261045 -0.323395 3.197248 -0.664404 2.481046 4.707349 -2.257442 1.094338 2.915088 0.904765 2.453265 -1.726253 2.560953 6.047693 0.835877 -0.922657 -3.466231 2.583548 -1.109398 0.262221 2.059437 -0.48292 1.082088 -2.612332 -0.935285 -2.04653 -1.647275 -3.353754 2.192006 -1.757124 0.575164 6.033184 -1.354332 3.13633
forest -0.34617 -0.259902 3.65017 -0.860934 0.131624 0.290549 -0.009692 0.457359 -2.16925 0.187742 3.32334 -1.55679 3.783558 -0.074891 -1.774165 2.274507 1.319153 -2.848228 0.791115 -0.671465 0.80832 1.301639 0.590098 0.368284 2.092461 2.069655 -2.234097 0.555162 0.622671 -2.518605 1.818352 0.772793 0.637596 -1.910977 2.296524 0.239968 0.652311 -4.171081 1.248236 -3.281534 -1.55458 -2.955627 3.462425 1.700598 -2.467204 0.225081 -1.82838 1.796802 -2.322256 -1.900668 -2.103913 -0.769043 -1.862504 3.129029 4.495292 -0.890118 2.617738 1.963642 -1.865713 1.104617 0.120452 -1.00792 -0.77526 1.58183 -0.45026 0.180605 1.13891 -0.842372 0.108379 3.928142 0.259819 -2.281637 0.889338 3.302491 1.758045 3.001724 -0.508228 0.225742 3.47893 -0.108568 -1.309435 0.384779 -3.066592 -1.957594 2.186605 -1.119549 0.227197 0.075302 -1.310653 -0.900345 -2.040909 -3.551244 -2.538068 -2.292066 -0.865526 -4.341004 2.176238 0.06772 1.675802 -2.700934
abuse -0.666449 -3.026858 -0.205386 0.347941 4.133582 -0.464692 -2.276553 1.039578 -0.146361 1.472773 1.120256 3.945293 -4.347302 1.004396 3.419162 -0.330188 5.167104 0.166728 -1.952605 -0.95449 -1.202292 -0.369209 6.403008 -2.520831 -0.27513 4.560622 -1.071571 -4.12583 2.313953 4.92316 1.47747 -2.571761 -1.657046 -3.463897 1.433816 -0.910456 0.801406 0.427077 -0.850264 -2.788515 1.11934 -5.343771 -1.537055 -0.819064 0.323308 1.325761 -1.27424 -2.191111 -0.28058 3.358197 -1.753164 -1.5031 -3.920747 4.281196 0.146721 2.292348 -1.863693 4.992082 -1.845765 1.773192 0.174322 3.336711 0.561679 1.401661 0.327459 -1.318727 -1.766172 -5.629672 -5.552355 2.432528 -1.957408 -0.684643 3.030635 -2.760867 -0.405937 -1.135052 -3.891509 3.206759 -0.870501 1.564423 -2.048186 -2.517023 3.259147 3.586376 2.304305 0.374506 1.0337 -4.765796 -0.916473 1.291223 -0.743503 4.086904 -1.1288 2.398701 -1.039908 0.397041 0.461975 -0.254193 -1.787525 -0.274823
criterion 1.68314 -0.052722 0.101955 -0.869222 0.120871 -0.748584 0.348965 -0.667799 -0.696397 1.053752 -2.348303 -0.124007 -0.097425 -0.469257 1.005149 0.43189 -0.976387 -0.094796 -0.553029 0.203683 -0.299994 1.577721 -0.519535 0.240747 -0.801408 0.690671 0.491913 -0.011083 0.663052 1.076299 0.314031 -0.729201 -0.799611 -1.117016 0.227384 -0.113032 0.795957 0.344158 -0.677246 0.603241 -0.417381 0.69422 1.272201 0.099069 1.783302 0.255443 0.051254 0.74575 1.341315 0.286393 0.725642 0.021051 0.766676 0.683694 -0.404932 -0.445682 -0.314208 0.42948 0.345056 -0.276474 0.627513 -1.177347 -0.363311 -0.027997 1.2945 -1.007441 0.408905 0.55127 0.994343 0.092187 -0.554161 1.172458 1.357173 1.084523 0.936048 0.556811 -0.112317 -0.265716 -1.131771 -0.165898 1.379071 0.359781 -0.131056 -0.681726 1.671275 -0.492387 -0.025216 0.232221 -1.063969 -0.640595 0.300142 -0.07529 -0.225225 0.29063 1.264475 -0.227052 1.541792 -1.780036 0.878812 0.019369
sea -1.205789 2.630255 4.12008 1.294472 0.566063 0.512439 0.166095 3.072472 -3.720504 0.112728 3.790833 -1.871076 0.990584 0.708768 0.82868 1.194375 -2.04119 -2.031028 -0.200905 0.568374 -1.224929 2.384022 0.366386 -0.164649 1.886234 4.918606 -0.890631 -0.390214 0.762044 -3.314308 3.895844 3.105332 2.149071 -2.167588 1.656816 0.747209 -1.25368 -1.551414 1.136701 -1.268725 0.034172 -2.884087 2.363102 0.029919 -0.985384 3.097039 -2.783634 -1.440864 -2.489182 0.441322 -1.284562 0.250097 -2.497247 4.524809 4.626323 -0.22418 -0.0511 -1.265685 0.875743 -0.126672 0.352616 -1.007837 -2.259393 1.618063 0.198224 1.081799 2.333476 -0.917563 1.167352 3.461018 0.97879 -0.993106 2.155048 0.097279 2.961212 1.711236 -3.378536 -1.753991 3.832793 3.687667 -0.892516 -0.27755 -4.32534 0.644839 0.17865 -1.771261 -1.562516 -0.703754 -0.657625 0.332735 0.011352 -3.260854 -3.461021 -2.401048 -3.517665 -4.34627 3.928683 2.440614 -1.869014 -1.85081
dollar 0.157649 0.913467 4.922566 -2.112676 0.990083 -0.789486 -3.859107 2.29548 0.878775 2.640002 4.174751 -4.241869 -1.845867 4.256276 -1.041522 -5.119881 2.365883 -2.711564 -4.508217 -3.545989 2.385468 4.986454 3.841561 1.709123 -2.859731 0.341312 5.780067 -2.983574 3.493908 -3.453422 3.414269 3.442685 3.831333 -1.888326 -2.996998 4.489577 0.378302 -3.535024 -0.919917 1.196955 -2.147751 3.179816 4.303622 1.894132 -1.087876 0.242998 -1.741002 -2.448922 -0.612112 0.270205 -1.045854 6.786696 -0.344391 -2.611704 3.396681 2.014771 -3.452497 -0.379823 6.7978 -1.051891 6.040627 -2.418931 0.694156 0.767138 0.659868 -0.384314 4.048245 -0.507527 2.394181 1.390231 0.228097 5.065989 -0.376766 -1.151904 1.401896 3.548609 3.742983 0.325355 4.167498 -4.517005 1.960171 -6.881085 4.137483 5.331359 3.609442 -3.661182 -1.150819 -5.18846 2.21574 -0.012455 0.399228 -2.287663 -2.276041 -1.911146 -2.669745 -1.323261 1.325094 -0.424369 -1.080345 -0.860228
example -0.042248 -1.388548 -0.40485 1.693752 3.135029 -3.223472 0.372407 -2.062248 -1.462064 2.829765 -2.796923 -2.5342 0.303029 -0.710755 1.761079 1.621725 0.433647 1.80563 0.425165 -3.983301 -2.158015 1.867616 0.73416 0.120126 3.174645 1.1643 -0.432031 -0.422524 0.725186 -1.332499 0.536617 -2.074168 -1.375449 1.222367 1.805148 1.244669 -1.952987 -0.765589 -2.404806 2.597256 -1.167832 1.138081 2.748969 0.475363 3.562127 0.886029 -4.202448 2.095326 -2.484211 -2.999731 -1.435481 -1.481373 2.168747 -0.390207 1.685469 -1.742411 2.702203 4.467337 0.721707 0.60824 -2.651622 -1.421238 -3.805585 3.398912 5.149371 -1.054476 2.348137 0.712772 0.048422 -0.061636 -1.258464 4.469167 1.407129 1.673413 2.730333 -0.127133 1.633373 2.749624 -1.798811 -0.415957 2.055928 -4.998045 -0.77474 0.945354 3.498873 -0.459148 1.442488 2.965158 -0.192603 -3.723418 -0.311676 3.11773 2.030496 0.608001 -0.507257 3.030444 -0.972583 -1.965725 -1.662864 0.005679
journal 1.781697 2.300373 -0.683844 2.311867 -0.25248 -1.113505 -4.549969 -3.792599 1.855762 -2.854987 -2.298384 6.440895 -5.298229 -2.361411 -0.263883 -0.736156 -2.89466 -2.984295 -2.382161 1.912633 -0.227905 2.655907 -1.48358 3.627554 1.648329 -2.200144 2.426876 2.049578 5.858861 -4.360136 3.982867 3.535553 -5.895467 3.491033 -2.734183 1.55255 1.09277 0.054709 -2.892349 -0.12099 4.187972 -1.017304 2.719895 -1.064618 2.725273 0.838008 -5.468106 3.213997 -1.432486 1.537117 0.216137 0.744015 -0.637172 4.730585 -1.65822 2.343257 1.60951 2.67873 -3.045775 -2.208674 -2.746478 6.473023 2.571723 -1.301264 3.746426 2.897391 1.451752 5.887734 1.05953 3.377747 4.895813 -0.712119 4.455109 -2.649278 -3.379728 0.181276 -0.660318 5.207305 2.366762 -2.168822 2.007156 -3.442767 -0.339528 -0.205628 1.887676 4.615391 -0.679501 -1.439258 1.615474 0.799465 0.214947 5.605424 4.453618 1.709791 -0.518301 -2.231581 0.18279 1.885569 4.561585 1.753383
laundering -1.825955 -3.042602 -3.688727 -1.719738 4.452286 -0.81538 -0.967808 1.708345 4.838816 2.2246 -2.728189 1.152994 -4.219354 1.717582 1.089105 -5.72867 5.525021 3.1604 4.318926 -1.33421 0.323657 1.602861 5.020578 -0.009674 0.103333 1.344067 -0.780409 -1.739247 0.307651 0.245846 -1.310744 -1.485422 0.426105 -1.284501 2.984733 -3.644182 0.436048 1.244113 -0.284902 -1.042669 3.172721 -0.962849 -3.063355 0.433033 0.566698 -5.415319 0.588466 -7.220476 -2.037396 -0.039436 -4.906846 -3.151827 1.993423 2.385791 2.114037 2.709931 -0.46412 1.868176 -3.134195 -0.607235 0.941666 2.595165 3.921411 -3.011358 -3.058802 -1.498304 4.211755 -1.789137 -1.725502 -0.790326 1.68121 -0.685496 3.248513 -4.053189 -4.383678 1.310892 2.279345 2.909399 3.408726 -3.822079 -1.450933 -2.101631 3.37235 1.746968 -0.586212 0.13316 -1.695625 0.568581 -2.365719 0.577313 -3.104698 1.593945 -1.683399 -0.659543 -0.177312 -0.113133 -1.530627 -2.102443 4.701767 -0.22733
hotel -0.949932 1.401469 1.880035 -1.477036 5.01524 0.027211 0.140531 4.937046 2.39756 -1.741765 -0.203642 -0.190493 2.517004 0.278523 -0.064735 -3.644221 -2.162119 -0.204821 1.59357 2.314394 -3.481517 1.64954 2.256595 -3.964397 1.596263 -0.731139 -2.020481 -1.312253 -0.128083 -0.608479 1.032127 3.85172 -0.33669 -0.818377 0.42506 4.104324 3.017894 -1.621864 -2.09477 -0.546347 -3.842699 -1.568266 -0.474135 2.921053 -0.11775 2.530005 2.583123 0.269427 -2.410842 2.278683 0.081555 -0.950471 -0.862903 -2.975414 3.015541 -3.732593 3.158547 1.445777 0.17504 -2.129048 0.189403 0.219619 2.393263 -0.151371 1.67357 -0.349878 -3.012961 -0.154925 2.292578 1.449531 0.70442 2.595839 -3.057045 2.046464 1.590676 -0.182018 6.112192 1.4673 1.468418 1.721197 4.622931 2.024168 -3.830701 -0.643598 -2.459964 -1.963523 -1.389156 1.058454 0.33324 2.309723 1.692113 -3.789447 -4.222883 0.9018 -0.717833 -0.533346 1.513891 1.460889 -1.203466 -0.622461
term 0.021209 -3.448941 -0.383847 -0.071869 0.830256 -2.984607 -1.517292 0.382459 -5.927823 2.000658 3.487674 -1.669898 -2.365054 2.766568 -0.489612 -4.320552 -3.598653 3.391394 1.162181 -0.378527 2.656431 5.745789 2.082683 -2.194064 -1.945311 1.31661 3.757895 1.77915 0.468432 1.685552 0.181196 1.99106 -0.981199 -4.577504 2.743356 0.14569 3.504096 4.559452 -1.448076 5.451194 2.109594 -5.310664 3.499419 0.883135 1.19694 0.673874 1.212062 1.477216 0.959136 -0.122196 -0.689755 -1.376156 3.631574 -0.606132 0.658222 2.134394 3.023759 -1.660349 3.05303 -0.591327 3.495482 -0.169253 0.303081 -1.766864 7.009969 0.232787 3.440105 5.413303 4.745086 2.474995 -4.91712 3.484262 -0.735623 4.187925 4.352142 0.345579 -0.530419 1.57053 0.679405 -4.803561 -5.973539 1.018662 3.44282 2.240851 1.404743 1.448127 0.62608 4.999045 -2.689662 -3.382403 0.574705 0.556745 0.572795 -2.952164 2.554637 -2.860654 -0.537642 0.905132 -0.269932 2.793218
listing -1.684141 0.47408 -1.669496 0.853153 3.388786 -1.426568 -0.999944 -0.554453 -0.84157 -0.364484 -3.775056 -0.641874 -0.475069 0.931223 -1.041264 -1.992408 -1.948831 -0.615989 -0.875284 -1.240157 -0.157994 2.277476 1.809937 -0.067985 0.387263 -1.631814 -0.332984 0.159933 0.835203 -0.042922 3.272095 -2.123426 -1.930396 -0.665833 0.094106 0.435641 1.872442 -0.977951 0.03451 0.723095 -0.656708 -1.957856 0.339122 2.126259 1.920429 -0.251091 -0.352848 -1.209599 1.112524 2.862527 -1.968995 1.677301 1.124275 0.275711 0.644394 -3.631146 -1.679293 -0.20185 -0.57554 -3.119309 0.237608 -2.595099 1.426479 -0.923808 1.433754 1.156766 -2.487448 -1.13386 1.582154 -0.039604 -0.159311 2.962671 -1.42878 1.296852 0.103436 1.196666 3.801707 -0.922567 -1.800386 -0.245835 1.084981 -1.840224 -2.837339 1.465612 2.222903 1.728526 -0.385853 0.213248 -3.161011 -2.778043 -3.069274 2.135629 0.524842 -1.105001 -0.395844 -0.271328 -0.307113 -0.224288 0.61863 0.490022
chemistry 1.054235 -2.089166 -0.662779 -1.07818 -1.162015 -0.531765 1.279355 0.923212 0.017612 0.538567 -3.962389 -1.300428 0.285066 0.309671 0.797797 -0.382562 -0.987941 -1.44634 0.647267 1.10637 -2.591804 -0.929074 -1.533681 2.041784 1.329301 3.578263 -0.595731 -1.095112 -0.43833 0.524258 2.987893 2.065064 -1.497193 -1.145713 -0.03823 0.063882 -0.791037 3.009793 -0.069602 -1.034245 3.295309 -3.56473 1.544132 -2.117009 -1.432375 0.988215 -1.660998 1.743058 0.171765 -0.898441 -0.362074 -0.434497 -0.311291 -0.911584 -0.473024 -0.366023 1.490581 1.157898 -2.902289 0.804841 -0.994002 1.864915 -2.375096 2.248165 2.365256 2.273463 1.437915 3.500888 -0.534277 0.704012 1.625811 -2.138959 0.172454 0.535065 2.373852 0.746728 -0.79569 0.295023 -2.61782 1.702187 1.530275 0.293061 -0.254669 -1.581838 2.716582 -2.201324 -0.637919 -4.20518 0.808267 0.262403 1.797266 0.199274 3.73562 0.865058 0.425371 -2.15768 -0.274015 0.27677 2.996446 2.333368
seafood -0.174064 -1.379171 0.351038 2.313757 1.793056 1.359149 3.227848 0.441574 -0.450968 -0.776554 0.254878 -1.915497 2.728426 -1.530031 0.079435 -2.787642 -1.098427 -1.668221 -0.892914 1.829203 0.515479 2.577869 -1.373825 0.137144 2.196489 1.413567 -1.716129 0.325792 3.326748 -1.847298 5.399076 1.412477 0.901965 -0.512159 2.0016 -0.442128 0.875057 -3.495845 0.110381 -0.910923 1.422646 -0.491623 1.676513 -0.789676 -1.076049 0.936099 -1.300302 0.65753 -1.174062 -2.034363 -1.719278 0.16746 -0.580909 -0.306611 0.066537 -1.690809 -0.054919 3.083799 -0.331349 -1.695184 -0.941964 -0.985009 -3.030143 -0.461773 0.924924 -0.923467 0.855296 0.370317 0.715266 2.141974 1.40585 1.784652 0.110992 -0.197193 1.764228 0.7603 3.217089 -0.347967 0.646966 -0.211218 1.516266 -1.246748 0.00117 -2.377023 2.939938 -3.797002 -2.340439 0.035657 -0.283135 0.737554 -0.358142 -2.854658 -0.601771 1.746089 -1.651621 -1.02679 -1.284729 -1.158434 0.494539 -0.051284
CD -1.778436 1.029526 3.639376 -2.797715 0.860917 -1.90049 -0.37761 -0.262921 0.716609 2.096496 -2.924845 -0.725404 2.092091 -1.075538 -5.250185 -0.705711 -2.440423 -1.447159 1.95281 -3.067715 -2.074205 0.192766 2.731396 -2.044896 -1.715798 -0.63354 -1.265731 -0.737033 1.781976 0.44996 1.594661 2.837265 -0.00744 0.336373 -3.608081 0.390497 1.510519 -0.150861 2.409415 -1.632752 2.986961 -2.416574 0.32278 2.633945 4.013764 2.016021 -1.049345 -1.991004 0.575889 -1.453775 1.12459 0.901604 1.259827 -2.696667 -3.505552 -1.342793 -5.193513 3.173763 1.920222 -0.503839 -0.105986 2.03605 0.498087 0.800759 1.423541 2.020729 1.204566 1.830187 -1.264948 0.02054 0.717963 0.99487 0.804599 1.04246 2.131137 2.031958 5.087323 -1.478106 2.470917 -2.635143 2.335988 0.02337 2.293368 1.302378 3.237827 -0.395562 1.011643 0.449451 -4.895495 -0.678963 -0.190694 -1.30371 -0.853267 1.248788 -0.470501 -0.764512 -2.067616 0.197816 -0.209444 3.088195
mind -2.169701 0.969718 1.638843 -3.430429 1.917241 0.917033 3.875176 -0.418401 -2.183061 2.457333 -0.521087 -0.967606 -1.250656 2.833709 -0.734417 4.273549 -0.147076 -3.809677 2.059851 0.590711 3.534423 -0.549074 0.882313 -0.267208 -0.163244 4.963228 0.683444 -2.156911 1.023628 -0.424807 0.787837 1.253469 -0.954527 -0.342806 -0.860705 -0.369179 -0.110259 2.456627 0.510947 2.310413 -1.523865 -3.925228 3.029556 -3.206943 0.518811 2.283496 -1.162489 2.355038 2.429388 -2.078734 2.38894 -0.843493 0.069446 -4.091334 2.562309 -1.12379 -0.99938 2.258004 0.393187 2.566927 -1.777547 2.314983 2.037267 -1.094693 6.56194 3.570645 2.006436 1.685767 1.973533 3.525486 1.628609 -1.320959 3.685708 0.914367 0.313411 -1.295781 3.774881 2.99644 -2.377227 -1.046099 0.2032 -0.117285 -1.182776 -2.00032 2.193103 -1.617929 -0.524262 -0.517785 0.653264 -1.862621 3.134405 -2.427974 -1.266634 -1.453727 -0.06993 -1.662254 1.461615 4.293673 0.121656 4.317307
sex -1.113621 -2.667184 2.857145 -1.994854 2.756924 -3.123371 -1.349603 1.027017 1.135061 2.370748 1.74051 3.319614 -2.67532 2.007764 -1.448856 0.141606 2.431796 -1.593969 0.982734 0.29897 -0.506079 2.21457 6.429884 0.309492 1.61218 4.6814 -4.160567 -3.558888 -0.478345 5.57761 2.785821 -1.047631 -2.65307 -2.508811 1.274092 -0.993779 3.332076 3.050517 -1.853134 -2.964129 4.02359 -2.857931 -1.8581 -1.296247 0.152438 1.547072 -2.584437 -0.536178 -2.133629 1.505267 -3.100396 0.935348 -1.80217 1.516492 -3.210394 2.968383 -1.676638 0.589749 0.057354 -0.828974 -5.523851 1.731099 1.47099 0.370831 6.18378 -1.454359 -1.026116 -2.127661 -1.587583 -0.255158 -0.574785 1.355316 3.241308 0.868162 3.921635 -1.973909 1.494642 0.370192 -1.667075 0.120325 1.815819 0.824827 0.542914 2.539798 2.06218 -5.590224 -1.64834 -1.733186 -0.357155 -1.383651 4.857241 2.140068 0.820431 3.338443 -3.858508 -0.393424 -0.419879 5.155179 2.402737 -0.813736
food 0.409894 -1.954712 2.949995 -1.177612 2.595783 1.683645 4.008097 -0.227959 1.834904 0.834721 2.268535 -2.581953 -0.183235 -1.417921 3.685394 -1.66205 0.360786 -0.418199 -3.034865 0.696682 1.702896 1.873236 0.40176 -1.520418 1.111349 3.038667 -2.692217 -2.755032 4.498912 0.365938 4.836932 3.546096 1.546213 -2.828748 2.140787 -0.598975 1.874289 -3.387305 -2.524432 -3.640566 2.681332 -3.490094 3.215501 -0.27795 -1.136529 0.579306 -2.093155 0.765802 -1.938672 0.059332 -3.76814 3.09906 0.732442 -1.60093 -1.104238 -2.602018 -1.506692 4.023041 -2.132232 -3.630961 -2.380153 -3.345208 -4.592916 2.298696 0.748052 -3.518576 2.56895 1.409343 1.031249 3.820741 1.86777 2.653774 -0.945209 -0.354696 1.073199 3.090133 -0.804319 -0.049486 1.071493 -0.965093 1.124537 -1.90832 -0.897406 -3.268518 1.641521 -4.46208 0.221794 -0.967099 1.149402 1.404138 -0.730464 -3.937312 -2.397804 1.147387 -2.895448 0.919575 -3.080947 0.630248 -0.500579 -0.866445
precedent 0.289281 -0.326656 -0.532711 1.749506 -0.281726 -0.436884 0.750332 1.015623 -4.729899 -0.706644 -4.583749 -2.180614 1.04306 0.047098 -1.201166 1.228956 2.341112 -1.496547 0.164976 1.860227 -2.285888 1.939005 3.70653 1.475287 -2.885875 0.518427 2.9856 1.10313 2.675747 1.922285 2.74382 -2.284098 0.667077 -0.287753 1.505927 -1.729494 1.383401 3.153871 -4.007288 2.710732 -0.326714 -1.08222 2.307777 -5.614683 2.982514 -3.841593 0.974593 2.547388 0.821041 -4.14102 -2.01654 -0.060991 -1.433171 3.239369 0.226505 0.020038 -1.16246 1.490258 5.987652 2.281615 -2.136578 -2.058765 -0.309182 2.162881 3.582171 -1.979483 0.312661 0.332218 -0.565769 3.65574 2.185555 0.425131 0.65696 7.236508 -0.708703 0.010001 2.459181 1.363253 -0.760993 0.108664 0.543694 -3.146134 0.261057 -2.118982 4.972569 -3.612081 -1.20158 2.070269 -1.231703 -2.54921 -1.080788 2.309967 0.01224 -0.87649 2.225102 -0.547371 1.757473 -1.093043 -1.228918 -0.927757
series -0.243782 -2.452137 5.33913 0.603685 2.175927 -0.002811 -3.040855 3.963406 -1.016471 -0.598005 -2.800161 1.051202 0.278898 -1.837861 -2.347488 0.670516 -2.739989 2.503068 4.84161 -5.740936 -6.979064 0.691151 -0.49445 0.485181 -1.163986 -3.415026 1.451681 0.911407 4.397739 -1.106554 -0.946094 -1.926109 2.281588 1.06203 -2.015229 -2.666917 0.104547 -1.19288 -1.756614 1.517686 0.718652 -7.362824 1.401437 0.438503 -2.068583 -2.602992 -4.786542 0.261829 -3.125494 0.503456 -0.816704 0.530452 -2.196543 0.50206 0.146924 0.027191 -0.111063 -2.558125 -0.464311 -0.995965 -0.887823 3.442962 0.121051 -0.743518 6.803632 4.228512 1.801556 -5.378129 1.326275 -2.200816 -1.130881 -1.404027 -1.06454 1.870004 -1.57091 0.04273 -0.07236 0.848084 0.622698 -3.55168 1.787852 0.242628 0.914555 0.961457 -2.381119 0.170408 2.871003 0.817616 -2.026327 -2.898442 -2.656836 -0.627057 1.528553 0.31817 3.139185 0.895288 1.634761 0.255566 1.718768 1.133711
kilometer 1.944068 1.739859 2.081436 0.095744 2.043015 -3.070753 -0.384502 0.850936 -0.517406 1.215552 1.114568 0.327306 1.520339 0.298236 -1.535979 -0.503862 -1.34507 -0.64333 -0.194924 1.027327 0.370444 -0.594226 -0.821701 1.493429 1.673318 1.796417 0.249472 2.090057 0.585168 0.353344 -1.704866 -0.418518 0.337735 -1.2352 0.22292 2.710179 -1.447266 -2.920437 0.335611 0.710793 0.456153 0.353998 -0.966002 2.307511 0.013083 1.849082 0.292387 0.510492 -1.659551 1.413362 -1.018908 -1.98963 1.696624 2.648966 0.492065 0.887078 1.236147 -2.099365 0.38353 0.421609 2.534795 -1.471765 -1.429482 0.296382 -1.465656 1.834153 2.038172 0.618915 -0.753369 -1.48641 -0.48431 -0.18008 -1.027105 1.164684 3.141 0.017132 0.853585 2.103281 1.050726 1.08931 -0.616702 2.342878 0.580453 0.53037 -1.887566 -3.242719 0.142406 -0.500665 1.750435 0.30522 -1.441533 -0.97655 -1.901788 -2.272528 -1.309332 -3.673016 0.438262 1.841236 -0.17443 -0.978232
grocery -0.936288 0.110819 1.297173 -1.658173 3.04982 0.0265 1.021377 -1.675912 3.725309 0.14518 0.793306 -0.830796 0.834681 -1.029517 -1.141737 -3.622026 0.148419 0.36966 -2.447226 0.37951 1.510819 1.194306 0.572769 -5.743438 0.890095 -2.321022 -2.074048 -1.843267 1.131587 -2.313536 3.194889 2.07535 0.703922 -1.153747 -0.065639 1.994738 3.889042 -0.992182 1.019886 -2.331541 0.360018 0.099421 -1.015717 2.1186 0.30124 1.849262 -0.606529 0.684326 -1.513831 -2.108314 -0.683111 2.715732 0.654233 -1.106233 -1.078769 -1.094853 1.579343 2.130738 -0.24276 -1.342237 -1.984704 -1.220186 -3.146757 1.061376 0.798593 1.372911 -1.740116 -0.735245 -1.211932 0.578579 0.011155 1.195874 -1.644806 -2.435809 1.111595 -0.390883 2.335562 0.864171 1.038574 -0.150994 0.99853 -1.190072 0.084789 -2.695953 0.952513 -4.639954 1.303748 1.003175 -1.158881 2.129496 0.266759 -0.256281 -3.399474 2.850536 -1.102519 -0.958028 -4.908622 0.651235 -1.44906 -0.602251
wizard -0.304694 -1.274199 0.525387 1.193741 -1.494697 0.955619 0.554661 0.666988 0.054252 2.748282 0.666781 0.938837 2.299866 0.666579 -2.103632 0.199354 -0.674668 1.075939 2.049379 -1.24054 -0.926096 -1.417565 1.243619 0.82154 0.615971 1.511756 -2.292057 -0.66628 -0.327082 0.842989 0.536403 0.878912 -2.878909 0.304483 -0.136683 -0.006088 -0.590593 0.287251 1.09354 -0.825783 1.264065 0.495492 -1.819712 -0.473952 0.673285 2.268024 -1.59714 0.692071 -1.415265 -0.968918 1.268689 -0.213772 -0.960227 -0.650845 -1.716895 0.009781 -1.850073 0.198038 0.287373 2.349789 -0.431141 1.428406 -0.378677 0.214896 3.186162 0.425514 0.181272 -0.372152 -1.34997 0.877069 0.088216 -2.079509 1.544411 0.014521 0.284607 0.392634 1.24748 1.665154 -0.312589 0.411958 3.11729 0.522286 1.584612 2.19994 0.319527 0.277598 -1.279423 0.420254 -1.504327 -0.914304 0.877568 0.153544 1.133622 -1.830843 2.997999 0.48845 -0.227659 -0.926775 -0.353324 1.199028
information -1.050771 1.859884 -2.087115 -3.570238 7.874978 0.084636 1.957759 -3.858689 -3.30917 1.225691 -3.71204 -4.090009 -0.512887 2.662017 -0.289444 -1.163294 3.629369 -1.315605 -2.174577 -0.243339 -2.383743 1.613221 0.66898 1.21E-4 -1.659415 5.026536 -0.723877 1.899374 -0.967395 3.989672 5.435032 0.052606 -2.349422 -1.306586 2.321138 -0.317703 5.179242 -0.155711 -0.417869 -5.000567 1.461676 -3.332089 4.715292 0.757965 2.97804 3.638336 -4.17566 0.648578 -0.902664 2.322193 0.375864 4.739263 -0.222059 4.148178 -6.174466 -4.179326 -1.998873 0.364055 -4.191396 0.462277 -2.222157 -0.440791 -2.956085 4.299994 0.496462 -3.435882 -0.856982 1.223143 -1.564995 -1.239902 0.710342 6.880147 3.317817 3.535552 -1.227366 2.779564 4.155974 -0.990526 -7.091019 -4.24044 -0.399681 -1.145281 1.467606 -1.176837 2.087144 3.36844 3.514611 -2.039303 2.667478 5.459785 -1.808821 1.050688 -1.876478 -4.346945 -3.721893 0.758115 -0.208534 2.202653 2.546626 4.665158
Israel 1.62498 0.301078 2.700952 -1.166254 3.138886 -2.507864 0.498017 5.398412 -2.167994 2.438737 3.922371 -0.822983 -1.943066 -2.115194 -0.345635 0.71114 -2.731216 -2.0932 -2.079623 -0.554321 0.447452 -0.665559 3.287312 2.219033 1.552202 -1.845937 3.799203 2.676411 4.066778 6.068262 1.040913 2.09736 1.092768 -3.77574 3.730139 -0.093114 5.087327 1.406466 -1.720482 -1.965752 -1.71603 -1.711085 5.759105 -4.77536 -3.087851 0.094211 -3.235368 -2.42662 2.40256 -3.077553 0.298299 0.548938 0.296782 0.923874 4.297177 0.619785 1.689823 0.409988 1.750882 4.476639 -2.030295 0.004749 2.385093 -1.221558 0.72265 1.686157 1.514026 -0.870455 -0.740261 0.862074 1.614005 5.193237 3.986994 4.05166 -3.168928 -1.652519 -3.198803 1.625411 -1.013563 -3.429172 -0.728292 1.377981 2.074659 0.228314 2.382098 0.816821 -0.295523 1.698337 1.641322 0.283092 -2.789066 -0.995624 -3.407558 -2.501958 -0.782794 3.472079 0.156011 3.336083 0.063866 -5.384779
brandy -1.00618 -0.113546 0.538019 0.143519 1.11591 0.830196 2.909539 0.581095 -0.123457 0.355117 0.895507 -0.993594 0.609687 -1.033301 0.024282 -0.927506 -1.012083 0.252462 0.398184 0.967317 0.366696 1.25314 0.437623 -0.109817 0.392802 0.139947 -2.304673 -0.444977 1.936412 -0.715029 1.426439 0.279132 0.223152 -1.146259 1.666715 0.865312 -0.256555 -1.596975 1.06985 -0.723234 1.425508 -1.008111 -0.611162 -0.954312 0.585591 1.219102 -1.308327 0.108586 -0.616517 -1.347031 -0.491862 -0.822724 -0.532731 -0.711703 0.354895 -0.43492 -0.600224 1.800491 0.794552 0.110583 -0.51601 1.224022 -1.193488 -1.507741 0.501027 0.27315 0.389211 0.803705 0.013754 1.155507 0.622407 -0.544238 -0.187037 -0.565989 2.788491 -0.348606 2.127712 -0.416516 0.653675 0.288498 0.062946 -0.818858 0.798411 -0.308128 1.255454 -1.304909 0.290574 -1.031407 -0.857916 -0.583585 1.682639 -2.089817 -0.260307 1.006143 -0.657815 -1.625289 -1.102921 -0.301728 0.569925 -0.664109
interview -2.231672 4.204296 -7.050569 2.727075 -0.167144 -1.475409 -1.858801 -1.165506 -1.550377 -2.586261 1.554909 3.513201 -4.343536 1.069109 -5.444622 4.287889 -3.879442 5.722357 2.81129 -2.101127 -2.792696 -4.501324 -0.815277 -6.379641 1.988945 -1.839948 -0.758609 3.796317 -1.972553 1.590286 -0.47282 -0.306773 -0.428344 5.278878 -0.902443 4.023777 3.513362 2.041859 -3.97877 0.152349 -4.136755 -7.362768 3.903615 -5.002833 -0.278482 5.826276 -3.553521 -0.075489 0.752757 -1.026367 -1.032108 -2.724398 -1.685978 -3.740257 -3.121572 -1.274016 3.556949 0.458393 3.271549 -6.094117 1.27357 7.514966 3.583489 -2.963744 5.310705 7.255776 -0.718043 2.105631 -0.243633 3.237312 -4.444585 5.445667 -4.55468 2.35089 -3.383959 1.273077 5.224791 3.914079 -5.507226 -1.504392 2.387268 -1.956777 -0.218004 1.907459 -0.167719 5.234986 1.693563 -3.5908 0.796149 -1.844176 -3.086479 4.393851 2.563416 -1.367085 -2.247689 -2.793741 -0.977939 0.15984 0.649452 0.305369
prominence -1.270815 -1.053968 1.555272 -1.101302 -2.094835 -0.019682 -3.109371 -2.914345 -2.627238 -1.631162 -0.831434 1.072069 -1.566868 1.747717 0.629352 1.889331 -1.798403 -0.874413 0.740364 -1.784639 2.431489 -0.013474 0.182311 0.624936 -0.162441 4.150537 1.316045 -4.490787 -0.198319 -1.543144 0.478924 2.590313 -0.109426 0.417386 2.274639 2.189437 -0.303656 0.951788 3.828221 1.496459 -0.913417 -3.281915 2.653866 -1.60524 -0.497879 0.792177 -3.876616 -3.029484 -2.348113 -1.409239 1.847448 0.709477 0.897937 -1.250315 -2.45541 0.724047 1.370255 0.788203 3.307109 1.757276 -2.302151 -1.890734 4.010365 2.547193 0.677352 -0.077795 -4.047867 -3.105185 -0.906266 0.87807 -0.950439 2.922099 -3.538259 2.820563 2.201017 -0.854588 0.317076 2.5079 -0.003155 0.404138 -0.316889 0.120621 0.120539 0.775794 4.326693 -0.569041 -0.243275 -3.608955 -0.80465 -0.481683 2.647996 -1.495408 1.713864 -3.558296 1.50653 5.297301 0.127119 1.171838 1.686672 2.376549
bed -1.794404 0.674873 4.394359 -3.680299 3.839677 -0.975755 1.417874 1.497167 2.695487 -0.89876 2.769217 2.556005 -0.843137 0.489518 -3.632042 -0.301769 -1.013615 -0.537494 1.759289 5.401132 0.227689 0.798151 3.799766 -3.07298 1.771291 1.246331 -3.846489 -1.267855 1.048053 -1.017048 -0.097859 1.510319 2.118295 -1.875086 0.205207 1.486979 0.671701 -0.579518 0.407783 -2.82266 0.64086 -2.292624 1.446737 -0.710444 2.759991 3.245678 -1.29379 1.754622 -0.755282 -1.799626 -0.123111 -1.704737 0.839335 -3.055306 2.004994 -1.798082 0.045623 -0.148438 1.534479 0.08748 -0.355936 2.541812 -0.605272 -1.272481 3.842255 2.239258 1.158898 3.286309 -0.714123 2.739408 -0.563374 -2.439345 -0.5869 -0.112898 4.728856 0.79624 2.926476 2.957772 -1.161019 4.205204 1.675611 -3.2324 -4.051653 0.174134 -1.166919 0.671602 0.522379 -3.449804 -1.296782 1.214582 2.28779 -3.105063 -2.471981 -0.300397 -1.393897 -3.47215 1.625122 5.160587 -1.423258 -1.489165
furnace 0.397565 0.782651 2.797352 -1.087226 1.34644 0.329412 1.011688 1.44616 -0.724464 0.384924 -0.374111 -0.861216 1.499156 0.053884 0.98353 -1.02281 -1.306496 -0.759087 -0.133254 0.190973 -1.552416 -0.396617 -0.58675 -0.598133 -0.961953 0.299141 -0.411461 -0.985315 0.182737 -0.785064 -0.459785 0.890396 0.300432 -1.870854 0.642631 1.022535 0.236336 -0.106512 1.82304 -1.801511 0.983603 -0.755738 0.588981 -0.67815 -1.156033 0.992384 -0.374611 0.930326 0.006725 -1.5417 -0.676304 -0.852102 0.536996 -1.352744 1.885362 -0.422052 1.155904 0.767124 -1.141769 0.964521 -0.171141 -0.170407 -0.067576 -0.294716 0.124998 -1.248024 1.482394 1.523701 -0.317311 0.206325 1.153275 -1.93848 -1.106264 0.130285 1.001352 1.449211 -0.559489 1.193774 0.758602 0.922067 0.564405 -0.447578 -1.873114 -1.4685 0.626634 0.537554 0.994973 0.190616 -0.976156 0.21999 -0.857826 -1.846867 -1.121737 0.137793 0.177278 -3.325971 -1.383587 0.597714 -1.090506 -1.047909
evidence 0.118917 -1.032734 3.390079 -0.244754 2.810083 3.097888 -0.271564 -2.086428 -1.256309 -0.842416 -3.140908 -2.70694 -2.127631 1.548296 -0.217439 -1.682765 3.161931 -4.241096 0.261767 -0.728121 -2.066134 2.054456 3.484029 -0.869021 0.485113 4.032499 3.846099 -1.201355 -1.912057 4.700881 0.04739 0.181417 -1.097447 -1.033241 3.619406 -1.229823 1.313539 1.970269 -2.157301 -3.617492 2.383024 -0.470244 7.47935 -2.14344 5.343542 2.406368 -5.583596 1.924425 -0.488816 2.353564 1.095733 3.105918 -4.992691 0.865737 -1.309142 -1.137398 -1.587713 -0.249426 -0.15386 0.037195 -3.7282 2.758735 -2.093395 1.935884 3.281154 0.082721 -0.416959 0.287677 -2.55297 3.346201 2.248307 2.802158 1.354902 5.074902 -1.941113 2.399657 0.432536 1.004125 -3.612537 -2.566944 -4.754273 -2.163556 3.055101 -1.871975 5.992647 1.209727 6.070982 -6.370818 0.596621 1.421193 1.624932 4.555351 -1.421683 -4.585279 0.274604 -3.23586 2.855624 -0.480041 3.305441 0.118012
sprint -0.009453 -0.072588 1.12358 -0.355354 0.325443 -2.210086 -2.103842 5.846113 -1.231565 -1.273225 -0.821356 2.790638 0.154632 4.163802 0.305972 1.875293 1.554108 0.203182 0.449158 -0.690926 -0.424283 0.924772 -0.457318 0.855996 1.467842 0.813496 -2.125262 1.450238 0.24807 -2.168033 1.914669 2.064145 2.2889 -0.956771 -0.640774 0.695378 -1.63337 0.405268 -0.756548 2.447002 -0.02075 -2.005104 0.901041 -1.963021 2.842252 0.619945 -2.780928 -0.813381 -1.663322 -0.024986 2.483251 -2.090553 2.909938 -0.164494 -1.546252 0.313211 2.860347 -2.998101 2.520085 -1.377491 0.093571 0.155363 -1.284697 0.497504 -1.374163 1.481034 4.325669 -0.589471 2.380162 -1.277422 -0.673917 -1.269716 -5.033925 2.027954 2.087378 2.070468 0.935556 -2.190982 0.353219 1.475767 -0.898229 4.19363 -2.239678 2.248851 0.511116 -3.508331 -0.889649 -4.084584 -0.323407 -1.694532 4.637344 2.335415 -1.038824 -1.252151 3.13415 -1.151189 2.964428 1.540963 1.022413 0.775769
emergency -0.527104 -1.504921 -1.873704 3.019533 5.142161 0.909904 2.838385 -1.714686 4.929877 0.304084 1.452857 -0.078262 -1.804279 4.207537 0.738729 1.013391 -4.006053 0.037828 -3.179858 1.871565 -3.241507 -2.655246 4.082961 -4.620272 -3.826214 0.636823 -0.41272 -0.220973 -0.664268 2.036226 0.212758 -2.455444 3.633244 -1.522429 2.767503 -1.171533 4.722474 -7.146746 -3.237581 -1.089416 -3.362429 -2.703912 0.678607 -1.382822 -3.107751 -1.027322 2.498653 1.322657 -0.662209 0.925871 -2.62909 -2.708463 -0.28045 -1.870825 3.756523 -3.444649 0.241917 -1.399454 -2.500442 -2.384501 0.319778 1.575661 2.787948 3.621564 -3.037168 -3.886799 0.987229 -1.946198 0.311321 -2.599705 -1.348356 2.666638 -0.738162 1.726395 2.082993 1.41399 -4.180351 2.256946 0.378002 -0.869926 -0.637473 -2.313076 -2.284634 -0.810232 1.362092 0.617185 3.939501 -1.330321 -0.679921 0.180627 -3.76188 -1.694847 -4.391271 0.097132 -1.048765 1.276419 1.063469 1.513741 -1.540048 -5.286077
Jackson -1.565366 -3.783575 -0.431186 -2.076692 -0.702861 -0.895231 2.077221 0.180501 0.907586 -1.710542 -0.369687 2.816046 -1.503947 -0.314499 -7.076183 -0.11638 0.253339 0.780891 2.159958 -4.725936 -4.843328 -2.356265 3.137177 0.195997 0.557735 1.773436 -2.193347 -0.929312 0.259336 2.634603 2.455649 -1.463202 -0.535885 -2.917374 -0.895655 3.855204 2.262088 -1.356195 -0.349238 -2.918509 -1.165326 2.080438 -1.332927 -0.15724 3.797647 -2.552626 -3.976425 -0.693331 1.387608 1.870454 1.547918 -1.846509 -0.052196 -2.775451 -2.005436 0.630044 2.018413 2.248845 1.6114 3.941971 -0.409333 5.349843 2.279485 -3.99922 -0.851777 2.263041 -0.586097 -0.148236 -2.545613 0.459814 0.280297 -1.911895 1.800524 1.820576 3.512952 1.415073 -2.82982 -0.140376 -1.387835 -1.029922 2.476155 3.771018 -1.6204 -0.977865 1.252634 0.834514 0.970155 -1.603468 -3.055823 0.833131 -0.404918 -1.715212 -0.116508 0.382475 -0.106374 -0.339996 -1.354898 1.483883 -1.131647 -0.465199
institution 1.531136 0.216614 -1.511307 0.356637 0.747854 0.548327 0.476069 0.872361 -2.098464 0.999836 -0.737908 -0.383887 -2.47821 0.626325 0.152766 -1.562514 -0.702307 0.355752 -0.933304 1.496126 -0.758506 3.278416 1.495538 -2.517933 -1.634541 2.575775 2.22553 -0.841307 -0.797695 -0.32724 4.576694 -1.01972 -2.358474 -1.937761 1.794107 -0.765052 2.945722 1.416597 0.021199 0.418711 -1.260729 -1.023782 7.105198 0.013581 -0.208103 1.179952 0.995571 3.754726 0.082142 -1.98937 0.191782 -0.444823 -0.790441 0.886904 1.303756 -0.456544 0.862738 3.58515 -1.764219 1.514554 3.580224 0.92904 2.554707 0.781644 2.630582 -0.326559 0.851266 1.549344 -0.574529 -1.533456 -2.384998 2.898049 0.381555 4.54584 0.76737 1.088755 -0.712781 7.146898 3.308007 -1.809356 6.461201 0.75285 0.345338 3.497572 2.70234 -2.407912 1.667519 2.843984 -2.116836 0.594467 1.773915 0.666089 -0.393322 -0.827418 0.549617 1.337127 2.291386 -2.572936 2.505558 1.576344
bird 0.190262 0.379181 3.472821 1.828334 2.24206 -0.140626 1.544484 -0.912919 -2.728955 1.406804 1.357281 2.925351 3.041698 0.790951 0.679663 2.340691 -1.657798 -1.655473 1.56797 -0.834359 1.00385 1.073587 1.557542 0.232812 1.365133 0.87968 0.93093 0.491859 4.039329 -1.432634 4.700607 2.459338 0.032971 -1.09506 0.366531 1.371357 1.434047 -4.00668 0.509993 -4.313365 0.718128 1.592357 -0.134214 0.666592 -0.55329 2.26657 -3.891383 0.324154 -2.608332 -0.457194 -0.660062 -1.17097 -2.386163 3.75845 1.593049 0.634128 -1.439276 0.222506 -1.063368 0.777019 -1.798465 1.763461 -2.231325 0.840225 2.78845 0.667875 0.184294 -0.131325 -0.592606 2.352352 3.146702 -1.304 0.332404 1.002361 1.641992 1.576211 -0.170762 0.383953 2.48559 1.566612 1.770589 -0.190303 -0.953521 -1.595101 3.036991 -4.989562 0.354404 1.656274 0.84876 -1.64485 0.895537 -1.622241 -0.173073 -1.619023 -0.20204 -3.383861 2.368462 0.314038 -1.842759 -2.005464
Brazil 0.609661 -1.237401 2.406355 2.314201 -2.044919 -1.850603 -2.234916 1.894027 0.635263 -0.054299 0.45527 -1.389176 -0.002834 -0.425538 -0.117146 -0.144449 0.916205 1.433163 -1.050502 -1.112356 0.900666 -0.597677 -0.226829 2.584446 4.352505 0.777208 1.584655 -0.590023 2.516903 -1.990537 3.361718 2.470407 2.508612 -2.485766 3.64976 -1.028781 1.413859 -1.709599 -1.385407 -2.54994 -0.684811 -0.959234 -0.128102 -3.594781 -0.923399 -1.098666 -2.132374 -1.138042 0.852518 -1.287552 2.677817 -1.107928 0.213804 -1.742918 3.346013 -0.164005 0.095741 1.656718 0.785379 0.079548 -0.425738 -1.515024 -1.83374 -0.001059 -0.532656 -0.9237 4.832587 -1.215828 -1.091818 -1.106245 -0.662135 4.009455 -1.660931 1.315116 0.227478 0.821351 2.122476 -0.91672 2.08265 -0.995467 -0.582537 3.965744 1.60967 -0.209853 2.918296 0.648337 -0.393258 0.246512 0.524377 1.694263 -0.497202 -1.627848 0.597687 -0.342112 0.205313 0.768481 2.101429 1.674111 0.703192 -0.845616
warning -2.547824 3.37449 1.469206 4.50948 5.424299 3.625224 -1.711808 -4.466433 -2.459584 -1.674938 1.648486 -4.915815 -3.488654 -2.385071 1.629211 0.971489 0.912904 -0.934684 -0.230457 -2.062785 0.732524 -1.661458 1.731248 -0.337159 -3.92016 0.391283 -1.45572 1.127936 0.822677 -0.098808 1.233199 -1.808331 -1.223349 -1.058062 -1.168962 -0.123932 2.504811 -2.661805 -1.677781 0.955958 -1.351664 -0.691578 -0.367374 -2.954781 -1.716305 0.546991 -1.966869 -0.145932 0.664472 -1.173093 -2.399622 0.290802 -1.034081 0.088191 0.017889 -3.831742 -3.478842 -1.872154 1.996824 -2.858174 -3.410485 -0.342377 -1.429356 -0.199957 3.308067 -1.716047 1.481253 -3.220345 -0.046703 2.380278 3.65678 2.441383 -1.555038 5.703047 0.463049 -1.015089 -1.329099 -1.209538 0.667056 -0.371755 -2.842295 -0.684416 1.562919 -0.862904 2.237604 2.204857 6.430091 0.319433 2.235149 -1.42745 -2.774397 0.974097 -2.322026 -4.312081 -0.552945 0.191409 0.57808 -0.179929 -2.705702 2.006542
implement -0.439859 -2.963193 -2.785507 -2.065106 -0.137726 0.157961 -0.822025 -0.581283 -1.222059 1.004708 -1.572381 -4.504717 -0.517174 1.140768 0.054695 0.094297 0.458771 2.456475 -2.600047 -0.103435 4.163433 -0.594443 1.027253 -1.764552 -2.005357 -1.065991 -0.462008 -0.334174 1.383267 3.527524 1.480989 -1.530719 1.215269 -0.79727 0.488947 -3.560092 2.620056 3.312969 -1.032437 6.477425 0.30213 -3.128098 4.155601 0.615637 -3.406654 -0.77807 5.284424 0.185009 -2.769232 -0.544598 0.207886 -0.357569 1.611859 2.553442 3.434188 -1.860582 -0.938215 0.763574 -2.598573 -3.066602 -4.126226 -2.248422 2.183791 1.683505 -4.405716 -1.927653 4.666123 -0.557635 2.104076 -3.252813 3.17206 2.099039 0.748234 2.695125 -1.706766 -0.696897 -1.753257 0.304734 -2.964434 -1.10864 0.224245 -3.470455 -2.310882 -0.544493 0.551546 -0.405138 -0.546644 0.090921 -1.599473 -0.41715 -3.451362 0.66554 3.856326 -1.019343 4.751701 -1.59555 1.911269 1.613197 -1.927742 1.810206
train -2.33914 4.349257 4.353205 -2.056295 3.698488 -0.851621 -2.894701 1.885523 0.381558 0.747839 -1.092806 0.512869 4.586033 1.430874 0.138592 -0.744798 0.102702 0.321986 -0.020064 2.17247 -2.842457 -2.773309 1.155827 -3.170446 -1.050704 -0.414667 -4.405907 2.202582 -0.873696 -0.141979 1.40087 2.329548 2.78856 -1.442101 1.389905 -1.633412 -0.33281 0.190417 -1.875784 -1.53782 1.765602 -2.437269 2.378161 -2.030535 -0.963102 3.966123 0.512699 -1.153523 -1.657503 0.640486 0.202033 -2.559514 0.183003 -1.120131 1.154284 -1.788717 4.417851 -1.762318 0.127992 -1.193836 0.444545 -0.297347 0.977656 1.440053 0.078726 0.206461 3.543691 -1.078579 -0.610285 -3.174166 2.221336 3.93883 -0.76811 1.374931 1.695231 0.022481 -0.928949 -1.682558 0.445526 3.676751 3.024854 -0.933416 -5.264846 0.37321 -1.899979 -3.047177 1.991948 2.959284 0.979008 -2.882788 2.354702 -1.830698 -5.129585 -2.332943 1.206645 0.592909 -0.402091 3.402214 -0.896873 1.454969
area 0.158983 1.09516 3.660049 -3.262679 2.678393 -0.228777 0.58186 -1.648876 0.452753 -2.648347 1.407721 -0.868195 2.144578 2.867981 1.085007 -1.420918 -1.309144 0.167959 3.614789 1.826229 -2.575125 0.690114 -0.013221 -4.276105 3.013598 0.066579 0.79796 0.631812 -1.41083 -5.085596 2.93523 0.448331 -2.269427 0.63351 0.58657 0.019542 3.874582 -1.805945 -2.295649 -4.029289 -2.668641 -3.028915 2.084066 3.191907 -3.470703 3.34712 1.422993 2.231879 -0.779364 1.005047 -0.874128 -3.398732 -1.548227 3.009733 3.9192 2.660185 4.675743 2.915918 -2.63372 2.446091 0.147722 1.629183 -1.285885 0.260012 2.898403 0.465488 1.862758 -1.321069 -0.574304 -1.067389 -0.86608 2.378987 0.517883 3.994504 0.294658 2.35762 -0.731116 4.165826 2.122366 -0.291125 0.059084 0.293822 -1.788388 -1.582581 2.853097 -1.558531 -1.339389 1.575998 1.133988 0.447067 -1.540321 -1.881707 -7.237031 -3.549649 0.575717 -3.643994 2.172112 -1.025481 1.748302 -1.72536
image -0.629443 -1.521192 2.44232 -0.894368 2.598351 1.536715 -0.730716 2.11645 -2.514567 1.630853 2.543686 -0.369191 -0.754262 1.014235 -1.156028 5.601834 -0.576655 -3.153513 -1.32742 -3.750218 -1.023373 1.840323 -0.32323 -1.861902 1.641778 2.422297 1.938085 -3.956739 3.303209 -0.988683 1.468918 1.92929 -1.129119 3.193352 1.624425 0.282119 -2.119922 -0.673712 -0.514446 -1.144476 2.431176 -2.18844 3.840154 -2.126035 0.29053 4.392165 0.406926 1.071646 -1.262429 -2.730377 2.427938 -1.666812 -0.471084 -1.799581 -1.377837 -1.134864 -0.629217 2.068606 -1.013909 4.336154 -0.587856 0.972433 2.685142 0.266834 3.379826 0.447045 -1.25806 0.312909 -2.290461 0.715494 -0.800187 0.930832 -1.97622 3.94406 -0.429602 2.034081 2.552586 3.557739 -2.025903 0.098301 1.437037 -2.230732 1.51216 1.162762 2.094668 -1.900019 3.625431 2.048483 -0.540358 -2.94727 1.577253 1.01786 -0.62912 -4.456447 0.004813 -1.267825 1.625453 0.420827 3.670047 3.975127
murder -1.762411 -5.887906 2.502283 0.421715 4.064373 -3.30293 -2.321919 2.490466 0.669254 1.592407 -1.573662 5.557446 -1.22504 3.699263 2.462345 -7.169217 3.270236 1.454525 0.892122 -0.166519 -2.733557 -0.193498 5.876505 0.243468 -0.071344 0.047046 -3.13211 0.33167 -2.081657 3.544337 0.488866 2.839419 -3.669939 -1.118981 0.137147 -2.382138 -0.107259 1.444369 2.676267 -1.226417 -0.859066 -3.013712 -1.772396 -3.419954 2.003412 -2.302103 -3.802596 -1.269437 -0.895775 0.456488 -2.351879 -5.354389 -2.764513 2.247464 -2.875725 0.657101 2.799067 1.548495 2.190828 4.187054 -2.380456 3.114197 1.72157 -6.13595 0.084243 -0.262711 0.312313 -1.047649 -5.049469 2.487443 -1.41896 2.419675 5.4253 0.229069 -3.316913 -0.514231 1.842882 4.431399 -0.087833 2.684273 -2.420478 0.11829 0.796864 4.542827 0.624549 -0.285213 0.763084 -3.233395 -1.822822 -3.413749 0.241737 4.026145 -2.801551 1.698666 0.3781 -2.818767 1.316028 0.749931 2.005404 -3.424603
journey -0.328429 -0.735982 1.720199 -1.222002 3.071953 -3.810823 -0.541357 2.355828 -4.607184 0.57354 1.049527 1.567739 5.136104 1.199153 -0.389276 2.294066 0.41377 1.76601 3.074392 5.299345 -0.811969 -0.4322 1.435735 -2.300245 3.516901 2.668596 1.795436 -0.127569 1.889088 -0.468056 3.824814 2.161015 1.107845 0.427186 1.039867 -2.152426 -0.613618 -2.10942 -2.601122 1.975146 -1.444051 -5.223632 5.9001 0.87666 0.600046 3.073284 -2.759823 1.003497 1.953967 1.968765 0.748171 -4.326631 -0.377747 -0.49926 -1.977729 -2.447206 3.130004 -1.055975 1.925326 3.49843 3.277444 1.091865 -0.622535 -0.587515 4.203392 2.042608 5.812547 0.007125 0.765337 2.097734 1.621585 1.843194 -1.04781 3.868857 2.299823 -0.291188 2.358667 -3.414757 3.101018 1.594864 2.187482 0.92784 -1.95573 2.431169 -2.121838 0.320675 0.821357 -1.077217 0.224764 -4.820504 0.495836 0.937965 -2.083022 -2.318128 2.749288 -1.910798 -2.326174 4.858455 -1.778762 4.878835
minister 5.390459 -3.60311 -0.265655 5.862862 -2.285906 1.323506 0.332422 5.289218 0.220511 3.741731 5.511761 1.272136 -9.938009 1.483961 0.414943 -5.644348 0.798328 5.232556 2.484761 2.954879 2.491015 0.275155 -3.330812 1.769789 -1.905488 -3.336053 -0.439543 1.853238 3.486847 3.726695 -2.329733 -0.953745 0.762273 1.143574 6.863027 2.929635 2.044375 2.118382 -7.527093 1.08414 -3.424468 -2.53073 3.020133 -2.561317 1.063741 1.366547 -9.263734 3.522365 2.920767 -0.868067 2.745146 -4.393494 2.685647 -2.799504 -0.833272 2.310531 4.363801 3.568784 7.399695 0.520399 1.45488 -1.480575 0.889484 1.457711 0.829377 -6.188343 -0.588115 -1.054657 -4.313862 0.484131 1.460204 3.623784 2.247954 -0.016526 -1.949524 1.20207 -2.172228 1.134305 -4.403173 -1.843601 3.670254 -5.100193 -2.735736 1.74257 -0.676987 3.641202 2.877289 6.867425 -5.097493 3.12862 -4.271805 -1.054497 1.510939 -6.31658 3.084723 2.717097 -2.780746 -2.275064 5.688357 -4.067893
planet -0.649306 1.814843 1.467878 -2.451326 -0.529365 -0.207388 1.4784 0.665276 -7.010173 0.275849 -1.477417 0.547282 1.569192 0.18792 -1.982019 2.495804 0.959662 -0.956917 -0.747195 -1.695639 0.953816 1.213813 -0.363437 2.973975 1.014444 4.424095 1.797434 -2.336173 2.417393 -0.569604 3.532048 4.548282 -0.42014 -1.887954 -1.088712 -0.663071 -0.375517 -2.676456 1.224836 -2.781934 1.95032 -2.919894 5.598961 -0.794956 -0.479547 1.340474 -1.917646 1.087283 1.2483 -2.501455 0.846094 -3.952367 -0.096853 1.959933 1.923168 2.270039 -1.051505 -1.04995 -2.242814 3.850101 1.001272 -0.97093 -4.097222 -1.893166 2.582544 -1.82573 2.613684 4.753181 -0.060709 0.162979 0.259344 1.617756 1.994814 3.820314 2.226394 5.414928 2.858204 0.012325 2.652408 1.013292 1.990308 -0.406191 -4.717556 -1.490378 1.297049 -5.368851 1.755466 2.595197 -1.799741 1.779486 0.687604 -1.756207 -2.598258 -2.969652 -0.193239 -4.767592 2.878312 3.487426 -1.241918 -0.02829
article -0.503685 2.499325 -0.43283 2.772669 1.929165 0.398792 0.377357 -6.213522 -2.834349 1.571778 -2.40873 1.677407 0.810119 -1.66018 -2.560296 1.70288 1.009989 -0.205102 -0.649263 0.288762 -4.085988 2.166531 -1.564892 -1.495845 4.330401 0.525378 -1.210449 2.073045 2.730386 -0.006677 2.168107 1.864995 -0.516936 1.017909 -1.498089 2.662394 3.356581 -2.612996 -1.503699 2.345074 0.509465 -5.351316 6.960782 -3.290004 0.055445 4.049406 -4.029038 2.789346 2.746888 3.55313 1.600902 -0.962366 -0.473905 0.684437 -1.581641 3.789614 -2.650072 0.276295 2.392584 -0.097295 1.059162 7.476212 2.067447 -3.107442 4.77996 6.316122 -1.760043 1.635936 0.830659 1.262231 -3.240064 5.834893 3.908161 1.61738 0.702601 2.67731 5.262798 3.693444 -4.204476 -3.02871 6.16132 -5.473191 3.611747 2.792488 1.733302 4.028403 4.083615 3.0784 1.443053 -3.318946 -1.398237 5.495386 0.851894 -0.587505 -1.053067 -3.683203 0.724133 -1.616577 1.453108 3.190003
anxiety -0.861713 -0.8024 -0.15375 -2.063929 0.349453 1.024395 -0.298792 -0.529127 -2.462153 1.341767 1.285699 -0.62484 -3.045917 0.08425 2.977785 1.140836 0.076691 -2.998882 -1.617405 0.409238 -1.033349 1.319983 2.45329 -0.335256 -1.484462 6.710191 0.675879 -2.488471 -0.285644 -0.486111 1.076437 0.06392 -2.310715 -2.377308 0.434791 1.0254 -1.257248 -1.196227 -1.023358 -2.292069 -1.180753 -2.270584 0.733373 -3.620928 -3.857022 -0.362733 1.048104 -0.381986 3.96464 1.098117 1.181027 1.312354 -1.51449 0.709079 0.204663 -0.695894 0.454725 2.698312 -0.863674 3.25363 -2.92587 1.20223 -0.918904 -0.112638 6.351789 -1.026931 1.542667 -1.12679 -1.21718 2.61624 -1.945612 0.553975 1.211761 -0.008414 3.244575 -1.928233 -3.727543 -0.493124 -1.811146 -1.663617 1.2426 -2.890952 -0.654949 1.82129 1.211024 -1.346365 5.425463 -4.126272 4.984404 4.097305 1.677997 -0.020383 -0.139338 0.998248 -2.088323 2.476588 -1.740975 0.951434 -1.19417 2.411096
month -2.705106 1.844115 7.358416 1.305003 5.914851 -5.690125 -3.163936 1.437055 -4.119215 -3.727661 -4.395072 0.438423 4.848287 0.606453 -2.183473 -1.1392 -0.312577 4.274158 0.180644 3.197397 -0.956675 3.233346 -0.784287 0.129373 -2.409583 -0.344892 -0.612494 5.686585 0.594198 -0.642036 0.510514 1.103363 1.667205 -5.27379 0.571837 7.04647 1.837971 -4.606052 1.302622 -0.641879 -5.369594 -3.725005 1.022283 8.341491 -0.719963 -3.733031 -0.598393 -1.7E-5 -0.155842 1.053403 5.328647 -6.877491 -0.775197 -1.61862 -1.370111 6.601154 -3.118543 -1.069701 6.206827 -4.870279 0.428086 -3.244024 0.123898 0.196356 5.821191 3.834311 -1.194766 0.854958 0.535777 -4.172138 -0.394524 7.571327 -2.684726 5.347386 -0.206843 7.066793 -2.321362 6.971186 2.378964 -4.476614 -1.404548 -4.204627 4.658329 0.820266 2.075939 2.186137 5.772499 0.872317 -0.039881 -0.708482 0.13816 2.187352 1.368393 2.825697 0.935249 -2.391421 -2.388037 -0.087771 -1.097276 -2.344952
carnivore 0.531201 -0.192285 0.536118 0.241017 -0.493671 0.015767 0.159856 0.278427 -0.412263 0.486173 -0.606026 0.391226 0.273506 -0.047383 -0.078445 -0.277177 -0.271557 0.290832 -0.068337 0.117676 0.33882 0.500278 -0.125754 0.077446 0.648388 0.104914 -0.087883 -0.023988 0.588285 -0.255791 0.183899 0.228887 -0.493112 -0.13735 0.098981 0.317025 -0.00205 -0.653924 0.10608 -0.414543 -0.15522 0.467878 0.507086 0.068002 0.148398 0.269784 -0.360082 0.046649 -0.160677 -0.234131 -0.130392 -0.034717 -0.475849 0.705267 0.390072 -0.246699 -0.171203 0.187193 -0.160831 0.25708 -0.179345 0.33126 -0.410962 -0.720398 0.784745 0.150363 -0.23249 0.428003 -0.038024 0.770755 0.324829 -0.675284 -0.026555 0.36656 0.956901 0.631943 0.357351 0.536101 0.27283 0.388535 0.643472 0.306075 -0.187407 0.243183 0.627261 -0.712359 0.01807 0.223983 -0.252051 -0.32838 0.038211 -0.3482 0.286966 -0.31775 0.002647 -0.474003 0.251347 -0.383689 -0.115554 -0.437882
party 0.981866 -1.518284 -2.328698 0.220939 0.213003 0.19647 -0.29203 5.043633 -3.164744 0.848594 1.020356 0.463618 -5.806796 0.847993 2.808868 0.105425 -1.106081 -1.61031 -2.111947 -0.021083 2.140047 3.549861 1.276462 -1.859866 1.194436 -4.349781 -2.65296 -1.786773 0.234323 -0.344569 -2.965221 -0.170408 -1.914317 -7.423131 0.084017 1.17593 2.31144 3.367248 1.467991 1.372944 -6.142742 -4.809781 3.77474 -4.325866 2.498164 0.426434 -0.563496 -0.763753 1.566265 -2.582222 3.948468 0.740121 2.734365 -0.841031 -0.346473 4.818197 3.854829 -0.024579 0.885097 1.456435 0.69646 0.772873 0.722001 -1.129302 1.540761 1.442286 -0.772152 -1.013527 -2.069451 -2.801229 0.732483 2.320713 0.27171 6.838305 1.783509 -0.937413 2.22898 2.036534 3.352637 -2.667308 0.72299 -0.671129 1.020608 -3.498095 -0.667475 -2.017148 0.438084 2.938466 -3.993687 -1.287795 5.657956 -1.658732 -2.412673 -4.083628 0.544656 0.527163 1.364821 2.078976 2.460253 -1.301574
production -2.156996 -1.790691 3.454847 -1.021673 -2.132146 -3.315527 -2.391354 3.645871 0.139782 0.802625 -4.008505 -2.211337 0.745704 2.293327 0.812618 -2.902454 -2.754877 -0.568351 -3.080925 -4.937725 -2.622007 -0.898196 -1.770397 -0.096805 2.352191 0.974875 1.84288 -0.645923 2.234544 -0.181709 4.299856 -0.56614 2.730559 -0.172041 -0.733786 0.843368 -0.698528 0.087112 4.053854 -2.221599 0.69564 -4.882041 4.353813 0.658121 -2.046831 2.255207 -0.847167 -1.860886 1.356522 0.398381 -1.459064 0.763357 -0.472078 -2.137479 2.153664 -4.518308 -0.029564 1.864988 0.418426 -1.539512 0.378243 -3.589669 -1.702426 0.09481 -2.494717 -1.620394 2.000054 -2.106742 2.946699 0.245797 -0.249671 0.409354 -1.26395 0.122227 0.684622 4.039162 -2.992599 -2.270781 3.472539 -0.36214 0.118371 -1.70981 1.972536 -1.924499 3.8915 -0.128667 -1.644174 -1.578121 -1.150227 -2.730328 -2.440809 -2.908342 1.444643 1.965045 2.474514 -4.338742 -7.052049 0.507205 0.128165 0.036859
importance 0.707718 -2.478523 -2.091062 -3.020559 1.681628 2.073733 -1.881326 -0.93516 0.089172 -1.284502 1.117248 -1.335889 -4.925456 1.226916 1.435729 3.589739 -1.121502 -3.565204 -1.028439 3.152259 1.534593 0.350418 -1.945894 2.761741 -0.182292 3.712036 4.01288 -1.524486 2.065072 0.827496 3.260365 2.554491 -2.3865 3.790903 3.038541 -3.487631 -1.913204 -0.438717 -1.937832 0.467867 2.072834 -3.862473 3.101623 -2.141528 -2.127326 -1.101666 -0.571635 1.435727 1.35725 1.509712 1.413283 0.788057 0.388717 1.930803 0.876744 -3.459307 1.514706 2.27957 -1.2821 3.669452 -3.281335 0.435628 -3.713709 1.44793 5.057381 1.136201 -1.334514 -2.417958 -0.980054 -1.1522 -3.491412 1.192513 4.136252 2.633966 -1.803934 3.34644 -0.949934 -0.207479 -1.716617 -3.39814 1.006137 -5.038436 -2.004698 -1.125353 1.236696 -1.214901 1.632772 -2.960491 -0.271911 2.395707 -0.796472 -0.774289 0.709884 -1.044294 4.829446 0.50995 0.918199 -2.126107 5.550287 0.470688
inmate 2.51091 -2.969791 -0.261582 0.489586 2.817677 -0.554694 3.37885 1.290751 1.098929 -0.058016 -1.162866 4.628745 -0.176206 2.877069 -2.55079 -3.155443 -1.697014 3.498091 -0.8742 -2.589569 -0.819193 1.024138 2.313558 -3.325004 -3.090488 -0.258145 1.098204 1.260631 -1.036424 2.631633 1.091066 1.875768 1.459617 -1.196986 0.54775 1.828117 3.227468 0.362044 -2.627575 -4.020418 -1.91626 1.800262 2.559001 1.103131 -0.959375 2.008458 -2.508556 2.893911 1.228629 -2.316506 0.273603 -3.72161 -0.609387 0.204381 -0.748594 3.9194 1.631319 0.883874 1.560984 0.823446 1.074896 4.273151 4.457791 0.51962 1.458641 -2.526518 -2.114171 0.017922 -3.056278 1.560319 -0.092301 0.724155 4.587932 1.088256 3.166102 1.648772 -1.548009 3.637712 0.014202 3.452931 -1.723423 -2.164225 0.689103 2.950264 0.633471 -2.247825 0.880475 2.379084 -2.151804 -3.11887 0.297959 2.271682 -2.143964 -0.145071 -2.787764 -3.249034 0.706456 -3.53376 -1.541824 -3.177752
Harvard 1.220929 -1.556453 -2.26581 1.510798 0.613324 0.393385 -2.115716 0.33125 -0.529026 -1.710507 -1.885966 0.400398 -4.01715 -2.741956 -2.32002 -2.988955 1.046899 0.005507 0.16965 0.806299 -3.190013 -0.774096 1.612282 1.733991 0.131278 2.07185 0.042191 -0.63111 -0.802374 -1.843251 2.938653 3.028614 0.18633 -1.830873 1.288476 2.182318 3.6655 2.914288 -1.49092 0.880065 1.602897 1.836444 1.013796 -1.201516 -0.844871 -0.466077 -1.967811 2.790489 -1.136763 -1.001585 1.411191 2.685344 4.972098 -1.201335 -1.44516 1.506341 1.838783 -1.230629 -2.140372 2.421561 -0.209843 5.39836 -0.113806 0.588732 -0.623833 5.87798 -1.974013 3.276173 0.188567 -2.131894 -1.512785 0.338377 1.911614 -0.91018 2.100805 -3.07764 -3.0754 3.242271 0.117404 4.126653 1.789054 0.433465 1.240286 0.809766 1.081148 1.881915 1.451776 1.350909 0.894572 1.623947 2.897393 1.038393 5.268292 1.023495 -0.975601 2.811997 -0.93323 -1.826946 0.459792 0.56803
psychology 2.230516 -1.23048 -0.080631 0.300024 -1.626757 0.979289 -1.228766 -0.812698 -1.017114 1.665868 -2.419831 -0.401096 -2.652625 0.504504 0.508015 -0.710038 3.537622 -2.095141 0.942997 0.172335 -2.628223 -0.489855 0.507678 0.640945 1.1547 3.765204 0.580155 -0.855868 0.348948 -0.753976 2.838118 2.515171 -0.817172 0.53006 -0.10138 0.27683 0.546867 1.804016 -0.523402 -0.027666 0.840049 -2.305255 2.095771 -1.626788 -1.369782 0.675291 -0.100319 2.74524 0.56277 -1.158923 -1.493791 0.560607 1.082534 0.290187 -1.457647 -1.927804 1.076788 1.698792 -4.19689 2.782624 -1.680147 0.792801 -1.465192 1.776688 2.690435 2.810825 -1.1218 1.621176 -0.486891 1.147469 0.07846 -1.24366 1.665947 -1.039317 2.315635 -1.014834 -0.677014 2.228645 -1.88875 2.14701 1.969344 0.276698 1.244355 1.479557 1.58042 -2.449136 -1.198759 -1.824917 0.999641 1.233109 1.807086 2.254416 2.841074 1.522236 1.208739 -0.393628 -0.213415 -2.002673 2.66957 1.565492
medal 1.06305 -1.114492 0.155161 -1.596183 1.897614 -0.116391 -1.684109 4.654803 1.362626 -0.754486 -3.331882 1.659037 -1.84945 1.381943 0.686324 1.531684 1.343851 -0.590775 -0.255774 1.14012 1.729854 4.316164 -1.037651 3.452486 -0.581029 2.431491 2.619416 0.00206 -0.834616 -3.00737 2.147496 5.547022 1.901905 0.08712 0.911202 -0.231154 0.066198 -0.074604 2.66E-4 1.797674 -2.744023 -1.979785 -0.43678 -2.221119 6.435032 0.523507 -6.306208 -0.745175 -2.189043 -1.986138 2.88997 -2.089361 3.998288 -1.892294 1.021543 2.993503 2.082402 -1.298598 4.822225 -3.503713 -0.303638 4.516132 0.312154 -1.188559 -1.777853 -0.048925 1.337533 -1.597536 3.267709 0.676034 -1.995998 -1.546815 -5.319374 5.030758 -1.849367 4.469382 1.800057 -1.953615 0.329096 1.901346 0.123667 4.063293 -3.105346 3.897213 2.849452 -4.019825 0.683966 -3.242311 -1.516761 -4.528776 4.230698 -1.350613 0.915993 -1.068842 1.1819 -0.759052 3.824088 1.12184 1.79595 -2.054974
company -1.95198 0.311169 -4.913571 -2.051722 0.069649 -0.86123 -1.289081 4.247616 0.809199 -0.286702 -1.003671 -2.713344 -3.408544 3.701623 -0.881736 -2.8234 0.208032 -2.439117 -2.119506 -1.377498 -4.08 1.854749 -0.271325 -2.742542 -3.158379 -3.558822 0.603036 -1.432911 1.148149 -0.293303 7.195166 -0.789572 0.018202 -0.398509 -0.130869 3.472754 3.583938 -0.094776 1.224811 -3.364056 -1.749616 1.891983 5.138018 -0.673983 1.509183 -0.424284 -4.913157 1.916709 1.719292 1.33405 -1.508368 2.042197 1.070554 0.808249 2.085247 -2.163425 1.835743 2.515779 -1.100016 -0.659071 1.881094 -1.7248 3.744928 -1.319554 1.196432 0.365146 2.801649 -1.112222 0.240728 -2.1684 3.084727 4.303553 -2.34724 0.683542 0.58517 2.658267 2.443083 2.90478 4.939456 -5.779583 3.626115 -0.406501 0.100786 0.901583 3.96818 1.101241 0.441553 4.637898 -1.425324 1.015966 -0.665579 -4.578531 1.829237 -2.003336 1.745566 -3.862826 -3.570664 2.020233 1.837301 0.253376
live -4.792847 0.45148 1.557089 -5.368545 -2.762891 -1.430771 -1.441264 1.39631 -4.345079 0.543286 2.114978 3.047462 3.525258 -4.612522 -1.754733 -0.934375 -1.461443 -0.379789 1.45168 -0.302553 3.473682 0.799136 2.142585 -0.891797 1.819158 1.206483 0.272116 -0.736995 0.481252 -1.077883 1.328571 1.817972 0.970228 0.607203 -0.436003 -1.811391 2.002123 0.998399 -1.332936 0.676094 -1.683918 -2.989113 2.747937 -1.431307 0.214647 4.214622 1.898756 -0.424377 -1.228299 -0.936255 -2.721127 -6.040861 -1.628776 -1.151187 -2.18077 -0.737184 1.739368 2.699364 -4.028799 0.282451 -2.193009 1.669782 -2.001508 2.718934 0.524586 -0.122303 0.945145 -2.631069 -0.2138 -0.864747 1.503703 -0.432771 2.010337 2.075526 -0.126182 -1.041106 1.455932 -0.548098 -2.585445 -0.94178 2.423429 1.30633 -5.465785 1.175806 -3.103523 -1.880438 -3.839451 -2.365915 -3.464305 -0.418017 -1.353384 0.695787 0.92531 2.014164 -3.899464 -2.386552 1.683965 4.615079 -3.460593 -0.242607
holy 2.556794 1.063102 -0.267634 -1.522543 2.443404 -1.723261 2.115495 -1.337035 -2.19256 1.904333 4.84711 -0.536932 0.135762 0.031005 1.321646 -0.491021 -1.201704 -2.945026 0.188613 1.072732 3.93878 0.147099 5.180234 1.26473 1.659142 0.101581 0.265928 -1.225281 5.450323 0.635508 0.085437 1.90491 -3.10442 -1.007084 5.616917 0.017952 0.205399 1.608838 0.810634 0.668 1.628533 -0.829722 -2.337708 -0.399121 -1.110308 2.169092 -1.388179 2.272747 -3.195295 -2.241094 -2.313203 -1.106205 0.370632 1.036227 -0.959844 0.042618 4.359002 -0.097457 0.322455 4.793732 -0.608545 2.162869 -3.002864 -0.592611 0.327234 1.843557 0.323008 -4.843615 1.667395 2.146458 0.166944 0.985773 4.181869 0.586427 -0.619439 -1.510464 1.232294 -1.320889 3.21698 -0.068646 0.5537 3.106436 -1.961605 -1.046744 0.222109 1.789151 -0.489516 -0.758935 -2.852938 -1.736836 -3.818369 1.963595 -3.701317 0.047116 -0.932367 2.344985 0.05618 1.018473 0.058998 -4.886877
ticket -1.864739 1.507877 1.443832 -2.389629 2.990081 -1.072731 -0.973101 0.009493 3.637915 0.518154 -3.066802 -0.61744 1.321234 -2.003736 -0.923114 2.758517 -1.928061 -1.161919 1.563155 -1.014467 0.015432 3.68116 -0.072565 -1.350689 -1.374392 -0.753749 1.8443 1.53598 -0.271257 -2.394393 0.848671 2.853724 0.591515 -4.089251 -1.647866 1.165746 3.37263 -0.532126 -3.007914 0.22702 0.348192 -1.630997 -3.130093 -1.898791 1.40417 1.273346 0.701001 0.129819 -1.293453 -0.988129 -1.523048 1.836378 4.545741 -2.865344 -2.516359 1.185989 -0.416534 1.622405 2.749834 -2.220369 3.615932 -2.331426 0.175659 0.991435 0.317571 2.052129 -1.994076 -0.580338 3.516723 2.208713 -0.069032 5.159361 -2.169456 2.50024 2.632739 1.920568 6.234553 -2.036775 -0.296391 -0.560225 0.650123 0.519906 -2.188269 -0.999923 -1.538864 -1.89703 -0.034598 0.810167 -0.200011 -2.16718 4.481404 -3.289828 -2.840356 -1.085983 -0.95255 -1.209708 -2.622691 0.881676 -1.165249 1.655901
victory 3.062346 -4.049071 0.857214 -1.859337 3.24913 -0.824034 -3.315026 4.054664 -2.709042 -2.458557 1.772356 0.915635 1.167313 -4.27693 0.583095 1.093913 0.215213 5.314926 -0.802152 2.117629 0.346302 3.550103 -1.178338 -0.099405 -1.819268 -4.211102 0.728874 2.717371 -1.197555 -2.931692 0.898401 0.638613 0.984335 -0.336465 -0.452454 1.253959 -0.702488 -1.670892 -5.952223 6.500973 -4.879892 -3.78626 0.243337 -7.557288 0.2938 -1.816705 -4.002913 -0.068621 4.400583 -5.459245 4.044314 -2.835421 1.466855 1.833598 1.486854 2.924498 3.896726 -0.64055 5.074716 2.810345 2.228554 3.366435 0.070095 0.313762 0.080097 0.268136 -0.411992 -4.691279 0.586839 2.183974 -6.667293 -3.87368 -4.514897 7.169946 -0.672769 1.024165 4.781721 0.855301 -1.686822 -4.870751 -3.15175 4.574467 -2.174411 5.796206 3.192744 -3.606646 3.258592 -4.141598 1.326184 -5.558946 2.09551 2.095943 2.557112 -5.900665 4.601541 0.952107 0.558356 2.622238 1.130056 1.978464
football 0.202101 0.065856 1.32931 0.103228 1.511643 3.743668 -0.881614 3.932737 1.350158 1.292906 0.284531 1.263079 1.745897 1.701579 -1.088105 2.369328 0.330255 -2.461741 3.064937 -2.037677 -0.359892 -0.479699 2.094873 3.257156 -0.274528 4.707864 -0.031608 2.452472 -0.369704 -0.401961 1.949936 0.70914 -0.573865 -5.055949 0.210708 0.992471 -0.877552 1.719729 -1.427965 0.956807 -0.293826 -3.313452 -3.336678 -2.444677 -0.057054 3.529759 -0.78898 0.076699 0.928945 -2.948401 1.736688 -1.332003 -2.720359 -2.622514 -0.034049 1.377234 0.576172 1.522018 -1.229195 1.646852 1.206964 2.435183 -2.482879 3.312377 0.299959 2.589104 1.976047 -5.217565 1.391339 -3.109095 1.425606 -0.239045 0.785373 -0.648878 1.396886 1.757841 1.290712 -1.161536 2.446201 0.819125 2.009468 3.478706 -1.021435 1.139664 2.353063 -4.749048 -3.581213 -0.073689 -0.777477 0.329039 2.156976 -1.424707 1.39514 2.190832 2.008544 2.576086 1.961034 -1.281379 2.566256 4.03525
seepage 0.265663 -0.189622 0.497345 -0.11772 0.131856 -0.057171 -0.091811 0.061652 -0.31087 0.056557 -0.023637 -0.314863 0.104329 0.03176 0.020916 0.115078 0.045351 -0.219025 0.029682 0.103574 -0.236749 0.121038 0.294657 -0.354675 0.363987 0.271236 -0.151516 0.110888 -0.023017 -0.293305 0.092782 -0.114608 -0.010966 -0.234647 0.466212 0.013014 0.222501 0.089374 -0.140514 -0.602511 0.266998 -0.232578 0.372574 -0.25953 -0.365668 0.137825 -0.315297 -0.194973 0.044462 0.099449 -0.428531 -0.117058 0.198289 0.45028 0.413205 0.090275 0.199258 0.017275 -0.044956 0.127199 0.119025 -0.121188 -0.26925 -0.333522 -0.087076 0.099676 0.377004 0.113773 -0.238882 0.430588 0.041281 -0.436671 -0.055715 0.029828 0.133454 0.411331 -0.24489 0.01876 0.318005 -0.005233 -0.253554 -0.205943 -0.089047 -0.420641 0.50758 -0.152832 0.175132 -0.381063 -0.131154 0.134425 -0.075612 -0.263912 -0.20253 -0.12039 -0.373902 -0.46934 -0.347093 0.032307 0.07848 -0.109156
rook 0.072897 0.120449 0.117983 0.046815 0.211917 -0.105757 0.114388 0.053415 0.22713 0.32437 -0.019758 0.224681 0.031576 -0.178606 -0.266961 0.092328 -0.157496 -0.052045 -0.121844 -0.174755 0.012748 0.157845 0.092713 0.013199 0.200792 0.256392 -0.484367 0.324804 0.137858 -0.18047 0.032517 -0.046328 0.060673 -0.025842 0.130496 0.122306 0.247797 -0.05228 0.067893 -0.076703 -0.038641 0.03885 0.118093 0.003656 0.266997 -0.073111 -0.188654 -0.016863 -0.165013 -0.120049 0.130825 -0.091572 0.086478 0.078034 -0.009455 -0.064734 -0.257116 -0.039708 0.057232 0.380063 0.262188 0.189125 -0.116235 -0.154318 0.240406 0.245438 -0.05763 -0.021994 0.01197 0.003802 0.107772 -0.195576 0.033255 0.051515 0.477412 0.011143 0.225306 0.166772 0.022865 0.056012 0.279116 0.033018 0.043892 0.204162 0.07053 -0.162118 0.080965 0.214088 -0.020994 -0.245012 0.202698 0.086242 -0.052703 -0.138798 -0.183901 -0.10667 0.009245 -0.097067 0.014563 -0.047686
stroke 0.309298 0.872562 2.079616 -2.113261 1.149456 1.489934 -2.110481 0.060681 -4.405771 3.493899 0.017772 4.847386 -2.243649 1.300283 0.528483 -1.857182 -2.200542 -1.05848 -0.164467 1.795714 -4.779654 2.885432 4.464146 0.92669 -0.060271 -1.203131 -0.033926 0.799372 0.590017 -0.231461 1.32509 1.257922 0.712456 -3.235936 -3.692929 -0.669576 -0.347799 -1.103607 0.247352 -0.483147 -3.828016 -1.284387 0.186294 1.260929 -0.942208 1.521994 -4.260208 -2.222051 0.414426 -1.722141 -0.898905 -5.459846 3.478181 0.150982 0.560095 0.742979 -1.063015 -1.929717 0.976539 1.743127 -2.501796 1.61459 -0.169499 -1.188328 1.679389 0.733723 2.469794 3.103046 -2.390672 1.800457 -2.123754 -1.155324 -4.188129 0.387505 5.13571 -0.871733 -2.821323 0.977448 1.869504 -0.817351 -0.11107 -0.253754 -0.619136 3.710947 1.872689 -1.996175 4.245193 -1.911024 3.364242 -1.296912 4.266893 -0.01485 0.934087 0.772541 0.560026 -0.518196 2.363181 1.744911 -1.067445 -0.629676
environment 1.074785 -1.930809 -1.030685 -1.614583 0.07715 -1.11796 0.1549 0.037867 -2.080354 -2.428882 0.669874 -3.446564 -1.447523 0.708168 2.16793 4.027425 2.13974 -1.22313 -1.383849 1.018105 -0.107921 2.601229 -0.924261 -1.562621 0.557138 5.514038 1.012103 -0.664633 3.925356 -0.928436 2.307695 1.677787 -0.299346 0.51402 -1.445032 -0.766772 2.378956 0.222432 -1.890257 -1.236029 -0.193633 -6.650169 5.874533 -0.970099 -1.974093 0.382632 3.091788 3.066143 -0.920054 -1.033383 -2.101118 -1.44977 -1.192947 0.518622 2.080162 -0.640339 1.891077 3.269227 -4.457319 2.235132 -0.723603 -3.638888 2.159883 1.000572 3.572495 -4.028732 2.396158 3.384442 0.369744 -0.088157 0.134632 4.406299 -1.473092 -0.757392 1.41793 4.147884 -0.259862 1.622975 0.639675 -3.378255 1.631828 -2.385371 -0.363999 -2.799568 1.168032 -2.963212 -2.784947 0.928286 0.652949 1.379426 0.980586 0.46377 0.256318 -2.804401 1.049466 -3.456434 1.344575 -2.690193 1.904094 2.080407
coffee -1.142463 -0.001436 1.058672 0.705567 4.130743 0.89893 3.232109 1.61756 1.071093 -0.730563 1.723544 -1.114383 1.304887 -2.439635 -0.31001 -3.514607 -1.304856 -1.156348 -0.351339 2.188468 2.547192 3.1409 0.906481 -1.975089 0.48295 -1.7038 -4.823935 -2.611486 2.267623 -0.462075 3.645231 0.274159 0.665875 -0.665062 2.662543 2.917518 0.213925 -2.143667 -0.530439 -0.952293 1.338256 -2.264074 -1.22876 -1.121907 -0.243792 4.393085 -1.794962 0.389705 0.24339 -2.005115 -0.729525 0.724674 -0.03988 -3.060749 -0.926306 -1.799491 0.717198 3.641877 0.654796 -0.710252 -2.299859 -0.342921 -2.770053 -1.046826 1.166085 2.405719 -0.291168 0.413055 0.98975 -0.203301 1.013395 0.825163 -1.875552 -1.691492 4.199072 -0.714615 6.355062 -0.235773 0.857233 -1.233869 0.062576 -1.903319 -1.367931 -2.083572 1.469295 -4.334754 -0.569001 -1.593856 0.260731 1.092173 1.554952 -2.16003 -1.427661 3.947116 -2.190121 -0.676607 -2.81292 0.650296 -0.14816 -0.819013
baby -1.923689 -4.455276 4.463939 -0.7414 1.137838 -0.914834 2.560965 -0.337445 1.677705 2.692754 2.082715 3.463544 0.570083 1.703756 -2.630172 0.638574 -1.115722 -0.231363 -2.609166 3.644633 -0.126149 2.074835 4.078693 -2.269152 -1.390021 -0.640227 -2.129987 -4.830698 -0.403036 0.059467 2.740737 3.34856 -1.658833 -1.239975 -0.031519 2.368004 2.55247 -1.436079 1.747916 -4.598393 -0.164494 0.272328 1.001401 -2.984183 3.320735 1.950933 -2.676357 2.073653 -0.235185 -0.099066 0.25348 -1.230668 0.646956 -1.919133 1.48222 0.339346 -1.048403 -0.360083 0.388512 -0.514486 -2.957525 2.250098 -1.221214 -2.241513 6.678152 -2.08008 1.564517 2.730765 -2.535872 1.819497 3.021569 -1.301402 0.544849 0.883333 3.990423 2.188516 -0.974423 0.251286 0.010284 2.758978 2.474256 -0.12819 -1.30286 1.57322 0.49402 -3.867087 2.433464 -0.041971 -0.295971 -2.286123 1.970015 -3.638214 2.306391 -0.390122 -2.813168 -2.382778 -0.295194 4.371863 -2.024298 -1.697225
personnel 0.72552 0.841434 1.203182 -0.908177 4.157134 1.247456 2.660908 2.405939 1.393906 0.159151 0.677878 1.134654 0.624614 0.203021 2.265234 -0.321042 0.356577 -3.40904 -2.732473 3.018804 -1.846961 0.076493 -0.730328 0.057889 -0.135066 1.674924 3.216072 2.340491 -0.00524 2.90212 1.16405 -0.214713 1.380757 -0.909971 -1.716464 -0.885346 4.131253 2.825116 -3.400537 -5.724658 0.764415 0.891766 -0.432902 4.376389 -1.200554 -2.060588 -1.656366 -2.322166 -0.355677 -0.70429 -1.103448 -0.19905 -2.663574 1.615419 0.254391 -4.625237 2.106568 1.254188 -1.859173 -2.086154 1.939346 2.231345 1.502899 3.843165 -4.519986 -2.387187 2.203963 -1.111794 0.265672 -2.685719 0.329682 4.346046 4.310606 0.61094 0.093489 5.169261 -5.272078 3.9853 -3.413089 2.644805 -3.34002 1.460793 0.263713 0.313127 -1.242311 0.671547 0.26525 0.53314 1.477862 -0.023109 -0.209675 -4.858242 -1.778967 -1.84643 2.298726 2.800113 -1.74449 0.037032 -2.287446 1.046828
family -2.659067 -3.624392 -1.749682 -2.365822 1.5606 -0.669083 1.307111 1.597713 0.192446 0.897503 2.594593 1.432895 -0.553025 1.120919 -2.251092 1.256649 0.705789 -0.859527 -0.178793 3.683398 0.331558 1.182512 4.320354 -0.138831 1.967428 1.144688 -4.067871 -2.168578 0.612212 1.583113 2.959135 4.533746 -4.338114 -2.618663 0.349094 0.597174 3.503079 2.552634 1.194252 -4.279675 -6.695198 -2.070744 0.944791 2.920425 3.271616 0.728718 -2.371512 0.530814 -0.156716 0.320229 0.47671 -0.089207 -1.071258 -1.627803 0.399497 0.77535 3.3617 1.573691 -2.490376 1.732973 -0.52212 4.092959 2.430217 -3.189866 4.515446 1.088661 1.700416 -1.898527 -4.844367 0.776093 1.122954 2.271468 -0.660199 2.066633 0.952712 -0.260735 1.343407 2.341407 1.897392 0.086075 3.297407 -0.009525 0.545454 0.434419 -2.652635 -0.04179 -1.707271 2.576507 -0.717768 -1.541262 1.355038 -5.099404 -2.590575 -0.244148 -2.053557 -0.902327 -0.547099 3.705048 0.772953 0.357161
hypertension 1.228931 -1.82675 0.920138 -2.305978 -0.727912 -0.663301 -1.083412 -1.746036 -1.453273 1.263206 -0.167166 2.597217 -2.958144 1.748729 1.451212 -0.729936 -1.275427 -1.387441 -1.561881 0.068389 -2.316613 1.001505 2.386719 0.413659 0.837664 1.017843 0.011244 -0.118984 1.164168 0.338923 2.041517 -0.130004 -0.535287 -1.013471 0.926083 0.249284 0.957232 0.877881 -1.334838 -1.806329 -0.353411 1.385172 -0.230514 0.226971 -0.853535 -0.994783 -0.77165 -1.797079 -0.149515 0.461628 -2.12626 -2.067948 0.109588 2.482102 0.601198 0.269684 -0.932008 1.130845 -2.336346 -0.384299 -2.388691 1.851048 -1.563526 -0.225245 1.827768 -0.721078 2.914576 2.225872 0.001438 1.463525 -1.485874 0.974754 -0.551592 0.694699 4.372406 0.212027 -2.362778 0.07636 -1.387092 0.176055 0.661094 -2.47115 0.263736 0.018775 3.182112 -1.029336 1.07738 -1.342187 1.085347 1.132355 3.112774 -0.785054 1.828753 3.029644 -2.554511 0.772624 1.259167 1.962112 -0.401786 0.779262
president 2.485099 -5.433086 -2.896664 3.126729 -0.35412 1.574424 -3.014021 1.350984 -0.516208 -0.632947 0.743708 -1.078341 -4.489893 2.618201 -2.420839 0.33659 1.927511 0.834082 -4.174243 -0.743712 2.847262 -0.789676 -4.864307 0.877923 -2.88537 -4.24494 1.803146 3.033324 -0.075286 4.290432 -0.481191 -1.161495 0.094988 -0.58756 4.581509 3.621571 0.338106 1.26914 -3.813915 -0.297615 -4.226303 -0.665805 4.620831 -2.520072 -2.110723 -0.58019 -1.230601 1.156102 3.779202 -1.718765 4.903564 -3.823173 2.631918 -3.926689 -2.23414 -0.606678 5.389243 2.280394 3.37802 4.079486 -0.298349 -1.213244 1.400932 0.524435 2.412463 1.151415 -3.377097 2.505656 3.083466 -4.682184 1.647178 2.43921 2.269262 -2.009455 -3.125661 2.718893 2.493144 -0.523987 -3.415323 -0.116012 -0.750894 -2.135125 -1.370043 2.562485 1.230818 0.912778 4.076938 4.445079 -3.87255 -1.411265 2.484503 -2.408626 2.496852 -0.704448 0.239681 3.037585 -0.380792 -2.54761 0.320645 -1.592952
atmosphere 0.384805 1.520027 3.260415 -2.117963 1.52591 0.333985 0.831161 3.123004 -3.203809 -3.141605 0.109775 -2.5408 -0.433719 -0.765383 2.199583 5.115572 -3.405798 -1.982661 3.171377 -0.927501 -3.266032 1.912175 -1.76078 -1.939315 0.690497 4.456224 2.500701 -1.352858 2.102458 -0.858508 0.738266 0.666798 -2.42402 -1.572521 1.386406 1.88192 -2.196205 -0.203794 -1.748053 -1.677861 -1.154443 -5.878932 5.718824 -4.133602 -3.653665 1.416905 1.303892 3.661334 0.252401 -1.367832 0.38736 -2.147241 -2.274691 0.295694 3.195009 0.810519 2.169304 3.281389 0.259106 3.597715 0.4354 1.602365 0.012654 -0.461936 1.276761 0.043382 1.676081 1.271642 1.754086 -0.200032 0.96321 -0.276753 -0.255914 2.496869 2.667147 2.728254 1.65555 -0.757967 2.994655 0.020587 1.203511 -0.485021 -2.000082 -1.357503 1.042058 -2.496397 -1.148916 -1.688708 0.131649 0.729908 2.178671 0.682368 -2.422534 -1.715732 -2.410382 -3.727882 -0.697355 1.259083 2.091373 -0.961908
practice 1.802753 0.363738 -0.726549 -1.361966 1.634645 0.389008 -0.799587 0.095902 -1.187652 -2.906973 2.056959 0.157187 -1.562449 2.993366 0.687414 -1.099408 1.379576 -0.980981 1.122522 0.731478 -2.054945 0.779858 3.010542 -2.193915 -0.038362 1.715078 0.128531 1.236814 2.422684 1.516896 4.536463 -1.502899 0.763402 -3.228745 0.468188 1.330441 1.368331 2.485026 -2.561789 0.788703 0.343572 -3.040703 2.590978 1.061429 -0.680247 0.665183 0.452837 2.731318 -0.413337 -0.308111 -0.844631 0.472618 -0.071793 -0.591498 0.785199 -2.928448 1.222428 -0.265292 1.207662 -0.259017 -1.504401 5.002852 -0.693083 1.469651 3.270065 1.701843 1.292719 -2.095747 1.985327 -1.177332 1.26313 -0.071975 -0.658603 0.338674 2.475479 -0.1236 -0.258602 1.072491 0.387885 -2.551416 -0.806882 0.992059 -0.918365 -1.223825 4.269548 -0.515225 -1.618257 -2.157353 -1.264153 -1.70889 0.324635 1.396811 0.823644 1.108277 1.921068 0.627201 2.397002 1.115617 3.198392 2.679085
movie -2.956156 -0.659562 2.656965 -0.874122 -0.31332 -1.478763 1.000777 3.423783 -2.371451 1.293137 -0.028482 0.57759 2.327207 1.846505 -4.335151 0.281983 -2.764436 0.300546 3.973819 -5.366329 -5.062151 -0.10206 -1.881383 0.744245 0.45972 1.235907 1.594407 -0.382249 0.298113 1.93432 0.32437 2.926179 0.160117 1.329738 -3.740029 1.521633 3.033578 -0.21848 0.556481 -0.752792 1.602518 -3.011615 3.090791 -1.04565 1.55709 2.642731 -2.96509 0.656323 -0.4285 -0.121717 -0.131742 -0.649773 0.488403 -1.382554 -4.320777 1.997291 -1.520246 2.056324 1.48626 1.86119 -0.423662 1.761993 0.233564 0.084155 3.856545 1.208044 0.08499 -0.175099 3.31927 1.313028 3.100984 -0.756607 0.475443 2.410205 -0.36868 2.948777 5.963107 -0.024785 0.52645 -1.745674 6.798194 2.374854 1.617334 -0.039379 1.249703 -5.19761 -0.788223 1.241376 -1.223607 -4.095705 -1.665087 -0.603816 -1.987719 1.645315 2.131291 1.126583 -3.236829 1.169066 -3.182812 -0.42329
popcorn -1.831364 0.239162 0.227408 0.783436 1.360147 0.756171 3.268876 1.230603 0.678988 -0.475386 -0.240219 0.207873 1.090725 -2.008812 -0.263867 -0.532324 -2.246125 -0.546476 1.089442 -0.897434 -1.258324 2.181774 -0.294041 -0.950941 -0.873806 -0.310156 -0.888475 -1.464552 1.337863 -0.865263 1.586619 1.11269 0.561553 -0.769029 1.189054 1.335237 0.439739 -1.922003 0.978405 -2.56661 2.999631 -0.977343 -0.635967 -0.840447 0.952827 1.891339 -0.792458 -0.031543 -0.978737 -2.503535 -1.043762 0.15298 0.450137 -0.973694 -0.07043 -0.935173 -1.575173 2.937124 -0.392001 0.139851 -0.884944 1.86715 -2.010983 -1.759873 1.311452 -0.032666 -0.207643 1.148637 2.140367 1.290953 1.100202 -0.955021 -0.482485 -0.697858 2.601957 0.535477 3.113828 0.534412 -0.278014 -0.235996 1.29681 -0.953714 -0.578888 -1.844826 0.814077 -3.239676 -0.217683 -1.8618 -0.981762 -0.195062 1.698258 -2.562885 -0.29352 2.695936 -1.464533 -1.01866 -3.009302 1.689347 -1.755316 -0.72928
recommendation -0.015356 -0.562638 0.014818 1.813317 3.556554 -1.859034 1.107313 -3.657596 -2.085666 -0.615798 -3.183385 -1.999809 -2.296897 1.254609 -1.513907 0.616328 -0.185835 -1.221278 -2.198858 1.536795 -0.012282 0.776965 -0.61173 -0.508293 -1.585791 1.040957 0.56627 0.499977 3.041209 4.309666 0.685998 -0.384478 -1.405772 -0.275057 -0.915182 0.096353 4.497465 -0.604447 -1.651198 -0.407428 -3.788012 -0.572963 3.365368 -0.282416 1.829045 1.739238 -0.868989 2.438056 5.510004 -1.398805 -1.529836 2.568996 0.808992 -0.463832 -1.290458 -3.583138 -4.747901 -1.532334 4.394642 -1.050267 1.860003 0.715982 -0.40859 -0.5385 1.024056 2.409623 1.237226 0.49054 2.309396 0.080888 1.100702 4.132033 -0.53055 1.763489 0.907562 0.300311 1.127977 2.082067 0.574765 0.084804 -1.721447 -2.933896 0.194113 -2.613567 3.011816 2.225614 1.919286 -1.460298 -1.823945 -2.392885 1.472915 -0.705748 1.780139 -1.293488 2.901563 -1.627948 1.122072 1.013987 0.927941 2.286374
focus 2.388424 -2.599604 -1.908854 -7.327419 1.158053 1.708003 -0.870966 -0.248769 -2.765136 0.196389 -2.385033 1.508735 -5.871067 -4.424743 -0.952396 -0.140349 2.932621 0.088811 2.005014 -2.105218 1.089561 -4.239528 0.396928 -0.37254 0.429326 2.240812 3.722716 -2.67427 1.116721 -0.129583 5.361854 2.413184 1.988174 -0.537685 -0.102603 -2.525736 2.787432 -0.358821 1.037478 1.926889 -2.576936 -4.386233 6.237566 -1.857322 -1.46289 -0.335126 4.259928 -1.770622 0.49116 -0.347019 2.87125 1.728627 -2.274749 -1.411228 -0.816626 -0.755184 -1.648603 -1.534537 -1.516339 0.265684 -3.698828 -4.804054 -4.81423 1.243164 1.560925 -1.184397 3.257832 -1.341082 0.104604 -1.370332 2.509342 3.525837 2.763062 1.066371 -0.600197 1.298191 2.436761 -0.278019 -4.322371 -0.189414 -0.157179 -6.20923 -5.049773 0.780843 -1.089429 -1.970556 0.526127 0.099893 -1.053598 -0.179341 0.339748 0.097751 -0.132169 -4.077874 5.408697 0.400679 -1.821485 2.173555 3.435665 4.845711
