437 300
plane 0.248047 -0.233398 -0.152344 -0.150391 -0.035156 -0.392578 -0.255859 -0.322266 0.416016 -0.147461 0.318359 -0.431641 0.100098 -0.169922 -0.07373 0.484375 -0.041016 0.141602 0.081055 -0.083496 0.038574 0.032959 0.065918 -0.226562 0.130859 -0.158203 -0.207031 0.15918 0.225586 -0.151367 -0.308594 -0.165039 -0.300781 -0.245117 -0.126953 -0.166992 -0.204102 0.210938 -0.105469 0.310547 0.144531 0.029541 0.275391 -0.089844 0.114746 -0.318359 0.077637 -0.030518 0.349609 -0.005524 -0.109375 0.168945 0.408203 -0.148438 -0.152344 -0.226562 -0.013672 0.073242 0.203125 0.004486 0.375 -0.180664 -0.115723 0.207031 0.133789 0.010132 0.063477 0.052734 0.028931 0.074219 -0.223633 -0.251953 -0.199219 0.045654 -0.378906 0.11377 0.147461 -0.261719 0.029175 -0.017944 0.036865 0.178711 0.125977 -0.163086 -0.107422 -0.425781 -0.12207 -0.133789 0.367188 0.122559 0.027344 0.072754 -0.189453 -0.040039 0.217773 -0.255859 0.070312 -0.06543 0.030518 -0.392578 0.041992 -0.235352 0.109863 0.188477 0.308594 0.119141 0.246094 0.04126 0.400391 -0.035889 -0.351562 -0.013184 -0.112305 -0.0354 -0.210938 -0.028809 0.084473 0.384766 -0.116699 0.064941 -0.167969 -0.09375 0.225586 -0.15625 -0.114746 -0.002914 -0.259766 -0.251953 -0.049805 0.189453 0.172852 0.041504 -0.200195 0.002579 0.12207 -0.105469 0.064941 -0.294922 0.083008 0.211914 -0.194336 -0.19043 -0.066895 -0.034668 0.211914 -0.04126 -0.241211 -0.195312 0.040771 -0.34375 0.200195 0.005188 0.052246 0.083496 -0.137695 -0.248047 0.066895 -0.081543 -0.056641 0.092285 -0.078613 0.123535 0.208984 -0.115234 -0.053467 -0.023926 0.102539 -0.087891 0.118652 -0.213867 -0.09668 -0.080078 -0.072754 -0.089844 0.065918 -0.101074 -0.081543 -0.192383 -0.170898 -0.031494 -0.146484 -0.227539 -0.143555 -0.140625 0.306641 0.061035 -0.053467 0.211914 -0.316406 -0.05542 0.144531 0.439453 -0.07959 0.328125 -0.069824 0.279297 -0.151367 -0.296875 -0.031128 -0.233398 0.00296 0.030518 -0.333984 -0.206055 0.125 -0.018677 0.209961 0.243164 -0.05835 -0.063477 -0.054199 -0.022217 0.022461 0.021362 -0.355469 0.085938 0.025635 0.570312 -0.101074 0.019043 -0.291016 -0.073242 0.080566 0.229492 0.292969 -0.042725 -0.006561 0.263672 -0.298828 0.105469 0.144531 -0.073242 -0.251953 -0.283203 -0.047363 0.095703 -0.138672 0.095215 0.044434 -0.128906 0.125 0.059326 -0.285156 -0.318359 0.054932 -0.095215 -0.179688 -0.143555 0.027466 -0.032227 -0.051758 -0.05835 -0.12793 -0.094727 -0.012939 -0.07959 0.038818 0.171875 0.097168 -0.357422 0.025391 0.188477 -0.125 0.134766 0.11377 0.064941 -0.135742 -0.125 -0.335938 0.138672 -0.065918 -0.02832 0.18457 -0.001953 -0.071289 -0.034912 0.015869 -0.011414 -0.441406 -0.196289 -0.060059 -0.255859 -0.142578 -0.094727 0.298828 -0.071777 -0.194336 0.34375 -0.15918 -0.09375 -0.181641 -0.253906 0.15625 0.027344 0.251953 -0.090332 -0.273438 0.035889 0.083496 -0.289062
stupid 0.162109 -0.072754 0.158203 0.251953 -0.228516 0.025757 0.239258 0.080078 0.227539 0.155273 0.111816 -0.150391 -0.170898 -0.018066 -0.200195 0.054443 0.042969 0.09668 -0.0625 -0.105957 0.163086 -0.024902 0.188477 0.061279 0.182617 0.066406 0.02832 0.056396 0.207031 -0.060547 -0.027954 0.179688 0.094238 -0.092285 0.15918 -0.095703 0.178711 0.066406 -0.057617 0.140625 0.255859 -0.087891 0.488281 -0.28125 0.088379 -0.094238 -0.084961 -0.147461 -0.202148 0.021973 -0.394531 0.021973 0.125977 -0.070801 -0.102539 0.225586 0.019653 -0.25 0.053223 0.006409 0.089844 0.216797 -0.121582 -0.151367 -0.07666 0.003632 -0.068848 0.168945 -0.306641 -0.025391 0.10498 -0.029175 0.028687 0.035889 -0.376953 -0.064941 -0.049316 0.275391 0.206055 0.180664 -0.19043 0.095703 -0.217773 -0.010437 -0.043701 -0.197266 -0.132812 0.322266 0.087891 -0.044434 -0.116211 0.163086 -0.180664 -0.183594 -0.092285 -0.033936 0.138672 0.07666 0.170898 0.091797 -0.071777 0.131836 0.042969 -0.131836 0.137695 0.059814 -0.036133 -0.251953 0.224609 -0.234375 -0.148438 -0.24707 -0.104004 0.131836 0.273438 -0.243164 0.185547 -0.024414 0.07373 -0.058594 -0.21582 0.080566 -0.068359 0.071777 -0.056641 -0.318359 -0.192383 0.166016 0.216797 -0.208984 -0.433594 -0.267578 -0.032715 0.15625 -0.050781 0.001129 -0.083496 0.158203 -0.06543 4.77E-4 0.333984 -0.139648 0.231445 0.080078 -0.016113 0.045654 -0.144531 -0.078125 0.115723 -0.24707 0.163086 0.049805 -0.013855 -0.091309 -0.061279 0.053223 -0.033447 -0.089355 -0.073242 0.048584 -0.117676 0.210938 0.205078 -0.10498 0.04834 -0.202148 0.318359 -0.21875 0.121094 0.001953 -0.026489 -0.039062 0.026978 0.05249 -0.140625 0.10498 0.063477 -0.069824 0.009827 0.089355 0.214844 -0.192383 -0.150391 0.200195 0.06543 0.217773 -0.166992 0.139648 0.013428 0.056396 0.113281 0.136719 -0.004089 0.089844 -0.033936 0.137695 -0.079102 -0.132812 -0.200195 -0.043945 -0.180664 0.066895 0.071777 0.015625 -0.013367 -0.063965 -0.06543 0.022705 -0.419922 -0.047852 0.086914 0.123047 0.225586 -0.018799 -0.045654 0.118164 0.183594 -0.11377 -0.125 0.180664 -0.168945 0.065918 0.05542 -0.048584 0.239258 -0.080566 0.347656 -0.185547 -0.174805 0.069336 0.192383 0.074219 0.013733 0.0625 0.214844 -0.007568 0.092285 0.105469 0.253906 -0.060059 0.22168 0.188477 -0.049072 -0.010559 -0.195312 0.094238 -0.151367 0.072266 -0.134766 -0.139648 -0.034424 0.120117 0.077148 0.306641 0.080566 -0.186523 -0.06543 -0.040283 0.125 -0.433594 -7.2E-5 0.126953 0.12793 -0.054199 -0.074219 -0.05249 -0.074707 -0.120117 -0.088379 0.00647 -0.086914 0.146484 0.291016 0.167969 -0.080566 -0.117188 -0.006439 0.133789 -0.111328 0.285156 0.196289 0.01709 -0.009338 0.030151 -0.233398 0.006012 0.012146 -0.121094 0.02478 -0.210938 0.155273 0.339844 -0.196289 0.051758 -0.384766 -0.012329 0.07959 -0.111328 -0.120117 0.06543
egg -0.349609 0.076172 0.095215 0.068359 -0.054199 0.023682 0.211914 -0.104492 -0.068359 0.234375 -0.271484 -0.185547 -0.039062 -0.292969 -0.451172 0.134766 -0.206055 0.057617 -0.357422 0.072266 0.273438 -0.077148 0.152344 0.108887 -0.057129 -0.015625 0.02417 0.028198 0.097168 0.035889 -0.002289 -0.330078 0.251953 -0.075684 -0.05957 0.318359 0.131836 0.089355 0.298828 0.441406 0.269531 -0.223633 -0.074219 -9.35E-4 -0.01001 0.019287 -0.001617 0.078125 0.196289 -0.078125 -0.206055 0.063965 -0.060547 0.285156 -0.207031 -0.04541 0.189453 -0.255859 0.133789 0.046631 -0.237305 -0.115234 -0.300781 0.039307 -0.051025 -0.386719 -0.158203 -0.265625 0.255859 0.151367 0.255859 -0.054688 0.083496 -0.285156 -0.043213 -0.019165 -0.164062 -0.181641 0.137695 -0.269531 0.028931 -0.302734 0.11377 -0.015442 0.025879 -0.071289 0.080566 -0.002792 0.322266 -0.15625 -0.178711 -0.144531 -0.223633 -0.433594 -0.302734 -0.162109 0.121094 -0.168945 0.106934 -0.077637 0.198242 -0.167969 -0.116211 -0.092773 -0.118164 -0.287109 0.351562 0.129883 -0.087891 -0.106445 -0.294922 -0.188477 0.116699 0.121094 0.013916 0.103027 0.133789 -0.271484 -0.093262 0.072754 -0.053467 -0.036865 0.140625 -0.035156 -0.114258 -0.102051 0.133789 0.296875 0.151367 0.351562 -0.213867 0.030518 -0.324219 0.141602 -0.076172 0.048584 -0.046387 -0.12793 6.48E-4 -0.097168 -0.078125 -0.235352 -0.124023 0.217773 0.147461 0.033691 0.168945 -0.099121 -0.330078 0.220703 -0.083984 -0.116211 -0.251953 0.222656 0.217773 -0.230469 -0.248047 -0.069336 -0.045654 0.025879 -0.240234 -0.355469 0.3125 -0.083496 0.014648 -0.253906 -0.050781 0.013306 -0.15625 0.113281 -0.013977 -0.037598 -0.160156 0.236328 -0.083008 -0.165039 0.102539 0.072266 0.180664 0.408203 -0.125977 -0.275391 -0.121094 -0.126953 0.058105 0.100098 -0.21875 -0.043213 -0.238281 0.449219 -0.200195 0.046631 0.210938 -0.100098 -0.025513 0.248047 -0.316406 -0.07666 -0.227539 -0.090332 0.257812 -0.066406 -0.261719 -0.277344 -0.023315 -0.052734 0.035645 0.021729 0.363281 -0.188477 -0.408203 0.306641 -0.05542 -0.182617 0.081055 -0.171875 0.173828 -0.116699 0.523438 -0.003708 0.043701 -0.10498 0.28125 0.044922 0.257812 -0.202148 0.255859 0.183594 0.016846 0.052979 0.320312 -0.069336 0.00647 -0.079102 -0.145508 -0.494141 0.332031 -0.130859 0.014832 0.160156 -0.092773 0.131836 0.082031 -0.177734 -0.208984 -0.22168 -0.1875 0.203125 0.04248 -0.070801 -0.095703 -0.092285 0.306641 -0.04126 -0.087891 0.087891 0.067383 0.119629 -0.031982 -0.158203 -0.074219 0.108398 -0.330078 0.075195 -0.072266 0.24707 -0.121094 -0.031738 -0.208984 -0.120605 -0.144531 0.151367 0.138672 -0.205078 -0.11377 0.014221 -0.017578 0.062256 0.060303 -0.144531 -0.121582 0.046387 0.211914 -0.169922 -0.099121 -0.291016 -0.008118 0.177734 0.302734 0.439453 -0.150391 0.059814 -0.316406 0.023926 0.125977 -0.023438 0.046143 0.089355 -0.212891 0.118164
year 0.061768 0.257812 0.003677 0.145508 -0.037354 -0.120117 0.188477 -0.154297 0.213867 0.172852 0.054199 0.021851 0.005341 -0.102539 -0.005157 -0.003357 -0.046143 -0.083496 -0.167969 -0.027344 -0.009399 -0.004486 -0.12207 -0.219727 0.026489 -0.004395 0.097168 0.084473 0.081543 0.114746 0.060547 -0.151367 0.076172 -0.006531 0.101074 0.088867 -0.217773 -0.217773 -0.100586 0.091797 0.12793 -0.044189 0.074707 0.181641 -0.03125 -0.136719 0.181641 0.208008 -5.49E-4 -0.031494 -0.024292 -0.201172 -0.132812 -0.161133 2.82E-4 0.099121 0.031494 0.058838 -0.033936 -0.049805 -0.166016 0.07959 0.090332 -0.012024 0.100098 0.225586 0.179688 -0.015259 0.200195 0.026611 0.057129 -0.013794 -0.017212 0.204102 0.117188 0.047363 0.09668 0.101074 0.229492 0.089355 0.099609 -0.228516 -0.079102 0.199219 -0.055176 -0.062012 -0.138672 0.008118 0.018066 0.070801 0.21875 0.158203 -0.261719 -0.245117 -0.283203 -0.160156 0.014404 0.189453 0.077148 -0.059326 0.013672 -0.025024 -0.150391 0.026855 -0.182617 -0.255859 -0.104004 -0.044189 -0.140625 -0.039307 -0.034668 0.039795 0.104492 0.027222 0.081055 -0.043701 0.028076 -0.06543 0.049805 0.0354 -0.024902 -0.023804 -0.104492 -0.113281 0.193359 -0.020996 0.248047 -0.027832 0.060303 0.023926 -0.148438 -0.132812 -0.062256 -0.098633 -0.162109 0.004639 -0.049072 0.088867 -0.105957 0.102539 0.061768 -0.060547 -0.009949 0.118652 -0.013123 0.100586 0.056641 -0.05835 -0.122559 -0.164062 0.015869 0.032227 0.003433 0.060303 0.081543 -0.001472 -0.008057 -0.145508 0.047852 -0.065918 0.142578 0.197266 0.15625 -0.009705 0.109375 0.040039 0.071289 -0.200195 0.109375 -0.101074 -0.02356 -0.033691 -0.040039 -0.308594 -0.003296 0.011902 0.12793 0.106445 -0.019165 0.092773 -0.164062 -0.050781 9.04E-4 0.035889 0.100098 0.024414 0.047852 0.019897 0.193359 -0.200195 0.157227 -0.011719 0.016479 -0.002777 -0.137695 0.193359 0.128906 0.01416 -0.155273 0.010864 -0.119629 0.033936 0.018433 0.083496 0.033691 -0.146484 -0.047607 -0.019897 -0.00708 0.005859 0.140625 -0.011963 0.003906 0.019409 -0.192383 -0.047607 0.023682 -0.102539 -0.030029 0.097168 -0.086426 0.092285 0.186523 -0.008057 0.051514 -0.205078 0.042969 -0.07666 -0.001274 -0.12793 -0.023438 0.032227 -0.064941 0.195312 -0.229492 0.0625 -0.051025 -0.15918 -0.00708 0.074219 0.040039 0.082031 0.006287 -0.137695 -0.204102 -0.135742 0.073242 -0.036377 0.00351 0.07373 -0.010803 -0.087891 -0.013306 0.101562 0.067871 0.144531 0.101074 0.07373 -0.092773 -0.018188 0.145508 0.050537 -0.050049 -0.015747 0.202148 0.113281 -0.043213 0.141602 -0.011047 0.109375 0.228516 -0.129883 0.208008 0.016846 -0.002502 0.015442 -0.094238 -0.064453 -0.075684 -0.199219 -0.069824 0.018188 -0.151367 0.09082 0.15625 -0.157227 -0.111816 0.068359 0.141602 0.083496 -0.031738 0.056396 -0.15625 -0.146484 0.007874 -0.133789 -0.046631 0.111816 0.072754 -0.174805
psychiatry -0.233398 0.072266 -0.005341 0.259766 0.230469 0.318359 0.091797 -0.347656 0.089844 -0.217773 0.094727 -0.03418 0.182617 0.498047 -0.382812 0.322266 0.236328 0.337891 0.34375 -0.237305 0.251953 -0.062012 0.292969 0.002899 -0.043213 -0.113281 -0.11377 0.237305 -0.277344 -0.146484 -0.137695 0.068359 -0.322266 0.217773 -0.022095 -0.324219 0.291016 0.5625 -0.11377 -0.081543 0.230469 0.158203 -0.220703 -0.205078 -0.068848 0.109863 0.115234 -0.116699 -0.041504 0.269531 -0.052002 0.048096 -0.421875 -0.083008 0.04834 -0.063477 -0.213867 0.034668 -0.126953 -0.433594 -0.227539 0.291016 0.402344 -0.066406 0.133789 0.171875 -0.013489 0.527344 -0.363281 -0.292969 -0.165039 -0.042969 0.124512 0.02771 -0.146484 -0.257812 -0.188477 -0.02417 0.111816 0.036865 -0.041504 0.351562 -0.09668 -0.082031 0.205078 0.015625 0.316406 0.052002 -0.300781 -0.178711 0.034912 0.048828 -0.036133 0.089844 0.094727 0.140625 0.621094 0.10498 0.087402 0.137695 0.265625 -0.205078 -0.05835 -0.102051 0.570312 -0.041748 -0.037598 0.051025 0.138672 -0.027222 -0.24707 -0.253906 0.134766 -0.265625 0.255859 -0.125 -0.223633 0.032227 0.679688 -0.033936 -0.133789 0.078613 0.046387 0.177734 -0.092773 0.034668 -0.193359 -0.084961 -0.085449 0.108887 -0.009949 -0.435547 -0.006134 -0.166992 -0.198242 -0.06543 0.034912 0.014709 0.227539 0.185547 0.273438 -0.259766 -0.067871 0.063965 -0.106445 0.091797 0.191406 0.431641 -0.539062 4.01E-4 0.496094 0.088867 -0.196289 0.019775 0.162109 -0.228516 0.060791 -0.231445 0.3125 -0.447266 0.161133 -0.074219 0.134766 0.037109 0.15918 0.144531 0.057861 -0.261719 -0.111328 -0.298828 0.470703 0.020264 -0.177734 0.155273 0.001999 0.056396 0.044678 -0.06543 -0.021851 -0.154297 0.189453 0.330078 -0.263672 -0.161133 -0.104492 -0.107422 -0.05127 0.006683 -0.097168 -0.135742 0.292969 -0.008789 -0.265625 -0.064453 0.068848 0.019531 0.0354 -0.115234 -0.102539 0.181641 -0.181641 -0.136719 0.161133 -0.234375 -0.118652 -0.081543 0.625 0.024902 -0.118652 0.076172 -0.390625 -0.25 -0.0065 -0.072266 0.050049 -0.135742 -0.064941 -0.09375 -0.088867 -0.229492 -0.196289 0.064941 0.292969 -0.066895 0.257812 -0.359375 0.292969 -0.326172 -0.410156 0.112793 -0.168945 -0.035645 -0.310547 -0.064453 -0.300781 0.125 0.339844 0.035645 0.085449 -0.111328 0.114258 -0.445312 0.265625 -0.048096 -0.376953 0.129883 -0.148438 0.120117 -0.205078 0.030273 -0.304688 -0.455078 0.298828 0.188477 -0.097656 0.169922 -0.246094 -0.160156 -0.087891 -0.048096 -0.075195 -0.353516 -0.071289 0.009827 -0.151367 -0.345703 0.028564 -0.279297 -0.396484 0.163086 -0.07959 -0.059814 0.326172 0.0625 0.046387 -0.029297 -0.008972 0.012146 -0.094727 0.171875 0.133789 0.029907 -0.060547 0.019165 0.223633 -0.225586 0.248047 -0.21875 0.275391 -0.115234 -0.261719 -0.124023 -0.431641 0.369141 -0.074219 -0.243164 -0.108398 -0.040771 0.488281 0.240234
asylum -0.447266 0.180664 0.341797 0.018799 -0.03064 0.120117 -0.067871 -0.144531 -0.00885 0.045166 0.394531 -0.132812 0.154297 0.277344 0.146484 -0.285156 0.231445 0.382812 -0.164062 -0.212891 0.224609 0.28125 0.466797 0.003448 0.182617 -0.345703 0.027222 0.213867 -0.020386 -0.123047 0.138672 -0.089844 -0.07666 0.40625 -0.229492 -0.145508 -0.291016 -0.053711 -0.106934 0.119629 -0.056641 -0.233398 0.373047 0.214844 -0.150391 0.182617 -0.414062 0.239258 0.02478 0.126953 -0.043701 -0.035889 -0.096191 0.059326 -0.353516 -0.679688 -0.511719 0.197266 -0.449219 -0.116699 0.4375 8.51E-4 0.255859 -0.34375 0.055664 -0.149414 0.134766 -0.023804 0.017456 -0.072266 -0.141602 0.117188 0.345703 0.025879 -0.294922 -0.1875 0.367188 0.021973 0.229492 0.129883 -0.10791 0.141602 0.071777 0.058105 0.017944 0.0354 0.144531 -0.004883 -0.099609 -0.464844 0.400391 -0.210938 -0.480469 0.01532 0.511719 0.136719 0.208984 -0.234375 0.554688 -0.402344 0.21875 0.185547 -0.028076 -0.009827 0.025513 -0.209961 -0.051514 -0.220703 0.10791 -0.018433 0.064941 0.107422 0.339844 0.492188 -0.423828 -0.302734 0.150391 -0.055908 0.550781 0.263672 -0.3125 0.106445 0.025024 0.191406 -0.131836 -0.333984 -0.110352 0.071289 -0.224609 -0.219727 0.613281 -0.210938 -0.292969 -0.191406 -0.300781 -0.07373 -0.308594 -0.008728 0.373047 0.458984 -0.224609 0.201172 0.090332 0.339844 -0.057373 0.40625 -0.177734 0.117188 -0.503906 0.192383 0.34375 -0.279297 0.165039 0.057861 0.071777 -0.361328 -0.162109 0.161133 0.214844 -0.4375 -0.326172 0.013672 0.137695 -9.19E-4 -0.237305 0.01532 -0.170898 -0.251953 -0.142578 0.498047 0.310547 0.012085 -0.320312 -0.196289 -0.310547 0.308594 -0.011475 0.001381 0.00946 -0.189453 -0.523438 -0.384766 -0.125 -0.478516 0.519531 -0.069824 0.106445 -0.09375 0.051758 -0.277344 0.044434 0.099609 0.09668 -0.002869 0.439453 0.273438 -0.157227 -0.263672 -0.695312 0.039062 0.232422 0.004608 -0.016113 0.166016 0.106934 -0.249023 0.202148 0.087891 0.075195 0.230469 0.210938 0.316406 0.357422 -0.302734 -0.200195 -0.182617 -0.142578 0.210938 -0.049072 -0.108398 -0.457031 0.371094 -0.255859 0.105957 -0.071777 -0.291016 0.151367 0.527344 -0.373047 0.170898 0.114258 -0.094238 -0.120605 -0.183594 0.182617 -0.158203 0.349609 0.006989 -0.15625 -0.193359 0.133789 0.099121 -0.162109 0.055176 0.092285 0.114746 -0.134766 -0.349609 -0.154297 -0.302734 0.3125 -0.210938 -0.017334 0.839844 0.029175 0.167969 0.164062 0.088379 0.228516 -0.050537 0.064453 0.140625 -0.220703 0.227539 0.114258 -0.07373 -0.25 -0.081055 -0.326172 -0.265625 0.024048 0.363281 0.373047 -0.126953 -0.261719 0.135742 -0.355469 -0.263672 -0.007935 0.034912 -0.027222 -0.148438 -0.228516 0.166016 -0.076172 -0.15332 0.265625 0.141602 -0.164062 0.033691 -0.209961 0.158203 -0.089355 -0.207031 0.296875 0.679688 0.209961 0.021851 0.267578 0.287109
manslaughter 0.080078 -0.253906 0.443359 -0.253906 0.070312 -0.069824 0.480469 -0.373047 0.232422 0.005829 0.337891 0.019409 -0.077637 0.036377 -0.07666 -0.043945 0.146484 -0.076172 0.135742 -0.292969 0.158203 -0.365234 0.066895 0.098633 -0.01062 -0.273438 -0.004028 0.137695 0.181641 0.119629 0.332031 -0.010376 -0.200195 0.15625 0.060059 0.152344 0.455078 -0.19043 -0.082031 -0.069824 -0.201172 -0.089355 0.072754 0.007477 -0.047607 -0.208008 0.213867 0.208984 -0.039795 0.373047 0.034424 0.038818 -0.318359 -0.199219 -0.109375 -0.175781 -0.028076 0.34375 -0.628906 0.198242 -0.181641 0.071777 0.333984 7.51E-4 0.176758 0.07959 0.141602 -0.380859 -0.498047 -0.148438 -0.078613 -0.120605 -0.115723 0.067871 -0.597656 -0.155273 -0.128906 -0.251953 0.332031 -0.163086 0.253906 0.007324 -0.137695 -0.109375 -0.014282 -0.182617 -0.24707 0.392578 0.484375 0.088379 0.40625 -0.255859 -0.4375 -0.061279 0.120117 0.15918 0.558594 -0.1875 0.024536 -0.166016 0.143555 -0.337891 0.476562 -0.182617 0.188477 -0.145508 -0.19043 0.412109 0.137695 -0.345703 0.015015 0.152344 -0.146484 0.141602 -0.085938 -0.398438 0.089844 -0.201172 -0.365234 0.181641 -0.019409 0.160156 -0.5625 -0.027344 0.283203 -0.476562 0.100098 -0.355469 0.230469 -0.080078 -0.021729 0.020142 -0.22168 -0.025513 0.027588 0.291016 0.044678 0.001518 -0.134766 0.197266 -0.277344 0.445312 -0.140625 -0.001427 -0.263672 -0.206055 -0.640625 0.337891 -0.144531 -0.106445 0.478516 -0.25 0.380859 -0.017578 0.072754 -0.213867 -0.071289 -0.095215 -0.335938 -0.308594 0.162109 0.095703 0.341797 0.133789 0.267578 -0.240234 0.080078 0.102539 -0.172852 -0.136719 -0.083984 0.233398 0.070312 -0.214844 -0.168945 -0.044678 0.402344 0.181641 -0.19043 -0.129883 -0.226562 -0.025879 -0.443359 -0.423828 0.24707 0.248047 0.382812 -0.143555 0.116699 -0.103516 0.238281 0.099609 -0.273438 -0.125977 0.024048 0.219727 0.234375 -0.28125 -0.052734 0.027344 0.107422 -0.02417 0.00589 -0.216797 0.139648 0.164062 -0.006378 -0.150391 0.15918 -0.6875 0.065918 -0.12207 0.5 0.558594 0.002029 -0.289062 -0.086426 -0.464844 -0.168945 -0.441406 0.036865 -0.008667 0.157227 0.324219 0.103516 -0.474609 0.005524 0.020752 -0.111328 -0.094238 -0.486328 -0.375 -0.013611 0.07959 -0.014709 0.029785 0.052734 0.089844 0.318359 0.169922 -0.072754 0.193359 -0.118652 -0.582031 -0.367188 0.367188 -0.146484 0.009949 0.201172 -0.582031 0.125977 0.081543 -0.058594 0.12207 0.425781 0.457031 0.09375 -0.02063 -0.251953 0.069824 -0.115234 -0.125 -0.146484 0.194336 -0.087402 0.271484 0.228516 0.160156 -0.05249 -0.162109 -0.079102 -0.143555 -0.240234 0.074219 0.132812 0.21582 -0.347656 0.21875 0.034424 0.166016 0.02063 -0.142578 0.009033 -0.025635 -0.21875 0.032959 0.128906 0.080566 -0.137695 0.447266 0.126953 -0.320312 -0.040039 0.112305 -0.259766 0.048096 0.332031 -0.402344 0.222656 0.087891
music 0.038818 -0.216797 -0.053467 0.038818 -0.077148 0.018311 -0.089355 -0.234375 -0.06543 -0.137695 0.030151 -0.229492 0.093262 0.046631 0.015503 -0.044434 0.097656 0.143555 0.032959 -0.298828 -0.013 0.246094 -0.080078 -0.07959 -0.062012 0.130859 -0.058594 -0.095215 -0.006805 1.09E-4 -0.116211 0.131836 -0.165039 0.229492 0.111816 -0.251953 0.132812 -0.058838 0.1875 0.064941 -0.179688 -0.036377 -0.108887 -0.047363 0.01001 0.0271 0.017944 0.036621 0.00161 0.084961 0.029907 -0.023071 -0.033447 0.107422 0.257812 0.124023 -0.230469 0.010315 -0.148438 -0.10791 0.144531 0.00209 -0.129883 -0.084961 -0.011108 -0.152344 -0.163086 0.175781 0.063965 -0.031738 -0.016113 -0.094727 0.064941 0.111328 -0.306641 0.046631 0.03833 -0.0625 0.024536 -0.1875 -0.105469 -0.077637 0.279297 -0.005615 -0.173828 -2.3E-4 -0.236328 0.259766 -0.228516 0.166016 -0.229492 -0.132812 0.009888 -0.158203 -0.139648 -0.039551 0.261719 0.083984 -0.108398 -0.304688 -0.075684 0.302734 -0.001762 0.123047 -0.148438 0.235352 0.347656 -0.122559 0.004547 -0.328125 -0.189453 0.210938 0.041016 -0.157227 0.123047 0.253906 -0.057617 -0.062012 0.024536 0.015442 -0.001053 -0.047607 -0.087891 0.087402 0.00473 -0.081543 -0.15625 -0.15332 -0.220703 -0.227539 -0.049561 -0.055908 0.120117 0.060059 0.076172 0.318359 0.0354 0.008667 -0.023682 0.012878 0.15625 -0.11377 -0.25 0.216797 -0.067871 -0.094238 0.601562 0.182617 -0.298828 0.038818 0.155273 0.246094 -0.092773 0.194336 -0.183594 -0.100586 0.019043 -0.098145 -0.292969 -0.283203 -0.263672 0.150391 -0.194336 0.416016 0.079102 0.005005 0.085449 -0.146484 -0.086426 -0.205078 -0.005371 0.079102 0.206055 -0.125 -0.070312 -0.011719 0.099121 -0.152344 -0.143555 0.117188 -0.021973 -0.012451 -0.103027 -0.121582 0.172852 0.162109 -0.011658 -0.031738 0.231445 0.098633 0.103516 0.069824 -0.095215 -0.049072 0.005768 0.039062 0.002747 0.003555 -0.208984 0.024902 0.049805 -0.074707 0.029175 -0.195312 0.044678 -0.189453 0.152344 -0.027222 -0.208984 0.096191 -0.101074 0.219727 -0.063477 -0.022705 0.027344 -0.188477 -0.009949 -0.053711 -0.199219 -0.283203 -0.081055 0.067871 0.093262 -0.107422 0.046631 0.183594 -0.126953 -0.237305 0.084473 0.063965 -0.148438 -0.189453 -0.445312 0.157227 0.304688 -0.044434 0.074707 -0.212891 0.043945 0.15918 0.138672 -0.191406 -0.064941 -0.154297 -0.005157 -0.158203 0.162109 0.121094 0.102051 -0.069824 0.231445 0.195312 -0.176758 0.121582 0.137695 0.054199 0.085449 -0.078613 0.060547 -0.083984 -0.040283 0.001984 0.126953 -0.062012 -0.259766 0.269531 -0.137695 0.068359 -0.200195 -0.200195 0.010071 -0.162109 0.081055 0.168945 0.259766 -0.034424 -0.075195 -0.047607 -0.099609 -0.025269 -0.179688 0.079102 -0.043457 0.016357 -0.013 -0.038086 0.275391 0.033691 0.200195 0.441406 -0.151367 0.008789 -0.259766 -0.144531 0.121094 0.074219 0.233398 -0.09082 0.161133 0.12793
record 0.053955 0.158203 0.104004 -2.9E-4 0.053223 -0.086426 -0.198242 -0.074707 0.289062 0.111816 -0.186523 -0.095215 0.177734 -0.162109 -0.035645 0.036865 0.003494 -0.051514 -0.155273 -0.318359 -0.008972 0.189453 -0.067871 -0.094727 0.112305 -0.109375 -0.007874 0.232422 -0.238281 0.164062 0.162109 -0.073242 -0.141602 -0.229492 -0.168945 0.173828 -0.227539 -0.125 0.211914 0.263672 0.318359 0.11377 -0.128906 0.259766 0.191406 0.066895 0.103027 0.175781 -0.04126 0.04541 0.180664 -0.034912 0.193359 0.010071 0.053223 0.119141 -0.121094 -0.081055 0.133789 -0.174805 0.040771 0.053223 0.022827 -0.223633 -0.220703 0.15918 0.021118 0.071289 -0.033691 0.033447 0.102539 -0.062988 0.353516 0.224609 -0.238281 0.025879 -0.018921 0.084473 0.165039 -0.179688 -0.052979 -0.15625 -0.189453 -0.133789 0.248047 -0.116211 -0.18457 0.058594 -0.026733 0.147461 -0.036865 0.233398 -0.060303 -0.235352 -0.056396 -0.124512 0.1875 0.144531 -0.016968 -0.086914 -0.083984 0.045166 -0.147461 0.066895 0.125977 0.008301 0.155273 -0.0625 -0.042236 -0.068359 0.335938 0.128906 -0.180664 -0.020142 0.144531 0.223633 -0.11377 -0.071289 -0.257812 0.046143 -0.018311 0.129883 0.333984 0.219727 0.035645 0.001984 -0.015869 -0.10791 -0.002762 0.125 -0.158203 -0.053223 0.103027 -0.201172 0.034912 0.172852 -0.117676 -0.019043 -0.151367 0.022583 -0.069336 0.034668 0.143555 0.125 -0.135742 -0.111816 0.116699 -0.11084 -0.042725 0.285156 -0.030396 -0.018799 -0.175781 0.08252 -0.092285 0.053467 -0.061279 0.143555 0.067383 -0.178711 -0.363281 0.145508 0.175781 -0.037598 -0.119629 0.041748 -0.162109 -0.204102 0.027954 0.101074 0.046143 -0.158203 0.158203 -0.302734 -0.064453 -0.376953 0.005341 -0.232422 -0.118652 -0.091797 -0.112793 0.047607 0.07666 0.038574 -0.204102 -0.129883 -0.416016 -0.040039 -0.108398 0.172852 0.163086 -0.105957 0.064453 0.147461 -0.216797 0.050293 0.047363 0.204102 -0.227539 -0.124023 -0.031982 0.226562 0.080078 -0.041748 0.125977 -0.193359 -0.224609 -0.01416 -0.091797 0.039307 -0.291016 -0.008789 0.181641 -0.019409 -0.152344 0.053955 0.169922 0.01709 -0.094238 -0.098633 -0.050049 0.263672 -0.078125 -0.080078 0.05835 -0.135742 -0.07959 -0.12207 0.037109 0.01239 -0.146484 0.089844 -0.261719 0.02002 -0.3125 0.176758 0.125 -0.052246 0.15332 0.018066 0.057129 -0.056885 0.009766 -0.164062 -0.102539 0.188477 -0.013428 0.164062 -0.012817 -0.168945 -0.128906 -0.108887 -0.261719 0.042969 -0.074707 0.061279 0.25 0.062256 -0.012512 -0.029907 0.304688 0.134766 -0.050537 0.135742 0.167969 0.11084 -0.112305 0.084473 0.040771 -0.150391 0.111816 0.075684 0.182617 0.208984 -0.206055 -0.017578 -0.081055 -0.28125 0.142578 -0.271484 0.123535 0.079102 -0.092285 0.05249 -0.198242 -0.19043 -0.063965 0.182617 0.155273 0.015869 0.081543 0.141602 -0.209961 0.119141 -0.03418 -0.086914 0.028076 -0.077637 -0.136719 -0.091309
energy -0.103516 0.161133 0.117188 -0.253906 0.008911 0.00824 0.103027 -0.400391 0.094238 0.03064 0.039062 0.07959 -0.039551 -0.064941 -0.130859 0.009766 -0.085449 0.141602 0.172852 0.079102 0.033447 -0.089355 -0.012634 0.304688 -0.120605 0.289062 -0.128906 -0.005615 0.014526 -0.111816 -0.083984 -0.029541 -0.094727 0.101074 0.058594 -0.062256 0.058105 0.052246 0.071777 0.375 -0.060303 -0.146484 0.214844 0.058105 -0.128906 -0.007935 -0.143555 -0.095215 -0.164062 0.176758 0.098145 0.15625 -0.019531 0.166016 0.068359 -0.084473 -0.080566 -0.261719 0.101074 -0.130859 -0.041748 -0.157227 -0.194336 0.125 -0.004333 -0.07373 -0.137695 0.165039 -0.199219 0.051025 -0.067383 -0.245117 0.177734 -0.211914 -0.102539 -0.194336 0.220703 0.474609 -0.203125 -0.154297 0.203125 0.06543 -0.141602 0.022217 0.197266 0.072266 -0.037354 0.202148 -0.067871 -0.042725 0.00161 0.057129 -0.044189 -0.055664 -0.227539 -0.198242 -0.118164 0.152344 -0.018677 -0.173828 0.078613 -0.217773 0.131836 -0.010986 0.084473 -0.105469 -0.235352 -0.06543 -0.091309 -0.062988 -0.152344 0.092773 -0.093262 0.279297 -0.018921 0.302734 0.1875 -0.068848 0.106445 -0.161133 -0.306641 -0.228516 -0.080078 -0.162109 -0.265625 -0.179688 0.067383 -0.135742 -0.208008 -0.026001 -0.119141 -0.119141 -0.022461 0.09668 0.054932 0.267578 0.068359 -0.102051 -0.164062 0.102051 0.058105 -0.198242 -0.283203 0.109375 0.036621 0.088867 0.147461 0.196289 -0.03418 -0.036621 -0.013184 -0.087402 0.071777 0.097656 0.15918 0.071777 0.386719 -0.144531 -0.016968 -0.398438 -0.158203 0.275391 0.027344 0.318359 0.125 0.25 -0.273438 0.203125 0.206055 -0.021484 -0.240234 0.097656 0.07373 0.075195 -0.12793 -0.245117 0.158203 -0.122559 -0.182617 -0.158203 -0.265625 -0.15918 -0.197266 0.116211 0.105469 0.053955 -0.206055 0.103027 0.11377 0.002655 -0.265625 0.055908 0.063477 -0.0354 -0.114746 0.121094 -0.15332 -0.100098 -0.045898 -0.224609 -0.048828 0.150391 0.0625 -0.070801 -0.044434 -0.06543 0.07959 -0.226562 -0.040771 0.02124 -0.447266 -0.072266 0.087402 -0.054199 0.010376 0.036621 -0.015869 0.105469 -0.332031 -0.030273 0.094238 -0.173828 -0.044434 -0.023315 -0.170898 0.086914 0.063477 0.010925 0.22168 0.158203 -0.12793 0.310547 -0.023926 -0.045654 -0.121094 0.06543 -0.118652 -0.060303 0.141602 -0.072754 -0.032959 0.423828 0.092285 0.035645 0.298828 -0.016113 0.210938 -0.119629 -0.132812 0.036377 -0.178711 -0.016235 0.131836 0.177734 0.036865 0.029053 0.289062 -0.026489 -0.111328 0.020996 -0.025513 -0.070312 -0.172852 -0.178711 -0.010437 0.15918 -0.140625 -0.108398 -0.005707 0.02002 -0.149414 -0.086426 0.143555 -0.080566 -0.148438 -0.080078 -0.414062 -0.18457 -0.009705 -0.046875 -0.093262 0.032227 0.040527 -0.015747 -0.147461 0.022095 0.039551 0.001572 0.121094 0.133789 -0.237305 -0.132812 -0.015198 -0.093262 -0.079102 -0.06543 0.186523 0.045898 0.15332 0.240234
announcement -0.074707 -0.154297 -0.198242 -0.120605 0.035156 -0.259766 -0.05835 -0.304688 0.382812 0.22168 -0.179688 -0.049072 -0.03833 -0.269531 -0.195312 0.150391 -0.049316 0.030884 0.151367 -0.023193 0.096191 0.279297 -0.015625 -0.033203 0.067871 0.241211 0.103027 -0.103027 -0.242188 0.098633 -0.013062 -0.09375 -0.001801 -0.144531 0.031006 0.011353 -0.003235 0.202148 0.026001 0.00528 0.126953 -0.047852 0.033203 0.044189 -0.178711 -0.139648 -0.224609 -9.69E-4 -0.251953 -0.002045 0.394531 0.025879 0.081543 0.300781 0.212891 0.049316 -0.162109 -0.103027 0.192383 0.041748 -0.231445 0.214844 -0.124512 0.067383 -0.199219 -0.253906 -0.283203 0.004517 -0.036865 0.119141 -0.210938 -0.120117 -0.21582 0.238281 0.188477 0.132812 0.121582 0.12793 -0.016357 0.150391 0.382812 -0.209961 -0.128906 0.047119 0.083984 -0.296875 -0.080566 -0.086914 0.092773 0.160156 0.239258 0.018555 0.054199 0.108398 -0.181641 -0.037842 -0.019653 -0.023926 0.040283 -0.118652 -0.056152 0.036133 0.112305 0.010681 -0.119141 0.033203 -0.014282 -0.155273 -0.05957 -0.126953 0.068848 0.053223 0.126953 -0.017334 -0.03125 -0.161133 -0.019287 0.054443 0.351562 -0.061035 0.091797 0.125977 -0.211914 0.04541 -0.044189 0.017334 0.121582 -0.145508 0.226562 0.257812 -0.125 0.054443 0.087891 0.134766 -0.036865 -0.038818 0.063477 0.068848 -0.210938 0.11084 -0.070312 0.028564 -0.269531 -0.239258 0.013367 0.157227 0.202148 -0.068848 0.064453 0.006958 -0.062988 0.170898 -0.103516 -0.130859 0.047852 -0.125 -0.121582 -0.043701 -0.283203 -0.092773 -0.018433 0.202148 0.193359 0.026855 -0.120605 -0.201172 0.143555 -0.015442 0.283203 -0.066895 0.176758 -0.210938 0.143555 -0.15625 0.118164 -0.142578 0.214844 0.108398 0.367188 -0.191406 -0.117676 -0.121094 0.126953 -0.228516 0.378906 0.138672 -0.125 0.148438 0.182617 0.192383 -0.031494 -0.185547 -0.018799 -0.219727 -0.09082 -0.117676 -0.109863 0.255859 0.134766 0.037109 0.135742 0.006073 0.018555 0.06543 0.002029 0.188477 0.267578 0.259766 0.15332 0.117676 -0.139648 0.009033 0.045654 0.259766 -0.121582 0.228516 0.019531 -0.005493 -0.09082 0.136719 0.045166 0.003357 -0.033691 0.271484 0.128906 -0.186523 -0.063965 0.249023 0.185547 0.080078 0.229492 0.470703 0.064453 -0.115723 0.394531 -0.006256 0.032227 -0.016724 0.192383 -0.075195 -0.261719 -0.166992 -0.182617 -0.304688 -0.180664 0.051025 0.077148 0.324219 0.236328 0.020142 -0.198242 0.139648 -0.233398 -0.166016 0.070801 0.032715 0.138672 0.106934 -0.122559 -0.043701 0.216797 3.47E-4 -0.161133 0.115234 -0.11084 0.178711 0.223633 -0.235352 -0.160156 0.034424 0.087402 -0.042969 0.316406 -0.46875 0.164062 -0.145508 0.310547 -0.057617 0.103516 0.170898 -0.069824 0.024658 -0.114746 0.147461 0.170898 0.069824 0.040283 0.046631 -0.019897 -0.04834 -0.015991 -0.115723 -0.134766 -0.172852 0.179688 -0.083984 -0.028564 0.160156 -0.291016 -0.168945
mile -0.294922 0.136719 0.161133 0.257812 0.119629 -0.058594 -0.143555 0.026001 0.06543 0.141602 0.285156 0.044678 0.034424 -0.026367 0.263672 0.087891 -0.010986 -0.129883 -0.061523 -0.003906 -0.351562 0.052002 -0.275391 0.166016 0.05957 -0.052002 -0.267578 -0.064453 0.008728 -0.11084 -0.014587 -0.182617 -0.113281 -0.227539 -0.116211 0.123535 0.007202 -0.097656 -0.353516 0.233398 -0.219727 0.0271 0.217773 -0.030884 -0.427734 -0.028076 0.031128 0.335938 0.173828 -0.146484 0.220703 0.04248 0.008667 0.271484 0.070312 0.236328 -0.047363 0.030762 -0.151367 -0.003708 0.051514 -0.222656 0.150391 -0.316406 0.102051 -0.227539 -0.074219 0.142578 -0.133789 0.162109 -0.21875 0.128906 -0.146484 -0.330078 -0.101074 -0.291016 0.078613 -0.283203 0.224609 -0.041504 0.202148 -0.165039 -0.057861 0.169922 -0.063965 0.21582 -0.004059 0.129883 0.165039 0.048584 -0.129883 0.078613 -0.112793 -0.018311 -0.257812 -0.345703 0.020142 -0.142578 0.304688 0.147461 0.056885 -0.029541 0.125 0.101562 0.108887 0.139648 0.085938 -0.124023 0.05127 -0.219727 0.078125 -0.192383 0.0625 0.040283 -0.0625 -0.030884 0.142578 -0.080566 0.077148 0.053467 -0.188477 -0.007874 -0.173828 0.118164 0.142578 -0.165039 0.042236 -0.029297 0.040771 0.445312 -0.445312 -0.043945 0.263672 0.168945 -0.228516 -0.07373 0.04126 -0.136719 0.068359 0.289062 -0.048828 0.024536 -0.025635 -0.113281 -0.052002 -0.050293 -0.149414 -0.237305 -0.320312 -0.233398 -0.251953 0.050293 0.172852 0.111816 -0.04541 -0.011353 -0.051514 -0.006042 -0.212891 0.011536 0.148438 0.265625 0.25 -0.259766 0.116211 0.209961 0.332031 -0.271484 0.061035 -0.106445 -0.11084 -0.07959 0.275391 -0.024292 -0.18457 0.008179 -0.404297 0.166992 -0.361328 -0.010986 -0.116699 -0.239258 -0.227539 -0.131836 -0.22168 -0.063965 0.308594 0.101074 0.212891 -0.013794 0.140625 -0.030518 0.128906 0.011658 -0.125977 0.111328 -0.007233 0.223633 -0.07959 -0.034424 0.209961 -0.192383 -0.186523 0.155273 0.257812 0.020996 -0.322266 -0.027832 0.122559 0.175781 -0.195312 0.040039 -0.09082 0.043701 0.032227 0.271484 -0.157227 -0.049316 0.115723 0.007874 -0.128906 0.089844 0.474609 -0.133789 -0.09375 -0.006409 0.238281 0.00116 0.231445 -7.71E-4 0.3125 -0.243164 0.111816 -0.191406 -0.069336 0.05127 0.022827 -0.157227 0.300781 0.040771 -0.00885 -0.109863 0.249023 -0.176758 0.199219 -0.168945 0.048584 0.199219 0.012817 -0.193359 0.194336 0.0625 0.024902 0.300781 0.174805 -0.228516 0.223633 -0.139648 0.029297 0.097656 -0.03125 0.014771 -0.012207 0.158203 0.108887 0.100098 0.069824 -0.271484 -0.308594 0.263672 -0.217773 -0.392578 -0.010742 -0.030518 -0.070312 -0.314453 -0.022583 -0.341797 0.076172 -0.353516 0.12793 0.010498 -0.049561 0.131836 0.235352 -0.3125 -0.191406 0.185547 0.028809 0.040771 -0.002014 -0.074707 -0.339844 0.21582 0.105957 -0.275391 -0.003494 0.007568 0.15625 -0.193359
airport 0.062012 -0.030396 0.080078 0.054688 0.020264 -0.332031 -0.304688 -0.018921 0.144531 -0.111816 0.304688 -0.055664 0.149414 -0.261719 -0.142578 -0.024048 0.155273 0.158203 0.108887 -0.075684 -0.028564 -0.126953 0.165039 -0.025269 0.124023 -0.167969 -0.028442 0.063965 0.194336 -0.095215 0.037109 -0.355469 -0.318359 0.070312 -0.050049 -0.18457 -0.178711 0.196289 -0.071777 0.099121 -0.054932 0.049561 0.196289 0.073242 -0.261719 -0.404297 0.047363 0.028198 0.239258 0.185547 -0.092773 0.056641 -0.009766 -0.00235 -0.158203 -0.255859 -0.176758 0.197266 0.036377 0.007996 -0.164062 -0.144531 -0.088867 -0.115723 0.145508 0.079102 -0.238281 0.037598 0.088867 -0.07373 -0.176758 0.028076 0.063477 -0.033691 -0.503906 -0.107422 0.02063 0.132812 0.11377 -0.135742 -0.088379 0.104492 -0.011597 0.108398 -0.101074 -0.05542 0.089355 0.145508 0.108887 0.047852 0.02124 -0.02124 -0.310547 0.121094 0.088867 -0.146484 0.161133 -0.182617 0.063477 -0.209961 -0.01062 0.095703 0.182617 0.265625 0.421875 0.087891 0.166016 9.0E-4 0.150391 -0.225586 -0.213867 -0.026855 0.094727 -0.09668 -0.390625 0.060547 0.059814 0.021606 -0.003906 0.044922 -0.133789 -0.069336 -0.211914 -0.227539 -0.049316 -0.003891 -0.125 -0.133789 0.386719 -0.00119 0.033447 -0.186523 0.031494 -0.030396 0.091797 -0.361328 -0.042236 -0.029297 0.080078 0.146484 -0.219727 -0.165039 0.018555 0.048828 0.136719 -0.043213 -0.25 -0.119141 0.010132 -0.21875 0.10791 0.202148 0.231445 -0.070801 -0.161133 -0.161133 0.289062 -0.191406 0.12793 0.080566 -0.296875 0.101074 0.130859 0.077148 -0.320312 0.220703 0.015259 -0.318359 0.212891 -0.143555 0.116699 0.063965 0.161133 -0.025391 -0.083496 0.099609 -0.004761 -0.4375 -0.04834 0.014709 0.05127 0.05542 -0.078613 -0.169922 0.125977 -0.059326 0.036377 0.097656 0.005768 0.02124 0.09082 0.380859 0.034912 -0.008362 -0.164062 0.341797 -0.105957 -0.066895 -0.230469 -0.205078 -0.088867 0.200195 -0.007172 -0.239258 0.232422 0.180664 0.285156 0.248047 0.15918 -0.027832 0.138672 0.046631 0.022339 0.059326 -0.320312 0.232422 -0.016968 0.482422 -0.222656 0.355469 -0.061768 0.028809 -0.079102 0.105469 0.193359 0.064941 -0.412109 0.212891 -0.105469 0.10791 0.414062 0.150391 -0.585938 -0.022949 0.118652 -0.036865 0.294922 -0.080566 0.320312 -0.138672 -0.087402 0.088379 -0.106445 -0.157227 0.015503 -0.166992 0.034912 -0.265625 -0.091797 0.203125 0.022583 -0.026733 0.001526 0.15625 -0.078613 -0.19043 0.225586 0.351562 -0.167969 -0.079102 0.018799 0.170898 -0.08252 0.144531 0.242188 0.077148 -0.024292 -0.318359 -0.396484 0.135742 0.137695 -0.075684 -0.086426 -0.167969 0.0625 -0.162109 0.208008 0.050781 -0.086426 -0.222656 -0.033447 0.179688 0.046875 -0.076172 0.041016 0.109863 -0.357422 0.023682 -0.15918 0.240234 -0.014587 -0.04126 0.224609 0.04834 0.086914 0.084473 -0.476562 0.104492 0.066895 -0.145508
population 0.063477 0.003845 0.070312 -0.039795 -0.050781 -0.248047 -0.175781 -0.11084 0.223633 -0.101562 -0.228516 0.018555 -0.021729 0.032227 -0.337891 -0.022583 -0.22168 0.181641 -0.170898 -0.086426 -0.15625 -0.210938 0.287109 -0.070312 -0.328125 -0.460938 -0.457031 0.330078 0.065918 -0.006012 0.155273 -0.361328 -0.294922 0.023315 -0.122559 -0.007294 0.063965 0.068359 0.004059 0.431641 0.10498 0.020874 0.016479 0.051025 0.185547 -0.157227 0.166016 0.029297 -0.259766 -0.101074 0.177734 -0.271484 -0.15332 -0.326172 -0.069336 -0.255859 -0.198242 0.205078 -0.028076 0.104492 0.103027 -0.129883 -0.158203 -0.341797 0.241211 -0.155273 -0.04126 0.216797 -0.199219 -0.029053 -0.302734 -0.096191 0.092285 0.02417 -0.003799 -0.182617 -0.271484 -0.15918 0.148438 0.191406 -0.018066 -0.061768 0.095215 0.21875 -0.341797 -0.065918 -0.427734 0.088867 0.195312 -0.209961 0.115723 -0.196289 -0.074219 -0.167969 -0.114746 0.138672 0.166016 -0.425781 0.267578 -0.087402 0.084473 0.036621 -0.269531 0.158203 -0.072266 -0.394531 -0.063477 -0.012573 -0.074707 -0.194336 -0.124512 -0.449219 -0.166992 0.029175 -0.341797 0.152344 0.071289 -0.209961 0.134766 -0.207031 -0.179688 0.388672 -0.380859 -0.074707 -0.003616 0.376953 -0.194336 -0.211914 -0.253906 0.110352 0.132812 -0.150391 -0.07373 -0.025757 -0.137695 0.191406 -0.056885 0.091797 -0.064453 0.067871 -0.011963 -0.010498 -0.03833 0.402344 0.073242 -0.048828 0.224609 0.353516 -0.025513 -0.104004 0.139648 -0.044678 -0.192383 0.025024 0.193359 -0.207031 -0.046143 -0.142578 -0.086426 -0.189453 -0.120117 0.118652 0.149414 -0.285156 0.07666 0.166992 0.185547 0.125977 0.217773 0.142578 -0.045166 0.041504 -0.117188 0.251953 0.222656 0.198242 0.126953 0.110352 -0.030762 0.07959 -0.07666 -0.341797 -0.179688 -0.367188 -0.086426 0.00116 0.120117 0.11377 0.120605 0.341797 0.109863 -0.186523 0.014099 -0.00589 -0.181641 0.136719 0.07959 0.195312 -0.128906 -0.199219 -0.106934 0.056396 0.224609 -0.283203 0.081543 -0.195312 0.076172 -0.0625 0.088867 0.121582 -0.116211 0.107422 -0.224609 -0.164062 -0.078125 0.149414 -0.283203 -0.038818 0.029663 0.216797 -0.050293 0.177734 0.152344 1.97E-4 0.097168 -0.228516 0.363281 0.011353 -0.198242 0.314453 0.025146 -0.248047 0.248047 -0.1875 0.114258 -0.152344 -0.155273 -0.009155 0.136719 -0.098145 0.246094 0.08252 0.263672 -0.164062 0.181641 0.054932 0.28125 0.083496 -0.166992 0.273438 -0.150391 -0.228516 -0.098633 0.279297 0.113281 -0.199219 -0.029663 -0.330078 -0.289062 0.030396 -0.206055 -0.3125 0.099121 0.198242 -0.170898 0.192383 -0.086426 0.03418 -0.244141 -0.056885 -0.226562 -0.185547 0.007355 -0.177734 -0.019897 -0.441406 0.054932 -0.057861 -0.132812 -0.214844 0.04126 0.040527 0.236328 0.029663 -0.240234 -0.014099 -0.113281 -0.147461 0.181641 -0.026367 0.118164 -0.0625 -0.032471 -0.034424 0.223633 -0.020264 -0.12793 -0.248047 0.220703 -0.207031
planning 0.120605 0.168945 -0.014526 -0.111816 -0.062256 0.019531 -0.010986 -0.077637 0.059082 -0.120605 0.040039 0.060547 -0.25 -0.115234 -0.041748 0.004822 -0.012756 -0.164062 -0.105957 -0.140625 -0.202148 0.055908 0.057129 -0.023438 0.257812 0.129883 0.124023 0.056396 -0.192383 -0.029785 0.132812 0.238281 -0.105469 -0.081543 -0.216797 0.014893 0.231445 -0.149414 0.213867 -0.229492 0.09375 -0.020508 -0.003372 -0.082031 -0.111328 -0.225586 -0.084961 -0.040771 -0.074219 0.244141 -0.119629 0.017822 0.103027 0.408203 -0.124512 0.054443 -0.12793 -0.126953 0.231445 0.07373 -0.166016 -0.016479 0.096191 -0.125 -0.019409 0.136719 0.053711 0.128906 0.037354 -0.038574 -0.148438 -0.069336 0.169922 0.058105 0.039307 -0.032227 -0.061035 -0.038818 -0.151367 0.196289 0.137695 -0.059326 -0.013489 0.220703 0.031738 -0.211914 -0.070801 0.085938 0.292969 -0.006622 0.322266 -0.257812 -0.125 -0.167969 -0.016968 -0.219727 -0.089355 -0.357422 -0.039551 0.339844 -0.092773 -0.006104 0.195312 0.165039 0.071289 0.010071 -0.120605 -0.116211 -0.010132 -0.107422 -0.098633 0.009766 0.016235 -0.072266 -0.046875 -0.002335 0.100098 0.031494 0.304688 -0.058838 -0.046143 -0.160156 0.032959 0.173828 0.074707 0.046143 -0.036621 -0.208984 -0.125 0.054443 0.004791 -0.032715 -0.133789 0.037109 0.147461 1.03E-4 0.080078 0.192383 0.04541 0.265625 -0.078125 -0.088867 -0.037109 -0.119141 -0.006592 -0.098145 -0.143555 -0.063477 -0.051025 0.09375 0.047607 0.05249 0.091309 0.028564 -0.009949 -0.105957 0.072754 0.058105 0.029907 -0.053955 -0.131836 -0.101562 0.060059 0.25 0.136719 0.077637 0.357422 -0.0625 0.15625 -0.359375 0.013916 -0.162109 -0.043945 -0.078125 0.251953 0.025635 0.166992 -0.093262 -0.067871 0.265625 -0.124023 -0.016357 -0.120117 -0.043457 0.139648 -0.269531 0.031738 0.050537 0.198242 -0.059814 -0.176758 0.061279 -0.036865 0.044678 -0.251953 -0.069336 0.12793 -0.069336 0.151367 -0.146484 0.009094 0.09375 -0.015259 0.029053 0.111816 0.043945 0.105957 -0.112793 0.147461 0.099609 0.146484 0.05127 0.092285 -0.014893 0.029785 -0.088379 0.040039 0.148438 0.087891 0.202148 0.027954 -0.098145 0.046143 0.011902 0.07959 -0.179688 0.09082 -0.041504 -0.077148 0.02832 0.009216 -0.053955 -0.075684 0.06543 0.021606 -0.003723 0.251953 -0.149414 0.176758 -0.173828 -0.015137 -0.00135 -0.099609 -0.120605 0.004883 -0.108887 -0.013672 -0.064941 -0.005402 -0.243164 -0.15625 0.292969 0.103027 0.175781 0.158203 0.046875 -0.017334 0.089844 -0.210938 0.061279 -0.052246 -0.147461 -0.05957 -0.200195 -0.020874 0.071777 -0.145508 0.112305 -0.267578 0.080078 -0.017456 0.259766 0.298828 0.07373 0.076172 -0.273438 0.194336 0.296875 -0.041748 -0.08252 -0.123047 -0.151367 -0.002289 0.02771 0.046143 0.154297 -0.009705 0.071777 0.357422 -0.01709 -0.236328 -0.014832 -0.023071 0.002045 -0.072266 -0.183594 0.013733 -0.1875 0.112793 0.165039
canyon -0.0354 -0.154297 -0.036133 0.195312 -0.006195 -0.109375 -0.028076 -0.089355 0.168945 -0.038818 0.110352 -0.048096 -0.071289 -0.101562 0.220703 -0.423828 -0.261719 0.028564 -0.008545 0.014587 -0.128906 -0.057617 -0.527344 -0.132812 -0.068848 -0.261719 -0.519531 -0.279297 0.096191 -0.277344 -0.068848 0.108398 0.230469 -0.068359 -0.019043 -0.185547 0.273438 -0.227539 -0.018188 -0.157227 -0.180664 -0.189453 0.318359 -0.138672 -0.263672 -0.15625 -0.138672 -0.028809 0.404297 -0.113281 0.040527 -0.097168 0.117188 -0.183594 0.061035 -0.053467 0.163086 0.057617 0.124023 -0.028687 -0.142578 -0.0354 0.191406 -0.015076 0.075684 -0.090332 0.255859 -0.224609 -0.119629 -0.053223 -0.478516 -0.223633 -0.210938 -0.18457 -0.062988 -0.172852 0.087891 -0.010681 0.158203 -0.136719 0.380859 0.060303 -0.138672 -0.349609 -0.166992 0.449219 -0.121094 -0.094727 0.149414 0.101074 -0.166992 0.154297 -6.6E-4 0.318359 0.168945 -0.209961 -0.103516 -0.330078 0.067383 -0.07959 -0.213867 -0.054688 0.071777 -0.341797 0.335938 -0.139648 0.026611 0.123535 0.121582 -0.099121 -0.122559 -0.053955 0.179688 -0.21875 0.402344 0.021118 0.216797 -0.054199 -0.139648 0.143555 -0.275391 0.176758 -0.086914 0.419922 0.535156 -0.220703 -0.154297 0.18457 0.223633 -0.02771 -0.21582 -0.109863 0.00885 0.162109 0.18457 -0.139648 -0.371094 -0.053467 0.179688 0.503906 -0.141602 -0.114258 0.09668 -0.146484 0.207031 0.033447 0.087402 -0.063477 -0.322266 -0.014771 0.498047 0.003754 -0.138672 0.267578 -0.3125 0.074219 0.092285 -0.233398 -0.345703 0.175781 -0.017822 0.016113 -0.070312 -0.11377 -0.213867 -0.036865 0.378906 0.006348 -0.261719 0.164062 -0.318359 -0.065918 -0.15918 0.267578 0.008362 0.005615 -0.176758 -0.044434 -0.088379 -0.001526 -0.625 -0.24707 0.179688 -0.146484 0.05957 -0.339844 -0.092773 -0.058105 0.150391 0.160156 0.129883 -0.125 0.047119 0.076172 -0.285156 0.134766 -0.056885 -0.026978 -0.025879 -0.01709 0.269531 -0.318359 -0.369141 -0.202148 0.098633 0.144531 0.025024 -0.304688 -0.359375 0.089355 -0.123535 0.120117 -0.067383 -0.006897 -0.085938 -0.01001 -0.194336 0.257812 -0.251953 -0.067383 0.263672 0.171875 0.019287 0.170898 0.068848 -0.105469 0.326172 0.388672 0.267578 0.235352 -0.28125 -0.112305 -0.014709 -0.134766 0.088867 0.369141 0.075195 0.07666 0.324219 -0.074219 0.207031 -0.447266 -0.265625 -0.099609 0.129883 -0.117676 0.117188 0.043213 -0.133789 0.172852 0.138672 -0.445312 0.049561 0.464844 0.25 -0.117676 0.160156 -0.416016 0.067383 -0.291016 -0.244141 -0.132812 0.069824 0.314453 0.046143 0.292969 0.07373 -0.188477 -0.112305 0.036133 0.057861 -0.113281 -0.087891 -0.066895 0.208008 0.135742 0.130859 -0.09668 -0.011597 -0.141602 0.300781 -0.257812 -0.028931 0.181641 0.18457 -0.182617 0.029419 0.292969 0.069336 0.133789 0.112305 -0.082031 -0.271484 0.212891 -0.083984 0.032959 -0.24707 -0.200195 0.294922 -0.059326
delay -0.075684 0.119141 0.134766 0.025513 -0.091797 0.015076 -0.009705 0.100586 0.196289 0.080566 -0.07666 -0.047119 0.0625 -0.016846 -0.166992 0.129883 0.285156 -0.148438 0.041504 -0.155273 -0.1875 0.146484 0.007446 -0.089844 0.050537 0.188477 -0.064453 -0.078125 0.078613 0.208984 0.033203 -0.001205 -0.103027 -0.275391 0.076172 -0.019165 -0.124512 -0.171875 0.175781 -0.277344 0.140625 0.105957 0.182617 -0.251953 -0.15625 -0.202148 -0.137695 0.032715 -0.375 -0.001686 -0.073242 0.125 0.039307 0.00383 -0.141602 0.012024 -0.185547 -0.12793 0.137695 -0.169922 -0.042725 -0.094238 0.026978 -0.130859 0.093262 0.01178 -0.283203 0.060547 -0.34375 0.177734 0.045654 -0.047852 -0.143555 -0.019653 -0.189453 0.197266 0.197266 -0.038818 0.029663 0.386719 -0.277344 0.011841 -0.189453 -0.136719 0.180664 -0.039062 0.197266 0.341797 0.229492 -0.014954 0.353516 -0.05835 0.065918 0.061279 0.273438 -0.056641 -0.004089 0.069336 -0.15918 0.226562 0.224609 0.10498 0.053223 -0.098145 0.035645 0.12793 0.320312 -0.185547 0.115723 -0.05835 0.259766 -0.119141 0.194336 -0.096191 -0.149414 -0.119629 0.109863 -0.026001 0.092773 0.1875 0.112305 -0.003647 -0.119629 0.335938 -0.0354 0.038818 0.031738 -0.106445 -0.054199 0.057861 0.255859 0.093262 -0.037842 -0.245117 0.046387 0.07666 0.107422 0.037842 -0.229492 0.123535 0.07373 -0.359375 0.032959 0.085449 -0.105957 -0.253906 -0.147461 -0.113281 -0.181641 -0.100586 -0.044678 0.013306 0.134766 0.077637 0.026367 -0.298828 0.226562 -0.057129 -0.287109 -0.016602 -0.339844 -0.092773 0.074707 -0.008728 -0.055908 -0.040283 0.296875 0.294922 0.318359 0.093262 0.133789 -0.095215 -0.201172 0.011108 0.173828 -0.242188 0.253906 -0.074707 -0.131836 0.19043 -0.176758 -0.018555 0.168945 -0.1875 -0.002991 0.211914 0.105957 0.222656 0.040771 0.116211 -0.031738 -0.149414 -0.046631 0.051514 0.0625 0.170898 0.087402 -0.064941 -0.025757 0.043457 0.080566 0.067383 -0.223633 0.259766 0.15918 -0.148438 0.041992 0.132812 0.191406 0.018921 0.091309 0.169922 0.199219 0.124023 -0.067871 -0.172852 -0.128906 -0.129883 -0.089844 -0.03833 0.140625 -0.332031 -0.102539 0.231445 0.07959 -0.384766 0.013428 0.042969 0.15332 0.193359 0.195312 0.035889 -0.008057 -0.237305 -0.003571 -0.160156 0.130859 -0.363281 0.144531 -0.222656 -0.172852 -0.025635 -0.133789 -0.302734 0.203125 -0.199219 -0.179688 0.182617 0.257812 -0.088379 0.222656 0.017212 -0.204102 -0.21875 -0.016479 -0.182617 0.302734 0.198242 0.063477 -0.045898 0.012878 0.065918 -0.131836 0.023193 0.083008 0.181641 -0.083008 0.056152 -0.003906 -0.130859 0.191406 0.328125 -0.032959 -0.271484 0.206055 -0.121582 -0.224609 -0.037598 0.255859 -0.056152 0.251953 0.046143 0.002731 0.243164 -0.114258 0.048828 -0.091309 -0.067871 -0.031494 -0.11084 0.125977 0.050049 -0.126953 -0.054932 -0.054688 0.188477 -0.347656 0.082031 -0.052979 0.053955
size 0.012817 0.289062 0.083496 0.115723 0.032959 -0.265625 0.363281 -0.291016 0.116211 0.220703 -0.0625 -0.109863 -0.057373 -0.055908 -0.013916 -0.006592 -0.233398 0.347656 -0.137695 -0.168945 -0.289062 -0.196289 -0.261719 0.310547 -0.248047 0.014221 -0.134766 -0.014832 -0.004822 0.009094 -0.015076 0.224609 -0.126953 0.040771 -0.07373 -0.068848 0.083496 0.157227 -0.043701 0.324219 -0.035889 0.158203 -0.124023 -0.064941 -0.038086 -0.041504 -0.055664 -0.092285 0.070312 -0.15918 0.007599 -0.324219 -0.167969 -0.394531 0.120117 -0.117188 0.067383 0.056152 0.09082 -0.016602 0.229492 0.09082 -0.173828 -0.349609 0.292969 -0.22168 0.099121 0.265625 0.10498 0.269531 0.234375 -0.15918 0.097656 0.150391 -0.330078 0.027588 0.004852 -0.134766 0.105469 0.126953 0.04248 -0.179688 -0.091309 0.287109 -0.061035 -0.137695 -0.169922 0.217773 0.212891 0.042236 0.024536 -0.226562 0.041992 0.098633 0.118164 -0.145508 -0.04541 -0.15918 -0.038574 -0.172852 0.111816 0.083008 -0.038574 -0.129883 0.118652 0.170898 -0.275391 0.28125 -0.246094 -0.251953 0.071289 -0.19043 -0.070801 -0.020996 0.0177 0.095215 0.133789 -0.126953 0.157227 -0.129883 -0.060303 -0.064453 -0.07373 0.174805 0.07373 0.238281 -0.08252 -0.22168 0.157227 -0.014587 0.062012 0.195312 -0.204102 0.105469 -0.15332 0.012878 -0.109863 -0.140625 0.029541 -0.220703 0.065918 -0.202148 0.034668 -0.028198 0.209961 -0.10791 -0.178711 0.001381 0.059814 0.142578 -0.005585 -0.088379 -0.308594 -0.010559 0.031982 -0.117676 -0.048096 -0.162109 -0.083496 -0.09668 -0.018555 -0.164062 0.181641 -0.144531 0.070312 0.027344 0.012085 -0.25 -0.052002 0.087402 -0.230469 -0.181641 0.031738 0.198242 -0.192383 0.150391 -0.011292 -0.05957 0.021851 0.029297 -0.04126 -0.091797 -0.255859 0.002213 -0.179688 -0.429688 0.206055 -0.045166 -0.077637 0.001465 0.206055 -0.174805 -0.188477 -0.049805 -0.255859 0.227539 0.207031 -0.133789 0.012085 -0.232422 0.073242 0.208984 -0.188477 -0.030884 0.006866 0.265625 0.058105 -0.033447 -0.094727 0.108887 -0.049072 0.235352 -0.103027 -0.015625 -0.203125 0.125 0.273438 -0.116211 -0.237305 0.235352 0.037354 0.225586 -0.02002 -0.300781 -0.240234 -0.095215 0.044678 -0.200195 0.199219 -0.078613 -0.019409 -0.095215 0.143555 0.006683 0.00592 -0.376953 -0.001511 -0.310547 0.001671 -0.125 0.002701 0.132812 -0.150391 -0.226562 0.217773 -0.172852 -0.166016 0.055664 0.365234 0.020386 0.10791 -0.068359 0.208984 0.018799 0.449219 0.072266 0.023071 0.054932 -0.230469 0.15918 0.223633 -0.085449 -0.335938 0.079102 0.214844 -0.010437 0.048828 -0.033447 0.09668 0.02124 -0.213867 0.091797 0.061279 -0.140625 -0.059814 -0.111328 0.09375 -0.090332 0.083984 -0.141602 0.007812 0.269531 0.217773 0.09668 -0.212891 0.100586 -0.135742 -0.194336 -0.067383 0.016357 -0.277344 -0.025391 -0.084473 -0.398438 0.055908 0.071777 0.024658 0.066406 -0.152344 -0.185547
peace 0.157227 0.261719 0.277344 0.287109 0.186523 -0.15332 0.216797 -0.068848 0.078613 0.186523 -0.120117 0.226562 -0.271484 0.255859 -0.216797 0.139648 0.114746 0.092285 0.060303 -0.134766 0.185547 0.455078 -0.028442 0.092285 -0.066895 0.145508 -0.234375 0.09082 0.482422 -0.21875 -0.120605 -0.120117 -0.5 0.057129 -0.022827 -0.087402 0.21582 0.131836 -0.201172 0.040771 -0.028442 0.267578 -0.07373 0.076172 -0.5 0.098145 0.174805 0.026733 -0.128906 0.144531 0.241211 0.007812 -0.279297 0.050293 -0.050049 -0.064941 -0.130859 -0.084961 -0.040771 -0.192383 -0.063477 0.298828 0.269531 0.169922 -0.01709 0.047607 0.108398 0.102539 -0.200195 -0.11084 0.066895 0.371094 0.167969 0.102051 -0.171875 -0.392578 -0.375 0.051025 0.216797 0.151367 -0.28125 0.084961 0.029175 -0.112305 0.170898 -0.072266 0.095215 0.109375 0.155273 -0.008118 0.03064 -0.179688 -0.020874 -0.570312 -0.28125 -0.018433 0.137695 -0.202148 0.203125 -0.414062 -0.062256 0.043457 0.203125 0.01178 -0.128906 0.134766 -0.316406 0.105469 -0.004211 0.05957 -0.238281 0.199219 0.176758 -0.070801 -0.103027 0.060303 0.099121 0.103516 -0.146484 0.176758 0.069824 0.408203 -0.330078 0.026733 -0.345703 0.039062 0.267578 0.095703 0.01416 -0.052246 0.275391 -0.010559 -0.086426 0.235352 -0.032959 -0.078613 -0.003998 -0.054199 -0.109863 0.009888 -0.130859 -0.195312 0.007355 0.021851 -0.255859 -0.014038 -0.074707 -0.150391 0.177734 0.069824 0.201172 -0.201172 0.074219 0.101562 -0.162109 -0.233398 0.236328 -0.078613 -0.050293 0.058838 -0.285156 -0.047607 -0.054199 0.108887 -0.112793 -0.213867 0.204102 -0.012634 -0.146484 0.045654 0.021606 0.112793 0.140625 -0.330078 -0.075684 0.294922 0.049805 0.022949 -0.074707 -0.294922 -0.507812 -0.059326 0.419922 -0.182617 0.129883 0.251953 0.060791 0.050293 0.121582 0.026123 -0.144531 0.193359 -0.15918 -0.170898 0.132812 0.294922 0.208984 0.291016 -0.016235 -0.204102 0.081543 -0.105469 -0.155273 -0.207031 0.135742 -0.40625 -0.099609 0.050049 0.109375 0.067383 -0.492188 0.090332 -0.194336 -0.054932 0.05249 -0.109375 -0.152344 -0.077637 -0.263672 0.12207 0.263672 -0.470703 0.052979 -0.031128 0.097168 -0.147461 0.208984 0.083008 0.233398 -0.154297 -0.069336 -0.107422 -0.357422 0.026855 0.129883 -0.192383 -0.048096 -0.057373 0.117188 -0.069824 0.063477 -0.265625 -0.111816 0.175781 0.219727 0.025513 -0.21875 -0.332031 -0.006012 0.065918 0.05542 5.07E-4 -0.012878 0.400391 -0.031738 -0.068848 0.204102 -0.291016 0.088867 -0.1875 0.025879 -0.076172 0.129883 0.091309 0.130859 0.013306 -0.105957 -0.294922 -0.404297 -0.233398 0.230469 0.162109 0.183594 0.365234 0.208008 -0.001564 -0.101074 0.154297 -0.4375 -0.050293 -0.003311 -0.142578 -0.1875 0.149414 0.186523 -0.333984 -0.191406 0.098145 0.065918 -0.044434 -0.322266 -0.300781 0.109863 -0.227539 -0.230469 0.246094 -0.136719 -0.217773 0.087891 0.044434
science 0.009033 0.121582 0.398438 0.213867 -0.016724 0.063965 0.3125 -0.235352 -0.100098 -0.093262 0.205078 -0.032227 -0.211914 0.009583 -0.277344 0.096191 -0.1875 -0.040527 0.226562 -0.236328 -0.048584 0.032959 -0.080566 0.122559 0.058594 -0.091309 -0.026855 0.025879 -0.11377 -0.219727 -0.037842 -0.157227 -0.059814 -0.016357 0.114258 -0.152344 -0.010864 0.292969 0.222656 -0.002457 -0.163086 -0.116699 -0.208008 0.318359 -0.087402 0.133789 0.154297 0.118164 -0.074707 0.093262 -0.324219 0.01239 -0.072266 -0.109863 -0.071777 0.161133 0.05542 -0.398438 -0.049805 -0.251953 -0.05249 -0.057861 0.166992 -0.269531 -0.043945 -0.142578 0.036621 0.347656 -0.108887 -0.120117 -0.193359 -0.219727 0.160156 -0.06543 -0.220703 0.148438 0.231445 0.116699 -0.154297 0.041748 -0.088379 0.219727 0.080566 -0.108887 0.070801 -0.112793 0.006287 0.378906 -0.21582 0.110352 0.271484 -0.292969 -0.129883 -0.105957 0.158203 0.214844 0.279297 0.041504 0.229492 -0.020386 0.023071 0.123535 -0.143555 -0.132812 0.039307 0.013245 -0.019653 -0.101074 0.275391 -0.138672 -0.109863 0.069824 0.146484 0.203125 0.047363 0.180664 -0.105469 0.204102 0.224609 0.099121 0.08252 -0.016724 -0.096191 0.117188 -0.291016 -0.032471 -0.059814 -0.018188 -0.094727 0.208008 -0.046631 -0.300781 -0.05957 -0.185547 -0.064941 0.222656 0.211914 0.018677 -0.140625 -0.041504 0.150391 -0.121582 -0.10498 -0.1875 -0.291016 0.007812 0.255859 -0.086426 0.175781 -0.032715 0.196289 -0.167969 -0.179688 0.05835 -0.257812 -0.239258 0.152344 -0.143555 -0.012268 -0.239258 -0.245117 -0.176758 -0.182617 0.382812 0.347656 0.072266 0.149414 -0.160156 0.024902 -0.12207 0.134766 0.149414 -0.084473 0.101074 0.138672 0.019409 -0.113281 -0.086426 -0.074707 0.027588 -0.131836 -0.036621 0.064453 -0.22168 0.197266 -0.09375 0.178711 -0.016479 0.057617 0.096191 0.046143 0.007996 0.069824 0.055664 -0.158203 0.202148 0.25 -0.118652 0.05542 0.005707 -0.339844 -0.099609 0.020264 -0.047852 -0.285156 -0.283203 0.245117 -0.146484 -0.322266 -0.121582 -0.129883 0.113281 0.097168 0.009583 0.04541 0.241211 0.040771 0.087891 0.332031 -0.021484 -0.015076 -0.177734 0.269531 0.105469 0.138672 0.074707 0.139648 0.014465 -0.064453 0.161133 0.225586 0.094727 0.077148 -0.150391 0.216797 0.044434 0.169922 0.125977 0.043213 -0.086426 0.308594 0.101562 -0.006561 0.084961 -0.173828 -0.05835 0.087402 0.007324 -0.220703 0.131836 -0.277344 -0.332031 0.112793 0.055908 0.178711 -0.228516 0.033691 0.026733 -0.185547 0.033203 0.050537 -0.109375 -0.263672 0.074219 0.076172 0.261719 0.201172 -0.180664 -0.104492 -0.030762 0.090332 -0.152344 -0.118164 -0.102539 -0.070312 -0.134766 -0.087891 -0.231445 0.238281 0.057617 0.173828 0.064453 0.195312 0.189453 -0.057373 -0.079102 0.15332 -0.170898 0.110352 0.345703 -0.231445 0.039551 -0.367188 0.033447 0.060547 -0.019897 0.181641 -0.171875 0.289062 0.074707
dawn -0.032715 0.107422 -0.147461 -0.082031 0.01062 -0.234375 -0.074707 -0.172852 0.125 0.201172 0.150391 -0.306641 -0.019653 -0.061035 -0.182617 -0.027954 -0.152344 -0.031494 0.5 -0.199219 -0.285156 -0.271484 -0.0177 -0.03833 0.033936 0.006165 8.43E-4 -0.039795 0.243164 -0.016357 -0.125977 0.077148 0.129883 -0.171875 0.025024 0.068848 -0.203125 -0.089355 -0.039795 0.083008 0.096191 -0.104492 0.314453 -0.037354 0.206055 0.283203 -0.484375 0.371094 -0.094238 0.242188 0.179688 0.048096 0.026123 0.236328 0.230469 -0.108887 0.093262 -0.369141 -0.25 -0.222656 -0.209961 0.277344 -0.148438 -0.236328 0.006165 -0.118652 0.120605 -0.027588 -0.255859 0.021851 -0.145508 0.239258 0.078125 0.123047 -0.174805 -0.09668 -0.115234 -0.155273 -0.001701 0.094238 0.100586 0.197266 0.134766 -0.136719 -0.113281 0.220703 -0.045654 -0.15918 0.112793 0.244141 0.046387 -0.148438 0.084473 -0.12793 -0.292969 0.192383 0.15918 -0.151367 0.15332 -0.166016 0.095703 -0.228516 0.216797 0.223633 -0.106934 0.023071 0.011108 0.098145 -0.055908 0.047363 0.100586 0.191406 0.109863 -0.057373 0.15625 0.093262 0.173828 0.143555 -0.105957 0.012878 0.269531 0.026123 -0.194336 -0.097168 0.085449 0.017334 0.112793 0.027466 0.291016 0.380859 -0.130859 -0.109863 0.056885 -0.121094 -0.166992 0.261719 -0.028076 -0.209961 0.016968 0.188477 -0.196289 -0.162109 -0.02417 0.241211 -0.115723 0.135742 0.231445 -0.236328 0.092773 -0.433594 0.134766 0.085449 -0.130859 -0.060303 0.086426 -0.174805 -0.064941 -0.108887 0.136719 -0.04834 -0.096191 -0.21582 -0.198242 -0.243164 0.084473 -0.02002 -0.04126 -0.179688 0.006592 -0.080078 0.081543 0.073242 -0.031494 -0.088867 0.016724 -0.108887 0.074219 -0.162109 0.033936 -0.105469 -0.034668 -0.128906 -0.058105 -0.119629 -0.099609 -0.084961 -0.055908 -0.084473 0.202148 -0.019775 0.038086 0.34375 0.267578 -0.273438 -0.169922 0.535156 -0.151367 0.316406 0.19043 0.102051 0.211914 -0.104492 0.061768 -0.083984 0.324219 -0.10791 0.092773 0.166016 -0.095703 -0.216797 -0.231445 0.124512 -0.136719 -0.164062 -0.208008 -0.026733 -0.226562 -0.04248 -0.263672 0.217773 0.018921 0.056152 0.001289 0.130859 0.015015 -0.147461 -0.013062 0.277344 -0.094238 0.059326 0.347656 -0.115723 -0.257812 -0.074219 0.203125 0.181641 0.116699 -0.096191 0.175781 -0.202148 0.150391 -0.230469 -0.207031 -0.022461 -0.167969 -0.033203 -0.160156 0.15625 0.065918 0.096191 -0.029541 0.237305 0.003754 0.022461 -0.140625 0.019287 -0.051758 -0.191406 -0.089844 -0.310547 -0.011902 -0.392578 0.05127 0.057861 -0.160156 -0.10498 0.178711 -0.068359 -0.195312 0.148438 0.061035 0.070801 0.066895 0.032959 0.214844 -0.132812 -0.161133 -0.169922 0.041504 0.043457 -0.166992 0.090332 0.129883 0.00106 0.240234 0.163086 0.091309 0.378906 -0.111816 0.259766 -0.012268 0.074219 -0.298828 0.0625 -0.09082 0.001305 -0.294922 -0.059082 0.191406 0.236328
brother -0.061279 -0.060303 0.195312 -0.137695 0.151367 0.227539 -0.059814 -0.150391 0.178711 0.01532 0.443359 -0.143555 -0.178711 -0.225586 -0.322266 -0.054688 0.030762 0.171875 -0.208008 0.18457 0.026733 0.136719 0.197266 0.077637 0.210938 -0.179688 -0.175781 0.105957 0.139648 -0.027954 0.167969 0.019531 -0.055664 0.140625 -0.021851 0.242188 0.263672 -8.39E-4 0.227539 0.167969 0.296875 -0.107422 0.28125 0.019287 0.253906 0.140625 -0.144531 -0.18457 0.087891 -0.3125 -0.071777 0.129883 0.186523 -0.209961 0.292969 -0.069824 -0.192383 0.128906 -0.265625 -0.062988 0.081543 0.003159 0.045898 0.121094 1.2E-4 0.094238 0.032227 -0.119141 -0.020386 0.15332 0.097168 -0.023926 -0.192383 0.238281 -0.425781 0.216797 -0.039795 -0.09082 0.164062 0.020386 0.208984 0.003204 -0.25 -0.24707 -0.154297 -0.035156 -0.088867 0.060303 -0.130859 -0.071777 -0.090332 -0.223633 -0.166992 0.120605 -0.101562 -0.267578 -0.00161 0.108398 0.05957 -0.155273 -0.136719 -0.142578 0.251953 -0.178711 -0.109375 -0.120117 -0.035156 0.035889 0.188477 0.271484 0.036621 0.091309 0.0354 0.057861 -0.083496 -0.009399 -0.019165 -0.085938 0.234375 0.164062 -0.07959 0.199219 -0.023315 -0.207031 -0.126953 -0.207031 0.197266 -0.072266 0.108398 0.07373 -0.125 -0.048096 -0.036621 0.098145 -0.055908 0.088867 0.089355 0.265625 0.06543 0.116211 0.143555 0.023193 0.024902 -0.067383 0.116699 0.048096 -0.216797 -0.04541 -0.018555 -0.135742 0.414062 0.173828 -0.151367 0.196289 0.074707 -0.060547 0.054199 -0.144531 0.19043 -0.174805 -0.003906 0.167969 0.113281 0.189453 -0.083008 -0.06543 0.341797 -0.001572 0.320312 0.292969 0.291016 -0.034424 0.21875 -0.173828 -0.180664 0.137695 0.143555 -0.072754 -0.047852 0.225586 -0.010925 0.074707 0.030884 0.063965 0.090332 -0.009033 0.304688 0.355469 0.07373 0.102051 0.036865 0.186523 -0.084961 -0.025879 0.244141 0.092773 -0.107422 -0.093262 -0.014709 -0.064941 -0.265625 -0.155273 -0.261719 -0.165039 0.359375 -0.124512 0.162109 -0.043457 0.033936 -0.207031 -0.062988 0.108887 0.067871 0.081055 -0.113281 0.082031 -0.204102 0.183594 -0.111816 -0.157227 0.018921 -0.146484 0.324219 -0.11377 -0.00415 -0.209961 0.019287 0.117676 -0.148438 -0.067871 0.079102 0.05249 0.071777 0.125977 -0.052734 -0.02417 -0.248047 -0.211914 -0.310547 0.205078 -0.271484 -0.070312 -0.25 0.082031 0.100586 0.355469 0.051514 0.135742 0.103027 -0.050537 0.188477 0.064941 0.054199 -0.001923 0.102539 0.029663 0.048096 0.095215 -0.267578 -0.002533 0.09375 -0.022705 0.183594 -0.175781 0.010254 0.122559 -0.05542 -0.005432 -0.007416 0.165039 0.181641 -0.229492 0.183594 0.136719 0.132812 -0.169922 -0.017578 0.048096 -0.039551 -0.07666 0.172852 -0.161133 0.065918 0.259766 0.142578 0.152344 -0.179688 0.137695 0.029541 0.103027 -0.213867 -0.018555 -0.257812 -0.207031 0.081543 -0.087402 -0.231445 -0.396484 -0.090332 0.210938
wine -0.175781 -0.109375 -0.189453 0.15625 0.006775 0.233398 0.05542 -0.296875 0.132812 0.287109 0.179688 -0.271484 0.041504 -0.067383 -0.102051 0.363281 0.009705 0.458984 0.110352 -0.017212 0.306641 0.160156 -0.044189 -0.306641 0.045898 0.318359 -0.028198 0.151367 -0.060791 0.058838 0.067383 0.024292 -0.193359 0.198242 -0.176758 -0.196289 0.144531 -0.478516 0.088867 0.034424 -0.225586 0.115234 -0.089355 -0.018921 0.096191 -0.267578 0.125977 -0.035645 -0.18457 -0.012085 -0.396484 0.124023 -0.273438 0.04834 -0.386719 0.039551 -0.15332 0.030396 0.010132 -0.182617 -0.11084 0.074219 -0.404297 -0.238281 -0.073242 -0.121094 0.002563 -0.449219 0.25 -0.113281 0.174805 -0.067383 0.188477 -0.059814 -0.100586 0.056885 -0.249023 0.146484 0.076172 -0.060303 -0.28125 -0.511719 0.096191 -0.146484 -0.137695 0.19043 -0.222656 0.225586 0.060059 -0.00885 0.021606 0.093262 -0.125 -0.028931 0.008301 -0.011047 -0.114746 0.068359 -0.201172 -0.253906 -0.168945 0.043213 0.028198 0.110352 0.078125 -0.06543 0.09082 -0.069336 -0.144531 -0.253906 -0.050293 -0.162109 -0.076172 -0.180664 0.115723 0.265625 0.006775 -0.095703 -0.136719 0.049072 -0.177734 0.195312 0.094238 -0.03418 0.146484 -0.203125 0.05542 -0.030396 -0.283203 0.144531 -0.195312 0.098145 -0.158203 0.019409 0.150391 0.326172 0.235352 0.283203 0.178711 -0.162109 0.157227 -0.392578 -0.277344 -0.257812 -0.061279 -0.166016 0.515625 0.08252 -0.292969 -0.051025 0.275391 0.188477 -0.353516 0.108398 -0.05957 -0.131836 0.002243 0.011597 -0.757812 0.019287 -0.211914 -0.040771 0.19043 0.191406 0.062256 0.092773 0.34375 0.124023 -0.135742 -0.160156 -0.15625 -0.208984 0.090332 0.089844 -0.253906 0.018311 0.041504 -0.144531 -0.027344 0.003693 -0.045898 -0.023438 -0.261719 0.014404 0.132812 0.130859 0.058838 0.235352 -0.069824 -0.168945 0.051025 0.191406 -0.21875 0.257812 -0.012329 0.224609 0.15332 -0.030273 0.083984 -0.310547 -0.031982 0.164062 -0.019287 -0.001205 0.02356 0.029419 0.158203 -0.047119 0.052002 -0.136719 -0.376953 0.062256 0.169922 0.208984 -0.001984 0.03418 -0.24707 0.265625 0.122559 0.236328 0.306641 -0.151367 -0.068359 -0.145508 0.306641 0.083496 0.335938 0.080566 -0.033203 0.339844 -0.095703 -0.166992 -0.449219 0.339844 -0.148438 -0.417969 -0.046875 -0.113281 0.060303 -2.78E-4 0.371094 -0.017456 0.068359 0.279297 -0.019165 -0.200195 -0.018677 -0.055176 -0.185547 0.046875 0.028931 -0.240234 0.207031 0.003525 0.164062 0.088867 0.084961 0.099609 -0.113281 0.11377 -0.150391 -0.094238 0.124023 0.099609 0.032227 -0.287109 -0.154297 -0.091797 -0.197266 -0.243164 -0.118164 0.028076 -0.145508 0.251953 0.349609 0.02063 0.014587 -0.257812 -0.125977 0.15918 -0.041748 0.022095 0.416016 -0.130859 0.087402 0.192383 -0.164062 0.239258 0.075684 0.423828 0.045898 -0.209961 0.115723 0.186523 0.172852 -0.084473 0.296875 -0.037842 0.308594 0.050049
object 0.292969 -0.062988 0.083496 0.043457 -0.5625 0.154297 0.273438 -0.052979 0.084961 0.145508 -0.111816 -0.150391 -0.046631 0.02002 0.025635 0.05249 0.043213 0.038818 0.088379 -0.182617 -0.106934 -0.086914 -0.118164 -0.078125 0.100586 -0.070801 0.144531 0.071289 0.10498 -0.277344 -0.036865 -0.283203 -0.12793 -0.133789 0.125 -0.119141 0.246094 0.103516 -0.057373 0.125977 0.060791 0.189453 0.419922 0.168945 -0.114258 -0.353516 0.114746 -0.050537 0.058105 0.046875 -0.076172 -0.085938 -0.201172 -0.120117 -0.188477 0.341797 0.04248 0.038574 0.054443 -0.067383 0.118164 -0.177734 -0.095215 -0.002289 -0.408203 -0.070312 -0.124023 -0.150391 -0.251953 0.106934 -0.040283 -0.386719 0.294922 -0.135742 -0.210938 -0.019775 0.193359 0.044189 0.066406 0.034424 0.186523 0.105957 -0.003189 -0.146484 -0.027954 -0.045654 0.105469 -0.032471 0.261719 -0.121582 -0.125 -0.210938 -0.08252 0.114746 0.402344 0.002426 0.261719 0.086914 0.010742 0.098145 0.086426 0.045166 -0.087402 -0.074707 0.148438 -0.00647 0.243164 0.059082 0.131836 -0.194336 -0.248047 -0.132812 0.075684 -0.006531 0.235352 0.322266 0.022583 -0.144531 -0.095703 0.174805 0.121094 -0.125 0.186523 0.083008 -0.185547 0.010254 0.029419 -0.082031 0.084961 -0.025635 -0.001724 -0.222656 -0.322266 -0.012634 0.19043 0.081055 0.015564 -0.05835 0.1875 0.103516 0.160156 -0.108887 -0.21875 0.192383 -0.057373 0.112793 -0.05542 -0.014648 -0.167969 -0.03418 0.202148 -0.020996 -0.087402 -0.104004 0.208008 0.049072 -0.382812 -0.129883 0.010559 0.087402 0.080078 0.034424 0.194336 -0.171875 -0.050293 0.003082 -0.088379 -0.033691 -0.072266 0.024048 -0.034912 4.96E-4 -0.251953 0.240234 -0.204102 -0.157227 0.142578 -0.141602 0.054932 -0.126953 -0.071289 0.023193 -0.092773 -0.072754 0.120117 0.142578 0.038818 -0.044189 0.047607 0.072754 0.109863 -0.01062 -0.021729 -0.057129 -0.15332 -0.020386 -0.05957 0.005554 0.005463 0.046875 0.051514 -0.287109 -0.324219 -0.160156 -0.177734 0.101074 0.035889 0.24707 0.082031 0.018433 -0.010681 0.065918 0.031128 -0.033691 -0.386719 -0.092773 0.030518 0.257812 0.062988 0.04248 0.235352 -0.075195 -0.197266 0.106934 -0.07373 0.239258 0.172852 0.235352 0.359375 -0.180664 0.375 -0.217773 -0.120605 0.069336 0.186523 0.001556 -0.060547 -0.147461 0.113281 -1.01E-4 -0.043457 -0.298828 0.060547 -0.160156 0.100586 -0.047607 0.060791 0.038818 0.199219 0.030762 -0.125 0.005585 0.075684 -0.109863 -0.047119 -0.103027 -0.225586 -0.083496 0.05835 -0.154297 0.0354 -0.171875 -0.232422 -0.251953 -0.016113 0.205078 0.020508 -0.052734 -0.201172 0.043945 -0.069336 -0.035889 -0.139648 0.168945 -0.139648 -0.104492 -0.125977 -0.246094 -0.175781 0.070801 0.033203 0.351562 0.101074 0.271484 -0.173828 -0.008972 -0.183594 -0.015625 -0.04126 -0.057861 -0.201172 0.255859 0.009399 -0.043457 -0.181641 -0.013916 0.040283 0.011292 -0.143555 0.043457
attitude 0.113281 0.244141 0.028564 -0.005707 -0.273438 -0.038818 0.032715 -0.200195 0.004761 0.074219 0.081543 -0.101562 0.233398 -0.011169 -0.283203 0.28125 -0.057129 0.4375 -0.031006 -0.232422 0.234375 0.056152 0.192383 0.19043 9.19E-4 0.114746 -0.111816 0.020752 0.192383 0.188477 -0.151367 0.018311 0.115234 0.125 0.201172 0.052979 0.202148 0.109863 0.004486 -0.149414 0.375 -0.241211 -0.234375 -0.028198 -0.076172 -0.228516 -0.349609 -0.0625 -0.292969 0.05249 0.015991 0.316406 0.025146 -0.125 0.279297 0.013611 -0.150391 0.061035 -0.071289 -0.05127 0.048584 0.163086 -0.243164 0.110352 -0.073242 0.11084 0.138672 0.121582 -0.045654 0.292969 -0.226562 0.072754 0.00473 0.263672 -0.214844 -0.161133 0.062988 0.267578 0.014954 0.242188 0.099609 -0.134766 -0.070312 -0.21875 -0.261719 -0.141602 -0.150391 0.183594 0.139648 -0.251953 -0.073242 0.067383 -0.21582 0.02063 0.129883 -0.062256 -0.055664 0.353516 -0.033447 -0.324219 0.089355 0.057617 -0.123047 0.128906 0.145508 -0.063477 -0.144531 -0.091309 0.088379 -0.104004 -0.137695 -0.207031 -0.168945 0.167969 -0.133789 -0.056396 0.148438 -0.043701 -0.021606 -0.053955 -0.375 0.032715 0.014038 0.199219 -0.019653 0.040527 -0.163086 -0.09375 -0.242188 -0.242188 -0.259766 -0.212891 -0.067383 0.111816 -0.079102 -0.164062 -0.161133 0.069824 -0.123535 0.144531 0.131836 0.188477 0.116211 -0.138672 -0.070312 0.070801 -0.033447 -0.016968 -0.046631 -0.083496 0.086914 -0.044922 -0.219727 0.078613 -0.332031 -0.224609 -0.006195 -0.058594 0.141602 -0.009094 0.097656 0.100586 -0.019043 -0.028809 -0.145508 -0.177734 0.076172 -0.050781 0.125 -0.016479 0.080566 0.01355 0.244141 -0.071777 0.070312 0.106445 0.197266 -0.197266 0.109375 -0.154297 -0.174805 0.003387 0.335938 0.206055 -0.217773 0.072754 -0.105957 -0.017822 -0.077637 0.012085 0.108398 0.169922 0.030151 0.298828 -0.200195 -0.144531 0.117188 0.683594 -0.199219 0.324219 -0.263672 0.28125 -0.237305 -0.139648 0.068848 -0.078613 0.037354 -0.11084 0.335938 0.007935 -0.253906 0.002243 0.243164 0.10498 -0.095703 0.192383 0.035645 0.251953 -0.182617 0.005219 -0.226562 -0.030151 0.114746 0.131836 -0.265625 -0.049561 0.294922 -0.255859 0.083496 0.259766 -0.072266 0.052246 -0.101562 -0.070312 0.019043 -0.052979 -0.021606 -0.052002 0.302734 0.255859 0.111328 0.035156 0.198242 -0.150391 -0.037354 0.081055 -0.225586 -0.168945 0.091309 0.091797 0.125 0.251953 0.00238 0.219727 -0.246094 -0.201172 0.076172 0.292969 -0.087891 0.12793 0.149414 -0.144531 -0.255859 0.259766 0.292969 0.042236 0.072266 -0.074707 -0.199219 0.078613 -0.040771 0.168945 0.120117 0.158203 -0.125977 0.096191 -0.173828 0.271484 0.023193 -0.015747 0.173828 0.025757 0.056396 -0.00766 -0.138672 -0.062988 0.046387 0.042236 0.089355 0.314453 -0.427734 0.172852 -0.010437 -0.155273 -0.087891 -0.083496 0.318359 -0.007416 0.02356 0.191406
treatment -0.240234 0.378906 0.081055 0.133789 0.108398 0.21875 0.107422 -0.445312 -0.10498 -0.102539 -0.160156 -0.085938 0.077148 0.205078 -0.017334 0.174805 0.023682 0.094727 0.026123 0.0354 0.18457 0.075195 0.132812 -0.022095 -0.197266 -0.168945 -0.333984 0.10791 -0.165039 -0.138672 -0.138672 -0.025269 -0.400391 -0.029785 -0.416016 0.139648 0.052246 -0.062988 0.005035 -0.212891 0.064453 0.025146 -0.043213 -0.15918 -0.09082 -0.078613 0.036865 -0.052734 -0.273438 0.026001 0.053955 -0.033936 -0.09375 -0.108398 0.025513 -0.198242 -0.102051 0.261719 -0.132812 -0.009766 -0.118164 0.146484 0.05127 -0.275391 -0.032715 0.25 0.176758 -0.015869 -0.005096 -0.139648 -0.11084 -0.074219 0.229492 0.129883 0.049316 -0.144531 -0.033203 0.005127 0.11377 0.349609 -0.079102 -0.062988 -0.149414 0.092285 -0.042725 -0.039551 -0.228516 -0.038818 0.171875 -0.314453 0.279297 0.167969 0.142578 0.300781 0.064941 -0.101562 0.162109 -0.146484 0.259766 0.094727 0.173828 -0.09082 0.226562 0.011475 0.025024 -0.017822 0.032959 -0.271484 0.135742 -0.112793 0.040771 0.103027 0.003586 0.080078 -0.046631 -0.249023 -0.012695 -0.062012 0.119141 0.19043 -0.291016 -0.064453 -0.044678 -0.120117 0.126953 -0.213867 -0.056641 -0.062012 0.124023 -0.04541 0.040039 -0.241211 -0.04834 -0.205078 -0.222656 -0.292969 0.198242 -0.080566 0.093262 -0.003357 0.021118 0.139648 -0.154297 0.058105 0.201172 -0.083496 0.061279 0.006287 -0.369141 -0.275391 0.210938 -0.208008 0.051025 0.038086 0.214844 -0.237305 -0.067871 -0.116699 0.103027 -0.251953 0.035645 0.460938 -0.07959 0.120117 -0.376953 -0.172852 0.035645 -0.144531 -0.005341 -0.078125 0.248047 -0.169922 -0.139648 0.104004 0.11084 -0.207031 0.046875 -0.257812 -0.337891 0.020508 -0.055908 0.054688 0.0271 -0.023804 -0.063477 -0.05835 0.036621 -0.100586 0.057129 0.056641 -0.175781 -0.122559 0.0625 0.051025 0.061279 -0.047119 -0.137695 -0.090332 -0.050781 -0.006165 -0.028687 0.069336 0.283203 0.025513 -0.054688 -0.180664 -0.051758 0.140625 0.163086 -0.136719 0.008118 0.033691 -0.131836 -0.083984 0.194336 -0.057129 0.195312 0.061279 -0.108887 -0.209961 -0.108887 0.10791 0.18457 -0.026001 0.209961 -0.021362 -0.065918 -0.121094 -0.287109 0.287109 -0.005035 0.075195 -0.109863 -0.259766 -0.058105 -0.183594 -0.177734 0.060059 0.096191 -0.008179 0.111816 -0.089844 0.174805 -0.111328 0.119141 0.041992 0.029907 0.185547 -0.041016 -0.017944 0.275391 -0.060059 0.242188 0.026001 0.099121 0.273438 -0.102539 0.04248 -0.173828 -5.61E-4 0.059326 -0.113281 -0.386719 0.006958 0.226562 -0.056396 -0.016235 -0.194336 -0.157227 0.098633 0.089355 0.020752 0.141602 -0.103027 0.106934 -0.062988 -0.302734 0.010254 -0.057617 0.062988 0.263672 0.123047 0.228516 0.020142 -0.104004 0.120605 0.084961 0.016968 -0.066406 -0.068359 -0.154297 -0.029419 0.21875 0.195312 0.118652 0.228516 -0.203125 0.257812 0.291016 0.145508
flight -0.084473 0.022949 -0.199219 -0.137695 0.032715 -0.228516 -0.138672 -0.394531 0.245117 -0.098145 0.10791 -0.206055 0.149414 -0.077637 -0.054688 0.251953 0.152344 0.00946 0.039062 0.117676 -0.100586 -0.063965 -0.225586 -0.208984 9.69E-4 0.103027 -0.198242 0.080078 0.212891 0.164062 -0.03418 -0.128906 -0.062012 -0.245117 -0.202148 -0.051758 -0.296875 0.223633 0.090332 0.09082 0.001175 0.056396 0.433594 -0.006775 0.031738 -0.476562 0.212891 0.063477 0.320312 0.060547 -0.120605 -0.080078 0.133789 0.056152 0.042725 -0.40625 0.094238 -0.048584 0.042969 0.066406 0.129883 -0.142578 0.014465 -0.037598 -0.09375 -0.059326 -0.069824 0.076172 0.224609 -0.012451 -0.123535 -0.026611 -0.051025 -0.044189 -0.283203 0.019043 0.119141 -0.097168 -0.027344 -0.024902 -0.049072 0.050781 0.07959 -0.098633 0.059082 -0.253906 -0.186523 0.012756 0.239258 0.178711 0.051514 -0.265625 -0.248047 -0.111328 0.206055 -0.136719 0.043701 0.049561 -0.052246 -0.197266 0.332031 -0.083984 -0.080566 0.037598 0.162109 0.033203 0.355469 0.125977 0.373047 0.002533 -0.146484 0.116699 -0.166992 -0.019165 -0.503906 -0.005371 -0.11084 0.237305 -0.056152 -0.029907 -0.246094 -0.115234 0.115234 -0.037842 -0.048096 -0.018433 -0.197266 -0.123535 0.132812 0.15625 0.056641 -0.098633 -0.087891 -0.287109 0.041016 -0.402344 -0.035889 0.049805 -0.050293 0.271484 0.015259 -0.225586 -0.066406 0.029541 0.0177 0.21582 -0.273438 -0.196289 -0.048584 -0.142578 0.154297 0.104004 0.195312 -0.013489 -0.18457 -0.699219 -0.037354 -0.170898 0.068848 -0.038818 -0.219727 0.071777 0.118652 0.123047 -0.179688 -0.018921 0.107422 -0.11084 0.133789 -0.219727 -0.067383 -0.033936 0.033203 -0.043945 -0.012695 0.039307 -0.227539 -0.039062 -0.09668 0.033691 -0.128906 -0.044922 0.02124 -0.157227 0.259766 0.125977 -0.096191 0.025146 -0.228516 -0.066895 0.044434 0.182617 0.125 0.291016 -0.164062 0.351562 -0.24707 -0.068848 -0.173828 -0.421875 -0.027832 0.137695 -0.171875 -0.196289 0.193359 0.170898 0.043701 0.055908 -0.130859 -0.189453 -0.220703 0.197266 -0.168945 -0.001366 -0.202148 0.077637 0.296875 0.322266 -0.057373 -0.002533 -0.304688 -0.198242 0.143555 0.265625 0.129883 -0.074219 -0.175781 0.071289 -0.162109 -0.024048 0.351562 -0.203125 -0.203125 -0.25 0.077637 0.064453 -0.15332 0.002258 0.055176 -0.275391 -0.050293 -0.04248 -0.04541 -0.511719 -0.200195 -0.004883 -0.222656 -0.5 -0.052734 0.143555 -0.04126 0.043213 -0.161133 0.059082 -0.064453 -0.045898 0.094727 0.298828 0.025024 -0.07666 0.043213 0.369141 -0.059814 0.174805 -0.050781 0.040039 0.175781 -0.285156 -0.375 0.010681 -0.048096 0.045166 -0.040039 0.186523 0.036621 -0.168945 -0.186523 0.005127 -0.229492 -0.031982 0.049805 0.047607 -0.213867 -0.182617 0.171875 0.196289 -0.206055 0.239258 -0.277344 0.208008 0.058838 -0.040283 0.058838 0.144531 0.289062 -0.053711 -0.148438 0.125 0.195312 -0.189453
forest 0.337891 0.170898 -0.002838 0.0354 0.392578 -0.09375 -0.084961 -0.110352 -0.09082 -0.040527 0.185547 -0.089844 -0.515625 -0.320312 -0.189453 -0.186523 -0.075684 0.062256 -0.120605 0.22168 -0.05957 -0.217773 -0.118164 -0.014648 0.154297 -0.151367 -0.241211 -0.014893 0.351562 -0.12793 -0.024048 -0.150391 -0.166016 -0.019165 -0.357422 -0.361328 -0.093262 -0.269531 0.275391 0.090332 -0.181641 -0.181641 0.066406 -0.097168 -0.205078 -0.558594 -0.182617 -0.204102 0.191406 -0.102051 0.08252 -0.032227 -0.019287 -0.021851 -0.106445 -0.213867 -0.025513 -0.320312 0.004761 -0.158203 -0.076172 0.019653 0.261719 -0.129883 -0.225586 0.016113 0.197266 -0.060791 -0.183594 -0.233398 -0.34375 0.026245 0.21582 -0.367188 -0.240234 0.050781 0.287109 -0.300781 0.040039 0.015015 0.147461 0.320312 -0.071777 0.255859 0.109863 0.088379 0.100586 0.022583 0.123535 0.238281 -0.013611 0.234375 0.063965 0.0354 -0.296875 -0.515625 0.042725 -0.380859 0.194336 -0.351562 -0.199219 -0.145508 0.129883 0.177734 0.164062 -0.00824 0.018188 -0.053955 -0.102539 -0.011169 -0.441406 -0.142578 -0.19043 0.099609 0.028442 0.059814 0.123047 -0.186523 -0.304688 0.12793 0.024414 -0.031982 -0.371094 0.158203 0.15332 0.157227 0.136719 -0.225586 0.066895 -0.008118 -0.168945 -0.117188 -0.102539 -0.140625 0.241211 0.103516 -0.367188 -0.133789 0.154297 0.074707 0.172852 -0.177734 -0.063477 -0.006439 -0.12793 -0.188477 -0.021973 0.095215 -0.134766 0.069824 0.351562 0.151367 -0.144531 0.416016 -0.235352 -0.228516 0.412109 -0.106445 -0.111328 -0.188477 0.141602 -0.006897 0.169922 0.251953 -0.014893 0.255859 -0.007568 -0.103516 -0.175781 0.003235 -0.061523 0.089844 0.046143 -0.175781 0.025879 0.055664 -0.050049 -0.07373 -0.157227 -0.162109 -0.410156 -0.277344 0.125977 -0.095703 0.081055 0.175781 -0.147461 0.024414 0.275391 0.132812 0.060303 -0.507812 -0.18457 -0.098145 0.1875 0.084961 0.137695 -0.072266 -0.094238 -0.053223 0.112305 0.11377 0.061279 -0.111816 -0.134766 0.253906 0.429688 0.07373 -0.279297 0.072266 -0.263672 -0.125 0.124512 -0.124023 0.059326 0.116211 -0.106934 -0.009094 -0.024414 -0.001968 -0.026733 -0.139648 -0.3125 0.15332 0.163086 0.022827 0.147461 0.050049 0.235352 0.259766 0.324219 -0.077148 -0.138672 0.095703 -0.00322 0.11377 0.026001 -0.051758 0.111328 -0.042969 0.079102 -0.308594 0.071289 -0.150391 0.038818 -0.172852 0.291016 -0.158203 0.04248 0.296875 -0.249023 -0.037598 0.143555 0.083008 -0.011658 -0.179688 0.10498 -0.209961 -0.021851 -0.029053 -0.232422 -0.078613 0.118652 0.117676 0.249023 0.12793 -0.245117 0.169922 -0.071777 -0.12207 0.024414 -0.041016 -0.033203 0.049561 0.082031 -0.063477 0.047363 -0.112793 0.164062 0.173828 0.15625 -0.179688 0.275391 -0.142578 0.135742 -0.5 -0.083008 -0.165039 0.079102 0.205078 -0.320312 -0.139648 -0.03418 -0.013 0.013794 0.081055 -0.208008 0.02356 0.462891 0.357422
abuse -0.110352 -4.88E-4 -0.008179 -0.027344 -0.135742 -0.077148 0.054443 -0.169922 0.069336 0.194336 0.019165 -0.168945 -0.137695 0.472656 0.016357 -0.018188 0.084473 0.013855 -0.048828 -0.118652 0.205078 -0.176758 0.414062 9.23E-4 -0.095703 -0.277344 0.121094 0.161133 0.094727 -0.040527 -0.091797 -0.204102 -0.271484 -0.029175 -0.124512 -0.161133 0.02124 0.077148 -0.0625 0.441406 -0.00354 -0.002396 -0.136719 -0.10791 -0.150391 -0.166016 0.111328 0.332031 -0.239258 -0.089355 0.189453 -0.035156 -0.168945 0.298828 -0.026978 -0.076172 -0.224609 -0.204102 -0.222656 -0.004303 -0.330078 0.269531 0.277344 -0.052246 0.10791 0.007233 -0.017334 0.115723 0.059082 0.279297 -0.040283 0.063477 -0.149414 0.263672 0.304688 -0.107422 0.165039 0.121094 0.308594 0.114258 0.083496 -0.073242 0.07959 0.059814 0.051758 -0.196289 0.05957 0.241211 0.063477 -0.098145 0.136719 0.00766 -0.158203 0.15625 0.065918 0.172852 0.328125 -0.165039 0.054199 -0.114746 0.052734 0.116699 0.181641 0.008301 0.117188 -0.144531 0.008972 0.192383 -0.068359 -0.072754 0.017212 0.269531 -0.106934 -0.117676 -0.275391 0.102051 -0.003586 -0.007233 0.103027 0.271484 -0.333984 0.179688 0.207031 -0.019531 -0.124023 -0.384766 -0.233398 0.06543 0.245117 -0.191406 -0.322266 -0.265625 -0.248047 -0.084473 0.034668 -0.231445 0.152344 -0.173828 -0.046875 0.018677 0.128906 0.11377 -0.470703 0.027832 -0.011353 -0.047363 -0.146484 0.051025 2.54E-4 -0.183594 0.605469 -0.113281 0.246094 -0.04834 0.00325 0.163086 -0.173828 -0.195312 0.249023 -0.339844 0.201172 0.269531 -0.21582 -0.223633 -0.192383 0.265625 -0.100586 -0.197266 0.100098 0.046875 -0.137695 0.134766 -0.027466 -0.005249 -0.004517 0.009521 0.100098 -0.089844 0.114746 0.271484 -0.031738 0.052002 -0.34375 -0.070312 0.010376 -0.012085 -0.195312 0.041504 -0.166992 0.219727 0.259766 -0.304688 0.099121 -0.392578 -0.11377 0.148438 0.052734 -0.271484 -0.129883 -0.241211 0.062988 0.002365 0.129883 -0.152344 0.026245 0.308594 0.19043 0.09375 0.123535 0.186523 -0.056885 0.07666 0.029297 -0.091309 0.027344 0.025635 0.084473 0.091309 -0.457031 -0.332031 -0.291016 -0.027466 0.128906 0.109863 0.06543 -0.12207 0.287109 -0.151367 0.168945 0.086914 -0.390625 -0.059326 -0.10498 -0.042969 -0.191406 -0.322266 0.092773 -0.083496 0.253906 -0.277344 0.172852 -0.371094 0.238281 -0.178711 -0.140625 0.141602 -0.209961 -0.056396 0.179688 -0.189453 0.149414 -0.110352 0.140625 -0.123047 -0.083008 0.24707 0.206055 -0.080566 -0.036621 -0.180664 -0.132812 -0.06543 0.01416 0.176758 -0.199219 -0.066895 -0.059326 0.333984 -0.163086 -0.080566 0.073242 0.178711 0.071289 0.19043 -0.057861 0.094238 0.099121 -0.044434 -0.335938 0.085449 0.115723 -0.082031 0.206055 0.449219 -0.111816 -0.102051 -0.106445 -0.130859 0.104492 0.158203 0.219727 0.119141 0.0354 0.237305 -0.324219 0.182617 -0.165039 -0.244141 -0.112305 0.088379
criterion 0.032715 0.037598 0.070801 0.359375 -0.083984 0.158203 0.287109 -0.058105 0.051758 -0.136719 -0.083008 -0.480469 0.425781 -0.173828 -0.133789 0.472656 -0.014282 -0.388672 -0.507812 -0.204102 -0.085938 -0.146484 -0.178711 0.341797 -0.008179 -0.164062 -0.355469 0.083008 0.048828 0.28125 -0.037354 -0.431641 -0.072266 0.099121 0.039795 -0.0625 -0.154297 0.130859 0.246094 -0.094727 -0.136719 0.011963 0.036133 0.146484 -0.061035 -0.047119 0.036133 -0.169922 -0.259766 -0.049072 -0.082031 -0.106445 -0.345703 -0.084961 0.180664 0.032715 -0.326172 -0.1875 0.115234 -0.03418 0.136719 0.070801 0.211914 -0.028931 0.057861 0.010559 -0.033936 0.119141 0.037598 -0.166016 -0.308594 -0.240234 -0.03833 -0.200195 -0.087891 -0.330078 0.00528 0.087402 0.038086 0.34375 -0.034424 -0.283203 -0.142578 0.124023 -0.040527 0.094727 0.089844 0.177734 0.233398 -0.049805 0.21582 -0.100098 -0.196289 0.388672 0.120605 -0.174805 0.233398 -0.191406 -0.137695 -0.074707 -0.018188 0.263672 -0.193359 0.091309 -0.074219 -0.066406 -0.121094 -0.263672 0.136719 -0.199219 0.351562 -0.300781 -0.208984 0.128906 0.376953 0.001831 0.053467 0.016113 0.024048 0.067871 0.034668 0.106934 -0.203125 -0.023315 -0.314453 0.408203 0.12207 -0.041748 0.117188 0.12793 -0.00106 -0.318359 0.049316 -0.021362 -0.15625 -0.038818 -0.298828 0.310547 0.098633 -0.128906 0.164062 0.157227 0.239258 0.079102 0.054443 -0.08252 -0.122559 -0.015625 -0.242188 -0.169922 -0.263672 0.330078 -0.145508 0.091309 0.001091 -0.132812 -0.155273 0.152344 -0.044189 -0.242188 -0.034668 -0.392578 0.253906 -0.100098 -0.265625 0.155273 -0.104492 0.154297 0.002716 -0.048096 -0.117188 -0.201172 -0.261719 -0.121094 0.166992 -0.078125 0.271484 -0.566406 -0.141602 -0.010437 -0.275391 0.027466 -0.039795 0.082031 0.171875 -0.062988 0.004761 -0.213867 0.141602 0.100098 -0.435547 -0.15918 -0.228516 0.012207 -0.15625 -0.265625 0.036133 0.097656 0.087402 -0.283203 0.030396 0.298828 -0.300781 -0.07666 -0.273438 -0.164062 -0.001816 0.238281 0.208008 -0.186523 0.037354 0.201172 -0.141602 -0.09375 -0.498047 -0.063965 0.056396 0.332031 0.082031 0.416016 -0.211914 0.072754 0.283203 -0.041016 -0.136719 0.145508 0.167969 0.257812 0.006836 -0.005676 -0.189453 -0.069336 -0.181641 0.164062 -0.023804 0.05249 0.058838 0.008728 -0.263672 -0.038086 -0.150391 -0.043213 0.203125 0.075195 0.011536 -0.203125 -0.008484 0.269531 -0.224609 -0.106445 -0.052734 -0.165039 -0.03418 0.128906 -0.104004 0.079102 -0.226562 0.098145 0.225586 -0.089844 0.384766 0.031982 -0.24707 0.022461 0.328125 0.165039 0.094238 -0.152344 -0.183594 -0.546875 -0.119629 0.102051 -0.082031 0.328125 -0.255859 -0.180664 -0.101074 -0.186523 -0.236328 0.150391 -0.007874 -0.002258 -0.155273 -0.048096 -0.251953 0.066406 -0.099121 0.115234 0.024414 0.064941 0.087402 0.208984 -0.200195 -0.198242 0.009399 -0.103516 0.05249 -0.032959 0.072754 0.047852
sea -0.062012 0.12793 -0.011902 0.057861 0.064941 -0.108398 -0.177734 -0.048096 0.162109 0.166016 0.10791 -0.179688 -0.19043 -0.263672 -0.355469 -0.041504 -0.100098 0.102051 -0.029541 -0.152344 -0.075684 -0.283203 -0.015747 -0.322266 0.186523 -0.347656 -0.11084 0.154297 0.237305 -0.283203 -0.09375 0.145508 -0.087402 0.089844 -0.092773 -0.123535 -0.061279 -0.110352 -0.01709 -0.202148 0.010315 -0.03418 -0.004608 -0.014709 -0.082031 -0.233398 -0.21875 0.064941 0.051514 -0.024902 0.048584 0.271484 0.158203 0.0177 -0.208984 -0.038574 -0.022949 0.057373 0.233398 0.02417 -0.28125 -0.061279 0.0271 -0.028564 0.361328 0.050293 -0.188477 -0.036865 -0.12207 -0.150391 -0.351562 -0.03418 0.135742 -0.109863 -0.349609 -0.439453 0.191406 0.02124 0.010193 -0.112793 0.201172 0.007507 -0.002045 -0.233398 -0.023315 0.298828 0.018799 -0.196289 0.182617 0.207031 -0.040039 0.223633 -0.275391 0.037354 0.034912 0.176758 0.117676 -0.099609 0.353516 0.094727 -0.029297 0.039795 0.197266 -0.098145 -0.333984 0.131836 -0.058105 -0.175781 0.016113 0.101562 -0.213867 0.047363 -0.003677 0.053711 0.029541 0.141602 0.155273 0.091309 -0.062012 0.136719 -0.318359 -0.047363 0.111816 0.063965 -0.00528 -0.257812 -0.098145 -0.114746 -0.032715 0.07959 -0.120117 0.326172 -0.287109 0.353516 0.053467 0.063477 0.130859 -0.170898 -0.05835 0.131836 -0.145508 -0.107422 -0.066406 0.103027 0.060547 0.138672 -0.006409 0.113281 -0.18457 -0.082031 0.068848 0.090332 -0.157227 0.243164 -0.119629 -0.123535 0.351562 -0.158203 0.231445 -0.114258 0.037598 0.047607 0.161133 -0.094238 0.016479 -0.141602 0.089355 -0.062012 -0.040527 0.114258 -0.100098 -0.013428 -0.054688 0.011047 -0.068359 -0.175781 -0.166992 0.001602 -0.060059 0.106445 -0.126953 -0.020386 -0.328125 0.094238 0.035645 -0.050781 0.223633 -0.166992 0.318359 -0.028198 -0.012512 -0.119141 -0.039551 0.063477 -0.104004 0.400391 0.061768 0.322266 0.05835 -0.269531 0.114746 -0.046387 -0.202148 -0.320312 -0.069336 0.097168 0.07373 0.098145 -0.251953 0.028931 -0.148438 0.19043 -0.095215 0.04248 -0.1875 -0.011475 0.410156 -0.063965 0.031494 0.203125 0.151367 0.160156 0.183594 -0.116699 -0.060791 -0.15625 0.012024 0.308594 0.048828 0.056885 0.227539 0.095703 -0.05957 -0.209961 0.25 -0.019897 0.0354 0.101074 0.12793 -0.11084 0.171875 -0.231445 -0.179688 0.15918 -0.169922 0.125977 0.063477 -0.123535 -0.070801 0.072266 0.07666 -0.135742 -0.178711 0.291016 0.015137 -0.328125 0.071777 -0.11377 0.04126 0.087402 0.193359 -0.089844 -0.169922 0.040771 -0.096191 -0.019531 -0.478516 -0.230469 0.182617 -0.300781 -0.289062 0.261719 -0.043701 -0.017456 0.049072 0.034424 -0.378906 -0.073242 0.140625 -0.157227 -0.134766 -0.010925 0.233398 0.080078 0.249023 -0.018555 0.021118 0.061768 -0.06543 0.349609 -0.022827 -0.3125 0.047607 -0.12793 0.021729 -0.032471 0.067871 0.010315 0.241211 0.166992
dollar -0.273438 -0.287109 -0.22168 0.10498 0.147461 -0.019287 -0.028564 -0.107422 0.279297 0.095215 -0.023193 0.131836 -0.051758 0.097656 -0.061768 0.108887 -0.132812 0.072266 0.164062 0.061523 -0.180664 0.375 0.151367 -0.204102 -0.043945 -0.03125 0.15625 0.0625 -0.053467 -0.049072 -0.0047 -0.355469 -0.080078 -0.162109 -0.059326 -0.063965 0.304688 -0.067871 0.071777 0.192383 0.222656 -0.277344 0.503906 -0.004456 -0.149414 0.186523 0.25 0.333984 -0.223633 -0.096191 0.119141 -0.080078 0.044434 -0.210938 0.020996 -0.060303 -0.015869 0.045166 0.361328 -0.103516 0.0625 0.011841 0.057373 0.166992 0.092285 -0.208984 -0.050781 0.058105 0.158203 -0.151367 0.010864 -0.298828 0.05542 0.205078 -0.089844 -0.043213 -0.082031 0.337891 0.191406 0.012268 -0.137695 0.100586 -0.140625 0.390625 -0.097168 -0.062256 -0.005219 0.055176 -0.089844 -0.176758 -0.145508 0.208008 -0.191406 -0.105957 -0.178711 0.0354 0.176758 -0.102539 0.08252 -0.022949 0.051025 0.103027 0.417969 -0.045166 -0.101562 -0.043457 -0.09668 0.119629 0.116699 -0.130859 -0.084473 -0.008789 0.112305 0.294922 0.232422 0.0354 0.172852 -0.462891 0.02478 0.34375 0.177734 -0.075195 -0.101074 0.369141 0.224609 0.179688 0.088379 -0.020752 0.100586 0.166016 0.08252 -0.112793 -0.054688 -0.230469 -0.229492 -0.062988 0.025757 0.003632 -0.057617 0.053223 0.449219 -0.251953 0.07373 0.0625 -0.224609 0.141602 0.345703 -0.133789 0.049805 -0.025635 0.226562 -0.412109 0.164062 0.025757 0.166016 0.133789 -0.136719 -0.353516 -0.213867 0.011353 -0.017334 -0.136719 0.486328 0.065918 -0.079102 0.054688 0.24707 -0.038086 0.041016 0.0354 -0.231445 0.138672 -0.069336 -0.191406 -0.036133 -0.357422 0.061279 0.108887 0.236328 -0.116699 0.097168 -0.265625 -0.019897 -0.114746 0.124023 -0.249023 -0.057129 0.081055 0.172852 0.233398 0.077148 -0.099609 0.017944 -0.130859 -0.245117 0.029297 -0.176758 0.206055 -0.104004 -0.130859 6.29E-4 0.108887 -0.253906 -0.017456 -0.070312 0.02002 -0.099609 -0.013672 0.004547 -0.04834 -0.066406 0.031494 -0.255859 0.18457 -0.189453 0.053223 0.132812 0.173828 -0.388672 -0.02832 0.062988 0.119141 -0.249023 -0.00206 -0.157227 0.011353 0.139648 -0.038818 0.208984 0.030151 -0.265625 -0.120117 -0.244141 -0.125977 -0.169922 0.194336 0.188477 -0.125977 0.238281 -0.078613 0.146484 0.188477 -0.050049 -0.15332 0.007874 0.089355 0.129883 -0.142578 0.255859 -0.111816 7.74E-4 0.132812 -0.236328 -0.00885 -0.339844 -0.095703 -0.040527 0.135742 -0.216797 -0.073242 0.00647 -0.081055 -0.043701 -0.152344 0.021973 -0.036133 -0.289062 -0.464844 -0.063477 0.110352 -0.216797 0.078613 -0.147461 -0.063477 0.001839 0.076172 -0.144531 -0.007812 -0.130859 0.141602 -0.335938 0.291016 0.279297 0.034912 0.00592 -0.162109 -0.208008 0.129883 0.239258 0.07373 -0.193359 0.015625 -0.039795 -0.038818 0.186523 0.15918 0.117676 0.291016 0.062988 -0.251953
example 0.205078 7.86E-4 0.0354 0.100586 -0.054443 0.15332 0.255859 -0.21875 -0.003311 0.209961 -0.207031 0.0177 0.042969 -0.201172 -0.157227 0.188477 -0.037354 0.023682 -0.263672 -0.133789 0.223633 0.205078 -0.05835 -0.031128 4.92E-4 0.236328 0.116699 0.04248 -0.133789 0.18457 0.050293 -0.060059 -0.062256 0.076172 0.148438 0.061035 0.063965 -0.273438 0.148438 0.081543 0.157227 -0.026367 -0.11084 0.032471 -0.069336 -0.032959 -0.134766 0.043213 -0.142578 -0.25 0.098633 -0.11084 -0.069824 -0.246094 0.165039 -0.098145 -0.171875 -0.120117 0.121582 0.150391 0.041504 0.021606 -0.082031 -0.049805 -0.064941 0.084961 -0.069824 0.033203 0.143555 -0.131836 0.015076 0.108398 0.129883 -0.05957 0.065918 -0.071777 -0.15625 0.105957 0.00705 0.12207 0.157227 0.029785 0.085449 -0.117676 -0.088867 0.037109 -0.006012 0.004181 0.160156 0.015747 0.166992 0.016968 -0.045654 0.098633 0.165039 0.077637 0.104004 0.15332 -0.006958 -0.094238 -0.115723 -0.165039 -0.241211 0.086914 0.138672 -0.103027 0.019531 -0.068848 0.031006 0.075195 -0.134766 -0.066895 -0.131836 0.081543 0.160156 -0.068359 0.07373 0.094727 0.09082 0.093262 0.016479 -0.271484 -0.045898 -0.109863 -0.003265 0.180664 -0.003357 0.004852 0.376953 0.013306 -0.178711 -0.339844 -0.025024 0.1875 0.24707 -0.113281 -0.145508 -0.164062 -0.18457 0.167969 0.439453 -0.008789 0.047363 0.164062 0.164062 -0.036133 -0.070801 0.013306 -0.196289 -0.012451 0.151367 -0.009033 -0.177734 -0.08252 -0.069336 0.055908 -0.128906 0.115234 -0.046875 -0.170898 0.041992 -0.03833 0.15332 -0.05835 0.006226 0.21875 0.110352 -0.15332 1.8E-5 0.128906 -0.192383 0.188477 -0.214844 -0.052734 -0.057129 0.121094 0.080566 -0.151367 0.084473 0.056396 -0.11377 -0.135742 0.08252 -0.057617 0.119141 0.002548 -0.010925 0.023926 -0.025757 -0.017456 -0.216797 0.056396 0.162109 -0.142578 -0.171875 0.025024 0.067871 -0.077148 0.099609 -0.125 0.013428 0.220703 0.0047 0.049805 -0.175781 0.012329 -0.197266 -0.020996 0.039062 -0.007996 0.240234 0.032959 -0.15332 0.070801 -0.225586 -0.011169 0.255859 0.063965 -0.204102 0.269531 -0.093262 0.060303 0.049072 -0.030762 0.052246 -0.028931 0.099609 0.208984 0.035889 -0.09375 -0.089355 -0.121582 0.034424 -0.100586 0.045898 -0.036133 0.085938 0.044189 0.172852 0.013733 -0.025879 -0.092773 0.158203 0.024536 0.087402 -0.138672 -0.183594 0.135742 -0.134766 -0.045166 0.104004 0.03125 -0.095215 -0.062256 0.001999 -0.043457 0.013062 0.146484 -0.124023 0.034912 -0.112305 0.149414 -0.171875 -0.098145 0.211914 0.043701 0.042236 0.037109 -0.161133 0.029175 0.007355 -0.024414 -0.022827 0.005432 -0.064453 -0.032959 -0.105469 -0.072266 0.028564 -0.083984 0.080566 0.0625 -0.083496 -0.111816 -0.443359 -0.050781 -0.148438 0.183594 -0.065918 0.09375 -0.076172 -0.05835 -0.289062 -0.141602 -0.077148 -0.087891 0.097168 0.129883 0.125977 0.097168
journal -0.026489 -0.07373 -0.069336 0.125977 0.217773 0.19043 0.01355 -0.164062 0.225586 -0.171875 0.3125 -0.419922 0.245117 0.116699 -0.185547 -0.142578 0.198242 0.008606 0.255859 -0.390625 0.421875 -0.179688 -0.189453 -0.083984 -0.320312 -0.027466 -0.140625 0.464844 -0.248047 -0.189453 0.202148 -0.511719 0.173828 0.018311 0.02356 0.053955 -0.034668 0.129883 0.063477 0.048096 0.052002 0.237305 -0.209961 0.369141 -0.183594 -0.183594 0.15332 -0.050781 -0.203125 -0.040771 -0.271484 -0.161133 0.035156 -0.146484 0.065918 0.086426 0.010864 -0.261719 0.120605 -0.337891 0.328125 0.017456 0.046387 -0.116211 -0.100586 0.253906 -0.147461 0.108398 0.085449 0.130859 -0.376953 -0.00119 0.15332 -0.287109 -0.333984 0.001228 0.15918 -0.020386 0.012329 0.396484 0.045898 -0.148438 0.110352 -0.034424 -0.012878 -0.016968 0.104492 0.063477 -0.138672 0.146484 0.142578 -0.306641 0.139648 -0.494141 -0.066895 0.433594 0.375 -0.067383 0.118164 -0.186523 -0.197266 -0.285156 -0.194336 -0.292969 0.384766 0.104004 -0.277344 -0.192383 -0.089844 0.124023 -0.15918 0.092773 -0.043945 0.125 0.25 -0.277344 -0.067383 0.22168 0.373047 0.173828 0.093262 -0.326172 -0.173828 0.197266 0.085449 -0.077148 -0.018433 0.041016 -0.132812 -0.118652 -0.188477 -0.045654 -0.11084 0.125 -0.010864 -0.036133 -0.117676 0.324219 -0.176758 -0.061768 0.193359 0.089355 0.07959 -0.165039 -0.263672 0.054443 0.267578 0.203125 -0.010254 5.76E-4 0.160156 -0.10791 0.010803 0.181641 0.570312 -0.208984 -0.167969 0.230469 -0.229492 0.255859 0.349609 0.34375 -0.059082 -0.001244 0.279297 -0.068848 0.296875 -0.037598 -0.015869 0.016846 0.28125 -0.185547 -0.554688 -0.053223 -0.139648 -0.15625 -0.08252 -0.230469 -0.006226 0.077148 -0.071777 -0.152344 0.094238 0.106934 -0.24707 -0.049805 -0.197266 -0.069824 -0.117676 0.310547 0.443359 -0.242188 0.068359 -0.169922 0.146484 -0.048584 0.023438 -0.010742 -0.12793 -0.02063 -0.269531 0.248047 -0.141602 -0.142578 -0.146484 -0.072754 0.163086 0.056152 -0.023193 -0.086914 -0.289062 0.199219 -0.03418 0.075195 0.026245 -0.004059 -0.012695 0.138672 0.085938 -0.066895 0.253906 0.239258 -0.025391 0.055176 -0.130859 -0.170898 0.040771 -0.104004 -0.172852 0.082031 0.015991 -0.003967 -0.032471 -0.367188 0.171875 -0.121094 -0.02356 0.12793 -0.004425 -0.298828 0.349609 -0.298828 -0.244141 -0.072266 0.053467 -0.02063 -0.214844 0.00383 0.023438 0.24707 0.090332 -0.179688 -0.179688 -0.077148 0.018921 -0.166016 -0.020996 -0.175781 0.034424 0.062012 0.160156 -0.035889 -0.15332 -0.094727 -0.192383 0.045898 -0.445312 -0.210938 0.106934 0.057861 0.04126 -0.255859 -0.054688 0.178711 0.008423 -0.083984 0.121094 0.017334 -0.07373 -0.167969 0.427734 0.008789 -0.080078 0.1875 0.3125 0.005524 -0.0625 0.472656 0.102539 0.427734 -0.001305 -0.277344 -0.200195 0.320312 -0.038574 -0.058594 -0.151367 0.078125 0.189453 0.241211
laundering -0.032959 0.339844 -0.108398 -0.230469 0.083496 0.349609 -0.453125 -0.341797 0.279297 0.091309 0.324219 -0.060791 -0.181641 0.75 -0.482422 0.227539 -0.133789 0.523438 -0.251953 0.285156 0.04541 -0.261719 0.25 0.3125 0.035156 -0.125977 0.086914 -0.4375 -0.143555 0.126953 -0.15332 -0.332031 0.205078 0.19043 0.129883 -0.024414 -0.429688 0.074707 -0.079102 0.033691 0.098633 -0.554688 -0.064941 -0.219727 -0.05957 -0.292969 -0.070801 0.210938 -0.216797 0.061768 0.149414 -0.058838 0.371094 -0.28125 -0.165039 -0.141602 -0.120117 -0.043457 0.253906 -0.050537 -0.220703 -0.006195 0.149414 0.031738 0.219727 0.006195 -0.566406 0.109863 0.037598 -0.039795 0.243164 0.515625 -0.12207 0.011719 0.170898 -0.119141 0.412109 0.194336 0.192383 -0.173828 -0.625 -0.384766 -0.228516 0.296875 0.074707 -0.21875 -0.224609 0.367188 0.355469 0.265625 0.316406 0.291016 -0.006866 -0.208008 -0.12207 -0.423828 0.25 -0.511719 0.220703 0.332031 -0.226562 0.100098 0.020996 -0.351562 0.15332 0.143555 0.235352 0.326172 0.217773 0.263672 0.031982 0.007812 -0.337891 0.322266 0.163086 0.150391 0.257812 0.433594 -0.075195 0.310547 0.155273 -0.045898 -0.042969 -0.223633 -0.300781 -0.482422 0.308594 0.101562 0.051514 -0.199219 -0.15625 -0.023071 0.326172 0.212891 -0.179688 -0.029785 -0.1875 0.089844 -0.09082 0.007874 0.021484 -0.081543 -0.086914 0.143555 0.036621 0.015015 -0.163086 -0.207031 -0.016479 -0.134766 0.194336 -0.400391 -0.106445 0.365234 0.152344 -0.185547 -0.310547 0.369141 0.449219 0.058105 0.087402 -0.061035 0.099609 0.032959 -0.46875 -0.069336 0.196289 0.002609 0.515625 0.255859 -0.410156 0.273438 -0.049316 -0.145508 -0.142578 0.087891 0.033936 0.063477 0.130859 -0.099609 -0.037354 -0.167969 -0.212891 -0.063477 0.298828 -0.310547 -0.212891 0.179688 -0.222656 0.194336 0.151367 0.181641 0.519531 0.160156 -0.046143 0.011047 -0.296875 -0.357422 0.285156 -0.233398 0.237305 0.025269 0.066406 0.02771 0.05957 0.145508 -0.144531 0.291016 0.032715 -0.102539 0.357422 0.183594 0.138672 0.292969 0.427734 0.231445 -0.255859 0.287109 -0.251953 -0.234375 -0.12207 0.222656 0.371094 0.361328 -0.378906 0.515625 -0.145508 -0.142578 -0.227539 0.052734 -0.00824 0.198242 -0.275391 0.01239 -0.21582 -0.416016 0.292969 0.226562 0.242188 -0.186523 0.287109 -0.255859 -0.332031 -0.00708 -0.050049 -0.283203 0.055664 -0.147461 0.008179 -0.208008 0.380859 0.054688 -0.067383 0.353516 0.292969 0.259766 -0.031982 0.065918 -0.023804 -0.010071 0.357422 -0.158203 0.106445 -0.061523 0.199219 0.1875 -0.417969 0.178711 -0.283203 -0.046875 -0.062988 0.089844 -0.400391 -0.012573 -0.018311 -0.199219 -0.209961 0.196289 -0.179688 0.09668 -0.308594 0.115723 -0.046631 0.079102 -0.014709 -0.120117 -0.116699 -0.035889 0.233398 0.414062 -0.161133 0.199219 0.033203 0.176758 0.161133 -0.124023 0.117188 -0.53125 0.3125 -0.149414
